encog,BasicNetwork,java,3.3.0,1,1463866501389
[BASIC]
[BASIC:PARAMS]
[BASIC:NETWORK]
beginTraining=0
connectionLimit=0
contextTargetOffset=0,0,0
contextTargetSize=0,0,0
endTraining=2
hasContext=f
inputCount=279
layerCounts=10,76,280
layerFeedCounts=9,75,279
layerContextCount=0,0,0
layerIndex=0,10,86
output=0,0,0,0,0,0,0,0,0,1,0,0,0,0,0,0,0,0,0,0,0,0,0,0,0,0,0,0,0,0,0,0,0,0,0,0,0,0,0,0,0,0,0,0,0,0,0,0,0,0,0,0,0,0,0,0,0,0,0,0,0,0,0,0,0,0,0,0,0,0,0,0,0,0,0,0,0,0,0,0,0,0,0,0,0,1,0,0,0,0,0,0,0,0,0,0,0,0,0,0,0,0,0,0,0,0,0,0,0,0,0,0,0,0,0,0,0,0,0,0,0,0,0,0,0,0,0,0,0,0,0,0,0,0,0,0,0,0,0,0,0,0,0,0,0,0,0,0,0,0,0,0,0,0,0,0,0,0,0,0,0,0,0,0,0,0,0,0,0,0,0,0,0,0,0,0,0,0,0,0,0,0,0,0,0,0,0,0,0,0,0,0,0,0,0,0,0,0,0,0,0,0,0,0,0,0,0,0,0,0,0,0,0,0,0,0,0,0,0,0,0,0,0,0,0,0,0,0,0,0,0,0,0,0,0,0,0,0,0,0,0,0,0,0,0,0,0,0,0,0,0,0,0,0,0,0,0,0,0,0,0,0,0,0,0,0,0,0,0,0,0,0,0,0,0,0,0,0,0,0,0,0,0,0,0,0,0,0,0,0,0,0,0,0,0,0,0,0,0,0,0,0,0,0,0,0,0,0,0,0,0,0,0,0,0,0,0,0,0,0,0,0,0,0,0,0,0,0,0,0,0,0,0,0,0,0,0,0,0,0,0,0,0,0,0,0,0,0,0,0,0,0,0,0,0,0,0,0,0,0,0,0,0,0,0,1
outputCount=9
weightIndex=0,684,21684
weights=##0
##double#21684
   1.0306644457,-0.3061726591,0.4277263642,-0.0715587544,0.3287575349,1.5365326046,2.3721537929,-1.7679479555,1.2273138202,-0.2807429139,-0.5673725459,-1.1049161319,0.0022074494,1.6856049445,-2.3071295086,-0.1338275673,0.8123986124,-0.2960014214,1.0862813898,-0.3592040235,-2.2873438155,-3.4646287735,0.6333176877,-1.5746979256,-0.7826389061,6.127444033,0.0411722351,-0.1676697863,0.2513511037,-0.6797794715,0.8767484325,0.074297756,-0.4703674201,-0.8592603913,-0.1746919908,-0.1749286633,0.2069101267,0.3601080107,-0.0347086558,-0.4027964239,0.1694213954,-0.5872873391,1.3688943362,0.8982379274,1.1790418177,-0.125843909,-0.7433680721,0.1588363463,-0.4657407592,-0.2639319537,0.0553671519,-1.6928719197,0.2626531841,-0.8108875227,-0.5363233781,-1.1388283558,0.3379823504,-0.2884259748,-0.2507748881,-1.0934915847,0.6100968241,0.3855244203,-0.6343656929,-0.1261111204,0.862993554,0.8918397247,-0.085055957,-0.5649313684,-0.3207426854,-0.327605777,-0.8207293839,0.0253060479,-1.2371596263,0.6232002022,-5.6957235369,5.0740284446,1.1528619976,-0.0767332358,-1.1748461397,0.1153205401,-0.4924709971,-1.6551695158,-0.4868576993,-0.3032232168,-0.8960715321,1.3888271603,0.0631704764,-0.0337609044,-0.3197351292,0.8478497554,-0.5901398504,1.2320485626,-0.1742033479,0.4943177026,0.6157290748,1.6902019274,-0.0694171439,0.2674127561,0.6321139039,-0.636993275,1.1743949479,-1.3417570495,-3.0948937094,-0.1720626034,-0.7785624723,1.8698572454,-0.6508153743,-1.4453271673,-0.8128272491,-0.3612378572,-0.1502992406,0.9522366688,-0.4121796517,-0.1530807077,0.7872745933,0.2510246322,-0.5150372422,-0.0403603187,-1.2018373271,-0.9315817334,0.4968038495,1.3690362179,0.5043997544,0.1634681524,1.4230001,1.2456469939,-0.1231356388,0.0251625602,-0.9225784873,-1.2801600893,-0.0322134737,-0.4513702288,-2.2191138816,-0.7372810385,0.7470242806,0.1220223079,-0.5964457964,0.3196711554,0.0116748563,-2.441471293,-2.2731795847,-0.151885685,1.1696850613,0.2342195639,-0.2310831983,-0.0963387651,0.8229772423,-0.5476456448,1.3480292479,-0.8873423935,0.3074717393,0.1620526977,0.0114086295,-0.4827557577,-0.1798518888,-0.2766088758,-0.8415382127,-0.2421597261,0.0125832716,0.7145583698,-0.9219096688,-1.0201630154,-1.6236016429,-1.2698999789,1.2912485756,-0.5694279452,-0.1283601208,-0.3347046149,1.1112009119,-0.4441583878,-0.7527568594,0.4429977475,-0.4017846466,0.4198687202,-0.083585781,-0.3022627658,-0.0087239901,-0.6203309315,0.3378326709,0.373218227,1.3702010432,0.0759756293,1.3833892371,-0.2888464901,0.6378083765,1.4724510759,0.1360863827,-0.8340117128,-0.0581338659,0.7651542458,-0.444019759,0.1280110858,-0.9286350075,0.825249768,-1.3284991403,-0.2742271672,-1.2149873598,-0.0500701538,0.2220647364,-0.5436072819,-0.2166422563,-0.5090401239,-0.9179260986,-0.4179423136,-0.537145011,0.0699094741,-1.4248745325,-0.2625968316,-1.4898853679,-1.0053935378,-1.0957755026,-0.6721019189,-0.0772322249,0.216913051,-0.0803110743,-1.1222362314,-0.6635418933,-1.010603966,-0.515933801,-0.1517679285,-1.1037870814,-0.3855275086,-0.0306860402,-0.8734747727,0.2756736928,-0.7557400817,-0.4136284521,-0.4023019556,-0.2705988206,0.4119276498,0.9198195741,0.5613665585,0.099474452,0.1680588812,0.6188324074,0.1751768277,0.3394581461,0.0840673975,-0.6977944348,0.3831114303,0.0671693516,-0.6997791981,-1.0415276863,0.8164063441,-0.7894904486,-0.6884685653,-0.693328326,1.0456103788,0.0260184287,-0.2056137361,-0.4990566462,0.2901236934,-1.7370738297,-0.1172067998,-1.294082322,1.9044197479,-0.2364685186,-0.816911631,0.5161987182,-0.1834844762,0.4827730798,-0.6063165765,0.3036946259,-0.0134831385,0.7305930935,-1.3447287809,0.129903555,-1.2126819444,-0.777109641,-1.1209110167,-0.4232327472,0.4464219902,-0.377615314,0.1948337972,0.7645366197,-0.6433631834,-0.4715550262,-0.4613160189,-0.1865758346,-0.5964531006,-0.6830591453,0.4983651304,-1.0704227605,-0.7140431632,0.0719071159,-0.0936935251,-0.424766364,1.0543618836,0.1380067583,0.6106687908,0.7789307425,1.4384488067,-0.5651575857,0.5520784542,-0.3657599804,0.3015467067,-0.0256084802,-0.2701700752,-1.1330197642,0.5723109554,1.1043573343,0.0388263655,-0.1002362912,-1.4719571854,-0.6369898636,0.6111986807,1.574653139,-1.7175584705,1.7531137264,0.4914761282,0.4735361963,-0.1167436091,0.2041800359,1.1429982674,1.2957522131,0.0066358925,-1.6106876883,-1.0326503837,-1.340715046,-0.1295403618,-0.1436125201,-0.7256139299,0.5818663224,-0.2015072676,0.8741593356,0.5861823268,1.6881508065,0.7683376737,0.606310567,-2.152472228,-0.2635137698,-0.2055491266,0.2530357617,0.3918187287,-1.0936858384,0.4304835722,1.2710364484,0.0207328399,-0.2829647394,-1.2836264137,-0.9234799734,0.3979688714,0.1693288393,-0.8187612101,0.5169088504,0.1752775759,-0.5385186635,-1.7777731693,-0.1110591416,0.8107005746,0.6027935268,-0.9904899045,0.6942904775,-0.6599197398,1.8497815748,-0.0635003507,0.2336934522,0.0850189774,-0.1940398427,0.1543836945,1.4000303171,-0.1046831091,0.6139087965,0.2092933526,0.7225875001,-1.2846879204,0.7617943111,0.1377106113,-0.9501803996,0.5705623301,-0.7324695001,-1.260645133,-0.527542848,-1.4527678958,0.2119366827,-0.2796589204,-0.2202597765,-0.0056439435,2.569499209,-2.1998137358,2.3654195039,0.8402153325,0.0477426102,0.6811913327,-0.8475123509,-1.4740447932,-0.5965730157,-1.1401184271,2.2738152742,-0.3627022771,-0.2182738912,0.4343229527,-1.0458996213,0.4766859906,2.4822683166,-0.0141498112,0.7904530564,0.2291509059,-1.1699225312,0.7275361168,-0.4968966041,0.2304196706,-0.7666019205,1.0658868195,-0.2459162025,0.2105558764,0.803748501,0.6624238141,-1.7691149168,-0.5639550079,-0.1728991789,0.0861357024,-0.7602633591,-0.4827392759,0.9193176406,1.0888842878,1.085634915,-0.3423158758,-0.2931757613,-0.8544838978,1.0046490297,0.835209827,-0.0923195948,0.0398603385,0.795479729,0.6417916816,-0.6133727966,-0.9149557227,-0.3215428865,0.968658549,-0.3753250685,0.875570074,-1.1398430217,1.3189193855,-0.4431326371,1.0562195796,-0.8369268999,-1.0086828755,1.5873143595,1.342198971,-2.0327216158,-1.01483161,-1.8934251419,-0.1262514164,0.3052515521,0.1892907565,1.4217368483,-1.6500465533,-0.5794103485,0.6958961466,-0.0696003616,-1.3572838579,-0.9568031777,0.8193790366,0.8269671755,-0.2359288621,0.5812741343,0.0612314099,-0.1558992395,1.3837390476,0.6182045586,-0.6468372523,-0.8465860098,0.2744190364,0.1349096409,-0.0968139753,-0.9929056029,0.7346113827,0.2753145254,-0.4654907509,0.3101103506,-0.3791272819,-1.0065411532,0.8912020842,0.3683933481,0.2696494139,-0.3637847202,0.3400908892,-0.053952023,0.4111969563,-0.6891751045,-0.9642058922,-0.5923693585,1.9455621332,0.5745597407,-0.5831567463,1.9676158512,2.2674900897,-0.8719458902,-0.1090514004,0.645213357,-0.4491739013,1.6874304829,1.1706638389,0.0140043023,1.49749129,1.0766373344,0.3378489963,0.5942945441,-0.8706474313,-0.4333469094,-1.7728605417,-0.527878758,0.4299391808,0.5252785457,1.4997614797,0.1258236348,-0.2354266275,-0.0626516079,-0.2831418575,-0.8205624244,-1.0512540209,-0.3298174821,1.1959814878,-1.2380446478,0.1332173928,0.0749019764,0.5857640169,-0.5696854068,0.5934697305,0.8326670432,-0.9407907167,0.718512154,1.3005496648,0.7111126601,-1.2130971604,0.870808742,-0.6689063553,-0.0260344956,0.9687080241,1.4561923244,-1.517652663,-0.2804942649,0.6635880898,0.4663288408,1.651232057,0.1745000668,-1.0119369175,-2.3252835392,-0.2029938259,-0.1773804231,-2.4966610438,0.9422826262,0.6966987996,0.5751571321,-0.6393192185,1.3916427578,-0.6525128851,-0.0687197853,2.1503639221,-1.3856415014,0.1065799881,-0.2902580419,-0.325436054,-1.1551577086,-0.7006439209,0.1335278959,-1.7307092817,0.5956718872,0.5403141032,-0.4781678432,-0.2631787069,-0.6205470433,1.9143234315,-1.5462314871,-0.4396886951,-0.9984903437,-0.1815679489,-0.4648112849,-0.2614014448,-0.2959985153,-1.11513663,-1.6377732316,0.160158931,0.7197885246,0.2062318259,0.9608596425,0.3941721236,1.775045996,0.7918547965,0.4827200514,-1.6999546407,0.3442859611,0.2945560058,1.0007398102,-0.9345327646,0.9030246463,0.8268924221,0.0119297163,-1.1463041304,0.0898642185,-1.0385259077,-0.281438975,0.5784198727,-0.4789347787,-0.5805142871,-0.7721150271,-0.3022169501,0.8053189942,1.4243361179,0.1035657422,-1.9372361574,0.6036505136,0.3692070027,0.9577361287,1.0285836758,1.4576464642,-0.2311361924,-1.1346069272,-1.3223808087,-0.0868328249,0.4173768756,-0.3062477484,0.6487917454,-1.1819394547,1.2459525766,-1.3295779072,1.4493004636,1.2734873862,0.0725119563,0.5329351422,-0.9006728073,2.6493149575,0.4196236018,-0.9874501051,-0.9948892561,1.0789764358,-0.3549618345,0.7957335279,0.8719439541,-1.0644126339,1.6057139791,0.4334696746,-0.0223054101,-0.1758588611,-0.1296302885,-0.7544046922,-0.951285152,0.1374282306,0.2325396245,-0.3454479558,0.8970038609,1.2818376719,0.8663083662,-0.0928484604,-0.1351976209,-0.1736203589,1.4422768233,1.38904273,-0.4081082434,-1.2716693327,-0.2894352807,-1.0469982685,0.5372446598,-0.7046150508,-1.4128478933,0.145239759,1.3998284798,-0.1302267469,-0.4169426692,0.3032068507,0.8310372021,0.5070480047,0.3289902754,-0.3547216998,-0.8796053487,-0.4050313352,0.6475448547,0.1029345504,-0.0304169943,2.0947775079,-0.1656325086,0.1778709808,-0.9831388925,0.5988634429,0.4323351057,-0.2012710912,2.2579308586,0.5293920425,0.0464517554,0.8875176074,-0.2343533441,0.235500133,-0.7802904988,1.0795430559,-0.7412755339,0.1499234428,-0.2457397648,0.0907180324,-0.5523257063,0.9657468201,0.100499293,-0.0035055446,0.1816049276,0.7989821871,0.7888906511,0.3099781754,-0.1738882487,-2.9547859024,0.0526699808,-0.0369035722,0.0171713391,0.1105504188,0.7151094462,-0.9039917432,0.8810319936,0.7128781269,1.3246727174,0.4099331014,-0.2696108102,0.2076594291,0.7463881086,-0.2992223128,0.8860088129,0.51216667,0.292427564,-0.5510372084,-0.5633993853,0.5281069575,0.4992275948,0.2871973514,-0.605381711,0.2785878926,0.6636583566,-1.0806673157,0.9999125556,0.6525832503,0.9222067397,-1.0349583847,-0.739980587,-0.1992395802,-0.9443559132,-0.1217157571,0.5047173504,-0.8091126941,-0.8904854212,0.2454895071,-1.1424479064,0.2373570755,-0.3556033214,1.2201496811,-0.1628937896,0.2987138746,0.3237353929,0.4820948839,0.5507246687,-0.1062951054,-0.3382304642,-0.7223210852,0.3882402825,-0.2190007994,-0.1006051214,-0.7385589372,-0.4908264047,-0.7975843079,0.4157327851,0.265662159,-0.2108817044,-0.4892031782,0.9911131571,0.9537319543,-0.6149927377,0.5682165537,-0.2344540804,-0.6894188278,-0.9241469554,1.0909635724,-0.5022459273,0.557295094,-0.8730897728,-0.9958936593,-0.3440472159,0.6069561534,0.2191278567,0.463165815,-0.5388862697,0.5326472683,-0.0667600475,-0.2075909616,0.1244163023,0.2830831842,0.3181605281,-0.9800208,-1.0111504953,0.7179237304,-1.133763545,-1.0630745387,-0.6222584291,-0.1886298693,-0.7442050274,-0.3141412389,0.4910293081,-0.1647702715,-0.1721533135,-0.0429576776,-1.890254769,0.2274388809,-0.3460883908,0.922014249,-0.4699873389,1.2813855947,0.2827704299,-0.5166015201,-0.0496621839,0.9753530817,0.306207529,-1.0299702452,-0.5816907811,-0.2014419736,-0.3387797534,-0.2989593592,-0.1429740734,1.2915653251,-0.2801719327,-0.5437597822,-0.165123855,-0.1176168034,-0.3927988593,0.7901953868,-0.5260672793,-0.0972925077,0.111283059,-0.601157872,-0.0243334339,0.6235169442,-0.3801633184,0.7570702469,0.7417304244,0.3249859745,-0.5410600908,-0.9706469932,-1.3806484551,-0.0549566408,-0.6051749051,-0.7099997509,-0.387288166,0.0517021941,-0.6101700703,0.3341939474,-0.2585181286,-0.8969815294,-0.8248979453,0.3199032338,-0.1024455728,-0.6383497384,-0.8032322339,0.6311914041,-0.838661475,0.9455221009,-0.0895099715,0.0134148051,1.0703002558,-0.1475879154,0.3332973814,-0.5809034786,-1.1444529248,-0.2368716329,0.0878467071,-0.1936905058,0.908429735,-0.3003910803,0.6736925417,0.0823987822,-0.0704617643,0.2107099743,-1.4246749912,0.0590327417,0.5285639972,-0.799745865,0.654850491,1.0411741723,0.1794485873,-0.8842234862,0.2968110444,-0.954440304,0.2921756219,0.1775966231,0.3519630583,0.3231819208,-0.5491689811,0.0124289849,-0.1015780715,-0.4896429238,-0.2435490816,-0.1731253784,-0.1545330785,0.3225054049,0.7581981228,0.0525618684,0.5455309498,-0.2601143055,-0.3593817508,1.1955593315,-0.9365809317,0.4241247846,-0.6389539612,-0.5119006431,-0.9678965963,-0.2473936078,-1.0623417598,0.4739653681,0.9453763,-0.5383440851,-0.6597697023,-0.75260321,0.0761160466,1.1020146973,0.3809773953,0.3648591134,-0.6440306712,-1.4670021484,-0.4186187517,-0.2106681201,0.5748652849,-0.0304902283,-0.9204655011,0.6012071075,-0.024238483,0.0354378291,1.0480039433,-0.0681834902,0.8291556651,0.0261376294,0.946013365,1.1270958408,-0.9407472008,-0.3343472399,-0.6001718708,-0.737026062,0.7372521813,0.8233031308,-0.7354521801,-0.694858148,0.6339476497,0.1667752449,-1.3023166928,1.3389329872,-0.5053487371,-1.0993186137,0.3236236721,-0.3804742424,0.2505078452,1.3863302792,-0.982928547,0.6342128081,0.015437765,0.2140789402,0.8869198905,0.8912156047,-0.4344406725,-0.2030367905,0.537690549,1.2926527468,-1.1034914483,-0.0242224618,0.1820949247,0.2219830797,0.1735861153,-0.2734207025,0.1601925019,0.6054468657,0.8184628686,-0.4997509651,-0.2434684054,0.8875306428,1.123520945,0.7880583047,-0.7248204535,-1.7720378591,-1.0502782666,0.408114723,-1.7286094034,0.0147556163,-0.1083209091,-0.4213453534,0.35190968,0.6004219999,-0.6630581448,-1.3085408883,0.3371757893,-0.5232590445,-0.146068244,0.245345379,0.1012659287,-0.1188130891,0.2616015162,-0.9907825258,0.0934071586,0.3264608543,0.0151864774,0.3936787471,1.7165739379,-0.6700216598,0.3975086748,-0.3813359051,0.4576419249,0.6850192363,-0.4848269575,0.4329128174,-0.8433308233,0.7571308305,-0.3467326087,0.5551082286,0.7113520361,-1.214943707,-1.9348605996,0.1622113024,-0.2838406835,1.7596131111,-0.0726096622,-1.5229033825,0.6024981729,0.5854378604,-0.2687205485,-0.7686138256,-0.1312138416,-2.2632895957,0.3452318762,-0.23094758,1.0026968191,-0.1056927441,-0.110365327,-0.0455739941,0.7731225744,-0.747504268,0.3683254246,0.5320144593,0.4103724537,-0.3322238378,-0.5096972592,-0.4716843548,0.5505948747,-0.6564529837,-0.0435274145,0.584011856,0.2665011209,0.012016372,0.2161698472,-0.8144729489,1.2328960789,-0.362128743,-0.0535897677,-0.3249364555,-0.3883323931,0.9785755198,0.8758499102,-0.3811102926,-0.9306337167,-0.621342981,-0.7232595664,-0.0877504789,-0.4327112389,-0.1285201012,-0.1076416578,-0.9528653891,-0.7717583477,-0.492687951,-0.0121503714,0.4157837449,-0.7984850763,0.7389577315,0.3413169295,0.6116456135,-0.5292229595,0.5358405974,-0.5729759122,-1.0046066351,-0.756693551,1.0605600645,-0.7827210238,-0.6160745051,0.0346021632,-0.6934884411,0.7014603901,-0.0882505045,-2.3169909626,-0.6639681998,0.2265077375,0.3151375875,0.5731506371,-0.4481585279,0.8607262959,0.213332372,0.598664985,0.7466495011,0.6069158961,0.4141431836,-1.1912957334,0.5621966542,0.005733213,-0.0645036468,-0.7726367786,-0.4678829228,-0.1380449219,-1.4710517677,0.5990202434,-0.194224747,-0.7451882215,-0.6750457749,-1.49214164,0.6281696027,0.4484320334,-0.6555284953,0.3204653979,-0.1713003043,-0.175344468,-0.3948241577,-0.7236672319,-0.9371329707,0.3314696479,-0.7818384104,0.3366682142,0.0538827368,-0.8452767861,0.53721161,0.7934097596,0.5438739653,-0.2872040186,0.733711669,0.7844330449,0.3315834963,-0.2465720729,-0.8515813875,0.8562967382,-0.5529410638,0.3222559175,1.5240449197,-1.131357522,0.2158996122,1.1183696576,1.334802188,0.724788607,-0.2111961949,1.2592501158,-0.9245897227,-0.0345497288,-0.2481734722,-0.3386783195,-0.4636846894,-0.3884472006,-0.114726495,-0.6771376859,0.3332057092,1.0185510086,0.0289074081,-0.7631937478,-0.0531505365,1.3166737698,0.2496989738,-0.8130119654,-0.0158579101,-0.9481793914,0.0338370659,0.4140021709,-0.3069168092,-1.4266385919,0.2748392724,-0.7225800217,0.5664183492,-1.6646287986,-0.2584040058,0.3725026728,-0.7055022348,-1.0403699258,0.7601392154,-0.5235656189,1.2683999371,-0.0650858278,-1.0413613838,0.3132004912,0.6966112179,0.7545189918,-0.5124990039,0.33108706,-0.7798376986,-0.8945011157,0.3522518231,0.2973921096,-0.140151725,0.2430925141,0.133201872,0.6767138778,-0.4844105554,0.5981563217,0.427330024,0.4687229386,0.729924889,-1.283025305,0.1761138358,-0.2010358432,-0.599927483,0.5869360877,-0.119821464,-1.222600828,1.2708363804,1.4030527503,0.2553751458,-0.3889984925,-0.330496517,1.0778184926,-0.4595566541,0.7323039259,0.0690312506,-0.8813337148,0.3349022537,0.1498969107,1.3021065929,0.7038124841,-0.3622955778,0.0882591139,-1.4101694379,-0.8101810895,0.3818515553,-0.8944954332,0.4468429725,-1.8696793929,0.134168218,-0.3169327348,-0.9218271559,0.8349422837,-0.365951608,0.0257035348,0.4402352823,-0.9773513123,0.0876632293,0.1583161713,0.1323823686,0.1372667507,-0.9259998612,0.8998451943,-1.2806413065,-0.0711206394,0.6141459283,-1.5822483587,-0.277952935,-1.0865700569,0.1687028832,-0.7212993627,0.6260159191,-1.2777175328,0.1506317756,-0.671000457,-0.6467796794,-1.2277839448,-0.6445337668,0.8584266715,-0.7086117112,-1.448075193,-1.7544658531,-0.0820026497,-1.6013388607,-2.1766220055,0.2292972089,0.1179470215,0.7386322334,-1.0361406917,-0.9877025118,-0.6367438598,1.7959694534,0.7704772744,-0.9669616339,-0.2023768414,-0.0001038477,0.6238008911,-0.1812710553,0.4626185708,0.2202213371,0.8445504143,-0.0996809233,0.5687763074,-0.5377403228,-0.8619525414,-1.1238428963,-0.3860529439,-0.2272952823,-0.8579823706,-1.4559198572,0.3571892783,-1.0664614566,-0.3316931745,0.0040388957,0.2203826097,0.0085673132,-0.2497093607,-1.1064313299,-1.6960961933,-0.1423442043,-0.2157375723,-0.6802079701,-1.0234075903,-0.3693577966,0.0346557213,0.8318391281,-0.2128027707,-0.2760223951,0.6789393449,0.5344236358,-0.9850513646,-0.8197467726,-0.2450421951,0.0413010511,-0.4748702715,0.2433909019,0.0074454013,-0.710784564,0.6654502584,-1.0740070332,-0.6119680065,-0.148121513,-1.1615127578,-0.3584949657,0.4682903552,-1.4663163984,0.3523547148,-1.2542026958,0.3589735477,-0.2125929005,-0.7258755064,-0.3255562444,-0.7761449825,-0.1189208016,-1.5157684577,0.4929268251,-1.0078387313,0.0932868685,-0.502608817,0.2360851935,-0.5580637442,-0.2007177942,-0.4829824605,0.7306335978,0.1712818608,-0.8714190506,0.0280773615,-1.3917493446,-0.8627094481,0.0378419855,-0.1651264386,-0.5478497116,0.5801166053,-1.0202074994,-0.4444542839,-0.3432405112,-0.336252972,0.7764929956,0.2129924684,0.4792030272,-0.2831989155,0.1114685346,0.017997951,-0.0146095835,0.134186489,-0.2982799729,-1.3267896615,-0.1180799846,-1.5126368115,-0.1838907148,0.0018256651,-0.7105924935,-0.4262656562,1.2170948202,0.2180870962,0.463808362,-1.078869859,-0.1240616467,-0.5009530657,-0.7066239621,0.1413283139,0.0122077159,0.4363682481,0.262053769,0.9707894639,0.8056805164,-1.1344727668,-0.585949669,0.7399820131,0.1380474978,-1.0141578321,-0.1007427523,-0.1290399881,-1.2316215449,-0.8912108839,-0.1101911247,0.0151844184,-1.0502173824,0.4973035297,0.2863880998,-0.2688610378,0.8390355132,0.1483181353,0.6730191335,0.3136710982,-0.4517354488,-0.8628186731,-0.0205285605,-0.4688802465,-1.225072298,-0.083232487,0.68439098,0.7622059078,-0.4559184645,-1.0701768836,-0.6322501062,-0.0491917458,0.1089180428,0.7390571058,-0.4022846742,-0.621208589,-0.3210415031,-0.3982774051,1.4347274988,-0.5524315787,0.8430967204,0.6061891238,0.4787199584,-0.7021182465,-0.6827763883,0.9708499275,-0.0752953038,0.2532491017,0.9768992644,0.6744339212,1.5243170292,0.0575328468,1.053061514,-0.5225184068,0.3423258275,-0.3097859676,-0.2932691357,-0.6332710756,0.077466112,-0.235084759,-0.219582106,-0.5323439568,-1.207716047,-0.1605636641,-0.5419152477,0.1013403583,0.364409797,-1.2677832715,-1.7210162662,0.4569561846,-1.2620549508,0.2192192677,-0.7427024087,-0.5687015293,-0.4989295829,0.9290087808,-0.6877763414,-0.4988064358,1.0476438908,-1.3113116881,0.8023685164,0.1974065839,-0.2331470396,-0.1703372705,1.1997519169,0.021984817,-0.7686539074,0.9226025715,0.0022090488,0.2176300775,1.0274724674,-0.9431352232,1.341657922,-0.1015524865,0.4806059952,0.1182929039,0.202781004,-0.5485521598,-0.5701541817,1.0242092351,-0.1437863877,-0.4045832141,0.503947572,0.7211802848,-0.006486591,-0.9262346936,-0.5249945942,-0.0314977579,0.355169689,-0.2572905515,1.3304046555,-0.0592786387,0.3113708573,0.5549003116,1.4389012046,-0.8083983282,-0.4358333032,0.4942167172,0.1148634751,0.6748307836,1.0102676264,-0.4465771439,0.6396750176,-0.1499409526,1.0243873221,-0.4674981542,0.4783249652,1.0012359703,1.069408506,-0.0646974838,0.9831796047,0.5219875682,-0.6312397153,-0.3451153864,0.9431806762,-1.0963473767,0.0835859111,0.0325635813,0.7637723406,0.5221458537,-0.2099010581,0.7143914428,-0.5561143486,0.1683470067,-0.1632295529,0.4173906922,0.1699498049,-1.138908369,1.5067412264,-0.6069095727,0.2682559869,0.2665141214,1.6574644257,1.9378018761,0.1296030842,1.2426493921,1.8520734613,0.5760563449,2.175308616,0.4444128708,-0.3024658605,0.0969209782,-0.3934297818,-0.075264795,0.8492522639,0.4333270305,-2.1571459627,-0.7422278811,1.1842226389,-0.5811695474,0.8255142386,0.8017062059,1.4911472582,-0.6685517102,0.5376318732,-0.1037240759,-0.4052645586,0.8192360669,0.0547286274,0.8287567354,1.8400143671,-1.7137917017,0.7595968001,0.6422916168,2.3142613715,-0.3133874486,1.1417575884,-0.6710083202,0.0157533494,-0.1854959036,1.175601017,0.1429112701,0.8062516731,0.5749758076,-1.4184726533,-0.3548364803,0.3595420558,-0.3844955585,-0.1935697905,-0.7820308946,0.5962995793,0.96540283,-0.9394992562,2.2114022292,-0.9988915565,0.987372932,0.483628605,-0.8976230345,-1.8258292372,-0.1963061941,-0.9076658537,0.904282407,0.3450230522,-0.6853300214,-0.2682879078,-1.7844726055,1.8985346723,0.392810191,0.5921601628,-0.9039206467,0.2049574591,0.9490462448,1.0721150588,0.435289668,0.4896234447,-0.0240306676,0.7616879982,0.4684294972,0.5600078406,-1.5355836949,-0.1336445265,-0.1565843973,0.769450072,-0.4383493064,0.3376121245,-0.6419086124,0.8085683305,-1.0402472231,-0.2398486858,1.0360098298,-0.5354715795,0.7185120876,-0.0991225272,-0.3422889643,-1.6532454491,0.4863190484,0.2450236518,0.4965817765,0.5316733151,-0.3524733673,0.6651804455,0.1138002675,0.7909422191,0.3980656683,-1.2209325295,-0.936037884,0.0301347454,0.2954330891,0.3897059375,-0.7768791356,0.1907161029,0.9639089156,-0.7149273947,-0.8465674012,-0.0636333101,1.4228311395,0.2262859444,0.147293178,0.8722741469,0.488895368,0.942122802,0.7859366337,0.3087084984,1.1194849298,-0.2319976145,-1.0773491838,-0.0218963113,0.7345486685,-0.8713999685,-0.0631480189,-0.8123384568,0.2614200713,1.1057251367,-0.3279107707,-0.1873206514,-0.2824301838,0.0061652896,-0.7891438679,1.2232299831,0.2313207904,-0.0615506629,-0.4538887752,-0.27338376,0.1248160466,0.0056776985,0.0726061358,-0.4974435416,-0.4191241286,-0.2168838516,0.2375941628,2.03428406,-0.7125195868,-0.4043492641,-0.8790790786,1.1684624706,-0.1562317394,-0.3033283311,-0.9260518058,0.1784651656,-0.6274725558,0.103793377,-1.3435701963,1.2477576533,-0.8501851263,1.014930072,1.0958129041,0.7422501943,-0.857156734,-2.5794773697,0.569016738,-1.6783880697,-1.5499866653,-0.2100136871,-0.6556506544,1.4820271324,0.7430272644,-0.7279023887,-0.30471746,-1.5251418223,0.154317194,-0.5746755891,0.0866838918,-0.9996807375,0.5980609533,-0.488530986,-0.8246217835,0.4317307867,-0.1111528486,0.1555205736,0.8948566414,0.8760138651,1.3799309757,-0.3352645901,-0.5698887833,0.7265365714,0.176782001,0.0289209431,0.2668140499,3.067072826,0.1434476359,0.2199898956,-0.2347034004,-0.0448853485,0.0889062863,-0.6197979419,0.4885519535,0.0296773266,0.1605863804,-1.0493010966,-0.0476202265,-0.782428651,-0.5455542356,-1.2657115006,0.6627373838,-0.2802348012,-0.5845395711,0.0494288318,0.5693699319,-0.9736764103,-0.3145768794,-0.064307496,1.0449524074,-0.2873350555,-1.6646915317,-0.7217400899,0.469135272,0.5348105979,-0.5530585144,0.9941099276,-0.7465408862,-0.9409801929,1.6462571936,-0.7660069142,-0.7893100418,-1.1664863905,-0.0312742755,1.0233426218,-1.0373050239,0.6351114867,-0.0516379641,0.3491270284,0.7035418571,0.2405420232,0.5836277305,-1.4190592871,-0.5625748443,-0.2034381555,-0.9370532619,1.3076747567,-1.582027609,0.3423307768,-0.0344921618,-0.1530029377,-0.0907098838,-1.3143678432,0.2846467154,0.9709551552,0.0586506422,0.4477883581,-1.3464611591,0.1631023403,-1.0703148826,-0.0880800617,-0.8131131802,-0.4505167196,-0.5443278908,0.8177150409,0.5772447156,-0.7756518665,0.8812630682,-0.951200356,-0.7725351545,0.5251116389,-1.4138943092,0.0705940682,0.546776435,-0.1900166131,0.3411377906,-1.8605202761,0.774512152,0.1729339743,0.3055937839,-0.247233044,1.2430455682,0.9237959785,-1.2687165745,0.3386219122,-0.4710247254,-1.9975169544,-0.3935727748,-1.3247910878,-0.5787114697,0.1470413214,0.4147517512,-0.7635719644,-0.0249419942,1.6473286131,-0.2035030208,0.7510453388,-1.5494881598,0.5394945915,0.7259412808,-0.8663648647,-0.2081982752,0.2668318047,-0.5972414395,0.0182347651,-0.9700157298,0.29370576,0.6477631225,-0.8234145635,-1.6313692955,0.5761981743,0.6553351083,-0.8787689904,-0.5164363854,-0.3155632497,-0.2506732724,0.6680034213,0.0173667982,-0.142358097,0.8357844117,-0.1716943358,-1.2661726424,0.4194896543,0.8852545725,-0.2714192416,0.9795806192,0.309715835,0.8650450686,0.9614513427,-0.1100889725,0.1804963658,0.9490542426,-0.3284450821,0.1794030864,-0.0716820604,-0.7205098375,-1.9803718903,0.688609749,-0.645669942,-0.6700175286,0.8216145951,0.2105031545,-0.6369451465,0.0947021142,0.723425375,0.2279845877,0.3481518634,-0.2538508908,0.0253109316,0.0445475171,-0.8764727698,0.1811640732,-0.2582139051,0.1215295442,0.5012135136,-0.1869674071,-1.5028435692,-1.6469168687,0.0704713693,-0.8678158447,0.7821310519,0.6556714055,-1.328214584,0.7166327557,0.1058740399,-0.6624632678,0.5984615699,-0.1912495283,-0.5269665832,0.9568359026,-0.6216303084,0.7998545085,0.0249922546,1.0782885323,-0.316321002,-1.0017955983,-0.5461100256,0.6079389242,0.3132131771,-1.4717466483,-0.4217089294,1.11998568,-0.5188489818,0.2513634923,-0.5714209039,-0.6595715736,1.0079922682,-0.2894704716,-0.0109047516,-1.0871565902,-1.0001423244,-0.54342437,-0.6928081882,-0.0153299755,-0.9810939432,-0.1317974247,0.4168202823,-1.3197259888,0.791157486,-0.4627875252,-0.0568648727,0.6673680122,0.3467000255,-0.9645046675,-0.8262234482,0.9861490579,-0.4719358326,-0.3687408763,-0.2639549764,-0.1460984445,-0.7023933969,-0.363841827,-0.4896633072,-0.0586461918,0.4351879323,-0.7592362118,0.2500077676,0.1904192616,-0.3632831665,0.6305545309,1.0845018899,-0.9121323361,0.9853621819,-0.2096882056,0.8128293445,-0.6434024412,0.348345139,-0.3921292717,-0.6233506768,-0.3091209545,-0.0837541377,-0.2570352549,-0.5422369953,-0.072230421,-0.5622885192,0.0131349265,0.0581744405,-0.3367596308,-0.3219093508,-1.055510179,0.5590477921,1.0814832625,-1.4402558921,-0.3922997763,-0.441914391,1.1830394658,-0.0966766112,0.2488097885,-0.4260195596,0.2205685003,1.1627443036,0.2944601599,0.3567700283,0.3502088201,0.2268630873,-0.3592325974,0.6532886999,0.3440889146,-0.7990345064,-0.0990467648,0.5514643072,-0.7457908344,0.8185859243,-0.3701276944,-0.1146208744,-0.3180844566,-0.8256848083,-0.5193222841,-0.0518002758,-0.0605195664,-1.3513694517,0.1048709238,-0.1407789678,-0.5810093782,0.4930265332,-0.2856309425,-0.7893301975,0.1881307069,0.2092019675,0.4712227761,-0.9809739593,0.9664314338,0.3978628529,-0.7072356215,-0.4558959899,0.2447326969,0.5529599943,-0.4208915667,0.8997029141,-0.6671764212,0.1327090129,0.3850736421,0.9460836093,0.2246611396,0.7553874086,-0.8979827806,-0.3929114905,0.7434038771,0.0290075498,-0.1158372429,0.3801968858,-0.2718490746,0.1007332132,-0.1575409746,-0.016643629,0.1563011637,0.5098247994,0.0798620037,-0.0910707145,-0.343821905,0.0367516199,0.4480723015,-0.8476062468,0.5463599499,-0.5843111136,-0.1591535182,1.3487085908,0.7558220205,1.3218131859,-0.4916744331,1.1933758388,0.4608675828,-0.30645284,0.6327278566
   0.3242447405,0.5474524408,0.0233142233,0.4845132358,0.9547456912,-0.1086166527,-0.3639073599,-0.2534658257,0.5078958998,0.53713102,-0.3942460442,-0.5760855738,-0.3990587626,-0.084556919,-0.4352219899,0.4284405356,0.6931037961,-0.3463129491,-0.958860816,-0.0285657332,0.3039377974,0.290584496,-0.2603776583,-0.0258887036,-0.284324411,0.6068559552,-0.410444223,0.3410083366,0.1404330508,0.557081531,-0.5646789153,0.6444899371,0.522984803,0.8874672534,-0.5573595204,0.4690910471,0.4560951666,-0.6825012151,-0.9321335591,0.1190162108,-0.8511995184,0.1030575565,-0.4998738875,-0.0700619477,-0.7409824496,0.0371024642,1.064500469,0.7082905253,0.1242179022,0.0305174591,1.1442103678,0.5323239874,-1.0765744358,-0.8552841189,0.0836408417,-0.2244326769,-1.1774373087,0.3884824322,-0.197802716,1.0254508898,-0.233357204,0.1213416087,-0.1094697177,0.237730788,-0.7708284915,-2.7067623883,0.6448972384,0.8060610304,0.0927036319,-0.2386141373,-0.6152126678,0.3947069506,-0.2729538387,-0.448909925,0.0585397361,0.4987308748,-0.5517316156,0.0807863974,-0.9065914614,0.9813334792,-0.0601298944,-0.1197174637,0.8625812847,-0.0589117746,0.2314008741,0.1047138238,0.0142009312,-0.7175404341,-1.5905814625,0.3435971812,0.2583214786,-0.4511279896,-0.5687581126,0.9817068135,-0.8051072282,-0.5055139978,-0.3128446027,-0.9543788488,0.1174539643,0.114043645,-0.5174216647,-1.0757129394,1.2948936069,-0.4552770039,-0.2706401748,-0.5028137057,-0.9589366346,0.0431968801,-0.6111390973,-0.2243779885,-0.9167095986,0.318401036,-0.3446151211,-2.0725618649,-0.749373919,0.2363823627,-0.1283552889,-0.8537240393,-0.5293265511,0.4922579213,0.2089325898,0.9943472681,-0.5158984527,-0.1245426599,-0.1673042104,1.2729653329,-2.5523702365,0.1938981327,-2.5898686036,0.9965869118,-0.3886553729,0.2504577492,-1.1477930897,-0.1595559319,-0.6007585055,0.4592211697,-1.1004474599,-0.6160827607,-2.4324476382,0.7078741216,-0.8169669346,-0.082958128,-0.3964270498,-0.7100350392,0.0372381737,-1.4652268142,-0.7993451568,-0.1137384448,-0.9391780601,-2.4061165352,-0.8250405452,-0.0546706471,-0.5233383288,-0.9758207443,-0.8994289064,0.0805996414,-0.0833643571,-1.0334267869,-0.465767099,-0.5185294267,-0.5623472167,-1.7386174341,-0.445881992,0.9267195135,-0.6544487317,-0.4056040011,-0.6789240242,-0.1012171304,-0.0515379754,-0.0636720799,-0.7342670346,0.2521432283,-1.1899750674,-1.0688601908,0.1771171926,-0.3701156097,-1.0977382878,0.4821514035,-1.2264421983,-0.7013786451,-0.6501301577,0.7019957841,0.9200614244,0.3666675634,-0.6354744375,0.059682259,-0.5503413025,-0.3055049393,-0.898139416,1.0846585655,-0.2828169493,0.5654641392,0.0736375911,0.7142915559,0.6394944641,0.0216915772,0.3174111091,-0.181977697,0.0119698439,-0.6981381053,0.3094772284,0.0675087505,1.3841879643,0.51122646,1.2945430603,-1.1753224419,-0.9669512915,-0.7894115973,0.5587876268,0.2290351336,-0.1926595774,-0.6091216884,0.4310212715,-0.3318132923,0.0535476349,0.7557599437,0.4990919089,-0.3806950957,-0.5400023241,-0.1118229246,0.1220108432,0.4359855767,-0.1840549763,-0.194789949,-0.7992201301,-0.8308184242,-0.0795268406,0.2763024244,1.298675094,0.1817609405,-0.8748226033,1.2255664509,-0.6418300916,-0.6533164289,-1.0261608418,0.8284064707,-0.2070185263,0.7534901307,-0.3447245504,0.1997296592,-0.2277623123,-0.822856598,0.306477602,-0.3174827511,-0.1993422799,1.5429234178,1.8521319622,-0.367431242,1.2112733633,-0.2539848024,-0.4416935264,-0.6580392924,-0.2336846926,1.1773953589,-0.4303446655,-0.8374373092,0.423209199,-0.575895207,0.0262069757,-0.1914830616,0.6083945656,0.9383082636,-0.4554941862,-0.1734513506,-0.6114946352,-0.5442285741,1.0154923192,0.1150846744,0.4962869878,-0.097743004,-0.2541001714,-0.6513175468,-0.0855918042,0.8035158639,1.3332933064,0.5846050908,0.6598409932,-0.0497740159,-0.161740951,0.6108627019,-0.0341171708,-0.1863468752,1.2121559561,0.7277294842,0.9078248274,0.7044897747,-0.5810830442,0.1637660281,0.3256154586,-1.3737503031,0.0639382358,0.1017609186,0.3841796156,0.1567936206,0.6961961615,1.8971418848,0.6713979943,0.1680520487,-0.0343511893,-0.3025610418,0.5419564602,0.4055396842,1.6266602406,-0.0762090443,-0.2183199753,0.7186038861,-0.6416193354,0.8824148944,0.0246193619,-0.542983111,0.0544527877,-0.1459078748,0.1673608293,-0.7292247274,1.1413902912,-0.4351340661,0.6406092235,0.1540789532,0.817517622,1.1769117439,-2.2691611375,-0.7301884236,-1.7366304542,0.0167029311,0.2325264792,1.1080321075,-0.7408868664,0.6375088452,-0.1718771659,0.838548947,0.2294954671,0.308906067,-1.5078307004,0.1576329655,-0.2132400079,0.4814359651,-2.0867233928,0.2208099686,-0.6181379376,1.2943662743,-1.3431049161,0.5070608436,0.1359513525,0.3536736352,-1.7287137149,-0.1288835418,-0.0693047628,0.1323991958,-0.390347158,-0.0848486513,0.2028144378,-0.3032233163,0.0873331877,0.8455713582,0.3011249347,0.1703560453,-0.133012657,0.1925705622,0.1109172817,1.2641116474,-0.5352061282,-0.466544466,-0.1609678101,0.2634445301,0.9434913459,-0.4684221111,0.9528511806,-1.4559317268,-0.4591635116,-0.1046293724,-0.6319003386,-0.3841310317,0.4385627803,0.8275205277,-0.7466875439,0.4408384693,-0.0777228566,0.0252898921,-0.4036577242,0.8553027121,-0.2568969871,1.2694100777,0.984855083,-0.7907934554,-1.5245396227,0.8373038708,-1.3151207076,-0.0116579447,0.8531940638,0.516447946,0.5519906291,0.3739172541,-0.9448951926,-0.5004173524,0.8583939869,-0.1534900664,-0.510044814,-0.9565264417,0.039077035,-0.0718324364,0.0873014878,0.2908637606,-0.3013615912,-1.2852469484,-0.6035677696,0.3944587608,-3.2030287134,-0.3169031836,-0.7932901122,1.0470481454,-0.3548493408,-0.3149087506,-0.0028862035,1.7387001691,-0.9983873742,0.4192781556,0.4766569509,0.2373501223,-2.5492546036,-0.3075437785,0.1183880945,-0.1848049735,0.053599523,0.5477603857,-0.2974394841,0.2813322296,0.3557016249,0.0157571863,-1.2552364557,-0.8692682021,0.1837986845,-0.9691316805,0.1921600104,0.180039237,0.5744686032,-0.1006273412,-0.3557965345,-0.2822443034,1.3840906029,0.1142076968,0.1564477468,-0.859333502,-0.0617649284,-0.5797128741,0.8164257796,1.1492619269,-0.1914636045,0.2759232542,0.3833876938,0.8611340882,-0.2731705486,0.1372938416,0.1871500087,-0.1530571125,-0.2092038976,0.7368045043,-0.3780776244,-0.0808938724,-1.2911786974,-0.070235623,0.0238285593,0.7354814126,0.835566108,0.1703425337,-0.8950650611,-0.1218478819,0.5582348561,0.9395878442,-0.8506153797,-0.6129952811,0.3773763755,0.81513217,0.0759660932,-0.2038799974,0.9678427803,-0.1497076498,0.3597825635,0.1589894991,1.0558668843,-0.6565738895,0.3368488729,-0.1628745844,-0.6497427122,-0.2320217278,1.1330362675,-0.1082010712,-0.5909984225,0.1102512268,0.9911300662,-0.5283678482,-0.8336781725,-0.554283479,-0.9374690477,-0.0882296658,0.7791552702,0.2297184465,-0.218564524,-0.2755645405,-1.3206064535,0.6701033159,0.3930387543,-0.1972316906,-0.2015776386,-0.0936439926,-1.3570804526,-0.4202821627,-1.35827351,-0.897932576,0.0046190023,-0.1705037549,0.1651041033,-0.5885301169,-0.0936101177,-0.0057139842,0.1894485393,0.6340558694,-0.5031949242,1.0485747981,0.1378064024,0.1384245851,-0.118000033,-0.4051067098,0.4643937377,-0.4004938248,-1.0023844462,0.7430558974,0.9429721792,0.5055010707,0.2367656606,-0.0461841453,-0.1401023471,-0.5748372782,-1.1248017672,0.7911231332,0.9889062872,-0.5793799441,-0.0784157196,0.2780701451,-0.3294337503,-1.0101319949,-0.3088117545,-0.8897144657,0.2183826819,0.2832495624,-0.6167825581,-0.975687003,0.6592850545,0.2487516948,-0.2343920951,-0.2741128763,1.1620622205,-0.9879769211,0.306450645,-0.0323732686,0.7043037499,0.2785235208,-0.917437642,-0.1222878891,0.1728995654,-0.469858125,-0.2524495229,-0.8687759986,0.390227666,1.0215110779,-0.5545684181,-0.5837475483,0.6194570681,-0.6669889901,1.0357906896,-0.3982219615,0.0189626261,1.4326261798,0.3857852011,-0.833332669,0.348441474,1.4499591568,0.9521753866,-0.2510551338,0.0141373014,0.5882601239,-0.4247437016,1.2886251843,1.0455606917,0.284533281,-0.9367625423,1.4705223219,1.0184054693,-0.5952043534,-0.0233717064,0.6258561636,0.3678821233,1.0149147348,1.1164983127,-0.6995975232,-0.1317621311,-0.318186425,-0.9263421806,-0.6200939482,-0.6360435995,-1.2501856112,0.5465639777,0.1710218782,-1.0307634326,0.6649523452,-0.8735730091,-0.6087722718,0.4128913921,-0.3579817381,-0.4144679642,-0.7034822717,1.3167047795,-0.5255537563,1.2626083254,0.7346310101,0.8188384694,0.7112208918,1.6067083715,-0.8629880791,0.9547821913,-0.1462542332,0.0729282572,0.8602429569,0.6340716702,-0.3489273722,-0.5007599906,-0.2014500506,-0.194476923,-0.7794511315,0.621226198,0.2485785807,1.1244115367,0.3051697043,0.5298170198,-0.707816948,-0.3112853627,-0.6320658214,1.6370967985,0.754019461,0.4792256303,-1.0448922056,1.0864052658,-0.1729215075,0.5978358847,-0.4960773496,-1.4912738346,-1.1589196718,1.0245599148,0.4334974552,0.9616263767,-0.7227173955,-0.5734146381,0.4015912773,-0.4180770787,-1.0948645234,0.7701704156,-0.5467057365,0.0336880087,0.127256656,-0.4393037889,0.0491924855,0.1701955384,0.441240877,0.3943513631,0.6570593637,1.8588173352,0.4876168694,0.2578469006,-0.6302343565,0.0368830088,0.6409333946,0.1658341918,-0.4238689115,-0.3232463787,0.1735495882,-0.7990903581,-0.7628785847,0.6097207859,-0.0580132369,-0.4154817996,0.2227895248,0.1203097443,0.7071661122,0.9192902437,2.0329810468,-0.0216061013,-0.83849856,0.8889238606,-0.4080095139,-0.5718065745,0.5551838875,0.3999269084,-0.7002610283,-0.6868296601,-0.8433957869,-0.4498150187,1.8759873387,-0.7761880574,0.3796739968,1.5332967196,0.0497978351,-0.2061582388,0.8562838001,-0.3996334052,1.1164605425,0.1245892919,0.1223265217,0.6064792098,2.2883460819,-0.6531108793,-0.5943429991,0.0903222183,0.8637286367,-0.5861631494,0.8784897508,-0.6823942408,0.2583537187,0.4525391636,-0.7523348659,-0.301097393,1.8637201771,0.3171939175,0.0744543681,-0.6347939556,-0.8754895034,-0.7715137383,-0.6303218737,1.2809137788,-0.5555012388,0.3635742675,0.4374659661,0.2342758657,0.4216982396,-0.7379078583,1.0329969441,0.5792606967,-0.7899418772,0.3557933571,-0.1994969834,0.9434478871,0.0390639383,-0.9148035051,0.4457848604,0.2167723082,1.2230840884,1.1055450149,1.4940341062,-0.1508350227,-0.0718019925,0.1639948513,1.0564511214,-0.2156589573,0.8031178556,1.0000927555,-0.5280035513,-0.0047214379,-0.7360312192,0.5940907476,0.299987403,-1.9063460797,-0.7421857258,-0.8444118587,0.2867115855,-0.0068769128,-0.5740123808,-0.477741694,-0.2283391075,0.6363580572,-0.3790192778,-1.1842613402,0.2562904592,-0.2040613101,0.8791604822,-0.4921786908,0.1271511429,-1.443679417,1.1595428524,-0.5312190602,1.0038507127,0.1582992967,0.0121280877,0.7814946049,0.2388366355,-0.0105888799,1.1257073849,-0.1737407192,1.0100112965,1.2021826482,1.3731287034,0.6303930672,0.0383534675,1.4005299143,0.8441776068,1.5532386726,-0.24251404,-0.0497628834,0.2273449746,0.0229642058,-0.5030722872,0.6157793627,0.1046055812,-0.5064640631,0.0521355164,-1.3234091866,0.0779386594,-0.7028300266,-0.6154123126,0.9808537225,0.3873970182,0.0416509565,0.2293521078,0.5524067097,-0.5522297006,-0.2279650637,-0.9998145098,-0.5176484424,1.1962229769,-0.1384841507,1.200252755,0.3701104973,0.982241291,-0.4154371453,0.9419954246,1.0580182074,-0.1542666522,0.1391702511,1.4188275908,-1.2221107188,-0.7639434662,0.6001153504,0.4560490503,0.6841924881,0.5009489721,-0.6159692724,-1.2570725761,0.009739639,-0.4312254255,-1.1430214666,-0.1100838988,-0.0546268074,-0.0513771196,1.0806332079,-0.4553029834,0.3110733295,-0.556747487,0.8227432263,-0.215012712,-0.5757304173,0.4512048915,-0.3882850229,0.0089150297,-0.4560351347,-0.5727642545,-0.7393658899,-0.7328391317,0.5339364648,0.7166451699,-0.1826335912,-0.2558687729,-1.0874494177,-0.711175127,-0.6648740302,-0.0957859407,-0.204359074,-0.2702315344,-0.9691163045,0.2944222954,0.1200934995,-1.2992167109,-1.0512609669,0.6118018381,0.0475113669,0.6578286592,-1.2324640988,-0.7617959493,0.4919896698,0.5152170504,-0.0957316016,-0.4876576802,-0.8301430133,0.5333324928,-0.9938160446,-0.4537377498,0.424632671,-0.705301693,0.4588742064,0.5012602102,0.6093943064,0.6829179405,-0.3946242695,-0.8294393489,-1.7786658158,-0.3032714241,-0.3106446149,-0.6437098714,-0.1685000419,-0.7332438438,-0.8387251786,-0.419195283,-0.7254380951,-0.5420740626,0.2419531287,0.2703777838,0.4212076367,0.0466729553,1.0102664782,0.568413214,0.2841889983,0.0174002566,1.0008632689,-0.6210675441,0.7687375341,0.3636175104,-0.0845247982,-0.9793103884,-0.392963007,0.5137137985,0.1482482816,-0.8175339686,0.5949712717,-0.3562680244,0.2358481315,-0.0068184542,0.4522908067,-0.2682413811,0.1434546637,1.2596291577,0.0563587618,-0.7960502118,0.1219637164,0.5363754574,0.681019036,-0.2497166062,0.5149010348,-0.6589485671,0.7072937153,-0.657357657,-0.2487291761,-0.9324231069,0.5710231885,0.4654398221,-0.5654245944,-1.0585541969,-0.0224883655,0.080016813,-0.5218602795,-0.9113368225,0.3782138645,0.2806549131,0.7430983911,0.5048090172,0.6434921032,-0.2911812089,0.5463647484,-0.6337247664,-0.0862711441,0.2906331435,1.9421204058,0.3832264982,-0.5539872453,-0.9321001417,0.8020382788,0.3262762783,0.2424951053,0.1119619921,0.4335952342,0.7097702521,-1.5564712796,-0.952989855,0.2427529539,-0.7684445698,0.8391563567,-0.7743764374,0.0216373015,1.3716532473,-0.968726137,-0.8911506866,-0.6936308255,-0.9600731637,0.3199175881,-0.1321452529,-0.0663483208,-0.3346453021,0.3566165285,0.8868053721,0.1066115931,0.4144055413,-0.5380453138,-0.1612043112,0.5872960459,-0.457300692,0.1220220176,-0.8363209078,0.3995930742,-0.4870203575,-0.1504352456,-0.065824193,-0.2952697702,-0.810693632,0.4620551864,-0.4494471025,0.3136162741,-0.0245646043,0.4604192738,0.4212486223,-0.4259361307,-0.3026306191,-0.1009731343,0.3616768308,0.6130106693,-0.2674368632,0.7603911982,0.3138671506,0.8147201915,0.4851525754,-0.9714606285,0.3353890817,-0.0037818799,0.1152323568,-0.5145964824,-0.3192913441,0.6679378471,-0.3564682537,-0.6583210269,0.6293511183,-0.2122757431,-0.9556117784,0.3259621724,-0.9347590403,0.7316181392,-0.4921477953,0.5536072756,0.2367252346,0.9432669211,-0.0357366531,-0.5690511917,0.7552042926,0.1551586265,1.0792526519,0.3706002454,0.4358631027,-0.4570892528,0.058414571,0.0324756009,-0.2494927703,1.0665021386,-0.098861012,-0.3909615295,-0.3473560756,0.2411663496,0.0901029881,-0.6918039188,0.2102194781,-0.547010588,0.4296406061,-0.7979531643,-0.0928338641,-0.6079450933,-1.1043466094,0.9403022545,0.8789757426,0.3292301899,-0.7777101326,-0.1005451552,-0.8954740161,-1.0785597587,0.1469737245,-1.3339453734,0.3274004292,0.6378162926,-0.761641115,-0.6389339197,0.5132326737,0.8993201886,-0.5903153922,0.2116353961,0.45411996,0.66973019,0.5699099392,-0.2993832161,0.2998196249,0.1435326629,0.0900606872,0.6652578949,0.5403189498,-0.430615024,0.2903068974,-0.1622297478,-0.6989795387,-0.2904340227,0.638702654,0.4597154587,-0.8905298194,-0.3109385346,-0.4899918217,-0.7530647611,-0.4379418534,0.123542718,0.4696000497,-0.3238722498,-1.3389215168,-0.0155189408,0.0771672857,1.2037312048,-0.0226410295,0.0834946914,-1.2750864721,0.067988161,-0.4623043952,-0.2329451284,-0.4368798097,0.2727881385,-0.1201929331,0.2454046871,0.8534391299,0.8513868576,0.658904311,-0.3714840967,-0.4965093494,-0.6247471917,0.0844820337,0.131728556,0.9872049339,0.8909065907,-0.2464519378,-0.5895826212,-1.0568396795,0.5983422638,-0.1923963185,0.3930517629,-0.1519734346,-0.5652686298,1.1601286681,-0.2918013084,0.6842381037,-0.4092198264,-0.2916220893,0.7039911101,-0.0491979533,-0.2266368298,0.7229508875,0.0360920607,-0.7680059009,-0.545636447,0.4336967708,0.2059134091,-0.5179504778,-1.1881494694,-0.5993444987,1.0355739526,0.1950159863,-0.943313516,0.1680827076,0.7295567221,0.8149599655,-0.7881855065,0.2786649282,0.8270328118,1.533058592,-0.3073561658,0.4475337737,-0.0674109665,1.4786306158,-1.6346566033,-0.9364808273,-0.3527948939,0.2437152848,0.5649724013,0.1652722546,-0.3199223824,-0.7428589788,1.0216940634,-0.2650401271,0.5590973454,-0.3198483548,0.6646475241,-0.4735536793,-0.1374131519,0.4686707179,0.6411002259,-0.5677439511,-0.9707186616,0.5792269347,-1.2831147212,0.583645584,-0.3650997763,0.6142670388,-0.0396738287,0.8104015078,-0.9465580609,0.6762279194,0.7303826496,0.6936848901,0.5226971136,0.7844666488,0.2799599831,-0.9470108941,-1.0908172706,-0.1475696888,0.4780831705,-0.1242350401,-0.9328085632,-0.2812609919,-0.5275697203,0.3228134106,0.4419516505,-1.0610692666,-0.7804799534,-1.0970032626,0.3133367952,0.4165540637,-0.1360946256,-0.5755537654,0.001208347,-0.7254320718,0.4956628586,0.564647182,0.7879570006,-0.5678463219,-0.3621933846,0.3258018115,-0.9427740658,0.1758193913,0.5752311465,-0.5163535571,0.1950696933,0.4359873888,-1.169899437,0.596179615,-0.0017379391,-0.3475218417,0.5371683217,-1.0930550474,-0.3241865231,-0.3733452248,-0.1692172492,0.7582848394,-0.7395456455,-0.0609019828,-0.5117970047,1.000040805,-0.7591023373,0.4517735487,0.5721209804,-0.4850725007,-0.17516481,0.4070114669,-1.6897810357,0.0652059449,-0.8900255006,0.9856028112,-0.7050157759,-0.4702618024,0.1790042498,-0.2434239925,-1.1562132566,-0.4326778787,0.2009220933,1.5253913411,-0.6166489373,0.2156592571,-0.4232612171,0.8568396897,-0.7068940096,-0.7785383635,1.0070235233,-0.1948710362,-0.3178936967,1.1708051474,0.9674783957,-1.1946211334,0.8020203382,-0.7647021855,-0.8089538583,-1.6501265915,-0.3538117697,0.0532147911,0.4257130719,1.1113991081,-0.7939490721,-0.6219928408,-0.0811696677,-0.0273503323,0.6431107882,-0.948288663,0.2852776914,-0.9493267311,0.6334939387,0.8787096534,0.8554833158,-0.3210906355,-0.8122294986,0.4371025146,0.1116253224,-0.4863355577,0.4739276569,0.8948314348,0.3259953407,-0.5996129029,0.155725019,-0.0911711877,-0.553484164,0.8343243161,-0.9165455841,-0.3827024194,-1.1365007438,-1.6105181654,-0.3606782449,-0.6719157701,0.521007937,0.768707827,0.0506183491,0.949619828,-0.1782492366,0.0023875164,-0.440451257,0.1154386559,0.6165912075,0.8461718092,-0.4137772641,0.0215801732,-0.5319370415,-0.5494135691,1.2747766338,1.0607333475,-0.3551588344,-0.318218381,-0.3728476703,-0.20872605,0.166564907,0.4760617135,0.5625924459,-1.2533196097,-0.5711407695,-0.6419054154,-1.0045412772,-0.0279276627,0.6389281977,0.8877679516,-0.840000189,0.2923751966,0.5919380977,-1.1818522621,-0.8455813816,-0.9870928892,-1.0517187946,0.1812205414,-0.3830617614,-0.6642676893,0.0072803343,-0.3187177016,-0.7167043777,0.8482774834,-0.2022196017,0.0704007963,-0.6334152801,0.6150406814,0.382526264,-0.153846818,0.5974527782,-0.464382512,-0.3024849872,-0.4892365974,0.8522928006,-0.8976177306,-0.5700267846,0.3729756174,1.0721546837,-0.1096321208,0.6468245021,-0.0456855156,-0.0870769643,-0.0081805045,-1.0223855893,-0.2679942564,-0.0490597118,0.5866006609,-0.6320524151,0.7199279516,0.2409071216,0.2016593644,0.9614458939,1.1026226885,-1.1812720018,0.3639777544,0.4090903073,-0.1076500672,1.0592381266,-0.4406570394,-0.4702930899,-0.2768326758,0.0720071258,-0.9869533283,1.4963882638,-0.7231764553,0.3517738486,-1.2990667525,-0.9123852743,0.5580249775,1.1287696881,0.8200320938,0.4701935268,-0.8956705472,-0.8624521338,0.6912642558,-0.0643761096,-0.0221455864,-0.3372826416,1.5197476807,0.617762647,0.0313156803,-0.476918075,-1.065850163,0.1214536679,0.5117253458,-0.5777628557,-0.3127712439,-0.1705795466,0.0764851355,-0.0579176105,-0.1061149183,0.253649084,-0.8680791371,-0.0063154134,0.8999501316,0.5354284758,-0.2107343795,-0.2956264315,0.2681795823,-0.479386938,0.3601507535,0.5511175572,0.8392536804,-0.667521823,-0.8597449647,0.8894269703,0.7857724142,-2.9237508419,-1.5851572422,-0.458755822,-1.3063898141,2.2580377799,0.3462972733,-0.3919608461,-0.7301568579,-0.026854682,1.7975891364,1.0554206446,1.3910250044,1.1603535893,-0.4827158798,3.3554979903,0.4771983738,-0.5322762758,2.3846748864,0.5970366427,0.0928275598,0.1375931194,0.2400145292,0.2977890891,-1.8441228505,0.7859514122,-0.0056358267,0.4537333198,-0.857079974,-1.144957128,1.3165817812,0.2127822544,-0.7213316562,0.1879035169,1.3909905678,0.5296784476,-0.3114184839,-0.5662021769,-0.2216039708,-0.8774807829,0.396170548,0.2707598852,-1.509574731,0.0206463311,-1.1716500533,-0.18167188,0.7527844206,1.6829249627,0.2868463741,-0.1813603868,-0.7712575444,1.3291263995,-1.13021486,1.1683877126,-0.2139048142,0.8542200864,0.1560757506,-0.5582122027,-1.1600693745,-0.3062864575,0.6576836508,0.6310565989,0.3396553873,-0.022659764,0.4966915343,1.2133254469,0.8060284291,0.203299593,0.0726158504,1.9023076778,0.985353463,0.2862185791,-0.9821217944,1.3346028818,0.2802780882,-0.4265588163,-0.074676698,0.3642717065,1.1321175633,0.5465342307,0.8649331053,0.4650321635,-0.4483116998,-0.0782394951,1.3442963003,-0.7329261296,-0.6978580287,0.9911157387,-0.5461035941,0.1448889018,-1.5313823892,2.4389903363,0.6321213564,3.522989323,1.1010594252,1.8636642934,-0.5117614986,1.1700661356,-2.2460228641,-0.2527004599,-0.1300336194,1.5024030929,0.954090299,2.9404643385,0.9777829918,0.4149169969,0.0614336687,0.6858578557,0.0994092621,1.219532854,-0.3435817227,0.0793959745,0.3481413228,1.9522179507,0.5302443665,-0.5285104981,0.3377155842,0.1713827968,0.3166840184,0.2199557726,-0.2205438812,-0.4729801267,-0.0505771876,0.1237414309,-0.1636394023,-0.3890627498,1.1366261153,-0.0823020027,0.5613740599,1.2970239969,-1.3636160239,0.5013681169,0.7688299448,-0.1179652033,-0.0931720012,0.0800782405,2.7262281482,0.3359937635,-0.0924570929,-0.4555987299,1.2867838017,-0.2119262014,1.2292134903,-0.4661157588,0.1160035447,0.7479647972,1.2585477864,-0.2231325337,0.8986760353,0.1393589562,1.6974290533,-0.3642161741,0.1117150368,0.8060609248,1.0904977264,1.099670064,0.2823746207,0.5019035029,-0.3683728287,-0.3640023589,0.3752178603,0.7363259774,-0.4712458175,-1.7820426547,-0.2927556344,-0.0201121824,-1.230145628,-0.0981295094,-1.1455665691,0.1073359135,0.6797895077,0.7589604791,1.1747026431,0.0216593035,1.1162986624,0.0963928431,-1.2673019029,-0.5199691658,-0.5907576862,-0.2874996838,-0.1601930464,-0.02969573,1.580372889,1.8824338934,-0.0940244538,1.0681122389,0.4169956475,-0.4217253164,0.901297314,1.2055408512,0.6513923632,1.1592635829,0.7718152931,-0.0484660417,-0.4114390726,0.2348326507,0.3417515079,0.9117294825,1.2932005421,1.0285473821,1.3396584541,0.6566442322,-0.7853237228,0.0889184094,0.1145555434,1.3580120565,1.1229591154,0.4473928921,-0.9420141546,-0.3918855692,-0.5701228115,1.2526544175,0.4425590352,0.2652260338,1.3467415897,-0.8219128289,-0.2355352032,-0.8319884593,-0.6124163538,0.7846794534,0.051652307,2.6194955648,1.1560079442,-0.9938692257,0.8069907992,1.9878106776,0.8127268965,0.765569921,0.4630105948,1.6929547804,-0.0214466911,1.1666609185,-0.2951610072,0.0550030019,0.306926631,0.6887965408,-0.7565236668,0.8044546299,0.4338347901,0.4395781115,-1.4106274257,0.9018749455,3.7980579507,-1.1183520117,-0.199488238,0.2615110607,0.7997136899,1.0934023574,0.3677325022,1.9399795214,-1.2461458288,1.994820377,1.3408073823,0.8094047569,0.6721720761,0.8544985599,-0.6229476313,-0.4329726515,0.3734737761,1.2277602146,-0.1758497332,-0.3987340657,1.0971534756,-0.597080463,0.8429830606,-0.3642160022,-0.8573913455,0.3703960798,-0.5093611494,-0.0499919322,1.5579263714,-1.2677866685,-0.1844469335,-0.8049984211,-0.3642803522,1.2125449873,-1.1021454923,0.0667121359,-0.6464166532,-0.9048798147,0.0573884689,-1.7175238715,-0.5947828876,0.9148249827,-0.6290143215,2.1413667565,0.4166605215,0.5375668813,-1.5544775345,-0.462381457,-0.4019725073,-0.1149249666,-0.7040720509,-0.6198327254,0.5723211102,-0.7632613485,0.5183577474,1.5467065536,0.6975412196,-0.232844396,-0.0532834311,1.617195666,-0.1583015293,0.0295916314,-0.5493431316,1.2162087733,-0.3157255314,0.3510427299,-0.6765175326,1.6677128097,1.3383483512,-0.4558263227,0.0973876424,1.3019569293,1.0777403949,1.0249500769,-0.789200743,-0.1943398501,0.2016387371,0.7843069948,1.2942771684,1.3686743086,0.002654854,-0.4975519617,-0.1994693981,1.7609106327,0.494222825,0.3153309653,0.5303826668,-0.0217034407,-1.5323578819,0.9381617499,-0.1531496609,-0.219967307,1.131806323,1.0316158999,0.205675662,-0.5465649073,-1.1195719216,-0.3819304721,0.2763957225,0.3694755695,0.70147975,-0.742431421,-1.3552007243,0.4471688654,0.0148168774,-0.8510954762,1.1315416113,0.7636468486,0.728367223,-0.4665657531,-0.2279959548,0.9269342654,0.1918996605,0.991370693,1.3187566657,0.1544452438,0.7994077311,-0.2910792653,1.1723336121,0.0216453738,-0.2928394727,0.2589621922,-0.1307821134,0.3542912341,-1.1817681082,-0.4050367827,1.4341921399,0.6173130743,-1.4702360141,3.5256494672,-0.2880321791,3.1571431155,0.1095981482,1.5889778965,0.2891441094,0.1633423547,-0.4170087674,0.3464086775,0.2276408973,0.2530584602,-0.3756698161,3.466563172,0.7411455932,2.1022482683,0.4351765404,-0.0192340918,-0.7518889029,1.4895219067,0.2999044002,1.2000752251,-0.8897285826,0.849900274,0.6943414911,0.377337463,0.7575752701,0.9397396034,-0.1451886123,-0.2159738259,-0.3206849053,1.0403758825,0.5406713109,0.621186951,-1.0667407684,1.5783011724,0.8650640676,0.6493863425,0.7825119937,0.0155254624,0.3485983501,-0.2056806069,-0.6948152219,0.5617982342,-0.533676299,0.6839963635,0.488613189,0.6231497755,-0.7467388165,0.5808296206,-0.7066487344,1.1872552092,1.1823199555,0.3345938139,0.3604441106,0.0213997495,1.0338576787,-1.1138963219,-0.0457540123,-0.0345519752,0.4782488784,0.7420019788,0.7748909587,1.7201028402,-0.798974618,0.1037222162,0.5900093175,-0.2275306102,-0.1860381502,0.6484633248,0.8490956686,1.2802193949,-0.43766421,-0.8084177461,1.0220814654,-0.1694429675,0.0329121453,1.5484986897,-0.6105645699,-0.2203293649,2.1981396696,-1.553225305,-0.8922734265,-1.1195802884,0.3119479404,0.8173403726,0.4090400382,0.3411673548,-0.1617612383,-0.3592810207,0.391127969,-0.0930415267,0.8119122362,2.0156480211,-0.6125823987,1.2845112927,0.6167045471,-0.025113387,1.3053458629,1.4732969338,1.3395092623,1.1733642127,0.738714986,-0.1475018592,-0.0959322957,0.7750199908,0.3525433714,-1.4235132201,0.2279693047,0.1524248757,-0.9305331051,-0.1709287411,-0.8436749193,0.9727318999,-0.333507625,0.9405990626,-0.018602054,0.7431608391,0.9908966704,0.0000703412,0.529304689,-1.2237771052,-0.3841920739,0.7246026229,0.6802318781,0.0717475585,0.8649102168,-0.0437649032,-0.9244570698,-0.644017151,0.7498310887,1.0928874925,-0.2628286739,0.8833830939,0.0861750823,1.0930248759,-0.451760758,0.1812160256,0.5650629601,1.4059091136,0.3671300542,-1.1138515017,1.0962806221,0.4961826689,0.5997214575,1.1910058316,1.08226744,-0.4479709579,-0.6780518784,-0.2527858318,-1.0947928759,-0.4867389214,0.1803320349,-0.4674182839,0.4757120721,0.5534992689,0.763725782,0.8791279918,0.3603362363,0.1662563892,0.79385998,0.7044690204,0.6068685729,1.099682317,1.4289958021,-0.3288479701,-0.7917331547,0.2079338364,1.1203682229,1.3854975138,0.0052209652,-0.2257602907,-1.0311646973,1.0855724969,-0.4091750795,0.7679895083,0.492889125,0.5617250897,0.234993423,-0.7099095222,0.5996595271,-0.071269881,-0.1424986556,0.0964447284,0.4975475976,0.2322534591,0.8109977703,-0.5842259859,0.0884351399,-0.8196163502,-0.5855437161,-0.2077106171,1.6202366309,-0.0488994336,1.3007051067,-0.9100980698,-1.0330103208,-0.0182077455,-1.0039963287,-0.7479825593,0.1739366239,0.3921365283,0.3847896508,0.4708964534,0.7457830269,-1.5903930949,1.4335755655,0.1461461696,-1.6683501703,0.8085092863,0.582008877,0.2593863976,0.0679769659,-0.772214963,0.6968148145,0.7141295627,0.8805775735,0.8288573849,-1.5744813641,0.0489892008,-2.9678730766,-0.082664446,-0.9156308001,-1.5667499743,-0.0503996449,0.6114074064,0.8926281278,0.8373595397,1.0357305664,-0.1228273672,-0.3784627885,-0.7803612117,-1.1468838242,0.1819277121,-0.2877899465,-0.0323402417,-0.9651862296,-0.1555945405,0.9138636328,-0.1367823704,-0.842016064,-0.7767546535,0.7855137496
   -0.4305094109,-0.8172611902,-0.5733706203,-0.0858792459,-2.2922129936,0.9191384093,-0.6794505074,0.2764141571,-0.8155662993,-0.9262322176,-0.316831568,0.1909791617,0.5501000771,-1.1131784942,-0.2934443165,0.1311019567,-0.543577758,-0.622658165,-1.0728816829,-0.7437299525,-0.2109609231,0.0165920291,0.7374677636,-0.4091274144,0.8632960718,-1.5495947805,0.4224826484,0.4478026202,-1.0970703826,-0.4130552971,-0.4227033538,-0.1736931445,0.7413914208,0.2966688944,0.7946972299,1.3266213827,-1.4507674176,-0.259738448,-1.5709686377,0.0217624944,-2.5289546859,-0.1961045079,-0.779284252,0.158910193,0.3704095488,0.3873934892,-0.7918888148,0.1238397033,-1.4661057914,0.6718487329,-1.5288940926,-0.0249486639,-0.8105822699,0.0228239293,-0.4519393462,-0.6234195471,-0.3999184977,0.9718523972,-0.6080231169,1.9042821419,-0.5273016608,-1.5808001249,-1.2704116536,-0.8342573933,0.5898807311,0.5213133219,-0.9650533189,0.0591657045,0.6182474941,-0.8569228561,1.5236742209,0.2470543685,-0.5535862326,-1.178028913,0.160323734,-0.2438330202,-0.1284131137,0.4963210994,0.1596096494,-0.5952364989,0.0365289472,0.2715791206,0.1777718846,0.6172611502,0.8567850814,-0.8466604806,-0.0331870069,0.4755388508,0.6635163302,0.1510145025,-0.2931194301,0.8363040894,-0.3317030766,-0.8833945905,0.8316329699,-0.2974781475,-0.3225631586,-1.1184991384,0.7022448424,0.1179106137,-1.4303671785,-0.7285727648,0.9280361362,-0.6714304694,-0.381195062,0.3644637519,1.1779203759,-0.4683224605,0.0085019164,0.3718841636,1.0980157265,-0.4854904352,-0.3138816622,-1.03231422,0.2294608689,0.617265183,-0.6487640045,-0.6394405057,1.111833273,-0.8433011919,0.8461986937,-0.577522987,0.3592482963,-0.1437747798,0.5566256907,0.6779777383,0.6080855303,-0.1683409316,-0.4043956176,0.1403505606,0.5508185503,0.0321860404,-0.8181335108,-0.6254315911,0.0741521089,-0.7355929752,0.8375137816,0.7825863501,-0.4745897371,-1.2134184231,-0.138895646,-1.0708376741,-0.2051331489,-0.5194052284,-0.1382315912,0.5218396929,0.5885609831,0.083177704,-0.8474284938,-0.1709277337,0.4956624155,-0.0882649235,0.1752142982,0.8864429688,-0.8323625934,1.048877077,1.0993869218,-0.2878217472,0.3628126491,0.2732445894,0.2831623655,0.6150078302,0.7995122249,0.758444923,-0.5350549772,0.0601887864,0.589419591,0.3604752814,-1.1238711851,-0.3620934059,-0.8209145139,0.4285799012,-0.3453723655,-0.5469549567,-1.0984044004,-1.4744951569,-0.5674928483,-0.5229695225,-0.1992120211,-1.8353729112,0.5472163715,0.311699241,-0.1709038843,-0.7985076595,-0.3150556054,-0.7191602868,-0.3927173994,-0.587694531,-1.2913057748,-0.6071809826,1.8864663211,0.2177421526,0.9748248034,0.85414794,0.2498637428,-0.3739756371,0.0233720124,0.0685299699,-0.1455296184,0.212592904,1.5257307115,0.2807886382,0.3788583549,0.7069788746,-0.3506026711,-0.5206206216,-0.0537887619,0.9297406643,0.0610959504,-0.371007705,0.94687397,-0.6540354005,0.8949446282,-0.1499747274,-1.009618446,-0.5781141215,0.5085625976,-0.5967742467,1.4057347498,0.0365453584,1.1393497946,-0.2650129527,0.4358903985,-0.2084610386,0.9538435975,0.8996135351,0.6876404559,-0.9210921184,0.4110527343,0.5542709554,0.1487271099,0.2415462174,-0.6611456489,0.4061328167,2.2950061761,2.2321871411,0.2115713005,0.4830424671,-0.483595282,-0.1812781094,-0.6138544151,0.3894497656,-2.7272781404,0.0052868371,-0.5808894012,-0.1402859463,0.6329139261,1.0017531073,-0.5455120309,0.1182265624,0.1149689595,0.3445273595,1.0676985299,-0.2613016207,0.0432890594,0.4863817075,0.8774522066,0.3001875286,-0.3905719193,0.870682948,1.3049783665,0.6014169218,-0.5937371117,-0.6059586613,-0.0100648414,0.4210323746,0.7514500473,0.5605888357,0.3805804097,1.1776925076,-0.1705797958,0.1256488905,-1.9572987666,0.0325626603,-0.0415825557,-0.230439959,-0.3871920456,-0.4529867993,0.6395474115,-0.8668684461,-0.5467024322,-0.3623144534,0.4796292558,0.3952975252,-0.1258199975,-0.1641081362,0.601098747,1.1784239232,0.3805729303,-0.2918186456,0.0487904889,-0.8743733046,1.0906146712,0.209681099,0.1509555865,0.1661838324,-0.6448550286,-0.815972738,0.7802778182,-0.2335748662,0.5500724639,-0.0079605122,-0.0808368268,0.3779952692,1.0198209106,0.7883790227,-0.2672180633,0.8397466292,-0.9220230077,-0.5665071339,0.3647725627,0.9184096078,0.7458549462,0.786628862,0.4294117757,-1.0864636204,0.9356703026,0.5214170592,1.1666477632,-0.833887251,0.0909170237,-0.1189322653,-0.8852468648,0.58484079,-0.8858326386,-0.3293823729,0.1853374693,-0.7131308867,-0.2034605384,0.6338943292,-0.2337878436,0.7723321248,0.6185978658,1.2698554535,-0.8649863138,-0.4573397278,-1.0882841875,1.3113597056,0.7940140074,-0.9290931325,-0.3493694703,0.1070177631,0.2986054949,0.0891520099,0.5316944645,0.7797155432,-1.032507999,0.1614175401,-0.6654467471,0.7970691941,-0.7653292076,-0.1087805282,0.1052023662,-0.613405302,0.0421747172,-0.4692057146,1.3271906148,0.4023974344,-1.0515608417,0.6667354228,-0.5214137978,-0.1495475873,-0.0796871324,-0.5849412467,-0.0536682618,0.2966845184,1.1382531765,-0.8402022954,0.2283404402,1.0017272095,0.098991276,-0.1711027975,0.1274099726,0.8748453257,0.756769741,-1.3919398136,0.1986688861,-1.3617623487,0.134868632,1.0615640111,-0.9909195281,0.8042316418,0.0452455885,-0.3100290063,-0.2822035619,-0.2369996365,-0.133758384,-0.6515034956,-0.2858912351,-0.0444406151,1.0780621805,0.5173558479,0.3043512104,-0.3162010798,-1.7319431557,1.0346479196,-1.4899968326,-0.3179672409,-0.2389641094,-0.3601070534,-0.3443013962,-0.77997666,-0.4828868061,0.0781139951,-0.9445127222,0.4377358169,0.2993643766,-0.0880549111,-1.2978539943,1.1123236699,0.173710032,-0.2424031053,0.3634033469,-0.0434405448,-0.9652897047,-0.4360529957,-0.6389806005,1.4601838951,-0.0020140378,-0.6291136013,0.4461070512,0.3881050652,0.0162355088,1.0340062468,3.1441654766,-0.6242129608,1.3188674299,-1.0898068717,1.5560632595,-0.5280122876,-0.7435931095,-1.0213856058,0.6726857781,-0.5000109548,0.586876717,-0.0539758229,-0.2143355982,-0.065210885,-0.8099543599,0.3130546022,-0.4328238628,0.2208698884,0.051244616,0.4139033207,-0.7635679133,0.7949726684,-1.6999128775,1.6390422264,-1.491210523,-0.0764534187,-0.7644856432,0.8344397321,0.3853842218,-0.7641290916,1.2111035059,-1.0170795086,-0.6408814757,0.1947805354,0.8016774829,0.2538096402,0.5204350107,0.5795740968,0.8649496765,1.4220583838,-0.8008361682,-0.7595422919,-1.071465579,-0.0403025367,0.4670090831,0.1192776854,-0.1180262679,0.1657871673,0.4247619127,0.7985659619,-0.4512641787,-0.3608103012,-0.2521959795,-1.2064241585,-0.2175970621,-0.0449511988,-1.1565736029,0.7819246218,0.8642489705,-0.2434259247,-1.3789226336,0.4080215846,-0.2808280365,-0.426568706,-0.4891999843,0.339441078,0.4271162819,0.3623818058,0.7691716705,-0.8874350437,-1.6917269925,0.7131893305,-0.9995202348,-0.6545511643,0.5795843009,1.8865622806,1.0414987818,-0.9057611055,0.6839595242,0.5360255016,-2.7005628145,1.4058215587,0.3642778177,-0.3518968768,-0.6123653368,-1.5310281043,-1.192969911,0.2422130444,-0.8232670423,-0.6803998997,0.5884653063,-1.3275790523,-0.5684264885,-1.0587833684,0.3087612327,-0.6155492894,-0.021053819,0.1406206147,-2.5741397764,0.9994196033,-0.1232199331,-0.7242337242,0.3892795399,0.765244092,0.2230439255,-0.207867555,-1.0282762278,0.4029254397,0.3660290164,-0.5003884789,-0.4548101766,-0.8744968283,1.1756026234,0.5726629142,-0.9498012536,-0.5017478266,0.2655547239,-0.3299035744,0.0307291159,0.4650781452,0.624171048,-0.5687598109,-0.4349490106,-0.2946574964,0.7190227296,0.7555963896,1.4507334486,-0.2173206612,-0.7943446771,-0.0463008842,0.4869195507,-0.5762392902,-0.1376189569,-0.9147218625,-0.4699373571,0.0582866273,-0.2598379197,-0.9989294704,0.1120125054,-0.6953421844,-1.1920516664,0.5688223825,-0.0366149566,-0.4330832354,0.2465924505,0.3241426446,-0.7610538571,-0.287798511,-0.2615464066,-2.0414990387,-0.7678827698,-0.6665883981,0.881885985,-0.5021895864,0.4251517863,0.6370753652,-0.9770079864,0.1307963944,0.5578527349,0.8232154958,1.6300269312,-0.8730962664,-0.6893438604,-0.9688552074,-0.9739730899,0.1032318508,0.2430791726,-0.2087953392,-0.300719417,0.3748937216,0.4247531627,0.1179916539,0.5077124064,-0.7645518736,1.5327954427,-0.777394488,-0.8653805861,-0.2378380971,0.6887348678,-0.5846827397,-1.1526823605,-1.8695417906,0.237820568,-1.1146380976,1.0336419373,-0.0435522193,2.2530567447,0.5086679898,-0.8977293689,0.0583419644,0.0640495743,0.2225394819,1.2151434015,-0.215819612,0.6491342783,0.1775143828,0.51752915,0.2954887391,0.0871897382,0.6125158193,0.628409885,-0.4599999531,0.3760700299,-0.1912962889,-0.2519150749,-0.4581697273,0.3077846732,0.2258034778,0.3813796688,-0.0384160152,0.172265961,0.1622917652,-0.6966368808,-1.0508185472,0.881786395,-0.0796198913,-0.7649339585,0.0382949026,-0.3515205346,1.3349774224,1.2769193867,-0.1860515857,0.9716357002,-0.697541436,0.2765199998,-0.4892265282,0.1862933432,0.676265772,-0.562080101,0.7288454207,-0.0027821592,-0.0365354085,0.3585331061,1.3688915574,-0.6185594481,0.5828817824,-0.7756644883,-1.0905360498,-1.1233730005,-0.0170382081,-0.6454012083,0.0168386362,-0.1337214792,-0.4630534684,0.1612117611,-0.9225946835,0.1126513309,-0.1267761408,0.7729738102,-1.7756875028,0.8136041498,0.6806068779,-0.2304401931,0.9705056917,-0.8123184392,-0.7048578941,0.508286232,0.1128910879,0.4684410817,-1.0014391875,1.2604337253,0.4953936586,-0.5947870213,0.4996808451,0.6240245997,0.2214788756,1.0927670651,-0.0382771289,0.3794014333,0.9349839869,0.3109820252,0.6602169201,1.5101261297,-0.9485828287,0.6686670549,-0.0434198272,0.6784966957,0.6552733612,0.2045467149,0.8837559771,-0.9397773131,0.4285903384,-0.8612612263,0.2325112928,-0.0209363265,-0.5337796684,-0.4708578069,0.157985542,0.0451835348,0.4527792704,0.9752660376,1.3741988015,1.195266835,-1.8126300928,0.2873200774,0.430650476,-0.5985222089,-0.5201421275,0.0587753048,-0.5239385007,0.0360195883,-0.7105592532,-0.1520687562,0.4347451141,1.2403693394,-0.9183799236,-0.7635884312,1.6606335294,0.2312505921,0.770650041,-0.2811954986,-0.0028593666,0.7162482212,-0.1985080107,0.1390297132,-0.781638513,0.282595858,-0.0678029868,-0.2880216285,-0.891532729,0.007882807,-0.2560020877,-1.1527595631,-0.6006824632,-0.0366999105,-0.3435107308,-0.8079228505,-0.7952056659,-1.2825359742,0.0898921645,1.3849513376,-0.2358316696,-0.5493645693,-0.7203616635,0.7821432831,0.4057103348,0.3189111233,-0.8307704744,0.6729553564,0.3408601379,-0.3446400869,-0.6260029922,1.2455160739,-0.4162444259,-0.2059921626,0.0506214736,0.1895461984,-0.9021681606,-0.1538333933,0.1650601886,0.2411717986,-1.0735312605,0.0031366241,0.3051751944,0.7883264855,-0.092061255,-0.1014713125,0.8710199693,-0.3241178217,0.0692469564,1.3591809013,-0.6797382687,0.4948426437,-0.6622864054,0.9592545095,-0.6610114186,0.7903309285,0.9310342318,-0.9011965947,-0.6363123037,-0.2331244232,0.2943032595,0.658398145,-0.2215394316,-0.6366742208,-0.7304084352,-0.7791498724,0.0960377967,0.967664845,-1.1321339315,0.3441572939,-0.2105997191,0.7249714292,-0.7712829251,0.2797196371,-0.1170277727,-0.1411502568,-0.5205902536,0.4764186758,0.7924759911,-0.1633367158,0.0842747373,0.9922655847,-0.1615531471,0.5867407787,0.5675401429,0.7103057586,0.1411947385,-0.3796318531,0.0355871954,-0.2328767403,0.2298768949,-0.4468066709,0.901601703,-0.4590115781,0.2648014331,-0.5703888739,0.4359058669,0.5671297843,0.6688304695,-0.013097455,-0.1583422984,-0.9393210364,-0.2025512045,-0.66541629,0.0883928241,-0.7598503224,0.6377434961,0.7343988956,0.4610293751,-0.1995485458,-0.4406685287,-0.4859796796,0.2993133278,-0.301770599,0.1683686413,0.6746159292,-1.3524038285,0.6003722322,-0.0917464762,0.7415447671,-0.3893565055,0.0939658982,0.6172063645,0.6683795761,0.8646073768,0.5383710029,-0.6464236453,0.4038964876,0.0394387041,0.0964102802,0.1207413728,0.0674914883,-0.5596745438,0.8490384977,-0.5038151641,-0.4945943816,0.5566675069,-0.8775964277,-0.2609842219,0.4974370455,-0.3181871094,-0.191285883,-0.2740439368,0.0369776284,-0.1112245554,0.5163365733,-0.7509602009,-0.6277924152,-0.3052399142,-0.1058180073,-0.5098417213,-0.048374624,0.277065222,0.3082364868,-0.2303758364,-0.3740800534,0.9295877841,1.102635238,0.6158503575,-0.4733023452,-0.9702646806,-0.4056396308,-0.2702794887,-0.1973163092,1.015794662,-0.4561755549,0.4492487683,-0.5948355103,-0.8235131663,-0.3509675223,0.899697661,-0.7391739467,0.8950689524,-0.7164042698,0.6192321901,-0.208457278,-0.6376808355,0.4139884602,0.4862004851,0.30619442,0.5922386484,-0.5429463248,-0.8376428859,0.5808501776,0.025740474,0.6143610356,0.6631093738,0.1397506346,0.0574953619,-0.8190191424,1.0392100549,0.6331723648,0.1549882958,0.4728028112,0.6008621913,0.5067982274,0.9927130723,-0.9649176584,-0.6577715183,0.5113552337,-0.8032244036,-0.9584414809,-0.0966047739,-0.2095676353,-0.4894296106,-0.0257704468,0.2819437343,-0.8472568745,-0.2161506427,0.6118248136,0.8442137937,0.9024078182,0.0372234478,-0.0603580536,1.3387818381,0.6157203179,0.5064954787,-0.0663616767,-0.7859394003,-1.9171873071,0.1823671533,-0.381867524,-0.6560128158,-0.8181863001,0.7344157977,-0.5264559198,0.1440664576,0.1375354176,0.6271381343,-1.7770744004,0.2670614153,-1.0348685219,-0.6743737267,-0.3293950828,-0.6358009272,1.1203356153,-0.4810078312,1.1036608046,0.4000809674,-0.0546254819,-1.0994387846,-0.0674695368,1.1347603922,0.0252521407,0.463463952,-1.7250415233,-0.0847437107,-0.1770098609,0.8638124146,1.0318125772,-0.2975093396,0.2104505188,-0.6824061055,0.9022492985,-0.0969054784,0.1919341715,0.4838933467,-0.3494425032,0.4699074957,-0.3254370151,-0.3966810085,-0.1400126592,-0.0881869728,-1.3767398361,-0.2759926617,-0.4617223881,0.3207916165,-0.1382963862,0.3612707447,-0.7229894881,0.2961764473,-0.0558434123,-0.5066882393,0.7504755982,0.8676786494,-0.5744763361,0.6013256805,1.0578843004,0.4882745828,0.8426972812,-0.2129912701,0.0524058722,-0.1633551438,0.9249013273,1.2606577407,-1.0279189135,0.7611717014,-0.5780557401,0.7987634781,-0.2631480968,0.1849255145,0.531087919,0.2650011453,-0.3088056183,1.3533338339,0.7333765893,-0.7440380422,0.1955455609,0.0723627821,0.1163772857,0.6381094189,-0.1613150003,0.8264294973,0.7301512731,0.7197996683,0.1591962736,-0.2008306336,0.1771980123,-0.8227512498,-1.7209569829,-0.5597188921,-0.1005756636,-0.5980531298,0.6544125643,0.5745959282,-0.5858490546,-0.6228749992,-0.7744149674,0.7881778877,-2.3643120009,0.8567767651,-0.0778313025,-0.2457986583,-0.1811557582,-0.2336977387,0.850383398,0.7375438128,-0.769677894,0.0100004817,-0.5450119553,-0.3055222588,-1.1778168492,-0.1535452157,0.9220015397,0.4252721349,0.3784761458,0.3302778755,-1.9331968711,0.9498917723,0.5565980296,-0.1399376355,0.2482023621,1.1909296633,-0.7505153683,-0.1125625494,-0.677392479,0.4018210201,-1.4161755621,0.89783659,-0.6079424722,-1.0330385342,0.7278999508,0.3013778412,-0.1302973866,-0.2938344289,-0.4057169795,-0.1637462572,-0.2027537567,-1.0252192832,-0.4246930596,-0.1884409185,0.0796807656,-1.966869952,-0.4941192251,0.5976024661,-1.753826031,-0.6084378859,0.9305838091,-0.0677077998,0.529421303,-0.127119128,-0.5459047148,-0.1579798404,-0.268265527,-1.2205967379,-0.9530617161,-0.1978286618,-1.8084039653,-0.1569178466,0.47790843,0.227238408,-0.2828753525,0.8725251163,-0.1041163004,-0.7117252975,-0.4562716177,-1.4489412879,-1.0551921224,0.2655377638,-0.006895456,0.6881073105,-0.6781789582,-0.3584647485,1.025082326,-0.439168567,0.6317875587,0.1926464044,-1.5740908716,-0.9122549341,-1.0582755644,-0.5786046006,-1.0599183821,-0.5456400332,-1.4276940434,-0.6738511932,-0.0361793021,-0.4458992982,0.6167387316,-0.6576804897,-0.0191000604,-1.5429477115,0.9098550604,0.5966755085,-1.5603316544,-0.7885925757,-0.080001512,0.4607889773,-0.5239563522,0.0586172304,0.5570106878,-1.2424839034,-0.4583120302,1.9428631726,-1.4435492126,0.0278618439,-1.6104171609,0.6125220464,-1.0518133093,-0.8441705514,0.5912474574,-0.6887994411,-0.0363048317,-0.3534790807,-1.0381044941,0.0537972403,-1.7362982388,0.3891774257,-0.232554098,-0.1182033203,-0.4311920753,-0.6698903152,0.3056725348,0.5410963029,0.7337883359,0.8035437288,0.0187901529,-1.8700155612,-0.7398135157,-0.0069141489,0.4162731885,0.2274094528,-1.2987793525,0.2199707053,-0.8667237771,-0.2374200298,0.4893109945,0.9322803195,0.6145555556,-0.5745051548,-0.8566228022,0.4314142255,-0.1501804137,1.0728651154,-0.9592315337,0.3710477334,-0.1250370296,-0.9013625683,0.1209701833,-0.5548259527,0.4949276404,-0.7082382849,-0.5745432847,-0.056155235,-0.0415243117,0.8885361741,-0.2036933714,0.569784175,-0.8061164083,0.6764266313,-0.3485613216,-0.3409930266,0.3413579081,-0.586695446,-0.4090043618,-0.7201034852,0.0211921978,-1.0159950638,-0.9111698988,-0.8188131025,-0.763991024,0.6927332343,-0.9776305404,-0.3186326386,0.0052365509,-0.1622706415,1.1028205806,-0.0712725431,0.3133567231,-0.6462366776,-1.3180656511,-0.2091074676,0.9405641503,-0.2832554262,0.8331245813,0.1059228993,2.0240755905,0.4886224834,0.9574265093,-1.204385871,-0.3738005708,0.898520132,-0.1683247931,-0.1236934948,0.1340636026,-0.1069997678,-0.6064103698,0.4786635352,0.7220103807,-0.6420879093,-1.0057073786,0.490157596,-0.2197216223,0.587805797,-1.1433394833,-0.4226548923,0.3833515497,-0.6355045029,0.4968398023,1.4918137432,-0.2490881017,-0.1257880226,0.45139018,0.5337060734,-0.6204870927,0.7675982018,0.0928389057,-0.7530809983,-0.0822900598,-0.986260965,0.8254239733,-0.5666326077,0.5528794247,0.1928662335,1.3042276278,0.6042412945,0.9670611201,0.5021752629,-0.2001317776,-1.155159695,-1.4431361111,-0.001896246,0.1024437803,0.2908208237,0.3871804874,0.0740055878,-1.265016798,-0.8341347454,-0.1689679061,0.3985924047,0.4656984671,0.5175172603,-0.0483969043,-0.06698232,0.1252404505,-0.5870467136,-0.0823719721,-1.2873402479,0.0889711483,0.727822398,-0.7811206062,0.9318160671,-0.0586414061,-0.7586189902,0.3502958598,-0.0856195771,1.1384347186,0.7717001585,-0.3983867565,-0.7527762214,-0.0469298026,-0.7627960471,-1.5612713223,-0.1260753302,0.4755017911,-0.1757272985,0.571639389,-0.5600000482,-0.6647330217,-0.3476038939,-0.9819747298,0.2028665398,-0.2614372526,-0.8243871094,0.8678251334,1.0962773659,0.8849527886,-0.0644899455,-0.8565062031,-0.7278558947,-1.479873697,0.5856855405,-0.1552877117,0.6638475128,0.2733828262,0.3189057857,1.36256892,-0.0956853878,0.5471161834,-0.7793985176,0.419596906,0.200743503,0.5631676425,-0.6751601778,-1.6084014411,0.9998844408,0.7706809184,-0.1063484749,0.5322195537,-0.7465136388,0.8095733827,-1.1888694109,0.5115780007,-0.6502652947,-0.6662038923,0.3452716657,-0.5707247696,0.677947629,-0.0654035961,-0.6387100977,-0.879858013,0.9312755393,-0.3748005629,0.328280016,-0.0815584791,0.6614485173,0.8798288257,0.3444313574,1.2007143888,0.6895934011,-0.6267324065,-1.6110076628,-0.7611535619,0.335374277,-0.4271616355,0.5369301895,-1.0405309001,0.8947088757,-0.9382816375,0.8122107248,0.9851587548,0.1040024614,-0.5997622647,-0.140109923,0.561700488,0.5222792941,-0.2539140561,0.3358843377,-0.522325638,-0.4730688625,-0.4826575895,-0.3923703577,-0.7636860074,-1.0584714298,-0.7449874401,-0.0096060302,-0.510812269,0.1186673028,-0.5207128837,0.418355403,0.9323399279,-0.8376327266,0.2442704962,-0.4148867524,0.5869641543,0.2219464554,0.9342241936,-0.8463181598,-0.5676655553,-0.2875638093,-0.4667174801,-0.3330931873,-0.025984124,0.0746993724,-0.1295015602,0.214436854,-0.3884977682,0.0228896435,-0.0391685185,-1.5221623325,0.5492640402,0.5014589795,0.6712993522,-0.3476276509,-0.8308181655,0.0422378923,0.6802807736,0.8294522435,0.1144443684,-0.4145751369,-0.7496599968,0.1089524901,-0.1934801089,-0.4532059197,1.0202691431,-0.2263674355,-0.0871820212,0.0160843593,0.0711522982,-0.4961294558,-0.0669722813,0.3916518867,0.1988770524,0.1970714233,-0.9415051369,-0.4653245204,0.3410606903,0.3225027545,0.4680970997,-0.4169118653,-0.4370444014,-0.5787380844,-0.7623808724,-0.136501877,-0.0809577511,-1.7191704823,0.3972349199,1.9170593535,0.9134498158,-0.0382792756,-0.7451636874,-0.2489426755,-0.1983866182,0.5008950891,0.4365384529,0.4256846445,0.2439019507,-0.7147411161,1.0503047579,-0.1625423888,0.2443767961,-0.5899204507,-0.6736749063,0.2307810825,-0.1999117757,-1.0459471344,-0.3220167312,0.5432755993,-0.4551388495,0.3523000393,0.7892155792,0.7959364455,0.6275171358,-0.2628315719,0.8925905204,0.6168623162,-0.0579696953,-0.3763306796,-0.4111728596,0.0272021401,0.0790185864,-1.1411921278,-0.4444278355,0.9149925123,0.3223800748,-0.2978813969,0.9059252565,-0.3191735064,-0.1819203463,-0.2514091373,-0.0043523438,0.7099645286,-0.1361372835,0.8579000861,-0.5727591115,-1.2341776499,-0.0603833643,-1.0763528837,-0.8391444398,-0.580617491,-0.3398344984,-1.0666143777,0.6383933617,0.1805220598,0.5499675135,-0.3740072627,0.1525523043,0.1418780693,0.0570290025,0.3850631723,0.8863011205,0.1665380761,-0.2777316871,0.1415000502,0.396331479,-0.4045675338,0.8005699765,-0.6036548338,0.1171228033,-0.7495480455,1.076301882,0.8457694928,0.2458647682,0.8745230275,-0.1360984385,-0.3636778352,-0.504731309,0.5220783449,0.6546201971,-0.580839298,-0.9428594526,-0.0886213921,-0.6988552833,0.6398643743,0.2287204985,-0.4410594536,1.1052410707,-0.3240426718,0.4673085641,-0.4320998872,-0.150456729,-0.2258921325,-0.7669446432,0.293841973,-0.398523704,-0.2548977622,-0.0122442036,0.7009493891,0.5692017355,-0.1816393581,-0.563088437,0.0427224666,0.2010405272,0.2878915305,0.4180095969,-0.6255176801,-0.7368776927,0.4093155214,0.0012576069,-0.1316474319,-0.3836270657,-0.3128742119,0.4905818837,-0.0152148159,-0.6858035204,0.107974136,0.9575621349,0.5086040118,-0.224971663,-0.6006999871,-1.3731049433,-0.18722725,-1.4159707638,-0.2324064345,0.1854075811,-1.3471718671,0.7754110932,0.9857811551,-0.2911064821,1.0482575993,-0.0453733087,0.2020213331,0.1779211436,-0.8276419492,-0.2152461702,-0.172472849,0.5294743797,1.0955496452,-0.8773278491,0.516908062,0.2607782643,0.0321674639,-0.0209731612,-0.1888597821,0.674684545,0.9817547975,-0.8132857407,0.6487563442,-0.9697349912,0.5847730334,0.9182463346,0.4874922041,0.3969905351,-1.3032619911,0.4844724239,0.3169166964,0.5373116492,-0.480612022,0.1879803438,-1.4079987828,0.3726936662,0.9214878702,-0.9011605372,0.2511193907,0.3624718959,0.7616224894,1.0080714333,-0.5549214604,-0.6358219237,-0.2610022227,-0.139886348,1.7728462686,-0.7229713594,0.0245572264,-0.0083788904,0.9345878535,-0.7255122379,0.6908290559,1.550403848,-1.5454158212,1.0233091757,-0.9903793569,0.565511488,1.0366870667,0.4988255665,0.5896520492,0.2628600785,-0.1379729552,0.5335311358,0.2892326107,0.4672822031,0.8161792814,0.325776621,-1.1221534366,0.942869327,0.1600514498,0.5110830174,0.0013010392,-0.5316721305,0.4921430792,0.1065361496,-0.5136632572,-0.0132711089,-0.2601452887,-0.8965262836,0.3239515154,-1.6042310358,0.3035572297,-0.4444808294,0.6544413842,-0.6684297501,-0.3907993994,0.1733046928,0.9670305853,-0.0770266229,0.4510179858,-0.509147175,1.2095070409,-0.5560770149,1.0298252017,-0.3946490432,0.8298723475,-1.063608557,0.208084851,1.0092632533,0.7255274606,0.4676134271,0.5032954163,0.1758296321,0.7065210022,-0.0156940152,0.8734225312,0.6157501463,0.2325875375,0.0642817271,-0.4730515139,-0.8736342786,-0.1243509512,-0.3036143519,-1.1264028544,-0.8685486542,-1.4162086793,0.5034262,0.2283781753,-1.0480813627,-0.329766763,-1.2759936955,0.8884231799,0.4027119522,-0.5208353819,-0.7883671277,0.766563959,-0.2804929509,0.722806872,-1.1748488368,-0.7940800601,-1.6280133065,0.0635482371,-2.0109687594,-0.6325867658,-0.0493609363,-0.8147646449,-0.6686887856,-1.3483131752,-0.7160312087,0.8817247321,-2.3328815792,-0.9883042307,-0.5369474253,0.8507336192,-0.1835655897,0.6591992069,-0.3659536086,0.6972798292,-1.1288612842,-0.3477277128,0.8699541014,-0.3791343348,0.6897926207,0.3489734052,0.5753409287,-0.5377579956,0.3856941537,0.1256772372,-0.1623635065,0.7109417134,0.2616670785,0.0388044187,0.0926436848,-0.9303109868,-1.0798233026,0.1044628143,-0.2921707163,-0.8949070998,-0.0138961377,0.8102942521,-0.1280643948,-0.8399119612,-1.2302464256,0.0196688408,-0.269700118,-0.256232808,-0.2003904845,0.8199668113,0.7135511982,0.1657556526,0.9550908485,-0.8780434783,-0.8243676609,-0.8167433661,-0.2862694938,-0.9397318516,0.5985728834,-0.8447768528,-0.7625982795,1.0020288175,0.3978374813,0.6006915354,-0.8688012226,-0.2899127328,-0.1734657628,-0.3347640142,-0.5087070518,0.239077319,1.2596507956,0.1113371751,-1.0602863281,1.082530741,-0.2833714788,-0.4740123626,-0.6568952176,-0.5920273094,-0.516962093,-0.5675169767,0.5471642583,0.1701009111,1.2912312094,0.5059320225,-0.4206230011,-1.2102174981,-1.7024465121,0.6638034492,-0.0791411614,-0.8024282306,-0.6600721804,1.2655788317,0.2209018501,-0.0328651007,0.3009520002,-1.4020333908,0.2511499118,0.3102805463,0.1791917817,-0.1915715486,-0.4455028519,0.6984036802,-0.9283383539,-1.0327319089,-0.0143105521,1.7146909314,1.8172845389,-1.1255983712,0.3788494695,-0.3350057197,-0.704670136,1.0791327754,-1.211712945,0.7338965246,0.9382359765,-0.9156254315,0.6950076901,-0.1109215751,0.5063878567,-0.1039950949,0.6776936704,-0.198089143,1.4275052066,-0.6056288685,0.1648462064,-1.1973985893,-0.8178179956,0.0847215544,0.3906560936,0.6309008611,-0.3266165283,0.0185547223,-0.8296365003,-0.6946004926,-0.3003529702,0.7026665552,0.6903634867,-0.4556897988,0.4487773543,-0.1282063168,0.4023303015,0.790427094,-0.008040941,-0.976829805,-0.3315363819,-0.485793281,1.4646496404,0.1053221592,0.1595350661,-0.4256901936,1.3454867148,0.8798893124,-1.2238207309,0.013571192,-0.7138871111,-0.9406612224,-0.0332815105,0.0058518465,1.1112900902,0.2262800227,-0.0115430966,0.2418598906,0.5384627726,-0.9657828656,-0.4980511664,-1.2703126095,0.6071319797,0.3841251041,0.5924358289,0.9552564482,-0.5477973916,-0.5476348443,0.7036330754,-0.4551035741,-0.0084142846,-1.1050028337,0.154799028,-0.6991373882,0.1700080392,0.3233270718,0.4335691129,1.2325006293,0.833506412,0.2863597783,-0.4122642208,0.8119279781,-1.7747911415,-0.0305174861,-0.8210628455,0.4607476132,1.6382416923,1.6710179735,0.5092957138,-0.073922176,-0.9050934992,1.0300206574,0.9113726625,-0.7059530288,0.7541146001,-0.7721558918,0.3939944841,0.3805110117,-0.6393157234,-0.9920280556,-2.6597828692,-1.102224572,0.0228816567,-1.2423775905,0.127681078,0.1111680212,-0.3548381534,0.3487260357,-0.8371416993,1.1107346456,-0.5700010866,-0.4909675711,-0.1343725491,-0.2750726982,0.1135980369,0.1815961958,-0.7983701689,-0.0174997028,-0.6407949452,-0.6029757377,0.0998793313,0.5162562299,-0.6132261636,0.616101735,0.9466555336,-0.264106093,-0.6982547469,-0.0115837451,-0.8581285235,0.834762816,0.5648148514,0.7265723209,-0.9277082707,-0.0132356908,0.0032466329,0.5932768467,0.8380997065,-0.897312877,-1.3460065475,-0.8592046915,-0.2654342618,-0.1451234613,-0.0704964985,0.9219358578,0.0498091348,0.8615397187,-0.1272328314,0.2432949803,-0.8527778189,-0.1001283472,-0.7463353606,-0.685751278,0.8387145014,-0.5553752823,-2.1937213961,0.2423722792,-0.7779654756,0.7329736318,-0.0138685463,0.7355894089,0.3179402808,-0.3305409021,0.2285375003,0.3492383341,-0.2724845916,-0.3683778049,-0.2564970897,-0.8271099602,0.5115124824,-0.0652813112,0.5254192027,0.3408909478,-0.0027793113,-1.6759549593,-1.3348022317,0.5862407396,-1.7595446112,0.0230162144,-1.1682584621,-0.4721289568,-1.3298368962,0.1951369051,0.3324275636,0.8736773921,-0.2525866275,-1.3710128776,-0.2088814006,0.6365760108,-0.9177203519,0.5958730977,-1.1219305655,-0.1020876017,-1.4775132705,0.4811737472,-0.2360039497,-0.7511228058,-0.1673469883,-0.5647882302,0.261068725,0.003403378,-0.295474609,-0.8859073157,1.2164486506,-0.0930085556,-0.8389575082,-0.9346427907,0.0318073325,0.037840386,0.6194541521,-1.3340794443,0.8206728716,-1.2212211236,-0.7572808134,0.5471645371,0.4874735011,-0.3620761743,0.0305718999,0.6047630753,0.3157803935,0.4862783967,-1.3147209042,-0.2397706495,0.2879074485,-1.1077861714,-0.3106638505,-0.18006485
