encog,BasicNetwork,java,3.3.0,1,1463787407005
[BASIC]
[BASIC:PARAMS]
[BASIC:NETWORK]
beginTraining=0
connectionLimit=0
contextTargetOffset=0,0,0,0
contextTargetSize=0,0,0,0
endTraining=3
hasContext=f
inputCount=279
layerCounts=10,3,51,280
layerFeedCounts=9,2,50,279
layerContextCount=0,0,0,0
layerIndex=0,10,13,64
output=0,0,0,0,0,0,0,0,0,1,0,0,1,0,0,0,0,0,0,0,0,0,0,0,0,0,0,0,0,0,0,0,0,0,0,0,0,0,0,0,0,0,0,0,0,0,0,0,0,0,0,0,0,0,0,0,0,0,0,0,0,0,0,1,0,0,0,0,0,0,0,0,0,0,0,0,0,0,0,0,0,0,0,0,0,0,0,0,0,0,0,0,0,0,0,0,0,0,0,0,0,0,0,0,0,0,0,0,0,0,0,0,0,0,0,0,0,0,0,0,0,0,0,0,0,0,0,0,0,0,0,0,0,0,0,0,0,0,0,0,0,0,0,0,0,0,0,0,0,0,0,0,0,0,0,0,0,0,0,0,0,0,0,0,0,0,0,0,0,0,0,0,0,0,0,0,0,0,0,0,0,0,0,0,0,0,0,0,0,0,0,0,0,0,0,0,0,0,0,0,0,0,0,0,0,0,0,0,0,0,0,0,0,0,0,0,0,0,0,0,0,0,0,0,0,0,0,0,0,0,0,0,0,0,0,0,0,0,0,0,0,0,0,0,0,0,0,0,0,0,0,0,0,0,0,0,0,0,0,0,0,0,0,0,0,0,0,0,0,0,0,0,0,0,0,0,0,0,0,0,0,0,0,0,0,0,0,0,0,0,0,0,0,0,0,0,0,0,0,0,0,0,0,0,0,0,0,0,0,0,0,0,0,0,0,0,0,0,0,0,0,0,0,0,0,0,0,0,0,0,0,0,0,0,0,0,0,0,0,0,0,0,0,1
outputCount=9
weightIndex=0,27,129,14129
weights=##0
##double#14129
   -3.0501082933,3.3143275156,0.3225933933,0.9785644421,0.0144835105,0.3163606548,1.9881664689,-2.4648780881,-1.0483374267,0.5820066828,-0.3509200054,-0.5061380192,-0.9921353965,0.9652941693,-0.8906850783,-1.5620589988,0.8376658437,0.1362539261,1.3212386343,-1.7413049774,-1.2029765372,0.5536411739,0.8808285837,0.1799315883,0.0832662939,0.510672407,-0.1913080104,0.4869074061,0.4250731767,-0.8519475781,1.9459079713,-3.393341826,-0.8225065717,3.3997340494,0.2698176755,0.8775855138,1.4916891588,7.8589547828,-0.3100408348,0.072554316,0.5836597502,1.0593922909,-0.5413601947,0.0013406351,0.0617389012,-0.7948593743,-0.8773322651,-0.7389450835,0.3560557176,-4.4552595671,0.4498005655,0.4516680349,-0.7175900313,0.4105022903,0.5391048954,-3.4978504717,0.8330808772,-1.815294142,-0.4041096512,0.2104885278,-0.1121976761,-0.5706612318,-0.8161010713,0.353212515,0.5351444026,-0.0745262306,-0.2945676702,1.2644479396,-0.2567417923,-0.4095304679,1.1353796347,-0.6655930404,-0.2665869561,-3.2950866647,-1.5272654357,0.0944762035,0.4580665667,0.4922577651,-0.0593117262,-1.1004525341,0.1153269803,3.089777013,3.7642774608,-0.2735970327,-6.3600473017,-1.3449326042,-1.6093714261,3.1608609804,-7.1383822007,0.9488248247,-0.4069443942,-0.0070185403,-1.8269818772,-0.3340092369,0.060578606,-0.5108492189,-0.9674213175,-0.8648252549,-0.3001545687,-0.8029723618,3.6588259109,-0.7643187388,-1.4199585856,-0.0364774783,0.0408273272,-0.6350580921,2.7328366884,-1.3808046788,1.2493309577,0.1380420791,0.1941821124,0.1126449743,-0.8691182516,-0.7819446186,-0.2411543247,0.2992768309,-0.27799863,0.1784922796,0.5743070808,0.0612527754,0.2703310431,0.0589719591,-0.6581736569,-0.9748521602,4.8217248259,1.9274738815,-0.117642159,-1.3273436627,0.6988351329,-0.2045114262,-1.9171832669,-0.3768563526,-0.6460976358,4.7865019391,-1.2337628109,0.0257854694,3.9580723064,-1.337064662,-0.2559927721,-0.4743253217,-0.8027939539,-0.7809590801,-0.4678446994,2.0866527835,0.0000583551,1.7570848015,4.8411008518,0.4738095271,0.1369690175,1.657417775,0.5046673415,-1.0289450926,-0.3546185198,2.3116319522,0.8265781063,1.425437709,-1.0937548807,3.0943302516,4.4311345156,-2.4715541559,0.9109104777,2.2433533251,2.0107687183,2.4499074042,0.711666307,-0.2818201579,0.375960446,1.8315617914,2.6027136401,4.8650885971,-0.7879844071,-2.6741973089,-1.9639543219,3.2429083538,1.087138342,2.3427676796,-0.805453922,-2.1698821194,-0.2683815773,1.21005983,-0.0065287032,3.7889146036,-0.0910194805,1.4597782933,-0.4985843776,2.5712318946,0.1850173789,1.4592224669,1.4795164732,1.5028349793,1.065392641,1.8093467878,-1.1019080968,4.5070611204,2.0325698859,-1.0436079442,-0.5109173353,4.9444463637,0.55337653,1.4492228059,-0.8864953004,-0.1888163956,-0.4819780191,-0.2094415402,2.9910684516,1.0194418253,3.6871505345,0.2803042652,-0.8550058194,2.1377781415,1.3150011257,-0.3319373734,-0.3941507908,-0.9561489104,-0.0746788526,0.1585535468,-0.0739408257,2.8722876739,-1.9538657287,11.7872930538,-1.262817431,9.5537184492,-0.1719248196,3.757486181,-0.4004324789,0.6943822449,-0.0634076005,0.6613091212,2.5599664892,1.0815682786,-1.3566104709,6.5219697483,0.9200500796,3.8682832227,0.9946438067,1.5655202408,-0.0043039876,0.4299321628,1.6937706173,1.691910354,4.0602719457,-0.7773985114,2.0031226756,0.2797938977,1.1334530148,0.3844290586,1.6169606591,1.5538456339,1.9298456134,0.412009821,0.832131352,2.3791047974,2.799968977,-0.0338146214,3.9183866092,0.6101410875,0.030809025,1.1149482311,0.7163417349,1.0753984819,0.6083490652,-0.2877510377,0.2348663194,0.6880255255,2.1660246615,0.1441983877,2.1273503155,0.8532574103,0.2305042472,2.0754732185,-0.2588875478,1.6073623202,0.5469057104,-0.7288232747,0.6603132915,0.7558627327,2.7867189956,-0.0253035248,3.7071417193,-0.3860185415,-0.3221370893,2.9143595573,-0.2764150438,0.7957427225,0.4961030138,0.4656467073,1.1524897517,1.0843361793,-1.6026130432,2.2759581914,0.3842401325,-1.5313406351,0.7721013434,-0.146067679,0.2862788372,-6.0450608357,-0.69701658,-2.7394186786,-1.7946942014,-0.4567174051,0.697056215,-4.0834365293,-0.8083070247,-0.7633917805,0.2995432395,-3.0797334164,-1.1511355008,-3.0609640763,-1.5588856217,-1.6621459408,1.5122491561,0.6816976641,0.4616658914,1.8793529926,1.8860715177,1.3690325433,0.4558511942,1.3833678596,2.7418836024,1.9050743751,3.3354875116,-1.154021579,1.7983909453,1.4712195053,-0.6269739896,5.9087516809,1.3763597548,3.8864571697,-1.8983699968,-0.8442812541,-0.3746465123,0.1772479038,-0.3772977618,0.9505699689,0.0181011245,-3.980455709,-0.3829416667,-3.6091057414,-2.2078688473,-2.6514816413,1.6382560462,-1.7144820484,0.4557586042,0.7610333556,0.7223852059,-1.1339641523,-0.4353168212,-0.7567982583,1.9967511943,0.9896552408,1.0345557733,0.3088943923,2.5611527936,-0.1323870694,-1.6832817086,1.4137064881,0.114768259,2.0714208747,0.3126125367,-2.8254877789,2.5489904875,1.5745961994,2.4800863381,0.1932694412,1.1055790658,-2.7777854468,-0.5477529746,-2.7477870715,1.2993276037,-1.5099937645,3.0242580738,-1.0588230261,-0.1379369696,1.2611557326,1.2607235615,-0.8371417798,-1.6426247385,-3.9841662294,-1.4182760857,-1.4589277678,3.8181950154,-0.7424235958,0.0367171422,-0.2255989993,-2.0785198583,-1.9514951683,-0.663831264,-2.6249088,-3.0903380041,-1.304738056,1.6312045514,-0.9793499569,0.6191725671,0.9515412654,-1.0224513641,-3.3981607696,-0.8052682526,-2.1221005937,-2.694970754,-0.6912123747,-0.0696827098,-0.3864711906,-0.4714640107,-0.1148883722,0.8908213758,-4.1344842855,0.6105680742,-3.0045051198,1.2709536044,0.8933640499,-13.6358850475,1.9457376504,-1.7052549186,11.1505211898,-0.4595267617,2.5097441982,8.8295431676,-5.5984111143,-0.7596490281,0.2090116139,0.8280240488,0.5797872185,0.7591891349,1.5861590951,-1.5600954942,8.2543221335,1.9858550786,2.8696194363,-0.3458619411,7.0053691287,2.0624831941,1.7551949196,-1.0067602595,3.2554571611,4.4774857837,6.1184708345,0.1966225016,8.7123730405,3.1055202946,-5.0377167461,0.6736702237,6.5803644384,0.1660069199,6.1623844913,1.2349352436,1.8899338881,-0.2026414051,4.2323087659,4.0933436051,7.6054616199,-0.1945399258,-3.2086967831,-3.9538832839,4.3620362437,0.5725105287,3.5722766564,-0.7876609758,-5.5350287344,-0.9406126007,2.6524310184,4.8814439456,3.2593262899,-1.4320297419,-0.8135873934,-1.2359714453,-3.5300681148,-2.9393636361,1.9926720019,0.669639492,2.5859821607,1.080836766,4.8073031029,1.066713604,9.5441879342,-0.809628198,-2.4667487947,1.0498826358,12.4581031226,-0.0663496535,1.8472085479,-1.0676119134,0.1324641992,-0.6460343473,1.9092719624,5.6054871257,5.9310896441,6.0231615049,-1.2029608405,-0.3936168343,7.385838177,2.1713746576,-2.3956447898,0.5815251374,-0.4932982833,-1.2008977786,-0.2944066458,10.0142461399,0.1675250069,-7.8677352929,11.6053654984,-1.0862157827,8.9356488133,3.3294373096,3.1504744125,-0.6368407502,0.7214990784,-1.0965274491,1.766303735,15.8638266711,-1.1795692501,-4.96667814,8.9514968628,-2.2655488583,1.3091901733,0.5575901724,2.1752162725,-0.4178588108,3.4105162447,3.2943728351,3.8124546694,17.5565169627,-6.0326085778,3.12820618,-0.12965337,0.0437536176,-4.4145500685,6.9924336995,0.2054936431,3.9325569504,-0.0125671227,0.3279601902,9.9983958033,11.7614103648,-4.9266926034,4.78212363,0.5024966281,0.3463735746,-3.0027723096,3.7848429451,1.0149793283,-0.7327294808,0.8820965399,0.7021832276,3.9702120719,7.2144235596,3.8294567715,0.2506213328,0.939327145,-0.340639642,7.6950237736,-0.099461139,6.6714222847,-0.2949617403,-0.6985746932,0.0208374697,1.7636389257,5.2067156754,3.1403043428,-2.6542724807,-0.1596252982,-0.480453591,7.9935272807,-0.165766787,-0.6902543711,-0.5954657009,-0.1996640491,-0.2124544664,2.0527285241,-3.6738929527,3.3867169283,-1.6119762701,-2.1660102179,1.9233039761,1.0343588986,-2.1617871375,-13.048283302,0.86768559,-6.1549390509,-6.1949577148,-3.56600306,-3.9149260934,-6.6101183759,-1.2379457211,-0.893914768,-2.0910237807,-6.2867967391,-2.0415194649,-6.998279678,-0.9482403493,-3.1251882953,0.9709102348,-3.9800986163,1.2738547771,3.4203675723,0.1947105924,1.2281428121,-1.0031038405,1.8018882504,6.7662458524,4.2500010476,2.8117110783,0.589749797,-0.404802913,1.2159522201,-0.4266370708,16.6707915783,3.2105746085,11.3162560769,-2.2518127019,-3.5356208823,3.5596937983,-0.8619798564,-2.9531720208,0.5832071835,0.7887894208,-7.3170932011,2.7939292612,-5.7359013278,-1.5692116436,-4.6078219651,-0.847022675,-7.9708055991,0.998139437,-0.278817429,-1.1025704221,-2.3075561901,-1.5013980058,-1.2981408904,4.0713975281,-6.0516447039,0.9072433585,5.8149495188,1.9007884581,0.2444767387,-2.5057515775,5.6140672521,-0.2384419784,1.209614407,5.2280564351,-11.123675616,0.0333743328,3.3917449207,2.2308856032,0.8983810923,2.3852837847,0.0039495135,-5.423044448,-5.7230902649,3.4132084826,-10.4727328241,0.3661212498,-3.7268794848,-1.2827212908,0.4089070515,1.3360622251,0.1353666856,-6.7705025516,-9.417230032,1.986379503,-7.4462779861,-0.2849464956,-0.7990110485,2.0132378173,-0.2926798557,-2.3560874688,-1.6645785109,-5.9727548628,-4.433719371,-3.9651031214,-1.4143982699,-3.4305015266,0.3540849003,2.3115698903,-0.1834617432,0.0824474224,-6.8623003029,0.2839040924,-4.281919381,-5.6966894761,-2.2392778075,-4.6313195392,1.9589843076,-0.555747447,0.9907364368,2.1890707647,-13.2960145101,1.9542182271,-5.4273174128,0.3755295314,2.0899594775,1.2827565041,-0.0899116612,1.4106128798,-9.1985247859,-0.076243534,-0.2921599224,-7.452580277,4.3306652387,0.0068633965,-0.5517958952,0.4958439179,-1.0420909925,0.4505703822,-3.5106126437,1.0997943098,-3.8617952416,-7.9892705101,-1.2901170989,-0.2603749863,-2.9742272086,-1.2809219222,0.6990663422,1.6319264456,-4.4074681586,-0.5588127117,-4.691143276,1.2069255213,-3.8611158953,-8.3827957001,3.6705738184,-0.137758586,-2.8191261698,-2.5637736741,-3.6070382859,-1.0441714963,0.3050198178,-0.6847123757,-3.0773170406,-3.5648566448,-5.9717049053,-0.0149066052,3.4650786667,1.8450035584,-4.3974897759,0.5695501434,-3.5805007368,-0.2054870423,3.6500406435,1.8182226541,-1.5990060354,-1.5886324489,-7.7497776876,-0.0286006294,-0.0840017164,0.6482335355,-4.2663125676,1.0629191424,-1.662354977,-0.3107176037,-1.9575903862,-2.1844068545,-4.2678643003,0.1374348935,-6.9765168033,-4.5646329123,2.5175686229,0.5247680855,-8.9262755229,-0.3276566957,-1.8335335797,0.7247326934,-0.769475116,-0.4398088669,-0.0859532223,-4.8850325883,-1.352468066,-7.8090508022,0.8497349473,-0.1760225168,-5.2546354432,-2.6705320364,1.9537660064,-0.8527251673,1.3909729303,0.5744415947,-0.671067747,0.8180750724,-3.5140539569,3.6069757498,-18.7380901341,-0.0380156115,-16.5504464731,-1.8937750281,-7.6774535373,-0.0503233122,-1.1100495588,2.2582182092,-2.7228528829,-3.6949526349,-1.6522105114,2.5703194123,-10.6242356605,-0.3940942446,-5.5862831112,-0.672571201,-3.6640306321,0.664965465,-2.3562935894,-1.4529664889,-5.0567728208,-5.5626056973,0.965427892,-4.4181331473,-2.5304707957,-0.7744345287,0.7767183715,-4.8838943049,-0.6727392616,-2.0487710533,-1.5256118759,-1.343655197,-5.2682332827,-6.5035629835,0.1924886315,-5.9234477766,-1.4064238466,-0.0077280039,-1.9653566246,-0.4751455331,-1.9041392109,-1.2531005453,0.6183972165,-1.5724049785,-2.7154051064,-5.3634870458,-1.8312872584,-5.07406376,-0.8164945052,-1.2887441829,-3.1317062411,-1.2303944636,-2.6063670059,-0.5942932301,0.0440795447,-0.9142946456,-0.5068163292,-3.6913321337,-1.1119687505,-4.3601247722,0.1944698361,0.2792252597,-3.490403434,-0.2838691819,0.1961618149,-0.2821048578,-1.1002330633,-0.7060170078,-0.3194468083,2.08874665,-2.5457236961,1.7481066063,3.1653229926,-2.2184504317,0.5908780466,0.2670641376,8.1792251824,-0.7097919978,5.3797957262,4.1562388268,0.2050884239,-1.9457896109,7.6417510576,1.5657132612,-0.9202895119,-0.215889299,5.2176331411,-0.7140775351,3.3000967336,1.8776724031,0.9530676276,-1.5420655207,-0.6106940031,-0.4451261455,-3.265426079,-1.1154923631,-1.7366328364,-1.2416542305,-2.6596053887,-6.1170289762,-3.1089355702,-4.8888762057,1.5538283633,-1.7275505269,-2.1379425557,1.3005395437,-11.4708070519,-2.1297744994,-7.9217861664,0.674969708,0.512358102,-1.0352038806,1.7414175675,1.6213078566,-1.2496595257,-1.0637490605,5.4829585868,0.2822668474,5.4918771198,3.3667243498,4.3952293931,-1.7921560568,4.7638542779,-0.613804727,-1.6061387519,-0.5991503145,0.8692787158,0.8439240268,0.7901737206,-1.1216094648,-0.7134764261,-3.6130315646,-1.2545592299,-5.4524064525,-1.6292507243,2.1693616717,-0.8751898995,-2.2411465229,-2.6608600207,-2.0172556231,3.1944030417,-3.9159119088,-2.178702461,-4.5426120259,-1.2244350517,-0.9460715328,4.8149954907,0.8346806534,3.9687160305,-1.8137499868,1.6479666037,-6.8964942739,3.7986974561,0.1667896938,-1.0503472488,-2.3363273843,1.9448267629,1.4740649779,4.8179768115,1.1733569747,2.0398296073,-5.6209753477,1.6403005412,-0.8725465209,0.9687372218,1.8223813843,3.4876344061,1.7306079103,3.0507436189,4.5012134164,0.021351615,-0.6067305978,2.1345612161,-1.6292486086,-0.4849843687,0.4957153957,7.6615995769,0.7261590416,3.0708264915,2.5800288761,3.2877731053,-0.6724661179,0.2572024516,-0.9795933407,-0.8629638522,-1.0445893142,8.6623110725,-0.0323044715,4.3687399249,-0.1747017524,-5.8932928164,12.2970963025,-1.4306931066,-0.9269095742,3.5684843019,-1.9840670393,-3.1966631779,2.3601234018,1.6384114726,2.537545142,-0.1474765998,1.4662777469,-0.4365453222,1.4499987044,6.2912431097,-1.6467619649,-5.8360365363,18.9167968809,0.4305913743,-0.3092921952,-2.3409659014,1.9132008077,-1.8043643799,-3.8565444973,2.1370037695,-2.773008672,-2.5023563499,-1.0912693552,-4.9328838846,14.4696423964,-1.358868304,0.3189237356,-1.1439324958,3.6344155439,-2.4790746992,1.9805524123,-2.0049074427,1.8500940352,-1.0233992811,0.1487893105,4.1704570316,0.4759902515,-0.4840852977,1.1707832331,3.6804011699,0.6899994284,1.253348003,-0.002549674,0.6673535305,-1.0362240018,0.9842113684,-5.2601839678,11.9099734118,1.9611596452,4.7568136452,-0.0567617348,16.7456860238,0.9834748226,2.6196037687,1.4137954855,1.4861062107,1.2918689,-1.1465519561,-3.7239515416,-0.3872703183,11.2299124552,1.4258231629,0.7982762275,0.3823522291,-0.0917033287,1.7172844504,0.5601463149,0.8275322312,1.6926769527,-0.8951654853,3.6296246788,-5.5477232393,7.3960115317,0.9207971929,-0.4012532241,1.6879898245,3.7238673353,0.2849320628,0.5912202221,-0.9956362838,-0.3603828106,0.2702295061,-14.6007898167,6.4910773901,2.6605331923,25.4426869592,0.6825521295,22.8707454767,-3.1515270311,10.5419381086,0.4657446129,0.4521219877,-1.6028512666,3.1387199231,-15.0671557629,7.5476673718,2.7100092962,14.3210904206,2.9924290374,10.5682557201,-1.2877913181,3.0971731441,-0.2839830943,1.0941844881,1.1070635439,4.607475097,-14.1868661046,9.9911289467,6.4053598357,2.6922470641,1.4608420757,7.4625663853,-0.4702886852,1.2162027324,0.6869024078,0.156639287,2.432539895,-2.4531163785,-5.615535791,4.6680418219,4.5308175049,0.8366293746,1.0444347432,6.8212839002,-2.0304243671,1.8332934287,-0.3291350313,0.6527409448,-0.082068292,-0.5469982231,-0.5201120225,-3.2409374303,8.1012843568,-0.8405047384,0.4579251431,-2.5943274616,-0.2284062664,-3.8199692776,-0.1559774863,-0.6438994204,-0.2194719123,-3.0867580359,-0.0220343,-5.1684089602,13.6887211412,0.391872558,0.4821244961,-3.5552046485,-0.0919272555,-0.3917829155,-0.2714015809,0.3781274392,1.3803653005,-2.6224880585,3.921506181,2.8008546262,2.4699015231,-3.115986464,0.2259779628,0.049669199,1.0133886661,-1.0587198926,-2.2086549381,-1.3673448374,0.1659374409,1.603423257,7.6470588979,-5.9101500513,-1.0565943446,-0.6138070926,3.0563073419,0.2186982403,-0.4099207975,0.8316799072,-3.6397135825,0.681089496,3.833245719,5.5486542191,-1.0338625021,0.9792160644,4.8386247216,1.84647064,4.8249747713,3.9059473746,1.6443154454,-0.0236493511,5.4221327161,-4.5309269231,7.3534768718,0.6268035251,-1.3341247249,0.1304394051,3.1070341449,1.7999691883,0.4233171202,4.328712026,-4.3888414456,-2.3959511743,0.0728151743,1.2502104589,-0.9939586211,0.6878100311,-4.3956629262,-4.3193835451,-1.4218798798,-1.4643869254,5.2270932081,2.1867076222,0.2030015682,1.5656912525,4.5355248248,-0.2491333999,1.3091279387,1.71004312,-2.0099649195,12.3724184499,4.9552143644,-3.0481934049,7.5227915834,0.6106446475,-2.4567292707,-5.6798795278,4.6115488381,4.7813998139,-4.6202638134,10.5506601903,7.5852787912,-0.3096446763,7.4789044637,-1.7393528109,0.9251375034,-8.9541729543,6.8931157862,0.2919536181,-5.1737880228,9.7410011434,13.7294528182,-3.1540405731,1.9921803731,-0.9169481342,2.319770119,-5.0505992807,7.2359101476,0.4127843204,-4.8132659234,3.9364446647,11.5555712509,-1.8981035743,1.2843234115,0.0031338785,-2.664330957,-5.4424993412,6.3082589661,-0.6414613856,-3.6718858273,0.562215599,7.0772389261,-5.3345249643,-0.4099931786,-0.2835447838,-1.7354673777,-4.7748789629,-0.8082589347,-2.1745007481,0.0211354555,-2.6827590326,6.9617502768,-3.7876472852,-1.1656715475,0.7643016156,-0.5863955649,-1.3274727377,-1.1616393881,-0.7389592621,1.5370961542,-2.6863243713,25.4558798051,-4.9969404802,6.6805713841,-32.0243832486,-1.5147354634,-9.5837807296,-24.8044658794,21.6416069484,-0.2959223816,-1.3244523255,-0.4285787024,-0.9172869616,-0.9391471711,-8.2695550468,5.6378754259,-25.029001328,-11.0278777086,-11.4102965684,-0.9302168691,-21.2758126687,-7.4137398502,-1.0011227864,2.5015460042,-16.0674298895,-11.5510115894,-20.7014239534,3.7633151417,-27.8763295557,-10.0053080051,18.3321742658,2.0276654293,-14.7271485948,-6.4037356532,-20.1057411466,-7.4531792097,-1.869798845,-2.1618449845,-15.4809433322,-18.8549614294,-28.8756173964,6.9662589369,19.012322734,10.7469994763,-12.4224237097,-0.229578032,-16.8164125276,3.5673668574,20.3707511397,8.1344253057,-6.912870094,-17.2339942906,-10.6444894137,5.8519748173,6.3335959314,4.3538897247,9.1932009611,7.0439281917,-3.8999130394,-5.0593200275,-10.0160202317,-5.0238612227,-20.7428685675,-2.895938833,-33.4805973678,2.8290837259,12.0561187371,-1.358413787,-41.4245278887,-1.3406547015,-7.2376438468,2.4562552621,-0.8450989997,4.5199193117,-5.5971051203,-15.5639460201,-16.6715242294,-19.277008499,11.480669641,1.2719289474,-22.4820553056,-8.7663456252,9.4777813066,-1.3792060278,2.8220111678,4.5325150458,-0.3146103148,-21.4771440798,-6.8577192983,20.1290557586,-57.8282729474,3.8059545328,-38.5607245822,-9.0247172058,-17.1234224948,1.989526993,3.0674195673,8.3190460702,-6.7807047537,-48.8942155475,2.1205210451,18.1461981367,-34.716048996,7.1238257401,-8.5638446415,-3.0377358598,-9.8713048265,1.9079051137,-10.4426148327,-6.831138953,-11.2068223906,-64.3844115554,19.5924923108,-0.8824843446,-1.2764562845,3.2762371553,16.8213976666,-23.5495003504,-4.3278339007,-13.48903442,-0.2726317332,-0.7514433084,-36.6591766727,-45.4572650156,15.3438332176,-11.3095802814,-2.4699211912,-1.7215242994,4.7300716362,-14.2488993074,-6.9054472033,-0.6318659746,-1.2108411945,-0.3267036518,-15.3612300008,-29.0677036899,-8.9195798866,-2.5675138776,-5.3848340702,-1.7702402468,-22.3560165157,-0.1844063871,-17.5962519776,-0.5143571962,2.7276439644,-0.4905755427,-9.6383520747,-19.2874483622,-8.5623163486,0.2841674046,-2.8726560582,-0.981397827,-20.9550314291,-1.3969097461,-0.0438282133,3.505900266,-0.3397428049,-1.5144721571,-4.7849257973,7.6724568075,-12.2605463633,10.8805832078,10.035814535,-8.0134942465,-1.576942095,5.9594627495,32.9089410463,-4.1006469461,16.0792296085,13.408140897,8.3341124641,9.3739710676,23.688664836,3.6210199534,0.1583297009,-0.7249994123,16.6029335959,0.834473012,13.4072101103,9.7892579144,4.4702019173,-3.5943905747,6.3565492062,0.1823426201,-13.5933037492,-6.9158532368,-6.7197165759,0.7339290226,-8.4008303392,-21.5311060209,-12.0964804485,-11.6932999765,-4.4198619972,3.564215552,-6.9483756769,3.3551400203,-47.0907958902,-9.5683781138,-29.3460167312,8.5579699722,11.3475934123,-5.4108430639,-1.5347839259,10.2074502979,-0.7612578807,-4.2498327517,22.1020556092,-3.660470904,14.5615564826,7.6381957627,16.0871596785,-0.1614800756,23.7689865608,-3.3123065981,-4.7383294368,0.9900707534,2.4198816439,3.5060260836,1.3294387588,-12.1001898071,10.5205881258,-4.7768792514,-16.9177618695,-11.3736770931,-5.7267219567,4.8716034893,-12.3134857988,-0.5048561183,-7.0602809223,-15.4061045356,35.8669342486,-6.4524620934,-15.9732879934,-11.8954838245,-5.4683709917,-11.8605692006,5.9142134476,13.574794902,20.8245258586,-12.7716354021,32.6343758388,-7.4943743714,3.8642009158,2.1552982485,-3.3671743842,-9.6400191681,-0.5284884305,16.3306292199,23.6192057249,-5.4450587591,23.5309309869,-9.7467393353,-1.7721327736,-5.3495095315,0.2081424729,5.9932502975,6.482632647,11.5343831552,8.8109021811,11.8741262593,6.7518038718,6.1214185266,-1.9483302032,-6.3832208011,-1.4936392161,-1.7704591476,18.6927375122,-0.8191295399,5.7591426123,14.4645894542,8.987807283,11.8026364049,-5.8040361551,-2.0404604591,-1.7610764836,-6.7201516396,34.3456500361,-4.4094233623,14.9609380017,-1.6632387154,1.8959033099,-4.1475133184,0.1578303363,1.6769993609,-4.219217278,1.723115269,-0.4789741844,-4.8236105891,0.3737408008,-0.0987448855,0.5319103957,0.2932210119,0.2833706227,-0.3252413191,-4.418571336,1.0759415686,0.5991133627,-9.3576725547,-1.9383699966,-0.5858250815,-1.038414447,-0.2717899461,1.0517022095,1.6269988614,-3.3855539751,-0.6876191426,-1.1539999838,0.723776594,-0.9620181937,-7.7675444807,2.3085166646,-0.8948430314,-0.5301799808,-1.4993838336,0.2020796234,-0.3865293478,0.776770122,-0.4049926135,-2.1139522444,-1.3450095869,-4.5766530624,0.5987811208,2.4253438485,0.5027535839,-1.8499847658,-0.5956996473,-0.950481777,-0.1141004131,1.1193671883,0.3316409847,-0.6594621674,1.4108649011,-7.4281909968,-0.9084998861,-2.264388684,0.8927105587,-6.503638496,-0.4350966584,-1.4482973739,-1.4469635915,-2.4118175133,-1.3283716948,-1.4643664251,2.0207601853,-3.3451831534,-5.8064992966,-0.1193999356,0.1691338849,-3.7325468826,-0.2825248634,-2.3854258913,0.3759384813,0.2662043884,-0.601454413,-0.594445667,-3.162566877,1.0350210371,-4.8064976841,-0.4324776753,-0.7436837524,-2.6832209548,-1.5334892918,0.8870869269,-1.1418414992,0.5936595334,1.3330250812,-0.5228500126,5.5507932523,-4.3504795635,1.2380002064,-16.3759968019,-0.533396556,-15.0760057387,1.0933797315,-6.9839731887,-0.5907890805,-0.3061402665,0.3458274515,-2.8607047033,3.0642745895,-2.4500811708,-0.843803138,-8.9079604863,-1.5782532717,-6.2702972263,0.374439319,-2.1245705017,-0.2388446582,-0.1018602374,-1.4999434456,-2.7399043097,1.5117854675,-3.5475814423,-4.2750085495,-0.9046316884,-0.775767399,-2.143594928,-1.3159104628,-0.3243679384,-0.8441033811,-0.6829543884,-0.8090026689,-1.6494213663,-1.3893218571,-1.2831547789,-3.5484045433,-0.102472921,-1.7158541138,-3.0364979786,0.6074655502,-0.5494918691,-0.5237290246,-0.1818625467,-1.3667557594,-1.2697687824,-0.9648734879,-0.2053325506,-3.7323504827,-0.4768478087,-0.7739105375,-1.3283972388,0.5836615117,0.065632682,-1.2348690185,1.1792219755,-0.3076692384,-0.0171285231,-1.7519720123,0.4641081342,-5.8527345842,0.9305376349,-0.4988393751,0.2855875101,0.1772543236,-0.534140722,0.2131846059,-0.122481058,-0.8795734738,0.3377992114,-0.1223285038,-2.0822506993,0.036238445,3.2497277262,-1.0163199829,-1.1393424079,-0.0071677357,2.8147617324,1.7108836483,1.7681456732,2.7313801052,-0.8191268762,-3.9284917818,4.08469952,1.3448744754,-0.2882462016,-1.1451464564,1.2185628147,-1.2184146634,1.7210019376,2.3495611042,-0.208073372,-1.9340093884,-1.7279491445,0.624393587,-2.377945937,-1.65187392,-0.1776035418,-2.6484085984,-1.9936944974,-2.7246894748,0.3464973515,-4.2272087071,2.2745822079,-2.2088560313,-1.6904985408,0.3064313383,-5.698127044,-0.9668278351,-4.1408200289,1.4316676724,-1.0457308494,1.824117178,1.3711324706,1.4247486187,-0.1895242758,0.1295831959,1.3573753494,2.2502302943,2.5198192549,1.0473565223,1.2002050573,-2.7948748487,0.6704273981,-0.8511507408,-0.9354957893,-0.5500911638,-0.2575651279,-1.3340562234,0.176654634,0.1987804781,-4.9713294526,-3.0050800281,-0.0320169096,-4.1296731214,-0.0402681924,1.8462383554,1.5204012574,-2.325258925,-3.1766618362,1.108965297,-2.0819301822,-3.6784464535,-0.3300378291,-4.9028088936,-0.2026054074,-0.2278922348,5.1604436654,-1.2683640896,0.5720750441,0.3022862547,-2.5046778533,-7.830952253,2.0924771729,-1.5378473107,0.7611169072,-1.6422121849,2.9519200199,-1.2411819538,2.6793091381,1.5929513861,0.4252365983,-5.1910136424,1.4565097346,-1.3008899308,0.4855815529,0.7084833765,3.9092070805,-0.8306706988,1.8072981739,2.923118585,-0.6125455764,-2.9712005982,2.2942730139,-0.6801492199,-0.6182583909,1.1965710825,3.6740432123,-0.5466324581,2.3257263429,1.7090221727,0.7508927821,-1.6680173728,0.7528993462,0.35665123,0.2105520485,-0.3381062067,3.8753027881,0.9235206438,1.2376501477,0.1211988318,1.4067196245,-15.0977082907,3.8226455029,-6.6802475972,25.4236690418,1.1089871099,8.6765978479,20.4144338104,-17.1852796581,0.9160831907,0.9132733293,-0.0361887565,0.9062755509,0.1891735102,5.75136432,-3.8419544599,22.1454770417,6.4103539227,8.792626567,0.1248688406,17.3908562515,4.0249288986,1.6813749282,-1.503103139,13.8559635884,9.8500964574,17.6479461465,-3.4835697787,23.5447305725,6.0625107705,-17.6118374007,-1.3868767783,11.6152327689,4.3464396628,16.0076841677,7.1137861982,1.7771560622,1.43861292,12.2824330073,15.3683318944,24.1653048865,-5.7960039438,-15.6594511565,-9.6452001386,9.3742482922,0.3378230124,12.9147025199,-2.9568626495,-15.2235966996,-7.4214651752,5.8808996882,14.9431799148,5.8662001281,-6.0676585526,-6.2553661553,-3.5000270085,-11.5036851259,-6.6061950563,2.7377079901,3.3000932574,7.9942944643,3.2049195105,16.9364530448,0.9643929693,27.8356261971,-4.0767912481,-10.0100699385,0.3290132041,32.9241370287,1.0285148627,5.7249461547,-3.6415446292,0.6365449641,-3.2740709562,4.474328205,11.2676287896,14.3890764621,13.7866111649,-10.6626758029,-0.0769902835,14.7888478063,7.0077636208,-8.5096552928,0.5561862629,-3.2213542626,-4.2696490202,0.5094289707,15.3636410792,5.2303918593,-14.0015595474,47.9379380032,-3.3632392509,31.5249503549,7.7479971116,13.0234062341,-1.8031353906,-2.8047096852,-7.7660424597,5.09773613,40.7773136987,-2.4499706231,-15.4021690294,29.1300159281,-4.9601037591,5.2533984343,2.1719717962,7.6787552447,-0.3491902536,8.3597764928,5.7378252024,9.388266297,56.3429600227,-16.7287147003,-2.1758459981,1.4908957687,-2.7497295591,-13.5455292451,19.8049133911,3.8142249967,11.1688207636,0.6965915237,0.3814109774,31.8178552277,38.910555612,-14.4942393292,7.7224948303,2.58570251,0.9023526198,-5.4957724593,13.2784012956,5.5507806991,0.0875204786,0.581512886,0.3125207282,14.0728676384,24.2815068158,6.9044028925,-0.4083160005,4.50313228,0.6994846068,18.6577297249,0.5837199418,13.6146259855,0.9991040016,-2.183114651,1.5986504289,9.8352964758,14.8924700717,8.4427582423,-0.0058042472,1.6328809947,1.2075045599,15.9220096515,-0.1319192896,0.2066267195,-3.0444208506,0.2061180882,-0.0087417136,5.3036237269,-4.1417284764,8.792551331,-7.3374561333,-6.8609192061,5.9026894034,-0.2666453248,-3.5638888355,-23.5858464973,4.6284676595,-11.9044410224,-11.6450558264,-6.890942452,-7.0590650495,-18.9790871124,-2.1155864685,0.9874280838,1.2418425501,-11.8226045233,1.3125357576,-8.5362497547,-7.9941015418,-2.4569956392,2.8100757183,-3.8941835131,-0.7924441714,12.9445879773,5.6234620453,6.3534067475,-0.9842724177,6.4451337499,17.7082940439,10.216632753,8.6624001017,4.7490534801,-4.0948586782,5.1458318716,-3.3972363439,34.303825011,7.5313763729,22.0549789737,-6.9294194574,-8.2856569452,4.1328053284,1.4997670757,-9.2023003041,1.1373548082,5.4762133692,-16.7594206074,4.3169541604,-10.4991791858,-5.8079455968,-11.7370408008,-0.3199584543,-18.8673792511,0.7128643286,4.3133515463,-1.2647550098,-1.2681566092,-3.0313159503,0.5860597218,10.7642650754,-5.7653193616,2.3634540217,13.1500947285,8.8193333079,5.0521430127,-3.6942582971,8.4241638921,-0.2587096663,4.8483306815,12.6813899208,-30.2285886742,4.3093644222,14.3962886024,9.2376067658,6.4718102145,12.4376981381,-2.3869399805,-11.4163829557,-17.7409898425
   10.7176929485,-30.0610333217,4.6863478947,-1.0801230293,-1.6334172002,4.6286468819,10.0443156575,0.6867063554,-14.1349092011,-18.6440634995,4.7862887848,-21.2247231922,6.7613522297,4.2061017177,4.5917364031,-0.0956988072,-4.7283602036,-3.6730092947,-10.0669002921,-7.0383972165,-8.4700789656,-4.1739919974,-4.6435854161,2.4770174994,5.2315859912,1.4126663886,1.7122203214,-13.3172621688,0.4264485854,-0.7237601961,-11.4526803747,-5.7172006036,-9.348743403,6.1214348726,1.4065427485,0.0781802364,5.8640276372,-26.2358340373,4.4086173459,-8.7303977035,0.6899980858,2.3287101782,-16.3936789953,2.3161851247,-2.2691286252,11.7359658608,0.7640978471,3.1709027075,8.7656602201,-7.5099955693,-0.7620824826,-0.2727672252,-0.842421875,0.9618714515,0.5777292144,0.7732767527,-0.7550317325,8.8290335756,-1.693916037,3.3601244547,0.1619347276,7.6129729108,1.9688549564,2.4975924446,0.9095367218,3.1200704542,3.3573172758,6.5167981583,0.1566999907,9.2258667444,1.3381835615,-5.4395310296,-1.1058961105,6.3734372353,1.0966062789,8.4474919916,2.3888577564,2.0171360797,1.0823623147,5.0376638795,4.7290548614,8.432036204,0.0076141855,-4.5967771512,-3.871311648,4.1357195429,-0.3417240558,3.9000838125,0.001851575,-6.7067618131,-0.0203084464,2.1447669533,6.5666529954,1.2901241753,-0.5187284225,-3.5401214424,-0.9387667353,-4.6022197106,-2.9941252481,1.5189748886,1.3149825754,1.9646518558,1.531667449,5.9700221839,0.7621250109,9.2430146328,-2.5175072352,-3.4431682954,-0.2308540687,11.975202166,-0.6344919118,3.3662647807,-1.1870229334,0.9816946704,-1.2105351828,1.6525392197,5.6516518867,5.8527435774,4.9174062003,-1.8806326032,-0.3536888996,8.3732222623,1.2700775847,-3.4364469852,-0.7551563933,-0.526570221,-1.8894850772,0.450663941,12.0707787488,0.0754110022,-8.6522767348,9.6625558128,-1.7699005522,5.1452542541,3.0936608072,2.3676908809,0.3917752471,0.3890230787,-1.9112971415,1.3068743637,19.1060650269,-3.2602007448,-7.0571511191,6.3366884639,-1.6998020566,1.1058438872,0.9404215028,1.9916821947,0.523522543,3.9605725506,2.4651070757,3.4785888718,19.9399183201,-9.0928673974,1.0430114329,-0.1246979948,-1.696073389,-7.0509284068,7.2224998832,1.2838442573,2.799134818,0.4378234551,0.9263649458,10.0532155465,13.7717867731,-5.6185250711,5.5225238351,1.7556576419,0.4354615695,-3.491760967,4.2810514455,1.7942454207,-0.4152539914,0.1545470029,1.0527832632,3.8321984443,7.7904138226,3.5546607596,-0.065363432,2.5551316639,0.8024766505,7.6209363863,1.0258206441,5.6829759713,0.1476845534,-1.3719987665,0.7775241001,3.4790752699,5.8454372666,4.4689258272,-3.8271888848,0.6505611415,0.682539568,8.8896646557,-0.1085020126,0.7611436307,0.545074672,-0.7133981331,-0.1167061875,2.2625108682,-6.0819714905,2.1806967091,-3.6033155317,-2.3334771304,1.8458552803,0.8898598213,-3.3262932955,-14.0799829209,2.5668604636,-6.6457158592,-5.4903531992,-3.3094274421,-5.5383756679,-6.9548550687,-0.6510834973,-1.123601338,-2.9178642963,-8.2898413104,-1.3050024234,-7.9102914891,-1.7376817772,-2.6516106886,1.0654303376,-3.565796102,-0.0890688209,4.2155148085,-1.9704538902,2.1431377363,-2.1675302802,0.2627604441,7.0190146042,5.2207476074,3.4102085834,2.4015672968,-2.6918610501,1.0958630135,-0.4349751607,17.0794707748,2.7481906175,11.4058865356,-3.3391973567,-3.8100315753,4.1793963456,-0.3903446759,-3.2642137994,-0.3851695835,1.3316613821,-8.383737146,3.3764860209,-5.3075834823,-3.1575428418,-5.8797135867,-1.6233382892,-8.526502008,1.8477135492,1.0426029303,-3.4689623372,-2.4100738321,-2.9289149181,-2.4892688514,4.8062928812,-8.6808174875,1.7776181249,6.4936714395,2.0869635791,0.9199400126,-1.5004425049,5.7406161552,-0.953868748,2.4623788789,5.0659647114,-13.4156555172,0.085616154,4.3586304723,1.3522023822,0.4365727753,3.2549130545,-0.1590206875,-6.4298987439,-7.6137754527,5.6918116455,-11.4448921547,-1.3698499698,-2.6976010945,-0.4579256225,1.1888648784,1.4150750176,1.7475448395,-6.651799121,-9.3211761574,2.9718484374,-7.8924198244,-0.0671159002,-0.9112420601,1.6801435221,-0.7096920367,-1.1954782955,-0.7493600498,-7.35238893,-4.5743984643,-3.7608904388,-1.9015579107,-3.6962116781,-0.183282737,1.7843021605,0.6195543755,1.5307662274,-6.3102561092,0.6812240324,-3.5993103877,-4.8382037847,-3.2298381095,-6.3930710063,1.2144414123,-0.1952028227,-0.6951398726,2.2463372044,-12.3150041801,2.1143184794,-6.288157552,1.0245288821,1.1061732464,-14.0942523737,2.7334765717,-2.7712586852,13.9950989878,0.4054359509,3.5533257054,11.4826497453,-8.3890908505,-1.7664886047,-0.5438265993,1.2117438877,0.4032522579,-0.589681063,3.759254098,-0.8295965721,10.5246918277,2.7356850794,3.3763452465,0.9906080038,8.1908341849,2.1071148051,1.8555478862,-1.6676012531,5.1884808704,3.8404386841,8.0936722692,-0.3595225536,9.8667448794,4.8266723875,-7.071434862,0.0710805359,6.6807315859,1.5051139851,9.2786779287,3.3593714013,1.2376220731,0.8500038048,6.4323024059,6.8344019549,9.7251198808,-1.4261410651,-5.5837757174,-3.8305252546,6.3763496824,-0.6467455946,5.1875825447,-1.4354857783,-7.1472711034,-1.187278077,2.8885346077,6.0218626439,4.8868208515,-0.6944474596,-2.4163747265,-1.0274984246,-3.3149326696,-2.3344770676,1.1393580703,1.8063697141,2.7103063127,2.0522291618,7.8515507016,0.6090125964,13.8463669305,0.1498135633,-4.3874277808,-0.5596384885,16.1376349345,-0.341844844,2.9726413326,-2.0576634772,0.3302576945,-0.6179011308,0.8354202676,6.3546011115,6.8014997455,8.0579553696,-3.0933313314,0.4146255383,8.9618233963,3.4403983222,-2.429176001,-0.2638770134,-0.3456886308,-2.2367358175,-0.295903552,9.6881019767,2.3335679881,-10.0132461591,20.4227378846,-1.1763346327,14.7473498771,4.7215750672,6.0537388534,-1.4772347108,0.2434534672,-1.4911675784,2.9536296023,19.0827562337,-0.6493867535,-7.7048904179,12.0003946587,-2.7529153646,2.4767669801,2.6987304501,4.1047515168,-0.2661835647,4.7215932297,3.5876245502,4.8283550662,22.5566893,-7.7319043507,2.9711289372,1.6758291789,-0.5640388155,-6.8176599138,8.9711688283,0.9505220633,4.9391172278,1.0370677637,1.5040300652,12.4807955546,14.9555690423,-5.602555306,7.7224603234,1.2900498358,0.0487392833,-2.3502145066,5.5011609671,2.4668018717,0.7966878452,-0.6562655764,0.2414020079,6.4486752621,10.6829290068,4.7044189767,0.5517062813,3.1736059,0.5706176588,8.850585483,-0.5227422423,8.0348845307,0.6279417068,-1.097671607,0.1587445427,3.8538045933,6.9763068865,4.3492124322,-1.0569088406,0.1327497041,0.6446207147,8.9488854349,0.5073135134,-0.4232339013,-0.5210662731,0.8938393495,-0.2009511127,2.0826757118,-4.7334294026,3.9260078143,-3.2528200236,-4.582820295,2.5170302751,0.7939764769,-3.0205828673,-16.1203872786,0.729684856,-8.6401580578,-7.1755515951,-4.3018079034,-3.3743367378,-8.7415903842,-0.497250679,0.2562085658,-0.6525895769,-8.0592134269,-2.0464906937,-8.3931757006,-1.6421551867,-3.757118356,1.540836408,-3.6216240877,0.5910593172,5.2240354146,1.2402447086,1.4468059456,-0.3138365823,3.3065104629,10.5270473595,4.9247195773,5.0463744583,1.3476010715,-1.7177531058,1.9628456055,0.1104671095,20.6439837272,4.3816749921,13.6555802721,-4.386104365,-4.2106582168,4.5755229871,-0.6470579142,-3.427872213,0.1799160977,2.5180738361,-9.4591972366,1.1322681739,-6.8474811572,-3.085297444,-7.9979845343,-0.2546242681,-9.2017398479,0.8704590186,0.3167166052,-0.8803760962,-1.1691986873,-1.3091021822,-1.514603646,5.5268885505,-6.7314862429,1.6884102156,6.9952031953,4.3080237537,1.9040731387,-2.7305323417,6.4720332485,-1.2854823701,2.9601606387,6.8882160618,-15.1171751043,2.7402063324,6.6063897163,3.5884428082,0.8472680818,4.5534516491,-2.1788641851,-5.1388333793,-8.6464076127,5.6677236435,-11.6701251269,3.4942842414,-3.284825521,-1.1016901519,1.7478605169,2.3529635136,0.2926764186,-6.9095036537,-10.6573232248,1.8007293947,-8.2635084878,2.2846418423,-0.2497971726,1.9694647847,-0.9365463142,-3.2168812427,-3.1121127035,-5.6182674695,-6.1297421391,-4.5694409813,-2.8692629125,-1.9655199158,0.3636785814,2.6230097655,-0.7739240087,0.7474529243,-8.7759128554,0.1981984609,-4.7487710922,-6.1126272434,-3.0613048869,-5.5846201223,1.189857013,-0.3620412654,1.0498447041,1.44478618,-16.0041749544,2.5028916066,-7.194491522,0.3573974122,-5.7730016707,13.1440242022,-1.2817444109,-0.601283434,0.8387790031,-2.0596669083,-3.3424606018,1.2812709098,1.743346072,2.3013427133,0.8008450803,0.7662509869,0.0823384508,-0.3380487101,5.6947880553,-0.3005918798,-7.1471247476,15.3909461461,1.4523377209,0.8654981902,-3.2185809783,0.3664611958,-3.2620825014,-2.9105547691,1.3057614433,-2.3761890515,-2.95421993,-1.4515109297,-5.4950858519,11.0944231714,-0.2527126826,1.8026578698,-0.4741886909,2.9995794592,-3.9728704927,1.1111491394,-2.0412018243,-0.043661062,-1.9363416156,-0.7886727316,0.64595476,0.5583928543,0.1563860296,1.6527430161,2.2535741989,0.4775148116,0.0221065377,0.5320501405,1.0212899083,-1.9527616708,-0.76300754,-5.4681589427,10.1695520514,2.1034012418,5.1752705624,-0.6618964939,13.6091427599,0.3032318945,0.8859161845,0.2358688605,0.3421206951,0.9547812454,-2.3270419292,-1.9695228735,-1.4883036815,9.5033428792,0.8093269681,0.5613831159,-1.9608631288,1.096466066,1.7643730084,0.6159890797,0.0011099906,1.1154383348,-0.2594460072,0.9569647618,-5.5253847893,6.4026693503,0.619266405,0.6930946383,-1.0528632789,2.6065726754,1.0462318787,-0.4751798426,-0.9352785434,0.2616246991,0.4542567395,-14.4045084162,5.6663818893,1.7994731208,18.4895200293,-0.6123368568,18.3203027723,-3.6364209488,8.2000959039,0.3871595093,1.9196839669,-0.4281267458,2.4567953774,-15.439192317,6.2797586146,4.2209659548,9.98769988,2.9892437003,8.9181665433,-0.4992826499,3.6386786821,-0.5371083231,-0.9191622193,-0.185147284,2.9262895763,-16.8103186296,10.683008187,5.265544063,1.9240631331,2.7423657956,8.3699339825,-2.037222407,0.1153419184,0.0556428096,0.2971503512,3.0692634098,-4.1068291059,-7.3708942837,5.38858821,3.546432257,0.1766898528,1.3077723484,6.2460193725,-3.6617613097,0.0788052099,0.3970595013,0.3467194091,0.7409527085,-1.4345301694,-2.4377477799,-2.5889317141,8.1333345219,-1.4851996945,-0.4747988866,-2.8846534759,1.2837004577,-4.1343569768,1.1700722352,1.0259181354,1.2477842562,-2.9433218206,-1.3953720916,-5.7230362786,11.1411881549,0.342890714,0.1832458308,-4.7579464456,-0.5486097186,-0.115366846,-1.1469853959,0.763872792,-0.2991691461,-1.8618799542,3.0519273393,0.5016189532,1.0141875164,-3.2036545032,-0.0389490552,0.1428009404,1.5261465185,0.8373363384,-1.7956787042,-1.1120587921,-0.0411210609,2.0059168892,7.1626434918,-4.0290321594,-1.0861511942,1.2155453553,2.9511105075,1.8138691974,0.7338676497,1.5830879027,-2.4821331301,1.4038405648,4.3785629336,4.5572798975,-0.7241081207,-1.0017255997,3.6889672099,-0.3439024624,3.8887482437,3.3890282588,1.8903141431,-0.8580606206,3.6237575285,-4.6507246411,6.6814356859,1.0399827954,-0.9612178918,-1.3916378851,0.6318570189,-0.3245785659,0.575083033,2.8162369005,-3.4826895913,-2.3509564011,0.2384506021,1.277201571,-1.0284504701,2.3357733786,-3.7361741836,-2.1921342737,-2.2513740627,-0.7533216573,4.9256826749,2.7695406532,0.439317761,0.8478401363,2.9869328016,1.2162092245,2.6430175818,1.184980424,-3.4814863272,11.3567321644,3.8037530468,-3.3669154459,5.0383540764,0.5359973983,-0.7035573076,-5.762750906,4.6813824175,3.8853561967,-5.9229649385,11.8224956909,5.9817025223,-2.6629669712,5.1391922404,-0.3712510679,-1.4689992857,-8.0285149136,6.7406947038,2.5554154931,-3.9103265845,10.1329739308,13.0589549563,-1.3319316794,1.7552540418,-0.9680828982,1.1488986028,-5.5070463739,7.175048493,2.2233309328,-4.4991104097,6.2488048441,10.5072998268,-1.8798573221,0.1796451807,0.1357201991,-1.6202846721,-4.6598866862,5.5316332241,0.9303684163,-2.9995346675,0.8889468316,7.5838363487,-4.8691675321,-1.0426482557,1.2542660172,-1.3098053408,-3.2225025347,-0.1814202733,-2.3851642788,0.5162675506,-0.2695321015,6.0475678805,-4.0709519305,-0.8540392564,0.6177191191,-1.156096105,0.9877379925,-1.4121556677,1.2454697158,0.2745778268,-3.9339093603,-7.645249618,6.3023234422,-11.2506574295,43.8541901328,0.8148969335,12.572444728,34.7988741052,-29.7460330827,5.0440220627,2.0338408309,1.272384221,1.6661682811,2.0390753273,15.4512371115,-7.9935936865,29.8193436814,28.4671471426,16.64905278,2.2838603539,27.2799713238,9.7437329883,-1.0950172862,-7.1512607905,27.2712157601,17.3967836753,30.0667601179,-9.5025387803,37.3777152718,18.4060473648,-31.4664252344,-1.5270105305,16.265429925,10.6878238145,23.692937796,12.0822395724,0.3951435059,3.6128442673,21.6335482844,25.9386706479,46.106906894,-12.1319257785,-31.6238970494,-17.0997564992,16.7431682939,0.9465548082,26.9104772012,-5.0730487695,-27.5265331277,-15.5965621579,8.0720720687,20.3599338437,20.0579023169,-11.5845579083,-8.3568190587,-7.684200667,-5.8576380256,-12.935225584,8.0977027245,7.6804717572,17.3270401022,5.3106648559,28.8081137535,1.5475272436,47.0647524532,0.352360685,-18.3240661881,1.6734607156,59.305356138,2.1360942728,10.48831741,-4.5222524557,2.0196904996,-5.6834799486,6.4229175716,20.6855831236,20.4261775541,29.4752952235,-19.3631007289,-3.4635598773,25.1019299068,16.4521078729,-16.2701358535,1.6137737907,-5.5093450584,-6.4889710819,2.3485229133,8.6036587131,15.5092701047,-20.3097104758,109.1496872091,-6.0761627856,76.6756280976,9.5264500265,35.1406120881,-2.8820419868,-5.1916990055,-14.7428055827,13.1953508664,53.8338837393,3.8399423654,-25.9169347114,65.2664693771,-9.8933472588,19.17042481,3.2342088713,17.701376299,-3.1673837303,15.5126591251,10.3540067325,20.7014622428,89.8908682884,-20.8989389128,-3.2433334892,4.0265244629,-4.7143397993,-17.3533267232,33.7291710733,5.9249277206,19.6585288942,1.1968988609,-0.2287609884,55.5007850836,67.8084413747,-19.1093824876,13.2092575801,2.0676914383,3.7946864948,-0.5696759292,19.8586300588,10.1752690949,0.932837099,0.8266988751,1.7047254056,23.7684854871,41.0659787765,9.7539502389,6.5344078367,6.5735926184,2.2295754076,29.1562031361,2.312992394,20.6307712827,1.1818354045,-5.8862835484,1.5572844859,13.3713143929,25.7402674642,7.2649952902,12.148720845,4.3421378388,1.1089081284,23.1503649061,2.5025325803,0.8501838704,-8.0880035558,1.9309332184,2.4164866052,4.5567782411,-1.3668326334,20.1482627409,-14.800025613,-14.1050526655,11.1819574331,2.4104831692,-3.9763634045,-36.2114615463,3.9707931982,-17.3957808673,-16.2329353819,-5.3961283989,-3.0427624176,-36.7513465559,-6.0124555434,2.6193444327,7.539297133,-16.7258398992,4.1597362228,-7.7507483975,-19.0548901381,-1.1945000363,8.7603007202,-0.6090987449,-3.0231523801,22.7530412314,17.1845711747,9.6902899142,4.9782729651,18.3841321111,28.6053616616,13.728282811,19.7972106785,5.6145797795,-3.2666722246,10.6685372519,-8.5684413025,55.8499585055,14.674167549,36.1775243592,-9.1973872529,-12.4528730517,-0.6334335293,4.4107765771,-16.5176200777,2.2391229479,6.1746581496,-26.6763171122,2.8950342933,-22.3609319107,-10.0553524082,-20.0093952934,7.4160706105,-32.1839953119,2.2149908015,7.992747943,2.2616560987,-0.2745659684,-2.0525761044,3.5572124108,13.790739133,4.5317065059,7.7214204733,18.9682530037,22.5516788783,7.897756427,-6.884927748,7.1086207215,4.2028959403,11.520993571,18.5747364343,-41.0640857151,15.2396542067,24.5860099683,23.6189862937,10.1728253108,20.1647186053,-14.6603059845,-12.299547134,-27.3504082155,13.676155623,-44.0962921212,22.2951790359,1.3808580104,-1.996142202,7.8871564166,20.8167408445,-3.3695227141,-18.1902012013,-25.8624342571,2.4058006313,-35.2110949599,25.4396113399,9.0953621532,7.1658234915,-0.4694748776,-10.7008754417,-8.5068082007,-7.7568302646,-6.5769914019,-17.7529290245,-7.5195406227,-2.4817563711,2.0534880773,6.9343280806,1.9489093943,2.9452511467,-20.9088052529,2.3269234491,-0.1217132818,-16.3585464611,-11.2706525682,-8.9119786075,7.9647577343,3.2788888066,1.7099941799,12.6014484839,-40.2400186335,6.3564373133,-13.9893721506,3.7811604444,-0.5999103377,9.0762309266,-0.2581575527,2.0950691414,-7.3771539079,-0.0067246302,-1.9931555446,-5.3325125784,3.6979936157,1.8296369389,0.7987612844,-0.9846389164,-0.2426584124,0.0940405974,-0.8611081533,-0.211043305,-4.261959477,-1.0102593658,-1.602517565,-0.6755426262,-4.310620233,-0.0280326297,-0.653622084,1.0051699472,-1.407551736,-2.0231768214,-4.3238159177,-0.4343898181,-4.2715566632,-3.3036000331,2.7664560698,0.2998014237,-3.3647676497,-0.2645333173,-3.4989135882,-1.0908118249,-0.0685115444,-0.9080931403,-2.4624304842,-1.588781233,-3.741043118,-0.719210141,0.2040997406,2.2625387142,-1.9474666096,-0.6834360393,-2.8527154764,0.878889964,2.1854009662,-0.1321910985,-2.1960339007,-1.8890287701,-2.7948628849,-0.4313541825,0.5773677639,1.0302012208,1.8445546816,0.6981027751,-0.9050575128,-1.4101423164,-1.3867995317,-1.0841615575,-2.5726331722,1.06204791,-5.3357805745,-2.1016469124,1.0109373841,-0.168365865,-6.5552476407,-0.8188985361,-1.0023662023,0.8653456881,0.8698981732,0.7646510712,-1.470893095,-3.99801306,-1.9452391983,-3.258546057,0.7044202417,-0.1494883379,-4.6046741247,-0.5973031786,1.2542766332,-0.2769998881,0.1015574924,0.4656889967,-0.1589008507,-6.4015189848,0.0479306374,4.8430523932,-5.3497955697,0.9528692598,-4.4288965196,-3.0850509135,-1.6251640521,-0.7971319542,-0.131340002,-0.0947404639,-0.5439841524,-10.9512304916,1.6600219553,3.9901551992,-3.6889280113,1.1067887733,-1.4817607318,-0.7067498842,-1.0518867169,-1.2486710802,-1.6150889734,-1.0342644629,-2.7036479712,-7.812218047,4.3172289269,-2.6239740056,-0.2063396747,-0.2461460068,2.2559357863,-2.8957369185,-1.5417975145,-1.7125662473,-1.0995922944,-0.5273540607,-4.7289272636,-5.9427354784,2.2364748237,-5.448032934,-0.7051166897,-0.7239805917,2.5900885118,-2.1423915044,-0.9417017126,0.6468415392,-0.4620286862,-0.3101269257,-2.8965055735,-4.3469311774,-2.948976419,0.4256453654,-0.928379019,0.2054742855,-4.9867355455,-0.0200403342,-4.1066369685,-0.4494357716,-0.2177866351,-0.8736328765,-0.6171820308,-1.9938611259,-2.4569123932,1.6307865972,-0.4851519314,-0.0510717984,-4.5381615936,0.3956647623,0.0499229835,-0.7711713008,0.4450888178,-0.0195784228,-1.032556181,5.4020505613,-1.4475372692,1.4668804616,3.3536409002,-0.6293987266,0.9912606875,2.8323344723,10.3806907304,-1.1788050355,5.9175898554,4.0474338574,2.0668736338,1.8546888125,4.8802369177,-0.4984337359,0.5544509221,2.4447833256,5.2487812266,2.203569079,5.9364576851,0.5446868009,3.259866052,0.2641904,2.8548886467,-0.5109899052,-0.9142261779,2.1321282778,-1.4841245925,1.7703941003,0.347644453,-5.982420803,-2.4850879923,-3.0237773173,-0.392119077,-0.462805249,0.3805385353,-0.5793905903,-12.2917024871,-0.7162917816,-6.826767107,1.8799596186,0.5905428876,-3.8750992432,1.6116874636,1.2472555567,-0.2531038443,-2.2256881042,4.3756003224,-1.1368359973,4.1419282223,2.2896244017,3.1037837827,0.5752094059,3.5225331553,-0.8236731682,0.1831852103,1.1394064483,1.5089152824,1.9111698296,2.0320197533,-2.049669122,6.3124160444,-2.2581511707,-3.0251408223,-0.6754885724,-0.9882115106,0.4187196215,-4.568261944,0.6683616769,-2.3252328028,-2.754818486,6.9745522586,0.3470999633,-2.5281127828,-0.6076408005,0.0166884868,-1.0278478065,-0.3377536998,4.2602564141,3.5920425506,-2.3377799453,4.1861164766,-1.1683021287,3.0880999528,0.768322491,0.1611790266,-0.9699770255,0.609424313,3.5232633115,5.8054448246,-2.1541221445,3.4113034266,1.1355085733,1.3602101145,-0.300446099,0.2381060948,0.7044002148,1.1651281053,3.8911035929,4.2233348583,4.2069653606,2.0321124663,0.2361419551,1.7273574924,-1.1431478607,0.6025605749,0.6546177146,5.7488740599,0.2840684635,2.6607581021,3.0939338897,1.2061808471,2.5728677229,-0.0997102048,1.1474122678,0.8934301014,-0.4322935689,9.9265604938,-0.3741364738,5.5721220261,0.1172216839,1.6173044191,-6.9767066902,0.7789522747,-1.4474054347,4.9432828838,0.1204902553,2.0112308451,3.3321525447,-2.6256320574,0.0178508825,-0.9752002316,-0.4989228936,-0.8131404691,0.5283037801,0.46836148,-1.1610554028,4.0115758332,-0.0411198904,0.6108147167,0.8308499617,2.1279036832,1.416359378,-0.2203136116,-0.882808195,0.5603219484,1.5224351916,3.5607257966,-0.3133890993,4.1153108311,0.4038769686,-1.1222384468,0.0502645612,3.1308823309,0.026165897,2.2521897219,0.4834672428,1.1620966975,1.04556174,1.3908062729,1.5830336601,2.5966165841,0.4986390594,-1.7207547441,-1.9089212651,1.6769809855,0.899732848,2.0537179187,0.1179305854,-3.2524315535,-1.0167432894,0.1887066175,2.2308394859,1.1907488445,-1.2077373159,-1.1236444222,-0.2876131915,-0.9970719663,-0.6481472567,1.2820869213,0.7747054879,1.0469427092,-0.2040915999,1.5010004405,1.296206849,4.7326246706,-0.3323856222,-0.3052026049,-0.2967987041,5.5000354188,0.4871361961,0.946357162,-1.0005605058,0.0977590149,-0.6202342365,0.0947723502,2.7156747564,2.9356764472,1.4555147378,-0.8938101997,0.413516321,3.3260313562,1.5232264006,-1.8396043131,0.2654804179,-1.3555716111,0.0806399354,-0.5112893147,5.0734525831,0.8901668238,-2.6136767176,3.4277019173,0.2699911264,2.9076267452,1.5573547634,0.879649407,0.4121745348,-0.211456113,0.0831156585,1.278739859,7.7353422377,-0.6071794745,-2.0079015573,2.6293295479,0.206345451,0.6478829547,0.1506174847,0.056890579,-0.1862308801,2.2719443726,1.5527632593,1.7689382457,8.8402344957,-3.1629039905,0.4529135091,0.5446750389,-0.2941703614,-1.6927821869,1.7536575944,1.2719329908,2.377167962,0.6540372633,1.1946849434,3.1176972177,5.1069553645,-3.1953303543,1.4306946028,-0.0156987021,0.0167963967,-0.934291023,1.9318591111,-0.2534190141,0.7531813206,0.1650943957,0.7170100609,2.372222438,3.3579385242,0.9966786121,0.707035191,1.4411890543,-0.7057225188,3.5345907669,0.0625295973,3.4695909013,0.3673749718,0.0992913989,-0.8419057667,1.0707360038,2.8790300163,2.7281883466,-2.1388855237,0.173421027,0.7598595285,3.6740974502,-0.0607739775,0.309505009,0.2440476706,0.1161525104,0.0327818779,0.7619525894,-2.6824749663,1.1192010172,-1.478263098,-1.8655112009,0.8905309319,0.5764268697,-1.3713939203,-5.157161659,0.9693046622,-2.2371710113,-2.132080362,-2.4939514128,-3.0362620607,-1.9593145244,0.5843649163,0.6401120259,0.1004311318,-2.58423032,-1.0500387689,-3.2399739615,0.3870179578,-2.169659549,-0.1864087209,-1.3667685599,-0.1197565405,1.5293193356,-1.0768637729,0.5492566597,-1.7839147887,1.1655608277,3.0056203323,1.5724823051,1.0093909115,0.2847817883,0.2671700859,0.9515284029,0.42999414,7.3043141238,0.9293594916,3.6436781483,-2.2106922503,-1.6859021856,2.1641285883,-0.5258724048,-1.7137998815,-0.5160654959,1.5062761354,-3.4723818329,1.3657703775,-2.1993773552,-1.0235284754,-1.4604064177,0.018661057,-2.4136961721,1.4141104274,0.9464786441,-1.5092871961,-1.1671789959,-0.9868220799,-1.8701475218,2.9522989351,-4.0613297947,-0.4476364164,2.5536690336,-0.2457760373,0.6384450261,-1.1500667067,2.153960444,-1.2919777266,0.0489103786,2.4342588032,-5.0163379815,0.1791415101,0.9275660078,1.3452401619,0.6003482747,1.2626310236,0.3022368848,-2.8400575342,-3.1754606926,2.2963798701,-5.1148655683,-0.7051946424,-1.8513779033,-0.4749718589,-0.3082565091,-0.245651244,-0.2969878825,-3.7386866389,-4.2824981525,0.3960484951,-3.6389084487,0.1846994242,-0.2672208994,1.537258686,-0.7392658042,-1.1588000999,-0.6476635699,-2.3909951822,-2.4136076608,-1.3964716704,-0.8679050652,-1.9240625927,-0.3441691175,0.9624849947,-0.2642952497,-0.2405648373,-3.5444453216,0.1352310645,-1.9736701511,-2.6069888895,-0.4128201542,-1.6877082375,0.5750580856,-0.2114726251,0.6164080694,-0.249411885,-5.7389858357,1.5298361771,-1.9316482886,-0.019984073,-1.727138441,-1.5439563049,0.7640367926,-0.2807633439,6.0929823859,-0.0764296873,1.8454335876,4.7138691582,-3.0469462436,1.0582101393,-0.4311193352,0.5944619224,1.039303855,0.1475806925,2.3252267947,-1.4123586585,2.7336943783,6.8624724522,0.6541750415,0.5306635821,1.4316770296,2.1174843907,-0.9234996772,-1.3875153474,3.7186682666,0.7730804644,3.4262836453,-0.48116488,2.2616855478,6.4519591167,-2.7200156542,-0.5649215395,2.6053480623,1.1248534189,2.8663668244,1.0016339342,1.0040873275,1.6124672591,2.6230486344,2.4690575013,4.8089831397,0.7551462721,-2.1343980062,-1.0380030335,2.8834873699,1.2201997503,2.6759443831,-0.2153878606,-1.7567442146,-0.0975658504,0.5398651494,0.6559956828,5.5441603559,-0.6050635072,0.3201183955,-0.3861263601,4.3447591518,-1.2612573669,1.3021789469,0.4510845317,0.7328251827,0.0761938349,3.3536670353,0.1746223944,3.6980232738,4.0183264808,-2.104011784,-0.1187851518,6.1221116412,0.3866862573,1.9857396265,-0.8431606071,0.8386166557,-1.001227957,0.5604622456,3.5952936163,0.1877905956,5.0448114465,-1.0888051417,0.9734681942,3.6339712075,1.7233345233,-1.6403942808,0.279947938,-0.3860451132,-1.5264598259,0.7928012311,0.2776552637,2.6669499209,-4.0539828577,12.4470261575,0.1769349104,11.1125164168,1.6608000175,4.4292214978,-0.3069827163,0.3488496187,-0.3665880742,1.7947900674,3.4377919775,0.3754732288,-1.9921872661,7.9758920077,-0.9244765496,3.5989432349,1.0483898491,1.6966513307,-0.018885604,0.6724376195,1.4872082471,4.0295651792,3.1452836936,0.5454263942,2.8279314706,1.4236334255,0.4946726929,0.6644783647,3.5006036751,0.5016124619,1.092493165,0.3053263893,1.8946741944,3.2786633852,4.1063030791,-0.7672041444,3.0715754769,0.4913702889,-0.2336337257,1.2086489233,1.1442997973,0.6347382387,0.0086990356,-0.0007586727,1.1285399937,1.0655438728,2.9053473588,0.3051628377,3.4913435674,0.3758427709,0.2420884001,2.0103939854,0.4027860612,2.3948409151,1.0812107105,0.2597077398,-0.5398980652,1.0748718766,2.4475965504,-0.4608592944,4.1916494801,0.5898412149,0.3568866865,2.4503024943,-0.2884523697,-0.2672921757,-0.1060919148,0.5887375871,0.4044258829,-0.3479086327,-1.9585941395,2.212454896,-0.5159422572,-1.9691141467,0.1060736316,0.3206184667,-1.3850041044,-7.1283748648,-0.4373424241,-2.7893226474,-3.0539190417,-1.4436870785,-0.1478681755,-5.6815769649,0.0172969984,0.1281008789,0.1334128812,-2.5637135642,-0.8335032488,-3.336558221,-1.4415058045,-0.1844468799,2.6299460314,0.2832806797,-1.161477368,2.501196304,0.5343012365,1.0915016253,1.8447582974,1.4439879888,3.7806690383,1.3638593303,2.8359889581,-2.0099355792,0.7847377718,0.0906442159,-1.4611991366,8.6992816195,2.6512260087,5.3689226818,-2.0741773513,-1.1183835908,1.3869814532,-1.3561386461,-1.2904868373,1.0026453447,-0.4073434519,-3.4732744046,-1.0096434164,-3.8186183365,-2.3782916613,-3.2663715363,1.1187860299,-3.6449283501,-0.2573806585,0.0956044676,1.2898306088,-1.0979412657,-0.5987838815,-0.613539524,2.0432557672,0.5295811102,2.4878203941,1.9290766833,2.7322196564,1.8228793328,-1.9708797883,0.812726345,1.9624917215,1.9203180109,0.7116172097,-2.7294050723,3.5180851626,2.1530247699,3.1819284741,0.7051423326,1.5713064135,-2.5150446821,0.273154446,-2.5976131219,0.6526145783,-1.0001752876,4.5190226057,-3.0770609443,0.7287088536,0.3534944046,1.0220509755,-1.8077087368,-1.7317913444,-4.0179110274,-0.7097257959,-1.2068721028,3.9654270324,-1.8545728421,1.76125331,-0.6838891524,-1.4750650352,-3.4031933986,-0.939545524,-2.4286870055,-2.0852797294,-0.2439707307,0.0609097511,-0.836328086,1.4354711351,-0.5864812319,-1.2571341661,-4.8827848461,-0.6972938097,-1.5622289781,-1.4407368849,-1.4648553187,0.3818316679,-0.7281454496,-0.0607480176,0.8689861481,0.6850241171,-5.2075614149,0.2713586961,-1.8436771403,0.2680588287,2.0505309562,-15.8376786483,2.0779690534,-3.2484439984,16.0770371786,-0.0199205615,5.1675370776,12.4098965869,-8.879717332,-1.4987565373,1.0340028264,-0.18775172,-0.0872153461,-0.691588714,3.6108662625,-2.0571350635,12.3203487862,4.8124687357,4.4209378002,-0.1204465463,9.4343170385,4.0105239572,2.4961605819,-2.1008013949,6.5045242445,4.4694816749,9.3486894928,-1.2163344193,12.1323307193,7.6430448747,-7.5659242152,0.3094155811,9.6910471924,1.9946505485,9.8751982692,4.0220422308,1.7135144924,1.2959796079,7.4027358742,7.8321015139,11.9932493633,-0.2285278762,-6.2354252521,-5.9224351746,7.0306935637,-0.0945700263,7.8839409956
   -0.731811008,-8.4989159016,-1.8339641818,3.386920534,6.8151554926,6.2646641682,-0.7642650029,-2.5523727582,-1.4799679724,-3.1089695695,-2.9893650949,1.4955273121,1.6123483157,4.4786655171,3.558698157,8.54368069,1.4587323813,15.8830450359,1.3486164184,-5.7796522248,-0.3745688002,19.5364048873,0.2589298433,4.7549250922,-2.0646533751,0.2585346705,-2.5909833314,1.9870386703,7.4330295533,7.110244179,9.7513901305,-2.9189981381,-0.1460697668,10.9074843833,3.0595852683,-3.5054084331,0.4817846924,-0.7715234569,-2.5827555479,0.8485220497,11.5870262629,3.0865138272,-10.8933166108,24.9405511006,-0.549750033,17.1903587207,5.2534283381,6.9402653197,-0.3845276983,-0.302353964,-3.5908381119,2.943193109,23.6245456636,-0.8124755297,-8.2399112352,14.6504187371,-2.6517665167,4.7299348245,1.8797722363,5.3808302878,0.8916857671,5.8641629707,4.1902903238,5.6424877245,26.0548222381,-9.7391110231,4.4262972765,1.261530407,-1.8353936265,-6.2087072858,9.4072877709,2.8116007852,6.5994273961,-0.3170983552,2.3306524115,14.6311632411,18.8749675801,-7.2471042974,7.9820711795,0.5673985345,0.9602559515,-3.0078420557,6.2482659864,2.4619397791,1.1654639497,0.2090217768,0.5210641388,6.4971719639,12.0457246443,5.2030593235,2.3151170401,2.9285711694,-0.1924432753,10.2574113309,0.7381493573,8.0458735481,-0.6106026798,-2.5234017576,-0.4380026223,4.6953857097,7.9997024952,5.5162641678,-1.3609837085,0.5109410419,0.1253170827,11.6151526225,0.2453432784,-0.3948619293,-0.0856446144,-0.2709872385,0.9145190264,1.6455856482,-6.6492128277,5.740966195,-4.5403094338,-5.1995235853,2.5857866708,-0.4160532575,-2.5339978605,-19.4745860607,2.3770451928,-10.6652645986,-7.3967979233,-4.142981125,-3.7669382643,-11.5850658882,-0.6714971931,-1.0558007332,-1.2187601298,-9.6402396142,-1.6915565134,-9.5246417069,-2.1398426055,-4.1312893742,2.8826860474,-4.420408713,1.1841013258,5.7584155145,0.2642131455,1.6546085412,-1.8291780328,2.4985691247,11.8355175191,6.425778271,6.5884241361,1.9263814334,-0.2953309218,2.0883118962,0.140369394,24.9347376492,4.0746344663,16.6568060736,-4.2547809726,-3.6777280603,5.4760059037,-1.1881271442,-4.2508723299,-0.5007684553,1.5119646637,-12.4879169545,2.3887589395,-7.7935469638,-4.8936520053,-7.8571750783,-1.0024223781,-12.2208422577,1.9263100802,1.1336468307,-2.2108544421,-1.5353425684,-2.7020724842,-2.745685377,7.1473815127,-7.6054247179,2.8200230873,7.6876350626,4.1988330189,1.8765452215,-2.5511421525,8.4408315371,-0.5899555281,3.3163363127,8.0640658582,-17.4514759485,1.5532893447,5.663206943,4.7935053739,2.3752221166,4.1895474987,-3.3732425485,-6.9496208853,-11.0435978023,6.6676733115,-14.4365065638,2.6343264171,-5.4008931607,-0.2174090617,1.4615250216,3.1534856543,-0.2150631842,-8.4848980758,-13.9400924938,3.3372263069,-9.1656011357,3.8331537475,-1.1876334287,2.9770386651,-0.0434248155,-2.1998289132,-3.0861041053,-6.9923386518,-6.9969373656,-6.2333053973,-3.4293179289,-3.4750356087,-1.5672460732,2.9563798447,0.7288420827,0.0077383223,-12.0656232653,0.5461058249,-5.1459390111,-8.3968553791,-5.532572379,-4.9316416957,0.9658951933,1.3598701835,-0.3405047655,2.3211233336,-19.5402221399,2.077687737,-8.0250254052,0.5626673049,1.461028661,-5.5679806131,1.0620967265,-0.3347607536,-2.1789590675,0.8373153415,0.7243113745,-1.2920731651,-0.862315051,-0.356873629,0.5707569718,0.0665319488,0.7313196194,-1.1416581429,-2.0412992335,-0.0598661558,1.6981470798,-6.6085784081,-0.4435290074,0.1610148506,1.1720838677,0.2473507766,1.5279187412,0.5249913809,-0.7786382562,0.4708139112,-0.4418803324,0.7740808923,1.2637071845,-4.1972692396,1.2348006397,0.1256419838,-0.1796881491,-1.6828741865,0.6167622047,-0.7409507203,1.0244874437,-0.5967692756,-0.5598514969,0.1083175103,-1.7967122118,-0.5517642322,1.6866268631,-0.5000791293,-1.3533974114,0.6708844537,-0.8876840684,0.3396848424,1.2389438455,1.557489895,0.1360987716,2.5703536963,-4.6151373269,-1.3224673852,-1.7680293027,0.1210027172,-5.5904569702,-0.7672059834,-1.095565615,-0.6347419253,-0.5105676686,-0.292733971,0.7072317737,0.1144979111,-0.0946890431,-3.3954373392,0.2399209653,0.1732227995,-0.4449111252,0.4016855798,-0.0448694885,0.7791430671,0.101318551,-0.4898045412,1.0066638301,-1.9084177428,1.5555040582,-3.3914529084,0.457797209,0.0573746388,-0.1755531879,-1.3651916296,0.4228971196,-0.8744343985,-0.4073141441,-0.0915556654,0.2254042892,5.9817154962,-1.8036652194,-1.201877459,-9.9868340262,-0.6484800984,-9.3692527353,0.1587511221,-4.7299149662,-0.8704680866,-0.2375463283,-0.1587348943,-0.8054577525,4.8248322857,-2.8724748594,-0.2369743061,-4.6686295707,-1.0207640823,-2.9685443424,0.8938236916,-1.2390099341,0.418226385,-1.1360794908,0.377980744,-0.8865425234,3.3676460636,-2.9641658315,-2.5732405399,-0.302233446,-1.6308336319,-2.2584799188,0.7664772953,-0.5408899287,-0.3372134699,0.5903092858,-1.5925251727,0.8556863264,0.1412633775,-1.0567597903,-1.9501381726,-0.1459370473,-0.1447356969,-1.8570997873,0.7507960708,0.162714435,-1.0187255049,0.3460825811,0.1909348554,0.8680673722,0.6230340033,-0.0741284265,-3.4338341643,0.5449198135,-1.1047813678,0.9710420213,0.0835985315,0.5727779745,-1.1370518955,0.9519620698,-0.6668233099,1.5184677178,-0.6495638199,2.0441900245,-5.5617086049,0.0701140834,-0.8809098835,0.847370705,-0.5373340923,-0.5179605928,1.1801695959,-0.4211803568,-0.8261259662,-0.0597542656,-1.833083246,-1.8783524481,-1.4767940242,1.5227582262,-0.523768639,0.6647336745,-0.8456011749,0.721151652,0.1063903477,0.1646433766,0.3675414961,-0.9904666462,-3.6728088963,2.7367493334,0.7852461487,-0.022347451,-1.1489881103,1.0489398274,-1.349851491,0.0182578866,1.3799323996,0.313021641,-1.4571135806,-1.1217379389,0.9204914302,-0.1856426622,-2.023067415,-0.5783715899,-1.0695941314,-1.3941715862,-0.7600362586,0.6079760785,-1.4625452851,1.7959300313,-1.586586172,-0.4074507409,-0.1444483819,-0.8466482132,-1.6679925121,0.1283321585,-0.1672276021,-1.4693880706,1.2375544192,0.9345059067,-0.2554072178,0.2200503242,0.1854377357,0.410982295,1.5777300198,1.4773321213,0.3816722982,0.0138331151,-2.6739332751,0.3762445841,0.1651730586,-0.6649663772,-1.6955989785,-1.0806231143,-0.5275954743,-1.0920795629,1.5433038769,-4.0312576205,-1.0407006398,1.3219015334,-2.7046025947,-1.0275122764,0.8379730182,1.281040905,-1.9411840815,-1.0344317468,1.9887795512,-3.8568731165,-3.1713034411,0.0736944036,-2.6744605215,-0.6324371639,-0.7099543332,3.1547081998,-2.5283956788,0.004968355,0.9013122789,-3.4538870397,-5.2327778499,0.735374915,-0.1304861927,-0.9362613473,-2.0917448364,1.6267968458,-1.5766253537,-0.9096728871,1.2788012176,-0.9606445257,-3.3053508591,1.1526062177,-0.5891062531,-0.0535458471,1.6342486031,1.9574163713,-1.5832050664,-0.7468876426,0.7590145341,-1.2289737907,-3.1312980402,2.2156589989,-0.8096362307,0.7048310974,1.2774777454,1.2251794112,-0.9301193966,1.4731122314,-0.0623662425,0.5870434158,-2.2558562269,1.2046667023,0.1851861012,0.7019358036,0.5866162266,0.5722733759,-0.6014044351,-0.3114734211,-0.2317647873,0.1607605169,0.2734301838,-0.1003149847,-0.3065626851,-0.4612857929,0.5723593858,-0.7370060867,0.3775841692,0.039126219,0.7868756482,0.678845331,-0.9691871179,-0.6920776513,0.6787372844,0.3684326354,0.0132833546,-0.2149037984,-0.1468073318,-0.8295592813,0.2549802374,0.4198570731,0.468253036,0.7154711515,0.9556310547,-0.0530371218,-0.0201221259,0.3264383342,0.5859114293,-1.1711036561,-0.5437749314,-0.6071278767,-0.8642538191,0.0312438765,-0.7287593823,-0.1598249997,0.4253103573,0.6445246732,0.8553511665,-0.8831854639,-0.1308952872,-0.6574239581,-0.0520183729,0.1601089408,0.5379365256,-1.1516034549,-0.9955987522,-0.9874549694,0.356336539,-0.5408700399,-0.4362513114,-0.6015821755,-0.2988587821,0.8767697025,0.8613972872,1.0796974666,0.6612373719,0.9896852251,1.0627214716,0.8696299144,0.8552943101,0.2105880087,-0.3812360809,-0.9206037483,0.3259848733,0.2560864811,0.6610384452,-0.0413190209,0.8844621454,-1.401798367,0.916251892,0.0017773337,-0.7468576137,-0.0179597758,0.6366315093,-0.3328151361,0.3799253917,-0.3802375909,-0.2448905089,-0.0560658173,-0.4772002328,0.0275284323,-0.985694849,0.257929081,0.6072721457,-0.8843257628,-0.3402918064,0.3961934899,-1.0303249808,0.3102914054,-0.2221232824,-0.6158640195,0.4298331518,-0.2516897957,0.283308731,-0.4925781694,-0.9359709838,0.3185128204,-0.3210551294,0.3680746179,-1.5734100203,0.7500479289,1.1558256015,-0.859167705,0.6428384277,-0.9253519243,-0.542466916,-0.1676160847,-0.6703003283,-0.5006078105,0.2831602316,0.249934874,-0.6627316258,-0.3149874557,-0.7676561255,0.4340100192,-0.0184584204,0.5512178634,-0.706170367,0.6397925678,0.3081662174,0.8149748861,0.1486517722,-1.3549405564,-1.4040549896,0.8587649701,-0.871523476,-0.6018980807,-0.597385385,0.4878522145,0.1102286163,0.3245810763,0.2812097074,-0.7614509497,0.6318085234,-0.6006402836,0.0211436911,-0.0983574008,0.680768288,-0.0796771299,-0.0078866492,-1.1991476677,0.8729591982,-0.2251945232,0.2860854792,-0.6624866424,0.1422331181,0.7328394688,-0.5748691293,0.0721061264,1.1385074672,0.6409830377,0.7633356853,0.4714513241,0.7294222836,-0.2067276163,-0.6474464076,-0.503549421,-0.3528747278,-1.0817730305,-0.0138763376,-0.1703046931,-0.0443773876,-0.2753515642,0.3815532696,-0.5897730539,-0.8232593761,1.0706122331,0.3402390649,0.7104467064,-0.2464468899,-0.4423214171,-0.3862508465,1.2866144004,0.7303906379,0.4659232052,0.7986595917,-0.3709320047,0.1657321624,0.5894190537,0.2282225712,-0.3140846163,-0.9384588789,-0.2389497006,0.2515505111,-0.0946347532,-0.5300114776,-0.4682949116,-0.3135984932,-0.7052603986,-0.1379071367,0.1017874751,-0.4335136592,0.4538334397,0.6559015164,-0.2188404402,0.0386223534,-1.8699091493,-0.6941537888,0.3975363243,-0.8103083569,0.3754682279,-0.6466206205,0.8280749301,0.4351848876,0.4539891663,-0.3397289737,1.4363262521,-0.3905912251,-0.2486131074,-0.547537786,-0.0346556458,-0.8238303804,0.3201161058,-0.7594695654,0.9350384967,0.1370834279,-0.87531819,-0.8098487012,0.0256187548,-0.5913845048,1.3181380884,-0.0677332959,-0.8168652604,-0.0499233844,0.6522427511,0.1641804277,-0.4289776179,-0.8585368159,-0.4612893593,-1.0255154652,0.74750528,-0.2859345578,0.2952385453,0.2086322737,-0.6571698192,-0.077859557,-0.5671161893,0.084082924,0.8035487655,-0.5718214506,0.1562568361,0.8987392962,-0.2328412673,0.7507437558,-0.6868257273,0.8691275782,0.7118546918,0.2577114831,-0.4386833083,0.4986928905,0.8940702832,-0.6428642698,-0.3139621077,-0.1266876598,0.8405264395,-0.580318747,0.6159825173,-0.3919571555,0.6268205653,-0.3357366833,-0.2024823855,1.0314164432,0.9352888291,-0.0284206997,-0.2760995242,0.9354933156,-0.312535017,-0.0197192551,-0.3405949936,-0.5954583598,0.4073898485,0.7589759564,-0.680072261,0.8850924798,0.1976517305,-0.7197772702,0.4327528359,-0.6219859102,0.7629609304,-0.5369244457,2.0578926378,-8.3382650454,1.4071874152,-1.675954357,5.9376381468,-0.1567643272,1.2253081311,4.8011879093,-4.1336405133,-0.5920301048,0.9254263874,0.2876305001,-0.26478248,-0.8908784605,-0.1183555044,-0.1137670161,5.0533431049,-0.9801271123,1.0000194098,0.293335543,3.404282853,-0.1064288703,1.2187051556,-0.0169199117,2.531930194,1.8755885881,3.2594064538,-0.0303742792,4.9652767933,-0.1623168451,-1.9221623509,-1.1571828021,4.0587321715,0.4644920231,3.3597466745,1.6361825239,-0.4280543713,-0.1753520031,1.9357290072,2.3864215531,3.0403860215,0.5308951669,-2.5487875286,-1.5870176025,2.9829176056,0.438581624,1.2055862501,0.237057375,-3.1858557212,-0.1681187051,2.017830489,3.1813099506,-0.2324467593,-0.5543482988,-1.1802352136,-1.3096459404,-3.1215282542,-0.8578495089,-0.5061941569,0.3007590292,1.0434845687,0.1138643193,3.5304434563,1.43143377,4.2485153702,-0.7789619731,-0.9190723249,0.4489395532,6.6644262825,-0.8975562327,1.1341305598,0.5269249777,-0.5167793322,-0.9195879936,0.1779826745,2.8041850696,3.4609473148,1.6458363953,-0.4249742742,0.4454624763,3.5453161102,0.7173554146,-1.8788426128,0.0086217223,-0.3943959604,-0.8064543852,-0.7115324664,6.1947229658,-0.7707071888,-5.2612383593,3.69148012,0.3670980631,3.4772131912,0.9140335483,1.5262730436,-0.6709713358,-0.7623254991,-0.7709743572,0.8151807799,8.815155681,-2.449731702,-4.0865226243,3.0399612577,-1.1570526003,1.1162963909,0.3197446964,1.0477772419,0.2471492394,1.3221323876,2.0104610845,0.3998005581,9.641787632,-4.9517407168,0.4496018735,-0.5037052398,-0.2984017605,-2.9936384576,2.6815862662,-0.2822916297,1.4873858962,0.6601870198,1.2445075792,5.1823648052,6.4232176482,-3.2799608221,3.0298711056,0.9922351255,-0.7740777424,-1.6983884799,1.7107929357,0.4300483897,-0.3449609372,0.3359133222,0.1211962488,1.4450257206,5.1240219028,1.982687495,-0.2496301706,0.5050105873,0.0565172716,3.6595521676,0.1864116909,3.5323049099,-0.0501310009,0.0610772215,0.6816716764,1.8068535548,3.5191663408,2.6705483401,-1.4895654583,0.8393324031,0.1906513006,3.3937571987,0.5745030792,1.0159853238,0.2292728943,-0.6701601908,0.6492903174,0.1683129937,-2.0284210587,1.0110444913,-0.7620327555,-2.0876833058,0.5245593377,-0.9385498654,-2.2674314987,-6.2861916017,0.7150256909,-3.4755195314,-3.6629915039,-2.5701669774,-2.0321324751,-3.8688284222,-1.0439670416,0.5277930462,-0.9489167658,-3.8747590869,-0.2393534449,-4.2346437549,-1.2587958086,-0.510901963,1.0665474471,-2.0556884099,1.1225249876,1.7481840769,0.1831149894,0.8255686217,-1.8277962633,0.9977013004,3.7034303824,2.101723241,0.9766020424,1.2750261663,-1.2507074278,-0.3402527918,-0.2176901674,9.2352370031,0.9030766815,5.9692936193,-0.7724129726,-1.3781483122,2.8857375182,-0.6994879816,-0.8277574814,-0.6775478368,-0.1718249471,-4.872351522,0.5492847839,-2.817078484,-1.2002198478,-3.8566292408,-1.2481861796,-3.6352102734,0.0981172468,-0.5856520073,-1.3102426374,-1.2500425911,-2.0026125065,-1.6698717219,2.1900739144,-4.6371562238,0.2600479653,2.1123438448,0.8317800456,0.4963690281,0.3122939583,3.3316496171,-1.5889237156,-0.0596984091,2.6500745283,-6.0611494572,0.0724965057,2.6089641585,1.9341849441,1.1533857118,0.8005900126,1.1711979998,-2.6292135523,-4.1904989912,1.9186360383,-5.5507258819,-0.941005688,-0.9467158478,-0.2276770949,0.2644485172,1.2034280291,0.1211818624,-3.8692764492,-3.9343374598,1.0904005376,-3.209978789,-1.3807456159,0.1372075122,0.3659893101,0.8429666632,-1.4386770214,-0.4653516138,-3.0277419517,-1.7520528645,-1.3930016345,-2.0291181468,-1.2641664727,-0.1228501233,0.9289604529,0.2253606319,0.4864845933,-3.3274247325,-1.1208346383,-2.229967707,-3.1962188973,-2.5148457412,-1.8790276217,0.0187913265,0.9405473954,0.5266998986,1.0739539635,-6.8263034837,1.0727333595,-2.2028656927,-0.5813585593,5.5833508735,-15.7144666571,1.2752406786,0.2349790471,2.4049068119,0.8131708308,3.2131772938,0.5217390042,-3.5059166615,-2.4870962047,0.18636544,-1.1593762269,-0.3553763108,-0.6084114463,-4.319118304,1.0107273903,6.633460265,-10.6248422885,0.3006635533,-1.2202165343,4.5320858419,-0.4620949075,1.7296751803,1.8250104006,-0.2485702452,1.6898331287,2.6032697491,2.234571293,5.9390144679,-6.4331255392,-0.7038616715,-0.075161581,1.7623159701,-2.6188045623,4.2907267858,-0.2521852405,0.0666088806,-1.0426748947,1.2290959651,1.6772679032,0.954009063,0.3142122908,-0.3949008536,-1.0835758048,0.2674109433,-0.1590977239,0.1049047005,0.6091125452,-2.5287335561,1.4366489562,0.0299774467,4.5212611965,-5.6945327949,-2.2785523593,-2.6723368213,-0.6687376441,-11.444238816,-1.2769437452,-0.0667101498,0.4850579429,0.8961114714,0.3490310549,1.5536989681,1.3922942241,3.4264838858,-7.5450961245,-0.8895590934,-1.0339985148,2.7815696433,0.5339594164,-1.3600900683,-0.3180486359,0.4190176881,-0.9347513695,0.1158404191,1.5449560802,4.5935983646,-2.6430688972,-1.6051248011,0.8671416834,2.0227444229,-0.4023886392,-1.5240823698,-0.7651794536,0.2011069785,-1.2047639849,-0.1287529201,12.9881799054,-4.9939030775,-3.9333306318,-11.2109271059,0.1674396346,-12.0821443778,2.5520795766,-5.5685096662,-0.3875056789,-0.48855237,-0.5175829152,-2.6624005472,14.613707643,-5.0435881201,-4.7185725823,-5.5265927871,-1.3319441524,-5.3519006639,1.293334037,-0.7901141273,0.6218149138,1.1698317788,0.8142154724,-1.3586755305,14.6135568609,-9.1574765104,-3.0319504156,-2.276170335,-2.4906179286,-7.6068328256,2.8882576609,-0.9743746311,0.3000962928,-1.0976884496,-1.6477117282,5.5294708178,7.0790924896,-4.7680656366,-1.3720036151,0.6895804883,-0.2417923514,-4.396549301,2.9984470893,0.5351008003,-0.7851560023,0.132942312,-0.9014393342,2.6796305911,3.1329798639,2.0274998592,-5.4253109452,0.3421865238,-0.0889013472,3.4270473707,0.5816752795,3.758361595,-0.9207040105,0.460717223,-0.8338239996,2.672344102,1.2549065866,5.4018254048,-9.0659370061,0.7214664574,-0.8030334614,4.0797145448,0.1194469473,-1.0401741155,1.2291582881,-0.3352338451,-0.3830411641,1.2603429006,-4.9446627456,0.3740127367,-1.204902719,1.3557242437,1.2775120012,0.2309885772,-2.8315757945,-5.5375925981,2.6931764661,-0.8481879892,-1.6640217284,-3.7223036332,-6.9343192846,0.9936573817,0.3773973422,-0.6905518576,-3.4828678585,-3.6671165783,-0.4490007674,-3.1291831565,1.9611364395,-1.8460513976,-2.2912155858,-5.4776417853,0.5737759329,0.6656681553,-4.0880722229,-0.3798855889,-2.9802335654,-3.4798088591,1.7174828012,3.609083397,-1.8208861966,2.8656001761,-3.8346064163,-0.7315088827,1.5274136166,6.7419307147,0.2704651615,3.2545381682,-1.6662350617,-3.271933659,3.2964843494,-0.0198040728,-0.9485283631,0.1061767146,1.3042690071,-4.0213976773,2.9732125266,0.8355855168,1.1820989326,-2.4132639862,-3.8227427613,-4.77443058,0.4133810663,-0.9846312893,-2.7993119422,-1.5800370078,-1.3727115945,-2.6644659286,3.5880307762,-11.1090900734,-1.2661454575,5.2595563507,-3.1536623964,-0.2960779794,-0.0970107216,5.4717290535,-3.8214011397,-1.378643335,5.2117408719,-10.402687617,-3.5866717805,1.8864780444,-3.9046756345,1.0177569458,1.0391924341,4.6348524541,-6.0190053092,-3.4106234092,4.4934022255,-9.4865114272,-9.1112408844,-0.0272308705,-1.0650152312,-0.1328241627,-0.5377753755,3.6724521197,-6.225930878,-4.6395542053,4.1459829934,-4.3466273263,-6.1919113831,-0.6352793471,0.7778768188,0.0729491367,1.5240716768,2.2549089348,-6.2113752466,-2.032674097,0.5568164289,-1.8208764016,-5.3799059304,2.8904164601,0.9225239696,-0.8521061133,1.6289945226,-0.6738568087,0.7041190363,0.0882796654,-1.2145646711,-0.5302649109,-5.9635492155,2.6101813416,-0.7444926047,0.3246258847,0.8910153029,-5.2264985108,1.3277118121,-3.2502271479,-0.5967073626,4.4035606322,-14.3865769834,0.9750883109,-0.4047354435,0.6346982834,0.7615950372,2.1493197447,0.7796013389,-2.5800136106,-1.2233487543,-0.8272886218,-0.1810326086,-0.0903197191,-0.6230077491,-3.0057518525,-0.0549068735,5.0757260123,-11.1458392529,-0.842997779,-1.200224108,3.0162220648,-0.1000642943,1.4872268452,1.6946557192,-0.5074367629,1.604805001,1.3840149161,1.6104515593,4.19032172,-8.4104685926,-0.429976355,-1.0049386178,2.6497171071,-2.2089721646,3.9417809907,-0.1775126222,0.288162787,0.3833067014,0.353035115,2.1054065492,-1.3564714839,0.1377359592,0.8952260898,0.0169438025,-0.3880184891,-0.2473075717,0.411206953,-0.1689935428,-0.7922778529,0.9323864651,0.0578914207,3.7518800846,-8.0037988763,-0.6846427315,-4.1206388938,-0.3190423945,-11.7338550772,-0.9067160337,-0.9868386638,-1.0410379283,0.1277453969,-0.6780209232,2.6495102929,2.5748052112,1.9984958502,-7.5120819701,-1.7443995738,0.0664316687,0.9667322839,-0.507873302,0.0036885945,-0.1909565149,0.075274386,-1.6869766355,1.1739348191,-0.214438516,4.1254423655,-4.3662156303,-0.5626272609,0.9379020946,1.9293957545,-0.5229034913,-0.8427883248,0.1772216242,0.5591217088,0.7850747618,-0.7927796005,13.6950260058,-4.0569061195,-3.3857217115,-14.0861330346,0.3154007806,-14.1255233515,1.8316076466,-5.8288420845,-1.2695837533,-0.1520275317,0.0902309654,-2.47707344,12.6932064938,-5.3671720587,-2.986421867,-8.314497908,-1.4262067451,-6.7619819912,0.9085576861,-2.4468481235,0.3503566698,0.5587977613,0.2615423135,-1.5911009426,12.6034196707,-7.5043329931,-4.0921716532,-1.7982279504,-0.5277353141,-7.0986469349,2.6608220726,-0.6290052147,-0.7180876602,-1.0535215192,-0.877573215,3.8566901905,4.3370820862,-4.0208095684,-0.4215525347,0.005761619,-0.0712373477,-4.1171327975,2.3019381662,0.3102634367,0.5872713986,0.6557012254,-0.1280398753,1.9808165043,2.7248955859,2.6024635711,-5.8121061851,0.6462443211,-0.3751341613,3.3882348978,-0.1487617765,3.9111122817,-0.8395090964,0.6723730975,-0.8563031689,1.7671480914,1.877014823,4.7674901835,-8.998708238,-0.4444049934,-0.4388814337,3.5879444223,-0.1430466059,0.2551152824,1.3737947576,0.4150630898,-0.9333504458,2.6268974235,-3.579839092,-0.1119553828,-1.0414286533,0.9603945898,-0.2328347419,-0.9062944917,-2.0598163581,-3.3814173852,0.957005813,0.1498463142,-1.7362869192,-2.8046262708,-7.1694079713,1.4764150681,0.077571536,-1.2402089603,-2.2319793858,-2.6372961429,-1.0884811804,-3.2527819317,1.2191966859,-0.9052405488,-1.9111035269,-3.8332840698,1.3936421664,-0.3709584229,-2.6215739405,-0.1368277813,-4.5073906094,-3.4367013695,0.612602825,1.4052468761,-2.8017991207,4.339068698,-5.1171961727,0.347267205,1.279740881,3.6041132819,-0.0559562073,0.8314556149,-0.3627861744,-3.9522680232,2.584806786,1.7300796298,-0.2235595846,-0.8310366008,1.4998229632,-2.1204058101,2.1823014478,1.3381567794,0.0156515123,-0.6109472051,-4.3803615136,-2.5838110748,0.8730437994,-0.4732256061,-2.2353421224,-1.1657470496,-2.1280400755,-3.1081978729,1.8744668778,-9.8161963412,-3.413480372,2.8484466874,-3.8974839541,-0.1737811686,0.3327262068,5.5835167927,-2.9477188281,-1.8403650292,4.0955694161,-10.3758938125,-3.7458523669,1.4823512798,-4.6382345981,0.7560828431,1.1251105635,6.0265624719,-6.6433786107,-2.5572993091,3.7579974502,-8.0654121367,-9.9711496657,1.7417063181,-0.3669112697,0.1954853867,-1.9435184623,3.1756911272,-4.645326886,-2.5555027072,3.4407275325,-4.0991510794,-7.5980177787,0.0908420496,-0.9098712984,0.5352318198,0.2802193673,2.3992957587,-4.6559904747,-1.4375360105,2.1450925555,-1.2198642516,-5.90513627,3.1263670393,1.1394649934,0.1165891651,1.2842234367,0.6651722097,-0.4128125426,0.1502491339,-0.7138461799,-0.3450458803,-5.7767765471,2.3612172075,1.1457634052,-0.8276172758,0.9632067998,-2.4079589727,0.3279253728,-1.8040971164,-1.3093887687,3.3790727397,-4.0983840946,0.2199054876,0.8321118784,-4.0598874472,0.3277428699,0.3492179502,-3.7234524852,1.2382372789,-0.1494979536,0.160865249,-0.7229726585,-0.2009311139,-0.3319427972,-3.0159016693,1.3859237124,1.4576582422,-8.9633501494,-1.3558490381,-0.6101482934,0.1188792444,0.029282004,1.4082632958,1.9251453921,-1.8555098639,-0.7452949352,0.1509081633,-0.0309426985,0.2994720876,-6.4749309126,1.7387484287,-0.2265817951,-1.3727789657,-0.9904686443,1.0137775773,-1.8954362806,0.8723893755,-1.441498913,-0.481132197,-0.0236846406,-2.8806313922,-1.2220411332,1.9881374559,-0.1683227298,-1.3265651694,0.3027752183,-0.7730103684,1.2397474046,1.3825339266,1.3596095392,-1.0723427398,0.6505890318,-5.5116020762,-0.1967674177,-2.488119378,-0.4125471316,-6.9422278957,0.9407004002,-0.5851912145,0.0378993199,-1.7717837746,-0.8575842678,-0.3541982726,1.1437526255,-2.6888986875,-4.1901701137,-0.5177073788,-0.6400757709,-2.2723487996,-0.1650154377,-0.6819674628,0.0820540453,0.6570419559,-1.2204742764,0.1967771459,-1.5325400685,0.6283898393,-3.9509211664,0.9607286784,-0.364049936,-1.8622461181,-2.6955400588,0.5105172457,-0.4517012686,0.556275612,0.0164018466,-0.0276918499,5.9997345977,-3.7271890651,0.1061498532,-14.5750006491,0.2034079197,-12.5896038573,1.3634669843,-5.7339373069,-0.8204363885,-1.46988436,-0.1096379355,-2.4564687047,3.8571928778,-4.0353524506,0.575000371,-7.7721561283,-1.1608982459,-5.8923476101,-0.192280007,-2.2655449255,-0.4749320148,-0.1727208145,-0.9214449324,-3.0705414791,3.3982934656,-3.0307272409,-3.7330914711,-2.0238519884,-0.0181956112,-2.6337845053,-1.8542385667,-0.3121138682,-1.911596824,-0.7258637969,-2.0255208651,-0.2421025112,-0.8412932842,-0.9733968736,-2.6405999747,-0.2471487809,-1.0836435124,-3.5038386192,-0.4071427825,-0.3315271091,0.7106040925,0.1260424211,-0.5710884633,-0.4343075847,-0.5964515548,0.3361747521,-3.963968896,-0.7973945613,-0.7930013814,-0.0480146011,0.4284752726,-0.4678685186,0.438306074,-0.655629684,0.631702468,-0.4551462386,-0.8514691659,0.6142955771,-6.5974695636,0.4316875596,-0.9905485549,0.234012999,-0.0301788867,-0.8193093277,0.9337589568,-0.0150327401,-0.3863774917,1.4430164522,-1.2879641574,-2.3512095427,0.0702244189,2.096914146,-1.4792106363,-0.9904381392,0.4353849614,1.8413860558,0.9045338825,2.3872155269,0.7591126373,-1.0253322424,-3.2212331213,4.6917022162,1.2509010578,0.4223645478,-2.0512294174,1.4409094149,-0.3823367806,-0.1834748789,2.5216629787,-0.7024548218,-2.3442909409,-1.2082825337,0.2098874461,-1.4265976087,-1.2772470174,-1.8234262698,-1.8423582993,-2.180327088,-3.5699059575,-0.9163133158,-3.0904332158,2.5917470973,-3.3659008285,-0.9855689454,0.795664947,-2.8193944064,-1.7210752643,-1.9508935782,0.6802029277,-0.4232782214,1.2345994329,0.5731113088,1.3231678168,0.1452347124,-0.8480980355,0.5840489163,1.9096699369,3.2053686231,0.9447836175,1.1813708168,-2.0396502389,0.5137549812,-0.9134739608,-0.6819582928,-0.8686843374,0.5054475207,-1.3372766813,-1.4443691453,0.9317043829,-5.3129294177,-2.3253000798,-0.2645690508,-3.4140085869,-1.3513017224,0.7040760597,1.8663111716,-3.1667512463,-3.0350633628,2.0636611276,-3.2655313584,-3.8699355056,-1.4042918876,-3.023801649,0.290170674,-0.5569690247,5.1368420933,-1.2832397296,0.7353101983,2.0068082666,-3.0208503433,-7.0024270573,2.3759489585,-0.8185963268,-0.7896671386,-1.6179726977,2.6830913342,-1.7910640294,1.1269789134,2.925593514,-1.00178887,-5.3612338428,-0.1217740024,-1.7845225251,0.0158929054,1.8837482353,3.5182032772,-1.8288922239,1.863536152,3.2868181919,-0.4417007385,-2.2953696679,2.1261734012,-0.6861661807,0.0361574067,1.4315858435,3.1385515362,0.9358807394,0.8600527654,0.8148077562,0.5410343931,-2.0116306323,2.1407988426,0.0047149922,-0.1076888872,-0.9960608456,2.5434339952,-0.3372538192,1.1328976752,0.0663786796,2.3046544233,-10.2938453011,0.7554891954,-1.3061970292,9.332754722,-0.4574230488,1.9344369383,7.1646161173,-4.7546968057,-1.5938210396,-0.5136187835,0.7219732619,0.2948020796,-0.4125415607,1.1561241962,-1.9317174877,5.8645045298,1.75339367,2.7786769639,0.6787457959,5.326156415,2.0902165642,0.1875660008,-0.8148887457,3.2669314187,2.2076288539,5.4466986017,0.6107803756,7.2037303598,2.5203369414,-3.1438968494,-0.9389147881,4.0621446287,0.9180496207,5.5429020672,0.8226687607,1.6519810239,0.8340884079,3.0685642361,3.7570142145,6.7080482972,0.2022860701,-2.445122301,-3.1806385826,4.3962297252,0.005840231,4.2363468505,0.0008579931,-4.1831735922,0.3135524427,1.7126488312,4.8824562421,2.4322601463,-1.426223839,-1.2965476677,-1.3879528815,-1.9652688664,-2.5670746563,1.037332574,1.221489211,3.1107032234,1.9856133631,5.1363022623,1.6965992344,8.1815617541,-0.079763121,-2.3932261375,0.9534519585,10.9705664921,-0.6412154949,2.4400189103,-0.3984335333,-0.8350654337,-1.2440777275,1.5014301486,4.3556606694,3.3008924268,4.195338651,-2.2875538838,0.5458884646,5.627343958,2.6339791237,-2.2408938667,0.3131578661,-0.8727876928,-0.0122334174,0.282043372,8.4438482162,0.8089678436,-7.3805292664,11.4204512026,-0.2252725778,7.4643888672,2.2242142015,3.5955516804,-0.1504219679,0.1530326105,-0.7286632554,0.1564678307,14.1727944817,-2.3535407371,-4.5123626314,7.9083994787,-0.3625965205,2.5201019658,0.3759649828,2.6621537033,1.1074913261,3.3544828281,2.9578420935,2.4735502723,13.3963501056,-4.514603738,1.9717906879,1.5641079321,0.0517056972,-4.4837632272,4.4836022021,1.6406244181,2.7534621621,0.0179733345,0.4656446662,8.6881146477,10.1866248992,-4.8946926484,4.7684523026,0.7161514336,1.1709135323,-1.247281643,2.21901442,1.4517462856,0.792986977,-0.137826004,0.8865494894,4.2880367288
