encog,BasicNetwork,java,3.3.0,1,1463865092816
[BASIC]
[BASIC:PARAMS]
[BASIC:NETWORK]
beginTraining=0
connectionLimit=0
contextTargetOffset=0,0,0
contextTargetSize=0,0,0
endTraining=2
hasContext=f
inputCount=279
layerCounts=10,61,280
layerFeedCounts=9,60,279
layerContextCount=0,0,0
layerIndex=0,10,71
output=0,0,0,0,0,0,0,0,0,1,0,0,0,0,0,0,0,0,0,0,0,0,0,0,0,0,0,0,0,0,0,0,0,0,0,0,0,0,0,0,0,0,0,0,0,0,0,0,0,0,0,0,0,0,0,0,0,0,0,0,0,0,0,0,0,0,0,0,0,0,1,0,0,0,0,0,0,0,0,0,0,0,0,0,0,0,0,0,0,0,0,0,0,0,0,0,0,0,0,0,0,0,0,0,0,0,0,0,0,0,0,0,0,0,0,0,0,0,0,0,0,0,0,0,0,0,0,0,0,0,0,0,0,0,0,0,0,0,0,0,0,0,0,0,0,0,0,0,0,0,0,0,0,0,0,0,0,0,0,0,0,0,0,0,0,0,0,0,0,0,0,0,0,0,0,0,0,0,0,0,0,0,0,0,0,0,0,0,0,0,0,0,0,0,0,0,0,0,0,0,0,0,0,0,0,0,0,0,0,0,0,0,0,0,0,0,0,0,0,0,0,0,0,0,0,0,0,0,0,0,0,0,0,0,0,0,0,0,0,0,0,0,0,0,0,0,0,0,0,0,0,0,0,0,0,0,0,0,0,0,0,0,0,0,0,0,0,0,0,0,0,0,0,0,0,0,0,0,0,0,0,0,0,0,0,0,0,0,0,0,0,0,0,0,0,0,0,0,0,0,0,0,0,0,0,0,0,0,0,0,0,0,0,0,0,0,0,0,0,0,0,0,0,0,0,0,0,0,0,0,0,0,0,0,0,0,0,0,0,0,0,0,0,0,0,0,0,0,0,0,1
outputCount=9
weightIndex=0,549,17349
weights=##0
##double#17349
   -2.262146172,-0.1122934123,-1.0252172768,0.5602132227,-0.250044213,0.8580874169,-0.0436354438,-0.3663619068,0.4264205444,1.2889515394,1.099527345,-0.7686772981,0.7022210547,-0.4025796631,-0.6958456111,-0.6793430319,-0.2190471327,-0.3344468217,0.1957239404,0.5548000572,0.6454346552,0.3801042569,0.8951621666,-0.374637377,0.4485194925,-0.145479404,0.9892701376,0.975345368,0.0088772274,0.02600212,0.6482964024,0.6556371856,0.3417991352,-0.1472844762,0.6474828427,-0.2368768808,0.4926393986,1.1305391819,0.307908995,-0.9151583672,-0.4915428003,-0.1573797814,0.2147753399,0.657048823,-0.2286851199,-1.2789316653,0.5508228836,-0.7483183446,0.7383095564,1.1682588457,0.042658948,0.4835848798,-0.2908140636,0.8763941414,0.8179672783,-0.322031034,0.4293818489,0.5810755015,-0.2079770552,0.5421991479,6.4165892701,0.13211625,-0.1912975239,0.9039425469,1.2910620709,0.2000850534,1.2703676689,0.1268430588,0.4066500419,0.5131711855,0.1811884993,-0.5544557894,0.2549410278,-0.526753771,-1.2012820723,-0.2244781711,-0.1548338258,0.3578498924,-0.4832046436,0.2916936234,-0.0039667497,-0.6589059428,0.5287177929,-0.6421091977,-0.8450481369,-1.5049528091,0.4814704847,-0.3504548215,-0.7520565794,-0.063045311,-0.4324448022,-0.5221106201,-0.0220219129,0.1480400851,0.5808345903,0.6408842604,0.4668307266,-0.2238114457,-0.4549900195,-0.2692135497,-0.3525500898,0.1630437769,-0.3605279901,-0.9673081296,-0.8648565588,0.301833591,0.5207345021,0.5345919716,0.1052670753,0.040503851,0.5468022483,-0.3095105222,0.487511013,-0.0022459882,0.2107053986,0.8588191158,0.290697044,0.7151834549,0.346192051,-1.3951392528,-0.3049334604,-0.0858285173,1.7906253611,-1.1854532151,-0.4919307287,-0.9354691609,0.6648827396,-0.4425065061,-0.6712849027,-0.3232561039,0.7960781675,-0.5277953835,0.650628574,0.062423198,0.1320851573,0.3944119185,0.0100251237,0.0107169623,0.9660547547,-0.6394440207,-0.2643076862,0.2287284023,0.2469420784,1.3313646553,0.2212556065,-0.027783247,0.3050283943,1.7041145513,0.3487263792,1.2919128763,1.2850691706,1.8203174679,0.3866374872,0.532857586,0.8005018257,-0.4910962795,0.1399629654,-1.0602988074,-0.1845174144,-0.2579021289,-1.6944824127,-0.070291545,0.4216214975,1.4444069596,1.8601889272,0.1998111027,-0.5756905264,-0.2389825276,0.9704906148,-0.3122928625,1.0374599909,-1.4849617604,-0.4452090157,0.6754749659,-0.28992689,-0.6752385328,0.4969217624,0.3275158078,-0.0744132643,0.0008879526,0.4843245193,-0.3200748801,-1.6535334828,0.2445262722,-0.3026525201,-0.6442769428,0.5391142845,1.3827917116,-0.2830259167,-0.0519769777,-1.0734892642,0.6309687679,0.7781882214,0.2011911665,0.7967777162,1.2595864418,0.3744810561,-0.564263869,-0.0746032085,-0.5865962569,-1.3341726219,-0.2274007535,0.1208426088,0.9333110306,0.0033843928,0.5717164166,-0.7365686843,-0.748394609,-1.0232081523,-0.6775768124,0.6676172597,0.0932221095,-0.7329297887,-0.9886818492,0.3248070906,0.163060795,0.2527976203,-0.711463728,-0.0662431215,-0.5211035648,-0.5534034209,0.1012177948,-1.3106962254,-0.6195391649,-0.8220953589,-0.3516785429,1.1224471642,0.4920513707,-0.2268495519,-1.2565519042,-0.5364123738,-1.4780733122,-0.0556598741,1.7305626233,-0.3484233119,-0.8206597367,-0.0357060376,-0.0138066604,-0.7728683378,-0.0101313671,-0.3863495859,1.385773839,0.3464362705,-1.1542936267,0.4326634803,-0.6725062027,0.1639459127,0.6337174797,0.4299122626,0.0356311072,0.2736384532,-0.6129777323,-0.3785164664,-0.1109856842,-0.9661209863,-1.2525783053,0.4593258664,1.3312574449,0.888569537,0.9187552169,-0.321384994,0.0440828291,-0.2934897495,-0.3528175647,0.290711192,0.9619741302,0.648981119,-0.1851820667,0.4617029921,0.3127898679,-0.1238159669,0.5614396166,0.8898788376,1.7128771773,0.9208957431,-1.0596699528,-0.44346794,-0.2102944403,-0.5698857992,0.238246855,-1.3430786478,0.1287220556,-0.7310346653,-0.1571686424,0.8926118116,-1.1302899462,-0.9526030442,0.7810296825,0.4618429152,0.0430106283,-0.8679139552,0.4666192763,0.1759048249,0.5107836242,0.7427220281,0.5988874391,-1.282091743,0.1319840695,-0.7385782018,0.1321971747,-1.6202271057,0.6039756172,0.0279839692,-0.0425668392,-0.1588005369,-0.1657926482,-0.5585456499,-0.7907489227,-0.0024627469,-0.5288572976,-1.5042527865,-0.5358342548,-0.7169274413,0.7935893498,-0.1243377151,0.4328450631,1.3036639284,-0.4648229911,-0.4795776479,-0.4045110451,-0.2188123254,0.4092059935,0.4557118429,0.918167109,-0.2337234075,1.1682387309,-0.7094305775,-1.2499391224,1.0780047183,-0.4496503596,-0.030633561,-0.215255119,0.0857826672,0.1875190545,-1.0901582575,0.9368192046,0.8352409836,1.5135868354,0.728983428,0.1329795263,0.6448781675,-0.4919240982,-0.3732803001,0.3682401914,0.3386989084,0.783978651,0.4116149014,-0.5641278982,-1.0064971839,0.321969686,0.7011014546,-0.9334950101,0.3125825958,0.249051497,-0.1651028589,-0.795520612,-0.9955467745,0.1079021372,1.0210003618,0.0235984786,-0.6745444782,-0.5993867503,0.1146830479,-0.4256832836,0.1186243646,-0.2379800816,-0.0849544488,0.5699434993,0.8285128447,-0.6259387142,-1.0328455079,-1.1951677014,-0.1491221392,-0.0307094364,-0.8247261799,-0.7714395859,0.0004244618,0.2886216104,0.4496469226,-1.1264583217,-0.0298831705,-0.8673261896,-0.3491509393,-0.8773551986,-0.5302879289,0.5441057125,0.2471378901,0.37371671,1.9674224667,-0.6033382642,0.5720603998,-0.1747516849,-0.5574098205,-0.2597069991,-0.828289321,0.2313365554,-0.7568085863,0.1154170553,-0.0532617275,1.82912141,-1.09837556,0.1076235107,0.9882700321,0.4177568571,-1.0036620678,-1.1083062811,0.1004875476,0.0404304191,-0.016794538,-0.5122865017,-2.1043689787,-0.2778978119,-0.8028393224,-0.9697475019,1.1153740093,1.6130155128,-1.1387594972,0.2325082671,-0.6321020087,-0.6281187609,0.0345052052,0.4448337211,1.5476030493,-0.3082132711,-1.1337881414,-0.3199161067,-0.6704626469,0.2862915606,0.5150578529,-0.0604738246,-0.7028588132,-0.4944377813,-0.5238410022,0.8371270275,1.1076010406,-1.0548773641,-0.5947616051,0.4195699167,0.7254091747,0.1258125003,0.782026856,-0.3196166402,0.1020148147,0.0518855356,0.5978397568,-0.5851715936,-0.1508697328,0.9302964546,-0.2091630334,0.3983533614,0.8894224278,-1.3069549036,0.0286869978,0.6269933393,-0.2330397656,-0.2755184183,0.6385355288,0.9618579667,1.4108581169,0.0057334848,-0.1333339764,0.0878570756,0.0983231874,1.6032147714,-0.3183459024,0.1095430493,-0.1539709754,-0.0023089964,-0.270787096,-0.8614731114,-1.2722126063,-0.2931135414,0.8772087953,-0.3062293269,-0.0535703552,0.5943708847,-0.1726281773,0.7304079738,0.0409380383,0.7811445188,0.44574315,-0.646704191,-0.6488029144,-0.2574498213,0.2142438974,-0.0980756297,-1.3302564773,-0.7248633295,0.6241641577,-0.5315339393,0.0630659812,-0.4150823727,-0.3114048355,-0.1522982202,-0.1519327448,-0.7630079623,-0.388949791,-0.0100030888,-0.0135773946,-1.2508261041,-0.8097177747,-0.197761064,0.3506242645,0.6352768917,0.0069094433,-0.463555027,0.1809281129,-0.5201336868,1.0674049116,-0.6635682153,0.6154966272,0.2650987585,0.2852322073,0.30572215,-0.6256552789,-0.8674397627,0.4741618731,-0.1413742422,0.063272695,-0.2699775995,0.1917361578,1.1251868767,-0.4160462377,0.2121015754,-0.228400765,-0.7153508353,-0.0147167684,0.3680703542,0.2347368264,0.4046049103,-0.8803449451,0.2635564078,0.0539865148,-0.2378742323,-0.3379342844,0.0453116633,-0.4769557077,1.3593752281,-0.1900229484,-0.0992983483,-0.3018642177,0.2792040276,-0.218817025,0.5827213519,0.0243268988,-0.439774416,0.0521696619,0.5306206248,-1.3006378996,-0.4212368467,-13.9523103832,0.5224061888,-1.8354448593,7.5474386019,1.5009030147,4.1766902476,4.8723073516,-5.4455413072,-0.381847217,0.6306111586,0.1520505615,0.7889957418,0.9441007617,-0.1443003114,-1.1472099908,2.8132210087,6.4583199801,2.8395520981,1.1298583546,2.0475362587,1.5743016259,-1.7864791459,-0.8985039086,2.307184691,1.4412518296,1.1552880466,0.8016844935,4.1975561329,7.1032510521,-3.1477283811,0.3488068765,1.8565597512,0.7409323241,8.0790336173,0.9257280392,0.1100455269,0.8992835225,1.9281858699,5.0002474838,4.103722623,-3.356720179,1.041197496,-1.8608152614,3.2305572888,0.9424685177,5.116522716,-0.8352796188,-6.3059335033,-1.5649351435,2.6666953713,-0.0274019732,6.2497434825,-1.8728554213,1.1457028132,-1.3526585568,2.6143555953,-1.7854063096,1.3165378219,-0.4324799496,1.9115113515,1.0808585181,2.0332290655,-2.6919108286,5.3628914345,4.4775986484,-0.8413260306,0.5604474036,6.786089166,-0.1976975793,-0.5571356482,-0.8793132577,0.6461186242,-0.5579010481,1.830000652,5.0822088769,2.8061690246,4.1448345558,-0.0418815697,1.6158492896,5.260464996,2.9438512814,0.3189615239,0.2885724989,-1.6079249768,-0.8074811146,0.3281035807,4.6412003509,2.1218465888,-7.1860803136,11.6352930223,-1.4692841273,11.1930231629,1.0845262105,4.8173555002,-0.6111788293,0.8727510678,-3.1127997448,0.6125185001,8.2228683436,-0.9843213549,-3.3300029253,10.2414302674,1.5708956019,6.2212296131,0.5168752999,2.3308243141,-1.4520408127,2.8112601683,2.9331180561,4.2736454952,9.8036288869,-2.6418356489,1.2040676698,2.1015000075,0.0242962652,-0.2524500795,4.3083809651,-0.0488897911,1.8177636464,0.8028062388,3.3115350475,4.5073310334,4.8347888623,-0.6072449543,4.5283919148,2.0198498224,0.8619440087,0.1931799844,1.6985446129,1.4348497791,1.3173510591,-0.3427025743,0.4068024335,1.6105380019,7.8723260128,0.574703177,0.2709313495,0.6818403388,1.3252865272,3.318754208,1.3625174757,1.5232223659,0.7533790048,-0.1722330042,0.0690658865,0.3095282516,3.2649202807,-0.4833840202,1.0358577928,-1.6203678141,0.7634168888,3.8499193218,0.2911885057,0.9434462637,0.9741243824,1.0764503054,0.0012450313,-0.5107044198,-4.100629048,2.3583690063,-2.3113326204,-2.9272423938,1.6593592803,0.6434386354,-3.3114006929,-9.6789047644,-1.1544195675,-7.1653569314,-2.9469321345,-2.2761324048,-3.1398254004,-5.0112776696,-0.4157757178,-0.9098556117,-3.1259838602,-4.9176934077,-2.1884807547,-6.6426102127,-1.7109189979,-2.1122117585,2.5407882715,0.3185409079,1.4005718787,3.6522230713,-2.0266331186,0.385757252,1.546941238,2.0235495534,7.1781744404,3.452954627,3.4864273302,2.0973105397,1.1565450168,3.0256740199,2.4181567092,12.0587795948,5.3433977401,10.8935561134,-1.6077169606,1.202693992,2.1188963741,-3.7507757592,-0.989807264,1.1331429786,1.7118607112,-4.1831855177,-0.3220703647,-5.411365247,-4.1837628936,-4.5686308047,0.0069648173,-2.7655848418,1.4641170499,-0.5787191899,-1.9698539942,-1.2240869855,-0.7446049983,-2.5808281744,2.2389319161,-2.2596059566,2.9234272691,2.7141373454,5.1061100306,1.7038869445,3.5506301737,1.7913629783,1.5411562645,2.1971250831,-0.3910091595,-4.0035504953,0.1597594447,1.7659064207,3.9153690771,0.1936254772,3.7034385841,-3.6026903181,-0.4064729183,-5.8558043434,-1.1233624683,-3.9325928597,2.6232958625,-1.087574945,0.5497240175,-0.0129956103,2.069015119,-1.9568875898,-1.4537603992,-7.5603097542,-1.3135714813,-1.1419950164,3.7518090655,-1.2435845916,2.3821409276,1.8381002181,-2.5175204167,-3.8137476254,-1.4619685076,-5.1964828632,-7.0322624991,-0.5162558495,3.9424307931,-0.8655653793,0.5772220064,0.1673651045,-0.7273943797,-6.0755032063,0.9398685157,-4.4601171378,-4.4126542472,-3.7606348166,-2.6382479159,-0.124714445,-0.9382348567,0.4729396345,-0.3307284443,-8.0412823901,-0.7516377716,-6.3572791214,1.6123292559,-0.3193220896,-0.2090765689,0.1244190391,0.8802586903,0.6159049563,-0.2877489272,1.2060593304,0.6071278692,0.3677604128,0.112242109,-0.6353307554,0.5871260683,-0.3563161471,0.4861258583,0.0620901796,0.4682800497,1.1551287814,-0.2455162489,0.1363688721,-0.4482286635,0.1671170138,-0.2463857574,-0.7127405127,0.6610136014,0.502679783,-0.8287587798,0.5331481631,0.8519979827,0.6606492369,1.9546225016,0.0192917573,0.1782337172,0.4002953963,0.0793261925,-0.1459981428,0.7842464104,-0.3565517774,0.3281903627,-0.5601267815,1.3676774281,-0.3998581115,0.2491597972,-0.2351333988,-0.9677308748,0.7345242756,-0.1699996406,-0.0288411187,-0.0506048548,-0.4054341943,0.6768641846,0.8878428654,-0.9823340055,1.098023663,0.6722894517,-0.0917239633,-0.273857365,0.3135756169,0.7677191758,0.6807389099,0.5763488913,0.1813804914,-0.6513860236,0.5325159326,-0.0844677869,0.7311211024,0.8312305655,0.0972141491,-0.664690632,2.0043246999,-0.0323587513,0.4065267853,-0.3714065367,0.3803319772,-0.7382577737,0.8732820326,0.0867720202,0.6022633506,1.2721707754,0.8422955808,0.185780017,0.9936375717,-0.0891984845,-0.2822601686,0.2527393267,-0.2974666907,0.3169645321,0.3459154105,0.4707097982,1.0360042725,-0.979800942,2.394129311,0.5282251487,1.9379882063,0.695267752,1.7580053594,0.8466657329,0.9801275079,-0.6153713002,-0.0274024879,0.2615226915,-0.7240130282,0.6950121118,1.8799807886,0.222576349,1.2858438313,-0.1051780847,0.2719741636,0.2978935234,0.0624528799,-0.5215695927,0.997402027,-0.6906474395,1.2906287057,1.7540833134,1.2035364591,0.906298824,0.0842723961,-0.435773917,0.9766226371,-0.1816618553,0.9947636452,-0.4048923428,0.6776808295,-0.9945391869,0.0519212601,0.8886591392,-0.6325129059,-0.4221890261,-0.7593198688,0.0710284969,0.4652484476,-0.6612123244,-0.3588508133,0.3917449768,0.1180611954,-0.0651845217,0.2842774327,-0.5324767907,0.0082847727,0.1182706,0.2372602118,-0.7604403173,0.4443131119,0.5705406264,-0.4482199081,-0.9709219054,0.0133370203,0.6285141032,0.4736207932,0.5895984966,-0.6542903871,0.58092834,0.3356271489,-0.547141731,-0.4749739677,0.3050343102,-0.2710017064,0.7142238422,-0.4854492525,0.2194820941,0.6422217199,-0.9025446028,-0.835520337,0.9140885605,0.1892656211,-0.8795110467,-1.7873320955,0.6908449086,-1.2577780323,0.4791504267,-1.1526753197,-0.8473677872,-0.8774704236,-0.3750342086,-0.5205330567,0.6268828756,-1.035907359,-0.2541961215,-0.9947948611,-0.3431310475,-0.3698406562,-0.0816107928,1.1096223799,-0.9303651229,0.5608943496,-0.83148799,-0.5889702744,-0.976137731,1.0039174246,0.6954381609,0.3197587623,0.712704938,-0.4108887244,0.4126363587,-0.7670644712,-0.779341189,0.501405379,-0.5279695764,1.1232429007,0.6198381464,1.330904254,-0.4380520508,0.3702328274,0.887605323,-0.0256964565,-0.0785962924,0.4088552568,-0.3969571182,-1.2001070379,0.5532852636,-0.7252022476,-0.6523588991,-1.0757052313,0.7842851547,0.7695167858,-0.2653247748,0.2260193315,-0.9754461474,-1.3154562218,-0.4964833422,0.944748135,-0.2145085539,0.7690069864,1.4997455772,0.3430452431,-0.7064552258,1.0901985964,0.0123585949,-0.3085266835,0.9121623332,-0.5172813267,0.8630666097,-0.851413158,1.5531358119,0.8090465675,0.5289968343,0.2732061175,0.1708010502,0.7789956433,0.226192018,-0.1642967301,1.1099534678,-0.5627174785,-0.5642544419,-0.3721680784,0.1099551722,-0.7622150761,-0.4943366521,-1.2053387875,-0.2739578617,0.6035921385,-0.3264222001,-0.1884147306,0.9928320054,0.5503346857,0.3698180932,0.0029034151,-0.3925786578,-1.065755034,0.198426028,0.4968902877,-0.3051290276,0.4867644118,0.9877654656,0.1862591923,0.0288466949,-0.0014373226,-0.7751003455,-0.8472507087,0.1565441142,-1.3934492436,0.5705311153,0.6778648573,0.3271733509,0.4080475971,-0.070060288,-1.3409454096,0.2623399499,-0.5845047921,0.0994189036,0.8726134111,0.9879188544,-0.1936520523,0.0378898661,0.4938670909,1.0977981195,-0.7872602236,1.0887308073,-0.7271605029,-0.3050956648,0.6322946437,-0.1022031082,0.662496457,0.3066521276,1.8843691273,-0.3745164534,-0.1837055803,-0.5393382964,0.6651240541,-0.4089817019,-0.5812854455,-0.0006194754,-0.7319627518,-0.4190331166,-0.3115553355,0.2735188403,0.6116464524,-0.0036657452,1.0332054399,-0.638907812,-0.7742379615,-0.2942994927,0.8338094699,0.6773894652,0.4110494114,-0.5322820813,0.9126735094,0.3084932588,0.5863965024,0.2824993425,-0.3390103001,0.4901754956,-1.5215834564,0.2043243107,-0.3042250005,0.2786597574,-0.0330210381,-0.0580175649,0.1729713298,-0.8423668859,0.8582149574,1.0892425448,-1.4877292073,-0.6249510855,0.587922739,-0.2057841085,-1.3379644954,-0.5414730271,0.1203264934,-0.5278528187,1.0160061233,-0.7520355063,0.261267305,-0.8587822671,1.1617332871,-0.6318956623,0.8993324617,-0.4309153705,-0.1753273773,-0.0743985308,0.3294960623,-0.0529275558,-0.1199629908,-0.0757921823,-0.8550003736,-0.3302884664,-1.3211617199,0.6531947999,0.3450641008,1.2173136693,0.5490953852,-0.6020690077,-0.7508613483,-0.3784927481,0.1312431751,-0.2133774186,-0.3861937601,-1.0183569166,0.0088776514,1.8198231872,-0.0192400541,0.1566539107,0.0777279353,-0.743983694,0.5723155096,-0.4911747575,-1.0012092904,-1.2444699817,1.2439405909,-1.6537170355,0.1694118162,1.3563540118,0.8807750985,-0.487055219,-0.4137587397,0.2197517542,-0.3379309486,-0.9589199269,0.753154107,-0.0226624095,-0.0371633296,-1.4208462821,1.2007909296,1.3417772382,-0.7541227158,0.942014356,-0.0649133721,-0.8129000271,-0.6365213186,0.6149845245,0.99846925,-0.2252710601,-0.7839011664,-0.3757124091,0.8966355792,0.9003835926,0.0830077131,-0.5053686505,0.6349489858,0.2204381995,1.5646249506,-0.5613613254,-0.3238426865,-0.1802621467,-1.3875832971,-0.8861648299,0.0111416747,0.6133913961,-0.1404994133,0.4107469057,0.4981818669,0.8024787446,0.7842683624,1.0609982736,-0.5731275748,0.278440798,-1.1421863253,-1.2329504986,1.366766022,-0.2053558976,-0.4172897573,-0.129182019,0.8168891648,1.0022699835,0.4603802228,0.5152810783,0.6083078505,0.3617848205,-1.1750699671,-0.2134853323,1.4315733404,0.1705459616,0.638164321,1.3933236298,0.0309222035,-0.4692319086,-1.8372501957,0.7946845857,-0.1527770295,-0.3359521295,0.3868417671,0.0843261893,0.7393171652,-0.8896659029,0.875264023,-0.5711674656,-1.3006040553,0.6059365419,-0.2029271705,0.6567669534,-0.6311139391,1.3523192008,-0.4626694255,-0.0742676059,-0.4299802142,0.6909661155,-0.3435282449,1.1264156796,-0.4976780639,1.2519731683,-0.7838786296,0.7438189466,-1.2582766519,0.0420277451,-0.618745855,-0.5832685501,1.2012158686,0.3614573407,-0.083465754,-0.9376600346,-0.275802721,0.1477542918,-0.9024069001,0.0784036904,-0.4031011594,-0.8648302107,0.5650139007,0.8897392017,-0.4936737284,-1.6743177872,0.0331776443,-0.1472936951,-0.3692764379,0.8433250178,0.1427130419,0.491776739,-0.9314792945,0.2502552017,0.3529450492,-0.1292668117,-0.5667145352,-0.7292457069,-2.0678038775,0.6416296577,0.5467393617,-0.2588701702,1.5937952944,-0.4994981712,-0.6797595324,1.2671267013,1.3833332722,-0.2865147512,-0.8775160227,-0.2605346489,1.009817368,-0.0306890273,0.7380159138,-1.0161985913,0.914304921,-0.4055033269,1.6293006365,0.5783396807,-1.6686064354,0.4320060773,-0.6417949797,-1.0176866345,-0.0864212749,-0.0139036945,-0.8751888425,-0.2234443474,1.2003889417,1.4935288563,-0.9298356201,0.4948040006,0.303510171,-0.4384525412,0.1797221304,0.9855327618,-0.9181047302,-1.2596378184,-0.6001107615,-0.232788737,0.1330470862,-0.1539966111,0.3759439667,-0.7816915561,-1.3749902391,0.3732129684,-0.1025059033,-0.964013511,-0.5342015148,0.1251941086,0.2016822721,-0.6481279076,-0.5697561681,-0.199356292,-0.5849829926,-0.2939984543,0.4169480669,-0.8675542596,0.9018123819,0.2833668546,-0.0451299943,0.2229596216,-1.1756144028,-0.5850637203,0.5442875377,0.0575256039,-0.4259770833,0.0598869177,-0.1089205078,0.0335017266,-0.8150080631,-0.5667427022,1.3027880215,-1.1984273642,-0.1262772773,0.2088734634,-0.0662400943,0.4090574689,0.4027542797,1.0545654374,-0.856367163,0.7122810976,-0.6319928931,0.3593503214,-0.591205738,-0.197901806,-1.0073304906,0.5161374413,-0.3932293409,0.0325907701,0.1366436247,0.8573596503,-0.5375773809,0.4992214277,0.8086886027,0.6923407371,1.3041912878,0.1217171533,-1.0055144145,-0.8951235756,0.0190712927,0.7078519853,0.0371073664,-0.3266555319,0.2518757107,-0.1948189084,-0.2946622527,-0.1916279076,0.3800590682,-0.6185738147,-0.7020637049,-0.4335919848,-0.1759087442,-0.2801933074,-0.4721494085,-0.5535302705,-0.1788654148,0.3252840191,1.0289729179,0.4310531819,-0.4461296992,-0.0506671672,-0.439791895,-0.1176678381,-0.1856635218,-0.0663346614,-0.3371052072,-0.2631364414,-0.690119689,-0.0507102673,-0.0284649632,0.4011174811,-0.329731064,0.2888853971,-0.6507775948,0.6991779856,0.5232301824,-0.5772554737,0.0585185787,0.354197593,-0.6446025786,-0.8025767313,0.5622690555,0.9471472089,0.4101273896,-1.2083084377,0.511870353,0.4379199007,-1.7806804583,-0.8375531831,-0.2369278546,0.6045992773,-0.5305219762,-0.3116558298,-0.4307830739,0.8512045098,0.0591894525,-0.5308763416,-0.2298501417,1.3937466389,-1.2489440154,-0.3187327158,0.9896395467,0.9288495629,-0.044795838,-0.3542137981,0.8320165366,0.0911763551,0.9582361395,-2.4618799918,0.9291730783,1.4696978021,-0.2027355901,-0.2941788685,0.6222810513,-0.1286441225,0.7308675644,0.5856557932,0.6285087321,0.0402944439,-0.1083068075,-0.7295285933,0.1694898296,-0.1028776777,0.7570610764,0.4486781593,-0.0258689192,-0.5351417654,0.4477655322,1.0070250178,-0.2870321008,-0.5197360505,-0.6180921624,-1.0050900422,0.1590623728,0.3653009328,-0.1361334635,-0.6928665337,-0.4509405684,0.652396919,0.7929512783,-0.7905934838,0.3543957256,0.2498398378,0.0509626017,0.1320972661,-0.3581644478,-0.5945315851,-0.3566652935,0.871591533,-0.4769694583,0.324994775,-0.9386396962,1.0238434114,-0.1364581427,-0.8324050647,-0.3156583552,0.3744315024,1.4386922898,0.3896069706,0.209223194,0.0283191763,0.3281374626,0.7261398509,-0.3353736915,0.4358072321,-0.6529350078,0.1996449052,-0.6606726098,0.2866006691,-0.2259501534,0.1063365191,0.1824209689,0.6137572332,-1.710374983,1.0179982193,-1.0229818836,-0.0085546827,-0.0899187635,0.1059501746,0.2422178517,0.4340287602,0.6477979595,0.1450884523,0.3512828035,0.4320580975,-0.6468204807,0.4933411682,0.760388278,-0.1603724444,-0.168366865,-0.8572887353,0.8062417376,-0.7372636379,0.6920279075,-1.1104321605,0.9770566077,0.1020277783,1.1278216587,1.296283656,-0.5451687892,0.3481802712,0.5571050748,0.7289258321,-0.3604028044,-0.3695685793,-0.5031133622,-0.2748751128,-0.0146604855,0.1457438065,1.4954345032,0.9510093168,-0.3074936114,-0.9341592857,-0.3980807133,-0.6549555801,0.4394011458,-0.3614128938,-0.2716286305,-0.7092014465,0.3516612593,-0.9973663981,0.3411269249,0.9568375701,0.5688895388,-0.456356625,-0.2502001745,0.5895679157,0.6747419203,-0.3295673512,-1.1464420032,-0.8728651243,-0.6585883864,0.4361085301,0.4012108309,0.4180236006,1.4157558197,-0.5774586782,1.7143099711,0.3010404259,-0.4349812254,-0.1002137866,0.7735039539,-0.3900262052,-0.0879345225,-0.5790095927,0.8991300595,-0.3471843522,0.3019313379,-0.3637444887,-1.0229696579,-0.6928314507,-0.6403666964,-0.9443440913,-1.0647031137,0.3449735268,0.1317072818,-0.9712399539,-0.4816846554,0.1631379291,-0.2939762856,-0.1786933462,-0.5571383731,-0.1756271792,-1.9825196133,-0.5831413264,0.0639793335,-1.277595561,-0.6659212464,-0.6858213852,0.7709831787,0.4715561935,-0.698448902,-0.0806240927,-1.9608912686,0.1595211949,-1.364987712,0.2455412888,0.6455308686,-1.0254064454,-0.9472334968,-0.3082572627,0.3321684733,0.6812813926,-0.0567231464,-0.1832141389,0.571807743,-1.1633815957,-0.4987331673,0.4811810757,0.105438131,0.0597185844,-0.5989083345,1.2014727546,0.0589584288,1.1974526084,0.6747724724,0.1291994952,-1.3382490793,-0.3440515263,-1.1159499664,-0.0589993204,0.7591594135,-0.8305467938,0.1164147615,0.790889823,-0.0450809871,1.3203286747,-1.0485982188,-0.00397906,-0.9291910367,0.3504986515,0.6609716953,0.3246631256,-1.0200079498,-0.9957035033,-0.3209842338,1.5210604334,-0.6309616059,-0.6126352011,-0.0698219308,0.2974201034,1.9060647963,-0.1691062878,0.6336130117,0.6513455499,-0.9673136438,0.0363483645,0.6228970829,-1.655907327,1.3919706607,0.6180246783,0.6323770901,0.4717094894,1.399622901,-0.4928985372,-0.7375568339,-0.8111804796,-0.5275828299,0.354764581,0.7301806011,0.1482011006,-0.6071209737,-0.212050854,-0.0775370648,-0.2018476487,-0.0966560453,-0.6737975489,0.200232215,0.0851731938,-0.1752225351,0.5771330341,0.549585529,1.4598784829,-0.4203218376,-0.1343332485,-0.3079719777,0.2319328474,1.0211597071,-0.4971541324,-0.6864925464,-0.7060213186,-0.7087470473,0.7224784935,0.6291105135,-0.8789003693,-0.5660300114,-1.39086101,1.9809274903,0.8331171696,1.6333774839,-0.2516107398,1.3259733337,0.6841675094,0.7722799801,-0.6878173817,0.6371480819,-0.6140671968,0.4513179884,-0.7262614237,-0.0763690113,0.793141971,0.8505667094,0.1528264979,1.16646562,0.7007676896,0.358365914,-0.044960278,0.3793000186,-0.1134665202,0.0759277656,-0.9431423209,0.2190453711,0.0766367351,1.0834524312,0.6128010666,-0.4941388787,-0.3549378348,0.2391838561,0.1518395003,-0.8986323176,0.3360192472,-1.0456625139,0.3579994388,-0.8722416519,-0.5005479825,0.097575775,-0.0202817755,-0.3973458123,0.8902777263,-0.2498791096,0.8917553359,1.0984784869,-0.4562376431,-0.0298437779,-0.2388271688,-0.4106420516,-0.0811890066,-0.727548198,0.7886392536,0.2912772062,-0.0671116265,-0.6615245167,-0.0898886709,-0.8625696134,1.2747310629,-0.9831126116,0.732870294,0.0072216629,-1.0064504977,-1.569297159,-0.5675287986,0.5178315783,-0.5422291753,0.1863497512,-0.6919668732,0.1971100039,0.2766102358,-0.2486630709,-0.1554726434,0.4311912135,0.1909954227,-0.2206776981,0.3120876632,0.6880116994,0.3944075605,0.0027512825,0.2634668703,-1.5079355854,0.1382160361,-1.2371398201,-0.1978294178,0.7681874264,0.0436972136,0.7501131928,-1.6821730137,-0.1969345291,-0.7814885842,-1.0855741433,-1.0198380702,1.2235497837,-1.0012141258,-0.4970355006,-0.1441848569,0.7640088357,0.4728195785,0.8617103953,0.1685733247,0.1033098121,-0.1569357501,-0.3262240799,-0.5294243537,-0.2821531991,-0.915498076,-2.0172451423,0.7753048828,-0.1001343846,-0.6557950206,-0.2574001035,0.2481198058,-0.3863314305,0.1389283584,0.6627466937,-1.2149184069,0.2846596157,0.5132754291,0.6102384502,1.1031421045,-0.9834459862,0.6317457031,-0.8151766976,-0.2564273432,1.0692093739,1.2554096819,0.1566298261,0.2029008944,-0.0065581922,-1.3215370504,0.6564321365,1.0485133318,-0.1875545682,0.8723764251,-0.7405098632,1.1983435062,-1.4466166113,1.0386010642,-0.4127951797,-1.5939027492,0.8347846864,1.0818948581,1.6975392493,-0.4240311119,-0.9584011114,1.1774513195,-1.7529385773,1.2661285827,1.1456413734,0.1733996097,-0.6017376215,0.6686714093,1.0225216279,0.001507996,0.482819979,0.1879652232,0.2485228596,0.6916278456,1.1225027372,-1.4563335444,-0.7286649631,0.6815298345,-0.0077409916,-0.1811283526,0.4054137986,0.2843297566,-0.1299809372,0.8454282425,0.8448282751,-0.0493092926,0.1662883465,0.9594705831,-0.3322175221,-1.116210452,0.2409446272,0.471093968,0.7281577714,-0.109173157,-0.6212726927,0.3353859056,-0.0016794882,-0.2267617759,-0.7415998346,-0.1085416837,-0.2148839453,0.1454288039,0.3333424439,0.2645511093,0.4409186231,-0.9368332599,0.8045840139,15.8703620977,-1.030269579,2.5245307796,-7.8424478097,-0.5324244248,-2.3942657068,-5.2419914583,2.4791986968,0.2285989022,-0.2770469235,-0.1725231928,-0.2784777851,-0.697925982,0.8322375693,-0.3512908623,-3.3839759911,-7.6961511189,-1.8389020696,-0.3587587661,-2.6735505673,-0.1209552314,1.0854190263,0.8930302909,-0.9823894704,-0.57853549,-3.0064198402,-0.3947046155,-2.9931537324,-8.7879931506,2.2039108637,-0.5269099893,-2.9217253975,-1.0271963898,-7.3188084628,-1.183838937,-0.5705538423,-0.0190097428,-0.1509115983,-2.6309434212,-4.6702178667,0.408102162,-1.3282894791,1.8829887047,-4.8793780435,0.2196966985,-3.8192236671,-0.1379546841,5.2587011906,0.7173010108,-0.8783611454,0.1063544259,-7.6367172685,-0.5841162053,-3.1404355234,1.2896855487,-5.0260295294,2.3813307326,-1.7452589874,0.987821254,-1.1251603997,-1.2168591601,-0.5684997396,0.9391276238,-4.8400037449,-6.3592039419,0.4674762669,-0.5696281053,-6.7660460769,-1.122981392,-0.6556043541,1.4907927128,-0.6641270106,-0.0719141096,-1.0332216713,-5.8977571945,-2.1332738134,-5.4574665041,0.2862483858,-1.5470466367,-7.3906316623,-2.2607412161,0.3051251593,-0.9211834647,0.7476378311,0.9749782457,-0.2137760122,-4.1629863856,-2.3344692275,7.0969540799,-12.3824678153,0.1943102591,-12.4470656439,-0.0963771888,-4.6020013275,1.484990013,-1.6874915985,1.4778210136,-0.0011981767
   -6.8764714119,-1.1289056597,3.6633676134,-9.3628526263,-0.9939240174,-5.3209032175,-0.9569225259,-1.797879592,-0.1316488885,-1.9842418304,-1.3407991146,-2.4589248863,-5.8026699028,1.8607921716,-3.7315609787,-1.432575677,-0.7523328295,-0.2619948012,-2.4246512384,-1.0642422643,-2.2685602411,-0.5973222954,-0.9541761663,-1.0644593167,-3.3606803381,-0.1342062141,-6.6997525291,-1.3830216288,-1.4758494129,-0.6567562028,0.1355283235,-1.7533625081,-1.2802023956,-0.422956371,-0.9700000004,-0.8300515634,-5.9392399849,-1.1233756666,-3.0996894035,-1.1789586667,0.316465906,-2.5677171857,-0.4636755049,-1.0776252985,-0.9484934916,1.6093887357,-0.841039785,0.8455485881,-4.7455559012,-1.2533478944,-3.8514112941,0.7908982827,-1.4475925536,-3.897269189,-1.2547670983,-1.0073792045,-0.3411791891,0.2073291234,-1.0111650815,1.4472096699,3.2296135854,-1.1029705309,0.900207623,2.825173092,-2.3555436195,-1.2602388539,1.925920763,7.5476736442,1.3783822946,6.1477044376,1.0791904116,2.6589298003,1.7246108201,6.5847171359,-0.5017438939,-0.5879495884,1.4738205858,3.1759736053,1.9452528474,6.2486476668,-0.74276645,1.453369144,-3.3772894078,0.661522546,-1.1407427197,-2.7264904913,0.6088403772,-0.9536593388,-0.3449908216,-2.5154785302,-5.5697463335,-4.6206741204,-4.4350121386,-0.7181750829,-2.4804451257,-1.6933487317,-2.4521368239,-8.3302361198,-3.599687492,-9.3699593754,0.1246509068,-0.6652198537,-2.5256730346,3.7629573002,-1.0877761782,-0.0846606398,-0.6728146771,4.1776159948,-0.2322088967,3.7146534343,2.6637248516,5.8990510861,-0.3557056265,3.5420018322,-0.6652337187,0.4932258265,2.1455166852,0.966041507,0.6375899603,1.5541481282,-2.6926533276,1.5150556156,-2.119595594,-2.5279190648,-4.4060176874,-1.3288941964,-0.8243670688,-3.1051483989,-2.051965124,-3.0568247425,-2.044104012,3.9403358846,-2.5678511757,-0.7978668601,-4.2453151884,-0.7691009729,-1.0362197065,1.4194751269,0.7520707003,3.5615910231,-1.7597165836,1.4371663562,-4.6941919311,4.1088246504,-0.6420169427,-0.7414641537,-2.608912514,0.8479751812,2.5929028718,4.6030866137,-0.932723618,-0.7513812278,-3.6540672497,2.5545591229,-1.3240976615,-0.5369787721,0.7004960932,0.6840262656,2.7953630074,3.1457565938,3.3400077972,1.9180854227,-2.9168374464,1.9676178071,-0.6590639992,-1.094989459,1.1511975726,4.4538132606,1.0708110004,2.8232784379,2.2232770291,5.0682928301,1.4602623378,-0.1534368926,0.8701840106,0.1034625071,-0.1312593776,6.4884747552,1.5654243789,3.4169705694,-1.1227529061,-0.804249245,1.7727091093,0.3816781779,-0.7582333823,0.5775659771,0.5841658078,-0.5399689582,-0.3605251942,0.4391457279,-1.0849091856,0.4086369763,0.1130374651,0.5549984656,-0.0745728091,0.9958418752,-0.4809806486,0.330672652,-0.3886879144,0.5489428152,-0.6981140703,-0.5133373514,0.5346146574,0.3267486922,0.454257594,0.18526581,-0.2988062098,0.326254125,-0.0391254918,-0.896619111,0.5010609255,-0.2342293919,0.1804615446,0.7221811998,-0.5966110951,-0.2320238865,0.5221797807,-0.1516910703,0.0062690158,-0.4066576727,0.4119465487,0.0434064719,-0.6683652981,-0.1867936931,0.381475911,0.5093841152,0.0085635129,0.2937115259,0.4408237351,-0.8373967772,-0.2910291253,0.5272161868,-1.1968276723,1.167297589,-0.0633938653,-0.3663542984,0.5356187969,0.1746150364,0.6853761705,-0.3023143087,-0.3836137689,0.5698011413,1.1857983081,-0.6367817497,-0.3406219642,0.484996394,1.2650754258,-0.5194253974,0.0960047704,-0.0971180891,0.3255121535,0.9700980696,0.6150855382,-0.3789943317,0.8254274641,-0.2576676015,1.4077278398,-0.3393902113,0.4108878573,0.1921194022,0.6309236778,0.2142503512,0.2113312541,0.4220370178,-0.9230918596,0.013604073,0.2824981634,-0.6844387594,-1.3683477024,-0.1615184473,0.8241687984,1.6593425295,-0.9553419275,1.9587359576,-0.6670478473,1.0764503414,1.1277336446,0.9409399031,-0.0787223881,0.2504301116,-0.7264877085,0.6811046675,-0.6003921202,1.4166159736,-0.4784170614,0.6257768166,1.0135215975,1.1352552717,-0.7251771587,0.7747032252,-0.7831829401,-0.1170974561,-3.8622207532,1.0751150197,1.5139774752,0.7389459738,-0.2407742155,0.6119244694,-0.6302520271,0.3075660159,0.6095789578,0.6673398604,0.7925336335,-1.7388466225,-0.9025778706,0.8219619004,1.1496205972,0.5931800143,-0.8699558231,0.8251000904,0.2488224969,0.8035800536,-0.4112092517,0.2060984744,0.6963600375,-0.30269062,-0.9773535185,-0.1700701599,1.1994504736,-0.269264376,-0.1727427973,-0.5372799523,0.5438230652,-0.2053144132,-0.5221401759,-0.129508617,-0.3138266625,-0.5999686838,0.0349862994,0.6135691959,0.4567493952,0.0711439465,0.1014808177,-1.0253617009,0.3681089514,0.7680616495,-0.7247471829,-0.2250632514,-0.6609145921,-1.303773962,-0.2076612142,-0.4307189151,0.7227102658,0.0574599903,-0.0400734467,0.3612474955,-0.3951726728,-0.3981047766,0.4103711243,0.6013815885,-0.9271017086,0.3921716213,0.7378824565,-0.3614822327,-0.0074300583,0.5745763355,-0.5288643706,-1.0724947327,-0.3399420851,-0.0350815295,-0.7300724339,0.1560860185,-0.3559272639,1.5241659988,-0.6196239248,0.1669332635,-1.0157392891,0.6530961796,-0.6168644026,0.2154995092,0.9346782835,-0.8978734209,0.8063817469,-1.0068069928,0.2941773646,-0.8983291088,0.4247453676,0.7232481631,0.318632834,0.2429913371,-0.9243662155,-0.2207011888,-0.7145533797,-0.4794444915,-0.6649226458,0.8604254686,-0.608210971,-0.1185396844,0.3517857725,0.4056784162,-1.1983319475,-0.738197771,-0.4297361805,0.4121892427,0.4778068162,0.4371397833,0.0113788668,-0.0644892884,-0.3044527679,-0.4986962739,0.3142794387,1.0007030549,1.2647005577,-0.8139204718,0.6257610192,0.3736203908,0.4353738021,-1.1722867362,0.3834324272,0.9985080466,-0.4643201551,1.2984314993,0.4259955031,-0.8789652553,1.3323179878,0.6563331271,0.2293176415,-0.846932866,0.8920619864,-0.4993273732,-0.66236956,1.9987821567,0.4090325508,-1.2437243049,0.609801305,-0.2834973242,0.7521018132,0.2101770316,0.4441983974,-0.5401990182,-0.3131981604,1.7000181609,1.2195984846,0.392817097,0.3398256902,0.3024349857,-0.8730206377,-0.0612336358,0.8069338366,-0.7716504612,-1.6231061667,-0.5298630978,0.7539131319,-0.5556715642,0.0453368648,0.8424041097,-1.0168148817,-1.2729989337,1.0588863073,0.4290606014,-0.1785002003,-0.5022905258,-0.2905734132,-1.1931002646,-0.8149555775,-0.5351206413,-1.2569735722,-0.1307928839,-0.1454798016,0.4531341698,0.4028406047,-1.6159815485,0.8980278311,-1.0386591371,-0.6707709657,0.8055117089,-1.4867668032,0.9950576069,0.9409012814,-0.0055728324,-0.2110935707,0.0543600515,-0.4137585251,0.804295251,0.3492753239,-0.3566085089,0.1563474259,-1.0146973751,1.0578582266,0.9756700238,0.771663236,-0.7223605903,-0.6996528793,-0.0078891497,-0.0457193482,0.5367538675,-1.0710460013,-0.8918009288,0.3093256298,-0.0246150314,2.0473650867,-0.8115359006,0.6992903352,0.2221227149,0.1462330481,-0.8371419098,1.0325970625,-0.2528944391,-0.4884385207,-0.8879698515,-1.3969606074,1.1334468335,0.2011522433,-0.3410237448,-0.5743593011,-0.0282764991,0.7572910778,0.5256192471,-0.5352771358,-0.3308536536,0.0789035341,-0.2459230984,0.7576824116,1.6175778624,-1.204230157,1.7424793959,-0.8055150185,1.6636140337,0.2087087172,-0.1879872957,-0.4284511591,-0.2822579722,-0.1654365245,0.7577389789,-0.0106812203,0.3413214417,-1.0100507678,0.263003155,-0.9042811865,1.0712690739,0.3529909371,0.8169800252,-0.2073230952,0.3505976612,0.2217112132,0.7672858154,0.6705500016,-0.5543746875,0.6770394624,-0.2801307367,-0.2944066907,-1.2626827383,0.1540268903,0.1778674812,-0.2766044157,-0.1320679706,-0.0277462702,-0.028067037,-1.1890596483,-0.2941471154,-0.9160060566,4.6283146491,0.185146523,3.55176252,0.0018926407,2.3329697342,0.9674409032,0.6370505302,-0.4518620265,0.1789073814,-1.6549396304,1.0807249931,-0.6642713298,2.5244606437,0.7207596385,0.3792420941,-0.0025680657,0.057957699,-0.5910091519,-0.7140064975,0.7130247295,0.4970249603,-2.5039263627,1.4200005611,1.5721588805,0.2888129574,0.8402137193,0.5775077503,0.6645028938,-0.2570963598,1.2677181624,0.0446744831,-0.5411039913,-0.4871958109,-1.468509571,0.7074208221,0.9146577283,0.5841028101,0.8921228002,0.941280914,-0.7243789559,-0.5126364222,0.656550119,-0.354976263,-0.3913212268,-0.1395855387,-0.9172235033,-0.6288751792,-0.060262611,-0.3149028904,-0.4120043605,-1.0393844701,0.8972249804,0.6080971278,-0.883211325,-0.4021215339,-0.8154612221,-0.1576691984,-0.3038097413,-0.7348022173,1.9062184259,-0.4657761847,-0.7157469265,0.1598840582,0.2390402199,0.3630922363,-0.2552482176,-0.9026195393,0.648121245,0.2249334173,1.3101116958,0.0609616524,-1.4222388587,0.6740795314,-0.1265180721,0.6681650927,-1.0254658492,0.2936736481,0.0893475394,0.1959671764,0.9662502815,0.2014445061,0.030495741,-0.3137700195,0.3893039244,0.0948257472,0.3569000262,-0.3412149938,-1.1062966567,1.1601130803,0.8176177994,1.0858054843,-0.0369485366,0.4846592298,0.4409725243,-0.6143724408,-0.2070925111,1.1114776267,0.357064257,1.6420799732,0.6281401116,-0.8256275855,-0.5626124306,-0.5667887164,1.3265191288,-1.0588949002,-0.6394851235,-1.4527684416,-0.3453628769,-0.5642921669,0.7808466344,0.9080735037,-2.00128354,0.7045439477,0.2295741628,-0.172608819,0.8328901044,0.5702828723,-0.8540460657,-0.3519532178,0.3335026346,-1.0857190119,0.178713517,0.5828062522,0.1623561949,0.3538940804,0.0961714683,-0.7994497805,-0.6981894971,0.4618821169,0.0131691625,0.7255001992,0.1261420788,-0.9258279652,1.7898510881,-0.645406169,-1.0383455378,-1.2950090357,0.8613387001,0.3720708656,-0.4633863126,0.6508278531,0.5505188327,0.0181874496,0.9861862323,0.5307605681,-0.7348824457,-1.3987614123,1.0115852501,-0.0848056697,0.6677452509,1.5066407334,-0.0596306468,0.3260822529,0.0649557343,-0.2043959122,-0.0696174643,0.1297729705,-0.2911043172,-0.2797229355,0.1057590434,1.1856061291,1.1643128085,-1.0432332752,0.2587340391,-1.1085397004,-0.7332413447,-0.6711249899,0.8334506588,-0.2446044542,-0.5992888732,0.4098781661,0.1937344177,-1.4014813362,0.1624243732,0.2891132059,-1.0931279322,0.7611586662,0.5370988606,0.3910485069,0.5347744812,-0.9486507233,1.9929602356,0.1176756004,0.0030177938,-0.1187148486,-1.1933691055,0.7712434678,0.7559128151,0.451685925,-0.5373445455,2.2462091378,1.5596816348,0.0665973373,1.2318438323,-1.0636369763,0.1391154369,1.6791958206,-0.3461090885,-0.425940381,-0.6144331355,-0.4546986331,-0.0883536738,-0.2093881349,0.2025831543,0.0573226978,0.7076598444,-1.390124542,-1.0627887274,-0.1334950199,-0.8401578754,0.450842511,0.7218897196,0.2338570626,-0.6429292806,0.7638667193,-0.4150081683,0.2941140324,1.4819332296,-0.7586182623,-0.6069173701,-0.5992210502,-0.0473430525,0.8903899872,-0.6966821576,-0.0883227095,0.1094021864,-1.0461891667,0.2032750375,-0.6685862345,1.4633748651,-0.0353780553,-1.75846464,0.32076406,0.0322461977,0.7490790521,0.7579996098,-1.3518117756,0.6471356136,0.6114878451,-0.5194758532,-0.3100176902,-1.4952304038,-0.1922724684,0.8975262587,-1.0169897929,-0.4922440305,0.3136223472,-0.1470811049,0.9492843986,1.3373052069,1.0465004991,-0.6569283983,1.0204396067,0.0154220735,-0.8032893396,1.7859949263,-0.8107643263,0.5257635126,-1.8834815176,-0.8335392538,-1.6981916374,-0.5924004957,-0.9194067278,-0.583992454,0.792622421,1.0817108565,0.1635597788,-0.7911615209,0.8610262566,-1.2685864571,0.9394820587,0.5159906891,-0.6334071084,0.5579183904,0.8421168499,0.0592145392,-0.7983595246,-1.0927108287,0.5522809175,0.3141502356,-1.3021505987,0.3357474966,-2.1562828394,-0.58403808,-1.5007580153,0.7616697754,-0.6578625017,0.1816492299,0.7218603449,0.6853841029,0.5409854871,-0.7652324659,-1.4490757743,0.308034595,-0.0961520671,0.1564366282,-0.3025551236,-0.2546884999,-0.2378464955,1.2301664734,-0.3512068294,-0.5569439569,0.7510841616,-1.0231569677,0.1662569059,0.1537721743,-0.3001694909,0.2408695222,-0.4677726178,0.3542455128,0.5080950479,1.1234014187,0.2441046189,0.3606485264,-0.3898415133,-1.9614916569,0.2715092713,0.7277526536,0.4548479648,-0.7457255772,-1.6035279227,-0.8554668156,-0.0751323573,0.7448318768,-0.8661998825,-0.3596590348,0.4492276517,-1.2160052998,-1.1041902331,-0.6430955945,-1.1656854378,0.4740075331,-1.543700592,0.8741357536,-0.5743057404,-0.7823903591,0.2543480245,-0.3019057803,-0.5309556251,-1.9064980779,0.0083332881,0.4308211918,0.0862702973,0.300201203,0.7100506172,0.140863908,0.069210799,0.3820686574,-0.7758516026,-1.402171375,-0.6276084777,0.7339267221,1.5139114572,-0.2867747446,-0.9251367254,-0.0960756794,-1.0320981075,0.8037757851,-0.5359987197,-1.367815806,-0.9217237622,0.0832224279,2.0722341077,-0.1134424295,1.0955543603,-0.2064226716,-1.4106496428,0.2781045934,-1.0353277794,0.4615334755,-0.7542877036,-0.3991704581,1.37912762,0.4069274567,-0.6969461969,-0.3947307679,-0.8801784696,-0.7594512877,-0.0940657889,0.5633387614,0.1045139709,-0.8712994414,-0.774182246,-0.901042173,-0.6551656459,0.1421650109,2.3776346488,-0.849154698,0.0032317664,0.9370401061,0.2901455043,1.8344562087,0.9347953175,0.3349926903,-0.8061991489,0.3310307121,-0.1773950631,1.0158210966,0.8524878476,-0.3323097612,-0.5814562086,-0.1152405946,1.6029722457,0.3059610923,0.8731741388,-0.3802107218,-0.5488336642,-0.1206767352,-0.9766419386,-0.0391668758,-0.1588265494,-0.7374395804,0.2474653382,-0.9321294856,-0.4142706769,-0.506418923,-0.6419957556,-0.1969581247,0.8760109458,-1.934374073,0.1120699704,-0.6316434355,-0.5221283625,0.1734754746,-0.2670509714,0.1332726892,-1.174724016,1.3735612507,0.3241129967,-1.8020856474,0.5291905177,0.5868840705,0.5920053424,0.6649088665,0.9660486066,-0.7473975794,-0.4537589834,0.0640908394,-0.5638042507,-0.3618482211,0.3207105169,-0.0032213978,0.2152996552,-0.7213171036,-0.040243289,0.7454816245,-1.7121591029,-0.1045325864,-0.4979123074,-1.9131338986,0.7026779058,0.7087433644,0.4958160843,-0.1344676088,0.2531642179,0.1686216299,-0.9932640064,-0.3540655636,-1.7549334433,0.7625436396,1.1218168027,0.6043570258,0.1736693176,0.9978994758,0.2208254317,0.0788301156,-1.8460811088,-0.1762259793,-1.3274907406,0.1999925003,-0.2070064731,0.4510459448,0.5801726604,0.3505186521,-2.0306050794,0.7374880647,-0.023614383,-1.618444833,-0.6616853446,-0.2626873041,0.7322929901,0.8557989884,-0.4251202789,0.229351938,-1.2947159625,-0.9763732667,-1.4370896651,0.083471512,0.3587131907,-0.5947340109,-0.6224468728,-0.6893422607,-1.0666534962,0.7022876368,-1.0793370467,-1.06349475,-1.590284285,0.8035281709,-0.7670510319,-0.3397779183,0.1700908529,-0.0187009507,-0.3109989721,1.0828018431,1.6663573916,0.8015598683,-0.7925942291,-0.6951390982,-1.320211682,1.1842301499,-0.4570582417,-1.2317074305,-0.195136453,-0.2615198854,-0.4175688741,-0.5191454002,0.0007425839,-0.2759236379,-0.3014663408,-0.8118469665,0.5613122636,-0.4220157802,-0.6554102976,0.4584938122,-0.7628080181,-0.1596576143,-0.8167368736,0.5551826,-0.7758627726,-0.7709263781,0.3731698589,-0.3595060002,-1.0716564904,-1.1769354702,0.5119977156,1.4659484104,-0.0321137069,0.0028010302,-1.3113333632,-0.0406371131,-0.8891939652,0.5946851165,-0.2560170968,0.0802777243,0.3990544899,-0.1306180469,-0.2474988985,-1.7563465018,-0.2623394413,1.1116136785,0.1733605484,0.4331182405,-0.2080558998,0.1591810738,0.3363484897,-0.4030037279,0.0361997522,-2.09710542,0.6606213298,1.899344624,-1.2228930131,-0.4166289418,-0.2025316154,-1.0819378752,-0.7692723458,0.6090402218,0.4903711991,0.3200846186,-0.7986324054,-2.8836166984,1.1196594145,1.0156231851,-1.4007463502,0.0164073577,0.6265308506,-0.5998376073,-0.4526894724,0.8661061681,0.2763467207,0.3340324469,-0.6211472781,-2.6506585125,0.5355639051,0.7084064901,0.3335985531,-0.6262284907,1.3905319558,-0.135004295,-0.3037953505,0.4006203648,0.7871008943,0.2031148476,-1.167091705,-2.5528461681,0.0288986916,0.3104009115,-0.7807148474,0.3249912245,-0.3905429179,-0.4579369012,0.2953355356,0.5998842921,-0.1744182055,0.515738586,-0.2324084439,-1.1148065496,-1.1754650618,-1.4429158748,-0.4149525527,0.3118856428,-0.494875701,-0.9070043706,-1.4604059245,-0.472433963,-0.2083260122,-0.9283583938,0.4557402219,0.171618055,0.0528250622,-0.8095013899,0.7069000244,-0.0819867261,-0.8124836372,0.6000604744,-0.206193577,0.3540583199,0.2761777189,-0.6561975209,0.0352745419,0.0991019835,0.2851044122,1.1437853807,0.2511548798,0.4932462582,-0.8628230199,-0.4112416592,0.2254968891,0.4595225107,0.373073974,-0.3949536475,-1.3387997398,0.421469297,1.3567645525,-0.7515225581,0.1185419218,-0.9873306521,0.6943340362,0.6032511049,0.7494999211,-0.4904355932,-0.5509748803,0.827685339,1.6077560228,-0.9499784676,-0.7418705352,-0.5748907958,-0.2585080353,0.654253065,-0.1415216701,0.3123515696,-0.9715488988,-1.1554545563,0.5234600937,0.3141537693,0.9876753517,0.4731500842,-0.2777439719,-0.0665015782,-0.3924480614,0.5807964569,0.1533994298,1.1747839278,-1.0413808849,0.737646709,-0.3151999371,-0.9527895698,0.2134013321,-1.0361792322,-0.3198596519,0.1368241123,-0.8823798479,0.5614006822,0.4067558787,-0.4780557439,0.1645298432,-0.668514181,0.0655588169,-0.3343822445,-0.5605264763,-0.9734965671,1.8781189835,0.2244300988,0.214513186,-1.3558514575,-0.3120220821,0.4844034389,-0.271942809,0.9492820986,-0.0560443332,-1.137527089,0.7713318539,1.3889600344,-1.133416601,0.3378951262,0.2572683781,-0.0661640467,0.0059267892,0.0690191991,2.2408840259,-0.8282509921,2.2573827766,0.3389756923,0.6128909635,0.79144914,0.7052370076,0.277359499,-0.5185566286,0.2168113328,0.8374072018,0.3006007291,1.2510259354,0.1431298764,0.7510304613,0.170891821,-0.5463934927,-0.3516760307,-0.5243685264,0.1621747223,0.3286566131,0.7670127546,0.3017532065,1.342318476,0.7030045051,-0.9392868883,0.046475303,-0.869803283,-0.1205136967,0.4019793983,-0.8276405176,-0.5101822972,-0.7791506999,0.4805265042,0.4632349878,-0.6853492358,0.4873762614,0.2836828151,0.1071276859,-0.0113330833,-0.6127040202,-0.0335744825,-1.7481344715,0.6541598012,-0.8799130028,0.2252307355,-0.4310269945,-1.2894625431,1.115008101,-0.0843152277,0.5943808411,-0.0258058319,0.0752243351,-0.9406028898,0.7369625178,0.1093441203,-1.2379937251,-0.2426509596,-0.7220980017,-0.0729532123,-0.6762278509,-0.565247802,-1.3345448121,-0.6255010099,0.1407639574,-0.5245808759,0.4042520721,-0.3803902992,-0.2920843636,-1.0390930066,0.1173972313,-0.838150652,-0.1944308985,-0.5515079173,-0.5921245203,0.8259810146,-0.4808187657,0.2637993911,-0.3697278954,-1.0824445927,-0.5125546099,0.1904126941,0.7674112582,0.2075613442,0.0803059893,-0.8238445905,-0.1308755736,0.8725431858,-0.1709585672,0.4056632171,0.550919869,0.1149476587,0.4882459298,-0.2843873702,-0.7842198706,-0.3268869775,0.3233335243,1.0442955027,0.6410441496,0.3307056664,0.3959732376,-0.7059136721,0.4883684053,0.2933151313,-1.3741005857,-0.4987013014,-0.6910552728,-0.1761724742,0.0990824455,0.5437763886,0.4298467198,-0.681884854,-0.7388615298,0.3887220909,0.4114974109,0.4408102163,0.6904506219,0.2605759154,-0.2105609927,-0.5864858643,0.3865611536,-0.3001221031,-0.2519436106,-0.9199278448,0.8213012876,0.3696125426,-0.4673265405,-0.6460148728,0.7781407946,0.3863002243,-0.9472869209,-0.5087203352,1.6116784539,-0.8108357258,0.8026660985,0.0204771354,-0.2807710496,0.5036545725,-0.1100210064,-0.1973799898,-0.8513093327,-1.5162513529,0.6742093155,0.2478513824,0.3986567076,0.864218122,-0.6955741221,-1.142450295,0.3260833939,0.7005795613,0.4028737854,-1.0386816761,-0.7816712683,-1.2428896814,0.6226663707,-0.29796551,0.4850407398,0.3413689691,0.5777677269,0.4499997805,-0.9675104185,0.248342178,-0.7008828284,-0.3532165534,-0.8415671247,0.4314224611,0.0235401072,0.4233061979,-0.5187763801,0.1737368931,0.8876168049,-0.1750327813,-0.820849034,0.5161266734,0.4589241271,-0.3392394926,-0.7138937265,-1.1422447462,-0.1027798052,-0.2747846424,0.1997878972,0.4984078494,-0.3756248788,-0.2496582181,-0.4294780045,-0.8115320304,-0.5496400816,-0.6357962715,0.8062115506,-0.1683313992,-0.5131902779,0.7108558788,0.366756924,-0.7296622619,0.3708343828,0.8633771621,0.2921005207,0.1952405333,0.0808969364,0.0614763001,0.6679256101,0.6951277631,0.0788230607,-0.9491437524,0.0205132082,-0.2108550068,-0.2311594071,0.3978866816,1.7725896576,-0.189519137,-0.1020500146,-0.2097430549,0.3002523267,-0.587231342,0.9476277119,-0.782586457,0.1160061227,-0.0056344411,1.6763309129,-0.3906364058,0.8439051268,-0.4927245377,0.7725651059,-0.6429023959,-0.2147422675,-0.2163138689,-1.1177582162,0.1485729111,-0.0028065599,0.0428919173,0.8373448343,-0.9092912435,-0.9838770128,-0.048591499,1.2599171063,0.5394508881,0.1898774087,0.0621809202,-2.228011864,-0.6174110042,-1.3330765822,-0.0592315181,0.3588992944,-1.3635450849,0.2223247258,0.5414886184,-0.8742808644,-1.2382448316,0.2808239531,-0.3491849369,-0.0933626959,0.5209487278,1.087643768,0.3880848629,-0.2053686722,0.3532556997,0.2364245401,-0.228028295,0.8948585942,-0.2104702882,1.0789615213,0.4900085466,0.0073388909,-0.326489869,-1.2174762977,-0.0490804092,-0.3047650714,0.6363808972,0.0150348106,0.2882738311,0.745749646,-0.1415252108,-0.4403309304,-0.3092271433,0.8964962055,-0.1861051495,-0.6130258875,-0.8147465356,0.3253393791,-0.5546067475,0.6427081227,-0.1652661719,0.6335306301,-0.5857597105,-0.5475961306,-0.316690731,0.1223229382,1.0701419701,-0.3725327598,-0.5162363473,1.3930724723,-0.0763603947,-0.730857879,0.8625564151,0.1680633083,-0.9784470798,0.0920139848,-0.5288130685,0.1153185074,-0.1879109571,1.5245071952,0.8324497657,-0.6717296529,-0.4734346596,0.3842953202,0.1324620158,0.2030470968,0.4728554096,1.6568281156,-0.966702467,1.7926923109,0.4029720443,0.8933997348,-0.2969170122,-1.0793228675,0.8773341956,-0.2345748701,-0.7870791428,0.4727073906,0.4773978769,0.810920166,-0.7276981856,0.668688784,-0.2102649438,0.3925967238,-0.0086560291,-1.0033381782,-0.1635357284,2.2806668302,-0.9754793766,0.3622026705,-0.403159984,-0.0924690867,-0.1994237826,-1.01720759,-1.0913602855,-3.0787089682,0.1890920562,0.4864905477,0.3510290586,0.2155522225,-0.5447753823,-0.9886321012,0.1304501898,0.8804710962,-0.521803057,0.0812072518,-0.5877674541,-0.234137458,0.2995645605,1.3260490609,-0.58563213,0.1071178583,0.8935000717,-0.5516967057,-0.6066596846,-0.7914532224,1.0515779582,-0.3585525099,-0.153623406,-0.867054878,0.3074744157,1.2987220805,-0.9476921612,0.6540682775,-0.6143802467,1.4800790103,-0.0421262181,-0.6789715963,-0.7144659229,0.2020776855,0.2277213022,-1.0634654924,0.5795846163,-0.8423636627,0.9820638368,0.9454013557,-0.558733047,-0.0661899725,-0.3738101631,-0.5825049885,1.0713013652,0.3307954997,-0.2013034536,0.3925855302,-1.4825248708,0.9279088486,-0.2254764196,-0.2466156702,0.7411077178,-0.194460938,-0.3284214608,0.6273768565,-0.132810931,-0.1921199682,0.1156965412,-1.1966445671,-0.0148385059,-0.5277678092,0.5619521205,-1.0934637849,0.4433690765,-0.0387289016,-0.3242500399,-0.5789071949,-0.0403047048,0.9320421758,0.2921334301,0.6211150185,-0.141637335,0.0738804683,-0.9795549292,1.638891335,-0.1379954044,0.4754952938,-1.5534026589,1.1098249532,0.805398703,-0.4218772988,-0.3034179767,-0.7220425769,0.4003665116,1.1417106014,-0.8150325644,0.2959004156,1.0994865038,1.448087136,-0.9466056889,-0.8769956282,0.7396511846,-1.0806345318,-0.3729230705,0.8184227886,-0.7729631565,0.3494327343,0.8424621297,0.3683448698,-0.2846955226,0.5498049579,-0.4652130079,0.0444626792,-0.6098890543,0.3315129307,0.9889223169,0.3976280539,-0.4740368667,-0.4344070945,0.3272772109,-0.2120776164,0.6302956536,0.0184991306,-0.7335174446,-0.9752391824,0.539522744,-0.2532665447,-0.3857819595,0.7342832482,-0.9609655886,0.7858414026,0.1531924728,-0.1998623784,-0.1106934561,-0.1783862902,-0.6752206589,-0.6002690863,-0.8581317475,0.0423481238,-0.2631557032,0.6585969202,-0.9716212396,0.2062239221,0.3042879576,0.4179344614,0.6132518166,-0.694567723,0.8350382459,0.7770290189,-0.4146860554,0.3028160183,0.2614338382,-0.6039517552,0.4513985669,-0.9014846712,0.1186208172,1.302084366,0.1709978316,0.3119956417,0.2512371815,-0.0945360856,0.5753725742,-0.2358696232,0.0801037951,-0.4900963788,-0.9740369432,-0.8933812322,-1.2349090372,0.5708234631,1.1660129572,-0.708916825,0.5765330362,-0.8462007173,-0.5689558747,-0.5637280132,-0.6191995668,0.4137667441,-0.184754747,-0.459346547,0.7114029814,0.8405635356,-1.141993293,-0.6358031048,0.7315476125,-0.7266240318,-1.1636592259,-0.6762967213,0.8671392346,0.6834965555,-0.7843546666,-0.6432291396,0.770507506,0.6278293505,0.302038704,1.5978905915,-0.3185525032,0.3044185061,0.7101797896,-0.3520921766,0.248594057,-0.6276847046,0.306312236,-0.6093387802,-0.3573687336,-1.0623270445,-0.946544968,-0.5296746495,-0.4701634727,0.5997015988,0.0884430421,0.3873960274,-0.8160444561,-0.4503950776,-0.5342476544,0.170397033,-0.837231537,0.3435198773,1.0497553033,-0.9318788368,0.9649895687,-0.6828300434,-0.5926676737,0.8340717324,-0.562262232,0.4929259288,-0.2494571621,1.0698714805,-0.227762724,-0.1611083071,0.0053702257,-1.4878544371,-0.6573110419,0.6038426819,-0.2386790382,0.1483686763,-1.1044723847,0.7373577576,0.1455134626,-0.9662553011,-0.816563133,-0.9371487405,-0.3935730006,-0.8571651838,-0.292156956,0.5427605953,-0.855063984,-0.4871044319,0.6347972408,0.6198821866,-0.8474473673,-1.1587877193,1.1684375029,-0.8332593361,0.183680609,0.2631413157,1.0621254802,-0.0298450106,-0.5769763114,0.8252943208,0.0491358316,-0.8932781898,0.3891964255,0.9604650973,-0.630100462,-0.1462630274,0.3739629339,0.8979239317,0.7922944903,0.0655980981,0.0550373796,0.0310823999,-1.0141130092,-1.1466399405,-1.262798469,0.2518206134,-0.113876877,-0.3462226284,0.2969851708,-0.0802558161,-1.420396198,-1.7795140245,0.5287474439,-0.4063273581,-0.0169149506,0.0788381259,-0.3460465612,0.1746809992,-0.5928301422,0.3254415465,0.8735822639,0.8227616375,0.8184486407,-1.2317130024,0.0890092022,1.0251125021,0.3804541626,-0.1189588034,0.6387369804,0.6085289028,0.6178304537,1.1423553661,-0.4919694079,-1.0325156823,-0.4018373453,1.1110906243,0.674304065,-0.2839646583,0.0123979164,-1.0940363594,-0.0469014852,-0.2301743239,0.0742896336,0.778660442,0.3858378747,-1.0845696557,1.4859229493,0.8859575482,0.7465411062,1.8534336262,-0.8123312491,-0.1519236457,0.6546246684,0.578059344,0.5316642574,-0.390138859,0.7743590614,1.0366198036,-0.0526396324,0.0059314294,-0.8278488609,0.3240962505,-0.4475467123,-0.5503558416,-0.0025752691,-0.4297629314,0.0690090468,-0.596144659,0.7186048442,-0.9676524987,0.3720430224,0.1350710265,-0.8620811954,0.1096125453,0.7043609477,0.771166899,1.1141887578,-0.3213908591,-0.654684547,-0.8124237741,-0.0984453548,-1.1115884126,0.189740027,-0.094770515,0.0136909246,0.6646581884,-0.7633514635,0.8677313987,0.1468121552,0.1538032868,-0.3944594806,0.3573014758,-0.0717643787,-0.9007134362,-1.3339842826,-0.0607162107,-0.7358625863,-1.0334090299,-0.0838042477,0.5918416346,0.2741419682,-0.1992410218,0.5994947584,0.2616161246,-0.4688327586,0.562797935,-0.4430817252,-0.9374024684,0.4100967861,0.0690548351,-0.8741119658,0.3981421646,0.1498914369,-1.6136145155,0.7790891297,0.5377740661,-0.6681771864,-0.0673205954,0.1343663883,-0.3328501949,0.0136917933,-0.1310303767,0.9306745714,0.8399010074,0.1443066112,-0.107713834,0.0230032782,-0.133443356,0.6278063998,-1.1422407881,-0.1626156896,-0.1574575166,0.3085928304,-1.5414593945,-0.5081937972,-1.5188534125,-1.0125765771,-0.2294674926,-0.3195763542,-0.3141897646,-0.164736506,0.4708511122,1.0213045334,-0.9624776345,-0.9028290964,0.6509746222,0.0044593796,-0.492149531,-1.0042724375,0.4334532497,0.5342468112,-0.1609276101,-0.5937083154,-0.9896950549,-0.2114262391,0.1514418056,-0.3003845027,-0.5716650226,-0.8897400947,0.1040417023,1.0294605288,0.079568211,0.3283840823,-0.0162131401,-0.2974445595,-0.3090759017,0.9867644229,-0.1030847687,-0.8317709931,0.6847780174,1.4833100156,-0.0621834509,0.9968533077,1.276630882,-0.2523408863,-0.6831815604,0.1519876192,0.910746649,0.9959987605,-0.7853263539,1.2501410988,1.0054529958,-1.1064179725,0.1886412451,0.9560972869,-0.9980769056,-1.7283788809,-0.1269500507,0.6840127628,-0.6707208744,1.046528487,0.1743893346
   -0.5352454066,-1.0739563736,-1.1813886452,-1.3411352365,-1.0012777595,-1.0032376375,-0.2484612631,-0.9353046906,-1.1239373368,-0.683018424,-0.5260626389,-1.1004412211,-1.4625665428,-0.1341976466,0.2518125624,0.6040930421,0.8993170378,-0.4379528844,-0.5280606795,-0.5886756265,1.1948095966,0.8948474857,0.8863802828,0.4728681852,-1.3662255327,0.2031650959,0.5380099845,-0.6449912463,0.0851752948,0.3810076069,-0.2690234021,-0.4520577094,-0.165408745,-0.0157144421,1.2050935506,1.2510605401,-0.9007444343,-0.6883728744,-1.399529145,-0.4465187172,0.5389249539,1.0816862181,-0.8108714481,-0.8773028408,1.5862125749,-0.4440335638,-1.0337797206,0.0453335728,-0.0126186397,-0.8669552417,0.8137045929,0.2872867998,-0.6647019296,0.6292044505,0.1980805129,0.6435818243,0.8690016799,-0.4039333064,0.5754655004,0.6447641789,-0.3401842463,0.6454248739,0.7884420432,-1.0018257304,-0.7837992374,-0.35967675,-0.7016514091,-1.0192522978,0.0828500523,0.9746040696,-0.576559427,-1.0162776179,0.9962378386,0.5207235058,-1.0652997343,-0.5939664837,0.3055951162,-0.8244836348,-0.0324699666,0.3109808372,-1.0460589899,-0.284094623,-0.6677663113,-0.5630893507,-0.9262882495,-0.5526857418,-0.2575194567,0.0202753275,0.7616983446,-0.1392434208,-0.0941201567,0.2684935911,-0.0526000886,-0.2836433664,0.9726696994,0.1630982079,-0.354040717,-1.2095774997,-0.4146300732,-0.4364620972,-2.1188036575,-0.0937664289,-0.2981237691,0.6281233449,0.4115867901,0.2688403934,0.305539834,0.9019662,0.1439907806,-1.753615811,-0.3477590568,0.7790149508,-0.8906449275,-0.2249515134,-0.628797795,0.1198132389,-0.3609163514,0.4881328398,0.7541328686,-0.273286363,-1.1895758586,0.0120718663,0.2775917769,0.8194855246,-0.2044345909,-0.9388994523,-0.2692365572,-0.0827867997,-0.1317741717,-0.2216392291,0.1073665575,-0.5994871529,0.5884418411,-1.1056330857,-0.9072945478,1.2472059697,0.8011440511,0.3007311815,-0.4722230418,-0.5782312521,-0.3712489605,0.1382334843,-0.0633494422,0.5612328521,0.1376053342,1.1532369742,-1.4912813372,-0.0232756925,-0.8633587621,-0.5260711645,-0.2656355465,0.486339736,-0.3306404741,0.8405796582,0.410392018,0.1027303763,0.2285938204,-1.1082325918,-0.5014355489,0.5959943558,0.635374538,0.1752349022,-0.2516526321,-1.0024044749,-0.6577052806,0.8153056528,0.8965373121,-0.68609568,0.2188062988,-0.5327345821,-0.909462085,0.976721683,-0.9026127781,0.1143617397,-0.1723459941,0.5980357406,-0.8336638478,0.3282651315,-0.7273853801,-0.6523050509,-0.1005047132,-0.8191114182,-1.3347356145,-0.0256068646,0.186802484,0.3611013942,1.2259997011,1.0107857931,0.002236803,-0.5770801145,0.4745087016,0.4927108043,-0.0414031873,-0.2310318283,-1.6761988948,-0.0002608946,0.4462539014,0.4695987802,0.4136757605,1.2313841355,0.307511417,0.0107265498,-0.9060536111,0.3356311514,0.9574430783,0.1070074051,-0.8455532424,0.3519592993,0.4313877391,-0.8511999665,-0.3424638007,0.2850325951,-0.907758461,0.0975124058,-0.0830922166,0.0224858379,1.6582763085,-0.3089466765,-0.3121364194,0.2053466124,-0.5154959477,0.0833464085,0.8426147662,0.4175059993,0.1993563759,-0.8220342835,-0.1257510058,0.073938843,0.3235549524,-0.1270891644,-0.4709699767,-0.8694878181,0.5450431184,-0.2613699414,0.3591209885,-0.7293593498,0.5577722754,-0.4104687469,0.1181521879,-0.5221710123,-0.1170701617,-1.5561050697,0.6096166115,0.9976958107,-0.9421165759,-1.1876490889,0.6503681502,0.3518287726,0.6146724729,-0.052502781,0.6990068941,-1.0341527249,0.4488138265,-0.3022369227,0.2385762482,0.5341132187,-0.1124626667,1.0088121259,1.2947927218,1.3196879956,0.5067231997,1.0777837422,1.2003305082,0.3364401711,0.7417975017,-0.6803843525,-0.3608266209,-0.1754124624,0.8504413278,0.2914720285,-0.9728972297,0.214609352,0.0181285653,-0.2545211428,-0.6706138756,0.1137007216,1.284782671,-0.7270397442,-0.2134827231,0.9088454153,1.0045911962,-0.5654994094,-0.6471351127,0.3103443024,-0.5413514758,1.0335441667,-0.6363624663,-0.5209394297,-0.6128994952,-2.2012887421,0.1617475143,-0.5807183597,-0.6443643908,-0.5069490526,0.0842154248,0.5663856396,0.5202104316,0.7972503441,0.700941355,0.7350921375,-0.4811653983,-0.0311257952,0.2429640658,-0.1886288803,0.8823904907,-0.8451330762,0.3261879604,0.3576999878,-0.6175478731,0.201028058,-0.474570618,1.2303698575,-0.54522942,0.4547346435,0.400958907,1.033299787,0.0740031728,0.1693478524,0.5812152035,-1.8559488552,0.1070764975,-0.7598124199,-0.6716244046,1.1255303261,0.0648705816,1.5952395041,0.0238917292,0.0235898643,1.0876259355,-1.3046596652,0.0313095685,-0.9083161377,-1.6795415554,-0.9269250398,0.6335015223,0.7480289487,0.7089383765,-0.2919494011,-0.2027732604,-1.369056467,1.2316398574,-0.1930865687,-1.4971179156,0.0726016338,0.1659526176,0.6950790377,0.0641639626,-0.7098769629,-0.4187651395,0.30617873,1.1083323395,1.1122000397,0.8848516994,0.1376790362,0.6228152716,-0.090493421,-0.810810112,-0.337679795,-0.4574418299,0.3089980557,-0.5195092042,-0.6008663816,0.5912620638,-0.2663730476,-0.6913525909,-0.0473266017,-0.3374828471,0.023723248,-0.6940489461,1.9659144892,-0.2975245335,0.6912121902,-0.5208603695,-0.5939223482,1.9071643909,-0.3538800255,0.3808011002,-0.280380977,0.6391032378,0.0933376894,0.5351263331,0.4880729592,-0.0484972156,-0.0306376669,-0.338181931,0.4566290259,0.9067328035,0.7259769154,0.2647989415,0.2408781943,-1.9767893873,-0.4397241505,0.3332917887,-0.118802585,0.1288421495,-0.2165243747,0.2986688264,0.71150101,0.1054587057,-1.2879185489,-0.1315661509,0.2777844595,-1.0412395846,0.9438219443,0.3059919292,-0.499704188,-0.1954869195,1.0208997103,0.1748846183,0.8511509557,-0.7101668639,-0.3305369468,0.7044523748,0.5005562552,-0.9782287315,-1.3606493656,0.3867635561,-0.8970241238,-0.6589729573,0.0513413691,0.7460969706,0.8213033119,0.5159410348,-0.6542350462,0.3194063081,-2.4781253693,-1.0657729295,-1.6658147529,-0.6172933855,-3.1950017573,0.0970213544,-0.0429824678,-0.0636621369,-0.3353961222,-0.4482209628,-0.318809741,-0.6775117709,-0.0586905075,-0.6011644087,-0.3465437275,-0.4047064298,0.2756753775,-0.3286332858,-0.0418599556,-0.767473267,-0.7711125297,0.6023278398,0.5338039187,-0.0037847946,1.1097195267,-1.9660686282,0.5263697487,-0.6818566221,-0.3849486797,-0.6805392049,-0.7815104612,0.4131669669,0.4703267132,0.9018955891,1.035505856,0.2773751904,-0.2122566298,2.6604586314,-1.1555833925,0.4381546266,-2.1577984125,-0.4885968344,-2.0670159472,-0.0620026446,0.2371747306,-0.8988820959,0.9826302859,-1.1657449519,0.2407638735,0.5979864827,-0.0697774832,0.1328276322,-0.3134330311,0.3570944259,-1.2768866258,-0.692202863,0.5280502648,0.9967377223,0.8725311623,-0.6763090756,0.2709351208,-0.9738780625,-0.4884079021,-0.634252355,0.0163610582,-0.3210091751,-0.7694910004,-0.0433888515,0.159727526,-0.0385050503,0.6087955421,0.944206259,-1.0597655558,-1.2082455889,0.2299176783,0.58785653,-0.6108048494,0.4004380433,0.5540779649,0.4910660532,0.1818803378,-0.3385342267,0.4849115937,0.7778454395,-0.9462353838,-0.9005798832,-0.5223305841,0.9117759049,-0.8631076157,0.2008360595,0.6600014041,0.3953150872,-0.5838352846,-0.421581412,-1.0669934418,-0.9518853639,-0.7168880999,-1.3905187813,-0.2306323998,-0.2436353864,-0.2855857243,-0.7011929438,0.7587012282,0.3323463593,0.0705209902,1.0497956623,0.7214801648,-0.3893971092,-0.2777452761,1.5583538265,-0.8066314971,0.2892575536,-0.8884012381,0.0886845798,0.6297565785,0.6589309758,0.5862194865,-1.2657915736,0.544002237,0.8931775375,0.9281469215,-0.8263292426,0.3292147955,-1.0301333529,-0.1378644421,1.4065208094,0.5350003074,0.3414420803,0.5847768393,-0.2338064259,1.0293551784,-0.0913323323,0.3949817843,0.39773971,-0.00253358,-0.1142223913,0.2366711919,0.2119880166,-0.9251811252,-1.0305923964,0.4518883132,-1.4627324739,-0.663638962,0.4655696132,1.6451120688,-1.4559659563,0.501416073,-0.8126607888,0.8444149413,0.8525899613,-0.997222763,-0.1016437901,-0.2938518251,0.7765080479,-0.356680128,-0.8649828106,-0.9286717559,-0.0339010811,1.037220769,1.000515768,1.695428768,-0.7724288185,0.1043180129,-0.8088628202,-1.0690423677,-0.1844414559,0.8455868971,0.6730138686,-0.2509961844,-0.8928826124,-1.5769828987,-1.5317635419,-0.4991579928,0.0698577092,-0.2154143282,0.0970394396,-0.2707091947,-0.6900635158,0.0762956525,-0.8453684933,-0.4840706698,0.0058337083,0.3544789678,0.2074571585,0.276122917,-0.5038505738,0.7635738253,0.3513562099,-0.5720896688,-0.5552682395,0.4746610977,0.109436057,0.3728233777,-0.8766601004,-0.1204187339,-0.0610740273,0.9145903056,-1.2416955936,-0.5566171397,0.6133263523,-0.7951565152,0.4998157469,1.0782760958,0.873687072,-0.1402548145,0.4802792077,-0.0300261944,-0.2578291255,-0.8633673498,0.0377112969,0.2010526679,-0.1026024571,-0.1465067083,0.5406390544,-0.0074538388,-0.4871895206,-1.0597434602,0.1889080752,1.1752732353,0.1352851004,-0.3063138392,0.2849321744,-0.6669266532,0.9683383182,-1.1689611448,0.4030554584,0.2834329622,-0.7337934894,-2.2327747302,-1.2025268998,0.5632096856,-0.9417550691,0.4649502276,0.362751884,-0.7698982326,-0.1755993813,0.7394463601,0.2561922657,-0.48446355,0.8195827503,0.133281384,-0.4544989574,2.2318306661,-0.1500968274,-0.1662193128,0.9946385297,-0.3229216406,-0.6926122349,-0.9870746805,0.3646748412,-0.248687185,0.4246922378,-0.7507989109,-1.0502023079,-1.09313386,-0.2214326932,-0.4567697397,-1.0450359323,-0.8932208713,0.2959499316,-0.9221042035,1.1141921757,0.4080043827,-0.9966826664,-0.0759258121,-0.8805725513,-1.1279215329,-0.2110307494,-0.1313165452,-0.530568081,-0.8690306124,0.7193655041,-1.2607907774,-0.5430173143,-0.1164645897,-0.7346889059,0.7330522708,-0.8475948362,0.2369034074,-0.1807455479,0.8733033842,-1.3838372517,-0.3460087896,0.674744648,-0.1209063223,-0.2990038007,-0.0395826654,-0.7394157913,0.8416840236,-0.7703139433,0.1234965253,1.2723967263,-0.9548768141,-0.6040420314,0.3757829717,-0.1862159848,0.100628353,0.8576143552,0.4287559811,0.3203368605,-0.533255651,-0.6133697476,0.2727817751,-1.5569659632,0.900500817,-0.2337492355,-0.7067516216,0.6734913691,-1.0029024926,-0.9891547924,-0.2937560598,-0.2457663643,-0.0147448784,-0.6824159296,-0.521333908,-1.2108332924,0.1500495434,0.823236661,0.1185022467,-0.8592431073,-0.6148977116,-0.2326479458,-0.8860781638,0.5235706279,0.5302872375,-1.340269949,-0.447893433,-1.2399897506,-0.5738101621,-0.4746340343,0.5226584214,0.8387663067,-0.3922968255,-1.1018914407,0.1085047804,-1.4157451342,1.6106517235,0.2530432928,-1.4739342045,1.5136802043,-0.9778529645,-0.5226879782,-0.6048057605,-0.7662473265,0.1143949624,0.2624952826,-0.7996679708,-1.0122673971,0.3927775324,-1.218060514,-0.9568686271,0.8886199752,0.2607558388,0.4375822202,-0.1338680711,-0.3551055204,0.8257546813,0.7691908057,0.1876668953,0.9314508977,0.9290957207,-0.3742883245,0.3246308892,0.6301510919,-0.437159041,0.8418645198,-0.1250837671,0.9836769821,0.6943123512,0.4317474971,-0.4225498634,-0.308991158,-0.5646517866,0.8366252853,-0.506971791,-0.2094711822,-0.7290924571,0.4077443046,0.4582057791,0.4010357416,-0.4816801888,0.2467099771,-0.7980504283,-0.2379143406,0.2795230131,-0.1009734817,0.316461306,1.099100232,-0.4302170946,-0.0611095184,-1.5471804469,-0.3085022698,-0.2770598961,0.8155766143,1.050581765,-1.4711781766,-0.0691970531,0.2061933353,1.941341573,0.4922186443,0.045269366,0.8379459826,0.4285118826,0.6215158536,1.861618274,0.9516124442,0.5914048965,0.0111177171,0.9066388085,0.3586525912,-0.0056349067,0.3450456195,-0.3720948295,0.8798071209,-0.1231416729,-0.4070688247,-0.6244685206,-0.4789524389,0.0729929436,0.5875498237,0.2762922547,0.3619488167,0.2651265297,-0.0388932519,-2.3734186918,-0.2907342389,-0.6882537973,1.4729287532,-0.407260381,-1.1082629183,-0.7865649245,0.1837971374,-0.4593508982,-0.6622933336,1.7444588738,-0.6760678677,-0.7453905753,0.3648205043,0.3540424924,0.1030716793,0.8452958312,1.0882363447,-0.2618798777,-0.7246845515,1.0995230365,0.1270430162,1.1764849755,0.0806017641,1.7116311291,0.5619491101,-1.3966164164,0.1665884753,-0.6515186582,0.912363998,-0.0338616647,0.2327301923,0.5092595362,-0.7248431139,-0.6538813646,0.4655147282,0.488199055,-0.5116206881,1.0579387983,-0.1815523479,-0.1719641199,-0.4841761012,0.0715562124,0.609221161,0.6713476052,-0.6498863882,0.3994497917,-0.3816642875,0.3611306045,0.2615370238,0.1921303133,0.1882482651,0.660130899,0.890964297,0.4548356112,-0.1270488131,0.0933639552,0.3167989135,0.6642807872,-0.3916950415,-0.0053170563,-0.0975651525,1.1576884465,0.0565256995,-0.5078237567,-0.1508255068,-0.9738337629,-0.3214560451,-0.5298811267,-0.6104315597,2.2716717033,0.3433487184,1.0791148693,-0.1701895473,-0.5225774623,0.7949989082,-0.9143889183,0.1251300303,1.1073256056,0.2097370501,1.8237294404,-0.1966618677,0.88653119,0.1099803306,-0.4626542836,-4.8454694266,-0.1886302787,0.5111203765,0.9563788986,-0.0860607281,0.2885844916,1.0674319965,-1.0831115866,-0.8140602379,1.1088791217,0.4914483642,-0.3226741997,-0.6375785273,-0.8878731233,0.283509085,-0.1048652771,2.048326558,-0.5191732205,0.1301374649,0.5963104466,1.021246496,-0.6554404251,0.8886587253,0.4820704674,1.0373463656,1.0147753812,0.7291332314,-0.8964095725,2.4966189425,0.5047568692,-0.6470134671,-1.1468311659,-0.6489142725,1.1807068365,0.3632383107,-0.452086547,0.5576945927,0.9115586261,-1.0181739467,0.7940403038,-0.0088286181,0.6719068596,0.170730338,1.0676919244,0.3299985994,0.1002559576,0.756167731,-1.0535080983,-0.3589694919,-0.4309943016,0.24389913,2.5803885592,-0.3449848319,1.1111286262,0.1256170898,3.7329802446,-0.5408223889,-0.4868723517,-0.577443458,0.9316183955,0.9820505741,0.326362314,1.0310634223,0.9216165658,0.7083075256,-0.0186119108,0.5673766278,1.4182522543,0.6426522541,1.330478393,-0.4522632718,-0.2300327604,0.8898075659,0.3907808597,0.0694569788,0.4564107408,3.1126916464,0.6897667152,0.3684695588,1.2595807745,-0.4931437923,-0.1055088683,0.0887120465,0.5089581568,-0.7234569999,0.4109934663,1.4717797759,0.0767619613,-2.1689494006,3.142692487,-1.0886540144,2.5896805292,0.5972027205,1.6575062038,0.2336358032,0.0629227982,0.3549579385,0.7530936773,2.4051318061,-0.6634859299,-1.4865706337,1.8033862089,0.4972788192,1.2622513262,0.403555424,1.5824858768,-0.4366588529,1.0077716459,0.5036279103,-0.045756881,3.2132650168,-0.1088441207,0.5140792714,0.0913650538,0.9065004396,0.0857957108,0.4085895002,0.528824158,1.2188881324,-0.7264517637,1.000159974,1.1007470758,2.2730480082,-1.1220496588,0.6712463698,0.6909661907,1.0585781758,-0.5539280133,-0.0357901999,-0.2358613305,-0.0047319277,0.6230481538,0.3217964139,1.0089655115,1.9912583446,-0.1882489687,1.618824632,-0.6569204508,0.3870650211,0.0137841817,0.5542221479,0.3299994248,0.0197909033,-0.9218468359,0.7419251591,-0.1007548001,0.2262495201,-0.8700648503,2.1320502011,-1.0681128704,-0.7418454984,1.1967830154,-0.1026974894,0.5851195681,0.0799836049,0.2666965934,-0.6735700918,0.9213540507,1.0113543196,-1.440240937,0.2311725583,-0.9681261145,0.1541236032,-0.7449477347,-0.9521198341,-0.3414166162,-0.1904604557,-0.5338868424,0.6911726839,-0.0196735686,0.3086935664,-1.6782371828,-0.0547117982,0.8792099338,0.3160357406,-1.024236174,-0.9012226824,-0.0807526916,0.2816196989,1.3375574125,0.3898420037,-1.0439351506,0.3357312017,0.5901130683,0.7741244701,1.4340600317,0.8422879652,1.3022610151,1.2183456496,0.4662759023,1.5549785326,1.0338937669,1.5551122076,1.2280108594,-0.6385980362,1.5903661206,1.5234122463,1.8246102352,-0.3417680735,-0.1099357973,-0.6402259461,-0.4310078601,0.1181746433,0.5559552051,1.0806199294,-0.1436070897,-0.337376803,-0.6617757612,-1.1871988143,-0.4014555186,0.4858343717,-2.4530231593,0.6908370286,0.7197540061,-0.2406891655,-0.5868920479,-1.1006003786,-0.6743254152,-0.0439189562,-0.8253322791,0.2564253255,0.9492668035,0.742102035,0.7713195856,-0.0070357759,-0.849877982,1.268335628,-0.1777404343,0.0775436208,-0.1737328719,0.8060100746,0.9231384956,1.8446233237,-0.6000755793,0.2830091154,-0.8893821841,0.8026306916,-1.8810467568,-0.3380510106,-1.6933620892,-0.0709137066,1.0704404229,-0.0416277491,0.1293494805,0.1696958521,-0.8635234053,0.1729025928,-1.2762687816,0.0683590692,-0.4181996453,0.5455048767,-0.6077449631,-0.3340103185,0.1036186641,0.3511773257,-1.0647235708,0.3139760839,-1.0886595641,0.5607539167,0.4083682325,-0.4509800037,-1.8080564628,-0.8389438757,0.1930408537,0.8971205225,-1.0504599383,-0.8343611794,-1.5160213084,0.0271358107,0.2463517508,0.2257815655,-0.5193959974,0.6193473449,0.7289803467,0.0284249749,-1.1599512709,0.3525065289,-0.0514917622,-0.3087360205,-1.1835958055,0.3723555267,0.9082193262,-1.2938208779,-1.5854557878,-1.0418326929,0.593426864,-1.1614535448,-0.3547371278,0.2979911639,-0.8389358016,0.4150885258,-0.1458951924,-0.394205157,-1.7344389347,-0.4661613004,0.2767020159,0.0304928944,0.3389576872,-0.0448176459,-1.3925869802,-0.160635383,-0.007853623,0.519286148,0.1173213598,0.6827657749,-0.7266906597,0.8113333571,0.0155811254,-0.0529390088,0.9225458371,-0.532772582,-0.6553984209,0.5927344615,0.3377870906,-0.2414396606,-0.2431781702,-0.8744800186,-0.4435032732,0.6738119524,-1.5499796187,-0.3904169369,0.0221629074,0.6097330548,-1.3692350356,-0.5607053581,1.1411311564,0.6814493997,-0.7999881935,-0.3267640413,-0.6166351903,-0.1446639903,0.6337208835,-0.9458044392,-0.3303496271,-0.9393217534,1.3682043897,0.635682395,0.3468038364,-0.4574369212,0.0264532954,0.1925101066,0.0525078067,0.3309659842,-0.8183920055,-1.6049681816,-0.1513410041,0.7308560002,-1.4747811706,0.7735240555,-0.2500919966,-0.5168624821,0.7920271213,0.2061629413,0.3229235519,-0.7735428931,-0.8219887595,-0.7592714355,0.4061676811,0.5523695649,0.3561526744,0.4251426774,-0.1222975998,-0.3514192055,-0.4395106668,-0.6278366863,0.2100944529,-0.9993235842,0.9490153417,0.3712587508,0.7569674925,-0.860886349,0.4525798432,-0.984446226,0.9569901244,0.2826654345,-0.9539307561,-1.0050867856,-1.1621989697,-1.1168384969,1.0732053313,-1.2393611895,1.0030240859,-0.6468940762,-0.4076684203,0.2704571823,0.1768644554,-0.9694304872,-0.1522376076,0.489414293,0.852425797,-0.6174579401,-0.0071044919,0.4212084295,0.4913079111,0.18893897,0.8134457765,0.2619358179,-0.4215876919,0.9564902895,0.6199967763,0.5363690021,0.0644470357,0.509537122,0.742785769,-1.053148716,-0.3031243672,0.0136086738,-0.0640832345,0.8048074931,-1.1482493546,-0.3713180915,-0.2976211527,-0.8162827527,0.6466752556,-1.0293280365,0.2726777571,0.42069947,-0.5628725416,-0.361678487,-0.7320333145,0.3640440616,-0.8206120076,-1.1064058843,0.5181744765,0.2361184029,-0.2343741815,-0.543142396,-0.6240281572,-0.3312335829,-0.4455815693,-0.6446616443,-0.7904366263,-1.0993010924,0.3666580086,-0.284674981,-1.056271194,0.1965015563,0.1147383407,1.3709116076,-0.9487374959,-0.1402346526,1.1475189633,0.7025315215,-1.0751494986,-0.6957495559,1.4366457759,-0.5192364115,-0.0320230485,0.3206981293,0.9088411453,-0.6174562257,0.0128326299,-0.397209322,0.7014608987,-0.4458815513,1.4330431937,-0.6064546217,-0.0767460689,-0.7637705619,0.6241791175,0.3463598179,0.0704583273,-0.0590138914,0.4600699792,-0.5537614264,0.3256450118,0.6878418497,-0.7971261278,-0.4689828807,-0.4375908239,-0.8351919023,-0.1225786037,-0.3741728125,-0.0469464258,0.7049376433,-1.0807660246,0.4305010244,0.1334634692,0.5695818225,0.1679537289,-0.6580009914,0.987891686,-0.6306592643,-0.8061274209,-0.3722354689,-0.020151806,0.0557232543,0.3382715746,-0.1042362079,-0.0656891874,0.4940838155,0.9672354556,-0.4669765187,0.2154058937,-0.3693043964,-0.3573613879,0.0449867889,0.9077991073,-1.0940636319,0.7884280019,-0.9106951444,-0.5869761059,0.4661245691,0.5898879007,0.536835341,-1.2701899403,0.6881593575,-0.9695478382,-1.5834122111,1.2741379783,0.0431559169,0.2879102657,0.7726071787,-0.7585950827,-0.2238267469,-0.2511355122,0.5424526081,-0.3026366362,-1.2999092116,-0.5569914838,-0.8018583567,0.7808767582,0.4462347093,0.2143481975,-0.1173249761,0.7241983658,-0.3169736985,1.0511515811,0.4094024238,0.1411133524,-0.0671871031,-0.6732460227,-0.3704228042,0.6406345307,-0.0158672616,-0.030555496,-0.2173403504,0.7663346688,0.5870611418,-0.4371108728,0.7223369059,-0.7226434414,0.6622240024,-0.0630418377,-0.0328176247,1.1823666521,1.0240379609,1.6676269094,0.8750622183,0.2457110612,-0.5545514922,-0.7650134156,0.3355241295,0.7122376239,0.4549323536,2.1414558864,0.1326151734,0.9406185951,-0.8311758814,-1.3207159504,2.0761769324,-0.9372358574,0.3783166476,-1.2140225107,0.4367349327,0.7141649538,-0.878431504,-0.4042390306,-0.5270855201,-0.3939179195,-0.4337053353,-0.8227037117,-0.7322755772,-1.6596422089,0.6317488143,0.312590106,-0.8772501675,-0.2532971493,0.7310242199,-0.7573864492,0.7068610541,-1.0207534909,0.9014998936,-1.1507281563,-0.81707647,-0.0978819962,-0.1888074955,-0.6211775116,-0.1007629349,0.9176528394,0.2822125597,-1.1726877764,-0.1819455355,-1.3741634954,0.336140544,0.422698739,-0.2765455932,0.2730116791,-0.5598781068,-1.1630604029,0.2467987647,0.1366333695,0.2089543815,-2.3522990693,0.8475803313,-0.8140048551,-0.8231126978,-0.4139457638,-1.4961836697,-1.1459745826,0.6339226232,0.0234042457,-1.7855150733,-1.0663223566,-0.6591009116,0.3077747201,-0.0422992966,0.8288764833,0.2605107811,-0.0666462581,-0.679297998,-0.58091123,1.2100801499,-0.8472315292,-1.7850505704,-1.3682280076,0.0828683611,-1.7207908224,-0.3055095496,-0.7937674778,-0.0083124294,0.6899005782,0.5741810228,-0.4884116704,-1.4120231251,1.0786387969,-1.175552622,-0.3456481423,0.1599037974,-0.604985366,0.5419797512,1.015669662,-0.5349647065,-0.4622789593,1.0236623783,-0.429188858,-0.1564877324,0.0405079778,0.6968889841,-2.1990775978,-0.2847584587,-1.233878421,-0.9839825299,-1.2390259664,0.4934079091,0.8143352441,-0.5213985055,-1.2956219182,-1.041544412,-1.0251098213,-0.4768120087,-0.5683366553,-0.4743167626,-1.3308900096,0.2213635704,-0.072131584,-0.1801733725,-0.9616110648,-1.0653606724,-0.6633641788,-1.0058847031,0.8691612807,-0.2526802634,0.0908592956,0.282006131,-0.3628135118,-0.7609838888,0.1884060913,-0.0324128783,0.3481478775,0.4588496778,-1.0950510081,-1.336628293,1.2543160137,-2.2282944389,-0.174253808,-0.1985040298,-0.6756648527,0.0083661643,-0.5427289341,-0.5802741812,0.0366710348,0.4054346886,0.1376625049,-0.2200242655,0.8443194571,-2.0328765623,-1.0955270775,0.4298621015,-1.0895207589,0.4492894428,-1.317888701,0.0010542802,-0.7231220076,-0.3150750903,-0.3438321725,-1.7572085213,-0.9164254945,-0.003928158,0.466215491,-0.9956250046,0.1252822087,-0.0089649106,-0.3945961563,-0.8358035015,-0.5348051963,-0.2776355041,-0.4321942402,0.3146941552,-0.2645937156,-0.5621782465,1.1623541489,0.3388913414,0.5161856477,-0.3643648828,2.7022909938,0.6479137465,2.0668790296,0.0746305641,1.5596105953,-0.194858716,0.7030826842,-0.0104796598,0.8427333887,0.4425432045,2.0049553479,1.177301185,1.1321171666,-0.8911427979,0.9887855343,-0.8728148896,-0.7415193721,0.2799212977,-0.9270104877,0.2306786419,-0.5158504498,0.8809410434,0.4065424346,-1.7573854116,-1.6541966211,0.1151524241,1.770698025,-0.695595713,0.3041265161,-0.5362889488,-3.779901806,0.3114718127,-1.4979624022,0.0512469806,-0.3473533173,-1.5611203483,-0.1050387979,0.0378971685,-0.1106287782,-0.4722906958,0.8632077451,0.2207280176,0.3730121321,-0.0849907979,1.160022047,-0.2387458116,0.2019693955,0.7929045617,0.2793789906,0.6138057987,-0.4415692406,0.4909254457,0.647307536,-1.3940423875,-0.2885268282,-0.8586046003,-0.9433029995,-0.6764659674,-1.1159640033,0.3028563232,-1.8620692228,-0.335112011,0.028266515,-1.6819866069,-0.1979093107,-1.2065131331,-0.2455331428,-0.9507654586,0.3844728363,-0.2622443935,1.0725325837,0.564769014,0.5787944654,-1.1458227111,0.3753812634,-1.8595640136,0.345634414,-0.0208788664,-1.0254988977,-0.6693696753,0.2405546213,-0.5689016358,-0.19384212,-0.8301181036,-0.0673651276,-1.0013761076,0.9733839763,0.681207022,0.3942622684,-0.5043138742,0.2023018538,-0.0337798351,0.329534959,0.0828563057,0.578990272,0.5069544467,0.2720219076,0.2764320366,-0.8122743099,0.0540617909,1.1670768103,0.9337048992,1.8854302767,0.2242387892,1.8221026441,1.0193839026,0.6397448958,0.4926152205,-0.933716413,0.3947832853,2.3030349017,0.5281653127,1.4455008087,-1.1935090876,1.1738311123,-1.8271166518,-0.8187169436,-0.1130140716,-0.1249325608,0.4700286399,-0.6962438466,1.0889837766,1.3885002916,0.710491829,0.424712284,0.0141971515,-0.6841189994,-0.0559794753,-0.1048180507,1.2237836348,-0.8192186864,0.4580291764,0.5353801329,0.1097119184,0.483642295,0.512775068,1.0646233082,0.264382754,-1.0128104457,-0.5065624149,0.3886062357,-0.1198184801,0.6974733143,-0.5468455375,1.0167440881,0.8966872141,-0.3456452663,-0.56745308,-0.4994907737,0.8910599649,0.229395444,0.7784040403,0.6191141069,-0.489263876,-0.2607871397,1.4303452756,-1.0931446014,0.3779061682,0.921077773,-0.0110432736,-1.1035785477,-0.1737358782,0.7564460047,0.0598467146,0.7038499687,0.0091539111,0.5507473736,0.7724603006,-0.8132698776,0.2886308438,1.2450398391,0.7963839146,-1.061962921,0.935264193,0.3324053274,0.3582275894,0.67619522,-0.0643111418,0.0037460934,0.3458834977,0.0880439813,0.6849734568,-0.6655911853,0.1077605289,0.6554196454,0.6863279542,-0.5613627588,1.2047245997,0.2884999934,-0.8135566087,0.2514794005,1.1239891776,0.5546437559,0.7891648292,0.5460130679,-0.1848829203,-1.0037182237,-1.0254721539,-0.0354713857,0.0766420598,-1.0149189129,1.6451260951,-0.6355675637,-0.7131235147,-1.2797870768,0.1881980894,-0.0597817587,-0.290343916,0.2117313186,-0.7226191043,-0.4432029122,0.227226843,-0.6577161713,1.195663372,-0.547343601,0.7160433931,-1.2423433459,0.2226608334,0.3978409446,-0.5965376371,0.5579857796,-0.2419558576,-0.6535451231,-0.6230028245,-0.6869228463,0.1318322644,-0.1401083955,1.1508043935,-0.7651376473,-0.1996043002,-1.0924515659,0.6499675149,-0.4139219293,0.4531559991,-0.8159230968,-0.0753766092,0.5983920087,-0.3987836328,-0.5586946728,0.9690958115,-0.1022266196,-0.2842927627,-1.0298583183,-0.0916154498,0.4241105454,0.6064784445,-0.6043941321,0.7251013776,0.0137391512,-0.1007918957,0.1886543342,0.6868383239,-0.8525733879,0.2664735127,-0.2635988857,-0.3241228693,0.9702774239,-0.9463173526,-0.0709761922,-0.6041980793,-0.5958514034,-0.8440230639,0.164396106,-0.3878029533,-0.4119731121,-0.9134836803,-0.2364917054,0.1594106096,0.5513425932,0.775093286,-0.7659987113,-0.5937759897,1.1267940032,0.384004933,-1.2932403624,-0.5351494341,-0.1358216131,0.5352454976,-0.8540410529,0.9074095702,-0.9483591415,-0.1336473776,0.0233193214,0.6225117693,-0.2837719226,0.5270593911,-0.7379304794,-0.3178909275,0.3875698635,0.8626822065,-0.5910480275,0.7435202657,0.351241992,1.2413727746,-0.7306137412,0.6677675533,-1.1034768509,0.5810295847,-0.9442700978,0.2826530002,0.4156290356,-0.3321108653,0.9655344992,-0.6565101317,0.1394346615,-0.7253372853,-0.2689803795,-0.9027168049,-1.0054922903,0.5525093025,1.5547064778,-0.9479657241,0.3566012813,-0.8677206485,-0.4118411752,0.1460333691,0.0525226359,0.3337284987,0.608545948,0.2707574009,0.4137953559,0.8086182085,-0.2425446193,0.2786653944,0.7505060198,-0.6092201233,-0.6401061162,-0.1205990366,0.2442117005,-0.1408175203,0.1745418417,0.217156837,0.3291001761,0.4321765046,-0.1949575398,0.5581219232,0.7128237638,-0.2054837104,0.149756773,-0.4160633687,0.8474402463,-0.2516811388,-0.5977927153,0.0943700808,-0.0010783348,0.7526999021,0.4259554468,0.3307959878,0.1566778003,-1.175973457,0.6928999218,0.5800745685,-0.6181833916,0.459808296,-0.0308211673,-0.2624486905,-1.5201324634,0.8153153513,-0.1492068554,-1.2539308034,0.0974276566,-1.4537310657,0.0237368061,0.9436618703,-1.3797919189,-0.6320113226,-1.01896615,-1.202116047,0.4817743136,0.9589003665,-0.2172047408,-0.8542840444,0.4175459516,0.5787701951,-0.2733264664,-0.4365884023,0.102647827,-0.004930317,0.2314382608,0.1058724075,-1.0870438391,0.2400874753,-0.3332659458,-0.6344623806,0.0811391501,0.7447235013,0.1754162883,-0.3978507192,0.0182204366
