encog,BasicNetwork,java,3.3.0,1,1463785680730
[BASIC]
[BASIC:PARAMS]
[BASIC:NETWORK]
beginTraining=0
connectionLimit=0
contextTargetOffset=0,0,0,0
contextTargetSize=0,0,0,0
endTraining=3
hasContext=f
inputCount=279
layerCounts=10,5,81,280
layerFeedCounts=9,4,80,279
layerContextCount=0,0,0,0
layerIndex=0,10,15,96
output=0,0,0,0,0,0,0,0,0,1,0,0,0,0,1,0,0,0,0,0,0,0,0,0,0,0,0,0,0,0,0,0,0,0,0,0,0,0,0,0,0,0,0,0,0,0,0,0,0,0,0,0,0,0,0,0,0,0,0,0,0,0,0,0,0,0,0,0,0,0,0,0,0,0,0,0,0,0,0,0,0,0,0,0,0,0,0,0,0,0,0,0,0,0,0,1,0,0,0,0,0,0,0,0,0,0,0,0,0,0,0,0,0,0,0,0,0,0,0,0,0,0,0,0,0,0,0,0,0,0,0,0,0,0,0,0,0,0,0,0,0,0,0,0,0,0,0,0,0,0,0,0,0,0,0,0,0,0,0,0,0,0,0,0,0,0,0,0,0,0,0,0,0,0,0,0,0,0,0,0,0,0,0,0,0,0,0,0,0,0,0,0,0,0,0,0,0,0,0,0,0,0,0,0,0,0,0,0,0,0,0,0,0,0,0,0,0,0,0,0,0,0,0,0,0,0,0,0,0,0,0,0,0,0,0,0,0,0,0,0,0,0,0,0,0,0,0,0,0,0,0,0,0,0,0,0,0,0,0,0,0,0,0,0,0,0,0,0,0,0,0,0,0,0,0,0,0,0,0,0,0,0,0,0,0,0,0,0,0,0,0,0,0,0,0,0,0,0,0,0,0,0,0,0,0,0,0,0,0,0,0,0,0,0,0,0,0,0,0,0,0,0,0,0,0,0,0,0,0,0,0,0,0,0,0,0,0,0,0,0,0,0,0,0,0,0,0,0,0,0,0,0,0,0,0,0,0,0,0,0,0,0,0,0,0,0,0,0,0,0,0,0,0,0,0,1
outputCount=9
weightIndex=0,45,369,22769
weights=##0
##double#22769
   -4.4408493501,6.1865556497,0.6180575436,0.0807243114,0.7832245068,-2.493933981,1.1938767249,3.0809724212,0.5391656218,-0.2776263559,3.8421778218,-2.9444684561,-2.8244622027,-0.7317833549,-0.69864838,-0.6289655129,-0.6009081096,-0.3160855042,0.3859291978,-0.3464406968,0.0397830856,0.0298783952,-0.524813951,0.7775676726,-0.8934265651,-0.8556389756,1.1428298752,0.8657948678,-0.6931658626,-0.3664585535,-0.930111642,-2.4423806496,1.922675081,-1.3221201308,-0.7626798979,5.0191665794,-2.6884787847,-2.9068776699,1.0167372662,-0.2365341946,0.0646817522,0.5701362215,-0.9784873597,-0.3003963117,-0.0996335455,-0.9301062388,0.6431863643,0.8055517324,-2.2766364091,-0.0993001517,-0.3063365497,0.6700648908,1.057035047,-2.5570670233,-1.8164328526,0.0003625277,1.2989922047,3.6736873261,-3.1898684075,-0.7956111844,-0.3704751984,-0.3147558048,1.0476642486,-0.9296735585,0.5252698797,0.5749593377,0.0327513392,1.0080548197,-2.9387475837,2.3432161994,0.3402826506,0.8443439617,-0.4298765387,-0.148193633,0.0718457257,-2.6973028833,2.1766017894,-0.8202041798,2.4229453365,-1.2521576423,1.4925322767,-0.8306464591,0.2198629034,0.5627197415,1.0511578502,-0.306337801,-1.9256520299,0.4734401613,0.9261083336,0.8128859072,0.5384622651,-0.8328851344,-1.5992872241,1.1451180094,-2.6998132094,-0.8223353049,-0.4621562605,-0.6933488706,-0.1316906965,0.7604046827,0.5819968026,3.8372897727,1.1180311461,3.0361953792,0.6248131069,2.7893115536,-0.0469132843,-0.6736428663,-0.9339034657,0.5089587246,-2.0539606261,-0.3504512489,-0.0184466465,0.9735120502,-0.3791646545,-0.8591331334,-0.4540705087,3.0778554061,-3.7206904564,3.1988853076,-0.4432283798,-0.5328848939,-0.53096765,2.7073100914,-2.8566929188,1.3029502062,-0.9222723993,0.1497873378,1.5808619972,1.5612322894,-1.1557358868,0.2126202164,1.4923852021,0.7740332404,3.9249500635,1.9544744955,-0.3684200982,0.831592175,-4.1584538687,4.1397511284,-1.6429710552,-0.7636906993,-0.4103358026,0.6041931201,0.5989994277,-0.2192378721,1.1271125164,-0.2299269132,1.2172540902,3.365906315,-4.1781192176,1.5201195494,0.9266031552,-2.51642657,-0.9905990704,-0.9852686961,1.8693916439,-2.347259771,-0.1373926151,-4.3323862017,-1.4969086386,1.8341511295,-0.7829990136,-0.7956334261,1.7113700968,0.4492994264,-1.4998276737,0.5490221226,0.6458373796,1.4187425235,-0.4912300773,0.1297065565,-0.9578563912,-0.4369974692,0.997878458,2.6893157376,0.6954581179,-0.6383391307,-0.2781275877,-1.5011975957,0.7169295791,2.2517588245,-3.419503019,1.4453879194,-2.7131178431,1.8637388926,-1.8130067185,-1.3058193196,-2.1335186388,-1.042794611,0.4509538689,4.9428684004,-1.0124254537,1.3102635022,0.7727015425,0.1196624439,-1.7326016909,0.2825030228,-3.0170044823,4.4235595876,-2.7717080775,0.9166874384,-0.1090163316,-0.9627025271,-3.1518342444,4.6914781822,1.0348071562,0.342897988,0.0978106398,-0.3940661601,1.3936928789,0.0504254244,-0.7751968902,-0.261464659,-0.6659635195,3.2102960862,1.7054747691,-0.9308755337,-0.951646586,-2.4661498945,3.229818858,0.8613982981,-0.4004583042,-0.2520107702,0.2946078005,-0.5928476686,0.3314120972,-0.2304962458,0.8890350099,-1.2276277628,2.6962838913,-1.0691271383,1.4498117843,0.2342470532,-0.887849376,0.1245596466,0.4723423362,2.91871374,-1.0782804033,0.2678836752,0.4632243727,1.8836340392,-1.6433529564,0.0786458103,-1.2506505077,-0.8747123328,0.7539592048,-0.4308722304,1.8590522721,0.7519573001,-0.7028551523,0.3051260432,0.0996589769,1.3436565801,1.8959154647,-0.3737532118,3.412782501,-0.5382280202,-0.791574638,-0.2237499863,-0.2219871516,-0.559843745,0.9413731945,-2.6739935688,-0.9585897817,-2.2342234716,-0.6572442636,-3.9947515809,-0.0802684347,1.2731989931,0.9933022325,1.059895842,0.8718390063,0.3700324811,0.4481065531,-0.3848141441,-0.9981880995,0.9625984972,0.0183177706,-2.2214596377,2.0811508974,-2.4902375694,0.1646527887,-0.0689975549,0.1411547212,-0.3641440875,2.4645752346,1.8159218264,0.4948917312,0.2032305293,1.6133001277,-0.4672452709,-0.5232448223,-0.7806746265,1.5418542159,0.4440276895,0.2952375899,-0.9122097414,-0.0276961591,0.6012744418,1.4750041282,1.3818441868,-0.9628176995,-0.1964962044,0.5161479584,-0.8680131436,-0.455984881,-0.7306978829,0.7608289949,-0.5804937818,0.1013369774,-0.8270672915,-1.1432781771,1.376926814,1.1217188752,-2.4398790869,0.2747190576,0.6659187128,-0.1962623655,0.3465593112,0.2011772506,-0.8576290139,0.2578996395,0.8600817531,-0.2322447188,-1.3469548693,0.9101851463,-0.2675508645,-1.6867972909,-1.5913604446,-0.9249818947,1.2022306463,0.1436577218,-0.0631195761,0.4038407629,-1.4042334677,0.3680545075,0.1083896292,0.9181653337,0.9437937883,0.6403352413,-1.4412933645,-0.9033267349,1.5134905603,-1.4962649235,1.1555589382,1.2361003203,1.4308242872,-0.1891117434,-1.2355592416,-1.321875834,-0.4216880561,1.2623971765,1.0469441084,-0.4116881537,0.892678958,0.3413924057,-0.2803243394,-1.0299510002,0.4948912847,0.2468527953,-1.4693026439,0.8834873741,-0.2074748049,0.4053039168,-0.2404343924,-0.4525341431,0.8924148009,0.7758761189,31.6334037978,-46.0468771088,5.7651840959,2.9372197469,34.5956732132,-0.8923859357,-0.1242231299,38.4921571597,-7.9652050072,-14.4018743316,-1.2775983431,-0.631300629,-2.36731212,-2.442269278,22.9341120548,-3.9173774666,27.8539038623,-17.6338413692,3.1900111697,-1.5607311151,25.9389097784,4.0308755546,11.911096555,-0.5871141136,3.1138352062,10.1009568551,15.7679701608,28.8073948061,18.0814163612,-9.7337418473,-0.1607548241,-1.2957978797,42.2285855608,-4.6148075207,21.0761804745,5.2081633871,5.33695696,2.9376373878,14.9696478158,34.5728855655,-0.4597551089,0.5702944623,-3.6178731269,-4.1043595071,24.6883950837,-0.705992553,-0.9279675851,-0.9246908118,-4.9885845288,16.298979946,7.2569912619,0.1685466418,-11.5370855274,36.4064205587,2.4486934759,-0.7990839472,-32.1133228306,0.0147648338,3.6919097095,3.240759272,4.6001600207,9.5189547487,13.903825645,-15.1484153265,22.5038130015,16.6068415883,-3.8056349978,-2.5352864234,28.7225685577,-1.4745100538,6.7123286567,-0.7984493813,-1.3518945513,-4.831168694,2.5889705719,34.7858183421,1.0428128721,1.4368332925,6.2407814134,6.5438759856,35.3003976971,1.8984152649,-2.032474849,-2.214330327,-1.2883703235,-0.8074076951,-1.3131801655,48.0353221878,-5.2394030881,-11.2320025166,-32.5699391523,-0.8836505866,-17.5551929521,10.7595068233,-12.2112452198,3.0574390501,6.5996171262,8.70943757,-2.7537732975,45.8953598052,-9.2946238622,0.3172108774,-18.2573124315,-3.8080540628,-3.0265272531,13.6175770262,-0.1238320716,6.0599201158,8.4606520362,10.4797608567,7.8978537064,20.9798198507,-19.2892222209,30.9149149768,-3.7245923139,-2.5106211372,-14.0986237529,16.8810605307,4.7668984568,4.9672521506,3.5554135346,14.3290654954,9.9723644683,10.0655759394,-17.0101778423,31.8745542972,-1.0152248772,-3.0831124497,-18.1542991793,4.1532537417,1.2452321489,-1.1254814015,-1.5298173165,5.2085072551,0.625956348,12.3480687159,13.1718419087,5.9537360911,7.6877287467,-1.4551019076,21.753613569,-1.7515801896,22.5521450379,-0.9590110506,-1.8666560777,-2.026606695,2.4899182832,15.2384869947,22.1126122608,-24.0374270857,1.6286940349,-0.7559438526,30.8246474095,-2.0460226485,-0.5614548546,6.1011845519,-2.4446481463,-2.2753657498,7.8264067678,-50.0130421207,-0.1616534855,13.9741893903,-10.2132514532,1.1634238703,-1.913856063,-7.1664323904,-85.3419021656,15.4576255363,-32.9908248426,-37.9806818877,-42.6168346141,-22.6239700392,-5.7313681202,3.0118620279,-4.2147294829,-11.6566383685,-54.8901955779,-8.0191479734,-55.4168600308,9.8426569044,-42.3120263262,-0.9478948626,-16.8504749242,3.0734966685,1.4457071955,-15.3623183691,-4.688331881,-21.8497060989,-16.70486036,38.3111251633,27.2859203269,0.7607665511,-29.2552736446,3.1800654374,-1.909349451,0.4389983911,97.5601722793,-5.3037786201,44.9161991843,-23.1906751703,-1.3464108707,45.5793309477,-17.7154959873,0.1216097063,-1.3164618739,6.3054091268,-34.6970514254,16.8823422183,-14.0581585568,-8.8764163579,-40.15139314,-12.1745998439,-14.4669484086,6.7742073238,-7.12532307,-9.2117946803,-22.8475440005,-13.6543999155,-29.8740653464,21.9873977381,-44.9634427224,3.1532869065,2.7977302512,-8.421117314,-1.1589573475,-19.133028576,49.1930442549,-14.9099129534,5.1487357035,19.804133123,-34.8161596985,9.9883623678,-13.2702965775,-8.3002693692,0.0706113002,-13.0194113574,13.6054540287,-24.8884408413,-11.2265274641,14.702780219,-14.4654268614,6.678445182,-38.0869266389,-3.7371560242,-1.3493973034,-11.1364960679,-6.1000238032,-26.8266622748,-39.2286079242,8.8065200981,-7.9922391158,-18.3218686041,-27.757443875,3.0787258527,-0.7238049036,-4.4957667176,-23.9201443733,-34.7238777163,-42.6134216325,-21.2210075544,-7.2489133264,-21.9015551532,-15.9016130116,7.9426054951,-2.0214536882,-0.1711870667,-62.7950028648,-12.1970207028,-47.9597282778,-26.2899749887,-19.0879730418,-23.2847234447,-3.187796154,1.3833528061,-1.7643174617,3.9727542717,-79.1039510715,1.3242142432,-45.6518764924,-3.4048221266,-16.2612170014,58.5883579687,-1.3654648758,-4.8060406133,-15.106393539,-3.1075439441,-0.6224212106,-15.9573361714,-1.651226985,7.0522887305,0.978041583,0.9732198309,0.3929623008,1.4286870399,-7.2155074702,-5.5710918965,-11.1008316401,13.7385061953,1.3150244723,0.5538793472,-12.7374287406,-0.5956426001,-9.7050012135,-4.8401829558,3.311486565,-7.3546695049,-8.2236059334,-13.2058140092,-7.9830419742,4.8779339186,-0.7057971846,2.0719792715,-17.570796645,1.6624970437,-9.750703369,-0.0625669784,-3.9687193384,-0.3536366509,-5.4427037169,-1.6820330279,-0.7119956638,-14.3153581466,4.8813174566,-0.4118854759,-7.0493356113,0.3814034663,0.2416863665,-0.8792545564,-0.8753758171,-7.5214766371,-0.9186084845,-1.1589754906,3.1680964416,-13.3200512933,-2.2192802092,-0.5254105324,5.0791589597,-1.2150785501,3.2938826093,0.173575036,-0.0777654111,-3.0738243533,-5.9461975941,-5.5742578576,-2.7748543155,4.3552657715,-4.6799116901,0.5467445684,-13.5867829761,2.249637182,-1.1970066899,0.1774583876,1.7009303778,1.4818039364,-0.329198573,-5.5531286155,-2.7556204323,-0.2344610047,0.3423909176,-4.2089425868,-10.7488050254,3.1620154501,1.1741536234,2.1989290216,0.4954105255,-0.9879375754,1.4660606069,-37.1694760002,8.6378840621,6.8841421994,36.5550699641,0.6049928179,29.4198441291,-8.0921296221,15.7949050231,-0.0675293338,-1.5109305519,-5.7512341178,4.1666937045,-38.4076737267,11.7270836383,7.9338733419,24.0444388054,4.2221302212,14.8636233193,-8.2179987429,3.6128487907,-3.5107967176,-1.7707204981,-3.3070836285,1.3440790013,-35.6658165602,21.5845602736,0.0533966025,6.0768535502,4.0275073289,19.6307453326,-8.7536977489,-0.4066859226,-1.5020486751,-1.3521557966,-1.9520395182,-9.3067071849,-15.2631357818,17.8069403737,-6.3800406752,3.557981933,2.8136132943,17.2013060115,-6.5380625791,1.3109506105,1.3653062401,1.1580883836,0.1823202231,-5.4063473439,-8.7567885684,-0.8679447465,-0.2411706691,-2.7956604201,1.7462296742,-7.7642380282,0.3051390416,-10.4699870879,1.2644816909,-0.8455931747,0.8426454273,-5.4095987023,-7.8791687533,-10.5459336285,10.7741209614,-0.5465447496,2.0626904276,-13.9174534215,0.9964050921,1.236743413,-2.7760286165,1.5365978232,0.5578947224,-6.9724717152,19.2158869145,11.1419856723,1.7107718795,3.0654562035,-0.0430715881,0.5881295803,4.8574744657,29.980027758,-0.9778388546,13.1871784717,8.6411563005,18.9574901185,17.0102830535,7.2168042369,0.1900017655,0.4990977114,4.8739666829,16.1220211106,8.8139067386,19.4583510312,-8.9199282865,8.9606548546,-0.540667202,22.6541877272,-0.4052826135,2.4623071045,7.511972207,0.7280204563,11.8339188718,8.1640972047,-5.114069159,-16.4898266821,0.3678846755,7.9541174294,-0.5587968973,3.1773016122,-0.7923194898,-30.7019269664,-0.0164612511,-15.1515544762,7.6281806672,9.6092580458,-16.5324772707,6.9058395009,-3.8373362377,1.2578793879,0.5076868829,14.7325594627,-5.2682345466,4.5438021674,-1.3897086402,10.1407717586,6.7522300277,16.0200234195,-1.6448482449,6.0590774867,3.0483782214,5.3244886641,8.2216684801,12.9475631911,-11.7547012878,32.2920271734,3.0564118459,-7.8053065491,10.1404157607,3.1498122894,7.8729915675,-22.7382646664,11.6503849798,3.3424038981,-17.7615952675,27.5297227834,4.0179554446,3.5887505002,10.1392123346,-0.4723820044,10.8630628603,-17.1082740924,17.6574632419,3.2966603476,-14.8260846396,21.8741863162,15.7377998884,14.9393126392,4.1930847705,1.1406888916,10.1502466182,-8.387524434,20.8358600776,13.3428236604,-16.8563647351,12.9334612397,21.3124967206,14.1315956065,1.9181046648,0.3995796607,-1.8149676138,-1.4878280825,24.3906226513,14.7027917049,-8.1011481825,7.7542225408,19.4491059483,9.1244402075,-3.7725539437,1.2949554567,-1.4242240774,11.3565588421,12.2046345544,15.6805967034,5.4610912521,10.1817739848,17.3960487077,4.9073189756,-0.3598777824,1.9112611751,-3.3258041783,24.2727596376,1.448111929,15.4822332394,2.9297871994,-54.4175055099,57.4854983048,-0.0670056009,-11.7477756843,-36.047435044,-5.1909048146,-26.1971887501,-41.1082130913,8.0773011609,15.6686907908,1.0617643398,1.1362279841,0.2424244706,0.153683892,10.5297267217,2.3736116313,-56.4101578716,71.8510213975,-3.4391558602,-0.3567262922,-42.9113488553,-2.4108932694,-21.9019201105,-8.3441001566,2.8657065157,-18.108506519,-25.0350796585,-15.0479082817,-44.5435684551,43.0284490127,4.3713157562,5.0779167966,-46.5547432085,7.2045478279,-25.8423228801,-2.4123930132,-12.4039362943,-2.6192903132,-21.3434558235,-18.1766080157,-0.7190972617,-16.3839947978,9.6679399426,5.9048234458,-4.3948828297,1.1756917891,0.1053073836,0.9619075432,3.0527682978,-16.1871537691,-1.7878775572,-39.9996231154,53.6481279875,-15.4418607853,10.5900923136,0.0020730955,82.7642577367,0.5276019139,1.3761203614,-2.2636248932,-3.033440099,-3.5805522121,-20.8274130688,6.0838859658,-35.305578057,23.9905523168,5.2518912692,0.9222439335,-36.5605219519,0.4783617366,-7.4193801067,0.0695770008,-0.4037046896,6.8363203311,-0.2406175647,-8.7726463992,-24.0387743643,6.0446439652,1.5740196097,-5.5687543709,-29.5181512437,3.713319597,4.2779081896,0.091894963,0.6248438812,0.9875634041,0.8321509999,-82.5477895981,22.8464427713,3.7542479225,75.5291095326,0.8523406979,72.4316796292,-7.1388097074,30.0182051415,-0.7080984985,3.3148963971,-12.7053450783,4.6529682905,-78.3392315869,26.3060689391,-0.6986600983,40.5932866688,8.6080149948,34.791548255,-15.080624354,11.6627510589,-7.3478883906,-3.7110988155,-10.129773557,2.5127461933,-56.1489037481,40.1339426481,-24.5324505587,10.4916920739,6.6354928538,34.6238943642,-18.2911964985,1.1804697225,-7.598479389,-1.6163109518,-7.7892758989,-20.8590157966,-19.5802286743,22.4913615965,-25.6390499625,4.3333965985,4.8556679937,31.0933263613,-10.1567801616,-3.8646604415,-0.234130046,1.0776433741,-1.3983959178,-5.0357577847,-12.2164352689,-28.883904543,12.432928988,-10.0467411681,0.4965237261,-32.5061493943,-0.4215319531,-36.6736672876,0.427527651,1.331655332,1.2926373101,-8.1568991732,-5.5977429025,-45.8089317653,54.3938615849,-2.0064786407,-0.4374683398,-42.2082561775,0.9757836164,1.0387083576,-0.9858709276,1.099006411,0.0431059418,-16.5151472571,56.5745548504,-1.4539692947,-7.7143240606,-17.310544872,-1.2915512131,-0.1341920779,9.9225727958,82.4299477382,-32.3643376451,18.6325249785,36.8535362366,24.2632070155,29.8240169627,-11.844491487,1.2717903201,-4.4710095451,17.2935255831,49.1938987614,-6.9173370229,38.843185232,-22.7811418547,22.9318156781,8.7959879155,32.2217886857,1.3624460041,-5.213387903,24.663968342,-0.6897347534,29.0238671704,18.0374691522,-41.1460602161,-19.6121250645,20.0599478004,1.0450979938,13.9276236165,0.5102426014,-10.027902881,-95.4201668642,19.8578956325,-33.1337898283,27.7775363945,1.7511008684,-48.2228432757,-3.4556780141,1.1897265065,0.3679314546,-10.2162839725,36.8868101167,-34.0050853959,-0.9786862204,5.75676902,15.7320691551,18.0050599283,18.7968625751,-1.2390523583,4.7501371195,17.4037501157,17.3741575528,12.0644603581,25.6751631951,-42.6157322173,72.5472197837,16.9260682422,-3.8069860279,21.07130731,-0.7919443064,7.7514913847,-63.9647747877,31.0179359698,5.7942432619,-45.3576938252,57.1064997695,15.3144509272,15.7154274427,19.8741895475,-6.2065852722,10.4104316708,-41.597557802,46.2745356707,15.8455594608,-33.0600259194,32.4601079577,37.0235842804,34.5505659208,6.525032438,-3.148285496,16.7458749228,-16.3108190767,44.9700064552,36.9710500807,-27.166505605,15.0262688479,43.2776924348,21.4885624779,2.0533489366,-4.8757171726,-0.9114946155,5.6620429526,46.2405078539,34.5952286309,11.8267989698,4.9633726,32.5253844942,-6.6040383872,-12.9061171986,0.1346950766,-1.82132151,45.2874703566,5.1266607861,27.0512684425,30.4451279864,0.6225702515,25.0328780698,-15.1095830862,-1.415919523,1.1391120012,-1.8661015946,74.6424793796,-20.7763631291,27.8526573289,0.4644962454,53.2856010392,25.6035156192,3.3709048504,48.2033766086,-67.9372787855,16.6210137084,11.0415930952,-1.4373627385,31.4390869764,2.6328358264,-0.188542986,-0.3420853116,-0.3449421488,0.8141247141,1.9156082495,2.4502581987,-14.0878428829,-83.3285550171,-14.8867500715,-0.1713839819,4.5037132141,-2.4901957517,19.9740999033,21.2595478684,-25.4983680937,-7.7657435166,-33.9683852838,35.2232081782,-22.8367303458,-76.4883222205,19.1586170534,-17.547298754,23.2572442627,-6.5472296178,-13.3407163791,-3.5864500901,-3.380693452,8.2313873291,1.582002985,-19.2934347545,-65.7163113705,26.2930163861,-30.9047104938,22.4490415299,-40.8932187719,0.6336904749,-25.0936007328,6.7545706515,48.2883623872,18.7010062203,-7.346024471,-26.5270913646,-59.1884235835,15.6091403857,-5.03915272,8.5644631491,0.6798435026,35.4151670704,-21.3736485406,6.9945678918,-2.1336721781,20.2323572279,-17.7705935017,-17.0684573283,-76.9561666525,-20.6909711488,21.1009712722,1.056533759,-94.5932894485,-0.5648891144,-45.1010467423,9.0621351748,0.3122729226,1.7498841475,-7.9146048131,-56.5392732022,-10.3659794263,-58.5512977393,-7.4836029966,7.9127032381,-31.7581390845,-27.9237345733,13.1975891121,1.2231224856,8.6239213138,9.5854880837,0.0311878527,20.5347415856,-42.8850502022,114.1554975668,-299.525807344,7.456703047,-232.3053437301,13.1255541227,-122.2284405114,8.7389421972,7.2113235225,27.5933948612,-14.7787144981,-14.8113900759,-22.2848124978,57.1888215102,-198.3885126687,-32.4882473498,-73.805484118,35.7526788071,-42.3700982787,-7.5744762026,-9.5763717337,3.8806077112,-14.4967235107,-37.906933885,-5.8871386887,-15.3503332907,-45.2783553436,-26.0344517509,-4.5724056052,-16.2957231356,-21.9286459019,-29.7617501148,4.5528427238,31.5934042871,-26.8596637409,-45.0720065196,-9.307475073,-33.9333883877,-12.2141162832,-15.8215042147,-8.3065026537,-7.0776451111,-47.7043281115,0.6351485287,0.4808320375,5.0741630228,-37.4852855845,-32.7966004231,-14.3963480429,-42.8060339137,-3.0287002017,1.0913785465,-28.3469482338,1.1082422322,-20.1501926281,0.4882753439,11.4477068807,0.3673056439,2.2993565876,-33.1359045696,0.2797129596,-55.2923211707,-0.6527728379,0.9639344975,-19.7543342993,0.8186497317,0.7676096604,13.0327852881,0.6382856722,0.8557536821,2.4492206712,-29.5013498663,-16.5435578032,33.9627523445,22.4913894173,-18.1899789775,1.0607116139,2.862000674,-7.7141317906,14.1784560749,11.3752831,-23.0516877414,-0.228425421,5.9383672151,56.7732108584,1.9183548901,22.1930415876,-8.5012886097,-25.675128307,25.4159286979,-8.0735423563,29.2329738637,3.1816435121,-0.6302409646,-21.8774320025,-8.5120006496,-18.1941985357,-25.05448799,-16.7916630899,-12.9049378316,-34.9636689535,-16.0593707271,-13.7989042992,-26.1947514238,-9.8977578401,-3.7843500877,-7.8392277808,10.0470188131,22.0195046127,-29.2940562995,-16.6079668702,3.8203056911,11.9262427524,38.1766459109,-15.4756776078,23.5871887667,-0.5224393108,-10.0521175054,20.2819696765,1.7688037861,27.201220788,11.2540954676,55.9149465961,-12.5097218625,24.039360806,-5.600012588,-10.39641177,-1.6363570988,-23.7591554839,17.3010083682,-11.5387531189,9.2476212659,-25.8111167518,-34.7210041631,-7.341032414,-90.9134613846,-7.5495261384,-18.4101451607,41.5049817434,-39.2638416513,-32.0337891587,13.3487958314,25.7531181609,-19.7619197874,-54.6169079598,-86.9692135983,25.2792104995,-35.3681468343,82.8181100021,-21.6814750258,50.4253846028,14.6925506726,20.0365266579,-45.1154982223,-21.9705135661,-29.4319848441,18.0836357214,-35.6848866605,27.2788511276,-9.1148484202,24.2557688274,27.9853053668,22.2372010743,-39.5756404296,-31.8938407247,-15.5951783803,17.1567587586,15.7161140943,-2.3256940194,-14.6327333875,-12.6255222686,32.9381422221,9.3274651083,-20.5682713727,-17.3015885903,-2.0098085028,0.2831242619,1.4065997077,-24.1416218859,-0.8576620936,-24.393839033,15.3692929493,42.867374614,0.6834105686,-5.0426193628,1.4115581409,1.2221952143,1.5629347395,-24.4316906096,10.4948604929,-10.6362573057,1.602465097,9.1902827396,-74.4392223836,0.565124129,-9.5833640275,51.9001316847,-4.3523247833,10.6721351551,30.143412761,-13.815432436,-12.2653389236,-0.2787724732,-0.7129254196,-1.4656016279,-1.4457753702,-2.2704338394,0.620841216,32.6411774384,4.8918418614,5.5040892817,-1.1840386251,23.2251937872,2.7489115015,7.4572725838,-2.4986010144,5.8599132986,13.3309964694,27.2442149243,2.8178879637,28.4003076714,20.7358996004,-7.4639563429,3.3108857153,23.8597320431,-1.0631947772,20.2999349235,2.2776815854,8.0901231296,-1.2449005828,10.3898396458,13.5862215236,24.9200731945,11.1949900411,6.6698226994,-8.2985121004,23.2809076494,-0.7551658999,9.3759937583,-1.8555846705,-18.2362572575,6.7809120044,4.0404416288,21.541111552,10.6644866997,7.7082655362,3.4164456252,-3.1765495687,-17.0480966119,-11.8144345436,5.7874470546,-1.0750299387,1.5313926883,-1.0198647328,16.1878162193,5.3082476789,43.7515422096,6.0080945469,-6.3840765457,-0.4549958101,56.195338158,-1.0174611663,21.7312287266,-3.6239519781,-0.2033410942,-4.5338362942,2.2417531036,30.7597498821,12.9276855174,26.5948926041,3.1385932482,2.4542993611,32.8304976077,7.2730527869,-4.8944167002,-1.321608529,-3.1188722111,-3.3415361736,-0.5660269293,47.6966086951,2.3948890151,-50.8824065595,62.3975887326,-3.1274530338,46.4668305507,3.9472717734,25.4198234282,-3.5842898355,-0.7156676432,-1.996153643,-0.4660357913,56.9522779042,-6.3146995154,-26.1267149467,43.5929356735,7.2725381133,10.3516492493,1.0589958771,9.8548302858,8.4329646591,7.2018095378,5.2765263605,7.7959399665,48.2629173214,-22.9848188325,22.6766959212,10.6754850302,5.7660781236,-17.6461565846,17.2261287852,7.524238456,14.8242043468,0.1713528305,-2.8618514482,20.0490140723,29.347494358,-14.1620170416,32.4333036293,1.4557720246,2.5910286801,-16.6344537959,8.354071571,17.3162815417,-1.6595871033,-1.379113271,0.5883456792,16.8650291607,22.473657349,16.6709420039,11.9069248417,7.6342856804,-0.2133181134,28.257126629,0.0490816086,29.2642419019,-1.8537818455,-3.1654367027,-0.2429748914,4.4709800092,19.4813242672,23.3983627607,-1.5644116028,1.4054689158,-1.7872870798,31.9033640676,-0.441430757,-0.0160098047,-0.2922967844,0.0078736486,-0.3336434544,7.121623226,-25.0211893028,-0.5157604782,-9.9451893071,-8.615221013,5.0540561006,-0.9696320963,-8.7283581519,-51.8560669937,5.7844692723,-24.4364129036,-13.4183218319,-20.6274977826,-22.5758386129,-24.583664428,-0.5232842877,-7.1067630104,-8.1144194686,-22.1056296273,-13.8603328562,-29.779030665,4.7519884182,-16.4525049562,-0.0061005184,-18.8668561792,3.3897105936,6.4345366972,-7.6840453028,7.607176519,-14.1668338856,1.1407108348,27.2230459683,23.9235215025,5.0758059397,-4.680698697,2.6690946502,1.2534569672,1.6305604288,54.1412786355,6.2182163939,33.1352471458,-16.0513640781,-8.6135435989,16.0367586665,-1.7614108914,-5.2767267647,-0.6274121315,7.4309014769,-32.6187386112,14.4287953424,-16.1673510079,-6.3473670598,-32.6531025678,-8.1036837388,-27.9428184499,2.5375357889,-1.5486033201,-8.5955853133,-3.9283030826,-17.2193355296,-15.8253362182,19.8656125877,-37.6941015066,6.3922951092,11.3963127739,19.2488695437,1.176598622,-2.7871886547,23.2065291823,-2.9137205795,10.4999641907,21.5640722427,-46.5076675699,1.1693453015,11.8198097824,18.5475395799,-7.4600404551,2.0774119679,-6.3271614886,-19.3516750634,-26.978486931,17.129488219,-28.7437169843,-1.304914181,-18.8531602035,7.0923790138,-6.0264098526,0.2490982174,-0.2270112362,-26.8805988594,-33.2846205176,10.2371120432,-17.9764693363,-11.4950671858,-9.0834740364,4.038317251,-3.5783479778,-4.6155901356,-2.7558032241,-27.8573802191,-20.0273926414,-12.9980734868,-9.6819258783,-13.7812155519,-1.2834576326,8.5192199154,-1.359217081,-0.2302131343,-20.0121516194,-7.9598908589,-15.1478954989,-21.4744265416,-23.1378773255,-18.4409713423,2.4425609559,-0.7578254999,-1.0887592774,-1.2071343908,-39.5317142001,1.9815117001,-21.2066441635,-2.6553891813,-0.1351150974,-34.2692152945,-0.9075400436,4.2327656732,-9.210475603,4.4605085449,-2.6520258336,-7.5320579943,7.1992377813,0.3845228623,-0.430997531,-1.3591734581,-1.0690508627,0.0744985866,-4.6377125556,11.6510517703,-5.0796986476,-11.7067817294,-2.1299909166,-1.0673950255,-1.5300758061,-4.2677288084,2.4793181681,5.819807201,-5.7296169579,2.5370338531,-0.0044655797,-2.92128479,-2.4141918927,-10.3390214826,-0.0427592029,-1.5329580443,-6.8344624213,-0.6027148142,-1.6412702014,-3.3892067662,0.6819683091,-3.152332082,-3.7105473777,-19.2609847748,0.2423885874,12.4340888753,-6.0669879611,3.5583150216,-9.3729011317,-0.2597767,-0.6082281558,0.7881601538,3.1944277835,-0.478913631,-5.0880624337,3.7200740805,-4.0465556044,-5.4025270998,-2.3166171977,1.0144213603,2.4898192131,0.6954137614,-6.0545958054,-3.0739500787,-3.8235697921,-2.3203761554,-2.6756271531,18.7518318987,-11.4452697349,-18.6105118185,6.0355718107,0.2306787113,-2.8773437608,-0.7176404005,-5.7580443129,0.4123606217,-0.0904200529,0.3585882049,-1.69761253,-15.0494086614,4.200463664,-6.7083227639,-6.2330541973,-0.559207281,-12.5511532927,-5.587062006,-2.6209938233,-0.975816049,0.2249334248,0.3958809206,-0.2694178391,14.528070048,-8.7434753483,0.7822554674,-31.5739695154,1.3633047199,-31.7153438547,2.1894575493,-13.9315143219,-2.4074255404,-4.2277721177,0.0164250156,-4.2425060149,16.0429861494,-9.8272066248,-9.1224075349,-19.9732125177,-3.4776623268,-19.6797658433,-1.5594065567,-6.8903835251,-1.1399264255,-3.3002679844,-3.9823726203,-8.9212378978,33.35013399,-14.9250851452,-26.8273999265,-5.5289384804,-3.0103765553,-16.173598888,2.0242857526,-3.0022482866,-3.3623629104,-3.9659554772,-8.4568517455,7.5857310883,14.5690829694,-12.8907409127,-17.0112925177,-3.0479041465,-1.88278254,-9.1132649864,5.0012096741,-0.9900415804,-0.2423178761,-1.064147574,-2.2833916695,6.1195823,4.6729527016,-7.6295076405,-5.6258916368,-1.6278611333,-0.0006418291,-5.3102618257,-1.0325145012,-1.4140245267,-0.0398251822,0.542748035,0.0105633166,6.2167738102,0.4357534046,-2.7873880922,-2.714731898,1.3729137512,-0.5042090733,-4.0483802308,-0.9707931091,-0.6852230667,-0.6231581573,-1.3167106161,-0.1867235706,3.8799807745,10.6040332688,-14.4133104744,-11.832570099,3.6636943679,0.833069133,-1.0468401708,0.5902003663,22.3549463944,-4.8447732155,8.3831462286,15.50066415,5.5494810564,-4.9941854673,1.2592346919,-0.2981125902,2.8666794166,3.9896789036,16.9185827505,-1.4962527933,12.6003896799,5.2507616326,14.9531546978,1.167540566,-14.9631456782,-3.4406674793,-2.3548781655,1.8868945457,1.8991556364,-1.3279581847,-0.4463712966,-21.7405507614,0.4755275712,-4.4789134254,10.9287922556,-4.2731148872,-2.8777855617,0.5346302025,-27.4270063839,0.9319107857,-12.5748764328,6.0161065779,-10.4527698616,-9.5580282594,6.2669115875,5.6692621807,-1.2286002282,-6.2802367478,6.8694582128,-3.3551272269,4.6370801422,9.6478448155,13.6595944747,-1.9353673957,-6.8714202999,-2.3853787991,-1.8133860266,2.0165017056,8.2784439283,-0.0319165396,6.9960809444,-0.7820480239,-10.2576451716,-8.783511676,4.426714315,-10.2100295024,-2.2643909759,1.8157006599,-2.7404854658,-6.3698362793,-9.0687788485,11.123075007,-11.669681451,-11.4662885871,3.5001721984,-10.2991393357,2.7000816259,-5.9811610125,14.8387553543,-7.4732684479,4.432962498,10.0582438275,-19.5157692464,-24.6285258341,11.3388326557,-3.430004707,0.3474113287,-4.7593086196,15.5778034572,-6.5089097787,9.9208912158,13.8707527008,-11.1308006256,-16.1323548365,2.2643334638,-4.2903352409,1.0463959855,6.60740535,19.0407370743,-6.9834456501,10.210024522,24.7872210168,-5.5795975934,-12.1979737743,1.2443256213,-1.3706764615,-0.4230534957,3.9166702361,27.7422441663,-7.336588156,12.0467225264,13.2125762542,-0.0328284146,-6.4391313485,-1.2595238602,1.4570292872,0.0385491405,1.4199489639,23.4425273222,-3.2252986808,11.2891175121
   -1.4579816192,-43.7480565916,70.7976516656,0.1430595468,-7.5906950994,-39.7399763927,-2.5113200213,-24.6706012041,-39.1866686219,8.266037883,15.8989899176,0.6977768051,1.215606965,-0.2164860555,-0.3222208814,8.3112444422,0.7068149697,-51.2519333627,56.5896112106,-4.1297870719,1.3775607677,-39.4331085485,-2.2946630033,-19.6583027562,-6.420881078,1.6170801266,-17.1833352659,-25.707200302,-12.0545721845,-41.7065166153,29.4033758362,5.8056349817,3.0182505958,-42.1617161085,5.737349656,-24.0091908517,-1.8977284928,-9.9293234811,0.1653118483,-17.7462522777,-14.351329777,-6.9621638313,-18.7565933566,6.9347884508,5.0671373422,-7.9195884757,0.2420027052,-3.9807862685,0.4645885436,7.8452519603,-13.4540779647,-2.4229400029,-36.7266515735,39.437122123,-12.498227861,7.6730280302,1.2151203801,66.1123765312,3.3455497855,1.3732004409,-0.6961000104,-2.0586640179,-2.1799876701,-19.9039385954,0.7317996353,-36.5904850706,19.6069092876,4.14956504,1.4080140277,-42.1724429431,0.5033730535,-10.9085665867,1.3754813837,0.9968096178,7.0147320719,0.6661466744,-11.0811995184,-23.7143694831,-0.8946945875,1.9981712102,-5.1673076479,-29.3651297839,1.5161760408,5.5024640917,1.1547772945,1.756346787,2.235437639,0.5633733301,-78.9513590746,19.7650697691,16.4186926663,47.7678388753,2.0996583275,51.1268661696,-6.0535117458,19.4881596636,0.7235487829,1.9126045974,-10.1496105696,4.7802448833,-78.1577811226,24.5654942626,6.9716375084,25.1821450528,4.9399276221,26.708019317,-11.2850753138,7.042497127,-7.7966071811,-4.3267685817,-8.3121998172,0.427352999,-60.2473718818,38.708723065,-21.7878597326,5.4685745074,5.2378678066,33.6449717324,-19.6251699598,-0.9146064092,-7.5546189413,-2.4572798881,-4.1464936111,-22.0482779305,-23.2600620113,23.0990273969,-26.0875311175,3.1951226806,3.7546233012,28.4910183904,-9.7414695821,-6.4114210682,0.3741647466,1.5616198432,-1.0985464372,-7.5402882268,-13.9836624738,-25.1266625154,7.9106415141,-10.4026719613,0.6218918644,-31.4249349011,0.4196243983,-36.9025120576,1.6210685756,2.8332379344,0.1682084437,-8.7884783348,-8.6893066744,-42.1130924886,42.1787255663,-1.2257134349,1.2652221743,-41.0927570859,-0.250775036,-0.1460688927,-1.2808715862,1.294274722,0.2533803875,-15.311586457,50.6715326991,1.1183270185,-2.6497349143,-11.4760999928,-2.6924189151,1.2175316781,9.0208816907,74.3082741185,-26.0829205729,21.1924335567,30.0976288662,24.2864540978,29.1810545102,-1.7043469153,2.008019195,-2.009184383,15.8952622291,43.2033746553,-0.6495883616,36.4493773523,-18.0058632693,19.7185728654,5.4974912451,32.5999322621,-0.1963006638,-5.5527246311,21.5303681068,-2.0826062137,27.5094454462,15.0768114288,-37.5014037351,-20.3281004138,14.3743519002,-0.1018329471,9.7518985139,-0.8786734102,-8.3218533868,-85.2995585392,12.5892497807,-32.568887432,25.6598758553,4.5560199166,-41.6051445909,-2.329291112,2.3802870871,-0.1629547286,-8.0882006148,35.7829283118,-29.9228891321,1.4935533524,6.1389998281,18.6874995451,16.5316963417,23.7080173282,-0.974529064,5.6083216685,16.7391999325,15.4054453369,14.3476635912,22.9381691868,-37.0130438521,68.0272815022,12.5368330218,-6.7050067799,13.2914258496,-0.2203434403,8.2011333972,-55.4443960918,25.540064286,3.0551296698,-41.7289892652,58.0696632746,14.0285269711,8.7640048552,10.648691254,-2.5922740742,8.7582545533,-32.7932367365,43.5156091872,18.5349146978,-32.8820484752,35.7449537687,32.7601142455,30.5848179446,4.5351293953,-1.4097568223,13.2668540527,-13.9822868882,42.9579991192,35.9713983386,-26.2031604303,17.3316017093,39.6026460958,18.7743090908,0.7280566991,-2.0089853794,0.6658904546,3.4152838252,43.3247748934,31.062239896,9.4775710933,8.3714047634,30.0863246629,-5.4776311582,-12.3732385071,0.3595881376,-1.0916143902,35.6484549108,6.5326783241,24.3032867098,27.4341953645,6.1698846229,24.2246116619,-12.8436335977,-1.7171176005,1.0602455497,-1.6715534523,65.7949110802,-16.6918906635,25.2370023231,0.6471725378,-45.0623493178,11.2746530351,-2.0826334739,-16.4048939246,-1.6401269831,-5.8789597686,-10.0091647484,-25.212230856,-1.4255980647,8.1313873717,-0.2747186493,0.4003249131,0.488252353,0.2728751421,-8.6981024562,3.6019852628,-24.3755106054,56.9789515485,1.2386617431,1.1828022508,-22.1919303111,-1.5564960882,-14.8864600562,-7.5410599925,6.1586360676,-7.0305276867,-2.2844719584,-23.5355098981,-16.2573638995,46.4878617995,-3.221495764,6.4313627398,-33.2650993925,4.8362380902,-11.8901282151,-2.2937788426,-5.7461935301,-5.0883312544,-13.8454823772,-17.5506915681,18.5407496523,-4.1839484534,12.360086769,-1.5340206964,1.3872348828,0.7423027198,7.3767183434,-0.1237895698,-9.373758966,-14.2642905168,-1.6813556491,-6.7645760099,45.8934986902,-22.6843067987,6.8695387345,-1.6938862611,52.0509184815,-9.0957511072,4.7569014563,-3.7555565126,-1.6620476605,-7.96289201,-6.7336431796,14.3465323275,1.2861865337,9.1907568519,0.0352170382,0.4915480523,5.367769731,-0.284810803,8.8964283577,-0.8400370945,0.6843353303,3.6364544068,1.3490297984,0.2498679483,-5.1674023944,23.019110689,-1.183605181,-6.0468154129,-13.2414597896,6.92325523,0.3857522201,0.2224062377,-2.2242889765,-2.0536499586,0.6611672797,-43.3042579864,20.2638888454,-30.5083368603,113.9699945509,-1.8971338676,91.4136391258,-8.1747138834,45.2828317392,-4.8731357795,-2.2476077319,-13.4819812902,4.6076709006,-31.5148191674,16.9623856556,-19.2126904303,70.3481320815,12.7478169115,31.4224233509,-17.1534507131,16.3328452724,-0.8620435942,-2.7303819752,-9.1145693648,1.2152834598,-11.603975599,20.0307897134,-14.9043488372,17.1024017257,9.3433047362,16.2023611469,-8.4676481245,4.5540370577,4.5786861697,-3.3871529436,-15.8985490733,-3.397281735,4.8368350362,13.2019122413,-9.0012056234,5.347561313,6.2659667491,17.1894989568,-2.958209597,11.8773603982,1.2027336966,-0.0847161205,-3.8476453327,9.1669557348,1.849070076,-9.6893724477,13.7783880201,-5.4806422335,1.3380310325,-9.9427859949,1.1546677374,-13.1047751767,0.0621513538,-2.6893334093,1.1729310612,-4.5737417942,3.3638634494,-21.9700173487,44.2956232427,-1.969695495,0.0942214062,-18.3803274972,0.8420635742,0.0367966644,-5.396308034,0.2976772541,0.9448469543,-6.6154050015,44.1602360177,1.3427887311,-19.8434467228,-11.478053302,2.6492260173,0.6407885936,3.8008715976,58.5823907327,-22.9681645262,13.3393295236,33.3035358611,22.1653541928,14.5662884114,-21.3726982411,-0.6061203075,-4.7462644791,11.0640846428,45.4066682686,-9.2727239171,33.1723725707,-15.9776550248,24.0179252249,3.3103944802,17.4333148061,1.0440084538,2.2764471642,18.4757498136,6.3082041489,18.7563777602,20.1185116166,-25.8852925131,-10.134142003,14.9803402582,14.4990763111,6.880447429,2.1619951895,-4.9016845357,-74.002356277,19.0629846867,-21.1064450925,17.1339571636,-4.606711277,-42.5266903887,8.8082396856,-4.3371671422,1.2442916565,-2.8319158216,19.0581131779,-18.4530009817,-3.7110528258,2.9108396225,5.8183907703,12.737124697,-0.1023211443,-0.8577466845,6.4914434049,9.4912391332,21.9012134564,2.103065613,20.6776202226,-23.3504042657,40.5530463231,13.6846673148,5.124038234,33.787491323,2.861344368,13.3265589225,-49.1270782878,26.0762801196,7.905015825,-21.0915454321,20.330482384,5.2849920126,26.863516683,32.0604635386,-8.4698799241,14.8429865166,-38.4923103403,27.3593875121,-2.7017286726,-16.0354248904,6.4092068626,17.6179400947,29.5045619383,10.7134837849,-4.9213007885,17.5753710928,-6.7976647473,23.3008732783,18.8993725933,-13.6984924784,0.7255808127,27.6850026915,23.1612716767,3.7616116219,-5.4543410054,-1.9733780825,16.4220071063,26.6467939132,30.0510551302,7.3244357972,0.4749325131,21.9579503144,5.1556355059,-6.2142033134,1.451958971,-1.4232228957,46.2339358844,5.1414774931,34.631146664,16.6316958931,-6.5967842692,14.2313332522,-4.6277292624,-1.3386332576,0.4999348696,-3.2366903759,61.1545222822,-10.8129167768,28.8585316262,0.8734234065,57.6443678612,173.1155476396,0.273512353,70.1553993809,-147.4544691129,19.3614819818,14.1817111098,-34.1941145675,47.3165822399,14.8056427374,0.2157362574,1.4261943867,1.0554325356,0.2893549484,-7.8944110556,-14.3777487799,-49.3370689176,-113.4434395902,-26.8619248206,0.0758227331,-22.4175634727,-2.188176765,17.5156068305,26.0202588232,-35.3526117373,-29.5125944185,-77.0237208251,37.7409157948,-59.1851444523,-121.2674252718,35.4508809276,-27.1063622655,3.5914329334,-7.4655609505,-42.7452431702,-3.4950858069,-12.0928444676,14.2681475981,-8.3713829187,-31.4986467426,-120.1786681544,13.1493991428,-39.1269567781,38.9103481047,-79.5887383412,0.447982371,-45.9078500899,12.0148511228,81.9941121957,16.1572182499,-10.2185019368,-51.6661232386,-96.5010039193,1.2791602201,-13.011528024,13.2759215949,11.7943451947,60.2923947349,-28.1870845144,12.7591298649,-2.1066833657,31.4922966476,-40.9391573095,-49.8573655656,-139.5490197684,-22.1195811593,25.1107031841,1.0888108623,-193.5425808345,0.6094347492,-80.0260523494,16.2741006938,-0.3019338612,6.0551696877,-11.8437546189,-103.0814188762,-31.522933861,-100.9172441239,-8.0896627321,5.1188416718,-73.702687492,-37.9974350458,25.903622541,1.1122519524,14.8019337752,14.5668276684,0.7800253948,-44.5203666725,-52.5276782236,213.0715368794,-436.3579177503,14.4664142217,-331.4765964638,8.2548077084,-178.5449643036,17.2152555779,13.7790201879,37.8332143405,-16.6843278213,-110.3921689243,-12.3922269868,118.094198046,-293.8125199079,-45.8496651562,-93.2287116769,47.3863817328,-62.5752524121,-18.4348420107,-21.2776653224,0.0131082842,-19.2602113822,-152.7086424438,39.271046922,-15.2510196267,-66.8187423401,-37.1580986937,37.1129151547,-50.0869788495,-39.448391723,-51.3173445759,8.6184971688,50.8222555932,-71.3034563725,-115.9851337573,23.5570939995,-69.7082896653,-15.8463326528,-22.4526716034,17.7598916719,-26.2591931855,-82.7349540745,0.0040681894,1.4825110469,9.3465208107,-78.9317948993,-81.6604522242,-26.0776041415,-71.3929667432,-12.0257466294,0.9822453141,-64.8291884467,0.6346379231,-58.774390518,0.759205025,19.4703778089,0.5692171286,-11.9709176166,-74.933538406,-20.5847051644,-74.9438450718,-2.6054038935,0.0132638868,-62.2438707429,0.0242485835,0.089496036,16.793280872,1.4671742842,1.5138330428,-9.5932280056,-22.8833166495,-4.5481742167,67.5711768178,39.6224080265,-33.4128418829,0.257832309,10.857073838,35.1191881216,19.7170205404,44.1226293178,-27.8587671348,28.6747190933,41.2539519764,104.5376824454,1.7450440317,36.5078739881,-10.5390603486,-21.2669855856,58.1241767921,19.4379907726,27.8750714669,13.2688562785,-7.1482071175,9.5379260738,-11.6054797462,-30.8619034696,-31.7008146517,-33.5919499327,-1.486581744,-47.5975250372,-31.5997684599,-59.0843612355,-42.3147820634,-12.0022756044,-7.7105546219,-11.992944478,12.8187633626,-15.9254179154,-52.1388159886,-58.9180772048,19.4361190895,38.083204574,35.9382767331,-21.4057380563,28.896707751,-0.0321832674,-17.079691567,60.8812825332,-7.6322614682,52.8289459133,11.1887898157,105.0704767758,-7.0097792647,72.929639824,-9.5753001065,-7.5330423733,0.9296404717,-34.3824396002,45.1908480834,-1.9167928474,-8.849579979,19.8807717718,-51.5707699457,-32.0848495485,-132.797387338,-12.365909184,-18.3268863955,25.5317587298,-44.2219493178,-49.2010105985,-21.1793022216,103.7957624315,-19.5340803145,-91.1282272065,-127.5890297162,35.4523260418,-41.7892600274,100.1234137561,0.6841506241,91.5863211074,-11.3404348152,83.8050190788,-37.4340855126,-18.6566053375,-42.5797559538,24.7034153631,-46.9729431884,22.2735241549,26.4229769391,63.1711649322,7.0010790948,62.6183142233,-22.7328037707,-31.4736581488,-23.0802405008,23.1462510763,15.7849608406,-17.4937165878,24.3044169749,3.9328473902,31.0677132349,29.7040492514,5.6614167104,-16.4206554847,-10.2361357401,0.2472778105,-5.2577953594,-33.5524628339,22.827334036,-18.3423992145,29.1087011986,93.4255826783,34.4400717715,-5.5205068028,-1.3501283837,1.1357967732,-6.2083800401,-2.0328339714,19.3487322278,5.3559647179,0.8265131136,44.2082647677,75.802230348,-1.4837570161,40.2994101649,-71.5966772522,12.3410074672,21.1240513698,-12.37269622,23.5798664425,8.612088797,0.7260013839,1.7797127773,1.111742579,2.3054521883,-19.5582846782,-7.2155671405,-7.4655624903,-84.3593981168,-13.2277225637,1.5003884177,-1.7320556884,-1.9201080526,16.2749408304,17.901017437,-20.4892074481,-10.7133476005,-33.7015544906,15.1240981587,-15.0537198554,-77.2001960865,16.1165275503,-15.1463240077,8.5946367445,-6.5379945772,-18.3138632379,-1.7764256327,-2.3185363594,6.0368639954,-1.6219375545,-20.9589201322,-58.5473893564,14.6310733915,-24.7467436984,19.3376178332,-45.2844521866,1.7468458724,-21.1635343506,5.9539772518,41.2410514774,10.158775587,-8.1407457261,-5.2530944661,-69.7063402832,-6.3864456596,-14.0274951996,6.4391841105,-17.3191857214,29.100117367,-17.5401403329,5.4453155705,-0.9496205522,12.8005095936,-17.3779260374,-21.5966685033,-61.9623236159,-28.0724196985,11.1191131413,1.3115717212,-89.1827628997,0.7115009383,-37.916777578,8.8609801766,1.6061410306,2.2689868434,-8.6426261799,-60.0371719894,-4.1258944597,-57.0057049748,-8.0549650677,0.9958386086,-35.8728571715,-22.2833434811,11.9024635476,0.5497799311,7.4274445585,8.6554368649,1.5919925394,1.2241633246,-35.2659295289,107.6848273316,-243.7932274002,7.7120191697,-195.9074454022,2.9552369549,-102.1616978416,8.689694926,2.7430801586,20.7603128148,-11.590294809,-33.4334101986,-15.2830174139,57.6918432533,-161.3307331149,-27.2791599216,-62.7515168294,26.5381598127,-37.413791881,-6.6797333677,-14.2724606563,-0.3584663681,-12.8743071657,-55.122276672,7.9077337556,-9.5056587238,-37.2267108565,-20.7327319104,6.551873308,-24.3364180643,-21.0817140621,-24.7431668148,2.6036695538,23.9296130195,-29.0719942713,-50.5057955948,6.8751722976,-36.839053575,-9.4182558635,-12.4763855729,2.7325149026,-9.7736576002,-41.4375007203,0.8377022552,0.6017877345,4.1930439157,-36.293921651,-41.1102618831,-4.7117580297,-44.1029540077,-2.7739306557,1.9961439444,-25.3069535619,0.5576294762,-21.0617869619,1.1960768756,9.6625084887,0.4475325903,-1.5579700232,-39.9495978353,5.8023058595,-54.2607314654,-1.4817909963,1.4392764874,-22.1511896741,2.1725413855,0.9658581801,6.7348011077,1.5318247981,1.0207849377,-0.2231907784,-16.6796952174,-1.1195225851,31.0730525626,33.6787427957,-16.3265749586,1.3592157033,3.188514318,15.207692993,20.5803190491,26.9725429557,-14.8302618625,20.8343326478,15.7208619527,64.5262901422,-1.0439263687,22.2170249404,-8.7741630686,-9.7898631823,37.5605128096,14.6994111323,20.3874024199,13.8973916167,-7.2997357549,-3.2636810482,-8.1224925598,-14.0324282933,-22.2121513699,-14.5930913884,-5.007492725,-25.3262632947,-13.7672307215,-30.8118622474,-32.3233168235,7.4724110259,-11.2993437534,-5.4087717668,12.9905744155,-3.0104044766,-32.6707095335,-32.6483033323,7.7683031268,20.1775757784,20.7772101487,0.614178976,13.8384662376,1.6473482993,-6.6675005371,28.0804736243,4.0122946778,35.1521814335,7.6790484856,62.5708036157,-7.2120190211,35.3240606069,-8.1765963476,-1.7436483913,-4.0996223417,-16.0987079364,22.8727957908,1.2044380302,6.5017982211,-8.3524679915,-36.7898624686,-10.7718487714,-74.106588278,-4.1635229088,-4.6610869161,25.4418340804,-30.7621035927,-29.6413732949,4.5288661372,37.2535331247,-22.1435712613,-44.528982977,-71.0051086957,21.98772611,-20.1322284489,66.9929101465,-12.93666676,44.5716101552,6.3788148159,32.1979378718,-40.5593888517,-6.2146423785,-23.1667482426,16.6279078426,-25.7686053405,22.7090965724,2.8194071082,32.1239718195,16.4248858662,28.3308885759,-26.3193593549,-12.4792139287,-13.0975148784,14.9583639257,10.3260906273,1.9463909592,4.922826111,5.3524103598,21.4843793375,15.6855524093,-5.0378733892,5.1809650355,-3.1223629062,2.2890455536,-1.0130031482,-10.3687356467,16.7954963775,-0.4456893738,12.9033196395,53.6585544639,16.0718120436,6.944370292,-1.7115161484,2.1714682921,-4.2407448011,-1.5386749223,19.0678029664,9.5160758633,2.6491919647,-15.9419063728,-76.211529135,2.4079822512,-12.6969910743,29.208557363,-1.9307367179,-9.8380166111,4.5676990152,-4.4561562414,-4.8089323457,-0.3680000133,-1.8157294016,-1.2734079607,-2.1273290619,8.5466061364,12.2153386498,1.03617592,32.1194116269,2.9800723221,-0.3525306435,3.2727000205,-0.7762274629,-1.7434477786,-3.5638064716,2.8822652282,5.9024858796,14.5764222817,-3.402273895,3.2012561497,33.6899197843,-4.4525514752,5.6526315164,-2.3102158544,2.7901174312,8.2257875077,-1.6020694422,2.5148122613,-3.8128722023,-1.2479616425,-4.7116652523,23.6593811513,9.8198677169,5.1781597442,-6.164645288,17.9985043827,-0.4284795645,8.846655074,-1.4404246757,-15.5016257379,-2.110048812,1.1580971757,-0.7169632986,35.6976141048,3.9504224596,7.2814855319,-2.6670821718,21.0859794841,-10.4970367898,1.8450512025,-4.6598928124,-2.5931222644,-5.3845826665,6.5581408436,22.5039376171,17.9711287573,4.5545250575,2.0746760697,-1.1711158693,38.9112351191,-0.8765266664,14.1522003085,-3.0493770567,-2.1752784009,-0.5835184064,1.9535556503,20.5876167581,1.7646545709,23.7590474893,1.1490143771,0.7264772201,12.478396647,3.7192584342,-5.3536290359,-2.1021489815,-2.6797785337,-1.5478835881,-2.146029233,17.179473677,9.2256133748,-49.2515629937,74.8239822034,-1.7775968011,59.1713417831,3.7681003256,29.682675615,-5.3665985419,-1.5182785747,-7.8185502938,0.2376500958,33.6429325371,-1.7610851184,-34.3127363081,48.1432120274,8.416047465,14.2439560368,-7.8631360951,12.7134300914,3.1865918531,4.2038547667,-0.5720140971,2.4558018759,50.3515320047,-16.8234117249,-11.4483876179,10.141647413,6.7477497783,-16.5373374854,12.1416645588,7.2355258415,8.0042892366,-2.9244074778,-11.8205472805,18.4402428465,32.7304355555,-15.3874466619,7.7656150879,0.3939959143,2.9320453853,-9.185019727,8.5317540001,15.2244991282,-1.9086283684,-1.8827117888,-2.3703228239,20.4891921595,23.0263604846,-4.0878034907,16.3948750684,2.593587051,-1.4630298653,7.9780003548,-0.6273442077,8.3356199975,-0.2800154119,-3.3003052429,-2.1284056043,6.6591141305,21.4251726779,-2.4950774769,24.3732628051,0.5300313063,-1.4030831005,10.1451872364,-1.6302099631,-1.218016926,-0.188990723,-1.1978534006,-1.0604157087,3.4931687761,10.0475156651,-14.371952621,-21.9849460929,-17.0897959789,4.6433111257,-1.458135869,-3.9878550909,-1.068045565,-14.8593457566,-13.2214869228,13.595821841,-11.2788720799,-13.7995552348,-32.6016330101,0.3498021749,-9.085149321,3.7962740317,10.3752068342,-20.3230468446,-4.2533368098,-2.3809814697,-0.4949030176,5.5217884636,-15.5951971258,2.7992311904,1.5984205199,8.6445612551,8.0415046326,-0.8403515288,9.6052569075,-7.67170189,19.9140102977,14.0677644434,-1.5778002247,5.5927145308,0.5841373518,-3.9916223616,-7.8402145071,16.5887561727,12.7052688426,-0.8065172374,-17.4335150837,-10.6781253392,-1.7253725775,-0.1420621608,-1.3587085826,-2.3429938837,-11.8742466326,-5.3591933482,-15.8430223118,2.9916772051,-22.0710905706,0.8176979601,-24.6720654815,1.7899294267,-1.3475212292,3.1605641092,8.3595895227,-11.6929549314,-1.5767791915,-1.9478392228,-10.2743867161,11.1279492169,13.5603719023,22.5172616059,-0.5226131876,-0.2784491934,-7.5524101304,9.2350500492,7.906004476,8.2734696549,-30.6264579964,2.5883679724,20.0976700656,21.0825557695,-7.4827698629,0.7251600721,-15.0826022906,-3.7965526978,-15.6004379518,6.9102783059,-30.2664057631,0.4244080134,4.8105460208,7.890157585,-6.6938976125,5.9389075435,2.1956220247,-11.3735391853,-11.6521035329,7.328070947,-19.5355805179,-3.6611136644,0.6291101045,1.7323659465,-5.5667647373,-0.206323374,12.5165992087,-13.4795497847,1.206423948,8.8612945384,-13.2999533512,-9.7708842869,-6.1824045468,2.6919661297,-1.4947252778,2.104093843,17.217466855,-16.0210042593,2.7227551734,2.1789026746,-28.8631296498,-15.0878408521,-8.4273779982,0.8456435608,-1.4543845031,3.01680758,8.4250168213,-12.7712604581,-2.2161075962,-2.0954141562,-54.1644021458,8.1365216554,-0.9645622791,-22.5198233396,-0.1556763809,-7.1445035368,-14.57964482,-29.2390505432,-3.0933733656,9.8767740213,0.3458805925,-0.0715000841,0.7838520601,-0.6008640179,-5.9806422795,5.918015422,-29.7665352417,73.0578214277,2.6696727692,1.1901932986,-27.6914705793,-2.5761251401,-19.7319255268,-10.6971105188,7.5531850249,-7.5382101046,-2.7963665606,-27.798279931,-18.9197171961,60.054489551,-4.812408589,8.9360213409,-39.8030632169,8.1969414646,-13.6829581646,-3.5192964951,-6.8022078654,-4.5762865456,-15.4185404954,-18.993957752,24.3097769012,-7.5915818831,16.4595728372,-3.5604966828,5.8152523404,0.8644023085,8.3110838245,-0.9801700983,-12.8527485555,-16.6856099704,-3.0817678962,-11.5434629174,60.1725717182,-24.2567012597,10.5492297473,-2.5404761677,64.8418712183,-10.8654123516,5.5919328554,-5.6481509601,-2.2373161062,-11.2635544996,-8.3288338957,17.2717027473,2.8512619072,14.5037471399,-0.013345154,0.4050509783,9.1622613113,-0.2962545374,12.5857460633,-1.2561152595,0.9809946628,5.4825568701,1.6498283169,5.0801667001,-7.7245269478,29.2185715431,0.9470786277,-6.7896790659,-13.6018643329,8.9641488277,0.5483026808,0.8317816668,-1.679924502,-2.834080216,1.0353133676,-51.6621459487,25.9479623682,-41.8321124679,147.0759979249,-0.7585668055,118.0339405231,-8.7805487179,59.1246221737,-6.0375282577,-3.1826649849,-16.4848732346,6.0653297338,-36.1687150683,21.3511448926,-25.7837622694,91.0464269715,15.2447019505,40.6936225159,-21.2616003324,21.0430182996,-1.5511677436,-1.2922409943,-9.8162560714,2.8483726685,-10.6046617714,21.9845403182,-16.8459662691,20.6095114563,13.4646500838,18.9015539194,-6.8664962804,6.6424686116,6.0543687763,-5.1110224229,-18.4574812341,-1.7992799874,6.5528577582,15.2745825733,-9.9467735782,5.6362423499,8.0002822608,20.1753440063,-1.9719290362,14.7846534831,0.7854481514,0.5184663264,-5.2915692432,12.5720616409,4.6171107556,-13.2587365993,20.4412974796,-6.3142996327,-0.1333452098,-12.2600043938,1.1787710607,-16.7292069687,-0.2792009622,-2.1923027707,-0.6578861321,-4.6574545714,6.1104392946,-28.7094496421,56.3684554313,-1.4359584642,0.1776275658,-20.5151338015,-0.2148507368,0.023885164,-4.8356378554,0.23225757,0.0438684014,-9.0159112312,53.0441509322,-0.3477725121,-24.0300541264,-16.6762831283,3.4238138211,-0.4281233291,3.9619205385,68.7232302926,-28.7084984614,13.5750815954,40.1997142274,23.3983743737,14.7335925252,-29.8441568176,-0.6361507949,-8.3291074179,14.3039998694,51.3804107413,-13.2376935348,36.0403474413,-21.0919828905,25.4134506118,6.1599898228,20.791207322,1.5349102486,1.510748807,24.6485932899,7.5310495556,21.971260876,26.0451776435,-30.2605352234,-8.0187044448,20.699607198,13.3793308598,10.16625109,2.1299414462,-7.8890167441,-85.1832322837,24.3882400343,-22.2216237908,19.61212804,-6.2412593602,-50.9756771069,7.1527822803,-4.0899337777,0.0967359066,-3.7460325783,19.8349911917,-21.7587616492,-6.9682119351,3.1062085026,1.9334732083,16.4363736536,-1.8963941947,0.2365543135,7.7516614819,12.0784295212,25.6033689529,0.2232528401,25.311901608,-29.3297368334,49.67020073,20.0370111324,6.3393424776,44.2905516878,1.0789374716,14.4447624905,-58.8207899057,33.0750519419,12.2565271424,-26.8377834536,21.5448347799,10.0398111468,34.0732962879,40.2783398097,-11.0409718107,18.2312473469,-48.2106665009,33.6102396789,-6.816926829,-20.1869309882,7.765317735,26.0168203523,33.8891430428,13.4236078757,-6.7862399179,21.868124501,-10.723099656,28.2385711902,19.8132625988,-19.1432356033,-1.3598260089,36.4378458011,26.3929516223,3.9334659984,-8.2543668348,-3.6447033497,17.8572956145,30.4564690493,34.232904664,7.8644256769,-0.4139525424,26.5957444963,2.7887514713,-7.4099149468,0.108458092,-1.6354341116,54.3221998075,2.945870261,36.8327647421,18.7170841551,-11.7861143502,15.1922130401,-8.2619305273,-2.110677139,-0.2173257475,-3.4827430586,69.5147256507,-15.2870556597,30.9505447048,-0.259622872,-68.5043225912,-38.8941216883,-1.0239656555,-77.229005509,125.9049205469,-24.7427419569,-25.0266065199,22.6623823381,-56.360343008,-8.6352754864,-0.0436876334,-0.4422533762,-0.4447845364,0.1319207307,19.0894372894,-8.1566025588,36.3701149867,122.1426770496,28.8550101235,-0.0139983489,4.3575135611,7.3949077314,-31.3211041307,-37.6894827176,44.2367965037,17.0002838969,62.332097158,-38.5036243148,48.3963516375,108.7079949295,-34.7217100281,30.106062433,-16.54877498,8.781229384,34.305452382,8.6350250995,7.0225035583,-9.1633613223,5.3743374678,62.2247910057,108.3708283675,-59.9193250263,46.4527570364,-43.2937807041,80.9324342722,-0.7383236569,40.418860435,-11.3932730921,-81.8573793992,-21.8227165912,18.0685879995,38.6448709211,83.2554491159,-0.2862577606,8.2823456831,-16.1383732356,-37.385634666,-58.6052661785,37.9596421424,-8.2308478546,6.1147518325,-29.1601981268,36.0076522863,17.3870020729,137.4011468318,44.9073796021,-38.3468092123,-0.6392337233,168.8639847197,-0.241806268,74.555315231,-17.502185952,-0.975637529,-5.556967892,14.6532840938,114.7979773638,17.2888289695,87.6821582646,18.3918625419,-7.9637788201,72.3603635217,46.103314035,-24.7488131984,-0.1724301641,-17.3134245131,-17.3337101381,0.0881217255,-20.6272728574,69.0970142281,-182.9422592591,476.2937261465,-14.802847224,371.7889737162,-18.6402370373,196.6066988954,-12.8811502629,-10.1163765741,-40.970392903,26.789949151,39.4871392792,33.1257917111,-87.6254471607,320.734587835,51.0055751606,123.5373907054,-56.360895171,69.0894358953,13.5832406217,22.8392938493,0.5913805983,29.50931414,66.0852924813,2.0017356257,41.3007568311,72.3989770062,41.0806103631,1.2861594287,38.5522572737,39.804616409,50.5548079356,-4.3656789678,-43.2990946017,49.2820993006,77.4327607874,8.9258045244,73.134417804,22.6609662034,24.5660186576,7.9600530404,10.5609629292,79.6824444635,-0.6013598349,-0.3727028054,-5.0131512521,62.1781617125,62.9773199409,27.2512670929,73.7777746753,7.7973038646,-0.0982741451,58.7618489203,-1.0410042725,44.1284450487,-1.0494366964,-22.0112686186,-0.7288588633,-3.935802461,63.3778343009,6.4699221562,72.5717169599,2.7785792027,-0.8225622612,47.1327733164,-0.5002857852,0.7878335156,-18.6139612886,-0.7331957262,-0.5812944541,-3.1552538096,22.8962754501,33.9852316621,-44.1916519516,-39.4337180359,33.5725407386,-0.9469421928,-4.6431466263,-34.4888311061,-11.6410295557,-35.9776420634,13.6974747784,-25.0685083383,-15.3100394526,-85.9257481696,-0.420666355,-39.1547699566,11.4154052803,7.5417494408,-43.3881154502,-18.0692619534,-43.1310454472,-34.0583099673,2.642198672,36.7045333159,14.7292032357,34.9294440326,37.0300728259,26.336294898,13.4106799566,51.1056653442,51.6225886286,39.427345274,42.3104988683,-3.4705130362,4.2578077857,15.4077909515,-19.5843195608,24.8229667495,42.5528881265,52.2594235664,-21.9722578478,-16.5041657623,-36.560958446,17.1165156658,-39.3997618498,0.3890480519,23.1886211251,-52.4528844725,5.5933674888,-52.5565167748,-23.9978273456,-115.5013971256,13.4857645699,-38.2658838973,12.7463263471,12.844275619,1.6290800043,23.4271115852,-31.595590215,4.3806794668,-4.4116178222,31.0120899353,61.7463215638,4.8659233043,143.502562638,13.5172560261,20.9296164916,-40.3796926534,57.6770960538,57.7912613764,-17.898884909,-51.6987079316,43.0502874414,79.8206098082,140.7101625645,-37.2959777158,53.8516006935,-132.6515041976,28.4227094641,-86.6512675168,-23.9841289045,-35.7621006159,87.1359789915,20.4730035981,45.2291381587,-25.7473773556,57.7617216617,-53.2595927793,7.2327022585,-61.0542357107,-49.4644343745,-37.2773624249,61.7310602116,41.6361110826,28.8553688333,-24.9276941674,-25.0603706341,-17.100605398,10.999322647,-7.5505175457,-72.6857027712,-15.0634289781,23.748236489,21.4789411778,4.5197899948,-0.0417228352,-0.0574531937,-0.2761769798,-3.8568436365,8.6353580501,-40.9493736023,-79.8121720562,-12.7446042474,12.7724275547,0.8641537944,-1.0785026242,4.3197668906,-7.0848373763,-16.2377446262,-8.8045749514,-0.2144857248,39.4728036235,132.938115326,5.2567998159,60.3550212081,-128.4458527259,15.8234938542,-0.9149163372,-29.3636065455,45.9925230787,13.2493084068,1.0126251593,1.1788431128,0.8231831906,0.3944841266,13.4959757267,-9.0883038086,-64.2606737262,-57.4935308786,-26.7084373626,0.546896682,-28.2038050148,-2.2066068026,12.1029865949,20.814185454,-30.5573844799,-32.1826665636,-75.4030447219,45.9730981006,-73.8405614477,-74.0229976297,36.1624462079,-23.5421552081,3.8418146418,-2.5177949153,-40.1401763433,-1.7729969167,-14.0569780971,12.7654672271,-10.4998299475,-25.4541533636,-108.7098698258,15.1452514984,-31.7005064751,38.2382197564,-56.3887234053,0.8811295092,-41.1962142501,9.8189291176,75.6952174502,16.4980891889,-7.2719296108,-76.7737816227,-46.2251062443,15.7397995018,2.0523195751,13.6769493483,67.3888579349,55.3704339727,-25.1611259119,12.6112404257,-1.0816921376,33.7613089867,-41.6363497358,-46.2876350091,-137.9791412144,7.7781913434,28.6834748256,0.1322718906,-180.7187646718,0.2911093581,-72.0105014931,15.2006642096,1.0305410298,9.0237470473,-8.9766850015,-78.3213295935,-44.2141142815,-79.6756355152,-2.7469878874,6.4947945304,-61.0214749718,-32.6437709368,26.9757189805,1.4219571115,13.8124628183,14.2531320465,-0.5018715404
   -53.0908564192,-37.520316725,182.2308379239,-376.4926536973,13.3892705139,-269.4334005787,14.3957292287,-152.5514769392,16.7410033951,19.1517695555,33.2584891341,-16.0644698724,-110.4598020093,-1.5735065965,102.4095453052,-259.7297313058,-38.5610138709,-65.2958516193,47.2344695592,-48.5118348392,-16.1862134514,-18.3289210664,1.5679560648,-10.4876741557,-151.6368474816,44.3657994888,-9.7738587919,-58.1048311122,-32.3087217646,43.1307256518,-45.7903452353,-31.9740162584,-48.192904273,9.5866171012,52.5904567944,-69.3216627577,-108.7718180028,21.3342591558,-56.3436198515,-14.1986888636,-18.7099160586,21.693699274,-25.0464910949,-78.7920170262,1.2071561713,0.1922052197,9.9390618302,-72.0266838973,-70.668162566,-37.2408876273,-48.6602495572,-11.5538088269,0.6953846641,-66.4440316602,-0.074373215,-61.8905452291,0.4110115003,19.7192189159,0.0891341392,-11.3426594232,-60.7245288089,-33.6223461184,-41.3150111846,-4.3016699289,0.1963275204,-62.4598817857,1.1561952818,1.1888298241,19.7249639873,-0.155150711,-0.3195050118,-12.9777320511,-14.8309732631,-10.2285490631,61.8297104059,14.2921973912,-31.5316067485,0.599270134,11.1993878972,28.1793760646,1.4485559128,26.7842662134,-23.8704066933,14.5242674659,39.6714946501,77.8225712708,4.0801908765,29.0117879007,-5.3895407201,-19.7432776919,37.7512299133,3.4368052794,20.3031305299,4.1672818832,1.8551675496,9.1146172229,-7.972016865,-31.7109844511,-23.9142815124,-31.4579393347,4.793648431,-42.3216834314,-35.7256299821,-42.6926867745,-19.4707098577,-27.821321871,10.2675825943,-11.4064808891,8.3061280752,-13.0373885188,-33.2467200847,-41.5885968433,22.1337436505,31.5049947721,31.6473551566,-37.6889170001,31.6595723934,1.4327425068,-18.9137844427,54.4733142903,-19.8883731623,36.2688344641,11.8482739182,83.7300298545,-2.2853215887,63.3281518036,-6.1065436035,-8.8892792497,7.2399592819,-31.274727011,37.3233217114,-6.871695066,-18.7418074179,28.843914526,-32.7786073506,-22.1395258585,-114.3980195391,-11.7977266112,-24.1940198085,13.6436959186,-28.9024560056,-36.1812928289,-29.1772232708,103.3843250634,-2.8978471963,-78.8147028252,-112.5087345593,29.2567550697,-42.8526712247,77.8487517964,11.6056581014,87.4045718383,-17.5463734314,83.513706283,-12.4937216891,-21.0200649655,-36.3181818463,21.4046132458,-40.4538558444,11.1305282007,31.1114604957,56.6459114921,4.8209082479,58.6525397031,-8.0505908657,-38.6841763304,-18.8397648261,20.2000069674,15.016475897,-20.6175666517,23.6732308635,-1.2338636836,31.1792122933,24.0583696823,10.5657054524,-34.1857889251,-11.0830803455,-0.1036629288,-5.24209042,-36.8512875601,12.6980911575,-29.8080478124,33.746857409,70.0678177009,30.1397980061,-23.4571230481,-2.7344225283,1.3151786694,-5.6190525394,-4.5015847573,3.9244475679,-8.1529114014,1.870105525,54.3839790574,-56.5981129673,0.7680423243,6.8610948931,48.3872352725,2.3380114407,26.628441379,53.2401490183,-13.8817650971,-18.4003413519,-0.8220655757,-0.8979073799,-1.3344785491,-0.7285967118,-1.5358049502,-8.6704897475,60.4617421937,-59.0193697211,4.6272583827,-0.5770963038,45.1540376784,4.8759045343,22.5191668127,3.6088477363,1.0468019754,17.3669354227,27.0464928032,21.4442632218,46.1450485268,-29.9149763557,-3.9787237716,-1.7342518388,54.7727051272,-6.5209533472,30.5787974411,4.8199396434,12.3036889741,2.2361666903,24.4690352828,32.8221273019,4.2251953867,11.6484259599,-6.1508791826,-8.0570277404,16.1815414431,-0.4778610353,1.705980826,-0.7845104846,-7.4296431856,19.1962830309,6.0618506119,34.1933993062,-44.0346214307,23.181207778,-7.0891371257,-2.8242168317,-76.2416917049,-2.3872096766,1.7377103318,4.0961438323,5.4594003217,5.9665806152,22.8510993093,-16.9851000573,46.0612612185,-5.9078313498,-9.3833657047,-1.0714588421,44.9521375715,-1.4422196013,11.9077328967,-1.5107332635,-0.4799419397,-7.6927755699,2.2283182567,24.5378068099,19.8153399484,2.7562385553,1.1811412755,5.6000542065,42.7192975331,1.3642476186,-3.0289352185,-1.5886667984,-2.0379550718,-2.1497681234,0.0151326154,82.3924649828,-16.8163404537,-13.3356387773,-51.4882925371,-1.2690036659,-46.2399140851,8.4076583479,-18.6264198447,1.5049111274,2.2704458988,12.5663007189,-3.9596742935,77.7953191399,-22.4230713973,0.6762214355,-25.2575468486,-4.9434166845,-21.4211936401,17.1841912587,-6.1655942612,9.7825428176,6.1139953429,13.4069919548,6.0947527856,43.0632657457,-35.1913222276,43.6194606543,-6.2327454852,-4.2461716211,-27.577302758,21.0645236169,2.7488140419,10.444490373,4.4176729851,13.3652203012,19.1374657647,15.4009594572,-19.5840548034,39.9847308436,-1.5560701902,-4.4875328231,-28.1790746485,6.9805778621,5.8527949036,-1.0390020512,-0.5570369343,4.2857914526,4.1893990759,13.6677741025,32.8791838831,-6.5033815037,13.8545979679,-0.0433328282,39.0363697177,-1.6178880715,42.6919057107,-1.4506336184,-3.2213511267,-0.1965993238,5.6403210229,8.5277886648,48.7928751997,-49.8266390044,1.4792881185,-0.8000893215,50.1176231017,-0.2921188714,-0.9374029259,2.4429201083,-0.2577826466,-0.3759061313,13.7640253183,-67.4499805215,6.6121680097,12.253669495,8.6082868168,1.5692383424,-0.5767405442,-12.3678555012,-105.4005833862,34.2133876708,-31.918169245,-48.4299104572,-36.3374403841,-30.6015069705,3.6349536337,-0.4022844202,-0.8828462539,-20.2243880435,-65.6275077048,2.5297976122,-57.2802721686,20.2528636693,-38.5857066646,-6.9466770851,-29.6252635822,2.3440853979,5.4319308918,-26.7501956465,-0.809807505,-30.1431641295,-19.1339206859,56.3709619734,24.0203005285,-14.8237877577,-11.6693250051,-7.8861434317,0.7842472092,9.3633681285,122.3716970688,-18.2844676135,49.2304527507,-33.6552118231,2.1039032276,56.9791133381,-3.9526074884,-3.7226643442,-0.5095528353,13.0748938863,-45.2256833687,34.1076003068,-7.5332379719,-12.3864396698,-33.3636042402,-19.2679653289,-21.3019322872,3.4157155423,-5.9524594994,-19.4067622553,-24.8209775217,-14.8302039024,-33.8740302621,43.9164407227,-74.1042877407,-9.7126540629,3.8694300896,-14.5357737972,1.3457833929,-13.3054679169,71.1873322577,-28.9151020092,0.3868114204,41.4468638043,-58.4672216336,-6.4426795932,-15.0375959326,-11.976714996,2.4113721347,-10.0302959772,31.6280319557,-45.1017746976,-22.3585700418,31.2921254811,-26.7780913206,-19.7873101003,-45.8386900138,-4.0098665552,0.4280345636,-15.6956447498,6.138346898,-44.8998039727,-49.0004726646,20.434287101,-13.3280352685,-35.3856546718,-28.782620355,1.484393514,1.2116913249,-3.8318338855,-18.4537124765,-47.8499926777,-46.3503325786,-27.5454442733,-6.3362582451,-30.2271702241,-0.352684405,14.0952489337,-0.8938256239,-1.2132153389,-67.2415313064,-3.823264605,-42.7352057893,-40.0456655566,-6.5388988107,-24.6911343379,12.2080007815,0.7177197357,-0.3677539818,1.9785567033,-97.0694188011,18.6945350679,-41.9077850649,-2.4998846151,7.4467559165,-87.4709935602,2.1255421711,-8.1485462157,44.2655634686,-1.7766418009,1.5657966218,27.0940291876,-8.3187931418,-11.1740621397,-2.009240822,-2.0609468787,-1.2280379005,-1.3275553803,6.9245177502,6.7576580426,24.0967881348,6.5868575379,4.5223786213,-0.9387611612,20.2514516126,1.6629679641,7.7047108673,-0.3456513948,4.5381934843,12.8714223588,22.324644976,8.4795762308,19.2647053998,18.1606463668,-4.5062946605,3.593850327,22.0739364214,-1.6014484608,19.5260659855,1.315189809,5.1145216375,-1.6863796234,8.7206938185,11.3235460683,21.3902889573,13.6755013231,1.4758839114,-6.5087709834,22.3722654482,-0.8224578159,8.1691202835,-2.0961225671,-14.8540227404,7.1349149425,3.5439966541,10.3476108206,14.6898760672,15.8473854579,4.3701618332,-2.4119160141,-8.6206439495,-9.9491239956,3.2239481343,-2.578832985,0.7110158767,0.5990650827,14.2128371321,9.9350830644,31.7586699918,4.1028995606,-2.4205368399,-1.6210177556,49.2204728438,-0.7934159128,16.9839511875,-3.1531670824,-1.1429802724,-2.4298427947,2.1974060013,27.6839385008,8.5840208213,20.3717290978,2.6284010111,3.2390696159,28.5458007031,2.7534262862,-6.3854630201,-1.0150247697,-3.2793347207,-2.2455225682,-1.7865469837,47.0978366835,-0.2264813723,-45.8767696176,38.6800826954,-3.1891083033,29.0433158295,7.3634492978,16.8152314943,-2.9073072481,0.6646153948,-1.0917656659,-1.1429601456,58.4649446616,-9.913101931,-26.7128554952,28.0454044072,3.3227087179,2.9166918884,0.5247443954,8.8536517143,6.6149263247,7.2994995428,4.8053249771,5.3768409927,55.2565208795,-26.5147769691,8.759772833,6.2402791791,4.3962285135,-23.6418710403,18.5256503307,7.9932853752,11.4912589954,-0.6120517343,-3.508584976,21.9947956902,32.3304620712,-21.100751179,23.6783381593,-0.6684009993,2.2909526519,-19.1713960425,9.5472504753,13.2458349149,-1.2254835741,-0.9644122135,-1.2571730741,16.1672028656,22.5520372912,8.586061137,12.5477411133,6.0796922928,-1.7596941834,21.200597791,-1.8930069354,24.4356690945,-1.8876341113,-3.7456534404,-1.7247673245,7.6402666886,21.4158296606,16.9904347,1.5855324928,1.546881945,-2.0666430342,27.7760247858,-1.8910705176,-1.3991893497,0.0856049619,-1.368592259,-1.2897978528,8.8146603317,-21.712492805,-8.8777034702,-10.7275786567,-12.0410944098,4.0808627343,-1.0183086716,-7.3169404355,-46.9577089048,0.8993357582,-24.0980179015,-10.5828553916,-25.8285739506,-24.2744209636,-25.3483377736,1.5011898774,-8.2186929697,-5.908477624,-19.561997595,-17.7826040315,-29.431453694,4.2986262799,-16.4708364113,1.0335850391,-23.660386343,2.5427271888,3.0107207045,-5.0794927348,4.6859715071,-13.6417749514,-1.5619629432,16.1337534513,26.1913536896,7.283329855,-8.1885807547,4.1647681917,-0.2624506253,1.103381699,46.1042013249,7.8446533835,31.7271353476,-14.7537448099,-14.4406187877,15.7257059459,-5.2099419809,-0.6948341257,-1.4890599514,2.706081396,-28.0911875138,8.8271889747,-16.7088300721,-2.6658609002,-32.4640146608,-6.4079559338,-29.6451893041,2.6148814971,-4.3391843585,-6.5042899237,-2.8264996809,-17.2368001927,-15.5391184874,14.6064435082,-38.9891796579,6.7332115325,13.312910461,13.1040293942,-1.3260494777,-7.9065624703,21.6947803083,-4.1202120504,7.0001192394,21.6663847545,-47.3809189238,0.7013771455,10.6277044811,11.0138786725,-5.9901473523,-4.589561594,-0.769356271,-19.317259387,-22.1549113756,18.4614520542,-34.7808030219,-5.1760391601,-16.1020864597,4.0856112043,-5.9376773856,-1.4516394785,3.2990716806,-26.0029916819,-28.8930135102,14.6038770665,-20.9528656279,-15.4541029497,-11.7701047884,1.8311441485,-4.0133107359,-1.4609856513,0.8068614034,-31.2170578725,-20.5828618115,-3.5911819793,-13.794288584,-19.5380839694,-8.1558175417,7.9485500325,-1.645391347,2.1525908134,-14.8221981555,-16.0685780781,-18.2202102936,-14.5085137208,-27.385107236,-22.2067940853,-3.2258008222,0.6381648392,-1.3863170144,1.7583246015,-35.7553195519,-3.1446579064,-22.2374226191,-2.9481561287,-1.4090481894,-32.7173803358,3.5815549295,-6.3968817924,19.6468993169,-2.587115113,-9.088614883,12.7557875377,-3.8305200618,-6.0972341407,-0.5307407921,-0.6647044357,-0.1230017093,-0.3232871192,18.226768218,1.7272348346,2.3727009323,17.0379926623,1.2392641369,-0.2608260581,4.390782823,0.8898406509,-0.6640155316,-3.7177711863,2.9497504633,3.7195354612,6.949446217,9.9650654179,0.8921248121,13.4017473186,-0.6249168639,3.0404104128,9.4999773606,0.0439023685,8.7153500526,1.1024191417,1.0660983224,-0.7548685374,2.8168406185,13.3139717221,8.0234261651,-1.8893453532,1.6425091346,-3.5782259657,16.467096136,-0.8526280465,2.1900103118,-0.3827423516,-5.7151712577,4.5750574169,4.618450183,-7.9601607988,15.9811260983,17.1140714495,5.4701190601,-0.7372722764,4.9869008729,-4.7192783099,2.8630093552,-0.8301253968,0.7350285163,1.5616333509,4.9465631511,2.4107950729,9.0305114441,13.3996001435,0.1081467589,-0.0640117335,18.8621595999,-0.603411032,5.3167707714,-0.4499150398,-1.8519017279,-0.5857115008,3.4441470114,21.6413891915,-4.3940924675,9.3176228179,4.7701962902,3.0315606526,16.0043447428,3.0487631215,-2.2597409929,-0.9851497307,-0.3016887103,-1.584646496,-0.6405778188,12.5621809963,4.238028087,-19.9937572792,24.4296722348,-1.6720592176,26.5552414872,5.273365549,10.3303017171,-0.6728952006,3.8723468548,-0.1371850929,-0.3097559341,18.3915503098,1.6675691575,-12.4873358595,16.2249340269,3.9023274235,9.7939850814,0.1251081314,6.2598863084,2.0056989746,5.2093500072,2.5752756555,5.0723905504,15.9377664108,-6.2596427665,6.9701892751,2.8027781244,3.4691281271,-6.1632883357,9.7699246955,5.2271040186,3.6091109448,1.0288027024,1.8100403687,8.3995019233,12.1848555715,-9.5499084316,13.6234029018,1.171936494,1.2065469108,-6.0116174524,3.5821553878,4.9418374966,-1.2944773914,-1.1766018286,0.7646109291,6.5834993848,12.5257775976,-1.9904026432,10.3920095867,1.1909240804,-1.7092881134,6.5515428365,-1.6695888987,6.0939671292,-0.0131918303,-1.0118686253,-0.6377136765,1.0935021835,13.4293866927,-0.0160876977,7.8525997705,0.6901476938,-1.2957830227,9.2407935861,-0.8720607497,-0.1815266762,1.3691171582,-1.659337506,-1.6092179882,1.1868742281,-8.2949043414,-5.0293706053,-1.2923991136,-13.4187118838,1.965309032,-1.6393149157,-2.828153352,-25.986205463,-3.5002037565,-16.1303690605,-8.0862628585,-21.1862357383,-8.5173750158,-16.0768953855,1.886405333,-5.0747816415,-0.812044343,-14.6343981112,-12.4505585968,-20.9354056515,-0.8688717018,-17.0751541933,3.6833432019,-4.9520426737,2.0255657963,0.0819892245,1.1627529974,1.2299702042,-4.5372650765,-0.5535512455,8.6697666841,17.1000503466,9.5688014522,-13.6360726725,5.0976787242,-0.3940954824,-2.4548359684,25.8681207737,6.0040743866,19.7081479542,-5.0971635308,-6.8166722961,10.0297145572,-9.715458663,-0.4094159357,-1.6003836934,0.8451129753,-14.2389302645,-0.5340514474,-12.4251521986,-2.2168268543,-23.0907336061,-2.7887664451,-11.5055418874,3.9631125039,-3.5518163548,0.7188363061,-4.8879910971,-7.6732249832,-9.9876766206,1.9824007466,-10.953918964,9.5246287666,3.6134924032,8.9463672874,-1.5199117121,-7.4582023513,8.2814682843,2.4625122394,7.4853144768,2.2875692624,-14.9518992234,9.3967517732,2.4540170699,6.4389055519,-3.3040505294,-3.3597569929,-8.5762065175,-2.3035336369,-8.3400484249,2.935290229,-9.798594712,10.7830033481,-10.4938268254,3.1171184701,-4.2028126173,0.8369399044,-7.1630925191,-7.8673313888,-15.2424694982,-0.1122287806,-7.9493668064,-1.2863443633,-8.7182562333,2.5098179074,-3.4216220647,-2.1593164341,-7.951448412,-11.5459236265,-14.7265307682,-5.8732752602,-5.9432103068,-5.575669544,-11.9158904493,1.9370847889,-0.0604660581,0.3049363636,-16.8858993314,-10.5899932905,-16.3886906311,-6.5896778935,-17.4989686056,-10.4281653068,-7.5806501878,0.9348899068,-0.5734712899,2.4258933286,-22.1207680439,-6.8944572595,-17.8502067364,-2.0237152011,-12.5390875571,78.0740734668,-6.0761777504,1.3854131195,-31.9408805567,0.1350428167,14.7670569868,-28.5986092264,2.5804562239,13.5721835833,1.8756121994,2.7048187166,2.6429419474,2.8830034972,-35.1002790901,-7.2222483334,-7.2259483036,-11.7861738355,-1.6541588728,3.2005722571,-14.2440759446,-2.0002749437,-7.821781068,1.5118147115,-0.8840251555,-7.6437698983,-12.7756541889,-27.4302352504,-2.0814339174,-10.4396723531,-0.3768965834,0.24291652,-30.0368374143,0.6729727878,-17.8916158743,-2.5496353384,-3.8665052946,-0.1102054059,-9.6419351642,-24.3579022768,-5.8641307153,-5.2629370096,2.2144612437,3.2881385926,-28.8476936386,1.9344160336,-1.0328051981,0.6518660825,5.8934453555,-12.385143429,-5.8263989067,17.5901730671,-18.3381162466,-38.6897569671,-10.6094052575,1.2459406836,-3.580629128,2.3915542893,-0.5377577541,-1.1383774126,-1.6362676216,-8.6172164135,-8.7019508588,-2.4837164671,-9.1716363558,-21.421081607,-3.0813280855,2.8276177399,-26.4602904142,1.4670497587,-3.9245541078,1.484142897,1.3208292506,1.7416186596,-4.3364340262,-35.9515263897,6.6821354985,-8.7285134131,-7.6797860523,-6.1583794524,-29.3580089511,-1.1679661889,4.3135878244,2.7976994762,1.0325907273,0.1020107649,1.6662939972,-39.1487363442,0.3485763411,23.5073540158,11.2046528068,0.4949449827,-3.3516165924,-15.5775946189,2.724515093,0.5076319643,-6.3723923157,-3.615726341,3.1784859568,-44.5750231525,5.9576509139,15.8672156824,7.3128111669,1.4616760823,-3.0558389918,-8.4202877759,-4.7525124468,-4.6784927985,-8.058718309,-8.0680884248,-6.8555946424,-36.9065516035,19.7932092055,-9.6582914978,0.7836081951,0.4852442528,17.2183796477,-18.607170143,-6.9415906563,-3.9991629249,-2.0792361104,-7.644608523,-13.9705473047,-19.2888781514,24.9439392695,-24.7891108175,2.1005965576,1.2052638287,19.934121783,-6.967043581,-1.4692903009,2.8848334913,1.5558754115,-1.7572675804,-8.3171608545,-20.1058102957,2.1261030492,-14.8148871796,-4.2512599417,2.4727536512,-13.4690242107,2.289682874,-12.8299100869,2.0363136713,0.3059412176,1.3988311899,-6.5530820412,-23.5724003596,-4.0684624598,-0.1608601386,-2.7916435062,2.8712595484,-20.8397668254,1.3137841119,3.0677947864,-6.1204692715,1.3841844601,3.2255416881,-4.7514714974,28.4663186706,14.8333427825,-2.9575949245,22.3195152677,-1.2598309904,3.2154280348,4.9947826864,62.1062318066,2.8417042102,34.3619039696,20.692437483,45.8159663595,23.1225559322,20.8663103177,-3.9994581423,7.6263561149,4.3557141298,37.8777318299,21.2487953356,48.0940083832,-6.3362527229,35.6036549757,-6.1953458944,21.4267281319,-3.6331449386,1.0092680418,4.6191143816,2.7979088524,16.1513091126,9.6725979591,-16.0844899225,-33.8682504649,-12.4418010092,31.0461761975,-10.1121091462,3.6750201735,4.6366024517,-65.5381555722,-7.5900212002,-39.1892475849,15.4856994585,13.0791887624,-30.7868054543,24.1191974523,-5.838786668,1.5713495861,1.3552030924,28.771376055,-2.5355017505,21.1243698118,1.916387938,41.8151716477,8.991204741,21.6152638206,-5.2761726822,9.3959110178,2.2307256231,14.403636176,16.767340323,25.7954132243,-10.1987239316,34.2400535888,-11.5507001947,-8.1176810959,1.1298255147,2.701989706,19.7552704737,-29.9808291902,5.9099427432,-8.0112521289,-13.2722100727,34.5578140979,-11.5971935837,3.9512291732,2.7824520004,4.7895277847,17.6985455376,-4.8521059591,17.2443741291,8.7367089871,-12.2442438408,24.7299069797,-9.6036982329,27.5531638561,1.4217323405,4.7672505876,9.5857556942,5.6290858673,22.0633490282,31.9989768227,-11.0499213816,16.3942659946,15.455423081,25.6676660045,-0.2236233879,3.1222982898,1.0099521403,14.5107885339,33.0538342977,34.4867847887,4.8436646688,13.9828161231,21.6081139213,26.5563678665,-4.8334659647,2.4560039229,-2.2620493505,40.7158254674,24.2842225358,42.270527655,11.8281895875,32.1724906204,25.7125943915,14.8813421436,-1.3804136033,2.9293918474,-5.2269010443,54.2706584697,12.5601231536,40.3395101657,4.0469775732,14.6301850934,-30.5465174557,0.6366205247,14.0997152945,-22.3073951033,7.755996784,-4.5355869449,-6.6650329216,15.1599021256,0.901069757,-1.2519408945,-0.3636586274,-1.5368558987,-0.5176860474,3.2720554592,11.8772473522,-9.0349862125,-31.4601431344,-5.3591248729,-0.8911754974,1.3236816912,-4.2576829244,5.9034262218,9.9301403909,-10.8225761563,2.127467651,-7.7877866598,8.156225306,-7.8224536236,-30.459688952,4.3609223203,-5.5942980993,2.6315479791,-2.3601614807,-2.5153045416,-4.72431082,0.4592952771,-1.2928612613,-1.0796922166,-16.8109215504,-15.1951173072,14.6671909352,-13.5740144988,8.1870320881,-13.4242743882,-0.8761210086,-4.7941353773,2.8372638119,12.5117331068,3.8370886519,-5.7286354594,-7.5065347145,-18.1576339683,5.3034571017,-2.9919281155,2.5263708054,-2.0676502548,9.3520985589,-9.5741917804,-0.5470092493,-3.7183971536,2.9572573649,-4.9997208615,13.9622161283,-28.9092101604,-21.2752964433,10.162098963,-1.9270131418,-22.3338225133,-1.0115553136,-15.427494154,3.4489438049,-1.6802008226,-0.6392784767,-2.0736007371,-21.4884196602,-0.8148222717,-23.4459382959,-5.4750770613,3.343216319,-15.8158206441,-11.1964408637,-0.5833758113,-1.6108121849,2.9622614542,3.4539420229,-0.9657525478,20.4942273982,-19.1032967468,24.7289507622,-101.5342697182,3.6022677174,-84.7228085088,6.3741151812,-43.7817372547,0.2138100468,-1.9672985486,5.9688139771,-7.2988352832,16.3077433007,-13.3626367028,1.3502289211,-65.2533527561,-11.6666669444,-34.98518361,6.9901553361,-15.5721269427,-2.699401108,-3.5207491622,-0.693319692,-10.8132063413,28.5597981644,-19.506145515,-32.0442790058,-17.0672034649,-8.9496160258,-19.0736923068,0.5678022092,-7.3893751022,-9.2966969266,-1.9259645759,-0.266135669,2.5579896954,6.0362687755,-17.9225857672,-22.1109532129,-7.1028844334,-4.6887162984,-14.1549977601,6.2170878392,-12.1642443148,-1.4093618785,-0.3555090529,-2.1163269775,-1.4714480892,-1.2094029269,-10.3835856846,-14.3516144435,-1.779345981,-1.3366923356,-11.0841193056,-1.2641790117,-5.689535652,-1.4738632651,4.6016686551,-0.4854611051,7.4554694999,-3.2251707267,-3.9234891564,-16.4618689126,1.0577804197,-1.8989971713,-8.0103156314,-0.9636041421,-0.073260061,2.7338777983,-0.3589748228,-0.312110714,5.618152626,1.5342540519,-20.7195253551,-1.9862537384,5.8640620517,-4.4957332442,-0.5585186206,0.9412232768,11.5756033403,-2.2857477574,6.6926956761,6.6827263849,-2.3021082671,-5.6971290592,14.4730126427,0.6037955164,5.4318817072,1.5163919909,6.2294687431,1.8166520813,5.6367647587,11.0357934714,8.8820580138,1.8023983774,-19.8031609114,-3.0476510021,-7.9885168652,-1.8719435871,-3.6468238746,-6.3561041032,-10.7540512237,-21.8164228821,0.7052254306,-10.2786993465,2.1571225984,-4.5422525031,-5.0518044044,0.1400806435,-14.937840678,-5.0153109127,-14.0314373186,4.8800469237,-10.2406365579,4.270979045,-1.4607864739,11.3039350233,-0.7290885955,-8.2255712352,8.1324716539,-2.9195296609,8.5094290246,11.2207151607,17.7221083021,-4.0407494746,-1.8209922013,-1.8548430878,-5.8463825323,2.6787269807,-0.077195543,1.7076695508,0.2068580271,1.1458624081,-17.8668098492,-15.4425703931,2.1166547666,-29.7614668907,-4.0327378539,-5.172584865,9.7518229365,-14.8780133438,-13.7706718392,13.280197232,-8.6559292693,-13.7226001473,-9.7037727249,-29.681621682,7.5196934056,-15.6745095123,31.8790102089,-14.0703303417,14.5604081413,13.2240789532,-17.7322232966,-31.6840534838,4.3124430056,-10.6709219309,3.5388603374,-14.2422362598,18.3335897401,-10.1569073516,11.910017564,20.3818355488,-7.4649713665,-28.3461352074,-6.352402494,-7.3332925677,4.142037234,9.4732308632,13.7096874325,-11.710873367,4.2516933812,29.4063963292,-4.4647864285,-19.6888605523,-4.3399057838,-1.1682129705,-1.4430251919,5.0428662769,14.8490366551,-11.4063613994,0.8566949092,14.8703606841,3.3913328572,-11.3051244223,-2.8626140658,0.746940595,-1.7346086137,4.7883410418,9.4230660938,-3.73361338,3.791132509,-1.7314243276,4.2579408039,19.1949205926,-4.3529607272,-1.1525092246,6.3194706292,-0.3435057362,16.5525359303,2.328057074,-6.5022593396,0.8913584142,0.2613476101,1.1223267032,0.6982762235,1.6851302651,-21.0581293941,-5.7032308687,18.3899849357,-15.4363895268,2.0483927134,0.3340223153,5.9556480766,0.4782316599,3.0869506711,0.3703457235,2.573684487,3.3095751208,6.3245627598,-10.3952066486,15.8105744554,-5.2423754272,-4.3056107979,0.0519169727,1.1983168183,-1.1885092985,1.4792908505,1.4300958038,2.6464439729,0.3711442689,1.2349963505,-1.9037455506,4.8562896428,0.7808437027,3.1191668364,-2.8860501222,-6.5392191501,0.2518637748,1.4767349675,-0.3569068391,-5.1377872873,-1.9345166193,-1.3848614153,24.9700418436,-17.1964427075,-15.3526523226,-6.7829722016,-0.5355773536,-23.8140886076,-3.1365182425,2.6818756175,-0.2557470791,0.05022231,-4.4742566609,3.5961711555,-4.8150546025,18.8878476379,-11.5312936916,-7.3155060386,0.7495838915,9.9691008619,0.3540753942,6.7924151014,-1.4024727358,1.5217333697,-1.649463203,-0.5101137172,-5.4756223227,11.5488050365,3.4558753291,-1.9879707996,-3.5614467837,1.1483059903,1.7703415907,-0.6431633942,1.3822934406,-0.1847858117,-0.1024468899,1.0490338816,4.805850087,-0.9216074059,-3.9215617492,19.1886725699,-1.6471262651,7.9739791989,-6.9907743823,7.0151016638,-0.672481975,-4.2233214631,-1.3318077022,2.518178819,2.3082367858,-2.6739678822,2.6409018126,15.1118467452,2.5009152084,0.072903052,-2.3791366403,-0.5009696248,2.7800804057,-1.8029895585,-1.2777663623,0.1561760273,-2.6696940307,-0.1288003859,12.1639660109,3.8165329798,1.2702752053,1.849352647,-3.0439287473,-0.116080424,3.7176164713,0.2119595983,-3.4311432396,0.4191362261,-2.3991731603,7.8248599679,4.7521885132,1.5354955956,0.5607151588,2.0017721109,-0.1470025274,6.4793426646,1.7710291363,0.7349205906,-0.7361426239,-0.0752347848,-2.9790224537,13.7292888499,-5.1332326673,2.8290772081,1.8786121726,8.537823169,1.7807680528,9.4595304514,0.7632047475,-0.9588278186,0.5577631989,-2.4051794811,-6.3236043223,15.257374862,-9.3157637237,-0.396663237,1.4054972894,8.8525298614,1.4769468429,1.3533460946,-3.9433584704,0.7628673758,0.2907343623,0.81768932,-3.863921887,11.7870887079,-1.4987292962,13.5872069058,0.7130907131,1.598548723,-1.5152822677,-0.1979537608,11.3369171556,6.8802316613,-2.7016872462,13.3397875003,2.5589185403,7.188971138,-3.0521322766,1.6006392799,-4.2111671141,1.9605617252,9.1289521432,7.0870204176,0.8925650024,6.4558988324,-4.6991936274,5.3651568843,-0.9789005469,5.7257666874,-3.8700820006,3.4877725395,-0.260502602,2.8717258773,12.0912704476,-8.3699753041,-8.0059254308,13.7742640592,-6.5951559729,3.5141148836,5.6371057648,2.3229421978,-6.0504220395,-3.0597283417,-3.6303341416,8.4806482866,-3.2614709092,13.6759173552,-5.2428231363,1.6041105472,6.0943809979,-1.5761812148,10.0749156181,7.2056073623,-4.1265400652,6.9228792958,0.0133493281,1.7598959059,-1.8703366035,4.6216227654,-4.8032382582,1.5802197218,1.0486432206,2.9518965904,8.8754891501,-3.3924001248,-4.34936641,-0.2274784007,5.6138613646,2.9668466897,8.366857053,2.0581981826,-2.6265373201,-0.3139986917,4.5805991103,-4.1300264547,-7.7864072878,3.979215532,6.1879144509,1.337860228,9.6421042915,-1.0891071009,-4.3477992992,-7.514729366,3.1334918082,3.4927654452,-6.8668605532,1.0494988099,2.9777574433,0.9854552836,3.1666203091,2.4326543901,-1.555225592,-1.1241689041,-0.7779550703,3.5423241202,0.20802272,6.5321355193,1.8284973766,0.6085792967,-2.2737442606,1.8934599529,3.1580392232,5.7420176018,-10.3709110441,4.6603222749,5.4986714223,16.7312237292,1.8305723201,0.7242081553,-2.1109324588,3.9519890543,13.1085517001,12.9427123168,-8.1572320963,11.4722087047,7.1351964325,11.7407869631,-0.480445057,0.2821464857,-4.0922789039,0.8986341205,13.0308281874,10.2327019341,1.9894384749,-26.1447098723,91.9996572132,-2.3903244037,2.0779216789,-50.1163801733,-0.93935544,-15.3230963096,-38.6482668628,9.9551293638,15.7398140584,0.4820029863,0.7764677672,0.2181777581,0.4946920216,0.082633026,-3.639384489,-39.8459969826,18.2571635933,-4.0763242399,1.7581257646,-31.8311736618,-1.4632145016,-15.5966191392,-3.1278141813,-1.5262024472,-15.3290887623,-25.8555746332,-12.6018701877,-32.5645174748,-3.6944631956,5.3895507592,-1.0209220606,-35.0830873198,3.4760522736,-24.56241553,-2.8210763941,-8.3433269068,0.8148427827,-14.8717892126,-14.5999578141,-15.4226390024,-20.5559175702,0.2449069727,5.7873671847,-18.1965839354,0.4429284318,-6.8954777199,2.2340549304,12.9018103015,-11.3981780499,-3.8268869331,-23.5783775863,5.8934373956,-17.2259385466,-2.1438093752,2.4651342461,29.387458484,6.7170738842,-2.9617858725,0.1299957638,-0.9165078957,-1.7522941524,-18.4373967627,-2.9963961865,-37.7754101322,2.6343692954,3.8578731125,0.5780936613,-49.4463646167,1.9597055428,-14.6845539426,1.4294005688,0.4084494625,3.8375752371,-2.5010808801,-25.3002978912,-14.5496910977,-17.9285994739,-0.6897376343,-3.665203945,-32.9875432687,-2.4024347707,3.5998607168,1.208841799,1.4536796913,1.9392215689,1.7632245434,-68.1746878981,7.466213085,37.076789451,-3.0889738795,2.5747435437,1.7831183146,-8.7574163337,-2.6824681576,1.5011071376,-0.1463503178,-5.7748264907,4.1073521864,-72.8820541744,15.883755906,20.2491728514,-4.0806565985,-0.5877807195,9.0638087167,-9.2600314092,-1.1976696069,-8.5294923633,-5.5381791653,-8.0954983928,-4.3154554708,-58.2614746792,33.5379195598,-20.8971188197,-0.6869842026,-0.6875685311,27.5320320887,-19.8578268403,-4.5172774135,-11.2755801244,-1.6913024821,-2.0823040505,-22.3544541569,-29.6014200907,22.0988211749,-31.0759187695,1.4387971245,-0.298018769,26.1907289641,-10.1889704796,-10.0657870659,1.0834929634,2.0873361826,-1.4827641886,-13.4562651364,-20.5033452066,-18.4628297062,-6.270594004,-10.2472417225,1.5455429083,-28.7495452381,1.6501755726,-33.2457813283,0.3058753601,3.2491185061,0.9617550134,-8.3326454442,-17.6554599032,-31.2726400363,17.3795780758,-1.8438724273,1.9596924033,-37.1239508683,1.5625509745,1.255860619,-2.3405865215,0.7763144438,1.5084796582,-11.5627477632,40.3348001512,5.3652920575,4.6309938061,3.1817636744,-4.1148465277,2.0898722712,9.8658518755,70.0726950551,-13.1332153811,28.7581237734,23.0384972826,29.8561237443,30.4820538845,17.6522336064,1.0920047297,3.7072366928
