encog,BasicNetwork,java,3.3.0,1,1463721336577
[BASIC]
[BASIC:PARAMS]
[BASIC:NETWORK]
beginTraining=0
connectionLimit=0
contextTargetOffset=0,0,0
contextTargetSize=0,0,0
endTraining=2
hasContext=f
inputCount=279
layerCounts=9,401,280
layerFeedCounts=9,400,279
layerContextCount=0,0,0
layerIndex=0,9,410
output=0,0,0,0,0,0,0,0,0,0,0,0,0,0,0,0,0,0,0,0,0,0,0,0,0,0,0,0,0,0,0,0,0,0,0,0,0,0,0,0,0,0,0,0,0,0,0,0,0,0,0,0,0,0,0,0,0,0,0,0,0,0,0,0,0,0,0,0,0,0,0,0,0,0,0,0,0,0,0,0,0,0,0,0,0,0,0,0,0,0,0,0,0,0,0,0,0,0,0,0,0,0,0,0,0,0,0,0,0,0,0,0,0,0,0,0,0,0,0,0,0,0,0,0,0,0,0,0,0,0,0,0,0,0,0,0,0,0,0,0,0,0,0,0,0,0,0,0,0,0,0,0,0,0,0,0,0,0,0,0,0,0,0,0,0,0,0,0,0,0,0,0,0,0,0,0,0,0,0,0,0,0,0,0,0,0,0,0,0,0,0,0,0,0,0,0,0,0,0,0,0,0,0,0,0,0,0,0,0,0,0,0,0,0,0,0,0,0,0,0,0,0,0,0,0,0,0,0,0,0,0,0,0,0,0,0,0,0,0,0,0,0,0,0,0,0,0,0,0,0,0,0,0,0,0,0,0,0,0,0,0,0,0,0,0,0,0,0,0,0,0,0,0,0,0,0,0,0,0,0,0,0,0,0,0,0,0,0,0,0,0,0,0,0,0,0,0,0,0,0,0,0,0,0,0,0,0,0,0,0,0,0,0,0,0,0,0,0,0,0,0,0,0,0,0,0,0,0,0,0,0,0,0,0,0,0,0,0,0,0,0,0,0,0,0,0,0,0,0,0,0,0,0,0,0,0,0,0,0,0,0,0,0,0,0,0,0,0,0,0,0,0,0,0,0,0,0,0,0,0,0,0,0,0,0,0,0,0,0,0,0,0,0,0,0,0,0,0,0,0,0,0,0,0,0,0,0,0,0,1,0,0,0,0,0,0,0,0,0,0,0,0,0,0,0,0,0,0,0,0,0,0,0,0,0,0,0,0,0,0,0,0,0,0,0,0,0,0,0,0,0,0,0,0,0,0,0,0,0,0,0,0,0,0,0,0,0,0,0,0,0,0,0,0,0,0,0,0,0,0,0,0,0,0,0,0,0,0,0,0,0,0,0,0,0,0,0,0,0,0,0,0,0,0,0,0,0,0,0,0,0,0,0,0,0,0,0,0,0,0,0,0,0,0,0,0,0,0,0,0,0,0,0,0,0,0,0,0,0,0,0,0,0,0,0,0,0,0,0,0,0,0,0,0,0,0,0,0,0,0,0,0,0,0,0,0,0,0,0,0,0,0,0,0,0,0,0,0,0,0,0,0,0,0,0,0,0,0,0,0,0,0,0,0,0,0,0,0,0,0,0,0,0,0,0,0,0,0,0,0,0,0,0,0,0,0,0,0,0,0,0,0,0,0,0,0,0,0,0,0,0,0,0,0,0,0,0,0,0,0,0,0,0,0,0,0,0,0,0,0,0,0,0,0,0,0,0,0,0,0,0,0,0,0,0,0,0,0,0,0,0,0,0,0,0,0,0,0,0,0,0,0,0,0,0,0,0,0,0,1
outputCount=9
weightIndex=0,3609,115609
weights=##0
##double#115609
   -0.6407173939,0.8255244303,-0.9456477051,-0.3566517762,-1.0011788277,-0.1769074574,0.1634554837,1.1086420156,-0.3569923162,1.0067961506,-0.0267225645,-1.3144640578,0.01036214,0.0384684897,0.589787254,0.1733524947,-1.143052926,-0.2063978521,0.2577909808,0.3735471589,-0.9547738363,0.7241801106,-0.2892285216,0.5475803733,-0.0094067507,-0.1995676248,0.4357941099,-0.0775730398,-1.1516709781,-1.2289662723,-0.154836865,-0.3483625016,-0.2498320845,0.5764029702,-0.0078985652,-1.1033440212,-0.1799300842,-0.0564306609,-0.7168550106,0.1552683078,1.3741469751,-0.8934982626,-1.4679275989,0.3543277225,-0.2962955099,0.1299371899,-0.2917570558,-0.0435390949,-0.4356610976,0.1470336531,-0.6335205172,0.4029313689,1.1078301482,-0.7586392211,0.7155645821,-1.2617366829,-0.8867461936,-0.6703477995,1.1540669764,0.661206144,0.4480655352,-0.2874854548,1.0484611042,0.7455789033,-0.4377635476,1.1401563649,0.9910483555,0.0788755955,-0.0483520125,-0.2549348182,-0.4726585582,-1.1053134524,0.745472698,-1.3002876075,-0.342850675,-0.8019081268,0.8493349999,-1.2718236563,0.0696683351,-0.2316002213,-0.8620154396,0.7601963025,-1.1737657479,0.4589537922,0.6748214096,0.2061733832,0.7991645766,0.1665044682,-0.4004727281,-0.5338004305,-0.2074374025,0.0803693574,-1.3425313885,0.3746523878,0.3307290648,-0.7285061782,-0.4570518285,0.9583935188,-0.318008737,-0.6220942659,-0.1168516284,0.2371738278,0.4385588814,-0.021321168,-0.2678737986,0.3344938264,0.9270387168,0.9088413708,1.2143724648,-0.6268670544,-0.6203349057,-0.145509782,-1.1465705946,-0.7050357519,1.1868901468,-0.9216695337,-0.4560747844,-1.3223956077,0.193865674,-0.4371667869,0.3108642553,1.3100283233,-0.123982243,-1.1620952667,1.3839100248,0.5949978064,0.104391456,-1.0232732098,-0.0693865308,0.4572042107,-1.1565764315,0.5100102556,0.7271418409,0.7133082628,-0.2377158638,-0.3792917944,-1.9173567755,0.89375031,1.3064185617,0.3607467522,-0.5191619269,-1.1185760219,-0.9010983091,0.2729071638,0.0042738296,0.4191096999,0.8371978439,0.2616359897,-0.7529696077,-0.1030459884,0.9260031716,-0.5920387757,0.2311084557,0.1697520452,-0.7787213248,0.2680670809,0.7648415493,-0.1558195025,0.5479685609,-0.7326385966,0.6979041152,0.4834933913,0.8732245658,0.2189076163,0.1772604883,0.6149457087,0.0192639819,-0.6524874702,-1.2831276805,-0.3780990739,0.2162423804,-1.2404991049,-0.5184234644,0.5303294757,-0.0202467957,0.1204055646,1.4080043252,-0.5818744668,-0.4279254814,-0.1486807555,-0.6200990718,0.5152062172,0.0517808372,-0.6891536334,-0.1321476836,0.7770604839,0.0858630827,0.425186435,-1.1024213942,0.2590560589,-0.3419722667,0.3794961718,0.957105814,-0.8881676149,-0.4978869121,-0.9971272591,0.8960700406,0.4016945995,-0.0776585136,0.1146401014,-1.0286399042,-0.1524204168,-0.568234553,0.7966239447,-0.2139377997,0.4913684586,-0.3825774215,-0.9562830317,-0.2868807674,0.3717526871,1.7918904604,0.7270986566,1.2956841233,-1.1282347905,-0.0288224093,-1.3296430711,-0.4270912097,1.1997232733,-0.1827247019,0.0591993432,0.0700680258,-0.2469825186,-0.6316255748,-0.7880313111,-0.5713674674,-0.7836868353,0.5304193003,-0.6071043169,0.9492231293,0.1886483602,1.0807905427,0.4487385842,0.4355000857,1.0498144251,0.0009195385,0.7419137922,-0.6232717342,0.7650181551,-0.4593701825,-0.9411235237,0.3990259328,-0.1722929493,0.3059493566,-0.2304787699,-0.6133743623,-0.6197075645,-0.3013269146,-1.2369334925,0.8094647201,0.0985799489,-0.0450122503,-1.1810084129,0.8110997213,0.229300452,-0.7601923782,-0.073328684,1.1223259534,0.3099665426,-0.234698401,1.3795498275,0.2207364732,0.4480589417,-0.9589177039,-1.150872423,-1.0355270652,0.489658938,0.7170568741,0.4720355887,-1.4220064948,-0.548397239,-0.1187521964,0.4173163792,1.1868652933,-0.621519824,0.4649778447,0.5044886538,1.3609872236,-0.1469473016,-0.3729248841,-0.774537645,1.1757794386,-1.1636184128,0.3914718026,-0.7829397469,-0.4828933687,-0.0733356984,0.3746631622,-0.3318207623,-0.1005597169,-0.0337888496,1.0041041027,0.7942798648,-0.450221734,-0.6375837884,0.1730227502,-0.6060626476,0.2496165473,-0.0046830763,1.1898221522,-0.1791356226,0.2790301869,-0.9004142048,0.2397156596,0.7441892944,-0.526109295,-1.5209043649,-0.5163697301,-0.9552091988,0.276336627,0.1019260718,-0.1353024506,0.3255758507,1.1949269269,-0.2947576721,0.464575137,-0.0401819258,-1.2692588591,0.5974523911,0.1543313181,-0.0422141761,0.8130664853,1.6135148568,-0.3597580437,-0.1370838669,0.1404865632,0.7290091472,0.1780031064,-0.3818215465,0.9279619968,-0.0688125427,0.621366175,-0.4414094168,-0.8983444273,-1.3605945873,0.3045661493,-0.0623822716,0.1528468272,0.2905902816,0.0467496669,-0.3974679422,-0.1861670159,0.518469923,-0.1113315133,0.0925128081,-1.2357914916,0.370946923,-0.6862173816,-0.272598499,-0.3250113902,-0.2534284532,0.5809951292,0.3754606751,-0.5115470551,1.098499061,0.7433675826,0.6676516031,-1.0073861207,-0.6711656176,0.7806108814,0.2672079672,-0.4509436212,0.344875362,-0.05156659,0.8534344015,0.5081274112,-0.0920849009,0.456769719,-0.3060025668,-0.5617833847,0.2504626693,0.5110498124,-0.0968430073,-0.1570012127,0.1880312671,0.8743839555,-0.6958390537,-0.4709617555,-0.0369261788,0.646335024,-0.8801051595,-0.2933682137,-0.4975663707,0.3709397544,-0.1434258751,0.6295481025,0.4696874884,-0.0391085099,-0.778595388,0.1902071889,-0.0630387902,-0.9568647737,-0.8538426912,0.9616528966,-0.2201220267,0.1825897693,-0.343704055,0.7793144013,-0.2758249345,1.1357425087,1.003151734,-0.8312169033,-0.749122976,0.2132081627,-0.2524674991,0.5014562568,0.4451650551,1.2024799423,0.038635315,0.0282351063,0.1941429683,-0.0564592974,-0.3936926497,-0.1661591384,0.5432913121,-0.1158302988,-0.2473287047,-0.3331959259,-1.0272186414,0.2320080519,0.3404382643,-1.1119103288,-0.4053474738,0.4855319077,0.4577379486,0.4003793319,-0.3682183733,0.2171353507,-1.1253262934,0.5812111396,-0.1269612081,0.278615076,0.7999362016,-0.4907686943,-0.3461402781,-0.2685870476,0.1753860295,-0.6671663508,-0.2867523376,-0.5226031888,-0.592991541,-0.0184383268,0.2396624814,-0.2574495541,-0.0671988226,-0.5710724319,0.2374861772,1.054280425,-0.6027178212,0.0703735321,-0.4196344296,0.288452244,0.5463357246,-0.3573119692,0.1008815161,0.0543922054,-0.6831901888,-0.0005669018,-0.3929397307,0.4263570753,-0.1022690974,-0.1304891178,-0.1795994253,-0.1840354071,-0.2420811426,-0.6224465528,-0.3007582178,0.3753489565,0.7375840797,-0.4651647612,-0.8412358505,-0.392532975,0.315498044,-0.1775014298,-0.0111099009,-0.2882087258,0.1436982076,0.1893723435,0.5621416387,-0.6466578352,0.136776483,0.0230715057,-0.6211681181,0.6230662976,-0.4828709624,-0.3851582238,-0.1035162457,-0.29080269,0.7143002397,-0.2233891999,0.143766944,0.8290254932,-0.7784582698,0.4797086028,0.5629392434,0.2789593948,-0.2870199369,0.5013112692,-0.4238673552,-0.0819985486,0.4876688284,-0.3681951742,1.0046735501,0.4395524766,0.5582414779,-0.1641808297,-0.3327583154,0.5357981411,0.1034192499,0.1398644515,-0.0004787431,-0.3286510034,0.3810357284,-0.6158751115,-0.5876099034,-0.2117340459,0.6909202504,-0.4578532642,-0.11459223,0.0642038731,0.1175498819,0.2665974039,-0.5248947616,-0.0342639854,-0.6249131375,0.7848877307,-0.2189517259,0.5987407502,0.1685714244,-0.4068130083,-0.8999292582,0.7750653477,0.2910856024,0.7223072444,-0.2654816729,-0.2870513058,-0.0663593728,0.3619439811,0.4182336498,0.9883381476,0.6783591122,0.0879362947,-0.557464048,0.1227675202,-0.5478880844,-0.1247749434,0.2900164993,0.1970074952,0.5491950066,-0.2643597269,0.1276962264,-0.4584372124,1.0371033399,-0.439985782,-0.3554514909,0.6068152948,0.3280899985,0.1399139249,0.8883906114,0.0151423611,-0.5838857514,-0.3070059777,0.0464603128,-0.0710305751,0.3186612366,-0.2215346954,-0.4483017333,-0.6403565719,0.0744464359,-0.100937224,-0.0571854105,-0.1083313947,-0.7198462108,-0.2879048102,0.0415037606,-0.5661511211,0.1939376545,0.4671053045,-0.4908105574,-0.6484383001,-0.0077349354,-0.2528832809,0.413357235,0.2445648035,0.4472831425,0.0577357753,0.2584885915,-0.3522240525,-0.3930961572,0.2278040224,0.3992311421,0.7090711919,0.2611008446,0.316066337,0.1387639481,0.0978777082,0.1699861619,0.7011065902,0.8142191483,-0.2984368434,-0.2970718897,-1.2017034564,-0.5044051611,-0.2127538881,-0.6339956578,0.4381574768,0.8489893516,0.2090236357,0.1273469843,0.5283847484,0.3284258902,-0.6697863046,-0.0881343598,0.5124386589,0.7210366687,0.2630173412,0.3696308335,-0.110059336,0.5481889315,0.2693190226,-0.3468670482,0.0371564674,-1.2024711376,-0.0529385514,-1.0744619459,0.9784397737,-0.3701999973,0.8383835114,-0.150318562,0.3210211922,-0.7117834076,-0.0753266839,-0.1793165113,0.6711917678,0.5469848795,-0.4401595223,0.690171321,0.0026780419,-0.063793281,-0.4091714129,-0.4858016481,-0.8010720289,0.0038576155,-0.0092900426,-0.9855108705,-0.6865643136,0.007040744,-0.1231456216,-0.2864959572,-0.8642158926,0.8991221242,-0.559141267,-0.3201232901,-0.7052829864,0.5011685534,-0.2382803296,-0.6860209692,0.1370776373,-0.6727138082,0.1225538246,-0.8227270207,-0.8937669712,0.185125307,-0.1965350386,0.1798543053,-0.0335564344,-0.8478670504,0.9184736879,-0.3371742086,-0.1190908294,-0.6542505461,0.2425933803,-0.4253914813,0.1701205219,0.3455238425,-0.4525891459,-0.0018010852,-0.1395045326,-0.160830776,0.203425743,0.3992976696,-0.6105939664,0.5573451438,-0.1894491904,0.0437895724,-0.5268746176,-1.2530150097,-0.3803130007,0.4787924114,-0.4870476393,-0.4200985483,0.3836938973,0.3007583909,-0.3152177166,0.2062372393,-1.0396991081,-0.5257817996,0.9889949029,-0.1115449306,0.305474434,0.9076701434,0.4251245529,0.3873389772,-0.8843623348,-0.8352973858,0.4460781787,0.5971218889,-0.0224945358,0.2323182221,0.8453192229,-0.1015411224,-0.3891233929,0.336831037,-0.2589374344,0.6379052036,0.1055735805,-0.5253020153,-0.1480489045,-0.2125294285,-1.2133504478,0.343408745,0.5287719873,-0.135608377,-0.0189430329,-0.7553593684,-0.064615212,0.5003787269,0.2811847423,-0.3960409595,0.5611854102,-0.2325505503,0.3358990867,0.2330600695,-0.7159893754,-0.2672923633,-0.4636060654,-0.213334753,-0.6139466617,0.2662020539,-0.1505992655,-0.5200824752,-0.2962403036,-0.5817859928,-0.1211760291,0.0676733971,0.5102031072,-0.3825822438,0.2089443657,-0.1158293713,-0.6135306043,0.7406935394,0.670358597,0.2289427619,-0.6832696548,0.456249917,-0.3400840502,0.7250650358,-0.0680913085,0.2368969955,-0.5164065639,0.3177715189,-0.3944815101,0.2835637663,0.3314900202,0.3852048664,-0.4022401157,-0.4018915429,0.4250545615,0.4370871431,0.1931431903,0.2091152592,-0.9005352518,-0.1089249382,-1.0940010716,-0.57453835,0.1142102117,0.7376706126,-0.181615482,0.179841725,-0.5620055045,0.0308178338,-0.7321079364,-0.1925530431,0.4263607055,-0.4857316629,1.1921650076,-0.0718581514,-0.0746424871,0.0893950906,0.9175242125,-0.3422417267,0.0988385394,-0.534819952,-0.1586362224,0.3573150716,-0.2037645332,-0.6293536824,-0.2404552634,0.2750897057,0.9258087912,-0.4574341934,1.1929944707,0.5327917045,-0.3495972945,-1.0038924028,0.003941455,0.4802651976,-0.0344666892,0.7129016352,-0.9053551574,-0.4731060385,-0.1114619799,0.1839563661,0.5119922199,0.7857340126,0.4788856121,0.7844145585,0.7319801576,-0.5518796166,-0.233310384,-0.1604575306,0.0275678242,-0.5119803152,-0.1658709157,-0.1963111462,0.262982319,0.1930978568,-0.2014050937,-0.2196140546,0.7624848513,-0.3529661042,0.8287516018,0.0085716048,-0.0007924222,0.1136280118,0.1664679481,0.0384468562,0.7704007939,0.7357138088,-0.3637403125,-0.2646495431,0.6426938815,0.5460007356,-0.3726658009,-0.2508720987,0.4795784145,0.1249079426,-0.5422097767,-0.2323006485,-0.7405743077,-0.3119318535,0.7877070678,0.2286175851,-0.1490475746,-0.5389443106,-0.7759335161,0.8201348332,-0.1244238475,-0.863050239,0.8964420207,0.0716031045,0.6868688843,0.1329245406,-0.738472603,0.0817908888,-0.2205027415,-0.2332879551,0.3097755184,-0.3528339444,0.4840897567,-0.1667621282,-0.0755591883,-0.2118616181,0.1750069605,0.5363778513,-0.2482970679,-0.0396566934,0.246384311,0.0846967122,-0.4833702121,0.1800065133,-0.0458139925,-0.2040856796,0.4045020426,0.2095799327,-0.2027159226,0.0688722563,-0.3236660305,0.0764334981,-0.0076417176,-0.0355377762,-0.4662087799,0.8210591286,-0.8281479887,0.3525938089,0.3453843478,0.99734133,0.0397357866,-0.0698522978,-0.354695688,0.0460429285,0.7243328057,-0.1222516468,-0.0252723049,-0.3726959151,-0.4764514435,-0.1665398293,-0.139146997,-1.0610914969,-0.6681337125,-0.000528509,-0.7107308412,-0.3476195106,-0.3031674119,0.6058521993,-0.535730571,-0.5034846408,-0.5393448996,0.0008308714,0.3451570831,0.7626523462,0.1492261188,0.7497469743,0.2915882326,-0.7799431827,-0.4948636458,-0.1968643097,0.0065847732,-0.4746723365,0.4547077636,-0.624555541,0.1738549128,0.1038524959,1.0311051329,0.6652747827,0.0070919615,-0.8339598777,-0.4472756319,0.2773189254,-0.7839607602,-0.0045839542,-0.8067773655,-0.6477097854,0.819456448,0.1718264795,-0.2625141722,0.060298193,-0.0236685832,0.0962479137,-0.2128074634,0.49611066,0.2304976801,-0.2070013415,0.0325259597,-0.3253393162,-0.7162772132,-0.3173718614,0.2899163042,0.2867299117,0.792228228,-0.0953435594,0.5655636552,-0.1370240907,-0.0740050764,0.1029887422,-0.7302431491,-0.4851582764,1.2880097514,0.3537638887,1.1280453593,0.2393939725,0.3698919601,0.1180099725,0.6645078816,0.4719846795,0.1952990916,-0.242059135,0.6622754432,0.6602017829,-0.3916342972,0.031190295,-0.6680396903,-0.3878051583,-0.0513777537,-0.6106385052,0.683264287,0.0686999315,0.7699667277,0.198206179,0.3708308725,-0.2764423468,0.0362987434,-0.1061470667,0.3737455166,0.0681590207,0.5138661797,-0.1295242154,0.1624203551,-0.1552290559,0.7964936118,0.0903688205,0.6146131,-0.0504819495,1.0482979788,0.1913774552,-0.11948813,0.7518137903,0.2352312244,-0.2971902236,0.0933756004,-0.2005618098,-0.2478246594,0.7880167772,-0.3977467201,0.1340070202,0.1757959904,0.0440811394,-1.1252150706,0.7407406826,-0.7092957224,-0.5753802123,-0.8068844125,0.3070850522,-0.0354923126,0.1416141456,-0.0823439063,-0.6260921509,0.1812778247,0.0666511926,0.0070810043,-0.1896093611,-0.0211728988,0.7568726735,-0.4132772751,-0.3761993121,-0.0614885871,0.4332441259,-0.1137965269,-0.2816171661,0.1371527719,-0.6208117465,0.2988534942,-0.8809597208,0.2430080641,-0.4714529931,-0.6840648435,0.5118237031,0.2572232667,-0.0577895651,-0.0437946206,-0.2091955321,0.6371843864,-0.3518538218,-0.7366928348,-0.0860626948,-0.1426101186,0.2258127806,1.0870075345,-0.2361990652,0.205354032,-0.1772576576,-0.9504418122,0.1419299033,0.6491896308,0.1483707414,-0.1963341458,0.6587337981,0.0128821229,-0.2814066455,0.6664811432,0.2463281009,-0.3732702556,-0.9127855462,0.1682944025,-0.8637930356,0.8084934171,0.4392355902,-0.4453256612,0.4338755504,-0.1605033181,0.0529848987,-0.5268145632,0.6388228077,-0.225412992,0.3674958766,-0.7483062666,0.7475588804,-0.9877312511,0.4851006254,-0.7308460052,-0.367469676,-0.3133658784,0.624037602,-0.3744187952,0.0856124222,-0.935962359,-1.0921593782,-0.2400449579,0.0356185591,0.0145889228,0.7214692869,0.5646537039,0.163657195,1.0742437227,0.0631275125,0.5706875679,0.7526410264,-0.0580429602,-0.3120361684,-0.1972503718,0.1370667713,0.3535537749,0.9090785395,0.0222707124,0.2469867783,-1.085021815,-0.8772586708,-0.4054027225,0.2878786291,0.7233709822,0.5735760558,-0.7491468466,-0.7146437874,0.6873353629,-0.568211283,-0.3339496655,-0.7077554724,-0.2870345566,-0.0331865872,-0.4589249382,0.0927077007,0.0821994574,0.6232613197,-0.0294857521,-0.1101347002,-0.5452567567,-0.896583339,0.3031021263,-0.2621238513,0.0591628932,0.6719846045,0.5787585315,-0.3521695348,-0.0437690258,-0.3448134752,0.7935494564,0.8041982878,0.0198174534,0.1976711996,-0.4186256194,-0.6755944674,-0.4701239288,-0.3347169856,0.5976544955,0.4037675967,0.2026553064,-0.8711243103,0.1563979168,-0.1424079131,0.4065841214,-0.3349273956,0.492556488,-0.2699710194,-0.2499264342,0.2471130926,0.8780412911,-0.2435999067,-0.4569927557,0.3200813308,0.7474212549,-0.7380796065,-0.7078766078,-0.3406472179,0.2564774307,-0.3147079159,0.0524155605,0.5480844588,0.3822491859,0.4347453091,-0.8365675604,-0.3794876331,-0.6577473943,0.7152759528,-0.7287928589,0.0873333812,0.0676696515,1.0186943485,-0.2049209107,-0.3158027486,-0.3907970712,-0.3346304766,0.0159261314,0.6652030738,-0.4460131391,-0.1717914428,0.4428281328,-0.3447033959,0.8637782093,0.6927132142,-0.452898463,0.0738932763,0.6209046319,0.117254984,0.4424251951,0.1860904336,0.3566289148,0.7732595681,0.4731187556,-0.8257752609,-0.2946649583,0.0029935058,-0.4235605317,0.306565807,-0.4453995064,0.182039836,0.5681623597,0.7316891373,-0.1513260376,-0.1438891645,-0.2031996869,0.5358726204,0.4808816054,0.5683215572,0.2335046809,0.0014297792,-0.0646632474,0.2776331607,0.9670058659,-0.4006856684,-0.2293297423,0.0496849377,0.168719547,-0.3392962576,0.114608982,-0.5095669529,-0.1697437668,-0.228868257,0.5655049387,0.2402098687,0.7266410116,0.606895401,0.5745253396,0.5169768415,-0.2370295989,-0.8972814326,-0.2847475838,-0.423308189,0.1003514873,-0.1589232152,-0.1359797764,0.1797253508,0.2016575228,0.1669847834,0.0472933327,-0.4669143634,0.5712122777,0.5394977729,0.2796868177,-0.4030050412,0.579652785,-0.3877749978,0.0577936512,0.4252773141,0.0238637871,-0.1770758847,0.0788316057,0.607293654,-0.3397636107,-0.0780820748,0.4047855857,-0.1433755572,-0.6748679658,0.8000982369,-0.0460395395,0.0255328527,0.0014097387,-0.1047239323,-0.4456819208,-0.1824468735,-0.2958233063,-0.3068188875,-0.550186554,-0.1963131036,-0.7472460154,-0.6224120609,-0.7812484778,0.4704593639,0.6546075639,-1.2238675515,0.2397192033,-0.6113945399,-0.3158877879,0.0875807424,0.3511670463,0.0086945532,0.2675765886,0.7456604062,-0.1973861742,0.9769419044,-0.0061358295,0.5119528326,-0.0477042558,-0.4824593782,-0.808197022,-0.9069792475,0.2030364459,-0.7394432139,0.7813907909,-0.3334175317,-0.0242440432,-0.004445757,-0.689685988,0.4259076106,-0.1211836411,0.380695289,1.1955624731,-0.5403219061,-0.0252306711,0.306539325,0.6058642036,0.0785278898,0.6287395844,0.5940300757,-0.0923145817,0.8278418205,-0.3762263287,0.0035538514,-0.532781712,-0.5602018757,-0.504124131,0.6492289221,-0.232658989,0.5693716791,-0.3118962784,-0.1606739939,-0.0224687687,-0.8810615754,-0.617291666,0.316807732,0.1231810994,0.7771311796,-0.5725677372,0.0209993354,0.3635676206,-0.297517442,0.5693796596,0.5972380935,0.860418111,-0.8202459497,0.3341593754,-0.6180492035,-0.308198426,0.3732073992,0.3312147624,-0.1446784311,0.9515005929,-0.5421121936,0.1213750932,0.7031312828,-0.1113598314,0.1603694193,-0.0346013128,-0.1710359174,-0.26179553,-0.2282899747,-0.8807467675,-0.6036529366,0.8028769182,-0.697237232,0.4302662587,-0.1610976091,-0.0233160639,-0.1930476587,-0.2273112507,0.6631688629,-0.4651756602,0.4060581141,-0.3784595328,-0.3359286004,-0.0273257596,-0.5458310003,0.3377683767,0.3806091513,0.3995366353,0.4806412274,0.0608007659,-0.3632548497,-0.2061844235,-0.4875301813,-0.4178698191,-0.1304273694,0.4668287434,0.2960588666,0.5461952821,0.9183195821,-0.2303574707,-0.3363117734,-0.4261689146,0.3337650237,-0.0160198317,0.2070359247,-0.8117940704,0.4716185773,-0.2378135202,0.6672610519,-0.2672634955,0.6679343537,0.2982836721,-0.5635910665,-0.0815696823,-1.0788198369,-1.1077628212,-0.4158457839,0.4090280282,-0.3056194233,-0.3592145686,0.0140385107,-0.6847031284,-0.4436508626,0.358455649,0.3461746279,-0.2579869903,0.6012731435,-0.5047659434,0.1246520941,-0.3220104416,0.7313878328,-0.4625260976,0.0544902176,0.8435558391,-0.1288175538,0.3753040456,-0.8522548758,-0.1060329795,-0.5849040592,-0.0954836711,-0.4418883072,-0.4058572537,0.1362389423,0.3332898885,0.6242391845,0.5589099433,-0.475255651,-0.3430070929,0.6041001093,0.5874661961,0.9018052958,-0.3690964754,-0.1945793025,-0.0131570118,-0.1456359962,0.613649747,-0.5431465855,-0.6998239603,0.4965758005,0.2080863772,-0.1339873549,-0.2760459459,-0.0005987124,0.2177828081,0.1259330733,-0.7052433562,0.4225210769,-0.6378314945,0.0364794941,-1.1121285289,1.2662630771,-0.2643019014,0.679761318,0.0917161413,0.1755475512,0.1732689611,1.1919608114,0.5889587226,-0.5770347218,-0.6248616193,-0.1186677399,0.0258868135,0.547067409,-0.3013598974,-0.3920834236,0.2084172052,-0.001311314,-0.0238766827,0.0117331684,-0.1177223723,0.1554762784,0.3343940335,-0.2536134141,-0.3216633338,-0.0449963304,0.4770783975,-1.0972664743,-0.4443741668,0.5547812801,0.4130296855,0.8361235059,0.7597902526,-0.6604953708,-0.2784202118,0.2726871171,-0.6720475353,-0.0386196785,-0.0347852191,0.6399784693,0.9517846878,0.2467672494,-0.7660815633,-0.8092230602,-0.6895056132,0.0424534801,0.755676141,-0.0187814778,0.3302644027,0.1189256319,0.0256632204,0.4657604962,-0.0729924741,0.8794744402,0.2795549956,0.3757532733,0.7951703136,-0.6923167022,-0.3567303436,-0.4000519036,-0.0442900286,-0.3859912042,0.7922421244,0.138945258,-0.7236330861,0.5289086674,-0.1875494068,0.25238358,-0.9074214431,-0.7812331711,0.0828659051,0.4337296249,-0.3429030028,0.2988976274,0.081572854,-1.0947741877,-0.6185047279,0.7708593615,0.2372960741,0.6593708163,0.6243260284,-0.4972789119,0.0534732732,1.0353601456,-0.4628949432,0.7661700985,0.5132959028,-0.3299156384,-0.4102118292,-0.2663265903,-0.2021708277,0.2250557167,-0.0105169102,-0.4520532079,-0.8092372104,0.2627786964,-0.507096414,0.1195486002,0.3391928404,0.391863425,-0.7018830753,-0.2550832269,-0.7600572327,0.0938273579,-0.459728384,-0.4884582593,-0.0019667935,0.727634578,0.7449748126,-0.2061943178,0.5607329527,-0.2940792999,-0.241918128,-0.3188666681,0.4381944905,-0.2124209613,0.5084325652,-0.2835900553,-0.2759278699,0.467376412,0.2693803832,-0.1434073351,-0.258013981,-0.2199593274,0.0997144659,-0.20052803,-0.6332681743,0.1297194067,-0.5783145169,0.6200794047,0.4482865219,0.8477796253,0.1090757207,-0.0641719212,-0.4195738792,0.3958067838,0.2855072652,0.134173673,-0.9320055695,-0.6281622348,1.0717468631,-0.2384671983,0.4305838043,-0.0758443177,-0.3300692631,-0.1235305875,-0.039229371,-0.308325845,0.0397599002,-0.165671762,-0.5537286346,0.2439564713,-0.3583000743,0.0002710028,-0.2887004405,-0.2895599546,0.5731795179,0.1167079032,0.1080104822,-0.0309424593,-0.7056323128,-0.3010735912,-0.3821161102,0.5893996297,-0.2072075225,0.0203482963,-0.0179090032,-0.3052410842,0.3076453234,-0.6877077865,-0.0709369296,1.5986918876,1.191809568,0.4812949436,0.226186812,-0.3784870513,-0.3814165307,0.7845115341,0.1179936754,0.0417429137,0.1575231264,0.4309093756,0.406745577,0.0602899616,0.4941954258,0.4705766407,-0.2322990406,-0.392569138,0.8115649953,0.6417830193,0.2632851226,0.0734482111,-0.8333253504,0.4720831682,1.2434938636,-0.2231835651,0.2455312401,-0.323026403,-0.088703342,-0.5774101715,0.1869733497,0.7532543339,-0.3102185073,0.2584382931,0.9600024809,0.2197986882,-0.4204567611,0.36247909,0.489437289,0.5363250732,-0.7449827314,0.2446235717,-0.1472251615,-0.0841218428,0.51521458,0.4996121747,-0.0772736022,1.0528903767,-0.226366614,-0.5877045772,0.0937452502,0.3626231283,-0.0439377433,-0.1817204515,-0.7824462462,-0.5424163709,0.4643105386,0.0311047983,-0.3738517828,-0.1949988975,0.5393615158,-0.1701182027,0.6606640197,0.3242689883,-0.2488579074,0.3233584725,1.0902994264,0.0126980453,-0.2847546688,-0.3288767183,-0.7179565088,-0.0488480828,0.1122471294,-0.7461069691,-0.7437685585,0.9389191019,-0.5267490019,1.0042942705,-0.1086415485,-0.4199317494,-0.9254329699,0.6974638901,-0.2197130482,0.529181413,-0.4256429054,0.2165097676,-0.4213251208,0.8328375293,-0.5089131568,-0.4653540746,0.6810772023,-0.3321122683,0.0873215969,0.5384155343,0.4788793374,-0.1899941526,0.5656092378,-0.5753151125,0.020761455,-1.0495892631,0.1081566021,-0.0565211753,-0.6214029195,-0.0193326763,-0.155983104,-0.3214665536,-0.0591648828,-1.0230866728,-0.8017719322,-0.4869751213,0.2821156927,-0.1772369066,1.1501749561,0.2941344812,-0.5185054365,0.2520822208,0.4089438176,-0.2457965586,-0.6821064048,-0.3279843396,0.2346013744,-0.8143069117,0.3179126635,-0.4012840611,0.4933718386,-0.5204848025,-0.8204159679,1.0979217458,-0.13547447,-0.2602780048,0.1737783942,1.054413741,0.6174897011,0.6741225701,-0.2445726506,0.6497961126,-0.472508777,0.4400200542,0.9966156262,-0.3551776424,0.0451422379,0.7453088461,-0.349367622,0.269299549,0.4395188137,-1.1928384066,0.4688442112,-0.3687172593,0.2718417742,-0.4620460717,-0.6012735175,-1.2254114802,-0.5190816522,-0.5364776968,-1.4460813426,1.1395730492,0.2551690653,-0.3532187778,0.0431632063,0.0429780336,-0.5747622687,0.8548632294,0.3065586347,0.7026805751,0.0791261481,-0.0655907127,-0.9691922603,-0.2193335013,0.9665626988,0.45594172,-0.1010368677,-0.2728314292,0.5284478251,0.7065223374,-0.4966906487,-0.2825381662,-0.3138682903,0.9786305491,0.6557702412,-0.4383061239,0.1682012596,0.1673528433,-0.4125547709,0.8606751799,0.1447297392,0.1342615281,0.441635505,0.2538849491,1.2250914119,-0.3731145859,-0.3402039315,0.2523874608,-0.2401449221,-0.1649713878,-0.1204296465,0.0540259936,1.285302305,-0.2544401609,0.4378817067,0.1264254731,0.5202596188,-1.2032124613,-0.4568785415,0.032134725,-1.362695423,-0.2467717202,0.1727471216,-1.1833804262,0.3202131696,0.9122124469,-0.0813078609,-0.1651031632,0.5117965033,0.0186934064,-0.5565969428,0.1928883968,-0.9278092481,0.2625498162,-0.9000954384,-0.2739266067,-0.0397008147,0.2091785511,-0.3776567204,-0.0623538695,-0.4419345097,0.1489877488,-1.0998823321,-0.5067592442,-0.2969636877,0.8283890357,0.5690530768,0.0097582571,-0.4330267585,0.4066003281,0.622667213,0.064542076,0.0122603993,-0.2619709383,0.7901512412,0.0248931382,0.3187085295,0.1225651761,-0.899879223,0.085093409,-0.3296706485,0.1426021154,0.8689426414,-0.4761481543,0.2779628457,-0.1398395214,-0.0203746496,0.8725042841,0.2687932521,0.5937583204,-0.0518114251,0.6783526094,0.5911417603,1.3551217723,1.1116764467,-0.1176835893,0.1818661526,-0.0909394352,-0.245195023,0.8393241037,0.291748881,-0.1834882039,-1.1700354744,-0.842120328,-1.3742511841,-0.7889391889,-0.445727576,0.922006973,0.963389706,-0.3378776566,-0.6969601047,-0.5907031839,0.6591758339,-0.319840925,-0.0165101873,0.8814604705,-0.1620391093,-0.6395090743,0.8143869917,-0.3753058783,0.5477386597,-0.633286643,-0.4551020952,0.9305849956,0.3691577271,0.2443818184,0.0438266118,0.1069078767,1.1154434845,0.1297828839,0.2494842366,1.015480095,-0.382570494,-1.0704274669,-0.9517927675,0.6215882339,-0.5125385805,0.1924272809,-0.9961338632,0.3504676672,-0.2308212592,0.5251668754,0.4445559029,-0.6879510378,1.3061959431,1.4624036374,1.0837006265,-0.30605921,-0.7336651292,-0.4488849123,-0.9455473188,-0.5683744757,0.1995669043,0.6767369058,0.448376881,-0.2129760947,0.2296099827,0.1604887729,-0.8802925773,-0.7383281792,-0.5817384227,0.4181053272,-0.5916784544,0.6959364207,-0.1370888282,0.0664262705,-0.0249993426,-0.0234076891,-0.1612183964,-0.0365816007,-0.3776758667,-0.2447167254,-0.0001426643,0.1292611816,-0.4352370539,1.3892749931,-0.6742135293,-0.2449704464,0.6623639509,0.245275507,-0.2608782009,-0.068057387,0.0754159047,0.1698516241,-0.5599284343,-0.0198835892,0.1510203923,0.2901203764,0.1986664371,-0.6765775993,-0.1085402023,0.6145739301,0.1884779944,0.1538765802,0.8017348495,1.0500412948,1.3464492267,-0.3569462951,-0.7619428007,-0.7388018027,0.0771792096,0.0644972602,0.011914914,-0.5759345784,-1.12259577,-1.0508404481,-1.3438446402,-0.1014334446,0.3570523698,-0.446196995,0.8319434282,-0.3198416053,0.3860337425,0.2060635001,-0.6952104207,-0.0884822687,0.1333939458,-0.0416573201,0.7099059391,-0.060943144,-0.2085963007,-0.285350543,0.5118554464,-1.2130037384,-0.1516466926,0.3008091314,-0.4537513871,0.7827786824,0.6273973504,-0.11375275,0.039617252,-0.4666226067,-0.1846604562,-0.5570613312,-0.2799845528,0.514089273,0.2737608258,0.3440127305,0.2356090068,-1.0826707228,-0.6788060313,0.0871703163,-0.2700338045,0.4204479316,0.1360065748,-0.7862524091,0.0080867864,-0.6738504438,-0.4696388829,0.0526233194
   0.5232911887,-0.5668089162,-0.3359807921,0.3285450664,0.1603315554,-0.7691991495,0.8870849788,-0.5440311446,0.157751581,0.6250928006,-1.0780004643,-0.5488215047,0.5358752924,-0.5876840007,0.7725698719,0.8638758345,0.7253196404,0.163375698,-0.7553669487,0.4275430189,-0.1863950981,-0.7795572155,-0.9141237005,0.6262444085,-0.43212936,-0.4649248241,-0.1607000747,0.0221025134,0.8358890811,0.2841283663,-0.0800874318,-0.3769114183,0.1649541248,0.225312753,-0.9630549768,0.3349319253,-0.3356935673,0.2023865287,0.4046760344,-0.6634149435,0.3928828323,0.2855085632,-0.3741418897,0.4625392178,-0.0142681058,-0.0236674201,-0.186287413,0.4501266639,0.0558097207,0.0448770518,0.5069774649,-0.5157631047,-0.0197696818,-0.0262146432,0.9867989977,0.0554027963,0.2580478103,1.0351934686,0.213433983,0.3506373039,-0.2916055087,-0.1372984984,0.2201811473,0.8948316132,0.0517751606,-0.5965007938,-0.9209036729,0.7275238232,-0.3819835939,-0.9202588052,-0.2524271808,0.504678007,-1.2639945934,0.4189017972,0.2235429367,-0.1704768004,0.811641637,0.2995711494,-0.3501719853,0.0726987347,-0.0367637655,0.9368563417,0.0230852706,-0.3302325582,-1.0203963413,-0.7116073759,0.0176950765,0.2585447593,-0.3741753774,0.047321981,-0.2533097889,0.1770219334,0.4160925001,-0.3351849719,0.4166246727,0.7266953742,0.2332656655,-0.5405408904,-0.6210299518,0.2067787113,-0.0955317207,-0.797422071,0.5601404555,0.6188537882,0.2700406162,0.9482839953,0.1559012521,0.6791849463,-0.4665101364,0.0098637885,0.8130274958,-0.3056303314,0.0609117382,-0.2560456858,-0.1681329277,1.1207263216,-0.0549758935,0.8748194759,-0.4758882315,0.4161074232,-0.494290943,-0.1122375627,0.8488147013,-0.25066217,-0.5671131978,-0.9912968929,0.5136229313,-0.3429421594,-0.7754353917,-0.0224601177,-0.8888665505,-0.1602501819,-0.1113791199,-0.3609424279,-0.1797801601,-0.7591389771,-1.0085604703,0.7529880826,0.2262704366,-0.1087801035,0.1444402596,1.0953650526,-0.5383983932,0.2812567227,-0.0265202643,-0.1599041808,0.4092024726,0.4708903173,-0.3843104544,1.2819697804,-0.7029619544,-0.7576073304,-0.146918557,-0.0187130573,0.0929162845,-1.0615837006,-0.427143718,0.2799151078,0.2902033565,0.0950303781,0.3794782553,-0.3194676761,-0.4634069657,0.0386551577,-0.5618675151,-0.0640591357,-0.2452896399,-0.4012840583,0.5155953181,0.8939723248,-0.8444088851,-0.6428881583,-0.4725213436,-0.7853952958,0.0158416382,-0.9593516534,-0.0011227831,0.504606674,-0.0962606096,-0.0488022951,-0.9830397198,-0.012467016,-0.0613766582,-0.5741648538,-0.7515114768,0.3179363738,0.9602707084,-0.7451972856,0.0905232959,0.8079864473,-0.395923552,0.9537843263,-0.4817147887,0.2622312946,0.5907831162,-0.0888263762,-0.8223836555,0.4757375912,0.489016551,-1.0064920276,0.4701046689,-0.0877378036,-0.7983176608,0.7557397758,-0.4244002287,-0.417724734,-0.4516669794,0.1790092085,-0.5689024137,0.9422382975,0.1588564724,-0.0029943139,-0.041238789,0.511773369,1.0278469801,-0.4860026031,0.5012075227,0.634705105,0.4531019995,-0.6720403488,-0.0731324807,-1.2306846798,0.3802784891,-0.7398592952,0.5895963048,0.1767983409,0.0046906444,0.0103783238,0.5861213498,0.1476868314,-0.9396487681,0.3688984232,-0.1674153247,0.0595950342,-0.0184752875,-0.5574279544,-1.0912671664,0.4747079851,0.3876653063,0.3227092372,-0.875544717,-0.7654061739,-0.4379249873,0.2734937413,-1.1386241195,-0.4172692381,-0.3755791901,0.0215098214,0.9901415423,-0.2736358901,-1.2883852749,-0.0512216651,-0.5720690832,1.1240637899,0.758674245,1.0069444671,0.9214582228,-0.510663871,-0.1535735749,-0.1126257295,0.787701527,0.5970502388,0.4213125029,-0.2503357921,-0.9241724396,0.2756768026,-0.4486930972,0.0124616771,0.8602455658,0.566629487,-0.4034577215,-0.7247871237,-0.5700140237,-0.0053932199,-1.2352003887,0.5223689592,0.4382198935,0.490048796,0.4004062515,-0.6120129718,0.0177293617,0.2107749827,-0.4155339155,-0.0455887979,-0.3085750012,-0.1264508733,0.5496289587,-0.2430372651,0.5911316709,0.507947214,0.2475166157,0.4702421957,-0.6789514172,0.0430000851,-0.0447746161,-0.7307971011,-1.0816442572,0.2802515991,0.3457660546,0.3331365043,0.6455357444,-0.6104953766,-0.6362976413,-0.6558947157,-0.0634191467,-0.25956511,-0.6524427468,-0.4723489813,-0.3606900638,0.7087316121,-0.0577623121,0.0916350706,0.6327087855,0.5096975996,0.1035259851,-0.5495978716,-0.3364408527,-0.6583663201,0.9742241514,0.2144222157,0.9424523839,0.2025717608,-0.0997154337,-0.0082526234,0.7449532339,-0.3033889224,-1.2164870257,0.8577226838,0.3822098369,-0.5423043209,0.0570819057,0.2226538128,-1.354293813,0.106127599,0.3684500103,0.4835682325,-0.8012043658,0.527487991,0.2828128749,-0.263907005,-0.1149866122,0.747406126,0.1716279481,0.2195460535,-0.2016557633,-0.3855864457,-0.2669350423,-0.6028095166,-0.5041502847,0.0540965775,0.3791892642,-0.4804006648,-0.6824075089,-0.0970694159,-0.5574423639,0.9210217697,-0.0297241233,-0.280290472,0.1824149488,0.4568832369,-0.2694278724,-0.0939058457,-0.5170445023,-0.0372637943,0.0556417392,-0.2523843027,-0.4031255738,-0.0487874741,-0.2678179658,-0.0976528591,0.0233260664,0.288234205,-0.4483749426,0.0112159722,-0.3455635256,-0.0369340319,0.0483217849,0.9888023436,-0.8497555859,0.9126639545,-0.15836165,-0.4211511721,-0.1134113358,0.3773111901,-0.2908592519,-0.283513856,-1.1211011521,0.1092346462,-0.7363520682,-0.1584070134,-0.3999316181,-0.2423432479,-0.6503336169,-0.0962898516,-0.0589949715,0.5200122458,-0.5073484548,-0.0559730381,0.3696861553,0.5944454002,0.1576315378,0.4960043543,-0.1892278252,0.2314822249,-0.2285638005,0.7454208323,-0.049538581,0.790418689,-0.7978957152,-0.4403565685,0.5780468526,-0.4495477,0.1421372887,-0.5363381358,-0.4754515858,0.5805248607,0.4976680644,0.4346653743,0.3404698767,-0.6425165528,0.4202202298,0.8863927013,0.3317555191,0.019001148,-0.131913204,0.1286166747,1.0681988154,0.3807241343,0.1962935185,-0.4014359754,0.4989266395,-0.1261761983,-0.8167722233,0.0947035009,0.5988764637,0.181868214,0.0407209136,-0.9032239594,-0.0221891274,0.2915345181,-0.8774607702,-0.2773665304,0.4406957476,-0.4148429305,0.3931908517,0.0913499468,-0.2248544346,-1.1017237669,0.0802156373,0.3864355866,-0.563306776,0.0805318077,-0.5503148586,-0.9981642584,0.9366698829,-0.1778739781,0.3297789776,0.8211889546,-0.9425678095,0.4078011064,1.2720341462,0.1221436067,0.4697147732,0.9203911762,-0.7462855926,0.2094394353,-0.1525314556,0.0798541464,0.383597332,-0.9489649194,-0.1058954511,-0.7105406939,0.4406923495,0.641699156,-0.4164508963,0.5024665438,0.2094584599,-0.7833284225,-0.5960873737,0.173830797,0.1156652095,-0.8335387204,0.3315716496,0.0354541592,-0.4894060071,0.4291442049,0.1812339937,0.0883402598,0.1534156413,0.4526510543,0.6171590283,0.7407210991,-0.7306662502,0.4102777717,0.3854865621,-0.8458868562,0.2060978371,0.2926855375,-0.0756512024,-0.3284886845,-0.3899489764,-0.4374968419,0.2776631676,0.0770411986,0.09778988,-0.0413243739,0.472348655,0.4129332324,0.0926886372,-0.0445536184,0.8120498717,0.1706209016,0.1510774896,-0.978008357,0.6284140942,0.6850197592,0.4437549556,-0.5729782705,0.6968411323,0.0619057484,0.8199444507,0.8336552999,-0.689969094,0.085551262,-0.4237061013,0.6569990641,-0.2234772978,-0.2052678096,-0.0167937675,0.4498226739,0.163697838,0.6993422095,-0.6919710639,0.5553970512,0.756208197,0.1690955025,-0.0569184593,-0.0208785016,0.3018666149,-0.7872654424,-0.2202515416,-0.1222021842,-0.4834802241,-0.6593948608,0.7270975053,0.3436310143,0.36991481,-0.3334573945,-0.5383142059,0.1213633185,0.1239272596,-0.6883847135,-0.1217434933,-0.0686076131,0.4511374282,-0.1206154492,-0.1375342808,-0.1580231103,0.2427009168,-0.2380593032,0.2133933343,0.7199789743,0.068699376,0.3350913723,0.8972497205,0.5273956524,0.885997096,-0.0120176095,0.7962529859,0.6261314703,0.6427884591,-0.1272716476,0.172384629,0.1957721995,0.2703536826,-0.1124418609,-0.2387958555,0.4097617343,-0.4558110493,-0.1471621979,-0.1713668188,-0.9691372406,0.0177619848,-0.8080479834,0.7474542934,-0.727082906,1.0896439596,0.1526392217,-0.3124040246,-0.2391356832,0.1095878125,0.5106452838,-0.2635760057,-0.7657229677,0.0480228196,-0.6030810734,0.1485740952,0.9889722538,0.6045336342,0.2122791895,0.5824070087,0.1044923739,-0.013722941,-0.3683056091,-0.2960818762,-0.5055674795,-0.0230493413,0.2467760577,-0.3111615503,0.2729374865,0.1305635384,-0.1512682711,-0.4804340208,0.7108441394,-0.8342994114,0.379845117,-0.1421117198,0.7792520694,0.3635675663,0.1858441646,-0.4608542025,-0.6769830645,0.1226469533,-0.339952225,0.2878468681,0.830675361,0.2944491768,0.2326302119,0.2492768311,0.4176533332,-0.8130843227,0.0296845231,0.2586660102,0.9018794714,0.6358804436,0.3909920745,-0.1843694136,0.281070967,0.0585352369,-0.250082784,0.860538863,-0.2081293499,-0.4187025617,-0.0825071263,0.7095931252,0.069176554,0.4399030396,-0.8746570327,0.2358862731,-0.1909884328,-0.1554030869,0.7380878372,-0.3322143438,-0.7431745989,-0.3727502294,0.5201276552,-1.1543780169,-0.0295101404,-0.7613268408,-0.3445398433,-0.1671907905,-0.1864145373,-0.9800009419,0.0879839603,-0.0825566607,-0.056963591,0.1973819163,-0.1486285383,-0.0351885542,0.8108991896,0.2665968945,0.4860355511,0.7683045444,-0.4343612639,-0.2988568581,1.1982160644,0.4631846137,0.2074620364,0.2725740521,-0.0499360464,-0.3356790701,-0.2030381779,-0.1223763578,0.1941726659,-0.0848372081,0.0593421207,-0.7332585323,-0.0298494051,0.1856446241,-0.1719001377,0.6113224911,-0.6898184106,0.3484433976,0.0018765345,0.2580193864,-0.3579754391,0.3292155891,0.9319441306,0.4378128617,0.1241586273,0.475792295,0.7144614653,-0.4150111245,0.5032764513,-0.4013396616,-0.4388502497,-0.2126514099,0.0012789771,0.004199871,0.4425528471,-0.3227071984,0.4646592769,0.4253664219,0.9098381963,-0.7128683363,0.6290092905,0.5371332635,-0.1862567,-0.5270489454,-1.008948184,0.516108383,0.3774754212,0.6436531376,-0.1740161705,-1.0179538728,0.0809345888,0.4102424067,0.8993646319,0.7766077373,0.6824184774,-0.1503263406,-0.1563129669,0.1905763774,0.5020599589,-0.3374274601,0.5092584384,-0.3334981639,-1.1859647233,-0.1423383417,-0.0365271455,-0.2069731389,-0.0902936295,0.5692941378,-0.8397272154,-0.6103510303,-0.5445513668,-0.0305308225,0.1278544519,0.0451037506,0.0686398003,-0.2927341958,-0.4643414909,0.5587316482,-0.426236975,0.591702557,-0.4832391067,-0.2657590687,-0.6000062636,-0.5769702957,0.631623292,-0.6800309128,-0.8152283193,0.5720115791,0.41288333,-0.308158902,-0.1052496614,-0.4582191305,-0.9299381058,-0.0849733569,0.2431760397,0.6164683476,-0.0630330294,0.3415699048,-0.1947479936,-0.5656251716,0.7503096827,-0.3661879767,0.1556093549,0.5824366146,0.4484169184,0.2846457614,0.6719073994,-0.4227485911,0.3405489138,-0.1305494952,0.2359653625,-0.1630028384,0.7672970367,0.7289312345,-0.2639166789,-0.7590524173,0.1590877757,0.7738069008,-0.5664340105,-0.7906849756,-0.5748211194,-0.5451703914,0.520458511,-0.5094490524,0.7610399765,0.7655223282,0.8697391847,0.1719795257,0.37038155,-0.3220071182,-0.7158486741,-1.0839029695,0.4913206465,-0.8664621442,0.2225983855,0.2643150665,-0.4215403992,-0.1099399828,-0.9965720677,0.0723596372,0.3233230373,-0.0537385035,-1.2295204339,-0.8097576569,0.3810375536,0.654182015,-0.729163246,0.3214989922,0.57967609,-0.4749642083,0.4874399206,0.0917923633,-0.454429988,-0.0633143856,-0.1885354556,0.3517633967,-0.2666325884,-0.3271946718,0.4835013915,0.1488767877,-0.4195840963,0.295352646,-0.3247797597,1.0923121083,0.787924415,0.8240710407,-0.1840826665,0.4546017256,-0.686450827,-0.4382801798,0.5080114813,0.9241858377,0.0867709092,0.2304104882,-0.0187581408,0.5114436838,0.088628576,-0.373897218,0.2369269353,-0.4841471884,0.0334526527,-0.620682932,-0.299373334,-0.8005962479,0.3471694279,-0.6522584009,-0.7308454886,-0.4867804314,-0.1613784115,0.3544572692,-0.311352799,0.2938317332,-0.7366935479,-0.8612707362,0.787291243,0.0128485964,-0.0556991495,0.2159263002,-1.0671540272,0.1163090429,-0.4301223048,-0.575108104,-0.7895224368,-0.1592520205,-0.2321112784,0.1686412811,0.5465723732,0.2305695501,0.3892468903,0.8994228482,0.7795720623,0.2007960001,-0.5727473352,-0.4614065581,0.3316305155,0.0035368953,-0.2876750354,-0.772729075,0.4260759156,1.1015549,-0.5973483306,0.4006462677,0.0010277842,-1.1044659523,0.647637514,0.143011425,0.6716238009,0.3136508844,1.1955362612,-0.4710001681,-0.8798694121,0.0734192641,0.4558672956,-0.734958454,-0.1758159411,-0.3504758375,-0.1515450038,1.2228737974,-0.4948513863,-0.3161742391,-0.5268313005,-0.4813877647,-0.0729859756,0.0209560566,0.0560883795,-0.2362244736,0.2668849758,0.3396663999,0.4099104427,-0.377655964,0.4348105305,-0.7169518899,0.2945415083,0.6431124311,0.5629799997,0.5620203158,-0.3032313606,0.3135832641,1.0663400287,0.7133417716,-0.8188400453,0.1789127492,-0.1371446694,0.6259917922,-0.2136711121,-0.5377432888,-0.0802357928,-0.3540033966,0.7704298297,-0.4602416668,-0.4408367341,-0.2538420153,0.6470774754,-0.2068906445,0.6386880152,-0.3343367203,-0.3234790622,0.0685706223,-0.1641625141,0.1946321789,-0.2592731541,0.9919476845,0.7126038858,0.6051510296,0.6372647914,-0.461681698,0.0750773646,-0.5872368332,1.0060852383,-0.2028820598,-0.3206174691,0.3160433941,-0.6055907054,0.2842397378,0.1292467206,0.0605023264,0.1375042289,-0.0682103889,-0.3819477435,-0.396726399,-0.8376086318,0.0468021648,-0.12400786,0.6821558049,-0.6059706887,-0.1887524893,-0.7781935179,0.7340197596,0.6370425109,-0.2284993267,-0.3728900886,-0.088740456,0.260212427,0.0582240171,-0.5549197794,0.1044107243,1.2423944226,0.3039546079,1.1251288334,-0.8570543211,-0.3604025369,-0.6690429523,-0.2926130855,0.3422533211,-0.8409265791,-0.2064722147,-0.6585536086,-0.4773565499,-0.3993438067,0.8543952429,0.8350639745,0.2510787936,0.3534055992,1.1315815992,-0.564514472,0.1598900331,-0.6552777939,0.4652609132,0.3020474901,-1.0431778311,1.280885637,0.5326835209,0.3279770298,0.1331696423,-0.3392306379,0.6024426325,-0.5963517043,0.0518048871,0.2127476803,0.2901306116,0.203254471,-0.8783278635,-0.7774391224,-0.1476099722,0.3034632752,0.2450331673,-0.27614124,-0.0967372812,-0.8774054972,-0.2202991104,0.1266542927,0.1926324699,-0.0654289038,0.8953489788,-0.1968318787,0.0635002077,-1.1847744388,-0.1336851439,0.0600271219,0.7222282718,-0.4805538295,-0.7453648735,0.5846003184,0.4855999876,-0.6461239751,-0.0186770464,-0.3282712086,0.8590727772,-0.6441843443,0.9182248889,-0.751411047,0.2122856085,-1.0609467573,0.3038837094,-0.4937642497,-0.5787086767,-1.1985199429,-0.2841697311,0.361091442,0.8828735891,-0.2612508311,-0.5577242543,-0.5533299803,-0.2315227966,-0.524574961,-1.0502784747,-0.8757450411,-0.7708760601,0.7950227234,-0.6346773939,0.1101282112,0.4950196205,-0.1310373015,-0.4330140557,0.1689490733,0.4324724249,0.7591631797,0.3394273386,-0.419439053,0.6144637989,0.2037181974,-0.8075682372,-0.6106115068,0.245856657,0.5975019279,0.0666320632,0.1556936265,-0.3360788144,-0.662620662,0.0660393077,-0.1521466901,-0.4202824353,-0.7110191607,-0.0038720116,-0.1865736313,-0.3331843497,0.3096736464,-0.4909885722,-0.2648275172,0.6093020464,-0.1905917245,-0.2239217082,0.7584241338,0.0006033895,1.0700938323,0.0464225413,0.1187103876,0.5778562871,-0.0368170541,-0.2872462775,0.2176038052,-0.2298902483,0.1576382074,-0.7490993936,0.0515641415,0.0790770828,-0.2344815036,-0.0328410764,-0.2246632657,0.3606433451,0.8195693803,-0.6031386957,0.2674678109,0.031878536,-0.9030715408,-0.6540095406,0.4121705511,0.5695896153,-0.0004625252,-0.1582604784,0.1728756826,-0.9437399783,-0.1127867035,0.7171773283,-0.0922147797,-0.9326978194,0.7213955888,0.8092190902,-0.2341674484,-0.0060325135,-0.632604413,0.1077946928,-0.8875043804,0.1775779632,-0.6035255348,-0.22951501,0.0501454148,0.3147950364,-0.6408978535,0.6926470994,-0.786068933,-0.3000689616,0.2429178821,-0.8964122365,-0.2541490523,-0.0755408005,0.1148364625,-0.2321764884,-0.4499516244,-0.1638337807,0.353111075,0.5912606595,-0.2932911481,0.1840195707,0.3500260114,-0.0545935665,-0.7996583216,0.4038169533,0.4155914853,-0.0576102312,0.9418467355,-0.6798902808,-0.0847164552,-0.611073134,0.2362133051,0.796532542,-0.005936756,-0.4413913274,-0.5799134098,0.7067227749,-0.6554893605,0.6161492513,-0.386630213,-0.297258359,0.0054506327,-0.0610431593,-0.7847915226,0.3939881338,0.6837145704,0.3563684814,-0.5082405526,0.886940547,-0.1321701508,-0.2881202603,-0.3057112538,0.505971673,0.3552058731,0.2648425518,-0.0013273173,-0.5638465631,-0.7182505154,0.3214667481,-0.6441165162,-0.353103182,0.2331904884,-0.3403313003,-0.0356144961,-0.4680611842,-0.0435740782,-0.378353449,0.0142455595,-0.5382020139,0.2344298309,0.8386518037,0.5153711017,-0.1950563906,-0.0670063708,0.4646434208,0.2199027422,-1.4035197982,0.4536339335,-0.1711902948,0.2710154847,0.3670151594,0.5371420079,-0.6667537151,-0.5304202305,-0.8237745076,-0.0831392856,-0.288440272,0.5976152112,0.9405229217,-0.03391319,0.4340517404,-0.1697700989,-0.1095714627,0.3777821218,-0.6878310164,-0.0532081092,-0.6117116759,-0.291036434,0.3783908373,-0.1786210592,0.1347261691,-0.2688661909,-0.2322341405,-0.6861824572,0.7758978239,0.248014409,-0.3280425295,-0.6199636339,0.4278228782,0.3625664879,0.1741588488,0.2057956481,-0.7992953891,0.3261019212,0.8335856024,-0.9278667527,-0.6902064586,0.7424306312,-0.3892025013,0.6286938098,0.4618382013,0.3114071754,0.772141743,-1.2103503003,-0.5578849074,-0.0379850707,0.6706787134,0.2624345743,0.2648611656,-0.0529820542,-0.1105105027,0.487418386,0.0718983439,0.4253264171,0.1187413906,-0.299633261,0.5396147337,0.5182445158,-0.3336307599,0.4878291897,-0.5707905097,-0.0174252128,-0.3157367442,-0.0628534124,0.5984654524,0.5021208347,0.1416536498,-0.4975389379,-0.2883021149,-0.2242614503,-0.3718545272,0.8181570607,0.1158770737,0.288857469,-0.8367007392,-0.9190663573,0.4539806403,-0.3154999707,0.5049013046,-0.2726846588,-0.1933275046,0.2721550322,0.3805389091,-1.1046785376,-0.034741996,-0.3828753612,-0.5158313582,-0.0413434252,0.2399885745,0.0597397515,-0.2600692713,0.5321241064,0.2829997522,-0.8396410755,0.1758061042,0.2099526293,-0.3396957618,0.2742206137,-0.2916540715,-0.581604596,-0.0894609197,0.2903952778,0.2722700201,0.0143049601,-0.2375165539,0.4790141056,-0.0354663349,0.1826723124,-0.5753025122,-0.9101582634,0.5751573422,0.4534119996,0.1856472561,0.1122613821,0.3541042526,0.0182401014,0.6602680043,0.1399875724,-0.3077435861,-0.1740659905,-0.5011255178,0.2182834399,0.7851239091,-0.364107378,0.4868803894,-0.0833002739,-0.1551581463,-0.551572722,0.4516771064,0.1293884219,-0.9469156103,-0.3223597133,-0.3647317607,-0.1346951501,-0.6399793165,0.2103722473,-0.3109317428,0.795307259,0.4433637332,0.3199656685,-0.7065328582,-0.8126796949,-0.3039184434,-0.5806431011,0.3858164396,-0.3001154338,0.8200990171,-0.6160597684,-0.7718439577,-0.1124461784,-0.4966848787,-0.7046397853,0.6630209651,0.2074033323,-0.2886838782,-0.0759713064,0.275301767,0.4204028109,-0.5590939791,-0.3169500235,0.4921627218,-0.2261515399,1.1132063055,-0.4009497698,0.3967286619,-0.0533979903,1.2140917991,0.1560656832,-0.1977513715,-0.4975439578,-0.6895906976,-0.2511796706,-0.6208515016,-0.1290060999,-0.6415739063,-0.2874161882,0.527868687,-0.3303350708,0.3884968648,-0.3309578419,0.2384361019,-0.274385806,0.4898014405,-0.639482081,0.5876067984,-0.0568772635,-0.0462472778,-0.9851987282,-0.2346244884,-0.5701151203,0.27224359,-0.1119716934,0.2171156343,0.639711182,0.4674797015,-0.3925008591,-0.4121334856,0.0767350349,-0.7442057426,0.1332385082,-0.1504787288,-0.8684244772,0.2391699875,0.2921587352,0.1181841895,-0.3850305414,0.1617284774,-0.5329458734,0.2220867421,0.2081267817,0.6116195058,-0.9694388259,0.0838346848,-0.5647366367,0.8591321782,-0.1073546164,-0.768279053,-0.1994586958,0.7418538677,0.3788249539,-1.4103944958,-0.1013352852,-0.1685926553,0.0426932549,0.2936962731,-0.7934392092,1.3619187675,-0.3741436331,-0.3868206099,-0.3466068957,-0.3782481515,0.6969809738,-0.4068195005,0.6310974841,0.2098283012,0.0377335923,-0.3380315779,-0.5524443122,0.213897274,-0.1864899632,-0.2235470526,-1.15858735,-0.3569492528,-0.0714678787,0.2561441481,0.7974915622,0.1680164902,0.6147923621,0.3965685243,0.7071883645,0.1022917048,0.7121746509,0.8259791719,-0.1094605373,0.7371455454,0.9844601507,-0.212730909,0.06544968,0.1721075097,-0.4528362234,0.4232599189,-0.0153473766,0.729489123,-1.1318846365,0.6112867107,0.1193909275,0.3221309051,-0.1896870315,0.2590259064,-0.703618602,0.4014581914,0.7597591078,0.5628060335,0.6563220034,-0.0789106973,0.4903796323,-0.4393310006,0.1203876791,-0.9446989286,0.5849886505,0.6643709166,0.1293223564,-0.7545411976,-0.6452147768,-0.1025753667,-0.2332124544,0.0278394698,-0.0622193838,-0.4652218754,0.4163696614,0.0958468636,-0.2762726235,-0.3534072748,-0.579473819,-0.0848984475,0.4151413195,0.7113698448,0.2815182745,0.5360073469,0.6976775525,-0.124895611,0.7599811908,0.4967405725,0.0906769163,-0.3142376758,-0.7783164367,-0.7432868798,0.3095920776,0.1490883162,0.5206920412,0.4611002597,-0.1834821276,0.272789429,-0.6302990796,-0.5786675811,0.6831545468,-0.3252767925,-0.1855384245,0.0878156401,0.2108668925,-0.6422084932,-0.5575995552,-0.7621644343,-0.476659651,1.1040425859,1.3214849115,-0.5760278706,0.0944659816,-0.1057868004,0.5022469613,-0.1853120013,0.8485615384,-0.3102492686,0.5121868691,0.6167336906,0.9792702017,-0.488528722,-0.6177341811,-0.3639391551,-0.8883697634,-0.2086941074,0.9786704688,0.1951429291,-0.948774852,0.0569687889,-0.6562696503,0.3334938316,0.893030174,-0.1712582493,0.5829782448,-0.1635086625,-0.3316409188,-0.7932343883,-0.2768118963,0.5266624703,0.396245672,0.2240253931,-0.431514042,-0.6802385272,0.6967271089,0.6379162188,-0.9595234887,-0.0785326345,0.9710574963,-0.7651026182,0.3618782241,0.2364796718,0.8668725987,-0.8030076186,0.1966377442,0.5011527744,0.2653180311,-0.991984649,0.2349178584,-0.4457349737,-0.0147913032,-0.6394826364,-0.5902676339,-0.3454674123,0.6024059895,0.8564413618,-0.3686007113,-0.7147948444,-0.8411368129,0.9990860836,-0.8584880628,0.3183759244,-0.5887974464,0.3890716219,0.1784743733,0.7200687985,0.6448267946,-0.6064613806,-0.0842814918,-0.6119290088,-0.7625570938,0.4426386549,-0.0349598893,-0.8461377331,-0.7513399636,0.8856482989,-0.4491942291,0.4161160051,-0.2019394922,0.8786138738,-0.0471628027,-0.113542004,0.4450074952,0.2055607226,0.2327347055,0.5960793835,-0.0083565244,-0.2808278889,-0.0033231122,-0.7187247002,0.5721505063,-0.8157876077,0.9534061463,-0.5634130004,0.9566378975,0.0884762299,0.4319712906,0.3474059589,-0.0743303379,0.28564925,-0.6865864812,0.2884973384,0.9592124912,0.5250266371,0.6385168147,0.2262726591,0.0927871758,-0.2456331762,0.7689042237,-0.2469802219,0.7807295062,0.0055981107,-0.9187091541,-0.1868146237,0.7191722402,-0.5965946688,-0.8870593544,0.1867297389,0.8883857912,0.7305122855,0.044534232,0.7143571669,-0.2764937879,-0.2137143134,-0.7066289045,0.0066450151,0.9453448346,0.7483989016,0.7999804533,0.1662555083,-0.9314064523,0.761040877,0.8533777417,0.0773036759,0.7139640168,0.9653481785,-0.867747908,-0.5992871538,-0.0777289172,-0.3357878274,0.8134245537,-0.6044424013,0.5308039479,0.0257301508,-0.1189938632,0.4919112154,0.70435551,0.1576111717,-0.7877817376,0.3588932591,-0.6136716537,-0.0266345544,0.1194261645,-0.2286584451,-0.0929463796,-0.6859386828,-0.1279046631,0.2900193723,-0.4724635266,0.4708487406,-0.2115691559,-0.0951485424,-0.0267305066,-0.745100093,-0.6637164634,-0.6924331787,-0.7501155521,0.6120512229,0.2265509493,0.9673283166,0.1791957663,0.5024516584,0.6598774893,0.4687681955,-0.9300188836,-0.8038827555,-0.5876290775,-0.8818043265,0.0119371019,0.7874821906,-0.2805313576,0.8672666143,-0.097510204,-0.2585143591,0.890611608,0.2756377415,0.4385656173,0.3086938548,-0.0864296343,-0.222154313,-0.7881426033,-0.0854999617,-0.54434636,0.6764435122,-0.1320178526,-0.1975600284,-0.2970789984,0.5629926402,0.7745645079,-0.9326308839,0.9627092898,-0.4302380785,0.3731521548,-0.5635253512,-0.8825940597,-0.1931442611,-0.8090111691,0.5013694512,-0.1681762546,0.8876852591,-0.6436530652,0.6844416242,0.7662128779,-0.0114346542,-0.6577975233,-0.1137625019,0.8345220475,0.0975412091,-0.8373885451,0.0285463994,0.7008971294,-0.017390787,-0.4511343158,-0.2641092806,-0.3183023422,-0.615287743,0.6052728343,0.7678430549,-0.7612425819,0.3638859822,-0.3531365909,-0.6728212109,0.3092955385,0.6503584819,-0.0229815762,-0.9220845595,0.8415420753,0.9708967256,0.0981492834,0.0216644292,-0.130469454,0.4525334672,0.5881641758,-0.2484848147,-0.710250572,0.8646216795,0.0046518273,-0.1660781004,0.2875224153,-0.4781709694,-0.8709342496,-0.2828674973,-0.4932275969,-0.9322083929,0.9430913976,-0.2190936848,0.8556248902,0.5956437008,-0.7936704139,0.514118688,0.3041095052,0.9536707382,-0.2174282415,-0.7690208284,0.9662063877,0.2560780716,-0.3874291739,0.8077701932,0.4809353062,-0.5935718349,0.5778458104,-0.53931671,-0.2327997602,-0.7438940703,-0.1575569572,-0.0528241781,-0.8956380736,0.6395125529,-0.94662062,0.3137481304,-0.4314160258,-0.9510733095,-0.6907535242,0.2395811369,-0.018975891,0.0289720553,-0.347042148,0.2045840768,-0.6305069385,-0.2695466563,-0.8194590956,-0.4056046088,-0.7663546147,-0.0047320542,-0.7722219555,-0.6730868987,-0.1813386168,-0.0346753067,-0.5987687924,0.2960881558,0.3665109988,0.9149428837,0.03691724,-0.8093751062,0.5537872344,-0.5554741268,-0.1630000373,-0.8530193674,0.0390451354,0.1617013048,0.885678184,0.1945079214,0.1533342159,-0.6332068169,0.5929895315,-0.3919778615,0.67141256,-0.6858967963,0.1674688539,0.232427538,0.942773935,-0.9127400342,0.0045266585,-0.8827250049,-0.4008775395,0.8909232604,-0.0387459077,0.3780687701,-0.4375374066,0.090384346,0.6018863302,-0.8288996305,0.31806584,-0.4929869021,-0.8816759136,-0.6427274967,-0.7195060344,0.3991879245,-0.3085795747,0.5298713075,-0.8128649376,0.2329508545,0.8516146003,0.2664123248,0.898160138,-0.3657100279,-0.5509061522,0.5422672003,-0.6359038052,-0.8839878968,0.675435513,0.6548118227,0.2457210772,0.7340707457,0.7511443104,-0.0284399586,-0.8545032999,0.5626365607,0.9802343144,-0.0402685414,-0.5511898848,-0.9303469356,-0.9863043554,-0.5076994656,-0.4387121557,0.7999230642,0.8904901143,0.1466083383,0.2818470626,-0.0526007208,-0.3637060566,0.6146130166,-0.2789742133,0.6613691966,0.7615037798,-0.5381944087,0.1919048735,0.2016831448,-0.5483134918,-0.2108566976,0.7978996583,0.6824812355,0.2424837346,0.9752704055,-0.5313944708,-0.9799921534,0.1088296107,0.1792507154,-0.9377890249,-0.0538961758,0.3953242737,-0.9003543818,-0.5636514902,-0.895619885,0.9947411587,-0.4267186141,0.0331712342,0.2362779354,-0.7493929418,-0.547661108,-0.4008575488,0.6836468025,-0.6092643977,0.8060802434,0.4983411511,0.9837807877,0.6757000763,0.4391827764,-0.4563397825,0.4451371578,-0.8420973345,0.4225927073,-0.0861939124,-0.2421586986,0.2205637139,0.7135435415,-0.5685565234,0.3381254541,0.1057682181,-0.5489670239,0.48290693,0.2384435513,-0.2927931287,0.9807587412,-0.1364832967,-0.3364133531,0.2838687974,0.5706082163,-0.0362562012,-0.4831785333,0.0481011165,-0.6781553147,-0.8706395062,-0.6392658191,0.2397810729,0.1194879133,0.581908156,-0.0884273607,-0.1967167053,-0.5735185121,-0.0505740686,0.0392270944,0.8773569444,-0.7206812782,-0.2837659288,0.5453921707,0.1671460249,-0.4035588973,0.2058449459,0.0901188075,0.0120501356,0.0219210265,-0.2769851325,0.1868957747,0.8877056148,-0.8959553934,1.0194172455,0.0305403204,-0.2690699002,-0.2791522141,-0.0532673854,-0.4221941719,1.0306407537,0.0350293955,-0.286932646,-0.482967501,-0.6298429377,0.8333974672,-0.5796640275,0.1233511606,-0.0926317302,0.584100556,0.6170673542,-0.1401928909,0.7293014174,-0.7860116256,0.1744531421,-0.3399336736,-0.0477434459,0.4527619235,-0.2452801375,-0.6013440909,0.8650101326,-0.1729814326,-0.1895911698,0.6084890956,0.2322578105,-0.1888574146,0.5112594258,-0.9543172065,-0.5551089139,0.1149126377,0.3248565514,0.381019001,0.9058355441
   -0.4264107965,-0.2581676751,-0.8460551955,-0.7706336401,0.4388694067,0.9693096636,-0.4295498143,0.8807079567,0.6333254696,0.0219525543,-0.4358189165,0.7480887009,0.41550218,0.2381301912,-0.9203161886,0.4274194015,0.2836783707,-0.7640532202,0.5617960786,-0.8094975405,-0.0969369634,-0.4808624962,0.748286324,0.7738116538,0.3450539482,0.6413570366,-0.3797735168,0.8229982374,-0.1696093097,0.300066911,-0.8358072744,-0.1381923256,0.6194383049,-0.3448556107,-0.6458928218,-0.8547044957,0.7922195243,0.6186479692,-0.6146904268,0.5015193333,-0.0236722436,-0.2222946819,0.6291231524,0.45448871,-0.2989521271,-0.1704514592,-0.2375311177,-0.0020253592,0.1520753724,0.0453436189,0.5476174167,-0.1364976764,0.9566770181,0.7272105997,0.4420182293,-0.3534891912,-0.9298392991,0.1702493289,0.9025160389,-0.8090026886,0.5343235994,0.2248875167,-0.8741380865,-0.2134875733,-0.5958535553,-0.7297627454,-0.5734089142,-0.7542908922,1.0255946536,0.6651602903,-0.0349272746,-0.0142768521,-0.2141855272,0.6390811416,0.3943123292,0.1393961746,0.7449327104,-0.8233265859,0.4312585122,0.1684638072,-0.5035495616,-0.5066094093,0.05814082,0.3662394601,0.4873764526,0.8604595247,0.7000008244,0.7328284383,0.3131965015,0.1219623651,-0.8024281856,-0.3282460866,0.223393546,-0.4271091467,-0.1166367869,-0.8986278641,-0.1031026357,0.2756880138,-0.4525878068,-0.1561905499,0.5385986457,-0.2986885419,-0.9129736704,0.6784360893,0.5793072643,-0.0192351609,-0.7380784902,-0.3104641972,0.814302813,0.6758120803,-0.4568728375,0.4864772578,-0.0502076173,-0.8653879446,-0.394229236,0.7612038452,0.0634937437,0.1822312192,0.2496654927,-0.1233626892,-0.7310612965,0.4995262499,0.4257127082,0.5298375502,-0.3713834196,0.822753429,0.1807668629,-0.8494466553,-0.1811051755,0.488190655,0.1953655544,0.0841355009,0.660479762,-0.278944431,-0.0434923532,-0.2825907036,-0.9583061588,-0.5110538926,0.8405252693,0.6586441919,-0.7744779744,-0.6436086862,0.3541561568,0.7265791343,0.9761888586,0.5144640402,0.4847432224,0.5843964389,0.7184347203,0.0202274436,0.5213189243,0.6308759902,0.5963450228,0.6323003767,0.7648081212,-0.2607610819,0.0117696542,0.0165402268,-0.6083350011,0.5928696517,0.4720527272,0.386374553,0.2361934867,0.2644659442,0.6275278641,0.5923567127,-0.1649985716,0.3197935559,-0.8922444903,0.3932030447,-0.9135010333,-0.3570609482,-0.568579,0.8978167453,-0.1456025983,-0.4203020344,-0.841929321,0.2895778808,-0.9346934989,0.9721321694,0.2947495029,0.7579285743,-0.209342062,0.9720586807,-0.0049967435,-0.8957906057,0.8886039546,0.6859307583,0.802206294,-0.2376581337,-0.1598458568,-0.0257919776,0.0281391338,0.8814651971,-0.8674100789,-0.4962441016,-0.4937852372,0.731593313,-0.1571924583,-0.2994690922,-0.2413489103,1.0465077808,0.1877366845,-0.190554559,0.6951682889,-0.9306654198,-0.9703777496,-0.0132550236,-0.0006431429,-0.7170104965,0.6023881306,-0.3693841616,0.035562385,0.6825486215,0.2337283507,-0.0584395523,0.6076377308,-0.766269696,0.9439981321,0.4072333524,0.6403247617,0.687642582,-0.0185346924,0.2333708839,0.8298394083,-0.7783346729,0.6312541192,-0.1011152667,-0.1983609552,-0.2507989904,1.0069978387,-0.1451804254,1.0530742749,-0.1656353829,-0.7095269326,0.2207826731,-0.986887522,-0.1497265984,-0.493398589,-0.6837256031,0.4109578959,0.570611138,-0.1245877211,0.813221656,-0.8332195737,-0.8656780235,0.9442663532,0.5336030614,0.8763334211,-0.7167926739,-0.5417159096,0.7035779151,-0.781173888,0.9332783359,0.8829855584,-0.460963492,-0.2523033401,-0.6978329991,0.2842291329,0.0966977756,-0.7534857288,0.3344118358,-0.3936726422,-0.3157808374,-0.2381767678,0.9215419951,0.7598417247,0.4086543763,0.7326864421,0.5177126433,0.5259869743,0.9238933609,-0.7848429141,-0.7881114466,0.0412106715,0.3523651717,-0.5003411327,0.2806031817,-0.4557356956,-0.6678078418,0.67522351,-0.7700437795,-0.8348295054,0.2725289103,-0.3071393569,-0.8194191595,-0.1124810111,-0.6796052414,0.2319627057,1.0289636217,-0.7791581905,-0.4669932852,-0.6657276085,-0.4379978946,-0.8476263274,-0.1120435883,-0.1365678816,-0.8175186496,-0.4929253048,-0.1260500961,-0.6245742155,-0.1418632193,-0.037085495,0.9725515619,-0.6715492198,-0.1807993429,0.7507422845,-0.6649146885,-0.596537081,-0.532118222,-0.5079894037,-0.6002099936,-0.510641561,-0.2940867997,0.3670442453,0.6336976865,-0.9279964618,0.2655890521,0.1458965437,0.6144650364,0.9248604984,-0.417739894,-0.8955981458,-0.6993409155,1.0327799291,-0.4470137765,-0.7036485093,-0.8331408579,0.8313103169,-0.5548325029,-0.3273271195,0.4265737321,-0.0966231938,0.7293534926,0.6934686644,0.5402961801,0.7750557827,0.5413704037,0.5664461581,0.8067889914,0.364271372,0.5623079471,1.0069904945,0.4356188528,-0.1919035935,-0.7836208278,0.4585646322,0.1017858513,0.1346292639,-0.7902745952,0.3208548437,-0.276892223,0.5902832743,-0.0631738236,-0.0263509735,-0.9764757212,-0.2336991323,0.5374240231,0.6562726209,0.1096819008,0.5098033603,-0.7171092605,-0.3052223523,-0.0202807565,0.4350805024,0.2893943844,-0.1155666312,-0.4232460534,-0.2878482095,-0.709274796,0.6797278929,0.0313509072,0.4255141399,-0.469086057,-0.8906959787,-0.9705680968,0.2801099551,0.3852374701,0.5288056741,-0.9441844139,-0.3825679577,-0.2043010862,-0.4592709778,0.1946926444,-0.9611451466,0.9034399428,-0.3599734017,0.7052886208,0.7557383933,-0.5744068915,-0.2933577075,0.2940507325,0.8249879704,-0.7330006644,-0.2964580379,-0.9226679517,-0.5288918882,0.4890345448,-0.1276574453,-0.2212159399,0.739092707,-0.4894940579,0.4448828428,-0.9247744099,0.6125049927,-0.6318041744,-0.2166236423,0.0598143484,0.0716849897,-0.5302357398,0.598445698,-0.2444581787,-0.1488953848,0.4602389233,-0.0153631407,0.8195551416,-0.9443263752,0.6985707663,0.6168120256,-0.0618385162,0.3865565232,0.511941523,0.8437975385,-0.2982595806,0.3210352287,-0.4237717294,0.5272939507,-0.0708196333,0.7330078447,0.7335877836,0.589444479,-0.452884466,-0.5856564276,0.0733639313,0.2390733274,0.9137789769,0.0028470199,0.0179628501,-0.8122628108,-0.0576135438,0.5597305234,-0.1924780927,0.0615094102,0.2809283392,0.6194671501,-0.5154159578,0.5889682878,-0.4609217995,0.5084547294,-0.9212351797,-0.6734243052,-0.9000819132,-0.0000106091,-0.2930491495,0.6474405156,0.6024594261,-0.8909079569,0.1023686691,-0.5792718276,0.6557175693,0.7064204664,0.9804142608,0.644296836,0.4883130161,0.1817634916,0.14302986,-0.215329706,0.1800487408,-0.0694425138,0.3600654634,-0.6251709695,0.0633185963,-0.3557782292,-0.7334506494,-0.8776784841,0.2633388386,0.6720424016,0.3008188697,0.8717907408,-0.4186154546,0.4477394562,0.5581261838,0.8019868332,-0.1854719228,-0.8234127265,0.0240509119,-0.5234195758,0.6768979324,0.0635851263,0.1376090194,0.7002597606,-0.713091668,0.2894597864,-0.7828075385,0.3183360993,-0.5307358358,0.8196638942,0.9538409612,-0.370235566,-0.0476024261,-0.8073768384,0.0850899086,-0.0333126677,-0.2424014768,0.87015805,0.7501685702,0.5355923677,-0.6027632281,-0.4267632107,0.4144200891,-0.9661032297,0.3084466662,-0.5980779272,0.6683173019,-0.4186004943,0.6777627668,-0.3991240704,0.1806937421,0.2090454408,-0.661476918,0.3802609806,-0.7529941575,-0.6692350479,-0.2765883474,0.0791720012,0.9962516357,-0.8347670949,-0.3013170838,-0.4090477593,0.9883319946,-0.3292134193,0.3915187288,0.6124304565,0.3514124062,0.2983294792,-0.5662415627,-0.7031749758,-0.0548681437,-0.6506221787,-0.2947883198,-0.671724012,-0.4915633881,-0.7526554429,0.4873968745,-0.3994582558,-0.1599773737,-0.4680170296,-0.5909847305,0.3165398019,0.2957262613,-0.9625322512,0.6305019296,0.5600545346,0.6401413811,0.6450825296,0.8052771866,0.7122848935,-0.7182243885,0.998127751,0.0864315798,-0.1621528723,0.9144775667,0.8536270452,0.3409073268,0.2372018945,0.4034661516,-0.9314016087,0.5689654577,-0.9080890822,-0.431453766,-0.6122652763,-0.9625231957,0.0922752621,0.670366925,-0.6403267175,-0.7117348953,-0.9387501557,0.8652506306,0.0659828062,-0.5905243307,0.4786807873,0.1773694034,-0.1694170162,-0.9419401274,-0.8130396272,0.8056211179,0.1230390704,-0.9780429277,0.894507153,0.4517731014,-0.3337378798,-0.284908433,0.9566245085,-0.4005763001,-0.3292557465,0.4709985133,-0.7729174485,0.8713737867,-0.7274013801,0.7530115377,-0.3311242149,0.8195021119,-0.5257848268,0.0646873038,-0.5919746468,-0.8062441672,0.8408614758,-0.4293898158,-0.7152186068,-0.8064158239,0.3962584936,-0.3534639119,-0.9098120654,0.674230758,0.3190359258,-0.7253240913,-0.9033389298,-0.882898385,-0.4667325255,0.5967867659,0.969266452,-0.8946180324,-0.6347131364,0.8388362091,0.4545669777,0.3457703931,0.0120053375,-0.0776464004,-0.9243520599,-0.5049396529,0.0628371234,0.4196794809,-0.9192945227,0.35215472,0.1005145394,0.087453257,0.8502888009,0.9565011488,0.780672035,-0.9265130019,0.6178180733,-0.4714423606,0.1593788906,0.2621838703,-0.9386476488,-0.9317175756,0.1351534503,0.0730477845,0.7631431106,-0.388166568,-0.1262881154,-0.0191281294,-0.7385988627,0.8045037303,0.4947566615,-0.6141274585,0.0716533215,-0.9863830932,-0.0403514428,0.136172832,0.0487963185,0.2144419392,0.8263787981,-0.0932815268,-0.7573221464,0.4377055459,-0.2183398916,-0.4141590326,0.077096087,-0.207062205,-0.328857539,-0.5156892973,0.4592527065,0.1649809387,0.5370707887,0.405453325,-0.8637518555,0.1326057714,0.4405877256,-0.258155954,-0.5484914689,0.0110972357,-0.6407599553,-0.5320003131,-0.7941497803,0.3232505533,0.9324968456,-0.7730898352,0.4057971988,-0.6265668966,-0.2544492648,-0.0327430958,-0.3223912719,0.1095498822,0.4544055476,0.3178461676,0.2259619435,-0.6647220033,0.9339001402,0.8584498421,0.1919753805,0.3214261103,-0.7494649423,0.8664243569,-0.4947391463,0.6382881679,-0.7996711563,0.7312239307,0.0073798731,0.9258098866,-0.061713048,-0.372662675,-0.7274692587,0.1263208278,-0.1641434906,-0.6304278828,0.1478365926,0.0856674058,0.8949580708,0.7309433879,0.9036049796,-0.6784960928,0.4741154635,0.838004798,-0.2069833133,-0.2994481229,0.129218394,-0.943485985,-0.9643186003,-0.0701041766,-0.7319965265,0.7358109389,-0.7691043588,-0.300985558,-0.7941034445,0.1611300832,0.697563933,-0.5726566424,0.6948664959,-0.5481284698,0.523904709,-0.4911866725,0.3795450812,-0.7589182768,-0.1439521655,-0.8525016126,-0.3437764706,0.9695014401,-0.2202341124,-0.269681845,-0.8489212574,0.9562380007,-0.6986110641,0.3325866673,0.1423413234,-0.7225254689,-0.3030160388,0.870598796,0.4871031665,0.7972811859,-0.640453045,-0.6211540785,-0.4753145745,0.3771450116,0.8237702424,0.4684406408,0.4533637027,0.691088843,-0.2071356431,0.0059643164,-0.5600167357,-0.6009278162,-0.9759041848,0.4959110599,0.0208631955,0.2869736012,-0.1058668965,0.0969473916,-0.486393576,0.30948576,0.6841058282,-0.5720366526,0.5472121801,0.2283652245,0.2822379951,-0.5589000449,-0.4154255904,0.1467324154,-0.9661158079,0.7028845648,-0.3810945515,0.0630500181,0.8444493226,0.8509241946,-0.798371223,-0.0475870145,-0.1742129695,-0.6303154927,-0.2466084116,0.6873928649,-0.9096575683,0.6445026915,-0.5360609296,-0.0314396934,0.6103525884,-0.0519238196,0.7974351016,0.582658001,0.2853921913,-0.6348708488,0.6946648075,0.8795052438,0.6571892157,0.1528391684,0.615290994,0.5973848163,0.6693767816,-0.8543129734,-0.0622396547,0.1135157504,-0.5110418687,-0.3091273096,-0.7060841894,-0.9009829315,-0.3632921064,-0.0278612776,-0.2762218634,-0.4642248413,-0.3887741019,0.0910817051,0.4645678118,0.8938355479,0.7295192069,0.093177774,-0.7686940705,-0.183336174,-0.9084924461,0.6596966865,0.4429284357,-0.5309923956,-0.6944327691,0.927972992,0.9942623296,-0.2162610648,-0.8598357683,-0.5831071974,0.1613449969,0.8420383503,0.9186531402,-0.602325873,0.4789941325,-0.3244837403,0.5762864116,0.1123326652,0.7236403106,0.0153402121,0.634716022,-0.8830351489,0.631290925,0.8186696273,0.3315632044,0.0614877895,0.4179927011,0.5743465437,-0.6501025581,0.9644294248,-0.4019071256,-0.7518191416,-0.4779460724,0.1662386547,-0.8337678362,-0.8054040297,0.2462591589,-0.0296276419,0.8153870696,-0.6734371923,0.4927075656,0.5964530856,0.5394009005,0.6026346256,0.8891946693,0.1533052108,-0.0833332891,-0.8842715309,0.0125168584,0.8804396761,0.8839151456,0.1075365256,0.6192764095,0.3601997508,-0.8481523731,-0.3511560397,0.3842171897,0.7291011825,0.3264844359,0.5648310851,0.1533917882,0.1591061394,-0.6663218136,-0.9849679706,-0.1982037171,-0.5671678227,0.5203676703,0.1780468168,0.1215385222,0.3701198565,0.1522786309,-0.6718753236,-0.2575950403,-0.0517383322,0.5904209818,-0.2982970079,-0.6273198252,-0.6518457228,-0.0293286159,-0.6173071582,-0.0318272065,-1.030784353,0.8132718452,-0.4538920278,-1.0132869035,0.3785614573,-0.7349802285,-0.7891892958,0.1763393985,-0.350462572,-0.3470517206,0.8844503575,-0.5054623951,0.9019542228,0.3343837141,-0.7628997788,-0.399969288,0.0242546216,-0.7816032183,0.0213859014,0.4762741152,-0.4348775069,0.264396485,0.7094718208,0.7884453765,0.1014486478,-0.547465782,-0.6961264148,-0.7689143252,0.6465856994,-0.1840389494,-0.9821207008,-0.8190871557,0.8428274386,0.0007344139,0.5700810442,-0.1372186838,0.8611409764,0.6169916065,-0.7255460794,-0.6437004463,0.7312469558,0.4803860781,-0.0832396538,0.6019453503,0.8772248563,0.6881163781,-0.7895405281,0.6456910078,0.67372467,0.6686855855,0.721941155,0.5336199364,-0.0026988763,0.3066577351,-0.8587817956,0.0297245505,-0.8098844115,-0.9311365554,-0.4059098036,0.7343895911,-1.0034079011,0.6386020963,-0.3888427083,-0.2434770786,-0.0761201035,-0.5079579076,0.1284135441,0.6666051639,0.495294295,-0.9530094342,-0.2403904579,-0.3002491941,-0.5202704901,-0.8615607566,0.8981277605,-0.114589864,-0.8495137213,0.5384824792,-0.006582708,-0.3978522572,-0.3313323431,0.2697060729,-0.3204067975,-0.9565779378,-0.4196543946,-0.7409232168,0.3873945432,-0.7040546739,-0.3485178537,-0.1120573047,0.4541652789,0.6587664649,-0.7061667995,0.9300987875,-0.8480498162,0.3662593278,-0.3601895602,0.4693934361,-0.0746884334,0.5906548994,0.853585245,-0.8584978606,0.4250363239,-0.1629246601,0.7897163357,-0.6748012681,-0.1628648636,-0.797710615,0.1788718195,0.0591177637,-0.7969750945,-0.3227897915,-0.8949285129,0.3474642532,-0.1029208342,-0.5993349371,0.9840940088,-0.3623499439,-0.0924072121,0.6310401429,0.2280512629,-0.7132127643,-0.5550715458,-0.0150682303,-1.0483830903,0.4771948985,0.7441313178,-0.9288201048,0.4866528621,0.0692841341,0.841394712,-0.3069479022,0.1126486542,-0.068882474,0.6991679149,-0.2755115459,-0.6638039,0.4566923245,-0.2698135915,0.881339303,0.9667885637,0.7845490898,-0.4853468333,0.4824378905,0.7337374595,0.5118813675,-0.9872772033,-0.2520261285,0.6037359097,0.7181484493,0.3966368039,0.5000997861,0.275089239,-0.6237559322,-0.0260193188,0.8207830681,-0.0250153875,-0.280391347,0.7186469534,0.1629813563,0.3536480636,-0.2245422457,0.3910158075,-0.0229444882,0.8451714308,0.2966394686,0.3143929002,0.8009683334,-0.3113602376,-0.858933781,-0.0059687168,0.0658062994,-0.3760538923,-0.9013721804,-0.703438858,-0.2300019557,-0.9674313848,0.4682924466,0.4140759391,0.5038005638,0.2753652969,0.583441702,0.8704353732,-0.8306285231,-0.1867680984,-0.7458333158,0.3737421795,-0.6605947084,0.5087028915,0.4410485337,-0.4062475823,0.4457329677,-0.5536224553,0.8584903007,0.74529922,0.2060355583,-0.7561384601,-0.9521862053,0.6242703165,-0.9750610016,0.1920883198,-0.5559284842,0.5650288692,-0.0786647976,0.1953882176,0.8338657865,0.2473948499,0.2856394356,-0.6318224617,-0.7917487178,0.6030624273,-0.6329425943,0.0006686414,0.277094066,0.7918882159,-0.8520950547,-0.5783421461,0.7190052567,0.3514806897,0.8072488645,0.480398746,0.6693241967,-0.3933866451,0.6462013146,-0.3205578415,-0.1982051085,0.5011873195,0.3555706122,-0.0685203442,0.8927635572,-1.1866631242,-0.2064040885,0.3465061275,-1.0114588417,0.7755133401,-0.018052549,0.6698873583,0.5392603583,0.2361195924,0.9482096517,-0.7163756831,0.2744372802,0.8390422026,-1.0454767257,0.6802407147,0.6273968626,-0.11738976,-0.0319313794,-0.2015433962,-0.1848144866,-0.3496360716,-0.8870561944,-0.93137037,-0.38566558,-0.9760631097,-0.461298915,0.4431102487,-0.0403822367,0.7373498734,-0.7744064273,-0.2886552846,-0.0632406954,-1.0797935041,0.755499417,0.018905075,-0.8405522262,-0.0783922488,-0.7949119899,0.7109896268,-0.8841541998,-0.7825431701,0.3188092705,0.8100550395,0.5071217548,0.4584545017,-0.9358794549,0.8846644933,0.6853872515,0.4955581185,0.1487325933,-0.4458055493,-0.017991671,-0.5183383682,-0.8754728564,-0.6191433651,-0.6144373264,0.208287803,0.3625452804,-0.411576597,0.3984185236,0.0188997444,-0.2502116695,0.3113844292,0.313862175,-0.468473616,0.4694886862,0.1105720547,-0.7428724865,0.3899311342,0.2190724865,-0.6974335852,0.9345199606,-0.6626903891,0.2889360549,-0.7939466755,0.2150559145,-0.0372551348,-0.4882135565,0.4550525569,-0.9671397927,0.3966956933,0.9056699646,-0.8734035965,0.8768388994,0.3956101213,0.0970066709,-0.1703717858,-0.1325491993,0.8229511513,-0.3700573671,-0.2624977667,-0.2785068041,-0.0645409067,-0.4899953228,0.5720886424,-0.1814916904,0.2812866486,0.1835341755,-0.0375691612,0.9561709953,0.1940525134,-0.1132605903,0.5615017708,0.6155785613,0.0020600155,0.4415557417,-0.4579907232,-0.2578991642,-0.6844393743,-0.9728984251,-0.6405150379,0.2013238145,0.3320328668,-0.0866458113,-0.1877650814,0.2023397104,-0.4711354693,-0.0314346537,-0.8932273678,-0.533868241,-0.0124009979,0.5062444448,-0.466961076,0.4948838993,0.5722515061,-0.494335509,-0.2666336124,0.8420054255,0.5197487828,-0.9221934232,-0.9068429281,-0.0234976787,0.1639266775,-0.923313509,-0.3353505934,0.333265123,-0.8165520384,-0.4868029283,-0.3013351894,-0.7432252891,-0.2447443087,0.1133551923,0.3638329851,0.1437610102,0.1000856607,0.5234374217,0.6828798992,-0.3590731841,0.638496772,-0.3119657314,-0.2181707897,0.5393084482,-0.5224315081,0.6956479043,0.1639506166,0.4816627887,-0.2462283367,-0.1346361021,0.8158905569,-0.5201946321,-0.9147130309,0.2880050092,0.646792025,-0.9884853598,0.4366030635,-0.8869162469,0.0053442384,-0.1864696327,-0.8415624413,-0.4546726975,0.4379450226,-0.7534287022,0.4245814054,0.7992798123,-0.6185321143,-0.6063539771,-0.0985418369,-0.2716561853,0.2168231714,0.8474292757,-0.2964154932,0.5280972948,-0.8835138528,-0.2547692176,-0.1150151364,-0.5803224695,0.620279029,0.2486783889,0.2137292849,-0.0156352102,0.4806102604,0.0180726245,0.6497800863,-0.6907804039,-0.423867026,-0.1305734057,-0.2705160371,0.8382196265,-0.0306877366,0.1861354072,-0.9028708461,0.1968924769,0.6757320191,-0.3760313839,-0.1045057653,0.849317563,-0.2822623593,-0.6895414723,-0.6989805701,0.0245573757,-0.4333925442,0.3241195846,-0.1629100066,-0.9436249995,0.9986116031,0.8767559948,-0.90499036,0.4087586202,0.5827420295,0.7788385035,-0.8828810674,-0.4599020725,0.1552385852,0.6051717921,-0.0585386987,-0.3129311418,0.5793655115,-0.3754450678,0.349361847,-0.9834460644,0.6133497737,-0.5646916316,0.4042736213,0.7101333448,-0.595650555,-0.7984884389,-0.3740929992,0.2996019523,0.065049288,0.0841370658,0.6642010812,-0.1188949616,0.7551385575,0.0978153551,0.6834789226,0.5934283282,0.4649436887,0.0219905896,0.7452679126,-0.5763221142,-0.0961024497,0.5245777588,0.6184725262,-0.1988686609,-0.3480409977,1.0276084201,0.8504036203,0.7487630754,-0.5058742627,0.6715324165,1.0286265234,0.8759047046,-0.6400651587,0.134132735,0.2216812092,0.4408202813,0.2142445329,-0.0851774105,-0.2162951432,-0.9359373762,-0.7570264022,0.3562040687,0.4646457739,-0.828233007,-0.978862831,-0.6017771886,-0.6962596353,0.4956340412,0.4480825564,-0.7666299394,-0.2274334236,-0.437878958,-0.1273241654,0.7068577791,0.7579981714,-0.1999798694,-0.7155238113,0.0044719301,-0.2187847907,0.4149175053,0.11403727,-0.7573294691,0.2965072636,-0.5819627879,0.7042347309,-0.7879590207,-0.7431073687,-0.3394481803,0.0658974301,0.6876541188,0.2346884939,0.6198460164,-0.1493061533,-0.7815158737,0.6838780061,0.578918219,0.8367395616,-0.1339038414,-0.1039967805,0.1152909973,0.360617766,0.0286144829,-0.9505755244,0.6994878779,0.7656327863,-0.0687656555,-0.7072807311,-0.4786450776,0.6378621489,0.4902826851,-0.5719504207,0.7125262844,-0.2226246921,0.9498262054,0.2151329157,0.8094265863,-0.9681596183,0.8341775733,-0.4026955509,-0.1698569675,0.0506063785,0.1277638716,0.0848716762,0.6290857884,0.0526223259,-0.0424244822,-0.6462869928,0.514089377,-0.6850256369,-0.7337246589,-0.3826194652,0.6697390477,-0.2667139406,-0.294155037,-0.8489519948,-0.3664904614,0.3131966543,-0.7900903753,0.8046402651,-0.8840862646,0.4478897574,0.6610585067,-0.3499335835,0.5979055325,0.3854288056,-0.1208438686,0.7444494533,0.8376914213,-0.3119629627,-0.5164696636,-0.1687527704,0.8261661355,0.2354302558,0.245528655,0.134508676,0.6802862569,0.1704539575,0.4841357774,0.1260343669,0.0365819009,-0.0687462767,-0.0057407466,0.1117869279,0.087489788,-0.6833895978,0.114809244,0.8831044104,0.929286413,-0.8129279892,-0.4638989025,0.0950982158,-0.3984473126,-0.5275764623,-0.0943823766,0.8789332185,-0.1487958739,0.7133342696,-0.0222171377,-0.0406885148,-0.87254608,-0.3288408335,-0.9059776147,0.651978859,-0.6291743031,0.1800526169,-0.5566401447,0.7486408128,-0.092514934,0.675119143,0.2284782235,0.8638893444,-0.9958386123,-0.2692859431,-0.4427404368,0.1764322045,0.4742108051,0.1790601815,0.3983381059,-0.3089328884,-0.1128130774,0.1168896706,0.6060560306,-0.8101175275,-0.736860109,0.8389047883,-0.1921330385,-0.1679817377,0.431131346,0.9571284245,-0.792551791,-0.3371869244,0.2944717444,-0.8782506743,-0.7465166075,0.2799215929,-0.9949202655,0.6596100999,0.1957326242,0.2181471915,-0.8272167796,-0.5725657039,0.1472978091,0.3178114964,0.3664102277,0.720147851,-0.0148779116,0.3582603989,-0.1627740828,0.4616963397,-0.2646716698,-0.7254631322,0.0480347724,0.3217992613,-0.613787261,0.0363931935,0.3082736894,0.0462165188,0.7952676006,0.2707944919,-0.9426635522,0.4903441212,-0.5765241407,0.0825242721,0.9263224749,-0.6388437242,0.8770096106,0.3565547913,-0.9613022897,0.5269799565,-0.6820879328,-0.2236029851,-1.0018567979,0.4771659769,-0.4923004011,-0.8802062642,0.697668854,0.3572060831,-0.4524473685,0.640961947,0.3662842788,0.0805936585,0.841063332,0.7159024481,-0.6310655184,-0.8095913719,0.2710077748,-0.4029519252,-0.8397542923,-0.0839632524,0.9593262963,0.9450456547,0.9489385116,-0.8487520897,-0.1940347751,-0.0553707481,-0.3639841818,0.0420183647,0.1825514171,-0.3987163497,-0.2178695063,-0.4615630533,-0.9034752567,-0.7015940898,-0.6839420896,0.4725942291,0.6855976691,0.746657147,-0.5289136913,0.1372748531,-0.8633033793,0.9277500781,0.8884180642,0.349093745,-0.8859703975,-0.6372387348,-0.2526347911,0.6741676729,0.0245029519,1.0097527636,0.2908715484,-0.7239292409,-0.8896107284,0.8141738246,-0.7643043566,0.9488230487,-0.1464334799,-0.2108037413,-0.3807053068,-0.0764643736,0.4736840323,0.1260845101,0.4847222776,0.9878618807,-0.1571125515,-0.7246437284,0.2742176217,0.5346326022,0.276177772,0.6049974378,0.8067330347,-0.6572413114,-0.0120192716,-0.3570332805,-0.7719122563,0.9675138118,-0.8231875475,-0.2258342095,-0.6835218749,-0.7756796606,0.5406196196,-0.931246253,-0.9505244236,0.0706405268,-0.4507268883,-0.3273082316,-0.5247913011,0.4444436666,-0.812067237,1.0185613459,-0.5718013021,0.8547488828,0.7504919306,-0.3730765765,0.6221918875,-0.7690104921,0.2853148285,-0.8311013829,-0.4466719365,-0.4084247481,-0.0146789089,-0.0585828164,-0.2057252642,0.140298886,0.3135704261,0.9025817868,0.3086653098,0.9369997113,0.4012696574,0.4535133638,-0.3316254843,0.8433017643,-0.0424552979,-0.8832530532,0.613657428,0.893191177,-0.9712277848,0.7842575284,-0.392591775,0.2528105703,0.6964716317,0.8229125561,0.1975828786,-0.8009939885,0.6701475349,0.4684912291,-0.3920527836,-0.348287504,-0.9739182461,0.022838374,-0.302542734,0.2793561209,0.0177840365,0.4681744487,-0.4177149954,0.8185319491,0.838504743,-0.3680266237,0.1636119266,-0.7829009517,-0.4552587747,0.1918161132,0.6239838609,0.1008912345,0.6515846064,-0.3742043436,-0.2763165671,0.879563873,1.0089764957,0.5055307999,0.1111443302,0.5197230948,-0.6920080307,-0.2805492011,-0.9036155504,0.7221958355,-0.1760451429,0.481836838,0.610207951,0.335662251,0.7915174491,0.4707814318,-0.4871294541,-0.8951996377,-0.1339204847,0.5455549085,0.8308209376,0.8970769009,0.5292030738,-0.9960155345,-0.3702897001,0.3389510243,-0.246075292,-0.262199667,0.6695762943,0.2987997002,-0.2558847524,-0.756547099,-0.2028863265,-0.6179505013,0.6615976531,-0.7916937249,0.336914474,-0.616547822,-0.6332459337,0.4379309983,0.2679035363,-0.3015118906,0.7697868392,-0.4788464666,0.372913617,0.0882892643,0.4369795761,0.5564126608,-0.6631962817,0.1644896919,0.3610654921,0.4736686519,0.0513658099,-0.2320830609,-0.5821183582,0.3044676922,0.3121283686,0.9452200676,0.0278018504,0.5392472042,-0.8881835765,0.9491472159,0.0402667437,-0.9142224083,-0.7041484732,-0.9644039236,-0.6421900186,0.9703494196,1.0253962393,-0.9735981346,-0.2735472845,0.3324644044,-0.0683064205,-0.3991250768,-0.3622497161,0.7638360767,-0.4171922019,0.5075804424,-0.5966955765,0.7020864991,-0.7679451533,-0.4174827289,-0.8153592545,-0.6988006388,1.0117355721,0.1641465592,-0.697206525,-0.6272180631,0.1353645674,-0.5121497338,0.5874931236,0.1100193421,0.8469062629,-0.5587354721,0.7957724621,0.5565384271,-0.623516402,0.9727729395,0.4366724879,-0.3587766342,-0.9274232008,-0.0197299396,-0.5187180813,0.0584312522,-0.8012404794,-0.9603939887,-0.1602219155,-0.056455438,-0.5739043818,-0.8000051671,-0.7055173668,-0.0213695165,-0.4975108462,-0.5005213393,0.1849396278,-0.2181804201,0.5160680898,-0.8818535934,0.9015971764,0.144336805,0.4133031969,-0.0641215956,0.8656440532,0.8513982347,-0.2915776815,0.0976033014,-0.9679754875,-0.5001819602,-0.8514532877,-0.1184844027,0.2907166904,-0.5943392399,0.8142379266,-0.6676555927,-0.7083812409,-0.3818752401,0.3228898701,0.8126984992,0.1959044653,-0.0340900176,-0.5536549979,0.9158474037,0.489676674,-0.7948242567,-0.3759730251,0.2536767795,0.0541933693,-0.2703147883,0.2432302459,-0.6984983691,0.2311522567,0.2403466752,-0.2111232903,0.671383516,0.8563369225,0.0702614198,-0.0826572341,0.7576641823,0.9692291083,-0.8744353159,-0.9202975358,0.4013797731,0.9935528242,-0.7941067059,-0.2033832816,0.6603798192,-0.3805883055,-0.3510514909,0.9001106662,0.5730721658,0.3745019861,0.0312431322,0.882802968,0.6401108606,0.5226062278,0.577907191,0.4838035111,-0.5703473183,-0.1872689196,-0.7462130329,-0.2889469538,-0.0311878164,0.8669521987,-0.0420523732,-0.8046267998,-0.3254235756,0.4890982933,-0.8076621421,0.0418546785,0.5651941541,-0.0713031024,0.2053479514,0.0623815694,1.0753200839,-0.1462274014,-0.8275084417,0.8511400721,0.565713708,-0.4525519723,-0.4561109582,0.0638437334,-0.5166782202,-0.5775866146,-0.4285511832,0.3650019224,0.292136775,0.5573313795,0.18215837,-0.8066764083,-0.1764406426,0.8927685564,-0.5752610507,-0.225084647,0.8912071994,0.4422781734,0.790104438,-0.2330524701,0.2476518907,-0.3195787373,-0.9047669183,-0.7481333534,0.0683725065,-0.8743373398,-0.8471501562,0.8381034517,-0.6511790954,1.0542062728,-0.3145133129,0.8387787204,0.1712691933,0.6786065735,-0.6782985131,-0.8026331321,-0.111492032,0.5514701269,-0.3863575609,0.2454432459,0.3490445877,-0.805637371,0.4295590271,-0.419333949,0.2754154747,-0.0166088217,0.8542337593,-0.1515919303,-0.4969022286,0.3134812908,0.5258901491,0.2785119587,-0.8478017504,-0.3402393608,-0.1478910718,0.9373542069,-0.0315066814,-0.9209805458,-0.2554255803,-0.6181574521,0.5084411491,-0.1164045406,-0.323160398,-0.6683113205,-0.4901075385,-0.7217444384,-0.6315113216,-0.9859382271,-0.3654304099,0.8213488062,0.7092080313,1.0529521445,0.9063970567,-0.3061674798,-0.0289169143,0.3336176676,-0.6742427639,-0.0693470618,0.3831275301,0.235202802,0.9565002224,-0.2191932766,-0.1494143887,-0.6946764665,-0.0881457845,0.5634090522,0.900396594,-0.0457994053,0.5041259837,-0.3203819924,0.1047733502,0.3385822445,0.1924588392,-0.8460800749,-0.1973714935,-0.6859167406,-0.3650515038,-0.0324607459,-1.0244921948
