encog,BasicNetwork,java,3.3.0,1,1464166803710
[BASIC]
[BASIC:PARAMS]
[BASIC:NETWORK]
beginTraining=0
connectionLimit=0
contextTargetOffset=0,0,0
contextTargetSize=0,0,0
endTraining=2
hasContext=f
inputCount=279
layerCounts=10,71,280
layerFeedCounts=9,70,279
layerContextCount=0,0,0
layerIndex=0,10,81
output=0,0,0,0,0,0,0,0,0,1,0,0,0,0,0,0,0,0,0,0,0,0,0,0,0,0,0,0,0,0,0,0,0,0,0,0,0,0,0,0,0,0,0,0,0,0,0,0,0,0,0,0,0,0,0,0,0,0,0,0,0,0,0,0,0,0,0,0,0,0,0,0,0,0,0,0,0,0,0,0,1,0,0,0,0,0,0,0,0,0,0,0,0,0,0,0,0,0,0,0,0,0,0,0,0,0,0,0,0,0,0,0,0,0,0,0,0,0,0,0,0,0,0,0,0,0,0,0,0,0,0,0,0,0,0,0,0,0,0,0,0,0,0,0,0,0,0,0,0,0,0,0,0,0,0,0,0,0,0,0,0,0,0,0,0,0,0,0,0,0,0,0,0,0,0,0,0,0,0,0,0,0,0,0,0,0,0,0,0,0,0,0,0,0,0,0,0,0,0,0,0,0,0,0,0,0,0,0,0,0,0,0,0,0,0,0,0,0,0,0,0,0,0,0,0,0,0,0,0,0,0,0,0,0,0,0,0,0,0,0,0,0,0,0,0,0,0,0,0,0,0,0,0,0,0,0,0,0,0,0,0,0,0,0,0,0,0,0,0,0,0,0,0,0,0,0,0,0,0,0,0,0,0,0,0,0,0,0,0,0,0,0,0,0,0,0,0,0,0,0,0,0,0,0,0,0,0,0,0,0,0,0,0,0,0,0,0,0,0,0,0,0,0,0,0,0,0,0,0,0,0,0,0,0,0,0,0,0,0,0,0,0,0,0,0,0,0,0,0,0,0,0,0,0,0,0,0,0,0,0,1
outputCount=9
weightIndex=0,639,20239
weights=##0
##double#20239
   -0.7671689964,-1.3249529273,-0.425070576,-0.4749961725,-0.1007909929,-1.483574127,-2.9968769679,1.5446146814,-0.4455038028,1.0616740302,0.7188249699,1.9741571688,-0.4057297498,0.1054376012,0.9446179255,-0.6132960272,0.2452709855,0.3418242374,-0.9569172775,-1.3525549669,0.2069972784,-1.6597494201,0.114692793,1.8690847613,-0.192931075,-0.2146062148,0.532890053,-1.0217045774,2.1977390334,1.5350850401,1.3599938073,-0.9018983322,-0.8123822296,-0.8102072931,-0.5843691378,-0.9317772309,-1.9412205326,0.8832278283,-1.2801512439,-0.8550885451,-1.2940414197,-5.5451892403,-0.584145991,0.3392835834,-2.1528447105,0.4330639083,-0.8646829779,2.180361022,1.595403068,-0.7925719004,-0.2206960632,-0.2948458955,-0.8235691573,-1.7705688768,0.4142444483,0.0986111683,1.1638224364,-0.2863331858,0.4127674485,-0.906545903,0.9068729272,-2.2330494804,0.3418040257,-1.3955670892,-0.209133089,2.2701927462,0.0508803788,0.415824539,0.5204966061,-1.2853989567,6.3610602387,-0.1314754704,-0.5221413622,0.1934653078,2.1103485179,-0.3449099329,-0.5589008098,-0.6263216901,-1.6895877012,0.6782569949,-0.2144951633,0.0959842322,0.0091577288,0.747078721,-0.0037102318,0.256488255,-0.5028921672,-0.9327654315,-0.547664161,0.8510586061,0.7873809647,-0.6923611943,-0.3059088297,0.7742790753,-0.4921448923,-0.54562002,-0.3128403234,1.0434662971,1.0135427482,-1.6740065233,0.2739132304,2.3331381843,1.2784002396,1.2987898418,0.2289279574,-0.6891771429,-0.3714610237,0.60429759,-2.1663405605,0.5997539902,0.86195328,-0.5914918802,-0.5295648399,-1.6997573276,0.6346246273,-1.6197775905,-0.0561543469,0.2384552298,-0.034708328,-0.7186124437,-0.1480286043,0.4640908591,1.8618351088,-0.4607975453,0.4132383539,-0.6899353267,-0.717321397,-2.265059821,-2.1086641849,-1.348711002,0.6738845666,-1.1209423988,-0.0632199133,0.2097341953,1.4996226588,0.1800411529,-1.1549769686,1.1575971364,1.8738153617,-1.225469782,0.2527394422,-1.6068884642,0.4454680174,-0.5056949074,-0.2673460459,-0.7508045451,0.6441171259,1.6551000105,0.1208090365,-0.8992818185,1.31441688,-1.1789253029,-0.0036476453,-0.1919491158,0.4179905148,0.0106120855,-0.4221010982,-0.3273976281,0.8212781621,1.0052245618,-0.6247171182,-0.2767136504,0.020816326,-0.4444607095,-1.8005521181,-0.6215492931,-0.4770597785,-0.5033770301,-0.5129404945,-0.2838852743,-0.2120204582,-0.860938736,-1.7348807963,0.3840169069,-0.0305268233,-3.1726493803,1.0423959445,0.0494338747,0.0625223657,-0.2828590585,0.3729212192,-0.3933247961,0.1897798987,1.0000705989,1.1617261689,-0.0413416851,0.1923898165,0.3810123956,0.2263500506,1.4139865525,-0.6061076995,-0.3079992965,-1.4144644928,-0.8429574783,-0.3260463586,0.7266694846,-0.6079872806,0.6529898444,-0.9952566924,0.0969193454,1.3525131881,-0.7887455868,0.2993297044,0.3309493213,-0.1212774415,0.8258423558,-0.2421829138,-0.4371536939,-0.110451036,-1.0823830699,-0.6232564604,0.8597550999,0.1871565873,0.710370763,-0.2245073754,-0.7903074414,1.447744578,0.3650858261,0.6647646877,0.4499716842,-0.6165781895,-0.0872913209,1.2400957431,-1.305692748,-1.2547035886,-0.2780283504,0.3460643388,-1.3385258624,1.0011245072,1.0720192722,0.0114279985,-0.131509689,0.8035839532,-0.077456217,1.5004827451,0.8463438981,1.7610623499,0.6737076431,-0.344205378,0.6404287728,0.2673757086,1.6664089675,-0.9781091131,0.4988674051,-1.7210241611,-0.3294216353,0.1759657854,0.4095513136,-1.2977458594,0.2302057966,0.7553254654,0.50403801,1.2515110195,0.5093382712,0.8812552685,-1.0811769933,1.6559720527,-1.7770657594,-0.5485131723,0.2613808041,-1.1015617285,-1.0064186438,0.7724467137,0.172906864,0.1090261346,0.2956724583,0.4912982124,-0.4001134452,-0.0966994013,1.4292685308,0.9019819827,0.1485262156,-0.4569625161,-0.5561005929,0.0733841655,-0.0981940892,-0.9066729118,0.9948935491,-1.0202813303,0.4462116829,1.6946224367,0.7671596048,-0.8116277296,-0.8523123058,-0.7429154849,-1.2826231793,0.2122978551,-0.3545553414,0.4214306574,-0.9341969964,0.3421399846,-0.4793525976,-1.4477300532,1.7883626005,0.1299801217,0.340077961,-1.1159250148,1.2270451522,-0.9679245054,1.3358922798,-0.0203747167,-0.2945648677,-0.4383789879,0.7415210766,-0.217998867,0.1232285898,0.6984866903,1.206928886,-1.0241001548,-1.4841623852,-0.7216518645,-0.1965620842,0.9072970183,-0.9698056651,-1.6433548229,-0.6394511494,-0.9693265755,0.8780694761,0.9464517654,0.7872604629,-0.8219306362,0.6484904164,0.1397245557,-0.1163011145,0.0239953217,1.3162344193,-1.496665586,0.5447280112,-0.3882660843,-1.0135951886,-0.802871631,1.3056185926,-0.0283693205,0.1038033665,0.5754610755,1.5420271131,-0.337249613,0.6815802021,0.2376996606,-1.4260355608,-0.4757259397,-0.7786603447,-0.1287298345,0.96666558,0.230428682,-0.0143287883,-1.0785842573,0.0626828754,-0.1333895058,-0.1850904974,1.6609075885,0.4083444041,-2.7097912266,-0.5444159957,-0.455808926,1.1093106931,-0.7214700137,0.8527490623,-0.9504739352,-1.1396814874,-0.2190495975,0.4666057998,0.6351925101,1.2519518102,0.9420453466,-0.1918062211,1.3027361602,-0.0845842723,0.205485968,0.7493225374,-0.1570956579,-1.3277636091,-1.2932311758,-1.2496680846,1.6738309224,-0.6261472154,-0.8277812428,-0.1184801757,-1.9806490749,-0.1080964271,2.0910712795,-0.882959153,0.0210211438,-1.2625032309,-0.7830258443,0.8973922975,-0.6477185899,0.999320906,0.8095824475,-1.3648645163,-0.6276659565,-0.9317330072,-0.2719457502,0.9592595574,1.6528416395,-0.7609565267,1.0671299798,1.8675062469,-0.5228604861,0.9642391412,-0.5014753749,2.1560813727,-0.6845516655,-0.5161973909,1.1790561677,1.0453729589,0.6465233137,-0.15834482,-2.1001859131,0.8312235465,-0.5828105105,2.7747987735,1.3169110453,0.2937836669,-0.2929266678,0.0916591327,1.5896696422,-0.829633042,0.5640436434,0.1296771364,-0.0228536596,-0.1328816058,0.4913534381,1.5943698195,0.3617275461,-1.4163743852,-0.0487964499,0.3610831299,-1.0566581851,-0.2852113619,0.8014751735,0.1497858382,0.6263103751,-0.4518058031,0.0919990892,-1.0182921408,1.5923549928,-0.4263263106,0.0172011928,0.2133381514,-0.1622058135,0.4618194489,-0.6912236719,0.2108498859,0.8141140994,-0.2436032802,1.3917297313,-0.591050279,0.6551723726,-0.3785051295,0.6476753849,0.0466438772,-0.0343207002,-0.5763166896,0.127527565,0.03434627,-0.1544653437,0.3043250697,-0.2698363938,0.2806371704,-1.0981041341,0.0729865824,1.2911280819,0.6082013806,-0.0024259866,1.1176129754,-0.0272508081,0.4790686096,0.3193243468,0.3236788169,0.0027402782,1.9092350749,0.37014505,-0.5430667683,0.8048520131,-0.3472145953,0.9731017896,0.0754981693,0.9672046385,-0.5603731596,0.4862406005,0.6467661858,0.4006003014,0.7415352394,0.6439034501,0.1477722952,0.7058899606,-0.7644439204,1.3381652317,0.3907527365,-1.0788186568,0.9260614009,-0.6641767678,-0.6433052924,0.2334513185,-1.3732656628,1.0177285047,0.9718150129,-0.6897119455,0.58205683,-0.432377544,-0.8143084646,0.8464542513,0.2591145781,-0.0071372966,-1.6362026759,0.7950399419,0.7434143989,-0.7963049037,0.6005602335,-1.0717790956,0.1784427998,0.0203045332,0.3158836829,-1.0290537122,-0.3429467007,-0.1371079272,-0.3369068009,-0.7823516558,-0.4296035451,-0.7829412625,-0.569374508,1.1865709613,-0.6225693757,-2.0941756378,-1.5823490881,1.5441126332,-0.4936188366,0.4907985088,0.8846156232,0.4802589495,-0.2706927184,0.9203874234,-0.5333556798,-0.8249597394,0.2754596108,-0.0902398092,0.1225486719,-0.6977987811,1.0189254589,-0.2890636638,0.2533349876,-0.8277178163,-1.6270880263,-2.578956864,-2.3059358376,0.5689515805,0.54874098,1.6128119286,2.1958354048,1.4259774371,0.8738302146,0.4686185749,-1.4604902324,-1.109005728,-1.1271053234,-1.2145563614,1.3234771163,-0.4801517146,0.3884788176,-0.5239764149,-0.7204336827,0.2365435244,-0.2977999152,-1.4842393117,0.9504958904,0.3601007532,-0.7256525199,-0.0488292633,0.3983161552,0.4995308726,0.3634633925,-0.8943056974,1.4502489749,0.4437328677,-1.1146681069,1.0529342643,-0.6023457432,0.6175084281,0.0996980981,0.5868085459,0.2324059908,-1.2520983849,0.1274143794,0.5177143238,-0.6367307226,0.2755263662,-0.447444949,-1.1791129059,2.5930353611,0.2812255135,0.8379083259,0.335338661,0.7485305189,1.3828590642,0.6047218773,0.036888715,-0.777038697,-1.869570191,-0.2789703952,-0.0133944872,0.421779382,0.7064916843,-0.36849951,2.2705638347,0.2301390492,-0.5160094697,-0.481987435,2.6708566684,0.1769142471,0.7365342133,-0.9687395562,1.3676403235,-0.7801082626,0.2555549881,1.2043017869,1.8326682066,-0.5944760637,0.2261948152,-2.2160115039,-1.1115645428,-0.0883946651,-0.9383062155,0.1491786598,-0.4100220889,0.2547224319,-0.072176578,-0.1445037231,-0.3915027408,1.0484935664,0.7928007415,0.9227121741,0.2369578334,-0.2729276805,-1.2893226882,-2.2091379604,0.5993852244,-0.0333238055,-0.0933538907,0.0217735487,-0.1114601343,0.5851350674,0.8722016772,-0.2664666103,-0.7352528925,0.5307944252,-1.1595586746,0.2121023688,-0.7046430648,0.1944772516,-0.6892744179,-0.2844342009,1.0115080505,-1.3097856177,-0.7470603693,-0.1829473782,0.8152329472,0.9865687304,0.4874183228,0.6400305122,-0.3004006082,0.1200980694,0.222341484,0.6082133185,0.4335891637,0.6229710933,-0.4511902072,0.1353448726,-0.9350471062,-0.7594515321,-0.6930591073,0.3755079817,0.2365499934,-0.2823147288,-0.4827870364,-0.050056773,0.0917040385,0.4353104124,1.2979404975,-0.495458622,0.4524458856,0.9241065023,0.7048045593,-0.4289604488,-0.9472750963,-0.2537440196,-0.3880198473,-1.134635522,-0.3825549429,-0.5202087131,-0.4305769645,-1.1143627883,0.5401505451,0.1357463879,-0.4360057869,-0.7403853404,0.5154282992,0.7462880728,0.821344274,1.0493787005,0.3912794893,-0.566334277,-0.5445040395,0.5572269279,-1.0250645506,0.0066912369,0.307387791,0.2779581248,-0.1856066208,0.9742234315,-1.1716896535,0.1105999015,-1.1107350356,-0.5994060943,0.9410425416,-0.2717279096,0.1466223014,0.4670756676,-0.2198654957,0.5293095548,-0.3712872998,0.1428497994,0.6878318778,0.4007728478,0.342890121,0.2402719041,0.5234674201,-0.9420700935,-0.3081711308,1.1285657519,0.7105403121,0.8138202265,-0.4254092914,0.0950319503,-0.4946803354,-0.0819516915,0.3480688691,0.5686863014,-0.0152849855,0.7641403359,-0.385034622,1.5342427538,0.8512013164,0.6924068479,-0.3528566685,-0.5996990763,-0.7111869517,0.1717834202,-0.0689781007,1.077545284,-0.2329666446,0.8480485963,0.5702928006,-0.3991230702,0.9786648106,0.6415901777,-0.4202108272,0.7031246842,-0.2140791167,0.2640646364,0.2997255284,0.8221639276,-0.3935365504,-0.0693664966,1.4811481279,0.554394613,0.2827332696,0.9006031853,-0.6172425009,-0.2309147699,-0.3142977992,-0.661462114,-0.152506409,0.6980536679,0.0597681855,-0.6127039951,0.2976132745,0.1536152611,-0.3682364016,-0.7246554435,-0.779698401,-0.006082616,-0.1590915267,-0.993447605,-0.3481560598,-1.0373363769,-0.0701298588,0.5708262795,0.0678914773,-0.2376105948,-0.3471107952,-0.4887044845,0.7363125782,-0.1976996939,0.3087436853,0.6750650432,-0.5380288439,-0.7846873008,-0.0337241433,-0.2999515681,-0.3535199066,0.478114317,1.0366414603,0.1260827526,0.1014416468,-1.0502761098,-0.7192738316,0.5469756261,-0.5159487511,0.7224523965,-0.6817579514,-0.4301600437,-0.0730415968,-0.5243473779,0.6435819044,0.710997144,-0.2804961891,-0.7658258282,0.0176524338,0.5561526645,0.3324077824,-0.14150012,0.9320950663,0.0006030423,-0.1659496497,-0.3373557865,0.2257586478,0.0909662074,1.1389999331,-0.0882165182,-0.7736812389,0.2858949661,0.0331201398,-0.5531366121,0.5760704071,0.3462608834,0.2376763361,-0.4204744606,0.2743965384,0.6584007039,1.0417284853,-0.1272838836,-0.7688390515,0.7677353376,0.1966910097,0.1555539125,1.2119744493,0.0074033141,-1.2645723562,-0.4825582939,-0.70346433,1.0919617712,-0.5089465083,-1.0359387529,-0.9897821714,0.0775508351,0.5093317974,0.0120344389,0.6869202211,0.6624794236,-0.4939663222,-0.7902798077,0.9859229056,-0.7545870782,0.0144143355,1.1648963456,0.9029871488,-0.4982745802,-0.3721345879,-0.2813940296,0.3735744365,0.1213936217,0.6396221602,0.7127778564,1.245264328,0.2065942931,0.9570542768,0.5335089687,-0.8902814773,0.5424314771,0.3405103012,0.7891880914,-0.8969645676,-0.7000692589,-0.1799233317,0.5193420946,-0.0957795373,-1.1359273068,-1.181710432,-0.2575720099,-0.1455366563,0.0320226638,0.2246358649,-0.5752879788,-0.9179168944,-1.3167778778,-0.6848514613,0.4581045061,-1.3826265161,-0.0282054254,-0.2658906638,-0.1946848595,0.674724092,-0.8737604795,0.4401663325,-1.2884571327,0.4862064769,-0.1162715508,-1.268871408,0.8480374684,-0.6585257281,-0.47466946,0.0694328576,0.9116222672,0.017947475,-0.9718931683,0.7328333708,0.3456758655,1.0435137378,-1.5153801319,3.4051334784,0.0354810803,0.4105706397,-0.9856327628,0.735399185,-0.5654001606,-0.0603200167,-0.3265372424,-0.9614997779,-0.7599415986,0.0823958831,0.0521846344,0.7659580199,-0.514181651,-0.1883661086,-0.0209659833,-1.2027650099,0.3819971438,0.6654781781,-0.4931281185,-0.9681910068,0.7988405293,-0.8580306544,0.8317036956,-0.5841065884,-0.5280710197,-1.5950203011,1.3571557936,-2.4159083935,-0.6676293097,-1.0155846131,-1.525146374,0.7596059379,-1.1303741621,0.5128374263,-0.2462278795,0.314787278,0.7799729478,-0.1106777811,-0.7532297578,0.1128369691,-1.5814007106,0.4865171377,-0.1874487709,-0.209330318,-0.5608130445,-0.5584006039,0.6790805604,-0.1395625526,0.1429784599,0.0362599177,-1.8124987566,-0.8620435519,-1.3454236018,-0.6934199648,-1.0929992072,-0.3283027068,-0.9222014465,0.2209018761,-0.3419226931,0.3818851815,-0.7736169711,0.1698717662,-0.7580351736,-0.9458199284,-0.3276982554,0.378731053,0.3973266352,-0.132215654,-0.075190522,0.5877522419,-0.3775556704,0.0248431005,0.1105600733,-0.4547986176,-0.326584046,-0.7391857466,-0.3222444601,-0.7332729427,-0.7609265496,-0.1699660563,0.4095962364,0.6312950644,0.1604879146,-0.3329036781,-0.8790757927,0.5775240976,0.3060715064,0.4416388345,-1.894067065,0.3597465098,-0.7961264635,-0.9242072648,-1.1300991149,-0.7027759097,0.5084694148,-0.0256960954,-0.077443437,-1.9372343387,-0.5113469726,0.8900696483,-0.2791484427,-0.7065023602,-0.6157652716,0.5508105981,-0.3451391211,0.6845631233,1.0811392516,0.1777953333,-0.0018426596,-0.0621754725,0.7967406583,-1.4868244581,0.3095906488,-0.298779408,0.0043409665,-1.0607498896,-0.3074404803,0.0561782403,0.4685597788,0.3562182762,0.0296359158,-0.6158099912,0.9352276179,-1.843772991,0.2984524325,-0.2224506807,0.340324301,-1.0025527905,1.551534261,-1.1037412378,0.2640427603,-1.0835213847,-0.8829147045,0.0071839529,-0.0694098171,-0.4464542376,-0.1631261181,0.0101379909,0.5818947277,0.1318527723,1.1006870323,0.7944015873,0.7784030601,-0.0310767984,-0.7788873385,-1.0731526026,1.0394267453,0.2539388275,0.7614980267,-1.1294755628,0.2157950079,0.6892085316,-1.0197511029,-0.1111820029,-0.4004591137,-0.9996802925,-0.7542574498,-0.6356421534,-0.3415208822,0.3596508574,-0.4487618665,-0.3100858883,-0.6056685766,-1.6876318645,1.6104606992,0.1739452493,0.4452145543,-0.0340976847,0.9034787259,-1.070764852,0.2362868832,0.7117084016,0.5772907443,-0.0865279617,1.6729389848,-0.7408214183,0.8863207452,0.3592393653,0.0605673832,-0.4012248066,0.4454199887,0.2709725858,0.5683673822,0.2686333342,-0.5911494564,0.691949183,0.1240809546,-0.8982389213,-0.1317167972,-0.2918697819,-0.7321544621,-0.8878014993,0.3744872941,-0.9459742175,-1.9437531846,-1.4496173414,-1.627688137,0.5702075569,0.7305488765,0.6626983002,0.5595252519,0.3313141149,0.7703903963,-0.359993125,0.8899105657,0.269340418,0.041475259,0.0270800212,-0.2203928077,0.4375391717,1.2729204712,0.5282906484,-0.0801352835,-0.7999094586,-0.209786013,0.693524182,1.1075795498,-0.0189128946,1.1746882141,0.0040896284,-1.6407681048,0.1721258459,0.5819908804,-0.4397720941,-0.3181619262,-0.2095907814,0.0479283456,0.538094406,0.173240538,-1.5790158485,-0.9079143219,-0.9604790653,-0.2202340317,-0.5225607554,-0.3218229069,-1.0229381238,-0.7474867328,0.1084771937,-0.2548740277,-0.9437251676,1.2455311082,0.1830054877,0.4403665243,-1.1002547517,0.1764794242,0.4265583563,0.7889709757,-0.1349567568,-0.9694125906,-0.2250786116,1.1497535634,-0.7487809849,0.1457917966,0.5975807242,-0.0315629215,-0.0558347719,1.9787575085,0.4733568525,-0.3222043285,-1.4024431172,0.7517415623,0.4629820601,-0.0114163781,0.2042015931,2.0162132191,-0.1745657744,0.4110865795,-0.1675583975,1.1792467054,-0.9667775965,0.3361830783,0.5043536861,0.7832502531,0.5933560233,1.9863059249,1.0687834361,0.0015919287,0.5952916061,-2.184898188,-1.6739501278,0.1697492698,-0.175574584,-0.4802559703,-0.2974531329,0.1563912723,-2.0866925825,-0.1887669128,0.4127823665,0.7429151235,0.4895122215,0.4694243842,0.1883994321,-2.4656325375,0.7369472216,-0.5022779701,1.6279648701,0.0284904747,0.2422064182,-0.4253440948,-0.4257222494,-0.0825380783,-0.9254157782,-0.5148459564,-1.1868004867,0.1827256735,0.4057102078,0.3184044184,0.5087205917,0.3216736002,-0.5648374967,-1.5820046162,-0.5645070771,0.7903225925,-0.0423934276,0.0305644755,-0.4162424598,0.4869034134,0.6687884853,0.1292179105,-0.1559583809,-0.1976394601,-0.6349344625,-0.3222938822,0.9126806865,-0.0198519644,-0.3113824001,-0.5451843602,-0.8658353275,-0.4518402035,-0.8004889028,1.1272993361,0.7405886446,-0.812820351,-0.8803217689,1.5549437008,0.1163337148,1.03797686,-0.3393266241,0.2797607058,-0.0956220476,0.5441685539,-1.2490111424,1.2751026912,-1.4656509774,0.6152295737,0.8135715087,-0.2862046583,0.7557469461,0.5055100301,-0.7719044601,1.0487208165,-0.7052770595,-0.1649405099,1.1853876087,1.0095079783,1.0662009541,-0.4538095378,-0.2698160004,-0.3632221336,-0.5875307538,0.6600469881,0.669488162,-0.4074100029,0.349424151,0.6872948292,-1.0256786769,0.1805162381,-0.3526786297,3.03552044,-0.7789006972,2.2375097133,0.4425460724,0.3248674426,-0.3567265069,0.1898471305,-0.389108903,0.690561877,-1.2292167177,1.1098477961,-0.0155618349,3.3966335319,-0.0021344187,1.4801524336,0.3282281554,0.2482009072,-0.2220777164,1.2059127347,0.7902428915,0.8111445133,0.9183862045,1.2462583196,-0.5074728125,-0.5560237355,-0.6523614378,0.9063206487,-0.7262212076,-0.1051838047,-0.6747108812,0.2390589308,0.8253722534,-1.2548239868,-0.0122157384,0.4668182815,-0.3483171584,-0.7033208296,-0.283146344,-0.056166451,-0.3136630922,1.048158627,-0.8479753335,0.207722219,-1.0124764453,1.0663615725,0.4273201007,-0.9997074711,-1.1447302698,0.0792107868,-0.5810547981,0.192717445,-0.6861613023,-0.3483047655,0.6839511276,0.4323818254,0.8524438954,-0.820330075,-0.3054036011,-0.8698865438,0.1887874431,-0.5152456494,0.4200763015,-0.2028559767,-0.4425139993,-0.4713266421,-0.1949305256,0.2580884796,-0.4328017639,-1.2055845649,0.0168642001,0.161664514,-1.4911797438,-0.0253710053,1.0403833219,0.4008619979,-1.5964485101,0.1316652866,0.393636822,0.2710176898,2.1214455071,-0.2498738532,-0.5917284259,-0.1671923024,0.6487303649,-0.3691043813,-0.0886584513,1.1077686727,-0.4777361172,0.8077704983,-0.0409478088,0.4698854079,0.3020614976,0.3057435565,0.2330844371,-0.2232600264,-0.5559436555,0.8828967109,0.6153572823,-0.1017557339,0.6995813092,1.5092521403,0.2861116843,0.0518026013,0.3540238362,0.6552655517,-0.498505216,-1.3359779811,1.8967532866,-0.2799510352,0.6822116122,0.1975112684,-1.1980720606,0.7792981399,0.4104535375,-0.60674297,0.0546690654,1.2602451361,-0.7567479753,0.4879529398,0.7502989738,-1.6952151776,0.317952649,0.807016745,-0.3030194135,-0.5111441102,-1.220111044,1.0369543819,0.4282420209,0.4698319683,-0.3148041823,1.38296212,0.6193541219,1.1505229249,0.1548836948,0.894302507,0.8262349067,-1.5462390403,1.4277995798,0.2016969193,-1.345906815,1.0206751345,-0.7854714606,-0.5043248258,1.9231017592,0.4470419731,1.7494980365,-1.6385390404,0.2918017401,-0.9214673432,0.1168863346,0.6575828152,1.0714958514,1.2623962923,0.2026430137,-0.3014377443,1.4540755953,0.7625485606,1.1856198244,1.2313948829,0.3206368829,0.5991635837,1.34754721,0.7385917963,0.0651730114,0.7589432967,0.5497249132,-0.491471211,1.7648118165,-0.0694228378,-1.1777401249,-0.3529602562,1.6305471122,0.965861774,-0.0392719196,-0.2114022894,-0.4175998501,1.1470329125,0.8395233076,1.448380148,0.2052171785,-0.2118752679,0.9856302909,1.0939341581,0.4359798783,0.1075713545,-0.0940548513,1.336255559,-1.1056481531,0.3113778042,1.12629051,0.9529502405,3.5686463808,-0.5416476001,-0.4681041344,-1.8399841772,0.6322306508,0.1309437025,-0.6479824842,0.0856661269,-1.2371365107,0.0070983122,0.1048570659,-0.8556717767,0.2228106085,2.1624305921,-1.1963782906,-1.1327246354,0.3903296558,0.3138916044,0.5217134594,-1.1209955532,-0.6604749425,-1.1325942566,-0.5197303846,0.2530462895,-0.0840687191,-0.9743047705,-0.2074440828,0.1946409517,-1.7552581074,-0.4689121283,-0.484190519,-0.9242032426,0.3771358585,0.0003844364,0.3066036997,-0.8210005235,0.4156392848,-0.7283549977,-1.5225167208,-0.3271485976,-0.4533841964,0.546467838,1.3271808292,-0.7334388141,-0.1535289183,-1.0003775445,-0.0540952321,-0.8220866158,0.060664474,0.2475837199,-1.1221771168,-0.5735834081,0.5284936533,-0.963984732,-0.6607593574,-1.3377886412,0.3747113682,0.2698027573,-0.4040228755,0.4249249431,-0.5183054037,-1.0202984539,-0.0451742082,-2.0009169733,0.5714026966,-0.1940376837,-0.1740166031,-0.3821054986,0.7788163653,-1.1106112805,0.1389322082,0.2507828124,-0.1502308522,-0.9996129575,-0.9727776352,-1.3860927345,-0.4680094404,0.3829674923,0.8099710581,-2.3917518218,-0.1989751664,0.5968065006,0.0038963164,-0.071142527,-0.0960000316,-0.0031843526,-1.0466244394,-0.58472262,1.177436928,-2.2963932003,0.4641739538,-1.4919562138,0.2926654569,-1.3014060146,-0.3900088594,0.9617659443,0.7518417436,1.0286710853,-1.6254876352,-0.4851668516,0.1640694388,-1.1436007305,0.2052091143,0.2340078821,-0.8842613446,-1.0394753711,0.3430633261,-1.4279947737,-0.3161416342,-0.1723110664,-1.19415184,0.8330435453,-1.500704969,0.135936202,-0.9277477821,-0.0571783539,-0.5820072824,-0.4073343882,-0.9013112484,0.8967676808,0.2553481663,-0.1947206644,-1.3665802623,1.2097164646,-1.3056554457,-0.2397699192,0.4851692657,-0.2903457707,0.1914374431,0.840402059,-0.0229814225,0.7939359566,0.0230867099,-0.6278511655,-1.7587472322,-0.9844672354,-1.1760654822,-0.1132342425,-0.5918654354,-1.5019846868,0.6857288338,0.2207228427,-0.0809001745,-0.3400766973,-0.923344463,-0.2608508834,-1.9962996784,0.5133353968,-1.8570529274,0.9957785406,0.0496440464,-1.3221398877,0.6789475411,-0.8618194959,0.1684275598,-0.4527951132,0.356952859,-0.4788947195,0.3236503245,-0.3932870879,0.9902067632,0.1165414194,0.3550564935,-0.9521875282,0.0174438451,1.4837441651,-0.6845847773,1.2666100467,0.4904282516,-0.0163376653,0.8852144964,0.2668898107,0.7977728942,-0.8780885431,0.5792388591,1.1770014461,-0.321951461,-0.211068091,-1.2214612061,0.4324403151,-0.4995157976,0.381405206,-0.7045783874,-0.0122017414,1.0896901956,-1.3017659111,0.8107127037,-0.6165876935,-0.180708108,0.1522319113,-0.1072545147,-0.9777126214,-0.6018905684,0.1421529315,0.0307830847,-2.7497787102,-0.9260251008,-1.7559785503,0.8917675478,-0.0549791427,-0.0015042112,-0.2725452377,0.4407706514,0.3420616554,-0.4420327927,1.5881782668,0.4970747007,1.2659237669,0.2733287841,-0.1714093533,0.1424974437,1.032359647,-0.3465639098,-0.8926058661,0.061607746,-0.7735999166,-0.217601471,-0.5271104153,-0.1572923841,1.2305033293,-0.1111479269,-0.1978178755,-1.0952707967,0.0444577659,0.7817236917,0.02725338,0.3943868008,-0.6175688649,0.6917851561,1.839906054,0.5048769046,-0.7337455535,-1.3879593372,-0.7940561073,0.1087107769,-0.1853903567,-0.3732248454,0.2997884191,-1.3704730587,-0.3159777906,-0.1310900387,1.3299283417,0.8528933074,-0.0954321999,-0.4381632229,0.6320968956,-0.2240991925,1.5070394541,0.0232997241,1.0648809805,0.9364002982,0.4149322616,-0.4705103646,0.6326406587,-0.0817713117,-0.8532446408,0.8682278587,0.3358784294,1.2549127791,0.3046805393,0.5997946737,0.937316989,0.7505996691,-0.5226127468,0.7290774135,1.3732950408,-0.6922187512,1.1011638715,0.5267727519,0.3951446239,-0.1176139873,0.9392820084,0.0353215883,-0.0490211955,-0.0200661402,0.2020000799,0.2582734373,0.5713934473,-1.1891161278,0.7147862941,-0.6635951616,0.2347807934,-0.6965961641,0.105162799,0.615425502,-1.446211003,1.7094702056,0.4125545529,0.6065258818,-0.8847329539,0.8400877009,0.167128528,-0.1167172803,3.143874072,0.7228552839,0.5199624485,-0.740123708,0.1396599506,0.1969093541,1.3262369978,0.0900709895,1.0291829239,0.970476318,0.5086746966,-0.1725212522,0.4520219219,0.1969889808,0.1377298199,-1.061024244,-0.3214156507,-0.6271971586,1.6583899673,-0.3742672818,-0.0313135443,-0.2525462289,-0.2667945853,0.559622356,-0.3411822728,0.0235544896,0.3850352908,0.4179874701,-0.0553240444,0.6791313197,1.7913765859,-0.2307222815,-2.0004783509,0.6785683861,0.262801311,0.7396487547,-0.943251175,0.7531681606,-0.3103440276,1.6548723992,-0.1457175568,0.4188457606,0.7059600255,-0.3373573846,-0.4899986948,0.1825769594,0.9131549516,-0.5988716496,-0.6631092075,1.9839335857,-0.6275722537,0.3109156912,0.2689737637,0.7602354966,0.6732867746,-0.119493737,0.1335689472,-0.5545831094,-0.1105333896,0.4496386926,0.1097962864,0.840154647,-0.7969963201,-0.4025731451,0.193222521,-0.2926655474,0.163577081,-0.6354243241,0.3226102656,-0.0844036433,0.3887833642,0.0514137908,-0.4517884974,1.6027761861,0.4111064563,0.6440103084,-0.7728472751,0.6121357455,-0.1869799995,-0.1849628249,0.2645372195,-0.2254901882,0.022725943,0.1608393093,0.4996821066,0.2786467591,0.6202743662,-1.034347269,-2.359647979,-0.3406342163,0.0142074801,0.187924913,0.245747379,1.0571281421,-0.079081977,0.2603204127,0.0704096169,1.5919009601,0.2833948869,-0.726306771,0.1300298278,0.6720759606,-1.6928518188,-0.0476498138,-0.1188122194,0.1366818767,0.6825263008,0.6119693588,0.9298741714,0.7547011455,-1.9991237411,0.1367855354,0.5420046997,-0.5006644624,-0.9596822591,1.1631639732,0.3498875585,0.7192788163,-0.703013344,-0.0281897462,1.2836817874,-0.3112040499,-0.2727939195,1.5067746597,-0.3366092752,-0.9299820232,0.3030831952,-0.228352508,1.0175721365,-0.7464994353,0.2676932846,-0.0477428713,0.0074175115,0.6676144036,0.8496435943,-0.925267331,1.2686620272,-0.8293055949,0.6795453503,-1.0804458078,-0.7919050107,1.0643735618,-0.7544178619,0.8608022946,-0.3804216751,-0.7152036764,-1.1876482973,-0.4945464097,0.5735722296,0.3401736103,-0.9379593406,0.267377363,0.9125177865,0.5442422433,0.8427060276,-1.5131780701,0.3653955614,-0.571835606,-0.6590115814,-0.9386588228,0.1227107975,1.3520966733,0.7214962808,0.5356438811,1.1030724176,0.3849406592,-1.0320675523,-1.3762041592,-1.5632330275,-0.0190080189,-1.3266378639,0.828504318,0.4476926572,-1.0756508426,-0.2440665234,-0.1769003053,0.9909451373,0.5381974456,0.0156536606,0.583861619,0.3408619258,-0.3788052376,0.2849335513,0.1702846692,-0.3067308132,0.3952692867,-0.2708201161,-0.7410390137,0.3600335716,0.4572163684,0.2755360167,-1.0439788873,0.3538620637,-0.6481070603,-0.907513612,0.9028471334,0.6760821974,-0.3348730906,-0.9179839257,-0.8116362694,0.3552050274,0.3479879271,0.1872188563,-0.3969712386,-0.6219443377,-0.6304604824,-1.173425145,0.4516945921,0.4254626534,-0.6653539557,-0.4342560747,-1.0239964102,0.6868214972,-0.0928441047,-1.0405432657,0.0456887062,0.2298855176,1.0150301453,-0.0870786161,-1.1495490829,0.3849274725,-1.1002344778,0.1430988283,-0.81077739,0.9912546581,-0.4317824236,-0.7651846477,0.3810622408,-0.330480012,-0.6933977521,-0.6874477486,-0.9060209518,0.5073021255,-0.1604696526,0.8980638264,1.2924868581,-1.7515329233,-0.2950551377,0.1089370055,-0.0699983255,0.5609656776,0.1917984873,0.4387113494,-1.9979656297,-0.8353192314,0.2496902884,-0.6222766297,-1.1255369946,-0.0521411418,-0.0839606544,-0.0611051594,0.0992862702,-0.5195725631,-0.5747065922,-0.7522708622,-0.6203711493,-0.7011738174,-0.2302969385,-0.6523935382,0.0423482701,0.0660326388,-0.6298471424,0.1315911356,-0.6516145958,0.8139964686,-0.2589759167,-1.5116736359,-2.0515366425,-0.3416487307,-0.538908609,1.8940039762,0.4804868723,-0.6443420151,0.0317324477,-1.1256250779
   0.5122770477,-0.6463069254,0.5266724581,-0.0490851907,0.9418146074,-0.8853076572,1.5764716194,0.9606401687,1.3160369436,-0.9589283912,0.8799223219,0.5347501314,-1.076428217,0.6623117643,-0.0238901565,0.0551629114,-0.580322235,-0.1003820034,-1.936783049,0.1673009694,0.136020838,-0.6836549693,0.7028065021,-0.5734647982,0.0464851153,-0.227772635,-0.1945200742,-0.1187128962,0.0024008544,0.8999270593,0.0087512593,-0.2109598737,-0.3940490846,0.5135474668,-0.4060978794,-0.4240689507,-0.3708827687,1.5869849923,0.8244247369,-0.6812958438,-0.2753072733,0.3043298238,-0.6177460742,2.3670405101,-0.4315359524,-0.406387948,0.1547403415,1.6379014442,-0.8552606618,0.2545644809,0.5534188527,0.8841201826,-0.3490753917,0.2396612356,-0.5732090345,0.6890929591,-1.0647866082,-0.2484330216,-0.289048096,2.7002161523,-0.0378660733,1.3292666971,-0.366408505,0.731270915,0.3946306456,0.8374628983,0.1066201647,-0.6633898714,0.4401532599,-0.3324437499,-0.1069444789,0.1427680475,0.9460891299,-0.0769983122,-0.6989814985,0.6194910881,0.1689329408,-0.5555241661,0.5329033681,-0.0103576044,-1.2118780046,3.4728907293,0.8020179411,2.4328862977,-0.3951904835,0.8890455102,-0.3800274372,0.8674480157,-1.8154554831,0.4487535608,1.4077315931,-0.6318504957,-2.0048317202,2.1444761519,-0.6923685945,0.2615295016,-0.2612101198,0.0967658898,0.0795618717,1.298468404,-0.0832190732,0.2345881486,1.7287824705,-1.169294585,-0.169769679,-0.4266126208,-0.6129597646,0.5720779891,1.1764875656,0.2549099734,-0.4844520594,0.4004025315,0.020091343,1.6192910416,1.4327399623,0.340812997,0.2822842802,-0.8792452327,0.1049991846,-1.0804606192,1.2527646528,1.6634472246,-0.4209461031,0.7469284551,-1.0010411209,-0.0061638372,0.6070298247,-0.2165709223,1.2130923396,-0.4071417534,0.9496961807,0.2060944458,-0.699048393,-1.0307274166,0.4786145377,0.2763408587,-0.0365174686,-0.0050321702,1.3641333287,0.1385663361,2.7772079159,-0.5207383734,0.8037930939,0.3578415573,-0.9538082046,-0.7319964709,-0.4151649186,0.7948059954,-0.3605995051,0.5474349708,-0.0528478524,-0.1039276249,-1.9671254693,-1.5358405151,1.065086843,0.9938246243,-1.1323516486,0.7094472991,-0.335169696,-1.1772628453,1.5058259831,-0.5680783937,-1.2603270199,-0.9765181731,0.3499781401,0.6221784938,0.0121543841,1.5374196067,-0.1771164388,-0.2481644393,0.2417812082,1.2280817002,0.1603129127,-0.3483742364,0.8371036716,0.5567187059,1.3640215632,1.263922514,1.0704621824,0.0161084886,0.2338391404,0.9161308908,1.5285612465,-0.1399231045,0.1636666376,0.3750599094,0.7143512835,-1.1971163813,0.7761717678,1.4614931533,0.4375633242,-1.1758502164,-0.6611732956,1.0618041656,0.3954375862,-0.0714808471,0.1829214463,-1.2781179326,0.820352429,-0.9733075262,0.1660095953,-1.255662479,-0.0795255555,-1.2224443254,-0.1296130146,-0.1470774212,0.8294639282,1.4404519784,-0.4268578191,-0.4808229235,0.8125344399,0.2363719525,0.4633829787,1.3016850626,1.1393032378,-0.7537899998,0.0909168412,-0.3499398782,0.9514185352,-0.4167579577,-0.919764631,0.0432577581,0.1742259102,0.9360384108,0.3773925594,-0.9349891473,0.7719706171,-0.3164474984,0.3686833595,-1.3306639946,0.5905369378,-1.5172718755,1.0054278067,0.2345539297,-0.5197757496,-0.3643867595,1.0955464937,-0.5935399169,-0.6247631089,0.2630211393,-0.8584178888,-0.3928155392,0.9363763356,1.1901959862,0.7805790856,-0.5162940693,-0.9684910967,-0.6144506401,-0.5511104496,0.1229363784,-1.1204842012,0.2867797129,-0.5961096021,0.3647733048,0.644030066,0.8496127638,-0.3971202902,1.1278432925,-0.894420639,-0.5043107025,-0.1384531097,-0.9816793586,0.412816402,-0.0430549533,-0.2869951058,0.8023896644,-0.0928663465,0.0564142018,-1.6019288078,-0.3556597908,-0.5874794421,-0.8801916899,0.606769555,-0.0156255694,-0.7305788705,0.9446593243,0.3722672258,-0.0925087257,-1.3791787436,-0.8836773239,-1.1858085414,-0.1647026744,-0.8290750772,0.7050232431,0.8739181415,-0.0529247408,-0.9096342291,0.968295118,-0.4256500151,-0.3759807724,0.390938875,0.5958472874,0.8026677903,0.0604017749,-0.6395266714,0.8669247726,0.2017584537,0.5239135217,0.6336850759,1.3809464241,0.8342671484,-0.4142314772,-0.7264676173,0.0125412893,-0.628717195,-0.0658176401,-0.2461435333,-0.2872384321,-0.3265073133,0.0661500063,-0.1421002895,0.693312753,-0.6209678416,0.8390581901,-0.0366901456,1.2692942022,-0.0058277181,-0.5703735511,-0.4515222222,-0.5266924261,0.2154813906,0.6038485693,-0.2559517028,0.2393939296,-0.3239705266,0.475877627,-0.7056869626,-0.5389477269,-1.248157398,-0.3739358929,-1.055350249,0.9505245501,0.3025744263,-0.5820869615,-0.4477443055,-0.1343385981,0.1434357024,-0.970875012,-0.1174901294,-0.2898100932,-1.0698948816,-0.6966209132,-0.152241874,0.4450876171,0.5054194626,0.7054784583,-0.2320076311,1.3581842905,-0.0056150106,0.4049784766,-0.2943906838,0.9414967785,-0.5111726127,0.1776091948,-0.6031957462,0.4420702466,-1.1466815688,0.0553762764,0.932456437,1.015678341,-1.0851525316,-0.4280388842,-0.500373439,1.500029462,1.2495162433,0.5120961011,-0.5417600039,0.2040300203,-0.1066477351,-0.191548854,0.1331752458,-0.4803227639,-0.1643235474,0.9094117866,0.6040706349,-0.2062891891,-0.3485640743,-0.4018322876,-0.6086452335,-0.596640919,0.5546983766,-0.582871407,1.0636581236,-0.0138073305,0.034054656,0.6855304462,-0.0089143227,-0.2287913934,0.2752307329,0.5411840079,0.376981084,-0.6309360886,-0.2647337216,-0.1090830318,-0.8429737459,-0.9079843762,1.0646702457,-0.0305141917,-1.0087163768,-0.4060672578,-0.3178192562,0.1054356137,0.2003453138,0.6912237214,-0.0827080862,-0.4205885706,0.387095158,-0.0603727974,-0.854151846,-0.1684231162,-0.5018548712,0.7407111046,0.4353674229,0.2177057906,-1.0529499385,0.9077699593,-0.1647336776,-0.8588196908,-0.0030593648,-0.2661973327,-0.2455549448,0.3411609227,-0.3122993069,-0.0222951806,-0.3819921473,-0.1187531344,1.3124718055,0.5109998453,-0.4048236529,-0.2990704899,-1.0310929819,0.4812892562,0.3358697471,-1.3241852811,-1.1719068289,-1.0569867396,0.287798261,1.1024457682,-0.6196945718,-0.629380399,1.0440107908,0.5031310569,-1.0041319247,-0.6199098558,0.5211242974,-1.2111128224,-0.5259554861,-0.1487855988,-1.0676996545,0.5841783356,-0.2566866928,0.6665155406,0.4181492857,0.7092480838,1.2282042983,0.5025702267,0.8789867444,-0.3590201341,0.0032878333,-0.1774428371,-0.7911158455,0.0049393698,-0.4445653834,0.1202980648,-0.3850737881,0.8879796509,-1.2146337155,-1.5798437991,0.4432530329,0.47382325,-0.3926911336,0.2706829212,0.5800561573,0.8741730994,-1.0201225714,-0.545524224,0.4220314562,-0.7264371189,-0.2983170508,-0.4934611439,0.4658013516,-0.6152206796,-0.3462808339,0.6783858155,0.3164930891,-0.4535298994,0.1537305111,1.3784652181,0.1084474435,1.3568714827,-0.195993195,0.3296427722,0.7257429797,1.2002927858,-0.5935846481,-0.2036353868,0.4461303382,-0.7572359412,-0.7670365606,0.9714654517,-0.6763192271,-1.2723966737,0.5928392605,-0.0205192183,1.1119713604,0.4444601933,-0.496340129,0.5784624079,-0.7517377861,0.2144829567,-0.5985115678,0.3202010068,-0.3803855176,-0.4835152128,0.6495092555,0.7728652453,-0.8954117123,0.3247639938,-0.7867250442,0.865289701,-0.5519757488,0.2211254741,0.1628335123,0.8410544145,-0.2156406538,-0.1946753043,0.0095356393,0.0063933915,0.1947202328,0.7389001444,-1.5246073806,0.7376463706,-0.5920560312,-1.0249939329,-0.5795991161,-1.0444204399,1.0838264686,0.6424752781,0.292438302,-0.9258572168,-1.4746484049,0.6249430453,-1.2283297338,0.5668131776,-0.6856615429,0.8869537968,0.7583125402,0.6276797182,-0.9684510383,-1.2196736229,0.3555861114,-0.3561650603,-0.8448024958,-0.2511175511,0.4179090195,0.6620673714,0.1756450919,0.4790577779,-1.483152581,-1.3190806306,1.1228244437,-0.642885905,0.0489674821,0.8914625172,0.9089719827,-1.7145711363,-0.4231231124,0.5927951273,0.3517984774,-0.8902054415,-0.2784902411,0.0976863092,0.6020555207,-1.0663021756,0.1720197021,-1.0042181392,0.7906972548,0.5480823533,-0.5439286312,-1.2742534693,1.2060889983,0.3047807988,1.1122590896,0.3415387288,0.4246530528,-0.2136710611,-0.8837534847,-0.2375302989,0.8191928511,-0.0113760499,0.1808429608,-1.2418137972,-0.6646470207,1.2448210432,0.9600644286,0.9013417331,-0.7255819414,-0.1460071216,-0.1550850518,0.7840216335,0.9925520378,0.0024061684,-0.2283434403,1.2005004209,-0.9136543454,1.6557440389,0.7758534871,2.0498887973,0.5811180591,0.3061986219,-0.3112052456,-0.3917120629,-0.4726575989,-0.4466014481,-1.0101690668,-0.0712022816,0.2977517394,0.5279783661,-0.5453048428,0.3588189282,-0.8207495096,0.9224453953,-0.7968336903,-0.8794853031,0.6674279927,0.9651592571,-0.3046041656,0.7562884182,-0.6720292705,0.7498075604,-0.3007072465,0.1185606263,0.8941987483,0.4487655415,0.6640920972,-0.9757023307,-0.4282882835,-0.3050721221,-0.8609308851,1.0821099468,-1.1850854685,1.7031810275,-0.7649279994,1.6329104342,0.6431068273,1.8743595596,-0.85263648,0.1024653977,0.9937101828,0.571003768,-1.5426198936,0.6398476811,0.5864548042,0.1469416087,-0.3466710848,-0.1307251278,-1.1458525773,-0.5258861906,-0.0241282714,-0.3633001694,-0.1709889684,-0.0880611462,-2.1688313986,-0.0627417273,0.445368214,1.1173926394,-0.4715521796,-0.3000617428,-0.3505443908,0.025123517,-0.5802858433,0.2197518814,-0.5997539148,-1.5222803714,0.0608085606,1.4079828375,0.5534987923,0.380858771,0.1632914998,0.9625398063,0.6001080736,-0.5888685025,0.8792323288,-0.5374894519,-0.0412540552,0.3046976567,-0.5439933956,-0.3772159489,0.8777503421,0.0467759283,0.2525167755,0.751399598,-0.4528542073,0.7521880095,-0.4736001765,0.590001178,0.4147696909,0.164954371,1.0912799626,0.6833087904,0.5685838817,0.6991988449,-0.412794833,0.8141181676,-0.2173135327,0.4730426746,0.7431447106,0.750343158,0.68115963,-1.085000677,-0.2647203518,0.3095059991,-1.3589628028,-0.6083470451,-0.029704522,-0.7929720743,-0.0533307837,1.5535106496,-0.6291817401,0.0747926414,0.9814229546,-0.9966083944,-0.324111665,-1.4205645688,-0.1895155499,-1.0030296797,-0.2812001004,1.1179760716,-1.2649803543,0.9813706732,0.5350605057,-0.4433976933,-0.489247748,0.3559735199,0.4377737504,0.4865863049,-1.4015982283,0.8094252608,0.9455043547,-0.0066932543,0.447764818,0.5544241465,-0.2628821423,-0.4158312203,-0.0513272163,0.5220082387,1.4071577743,-0.8747002158,0.5285100638,0.4531658651,0.0478114992,0.558379867,-1.4170073399,-0.8674495151,1.0546117484,-0.3544170053,0.0496466069,-0.0024506865,0.0200603541,0.1571459777,-0.8623918641,-1.012959784,0.0956363257,-0.4037639349,0.0290331975,0.6564118458,-0.589938995,0.4014225312,-0.1559627053,-0.7791670502,0.6666362171,-0.0897066484,0.7978133767,-0.9853974718,1.3560110829,-0.6367724139,0.3059304087,-0.6985137579,0.0997435157,-0.1951861197,0.4885870515,-0.2488835533,0.060970035,0.2226153462,-0.34979306,-0.9667572969,0.0798540033,-0.5238162143,1.0384989173,-0.5248139981,-0.3324031136,0.1354260016,0.7731507731,-0.0544538155,-0.2615777805,-0.5636059575,1.3857891285,1.3352272762,0.0684535642,1.084998177,-0.0395183511,0.6513543137,1.22809668,0.5355792644,-0.5979023158,0.5578551546,0.8992288936,0.6297662484,0.4480098689,1.3185341674,-0.110031931,0.3288592134,0.5408437423,0.5564929549,-0.0915387464,0.3323346759,-0.4884552518,1.1686318541,-0.1606243183,1.281819786,0.7903461284,-1.4264495167,-0.4320817359,-1.0456052455,-0.0635498416,0.1671275423,0.1980902611,1.4819580336,-0.4790211592,0.1683652377,-0.4175392365,1.3413529873,-2.2818690478,-0.4738204367,-0.3263577809,0.1772190621,1.5059817325,2.8530959722,0.4882826228,-0.6865628387,0.7114563651,1.1038079626,0.6860193436,0.4687456841,0.0989098679,-3.1516466097,-0.5946204128,1.6479598386,-1.4880442194,0.311685646,0.7687452981,1.2717837703,0.9625467126,0.7490750461,-0.5693329129,-0.8020703714,-0.6389481397,-0.3429123692,0.954710296,1.773272264,-1.5620230385,-0.152513738,0.3247876139,0.3953746076,-0.7482191838,1.9321023993,-0.1275855072,-0.2260569456,0.3210886327,0.5919725358,0.5257240452,-1.3111918819,-0.0769946832,0.6058108797,-0.471114246,-1.9953018908,-0.6561295836,1.3720749153,-0.1708921959,-1.0379548487,0.8703668312,0.5823358691,0.9400738201,-1.2602486656,0.5244569052,-0.8283361722,0.9316205075,-1.4330189803,0.0702760021,0.2204207001,0.449523235,-0.435190936,0.0314445397,0.0805991393,-0.4218207634,-0.8587260583,0.0751049064,0.4648410388,-0.4640673586,-0.1232011425,0.5130719678,-1.0006924927,-1.0514350408,1.0091175799,-1.2294237864,0.6103938924,0.8519277481,0.6383805927,0.1890831855,-0.1251878832,0.8836324977,0.4867734792,-0.6432019562,-0.3477925535,0.6584883584,-0.4414301518,0.1152275778,1.1865935575,2.4756078365,-0.2906691436,0.9581219782,-3.5479159307,-0.4456279128,-1.8773455736,-0.8185289548,-1.2959317435,-0.4701210617,-0.5836849405,0.3632393706,-0.5522154792,2.793537256,-0.2293370898,1.2035929361,-2.3471460687,-0.0142932844,-0.6154878292,0.4014566451,-0.1697847487,0.2926961951,-0.1604356211,-0.2682289193,-1.2816503097,4.7366963422,-1.8207977854,-2.0330567834,-0.6624948245,0.2380614054,-1.1576248882,-0.2664775897,0.4263870523,0.2399924328,-0.8245123183,0.1626911401,0.6593336957,0.5510036819,-0.3554878294,-1.7204862036,-0.4296187494,-0.9597895222,0.1400173384,-0.4560025484,-0.0054754249,0.0235056518,-0.1979753206,-0.2479965592,0.1058191324,1.8019888585,1.3898295479,-0.476168298,-1.0435156482,0.1087023041,0.4636188221,-0.146125637,-0.4327508143,0.3675614117,0.8669275332,-0.5987325145,0.9211294346,0.6635583582,0.8860687563,-0.6634914665,0.1255823245,-0.2976092661,0.4929212536,1.0599914827,0.8440630482,0.3964013555,0.3670876422,-0.2354108658,-0.9705835414,-1.6870836058,0.3661130511,-0.4423645147,0.1633292731,-0.5737029055,-0.2682902362,-1.2410248518,-1.1584349016,-0.5072985739,-0.5892103952,-0.9407031833,-0.8444332521,-0.4885539528,2.0559040189,-0.8382830942,0.868580773,-0.9649352114,-1.1435724511,0.5764958394,-0.8208133521,0.5371556304,-0.2635146362,0.6610820678,-0.5949481955,-0.8770847436,0.0751541635,-0.4301448599,0.7541008233,0.4834660179,0.1508180749,-0.1293853487,1.1727530409,-1.1916338713,0.7014188057,-0.7151897519,1.2470470303,1.3884162721,2.3713229143,1.1556559584,0.8164298119,-0.4561781803,-0.1638553912,1.7001663179,-0.5799156404,0.9040991462,-0.2740073383,-0.9910937748,-0.1830798196,-0.0868455673,-0.0682734807,-0.9231893143,0.5771573419,0.4835348804,0.0267474739,-0.4722846158,-0.3753764839,-0.8033302429,-0.4352741475,0.8403111285,-0.0944327125,0.8837093951,-1.8214932856,-0.3347983968,-0.7102231071,-0.7433720235,0.4368942743,0.2956345604,0.3595430455,-1.0770588513,0.1266484436,1.2067743602,-0.7010673546,-1.1478677524,-1.4795937617,-1.4870296831,1.0492857754,-0.0671869896,2.042069905,-0.4982422102,-0.9731745859,0.5554133584,-1.7382618975,-0.7519216671,0.5161704535,-1.0913938538,-0.2144204878,-0.8340214087,1.1052996629,-1.4496904422,-0.2738165546,0.6564557803,-0.4252073057,-1.1276414082,0.0361378456,0.5412805083,0.2923411919,1.1392307802,-0.339738386,-0.5215827309,0.7815882054,0.1113919511,-0.595324701,-0.5421422176,2.4113857344,0.2404367725,1.0212378065,0.8493822384,-1.3148390402,0.710070917,0.305838332,0.507151944,-0.1843978353,-1.506062327,0.1173365311,-0.2797447203,-0.6315532182,0.3269602081,-1.691487527,0.6779332611,-0.1812549269,-0.1694593022,-0.6354819638,-0.1028297512,1.120186065,0.0597374992,-1.7583691816,0.0617437566,-0.9389367823,-2.5827696573,0.4110336197,-0.0948583953,0.546518542,0.2490425607,-0.021978284,0.0782898495,-0.2744215117,-0.1780826854,-1.7220512089,-1.2421251114,-0.274015582,-0.8728262528,-1.3711203591,0.2711354038,0.2999368682,1.0844373617,0.4301197618,-0.8031388521,-0.8957533202,0.7392496689,-0.6115616294,-1.1661490474,0.8307231837,0.7753473137,-0.850420497,-0.4782118778,-1.5572034401,0.3064155352,-1.133705879,-0.1963672782,-0.5452179638,-0.0309960902,-1.229652098,-1.0331621135,1.664592751,0.4242552305,0.7398520254,-1.012846225,-0.3923514207,0.3284143271,-0.4781575031,-0.5426229202,-0.7653188822,-0.6417746915,-1.362530769,0.3246854017,0.0781645831,-0.7783652619,-1.5038429334,-0.3636757767,0.0875250414,-0.4151577281,0.3892433449,0.8578988257,-0.003088933,0.7841004248,-1.1693526131,-1.6659276655,-0.6031571809,0.0969107523,-1.5496434364,-0.255015272,0.2884397188,0.5066192881,0.2865981845,0.6008495971,0.884887609,-0.8980053308,0.0924309199,-2.1427014808,0.0361006168,-0.0661110517,0.392723725,0.6209462095,0.2483282601,0.7082980151,0.5142618459,-0.0220629239,0.3909259644,-2.157638705,-0.3411223468,-0.4717273152,-2.1155779575,-0.3215547289,-0.2148515605,-0.7692294199,-0.7258030862,-0.0106544398,0.5068483901,0.5687142087,0.3018480023,-1.4261251856,0.7373944143,0.1785627156,-0.7780010998,0.0044008859,-0.6660363031,-0.3302950536,-0.8169768011,0.2968609077,0.1920050738,-1.2388988894,-1.0846828669,-1.239879522,0.4554421643,-0.0227372276,0.7655924711,0.0972641049,-0.4689131048,0.1313182505,0.771804906,0.0146715017,-0.8957218366,-0.9554682056,-0.8143297751,-1.3219375639,0.6828212302,-0.0944780151,-0.5904342956,0.2217780344,0.1537301431,-0.2001275336,-0.9278392146,-0.7272949297,-0.2963197022,-0.0406343442,-0.3709984361,-1.1732242701,-1.2994180816,-0.2411141184,-0.9861738676,0.4615963235,-1.2432135986,0.1580225101,-0.8749707237,0.4769691907,0.3347445962,0.5078624191,-1.0023989083,-0.7998617823,-0.995497077,-2.0978259806,-0.7303202832,-0.2658452875,0.0138727218,-1.0868553804,-0.3354745607,-0.0686332407,-0.3892805628,0.3870115455,-1.045587954,0.5978233809,-1.320894754,-0.1467879983,0.4994755179,-0.0763105215,-0.5629218488,1.3593547336,2.6711615764,0.5340772264,1.8138466923,0.1177969236,0.2908175714,-0.7207558348,0.1426574501,0.106031675,0.0967723645,0.495000234,0.5991826088,-0.5083185894,0.4425499035,-1.3207683564,0.2700930678,-0.4955228312,0.8341186831,0.4709557379,0.331665277,-0.2924967731,-0.0014599682,-0.4573294495,-0.1298075084,-0.9128997964,-0.4403991262,-0.8480293279,0.4364294671,0.2582701864,-1.1957707777,0.1995153425,-2.3595777315,-0.7703228438,-2.0951113123,-0.1621342369,0.0046456311,-0.0354865217,-0.4789184687,0.3439353698,0.7352675694,0.3349076575,0.657007704,-0.4010534844,-0.206827355,1.213520869,0.4552857164,0.4251394242,1.0437826324,0.2314077585,-0.7650430765,0.5776041608,-0.0257414441,0.307191532,1.0486646013,-1.0400322321,1.1548423351,0.9074029073,0.1607965201,-1.485905148,-1.3940301366,0.1316047387,-0.0438065562,0.7890076218,0.6226238741,-2.2919970713,1.3588697093,1.0336724784,-0.0259979005,-0.4238979389,-0.3511639364,1.0002215216,0.3451221838,1.2069703855,0.4149619525,-1.7293495822,0.2006031108,-0.991934458,1.8000167297,-0.6670751605,-1.0256789496,0.4132628024,-0.1406260072,1.6319452678,0.077508358,0.0211758086,0.5089414803,-0.3042712859,0.5787955789,-0.8020339249,0.4178767129,0.174200967,-0.569649003,-0.2220577637,0.7475846022,0.2913062054,0.6563185527,0.4647455571,1.1017555349,0.179893969,-0.0133188786,0.7382399236,1.0184939809,0.6542706025,-0.2327891538,0.8457216789,-1.0715845293,0.2807628327,0.0236721318,0.4429094759,0.430746745,-0.7667902494,1.9983284544,-1.35088509,-0.0831662722,-0.0160858598,-0.6504973977,-0.2086341593,-0.9061130506,-0.2908503943,0.4409750146,0.2519573377,0.2951379141,-0.1592150952,0.1624081318,0.6503770242,-0.3094049274,0.1895528537,0.0676601533,0.0560697782,0.0646379218,-0.5405907543,0.3881427594,0.367207317,-0.6692549557,-0.8471523293,1.3704119731,-0.1057993578,-0.3407402585,-0.7912003233,-0.7754317199,-0.2341779757,0.630507298,-1.080908224,0.4254632269,1.1782537524,1.0705195666,-0.705881629,-0.2559692609,0.2145830846,-1.4305580377,-0.9583759864,-0.1701439155,-0.2556500272,0.7752858105,-2.4455612453,0.621352184,1.8739113424,0.3673526087,-0.800129518,-0.0882547172,0.0653341003,-0.8138949549,0.1035471048,1.6122496837,-0.1709414468,-0.6699200517,0.4152515939,0.3848783236,0.1750993362,0.1400884235,1.0135357622,1.5272618278,0.8602639075,-0.069590648,0.884172727,-0.083251457,0.7956337027,0.1912321418,1.0591559105,-0.3815033487,0.2251145159,-0.2019189421,0.8672784402,0.4586557471,0.7915010253,1.5538466414,-0.2487275455,0.421029873,0.0566533254,1.0118058524,-1.1775201943,-0.5966532166,0.8450980484,0.2114006554,-0.4117144329,0.1150655938,0.8485817984,0.9248988024,-0.2882943736,0.2755351578,0.288333267,0.1820607363,-0.0348674815,-0.4403647064,0.3549153855,2.2139285537,-0.9703868958,0.5911789972,0.9633086065,1.2210050318,-0.8438215284,0.9250979657,-0.0339781828,0.7024416471,-0.421367635,0.2259027494,-0.9026995567,0.4844931149,0.5742874691,-0.7622201991,0.3911274598,0.7541504686,-0.2590774458,0.2415818783,0.0653302004,0.6062644493,-0.6575326452,-0.7193678236,0.4453188595,0.2159294959,-0.7693698085,-0.0664655871,-0.3976500498,-0.0155097206,1.1358742977,-0.9972604117,-0.5201003595,0.3179204993,-0.1854964681,0.2592399838,0.2423382356,-0.3418791393,-0.2579157874,-0.8597835013,-0.3265138416,0.379224111,0.2770713011,0.789025648,0.2088107058,-0.6868574424,-0.9138241492,0.1618737059,0.2576465878,-0.4719123009,0.102262817,1.2599575157,-0.424771533,0.8931394379,0.3022720206,0.1622333964,-0.2421337,0.5266136709,-0.4018265147,1.2960202106,0.4560992135,-0.720751014,-0.1316497814,1.1648824738,-1.0026616018,0.7060971591,0.2415696968,-0.8356332536,-0.6776972021,0.4983657915,-0.5112077963,-0.5655860254,-0.110631058,-1.2004237193,-0.9528693609,-0.0723775267,-0.2984974853,-0.0979292946,-0.3303998799,-0.4449232153,-0.5495993504,1.5641049088,0.4552713995,-0.6905197145,-0.4121543108,-0.0383198152,-0.4770956515,-0.1003719562,1.0756397125,0.1291132441,0.0469785635,1.6622284387,0.8857259402,0.1752287241,0.2258548709,0.4042200999,-0.2542469486,0.582756871,1.1482659393,0.6274030221,0.8751274421,1.0210854814,1.0393184093,-0.5422622434,1.1968210372,-0.6620903828,-0.7151282794,-0.3035747919,0.2369842972,0.3576150039,-0.4504903289,0.4405387917,-0.6581335152,-0.7839235693,-0.3465306546,-0.1197201236,1.4445534304,-0.9458029914,0.7334668824,-0.2884288138,0.577889847,0.6774439032,1.2215343483,-0.2164121837,0.7065249597,-0.8795006948,-0.0606724703,0.3524026232,-0.3074925617,1.0880002254,0.5968165613,-0.7510572192,-0.0604960759,-1.0857664814,0.0257879363,0.436524616,-0.7344568124,0.2740435392,0.1196787005,0.0767922672,1.5671676828,-0.2693561042,-0.8929971518,-0.2717739172,0.9523418222,-0.7343391715,0.0297180779,0.1726109158,-0.2506426556,-0.1338937183,1.1271220798,-0.3162628108,-0.1302843373,-1.391013269,0.8073318613,0.7110039278,-0.1268406968,0.6237628001,-1.5968281892,-0.3634575959,-0.1454562832,-0.0099654221,-0.8310615066,-0.2958361823,-0.8154958502,-1.0983294277,-0.7872401771,-0.3518433516,-0.2090729901,-0.8516856597,0.8846826265,0.2686175898,-0.934473804,-0.8368138356,-0.3478116413,0.8396950572,0.0241485097,0.8512145248,-0.5016109761,1.6367298076,-0.7103068495,0.2125552628,0.8594939793,-0.5948581992,-0.3985052321,-0.6827525258,-0.9484638363,0.2815917978,0.3305556191,0.0150786604,0.9095567863,0.2378445989,2.8594976424,0.2720964602,-0.5438504333,-1.8786726323,0.1641308623,0.0804064213,-1.6183734653,-0.9260514347,1.3718221564,-0.2812373797,-0.2224076248,0.21295349,-0.5556872457,-1.5633475373,0.2771438699,-0.7234907892,-2.3985688912,-0.6716715642,-0.1363996725,-0.6328232936,-0.5614760579,-1.0028155305,0.294956728,0.1791831767,-1.0793281715,-1.5524380101,-1.0918237652,-0.0045154529,-1.5130332973,0.1801559163,0.1055435833,-1.5198675313,0.0776895714,-0.4989551165,-0.1936151194,-0.6527236361,-0.4515909351,-0.7714950265,-0.5255531379,-1.312604653,-0.7553019992,-0.0132252366,0.3235438471,-1.3354184917,0.857434246,0.0101332054,-0.8921558703,1.3236686374,0.1169107907,0.230202068,-0.0731267729,-1.1641309727,-1.3364465649,-0.5060083694,-0.1196152212,-0.5247933784,0.6617056254,0.5836109169,-0.9140817888,-0.3283884747,0.5390127806,-1.354683106,-0.1677041674,-1.2781409355,0.1018107926,-0.5777323736,0.9305512204,-3.271976101,-0.4346039361,-0.9400650705,0.0346627615,0.317789199,0.4063591071,0.8577119009,-1.5087072847,-0.0404543097,-0.6180418859,0.5880577439,-0.5337079951,-1.6750976775,0.0252458616,0.631984895,-0.7683017132,-0.1309059249,-0.6464864694,-0.2371707816,-0.4661635185,0.1967845738,1.6740225664,-2.7975106612,-0.9115800838,-2.7302319806,0.2722491855,-1.8548152299,-0.0360626001,-0.7371718059,0.942906007,0.765394033,-0.7747068594,-0.6175367638,0.7418733322,-3.1249698869,-0.9108783186,-2.018054913,-0.8018053252,-1.3094047569,-0.3694595689,0.053441461,-1.1358961499,-0.7062226974,-1.1144715211,-0.7893005358,-0.6580670087,0.0931410549,0.1831621022,-0.594908882,-1.2191365269,-0.7570000038,-0.7489938893,0.4230242638,-0.3507858601,-1.5506760292,-0.6728343823,-0.034589299,-0.3320583378,-0.3599387789,-0.0952955024,1.2461061642,-0.0489988144,-0.7880728771,0.2184808717,0.4970941909,0.0600581053,-0.7639927984,-0.6081614076,0.3126093218,-2.3920279064,-0.9142247863,0.905725833,-0.4247562582,0.6904957391,-0.4613528068,0.388314212,0.4580762162,-0.4349331101,-1.0397538023,-0.6492688107,0.0272101504,-0.8472382427,0.2178956831,0.355303871,-1.1132663128,-0.4399318999,-0.6597335701,0.5127169237,0.4889586326,-0.0500167026,-0.5771787335,-0.4541331694,-0.8953302528,0.2726518772,1.0480989451,-0.5012643306,-0.5905785177,1.0994666015,0.6313366113,-0.4719173025,-0.0182257109,-0.6696276362,1.7659365938,0.0586593254,1.0386055842,0.2666687846,-0.3203499935,0.4659294271,-0.03292121,0.1962912129,0.2995992177,-1.1273328025,0.694267942,-0.1074033095,1.1022327995,1.1910397462,-0.0902513284,-0.5346176146,0.0749618032,0.9463830574,-0.2588152054,-1.504022639,-2.1649654635,-1.0852076877,1.0965135977,-1.4587876882,-0.6078513869,0.2474087871,-2.1257752146,-1.2409609046,-0.9250426462,1.4484660208,0.0298769649,0.4574878762,-0.7749641904,0.815469009,0.8183901994,-1.0412028221,1.7247459981,-0.3698405383,1.3516414993,-1.2948271118,1.7696145035,-0.4445565212,2.0284209394,0.3382991943,-0.0409900559,-1.2460843605,0.5239701805,1.2529105684,0.3264094207,-0.0321112631,1.0596564841,-0.1410161512,-1.6037751874,-0.7188078104,-1.0641562908,-0.5177669021,-0.5445191236,0.1198548023,-1.5105822576,-1.0983888051,0.8419590825,-0.2653260359,-1.2067331631,-0.383494146,-0.3657899948,-0.4562386284,1.2595935054,0.4141305917,-0.0812484031,0.2720306376,1.1538879123,-1.8783270272,1.1418652848,-0.3718164811,0.617155609,-0.2788786271,-0.0920887541,0.9362354173,0.229444117,0.689156369,1.1991291448,0.1928039952,0.7927925307,-0.5767303149,0.4717808386,0.6154193089,0.4261692841,0.2364457407,0.3040261234,0.6347005857,0.6224894832,0.2249969066,0.0327199128,-0.7941441783,0.9151390881,0.115106448,0.1261491718,1.8795506331,1.8094898577,-0.2397127978,2.2053186518,0.6736769552,-0.6868077328,-1.2159791444,0.0330437463,-0.6353433082,0.9682571664,0.3905101976,1.4447577512,0.5065150602,1.6083223728,-2.6564618932,0.4143852563,0.9108794805,0.1163715651,0.3456905709,1.104310414,0.1098134065,0.4697400229,-0.6593311049,-0.3092477462,-0.144266201,0.4607307255,0.0299167496,-0.5423066022,0.0823510508,0.9650116107,0.8747337132,-0.0861232076,-0.0819400583,0.9834186875,0.4038477122,-0.7598950636,-0.9419736975,0.3535814581,0.3180244766,0.7483454448,0.1121502827,-0.0494666466,0.6986825261,0.5511176123,0.5418552168,0.788540857,0.5191730694,-0.0784160773,0.5217647544,0.5409292495,0.9006378445,0.4170679924,0.1351917754,1.7118593088,0.3368850663,-0.6873803411,-0.5864925321,1.146446964,-0.9418758233,0.2632260196,0.1531163505,-0.0289715874,1.0541016612,-0.2325332706,-1.2589705952,1.7471030647,1.2735024042,0.4082249889,-0.2010882044,0.832598361,0.761760842,-0.1470582286,-0.3068664288,-0.4383656751,0.7245332506,1.1336883086,-1.1042991144,0.4598688536,1.5797623995,0.0357853781,-0.2344201824,1.268128295,0.085483145,1.120055732,0.8285839234,0.561574883,0.0126501631,-0.3204262416,0.7098980081,-0.3151908433,1.405433863,-0.8290283481,-0.4292499479,0.4988590771,-0.2613426062,-0.4542744775,0.7340696345,-0.4803100001,-0.8953289258,-0.5296100018,-0.227842569,1.1546727169,-1.1395114135,2.6908901691,0.7875718082,2.4705796804,-1.2457015764,0.8400560659,-0.8415279065,0.2568586344
   -0.1546638587,1.1905260608,0.0475056878,0.9453971635,-0.8824716516,1.3011200983,-0.0827564477,0.2436889251,-0.6043900161,0.5042794168,0.3249686793,0.5657448613,-0.4836130365,0.5797798067,-0.2904097981,0.0193170923,0.3639651018,0.1922449949,0.0816215116,0.6052915518,0.853965419,0.2604621101,-0.3871184044,0.4201432805,0.4238461167,0.1330937656,-0.1181548542,-0.4360864763,0.0775417053,0.2769854593,0.19523546,0.9685350424,0.3256270497,0.1608573969,-0.7491632265,0.297491632,0.909300816,0.6082178993,-0.2360828425,-0.3161911189,-0.0484272111,0.9456788445,-0.5863777602,0.7519256569,0.1090506541,-0.3015708768,-0.7394567105,-0.7895847602,0.9027766081,0.7458576273,0.1753069451,0.6493683886,0.1244110306,0.4424306798,0.5476317229,0.6851320411,0.8006209638,-0.9212176807,-0.7128044431,-0.2930772564,0.564682317,0.6133299322,-0.0746925137,0.0889111382,-0.6045850077,0.611192348,0.2348012069,0.6632267201,-0.666170596,-2.5620822713,-0.3833639443,-0.3434159999,0.7109481572,-0.9438397309,-0.1964420652,-1.4634860011,-0.3028435388,-0.0823494918,-0.0057138004,-1.3734345877,-1.5955074022,-0.7365600126,1.3987033821,-0.2647233871,0.3288425697,-0.1200542998,-0.0463572462,0.7145140645,0.7237945202,-0.3541070447,0.2383519057,0.7433322101,0.3163729575,1.6307963066,0.3705125381,-0.5526427415,0.4847361193,-0.4250127262,-0.9533004121,2.000487753,0.48799577,2.1396765138,-1.0912429521,-0.2378837259,0.4886094725,-0.1043218705,0.0119152671,-0.7220410766,-0.2391424369,-0.6549997478,1.2513772164,-0.654492521,-0.8979252648,-2.4296237903,0.8057105823,-1.1330850998,-0.7618888767,-0.6279747035,1.31901348,0.6762295431,-1.1455409201,-1.4998824968,0.1677331725,-0.3908269479,-0.1609008929,1.2062835649,0.579354552,-0.8416037715,-0.7056363597,0.1069382341,-0.620757166,0.5265732245,0.1025957114,-0.1501252872,-0.538499934,1.255421859,0.4511119196,0.6480858101,-0.9582614915,-0.5147308955,0.9021103493,-0.0665505876,0.1838802137,0.4271856893,0.8932544696,-0.0243599406,0.3519418122,-0.3570605244,0.4757147944,-0.2069907899,0.5205924123,-0.7953923613,-0.1904904845,-1.1807927808,-0.6094474979,-0.0305378278,-0.0347657044,-0.9217081363,0.5236396701,0.4460731928,-0.1748126093,-0.9288334527,0.4856446811,0.2721779806,0.7722190958,-0.3695769748,0.8108448031,0.8137927872,0.4571196729,-0.6160500662,0.0238476388,-0.1753041849,0.5484236537,-1.2166599483,-0.4360229156,1.0943736604,0.8855782309,1.0170178361,-0.0166551002,-0.64120667,0.3785586945,-0.3359767196,-0.0780004983,0.3525904012,3.2361368955,0.6408443677,-0.8992355217,-0.2484199345,0.6413032489,0.1218590295,-0.3414205265,0.5810019779,0.7434169562,-0.3732380096,0.3765166933,-0.6394633457,-0.558023669,0.2614302437,-0.57743646,-0.0215988104,-1.6107441858,-0.2059156978,-0.6316137961,-0.4420669432,0.0680240731,0.6580315437,0.7581539095,-0.2461520395,0.7213339085,0.3504953501,-0.6674490688,-0.9125849942,-0.0922132992,-0.474738376,-0.3492329544,0.1593847167,0.2032276334,0.3161667673,-0.8423241743,0.0580511014,-0.5714448686,-0.4974967273,1.0212800364,-0.4752176542,-1.1212464836,0.0149276404,0.9839890393,-1.0576192643,0.6811854603,-1.1752314411,-0.0697681633,0.550117962,-0.1784573804,0.0210270313,0.6626457324,-0.2436942951,-0.2556106468,-1.2101319155,0.3726617217,-0.204654473,0.4832497726,0.4710665318,-0.8705104782,0.9057275391,0.8386200148,0.8011058211,-0.7867082823,-0.4738890569,0.7498891795,-1.1640699768,-0.7157007888,-1.3224228664,-0.1894866758,0.2710670621,0.0949292075,0.889366807,-1.0242449317,-0.9332408481,-0.3866767253,-0.931403421,0.2422941875,-0.8306185441,-0.8216427603,-0.1942660591,0.608937939,-0.6514610077,0.7752420462,-0.89506027,0.5005867414,-0.3712347472,-0.1997569788,-0.1758471698,1.0908713102,-1.547220409,-0.0182722944,-1.6802542756,-0.7642120723,-0.2936835454,-0.5095888554,0.1780605485,-0.0856889899,-0.912896065,-0.5721496373,-1.0063801279,1.3042472,-2.0216892138,0.7291465884,-0.3218252044,-0.1754673946,-0.3020801556,0.1987219024,-0.715031384,-0.9656242777,-1.1206792622,-1.1475731232,0.2389459816,-0.4352390864,0.0647790727,0.646028949,0.0291111677,-0.1308116742,-0.7062815228,-0.9867078332,0.7861913256,-0.2313076223,0.0195102567,-0.510931049,-0.1337496856,-1.3674803251,-0.0473927747,0.4463385029,-0.0683516537,-0.0041965579,0.2283010423,0.7769270738,0.3484624598,-0.3829777598,0.2755896758,0.5761652156,-0.0048374632,-1.2725034998,0.2963576046,-0.0779450262,-0.8184406587,-0.9045533878,-0.4145471401,0.9136785481,-0.1383836255,0.7800679223,-0.6345978106,0.0549144268,-1.1056284428,-0.6088103608,1.0884668332,0.3406342118,-0.3125615878,-0.1097492425,-0.8371942303,0.1420719674,0.8307645887,-1.0366047413,0.405304391,0.0843965821,-0.3443834986,0.7764967621,-0.9852793382,0.4434471421,0.3559894645,0.0763188335,-0.3392929729,-0.489711112,0.8205001453,0.0781341754,0.5056075371,0.4337973366,0.6543929026,-0.7425603539,-0.5326323579,-0.0958279374,-1.4032181179,0.6981558415,0.9372477792,-0.9172340471,-1.0634748761,0.1943471474,1.1207464898,0.1531320295,0.3600594741,-0.209692843,-0.6956028264,0.4493993651,-0.6909658308,1.0294473913,-0.46236426,-0.7219729864,0.3066209583,-0.7542260466,0.4497516288,0.0089127136,1.0538770708,-0.0025201034,-1.2492851621,-0.0059419966,0.8383487309,1.1929227117,-1.436282222,0.6774612717,-0.6447370472,0.0959535664,-0.4311758485,-0.8482666699,0.6337029866,-0.242766449,-0.5189720223,-0.4796582222,0.1056335296,0.377987436,0.2822784154,-0.5048008672,0.2468501426,0.3685870469,-0.0802524358,0.7225068548,0.5262926018,0.6686958828,0.0619142137,-1.0038386635,0.1997288712,0.8422824917,0.1808786938,-0.239373664,-1.022088894,0.402330355,1.378393548,0.1137077422,-1.9273693367,0.4802149225,0.4847332916,0.5677781661,-0.002927867,0.2797604155,-0.3253181229,-1.2679650947,-0.1949644526,1.0362518128,0.4721016115,-0.2048826098,0.9578924745,-0.9252591505,0.7469649471,-0.4729894641,1.0884887588,0.2756639224,0.6634805918,-0.7421109574,-0.2938492008,-0.4076885894,-0.7214278976,-0.1155043959,-0.0871838614,1.2417395451,0.0036494234,-1.0218054845,-0.8051664652,0.0779984285,0.020569999,-0.4023558986,-0.9128025925,-0.4245066784,-0.9947730346,0.2515257167,-0.6092491662,-0.3259665367,0.3310666276,-0.3737282411,0.692120554,1.0325375426,-0.6852730558,0.1841578231,-0.3457798285,0.6221039517,0.4955198074,0.0675404958,0.855662044,2.9378408744,-0.892112313,0.8734021466,-2.2970495381,-0.0934486868,1.595967701,-0.6148736701,0.0101782103,-0.3696286543,0.6362195458,-0.0575093051,-0.7349071535,-0.0865270474,-2.1704804105,-0.3040678854,-0.2459746406,-1.8407170258,0.2907161815,-1.2098994064,0.4530444273,-0.2807979549,0.9668474303,1.006687086,-0.0962105727,-0.6873824826,-0.0455143804,-0.4322030109,0.2353823623,-0.939723538,1.4150831084,0.2222555106,-0.5342203851,-1.8034361351,-1.7253611754,0.2825848352,0.4851809784,0.8552142239,0.4051640869,-1.0871445879,-0.677606139,-1.5524693391,1.0941883859,-0.2844513577,-0.8451172455,0.4013651222,-1.1146237285,-0.4924489246,1.9889918199,0.4574466049,-0.5821963259,-0.3387591791,-1.6601906636,-1.3021089389,0.528866388,0.6706720727,-1.0406809582,1.0315323169,-0.05155285,0.7298324237,-0.7900662477,0.7880633524,0.7188639439,-0.5341761216,-1.3862224092,-1.9661481242,-0.9625805537,-0.0671985526,-3.305746976,0.2571991209,-0.5977237661,0.0283347972,0.6135142666,-0.6610401995,0.3065415565,-1.4105774563,0.1355153988,-0.2799589734,0.4918204192,-0.049807528,-1.0093481508,0.6959736747,1.399119696,-0.4662434982,1.1778057251,-0.84431507,-0.2163342519,-1.6002960992,-1.4880388769,0.4557132845,-2.6076818932,-0.4231125286,-2.7697601501,0.590249741,-1.2557478628,0.6477776218,0.8913357004,0.8712823123,0.4370162121,-0.6099518339,-1.292227322,0.3795269288,-3.1959822307,-0.6302084112,-0.4588241102,-0.3492292771,-0.984789497,0.9846866644,-1.3102084563,0.8562275853,0.6315115289,-0.8042353572,-0.0313304962,0.270402055,0.3076200658,0.3378760472,-0.5401916634,-1.1399468626,-0.8880140139,-0.8858529382,-0.3774723156,-0.7401000078,0.1081592813,0.5934702324,-0.6400814562,-1.7047399238,0.7571256503,-0.9551750485,1.1545320047,-0.6639566274,-0.8222904657,0.6967135739,-0.2072363541,0.3501853989,-0.5540461337,-1.1813884288,0.6866569622,-0.336090497,-0.043984387,0.3632103148,0.3609960437,0.7804345026,-1.1220513096,-1.1427624882,0.7593016366,-0.6800894403,0.9007381294,-1.2581849093,1.0343625106,-1.357166992,-0.8153568455,0.6128661113,-1.2426283528,0.5588052637,-0.5332038034,0.5871645286,-0.9731784946,-0.4306155493,0.7695303482,0.308374698,0.2289868304,0.7539335325,2.1251829677,-0.3075887454,0.5333933222,1.2193610239,0.017879009,0.6106462799,0.6301322557,0.5835194593,0.2722513214,0.2129734328,0.2150923653,0.7760452153,0.616545863,0.3953884686,-0.3206779344,1.2432369569,1.8536338347,0.2297570367,0.0471395968,-0.899029099,0.1569362991,-0.2411710398,-0.6371659256,-0.1133037193,-0.3509683825,0.1216363584,-0.294566235,-0.4585896685,-0.859179892,-1.2895697764,0.9980581222,0.2093337773,-1.2745563435,-1.0300183422,-1.3206054792,-0.9762545008,-1.158628408,0.8419083638,0.4440205504,-0.5301226724,0.9942441489,-0.7031259004,0.0887959183,1.2742721179,0.9010976751,-0.0070197585,0.2748963604,0.3634674821,0.6720218779,-0.4997155829,0.8651405921,0.4016648803,-0.4357581962,-0.1192386367,-0.0862389701,0.4683334348,0.4693622225,0.607852577,-1.3466794074,-0.9697950818,-1.1352012158,-0.2215766111,-1.189840357,-0.0973865704,0.5795546677,0.1828436947,-1.6146245695,-0.5042179068,-0.4219149124,0.0670676451,0.8860840107,-0.8127453504,0.137783744,0.8841799969,-0.3473513969,0.4319713558,0.8739768557,-0.2067941354,0.310824653,-2.6724521753,-0.2750913546,0.5971813304,-0.4846817046,-0.7438634354,-1.6736319298,-0.5676056646,-1.693254795,0.1139691905,-0.3127509171,-2.0874037104,-0.2489724848,0.3987294866,-0.7217055804,-0.1749926066,-0.8303094487,-0.2256171056,-0.3401822452,0.7394870868,0.6508340684,0.575806252,0.4727619173,0.7615242625,-0.5563289651,0.2209220117,-0.4127963714,0.797402126,1.1716155837,-0.1115547888,2.1089643597,1.3073012021,1.1841907134,-0.2490805783,0.4141876748,-0.9530682407,0.3814632418,0.9166884032,0.22540837,-1.3646188902,-1.5702700493,-1.4892372539,-0.3350397335,-1.2259667448,-0.0764782444,-0.0083414036,-1.9461735544,-0.3478769152,0.5456155042,-0.165711649,-0.3735818796,0.8280353098,0.8052558953,0.490056319,1.5966888394,-0.4372861723,0.9161796412,-0.6360036729,0.0937382002,0.4976542986,-0.2776885689,0.5952183451,-0.5642673195,0.1468144207,0.3696503697,0.6530351664,0.1455175114,-0.988112985,0.1551133802,0.1798269232,0.6674007387,0.2991302834,0.6763847829,0.2582031862,0.4826730877,-0.1902806668,0.9959428983,0.197840822,0.4886962669,1.0961302175,-0.9768948907,-0.3058531183,0.9629315172,0.3540299286,0.0100791459,0.2383899623,0.5620634657,0.1620150615,-0.067810867,0.0672139557,0.4233512107,0.8047258542,-0.4349568387,0.0406947362,-0.8546875358,0.5991432389,-0.0825341844,-0.4330159487,-0.1304058386,-0.3659101228,-1.1071447263,-0.356221584,-0.2955428417,0.4329086608,0.2420797732,0.651368943,-0.1653208013,-0.449595625,0.0453846296,-0.88201067,0.3932089827,0.4219815628,0.2427892303,-0.8190187015,-0.6972802882,-0.6103714571,0.0808870772,0.3700098782,0.0984843314,0.7280535446,0.1732387616,0.3423087733,-0.4867298333,-0.020272998,0.2528349164,-0.797600127,1.0077443022,0.8207321631,0.1525754036,0.3943774694,-1.5694370957,-0.4566196436,0.7070334863,0.924065735,-0.0150272926,0.0310184682,-0.0982515056,0.5664200383,-0.4431452646,0.6481106059,-0.1139220497,0.8035525181,-1.0839931926,0.6727102522,0.5108939791,-1.1162890157,-0.1220608811,0.4679610959,0.0594447281,-1.0306297026,-1.5126070103,0.385597892,-0.7964697248,-0.2716161948,0.2194933132,-0.1219268755,-0.3641922541,-0.5451871854,0.3933002174,0.8730747519,-0.5254870715,-0.624534233,-1.1147325427,-0.3397197797,0.5028050057,-0.3446828616,-0.336536736,-0.7328943719,0.1633928961,0.6588910422,0.1242911782,-0.746753815,0.9016301949,-0.8101950671,-0.9913213053,1.4573010713,-1.1452359083,-0.2146940912,-0.6665855761,0.3618217807,0.6979674337,0.9910822101,0.819312226,-0.6463663171,-0.6145934683,-0.0210785781,-0.1909750233,0.9242600475,0.1965550805,0.6169084939,-0.5283760053,0.1888176209,0.0766704181,0.8403779148,0.5391294254,0.3465520749,0.5387577974,0.5923179319,-0.0932311171,0.9071341111,0.0763304065,0.7107029623,-1.1758939127,-0.453058292,-0.4278636964,-0.2085815078,0.4506788282,-0.4422808254,-0.1403639922,-0.1821277211,0.8679655195,-0.8635484683,-0.8718044879,0.1666826526,-0.5017142537,0.8606646121,0.3458661385,-1.2835456756,0.6753181826,0.4561036765,-0.0729096274,0.4544775047,-0.2219429166,1.3051645533,-0.7368896518,0.771157872,0.3757699911,-0.9712350635,-0.0625737996,-0.4080562001,-0.844284281,0.4573814884,-0.230496191,0.6381041121,0.7212285645,0.4913755825,-0.9230391512,-0.0367109415,-0.5628876441,-0.6141707392,-0.4691853509,-0.8396701001,0.641744377,0.0172406436,-0.6963512122,-0.340733659,-0.3734388147,0.8353793364,-0.1543066181,-0.3816731888,0.584098016,0.2719536142,0.1165520887,-0.4450259054,-0.5662218225,0.6854289843,0.8626691908,-0.309515741,0.3456027914,-0.4956777886,0.7105608364,1.3384449253,1.0667831768,0.4495240216,-0.8851781977,-0.5554713613,-0.9017823747,-0.0304792258,0.0520637977,0.8668658264,0.860042078,0.6741004031,-0.5403691471,-0.5329411294,-0.0618770855,0.2370072828,0.3194628581,-0.7756548363,0.4762387763,-0.3671591866,0.1694815137,0.0800878755,-0.7090830757,0.43054184,0.5672068458,-0.2692995449,0.0312809485,1.0544750599,0.6883259745,1.0213958286,0.9878789731,-1.041380671,-0.7910293774,0.3475679611,0.3777580517,-0.2374350828,0.2489535778,0.0258794776,1.3005527821,0.6548814442,-0.1481661063,-0.881284833,-0.5572720615,0.789897007,0.4601560704,-0.5947932009,1.4033971748,-1.4045686668,-0.5372276614,0.6216397813,0.3723335153,-0.7729567889,-0.9984465776,0.690914039,0.8696446451,0.0365789107,0.4011568488,0.1244241942,0.2129422252,0.3552358396,-1.29037887,-1.4334469493,0.6365562709,0.5274124005,-1.2578999703,-1.2150276706,-0.7293680566,-0.294597057,-0.4190670092,-0.2271127727,0.7193428142,0.2799665423,0.0360442533,0.7616662259,0.4852491031,-0.2469763073,-1.2324330432,0.6957183454,-1.0566621558,0.1724866842,-1.0189222364,-0.0233299066,-1.0973118392,-0.4650183835,0.0982343514,0.5964438839,-0.9816033676,0.2218788342,-1.1446464725,-0.9563894805,0.1475205683,0.0622416091,0.0843188805,-0.6626100217,-0.6183567419,0.6976135084,0.422441971,0.5943372562,-1.216007956,0.9301956292,-1.019092851,-1.2015869444,0.2406446334,0.3980122354,0.1504979454,0.8532264606,-1.1367914768,-0.7756880291,-0.142377495,0.9980045764,0.5862013803,-0.1960122579,1.0069547454,0.9903774353,-0.0924307297,-0.1441955898,0.2498034859,0.3710465665,0.4821058356,-0.67864276,-0.9524969036,0.5434005033,-0.2234041079,0.401348141,-1.1395935873,0.9361614999,0.2424781932,-0.149660772,0.4787202432,-0.5608226212,0.771831056,-0.3773394375,-0.531389213,-0.3166526091,-0.6084679754,-0.2055208756,-0.6950066281,-0.7706842742,1.0747476733,-0.4191602038,-0.8794485705,-0.060366882,-0.6922861534,-0.1717893559,-0.663241729,0.4274630354,-0.1138400411,0.2771465556,-0.1068648639,-1.2926252034,0.5851586004,-0.1725372418,0.6571647966,1.0534595191,0.1359336687,-0.8121457468,-0.7279507785,-0.2024993633,-0.3303188701,-0.7291097566,1.2432846167,-0.6376492366,0.6090379316,0.4568026871,-0.4699507856,0.2118668577,0.2551649394,0.5945801721,0.3231386746,0.6831040229,-0.4539085167,-0.3954397961,0.654819984,-1.5430376323,-0.2408659933,0.8733203534,-0.5345669921,0.459481283,-0.5191706819,-0.6555704172,-0.0206595005,0.3774474832,-0.2198151332,0.8090101228,-0.6255083804,0.1622888265,-0.1715744026,0.6973198529,-1.2718993761,0.3656605502,0.3609973034,0.1424689192,0.3231407049,-0.2732535299,0.1078694523,0.4817674417,-1.3170120569,0.0826587602,-0.5791289875,0.524240728,-1.071975196,-0.5785966857,-1.2782725379,0.4505347108,-0.559946447,0.2454027248,1.1370627584,-0.0934421075,0.2615958668,0.5960823034,1.0923976759,-1.0237614711,-0.1736310777,-0.0146922292,0.2012608792,-0.8132938709,-0.177768098,-0.5108480914,-0.2911968368,0.9560992518,-0.3731633612,-0.7526164132,-0.8370599378,-0.8452238893,-0.5261195754,-0.1614719984,-0.1344596052,0.5213457021,0.8333366223,1.3256731609,0.2415492806,0.0063412432,0.1887799091,0.8657795864,-0.168061322,0.5587806399,-0.4400406934,-0.76005122,-0.1727947725,-0.3365708646,-0.3494625727,-1.0746584837,-1.0792289482,-0.2337943663,0.4795493431,0.1801429428,0.8403128075,0.7088701291,-1.0352771326,-0.38417661,0.3947481877,0.7052066062,0.7542516242,-0.2957386346,0.5650024308,-0.0159365212,-1.556538569,0.9648089916,-0.0841994524,-0.5441956955,0.3527178689,-1.0135572393,0.9290530523,-0.6596157097,-0.4000933534,-1.203746821,0.8892845226,-0.4480776849,-0.2464400182,-0.1583944625,-0.8467238758,-0.6261524387,0.0597770526,0.8498860235,0.8433050612,1.0854383511,0.7305247608,0.4525695767,-0.0523659314,-1.1289650922,-0.2640847779,0.6861692591,1.2303100983,0.0211830244,-0.9446122025,0.116441742,-1.3242650279,0.1303077477,-0.3466138121,-0.5748797703,0.6571722148,1.0453037752,1.7630825353,-0.7046317134,0.6442338787,0.5422335401,-0.9899070821,1.6825676396,0.4725804636,-0.6467048062,-0.3500949803,0.8422215314,1.4862431887,0.6753278878,-0.8626595799,0.5236191897,0.0331887487,0.6037341196,1.2453582794,-0.9940145273,0.4304345312,-0.5716265107,1.1719501776,-0.7357257083,-0.3944325417,0.1757870421,0.524061582,-0.5438127412,0.7710848834,0.5046993574,0.1089819164,-0.420440037,-0.6432281048,-0.3377752557,0.333084915,-0.7540203246,0.9077800213,-1.4518057123,0.3855165467,0.087788406,-0.516396612,-0.6123025311,0.612087956,0.0225761529,-0.9057197458,-0.4509126535,0.3371189129,-1.0022266474,0.4356138338,0.4785087324,1.7196134714,-1.0042217723,-0.602492521,1.1431725984,-0.864048954,-1.1556988998,-1.4533908411,1.3965272605,1.281756542,1.2821548666,-0.5869690069,0.7772866151,-0.4848578162,-0.4061305583,2.7369913677,-0.0339761077,-0.066369335,-1.2955309703,0.3434739969,-0.2894441203,-0.7533085026,-0.2165538136,0.6502239639,0.5193168444,0.0736194092,-0.0523863418,0.7531726266,0.6151951944,0.4315868033,-0.7375024652,0.18080651,0.4115728637,-0.0142589297,-0.4874138261,-1.2948551661,0.4671667371,0.8722567929,0.9976041029,0.9366577739,-1.874320154,-0.1941801685,0.7080998844,-0.8624437516,1.2555350463,-0.8833094698,0.6049970065,-0.8300819604,0.4864409894,0.8108322101,0.1273702493,-0.2981730656,0.399477643,-1.8158240341,0.5724842577,-1.1022622551,0.8290226885,-1.0626781084,-0.1209160749,-1.1628687804,-0.4416029305,0.9090499913,-0.3093227442,0.7295835258,0.676219655,-2.035655595,0.5573028107,0.2383046043,-0.1104085218,0.4428959997,-0.0578174466,-0.1796695832,0.5776271721,-0.6921626034,-0.1340595277,-0.1786727109,-0.4807323122,-0.4703981861,-0.7445664257,0.3478711524,-0.0309517067,-1.2058482157,-1.0597303943,0.4566405563,-0.2842332857,0.3419547504,0.2035080915,0.4177933816,1.5801466595,0.0510398973,1.2663223012,-2.550282921,0.4398206554,-4.0184758816,-0.3146645225,-1.7093683538,-0.5301226734,0.3546894628,1.2465696525,-0.4972682163,1.3515777905,-1.0665365797,0.9181997398,-3.4648765205,-0.2345032774,-2.1715216525,0.2180090241,-0.8074518942,-0.2712848886,-0.8554102952,0.0687128646,0.1945047572,1.2804753492,-0.0650968982,-0.4253368829,-0.9496780756,-0.2225814296,-0.8131988929,0.9750072311,0.5829412962,0.5462415207,-0.0933839054,0.4116241216,0.1829374988,-0.2485079826,-1.8697455799,-1.1177508932,-0.4701655483,-0.9518293042,-1.0970611087,0.6051687859,-1.1575187191,-0.8923939219,0.143232765,-0.0885515544,-0.7299532305,-0.757561835,0.1787937619,-0.0105342225,-0.0274141741,-0.407133467,0.0647897464,-0.9932373088,-0.4599092507,-0.7893992546,0.9126721835,-0.7223810719,-0.4908574921,0.4453890226,-0.2559260506,-1.0471767966,-0.8332224484,-0.7336046741,-0.5804785254,-0.5931380327,-0.2351625538,0.2393226785,0.1254185688,0.2358310937,1.4491231441,-0.9111682303,0.0181418522,0.3162204428,-1.2383075133,-0.7203627156,0.628241982,0.5254922553,-2.2614533886,0.5306873662,0.7801354279,-2.0388936558,0.0839330397,0.0710964804,-0.0334056444,-0.425588312,-0.4633650323,0.9172446606,-1.8450524843,0.6032032708,0.1030435571,0.2574703381,-0.0817906612,0.0380929516,-1.9523377793,0.0929663666,0.1344923024,0.1034544351,0.274968917,-0.8083684002,-0.6805683714,0.789453455,-0.2122018515,0.091495661,0.6754125496,-0.6993074984,-1.3895668609,0.9811247992,0.889073701,-1.9516506376,-0.8134401612,-0.7655632804,-1.9885669411,1.0325929602,0.2417812869,0.2832703598,0.1114662919,-1.4985729097,0.2671138572,-0.2698400788,-0.9838955267,-0.6094519537,1.4533352256,-0.6963798983,-0.9550136019,0.910201519,0.0204664742,-0.2521191156,0.2501372152,-0.5652979504,-0.7199345578,-0.3735721294,-1.8016397688,-0.5501099651,-1.4402758628,-1.3738037649,-0.6072888917,-1.253859054,1.3847833081,-1.0075204128,-0.6712064538,0.6528012251,-1.3910599503,0.8630768072,-0.1493036664,-1.0970687207,0.6429124439,-1.8368672912,0.1705450808,-0.1051284787,-0.1221820956,0.9118022471,-1.6169269198,-1.3314349041,-1.3538409396,0.1101220739,-1.0367115095,-0.6496227572,0.7100833566,-0.0739411978,0.3153687188,1.4981166007,-1.1298842888,-2.0520299382,-0.8775781641,-0.5248984715,-0.8039526083,0.8234096728,-0.7460514611,-0.1606624047,-1.1642872959,0.4436511786,0.8984758736,-0.261118095,-0.1813444623,0.7769248999,-0.9747775295,0.324369778,-0.7483295422,-0.3485062568,-1.3300548725,0.099803143,0.9967484871,-0.2347940362,-0.4091721306,-0.1892765782,0.6099041386,-0.4734063456,-0.4103902103,-0.4225799359,-1.2162310516,-0.0017494786,-0.606485563,0.8558030176,0.8176504393,-0.992444428,1.3230835663,0.8167373256,-0.0586319443,1.1992952201,-0.4532206702,-1.223354421,0.2178560514,0.2046641956,0.5965887164,-0.3105543922,2.3254487492,-0.2901814344,1.5969925631,1.6530890768,0.9902715454,0.9143668324,1.2845212014,0.6194234822,1.3213937395,-1.0525209104,1.3646700121,-0.8859628716,-0.4748029033,0.3271904294,0.579528354,0.0442370869,-0.1776805307,-0.8282738151,0.6987190772,1.281843024,0.0958330716,0.7520133551,-0.4183615504,0.287239889,-0.1592343615,0.0331072897,0.5991852393,-0.0425872006,-0.0622966758,-0.0334631858,0.0544382976,-0.5666559277,-0.2708917506,-0.9689872104,-0.6923217204,-0.0458231929,-0.0231088977,-0.9669661144,1.6088071354,-0.2510121499,-0.2691461526,0.4387326261,1.3223186988,0.8607274323,-0.6860814257,-0.3237942795,0.8181738096,0.2089705302,1.0483295688,-1.4360006843,1.3842795237,0.7296276096,0.5975543159,-0.9715977384,0.7871930272,0.7689750523,1.3037578438,-0.7288338059,0.0610181564,-1.04838626,-0.7298360091,1.1625690629,0.0021681628,1.3382049572,-0.3373677735,1.2500118021,-0.4776395244,0.8990840796,-1.0002954053,0.6694160911,0.3905374965,0.6839064983,-0.9956667236,-0.7250013676,0.5984493683,-0.6166959524,1.2641959692,0.3880847663,0.6348099627,-0.2254735496,1.0496903684,0.8991172692,-0.0170379175,-0.9358333789,1.0392422496,-0.8607303403,0.7484960079,0.0696386669,1.6483174343,-0.0938757141,0.715180768,0.747958939,-0.6276345704,0.946747935,-0.5091642899,0.0548946532,1.0633475723,-1.8266392245,-0.0457268727,2.185789167,-0.570576416,0.0004889272,-0.1235268496,0.0089480294,1.0180022424,-0.6382308447,-0.108752952,0.7678837748,-1.0181687219,0.1201448199,0.0485168781,1.6417684378,0.429884586,-0.3235252635,-0.0929030215,-0.3569371693,2.045051816,0.318426978,-0.5582560783,0.785242838,0.0429430134,-0.5458571302,-0.2948852776,0.5263575636,-0.1303942923,-0.5425503974,1.3581755523,0.1216847364,0.3701196918,-0.4809891875,0.5243536362,0.9557968132,0.4340935007,-0.7722972458,1.2167626967,0.952724578,0.8233166515,0.5059547443,1.4156572673,-0.1270423645,-0.9547911463,-0.8156224953,0.8892491523,-0.6037367774,0.3292713214,-1.0305437696,1.4296009241,-0.7470871327,-1.1746551629,-0.4226016341,-0.9249212792,0.0883356735,-0.6243466298,0.3313146234,-0.1503691581,-0.8514122947,0.1770748047,-0.6025322506,-1.2369989521,-0.8181348793,0.2419239808,-0.67337373,-0.6693818222,-0.3307298664,0.2563894909,0.8261912036,-1.1226849086,0.9561294547,-0.7918478088,-0.7503832838,0.57689217,0.5771884363,-0.0162476524,0.7512058414,-0.8191655272,0.07361794,1.1660595676,0.8126896457,-0.9317939094,-0.0953104245,-0.3782933297,0.7690288825,-0.3712698088,0.4330531297,0.8653094111,-1.2293840961,1.0180397134,0.8294106096,-1.3077711033,0.7052989968,-0.4001477844,0.4830494328,0.1917750219,0.0952020525,0.4679886092,0.7284049179,-1.5762438452,-0.0790334658,0.2163610934,-0.7615761586,0.428472271,0.0424170124,-0.3166383128,-0.507200997,-0.5348939718,1.1612196378,0.5472046932,-0.560163013,0.0865397311,0.9564653175,0.4756861412,-0.3614228636,0.8000442861,0.9241617599,-0.729916027,0.1382839781,0.1233759974,-0.5152446088,-0.2971295807,1.0568858296,0.6272892435,-0.5293290635,1.1234640609,-1.0616522269,0.0201773267,-0.4237044094,0.7151039867,-0.0233896141,-1.3932923338,0.5313033411,-0.9927349389,-0.9264325912,0.9012401301,0.1090348922,-0.1322760768,0.066485703,0.2461393609,-0.3612711528,-0.7122985496,-0.1888415911,0.5055840894,0.4164270469,0.793613436,-0.6827562834,-0.2639216879,-1.0495386283,0.3389741055,-1.1961808371,0.3654865512,0.5950625461,-0.0631361587,-0.0643670376,-0.3939603751,0.4220817727,-0.8496003421,0.2959102448,0.3237121762,-0.9743533486,-0.3290044536,-0.318832235,0.8883701076,0.3542502026,-0.722332495,0.9385863675,-1.1159026157,-0.3873684273,-0.2044468527,-0.3618099494,0.3311796055,-0.1725568696,0.0617263251,-0.3162348171,0.5165520881,0.2157603593,-0.6960519437,-0.6521781465,0.0160107562,0.3260563499,-0.194075321,-0.3087519702,-0.6956715872,-0.2049458715,-0.3949730028,0.7316023107,-0.2949947684,0.3727856671,-0.0781057245,-0.0490613938,0.5674577145,-0.9746704893,0.8574553957,-0.7063001776,0.7049064695,-0.2321854552,-0.4580709187,1.2157970582,-0.6294720262,0.1319028723,-0.662634661,-0.187164998,0.6581301407,0.6341310563,-1.1366970989,-0.1672318104,-0.5837779069,0.6669338548,-1.016130005,-0.7426881834,0.9304820363,-0.3976060144,-0.1857889138,0.6516095195,0.1951103079,-0.9775495255,-1.7025290301,-1.2552494756,0.2333048334,-1.8977713182,1.9376188871,0.6775253704,0.8022259555,-0.0470004067,2.1574927216,-1.0440535016,1.0703570525,-0.5070534848,-0.2328041013,0.1681134096,-0.649880416,-0.9972918372,0.0473243541,-0.8498023289,-0.9148630856,-0.5961559504,0.4585349093,-0.64696857,-0.8222947807,-0.5493853295,-0.7693170297,0.4828321749,0.3788045511,0.6895391211,-0.2025203041,2.2488617713,-0.5689485618,-0.7037069453,0.487351262,0.0147141876,-0.8041023583,-0.9459012241,-0.0638232992,-0.6263617278,0.9133264735,0.4659982644,1.0204594364,-1.0977496811,2.0106820478,-0.5041564013,1.9149271439,-0.2141744476,0.0540445867,0.5027852189,1.2612469334,0.483682038,-0.2200368048,-0.0745006088,0.5164825887,-1.2628595129,2.0962374675,-0.3245668363,0.7370221867,-0.393234756,-0.3376951485,-0.9070568787,-0.7430460521,-0.545909362,0.9507801456,-0.1968830992,-0.0637873266,0.9254575338,0.7164806263,0.4712241667,1.0313902835,-0.4667483889,0.7602766195,-0.1910445966,-0.4415430462,0.5964875885,0.6251351835,0.9567182579,0.4986286545,-0.493926081,1.3615188397,0.038135051,-0.4489708463,-0.1892931419,-0.3123049518,-0.4137470436,-0.1895462203,-0.423727232,0.7322964231,1.555304487,0.3293290471,-0.5399581261,0.3991631555,-0.0133358459,1.128566709,-0.4178558952,0.5997085381,-0.5933603569,-0.2209868358,-0.5362182827,0.3655635016,1.1458588505,-1.4237963341,0.8761703607,0.4794509299,0.4101478904,0.0076734749,-0.6054267098,-0.9621694572,0.6827096314,0.3585396138,0.9725472437,-1.0823811407,0.4991092188,0.8973748193,1.3181494699,-0.6738239487,-0.5691417347,0.9747959296,-0.7407898232,0.2962271646,0.6182072005,-0.7776213029,0.5347326044,-0.9433416404,0.1653945086,-1.3480911158,-0.042781426,-0.9322012382,-0.7393062473,-0.2826980738,-1.0360630675,-1.1473227551,-0.6078374922,0.3037372667,0.6731291762,1.1318797345,0.4556268607,0.4035443901
