encog,BasicNetwork,java,3.3.0,1,1463865480842
[BASIC]
[BASIC:PARAMS]
[BASIC:NETWORK]
beginTraining=0
connectionLimit=0
contextTargetOffset=0,0,0
contextTargetSize=0,0,0
endTraining=2
hasContext=f
inputCount=279
layerCounts=10,71,280
layerFeedCounts=9,70,279
layerContextCount=0,0,0
layerIndex=0,10,81
output=0,0,0,0,0,0,0,0,0,1,0,0,0,0,0,0,0,0,0,0,0,0,0,0,0,0,0,0,0,0,0,0,0,0,0,0,0,0,0,0,0,0,0,0,0,0,0,0,0,0,0,0,0,0,0,0,0,0,0,0,0,0,0,0,0,0,0,0,0,0,0,0,0,0,0,0,0,0,0,0,1,0,0,0,0,0,0,0,0,0,0,0,0,0,0,0,0,0,0,0,0,0,0,0,0,0,0,0,0,0,0,0,0,0,0,0,0,0,0,0,0,0,0,0,0,0,0,0,0,0,0,0,0,0,0,0,0,0,0,0,0,0,0,0,0,0,0,0,0,0,0,0,0,0,0,0,0,0,0,0,0,0,0,0,0,0,0,0,0,0,0,0,0,0,0,0,0,0,0,0,0,0,0,0,0,0,0,0,0,0,0,0,0,0,0,0,0,0,0,0,0,0,0,0,0,0,0,0,0,0,0,0,0,0,0,0,0,0,0,0,0,0,0,0,0,0,0,0,0,0,0,0,0,0,0,0,0,0,0,0,0,0,0,0,0,0,0,0,0,0,0,0,0,0,0,0,0,0,0,0,0,0,0,0,0,0,0,0,0,0,0,0,0,0,0,0,0,0,0,0,0,0,0,0,0,0,0,0,0,0,0,0,0,0,0,0,0,0,0,0,0,0,0,0,0,0,0,0,0,0,0,0,0,0,0,0,0,0,0,0,0,0,0,0,0,0,0,0,0,0,0,0,0,0,0,0,0,0,0,0,0,0,0,0,0,0,0,0,0,0,0,0,0,0,0,0,0,0,0,0,1
outputCount=9
weightIndex=0,639,20239
weights=##0
##double#20239
   -0.4950291211,1.5566460378,0.9614272116,-0.1351685141,-0.8069788734,-1.2003314994,-0.4193567516,4.1975801609,0.8139152727,-0.5026719029,-0.6405929974,-1.0657451826,1.3412853093,0.0389785046,-0.7314423792,0.3834691481,-0.0902614385,0.6295943804,-1.4675472967,-0.1188643931,0.7236331429,0.797362201,0.0421860076,-0.3227057514,-0.9357489163,0.4090075616,1.073049623,-0.9879389068,0.8908462152,0.3634749186,-0.1403896023,1.0735535795,-0.7552180234,1.0527500119,-0.4542103705,0.9148729432,2.3434984909,0.6042374464,0.0668797612,0.1307493577,1.5744509731,-1.1860891635,0.0751686301,-0.5354749469,-0.1409080069,0.9842186739,0.6367817645,0.7165375515,-0.9066257148,-0.6756931485,0.6518847631,1.4191942211,-0.7533736973,0.6320236635,-1.4610226637,-1.5470035869,-0.0027590164,-1.4771944086,0.7834228341,0.6145953932,-1.5133095634,-0.4631077416,-0.6843932916,-0.8575744534,-0.3793986662,1.4837141404,0.1498163514,-0.1797659856,-0.7730182462,-0.4590539107,6.2434061058,1.8625531821,1.0750557417,0.8024775393,0.9195453947,-0.2544187039,0.9232322988,-0.0163500641,-0.7049873847,0.17833793,0.1626023275,-0.1722316429,-0.3263589346,0.9828878381,0.739293071,0.308301925,-0.3262390173,1.0743461247,-0.9379160322,-0.0758887537,-1.6382020612,-0.8070495823,-1.009292155,-0.63092956,-0.1068981964,-0.7190162889,-0.2710183435,0.3366778018,0.2341350932,0.2311652219,0.3824875917,0.0034109869,0.4739514537,0.0400612707,-0.1936634136,-0.1292151295,-0.0926414261,-1.3147801641,-0.7492226114,-0.7575172177,-0.4219645037,-0.4927631821,-0.2278246052,0.3792543618,1.2346830532,-0.0829972518,-0.7155254448,-0.0895203678,-0.2643926539,1.2094417671,0.2801871006,0.7461651743,-0.0953663669,0.2669722148,-0.1456012354,-1.0479568566,1.1472924587,0.5653442175,-0.918249961,-1.5507477983,-0.6540729052,-0.403842792,-0.255534549,-2.1531937663,-0.0756453871,0.5800153404,0.315309727,0.3948685662,-1.1690481099,-0.0839615942,1.1005685629,-0.4887699427,-1.3424976666,-0.0126547729,-1.2484905796,-0.3873346666,-0.034797662,0.212843491,-0.5935064521,-1.5629500556,0.7102246505,-1.3537084564,0.9208850855,-1.4562877288,-0.9138777142,0.0796232634,-1.710596321,-0.1780641695,0.9052407132,-0.5078545132,0.402144695,-0.33606152,-0.665261161,-0.9569292021,0.136019146,-0.9244056088,-0.3782999178,-0.0344845622,1.1597442437,0.1218233603,-0.3828030416,-1.5361799651,0.4937972961,-0.369528385,-0.9251836893,-0.3884807001,-0.5556940587,1.143645982,0.6947740661,-0.685024617,0.5696093987,0.6865241796,-0.5849476135,0.4106283897,-1.500471168,-0.3522500783,-0.7192685162,-0.0813899196,0.0093642459,-0.3570211935,0.5116195031,0.0930455305,-0.3435768074,-0.1130739879,-1.288760926,0.2911898433,0.3757046046,0.0307604544,-0.6899467728,-1.0050858482,-1.4216979021,1.0192696521,0.3411193818,-0.463826695,-0.4816639969,-1.5175357551,0.1770532395,-0.9796327135,0.690725553,-0.0941186905,-0.5864151175,-0.8141590518,-1.0571259795,0.2782308412,0.0633522031,0.8074416386,-0.7246322859,0.2069528687,0.0452623899,-0.1911523405,-1.0824874758,0.6085911392,0.3894939829,0.3305074458,-0.2582806558,-0.6441836826,0.7945033754,0.1971883811,-0.5068923296,-0.8408543853,0.8358517269,-1.3957610601,-0.8985701184,1.192187734,0.828480734,0.0911734896,0.0830289,-0.581285852,1.0536779542,-0.6164371449,0.4185994712,0.1924558956,0.5805978614,-0.7088220746,0.8569888022,-0.7509992085,1.40033199,0.1618394441,0.4763548167,0.0983961612,-0.3731608175,-0.1149471927,1.4336384149,-1.5823779127,0.2616590121,0.0545179928,-0.0293489677,-0.3849021253,-0.9664666146,0.7827184056,0.2379912667,-0.2864770287,-0.0847624879,-0.0770231372,1.1335240518,1.3722014151,1.002599993,0.7165804697,-1.2015681659,0.5132937564,0.3426962358,-0.4568004749,0.0879882564,0.9171961618,0.7315347255,0.684702651,-0.1236190956,-0.0101647166,0.9028435272,-0.0522016527,-0.954887446,0.8012243293,-0.2609468573,-1.7347437524,0.5121935829,1.0140680035,0.8736423271,0.2057616129,0.1442806614,0.2046453173,0.177380496,-1.1153297803,-0.6432296894,-0.6821791524,-0.3681139001,-0.0481363285,-0.240222632,0.8493275011,1.0889696585,-0.5840426944,1.0975815963,0.2133706627,0.6970489583,-0.3942477682,-0.4633843188,-0.5913315871,0.2134362571,0.3936580735,0.6053032921,1.109088922,2.1383813885,-1.3635453262,-0.1998548057,0.3624968093,-0.8917433438,-0.0304722,-1.0029446638,1.1419446282,0.1701390256,0.8724908191,1.1152197176,-0.4007897812,-0.4826421528,0.6961095487,-0.3134694483,0.6395131226,-0.6994139534,1.5655139498,0.7059481178,0.9145722167,1.6309253291,0.1998228372,-0.8815300963,-0.530557531,-0.6940784549,-0.45222391,0.200593716,0.7509092073,-0.8932685921,1.3061098022,0.7350850435,-1.0890733335,0.1671860688,1.5445079335,0.3286507071,1.4619756976,0.9014625029,0.4835252838,-0.7575565873,-0.1178024376,0.3459194285,0.8256783561,1.2102127449,-0.5368162129,-2.0488663475,-0.9950549895,-0.6985441253,-1.6184706729,0.4884269092,0.1830692652,0.3055728093,-0.7771505715,-0.4968888111,1.3086439438,0.4712180227,1.2354688225,-0.2966571424,1.5187929356,-0.2976191239,-0.9899239342,0.030960767,0.5223762467,-0.0641170699,-0.0008909031,0.8450790842,0.6903730406,1.1033453913,1.003620406,-0.3478895057,1.0277980638,0.0686709563,-0.5110044571,0.3669643102,0.8786163069,-0.4390141375,1.382919989,-1.4765123258,0.5147057567,0.2227631249,-1.6152859036,-0.5866660711,-1.3072256024,2.0773142328,0.2524187031,0.1620121104,-0.1298806788,0.5703029956,0.7476628145,0.2214247612,0.6536579664,0.2008849805,-1.6072901573,1.0275117068,-0.2112035844,0.6335799723,1.4912752597,0.803633301,-1.5719710104,-0.6001730452,0.5362034953,1.1084180288,0.8313864571,-0.4986315719,0.3242478248,-1.2825738807,-1.2685168946,0.5467181601,-0.1605064083,0.0241056693,0.2400137487,0.1411086903,-0.7324455593,0.4452601482,-0.2703844204,0.3166001229,-1.2341578609,0.957270952,0.6175304835,-0.7425835671,-0.4773717445,-0.0104448274,-0.9264455898,-0.1178128943,-0.3966646804,1.0296549694,-0.5388091184,-0.4263377848,0.5851353849,-0.1253040639,-1.7029358781,0.368394622,1.6248314993,0.2711568693,-0.3389694242,-1.1542724964,-0.5079515299,-0.9393957855,1.4220595111,-0.7179691468,-0.0781332674,-0.6132261889,0.2399265506,-0.9010057981,-0.2085684377,-1.0875848281,0.5421495219,-1.7524539333,-0.103883294,-0.8375388476,0.7294492086,0.163098806,0.2580521758,-1.0101759641,0.9158935968,0.4904392493,1.1901938213,0.2718927736,0.4238957355,-2.2047562479,0.1368456605,0.4214843226,-0.6152634138,-0.0144962804,-0.8161259737,0.6889540777,-1.0739802841,1.4079229832,-1.4655994715,-0.6216616167,0.7436409616,2.4451342603,-0.802242077,-0.8001258036,0.9319628162,0.5944014961,-0.4981308344,-0.6583326472,-0.8965874825,0.3435830861,0.5067494089,1.0757050609,-0.7054167998,-0.2382166021,1.0869000471,-0.9645896502,-0.379380223,-0.9407351374,0.3126459902,-0.6443884629,-1.5039881808,1.2843952283,0.4012239072,0.844425474,-0.7903086865,-1.048695485,-0.7772845012,0.7770777834,-0.3192915757,-1.0121422022,-1.4082843377,1.2680611769,-0.7464058767,-0.6384965205,0.6640644173,0.6708739092,0.385360901,0.876709277,0.9146644078,-0.0002531079,0.5636728286,0.7267218136,0.5073838123,0.4449992949,-0.4937734188,2.0002422795,-0.23436364,-0.1475243442,-0.4889133774,-0.7767628584,0.4288239986,0.1701962768,-1.4798979236,-0.4703834964,1.1796126938,0.4076251845,-0.5214309802,0.493060455,0.2399927375,-0.027977918,0.4868869558,-0.9874501476,-0.180603954,-0.2966888992,-0.5040279715,-0.5111520386,0.7643409606,-1.8809651614,-0.4954613352,0.7524992792,-0.2046654495,-0.5368372764,1.5296382376,-0.6477641223,0.689673156,1.3352474088,-0.7820080775,0.0149446384,0.9421897715,-1.6222510591,0.0486698547,0.0000101617,0.2860289607,-1.4552429485,0.8050750825,-0.9315083528,-0.5985288026,0.0979443491,-0.7436328823,-1.3334198493,0.1316715507,-0.2320934514,-0.1844217778,1.142070302,-0.1288275447,0.6423283694,-0.8210661229,-0.6543801742,1.3437546122,0.8550572127,0.779628145,-1.7863002554,-0.959723036,-0.9461094968,1.2850009022,-0.679252557,-0.1665046992,-0.0335676406,-0.5534538412,-0.1085467819,-0.6383652956,-1.2069709148,0.4867686246,0.4506131035,0.2992118414,-0.0282169793,-1.8705826407,-0.3092551569,0.1424873192,-1.2756726193,-0.4457737497,1.1314423033,-1.3700332663,0.3486502065,-0.936944957,-0.780701434,0.2187885598,-0.431723927,-0.6192731257,-0.3870613462,0.0108254776,0.1923398782,0.5526357648,0.5370981375,-0.64704536,1.3208975838,-0.0544453522,0.5823357372,0.5522004697,-0.410124824,0.4225976351,1.4331607318,0.0483032055,-0.0969164499,0.6161015277,1.187762676,-0.0251635988,0.5785295833,0.6822414608,-0.2721487602,-0.411696782,0.8599125767,1.1704842343,0.0305864004,0.2298275493,1.6418750227,-1.0379767047,0.7649163307,-0.4191420533,-1.0101722081,0.5634357485,2.5431719853,0.2794418867,1.1110852095,0.5484166063,-0.1122253287,-0.2188929381,1.6154231552,-0.0613861245,-0.987133411,-1.0581196456,-0.7561885975,-0.2145813993,0.1671953359,1.6202797843,-0.6160499191,-0.1715757916,-1.7810983518,-0.5615986054,0.8565609707,0.6985921566,-0.1572353262,0.1008647216,-0.3312669191,1.0325355153,0.2975006912,-0.266019356,-0.5761461405,-0.2666810198,0.8288010885,0.6905766399,-0.0221759962,1.8642542931,-0.7645770457,0.2424558578,0.890829914,0.0349538049,-0.5807179881,0.6065493962,0.8842431124,-0.050196719,-0.2353265956,-1.8415962459,0.3828885353,0.4402862837,0.2543882176,-0.8078970565,0.014972407,0.2457939809,0.1006708479,0.3748020365,0.3995034328,-2.4898600006,-0.6737917346,-0.0692518735,0.1767305481,-1.0873592128,0.3654193003,-0.1083643201,-0.4739906419,0.3415601367,0.5495803248,0.5371712515,-1.9473921663,1.0661089907,0.0505570476,-0.8763064953,-0.6532826819,-0.6258559326,0.5743935871,1.5221342872,0.8708610204,-0.1308177581,0.7460218633,0.3102198289,-0.4154983074,-0.0025082804,0.2211326116,0.6856159625,-0.5040354629,-0.2137025132,0.167865552,0.5159287619,0.2904680522,-0.5191626392,-0.6540504865,-1.0033321465,-0.1746291045,1.1962642061,1.1543060892,0.20476864,0.132275852,-0.9938470891,0.5342498812,0.4120947249,1.2665221542,0.1610259968,-0.0748506398,0.6722838848,-0.2728575788,-0.0007274198,0.7961639405,0.0643597706,-0.6244827721,0.6945543073,1.0317096019,0.9946775251,-0.6490668075,0.0453407707,0.3532715641,1.1664835746,-2.572740093,0.5660194288,2.8130869135,0.0941875062,-0.3273441007,-0.6134460497,-0.67905339,-1.0018217199,0.4809890907,0.8256414568,0.5708657727,-0.2528591407,-0.6117392136,1.0300040849,1.4079365441,0.4764048804,-0.7115719993,-0.4929249674,-0.3642021715,-0.4868276126,-0.2434736312,-0.945285321,1.1142742486,-0.5257789816,-1.5501855678,0.5274943435,-0.2498931684,0.6495420873,0.9333919069,-0.296698401,0.5162533745,0.8389319247,-0.7374261602,0.2801373191,-0.5245332334,-0.2631289562,-0.7154033133,-0.1453049273,-1.3124029025,0.7875952903,-0.037400448,1.366930049,-0.8320463732,-0.7222427768,0.4063905797,0.5589966447,-0.5516569547,0.1066095147,-1.2577535908,1.1340999666,0.5356031981,0.3435405067,-0.4079434435,-0.2491714572,-0.3521196165,-1.8192287033,0.730861092,0.7858321197,0.210241797,0.8911886804,0.4940444819,-0.4821234865,0.85477529,0.6723133345,-0.5222238614,-0.4241639448,-0.0086449065,0.1040852155,-0.5444602699,-0.5285442407,-0.9910352183,1.5755205477,0.450146988,-0.6191056679,-0.4747384202,0.1189700293,0.9693184381,-0.9284811017,0.2487114759,-1.2754255164,-0.9741467489,-0.4494533104,0.1297627994,-0.8595284379,-0.3962029381,1.3327816031,-0.2247571772,-0.543970894,0.3140860285,0.6451915397,0.8781620143,-0.1952793668,-1.0640717083,0.6655823243,-0.9035939748,-0.672837351,1.1772617503,0.665176148,-1.1793005792,0.1480248619,-0.5631912643,1.3469499464,0.8677965088,-1.3318731339,0.7786209059,-0.0674653051,0.8871457075,-0.9438369278,0.5926549667,-0.3404757876,0.9656718083,-1.2646590353,0.6183478334,-0.6906055488,-0.4693355998,0.6641384665,-0.0085193146,-0.2496417006,0.124076788,0.6106737488,0.0627832599,-1.142458182,0.6682921169,0.6249887497,0.1190238988,-0.5582121627,-0.6177616938,0.4629223177,-0.0875410007,0.49015682,-0.7292924664,-0.9255474826,0.0635586896,-0.078419987,-0.4710430752,0.3357796755,0.7059675685,0.3396938018,0.7152200946,1.000742867,0.4787784592,-0.3272059311,-0.4446573452,-0.51484037,0.3919641826,-0.7699159596,0.7638540383,-0.6949036275,-0.4345143262,-0.6093428027,0.9904113221,-0.5659708996,0.822629699,-0.6022550846,0.7831935521,-0.927027539,0.4972745653,0.5364897609,-0.6955470047,0.2667707538,1.3076820593,0.4571284778,-0.0703153274,-0.3139009517,-0.9349888788,-0.5785748342,0.66202182,-0.9695555962,-0.8444519888,-0.0114235602,-0.150800512,1.1362997892,0.1460721213,1.0513992086,0.2680920367,-1.1330333335,0.8116576597,0.6184175037,0.7970157291,0.0449843437,0.1742553548,0.4145682737,0.3763815304,2.1734862359,0.1830446616,-0.5604587711,0.8825584931,1.0820474409,-0.7744088161,-0.2895201258,0.5013756964,-0.1041065984,0.0140653213,0.264095212,-0.1933991036,-0.9601774749,-0.4764458869,-1.1017525674,-0.6484244607,0.3086809753,-0.9915555675,1.0967852912,-0.1121297606,-0.3873237261,-0.5923094584,-0.2718850042,1.0618901527,1.4270406556,-1.1236686215,1.3807841219,0.8167244395,-0.7830440153,1.3510094173,-0.6236509273,-0.7828729616,-0.6387439413,0.1846395439,0.1053162541,-0.4080242705,0.5038400003,-0.1644540019,0.0404722566,0.4074006869,-0.1006731892,-0.8249247965,0.5470115186,-0.0208167857,0.4169406191,0.4710843517,0.4566019589,0.3125307445,0.6540774762,0.1437092229,-1.0897685171,1.1840086063,0.2742440983,0.9457837744,0.834072489,0.967581785,0.8885386184,-0.0444646371,-0.6520531728,-0.2954474562,0.1984515017,-1.0973341546,-0.7407124948,0.4506460131,-0.408802942,-0.1259658114,0.2163898018,0.4389361217,0.6379635688,-0.8086067716,1.0649161796,-0.4769800248,0.5353132379,0.5890243781,0.488110442,2.0759487237,-1.793686879,0.7785946171,-1.6915522924,0.2535106109,-1.3654043331,0.6022839483,0.2249383683,-0.0674841952,-0.0564481269,-0.7389553879,-0.6616627536,0.7138521556,-0.5633418365,-0.9258082155,0.2066060739,1.0655892739,0.4835578383,-0.2260205462,0.5748815755,0.2203353643,-0.2383058746,-0.4836990529,0.5963210887,1.2862386091,-0.3042748622,-0.830334092,-0.044584348,-0.353155364,-0.3261634644,0.5968769273,-0.1038554283,0.9482530568,-0.373945891,-1.0941728339,0.78459295,0.2656773556,-0.6685380974,-0.547664554,-0.0992274808,-0.4684190568,0.0561388751,-0.0928372708,0.4633947639,-0.3643847414,-0.7009325396,-0.6300443649,-0.4777225585,0.1469901753,-0.6823686578,-0.5772308585,-0.8354878198,-0.2019136914,0.7513195113,0.471363768,-0.1265763769,1.0764199107,-0.9535224573,-0.3573437447,-0.3403216344,-1.4403790301,-0.8251710382,1.0751463738,0.4141891956,0.3054924582,-0.3584560132,-0.8238040132,0.8476116368,-0.0360667203,-0.3622976052,0.6911961679,0.0505442776,0.8623631049,-1.1919887836,0.7080910261,-0.8361296036,1.1377103665,-0.8264856636,0.1733851427,-0.3879713116,-1.6504516668,-0.7445162028,0.1867913004,0.6720470197,1.0783650846,1.0771490392,-0.011979033,-1.0651559067,1.233137992,0.7450193357,0.384029679,-0.5726077525,0.7634728701,-0.6778788863,-0.8913439797,-0.4769338012,0.3351341747,-0.2590715563,0.7523758879,-0.7983809244,0.1628978398,0.629292178,0.0773036423,-1.2429014795,0.5668823802,0.8893012164,0.4650637307,1.7088982002,0.5587683987,0.3022037222,-0.4504729301,0.2409826114,-0.7175917144,-0.4457751552,0.0409034916,0.1317743758,0.3124188621,0.945892587,-0.9309783547,-1.0558204382,-0.3851637356,1.1864992024,1.1033872567,-0.0592857221,1.0978833138,-1.0502213389,0.3979072683,-0.1297105644,0.389033987,-0.5974103902,-0.6705362015,-0.5719294552,0.877277874,0.2142190865,-0.493438094,-0.395017035,-1.3630460333,1.4765141779,-0.1802564388,0.4005826354,0.7687084762,-0.3105663592,-0.2427512677,-1.1887619543,-0.430330524,1.0694844284,0.1202799515,0.8825062829,-0.7861496314,1.0325075027,0.6187049218,1.0619013079,1.1191592054,-0.6390792655,0.4097363571,-0.6116413503,-0.7842457218,-0.1461290692,-0.0126070851,0.0406685632,0.1723002576,0.3398409075,0.151516752,-0.9546823657,-0.0544392564,0.4103819565,0.4650045157,-1.1021404118,0.8505943383,-0.7776521067,0.1117547009,-0.255203628,-0.2420499011,-0.000343721,0.8321087969,-0.6580778817,0.0041479229,-1.8514966584,-0.7902724151,-0.6570304688,0.1057910516,-0.4958630093,1.3238433382,-1.0196845755,0.1415061835,0.3869068718,-0.6879145367,-1.5031867997,0.5208077914,-1.1335730049,1.123255449,0.6890706386,1.8808742316,1.3106547427,0.479582046,-0.6745398447,0.9517612495,-0.5360781714,0.4484467561,-0.1649859587,0.7730575741,0.6871710455,-0.0603565455,0.8468808989,-0.4246156731,2.7861127606,-0.6350929234,-1.3997105064,-0.1460960594,0.8369050105,-1.04233081,-1.6004765202,0.3127314948,0.4182186255,0.5070090496,0.0971041489,-0.7160988995,-0.6922567121,-0.2751790958,-0.9983817369,0.1519235043,-0.3244480352,0.9024677637,0.2989533467,-0.9057853333,0.2555552741,-0.6598713643,0.3794464868,-0.0408649741,0.7874613579,0.2133832017,0.6282895403,-0.5930526103,-0.1231178404,0.4686039006,-0.2685852716,-0.7339834608,-0.4781439595,-0.6357911917,-0.0406034004,0.3536047682,-0.0891965575,-1.2214069542,-0.0534497025,1.0306722515,-1.0853373051,-0.1843481144,-0.1442044259,-0.4304510641,0.5940097275,0.8528292773,0.387201746,-0.1544482142,-0.6615435233,-0.3519163459,0.0892169069,0.7970817747,-0.3900198146,-0.5699313388,-0.102699334,0.1541166725,-0.6957910717,0.0839642852,-0.0917810745,0.4662184419,0.3703522935,-1.1854301023,-0.3040306398,0.4039000064,1.3441260173,-0.702225134,-0.6787257419,0.3330130605,-0.9419563529,-0.737966652,0.7396289593,-0.5553556841,0.6129196785,-0.4220672248,-0.5100486986,-0.0560958643,-1.2663645648,0.4689631741,-0.7818003448,1.0661932408,-0.7315679863,0.4099149768,-0.1721083297,-0.1766553386,0.9551077177,-0.9633128842,0.649121127,0.8966273426,-1.4926550316,-0.0744825701,-0.5257243106,-0.0430715226,0.2697179263,-0.1065054963,0.7597524211,0.014407731,0.2213558105,-1.8075429141,0.8039601842,-0.4161663237,-1.0504103574,-0.7518672197,0.4730071615,-0.4925361272,-0.0744120194,-0.1331082757,-0.7031730821,0.3368170465,-1.0115987486,0.2102392224,0.3790473435,-0.5208142904,0.8113539455,-0.5272159795,-0.1696615703,-1.1139607697,0.1939416461,-0.7118071812,-0.5514575473,0.8916728226,-0.8850390839,0.5540873565,-0.4426411487,0.5852285998,-0.7864110444,0.371544801,0.2583319353,-0.5446642876,0.1974129234,-0.6365029023,0.7242345399,-0.8889472364,-0.4570844844,-0.6169897673,-0.3146477491,-0.5878783486,0.7732118648,0.8144651265,-1.0485147255,0.1376008871,-0.9074845689,0.0166516296,0.3996603216,-0.9932228313,0.0701738707,0.7688872888,0.2199415168,1.3577099438,-0.0663882175,-1.0252207098,-0.7376635996,0.3257772782,0.5633494972,0.4555870412,0.2755160733,-0.0148571635,0.1457482869,0.1651631514,0.1832387473,0.7245259156,0.5016768553,0.6541771609,-0.4923676042,-0.7322586984,-0.5761367549,0.5143728564,-0.4907740964,-0.5557885666,0.3946754586,-0.145983787,-0.1457734892,-0.8630174931,-0.1156551513,0.5481332164,-1.5471284201,-0.5829648072,-0.3101713704,0.9179318999,0.6018688058,-0.2429862354,-0.5126994849,0.1070954708,-0.7065168541,-0.2175230236,-0.0948671026,0.8752562253,0.2367346633,-0.5560082753,-0.2561327792,-0.0227894164,0.0719114418,-0.6921583918,0.8447881294,-0.959504634,-0.6231710871,0.1485355708,0.6113057105,-0.2886387477,0.6210892581,0.2224661476,0.6021389455,-1.0900085729,-0.145638097,0.9005708331,-0.5269016299,-0.3360511527,0.443159374,0.5454992728,-0.9253398858,-1.1181718115,-0.8456510309,-0.3654202996,0.1626828461,-1.0647384005,-0.2797166544,-0.1182569492,0.2970184914,0.102412991,0.4024442506,-0.5315282483,0.8342427728,0.6125492334,0.1895977958,0.5692007513,1.6560922344,0.271615926,1.2226773867,0.9924166944,0.6590447859,0.4094662249,-0.354788884,-0.7837625925,0.4905078741,-0.599388281,0.038584183,-1.1035979422,-0.3289699499,0.302055094,-1.0631688896,-0.7189023099,-0.0338524651,0.1879527316,0.5222568737,0.5925342558,0.1084072561,0.4459493315,0.8864266465,-0.4868580102,-0.742052386,-0.3604096191,-0.5971983843,0.5577622002,-0.528251324,1.0970858562,-0.1243914974,-0.19090018,0.5707866315,-1.0932888925,0.2797918335,-0.8392592954,-0.3109560106,-0.2232977871,-0.1806608908,-0.4021862569,-1.1124473403,0.0431750782,-1.4547911632,-0.849796844,-0.1845760016,0.3435877602,1.0777100346,-0.7284063046,-0.0468003449,-0.0860333456,-0.5128377844,-0.3991897691,0.1580106993,-0.2945871805,-0.5693624441,-0.5131839721,-0.5635900863,0.6446033903,-0.8007031978,0.7779295409,-0.0791679328,0.7835306316,0.6596759,0.8733008512,0.3818241165,-0.6409187034,-0.2349563388,-0.4666626149,0.177977347,0.3513976904,0.2744094139,2.5172578604,-0.2799539881,1.0080149442,-0.6400312675,0.4064832135,0.871530204,-0.3532866052,0.8154637667,-0.8512072009,-0.2312408889,-1.1025282373,1.8320612651,0.2289670699,-0.0938328274,-0.5910860898,-0.3894912416,0.3247159466,0.7537056302,-0.7481246251,-1.0687304148,0.3261222061,-0.5913700224,-1.0455992108,0.668162682,-0.6882872334,1.4777454021,-0.7693344231,1.4805626461,0.2781532285,0.2627894656,1.2762662802,-0.1511132696,0.1010917888,-0.1928360026,-0.4863754509,1.383651666,0.1081533923,-0.7179851008,0.3424175613,0.6885832663,-0.1260765141,0.1484243257,0.2824412224,0.0428606873,0.9772665924,-0.5062939307,1.0418142823,-0.3483592436,1.451197109,0.7415027875,0.6204304157,1.0084101582,-0.5319678618,-0.3693238568,0.2404254456,0.8324165663,-0.5414786725,-0.7532746842,0.2222870608,-0.4390965493,-2.0918018289,2.5434101201,-0.6220447169,2.3236031491,0.6134733076,2.2637107258,0.1879265484,1.2393162341,-0.7425231983,0.6528964981,1.2521292003,-0.0774959063,-1.1237123416,1.515231679,0.5578233499,0.8949171294,-0.4209001821,0.0037748951,0.6450655578,0.7808841898,0.0783534755,0.2471686913,0.4457854954,0.795411495,1.320314775,1.1444622814,0.4677065636,-0.1416551698,-0.1425529318,-0.3959542745,-0.4851051492,0.1562082605,0.3812885155,0.8444928086,-0.0526188702,-0.574888185,0.6029728761,0.7442123977,-0.1967970444,0.0275948632,-0.411541607,-0.7228165938,-0.7076006926,1.0563520178,-0.3513051258,0.9266169878,0.2830815098,-0.3391363488,-0.7998153331,0.2440478364,0.0400115516,0.2371390346,0.2770060059,-0.8669226081,-0.7483612344,0.0413076364,0.8232031227,-0.278921642,0.651104704,-0.4163902125,0.8798520823,-0.6389732958,0.7333310287,0.3085820486,-0.6004821436,0.3545831243,0.7473205202,0.4881864002,-0.3111889604,-0.3465829276,1.4084006081,0.3203630434,0.1621892027,-0.3274213625,-0.2875259229,0.9432284321,0.470303462,-0.807915117,0.5144840668,0.4608653843,0.9595186492,0.8794694995,-0.5863242944,-2.0553908729,-0.2343468588,-0.5655937617,0.2707752359,1.1736184636,-0.1293976554,0.3970216965,-0.6880697987,0.5752434116,0.1926411237,-0.0788773045,-0.0279589308,0.3148613439,0.5728905386,-0.2029994932,1.4304780791,0.1633645594,0.7992346387,0.8643663225,1.3065452077,0.5890916895,0.8946367311,-0.0041326319,-0.2813902845,0.9103948077,-0.1953389274,-0.213293186,-0.5404394774,0.3571000626,0.1166233086,1.2263347338,0.6162681216,-0.5622711771,0.5503322326,-0.2351723213,-0.237560911,-0.1127334832,-1.2077693887,0.4292000979,1.1647572893,-0.9514506947,-0.7183151366,-0.035197365,0.4349360648,0.1372815469,0.6593690541,1.2825526288,0.9306868313,-0.5477079111,0.4070508795,1.3361649154,1.0403689845,-0.375032421,0.6794886101,-0.5267591942,0.0146042362,0.1232001499,0.3397998387,-0.7414240706,-1.3599535317,0.5350711767,1.2665681056,0.558630171,0.5942074753,-0.8865551787,0.6710524606,0.3749338014,0.6566838279,0.069459054,-0.6139804154,-0.1585304392,0.3329766685,0.7162401778,0.4266526283,-1.1385258129,0.0518687777,-1.1915150117,-0.5314692548,-0.5089050651,-0.9622727718,0.6171039565,1.2694688608,0.1597999712,-0.5466930299,0.6076660323,0.8359413909,-0.402865451,-0.291658962,-0.3062524378,1.2350067104,0.6475175247,-0.7327130952,-0.6216285698,0.5909919062,0.9303608127,-0.326193235,1.2910396997,-0.9261060553,-0.8212989205,1.1016409913,-0.2017613376,-0.0548746949,-0.4871540884,0.6661837605,0.4976648331,-0.3583144428,-0.4865885103,1.14921462,-0.0905146368,15.938934942,-0.7647011196,1.7647890261,-7.5506374761,0.8851276315,-1.6976808551,-3.5588768638,2.1794425952,0.677034375,-1.5572836467,-0.9852495392,-1.7434761208,-1.8543036194,-1.6941683546,-0.6459385819,-0.0676575068,-10.816148333,-0.9916857408,-1.3537751558,-1.4795845947,-1.1746648791,0.8717256207,1.3182196593,-1.2333498314,-0.3750391347,-1.354608009,-1.4125366338,-0.1727919819,-11.1107437928,1.0520137501,-0.1362236744,-2.2026190741,-0.371496553,-3.6396141366,-0.0348757587,0.7149310073,0.5538471284,-1.0675423641,-1.0097845141,-4.3528544989,-0.6462604522,-2.4336436112,1.5982656221,-4.7501250842,-1.0243470248,-2.215999469,1.3110685285,2.4691524339,-1.0645613769,-1.6652479092,2.2385146454,-8.6703375596,-2.0230555523,-2.8259042828,1.1233004146,-8.4114661358,1.3509658399,-0.6427806935,0.6750128083,-1.3659192503,-0.6483033653,-1.1967134954,-0.1747102822,-4.5857845899,-6.187711751,0.0156859764,-1.0000876297,-6.6792122232,-0.6385390374,-1.0897171985,0.7455496835,-1.4848606987,0.375009879,0.0287564715,-4.8598949474,-0.4740233541,-6.7077639403,-0.7597618938,-0.6013584242,-5.26440359,-0.4478455089,-1.1965031391,-0.9731208096,0.8376350896,0.0021252216,-0.7499857761,-3.6828484516,-3.2906670929,6.1309019234,-13.0144128093,0.2662210217,-13.7124194891,-1.3412125546,-6.5634917674,0.0322206296,-1.2372077896,-0.5466029493,0.3488760351,-4.7041639182,-0.329304753,3.8365941498,-8.7777978988,-1.8246515862,-6.1025366123,-0.6043329008,-4.0261858221,-1.2048536655,-1.9500938671,-1.2492282542,-1.7724847951,-3.788096833,0.4536828722,-3.6942925524,-2.1364878553,-0.5267590493,-1.1935405583,-3.2730462843,-1.0623616103,-0.6371357105,0.1745707814,-0.7537785609,-2.4852667033,-2.5047878432,-0.3108507116,-5.1433676878,-0.3606897224,0.2950372326,0.0698835425,-0.8287826497,-2.071156638,-1.3369948611,-0.6391259851,-0.5220334223,-2.5211679584,-4.4645444052,-1.1245566464,-3.5313350862,-0.6913504177,-1.4858622821,-2.0513701247,-1.7607965048,-1.9543237146,-0.3768147528,1.3057777989,-1.5055072465,-1.1380964938,-4.4057687338,-0.1258777692,-5.2630663244,1.2401396164,-0.6267346104,-2.7233038802,-1.1527417654,-0.3035172079,-1.314089034,-1.1946077956,-0.2270389212,0.0992649651,0.91284457,-0.4682099724,0.0291054247,3.2196557653,-1.4924537403,-1.3550891677,-0.2783226375,6.6583814941,1.1771084436,5.608604978,0.7402140243,2.4643450614,0.5437403709,5.5068147983,0.581524364,-1.1874172542,1.1304148623,3.0930393234,2.2181399224,5.4083513264,-1.479636353,0.310838441,-1.7119548847,0.8904692537,-1.4259561244,-2.7730670956,-0.6280507598,-1.9480345185,-0.8771382297,-2.7028910588,-3.6798227149,-4.2274672191,-4.4205643932,0.7893703071,-4.2496365959,-3.0958495813,-0.9562704842,-8.3697142835,-5.2931062588,-8.551381613,0.5689232597,-0.3834148484,-1.4105337769,1.3882531522,-0.0416549426,-1.03449368,-1.7943189661,4.3182525171,0.3974396375,4.7482187974,0.5745255906,3.3464025846,-1.5006071144,3.9727753024,-1.8663125111,-0.8041873732,0.0141973557,-0.0773832913,2.1420208146,2.8374402314,-1.9009297121,0.7329837146,-4.3990297985,-2.6844500568,-3.7374901636,-2.5262321762,-0.0084652558,-1.5882492447,-2.7805811962,-3.2333242731,-0.1063364842,2.1676753302,-3.523721722,-3.3821878571,-3.1485110341,0.1391116773,-1.4070893797,3.4941628714,-0.4771998601,2.18471286,-1.2808464588,1.3307146639,-4.1833083117,2.8121413417,-0.6857269348,-0.7039236761,-2.0964537578,1.0610211937,0.5913057846,5.5079822572,-0.0922502893,0.3930026228,-2.6757556708,2.376203842,-0.2707833559,-1.4120939903,0.0303376406,1.5645802811,2.5454272648,2.851596553,1.9321825386,0.4337433523,-1.7867811725,1.9373773615,0.5242368388,-0.9926203413,0.3940813938,2.9730558427,0.5762439152,3.1701491565,1.6768737157,4.6286685724,1.1285212389,0.7468106757,0.8497512362,-1.5285793012,0.1129952518,5.1305540549,1.8161090647,3.382491631,-2.4494992436,-0.4473647893,-1.8270633147,0.4495410461,0.5937273606,0.0562792607,0.5756236549,-0.039292534,-1.0468016674,0.1303366631
   -0.7966835167,-0.573296841,-0.3326686336,0.5254661942,0.0896322098,-0.3856565207,0.0239460381,-0.3924617704,1.051677311,0.0520371201,0.0098383717,0.8298270759,1.0385297368,-1.2422632605,-0.2036923469,0.2347179612,-0.3507670135,-0.812458419,0.131819228,-0.9982102804,1.2663137241,0.817390662,0.972444773,-0.1324729541,-0.5002598892,0.9617371536,0.8300643002,-0.8239259203,0.8020447309,0.5715418055,-0.3467664264,0.3624968735,-1.3323370889,0.8187721814,-0.9118880021,-0.3681777279,1.0314256874,0.679253028,-1.012571189,-1.4193937522,-1.512927939,1.0053355001,-0.4504774666,0.2621311928,0.8455394645,0.4373372682,-1.0234984541,1.875322952,-0.6551692692,-0.1245070782,1.0868521538,0.3569946853,-0.1608499501,1.0563422751,0.1158840955,-1.0976761418,-0.2607006415,-1.4574782696,0.4132616396,0.6414520566,0.7105914385,-0.6546964721,-0.0801166176,-0.1047778436,-0.7621964503,-0.4341563928,-0.1517280916,-1.1896143565,1.2407105455,0.7150081328,-0.7059530219,-0.1699129453,0.650678305,-0.0136762052,-0.7477418532,-0.7811775536,-1.0044105268,-0.2654999738,-0.4021460247,0.1620375068,-1.345609455,2.4018851704,-0.8680946949,1.9538824839,-0.2358521406,0.548411682,-0.0533250493,0.2359983122,-0.8441793552,0.6104362283,0.2270209828,-0.3337048178,-1.4889736468,1.3766875097,0.1500316214,-0.1944005059,0.584577274,0.4536919566,0.5075325381,0.7209348072,1.6139687205,1.0830928284,0.5768373653,-0.8198984407,-1.2824799494,0.7512382497,0.9350658159,-0.0406370719,0.9129895727,-0.4836820954,-0.4260612889,0.9988574899,-0.2302028827,0.4461590895,1.6718674964,-1.222818014,-1.3036242946,-0.866435574,0.8871100896,0.0215455699,-0.2941621002,0.2255932201,0.171952076,0.406020655,-0.6380159665,0.9679246856,1.1689367472,-0.0733717776,-0.713821416,0.7662527723,-0.7403708531,0.1947732098,0.7501227047,-1.4988877815,-0.2321638827,0.7163506928,-0.0178976082,-0.1212622697,-0.4660051369,-1.2029991006,0.2714604403,0.2988555176,0.5202722604,-1.1516606982,0.1953018168,-0.5044330212,-0.3210168827,0.0627632242,-0.4108409515,0.0763009203,1.7685177269,-0.0041613255,0.3665855116,-0.2686770884,0.4810625683,0.2641034887,0.3719136923,-0.5404347902,-0.912968659,0.7051610057,1.3399440595,0.6250432543,0.4903236396,-0.8167147634,0.1435929344,-0.6040945871,-0.0370473896,1.3194754916,-0.3903281731,-0.8650870452,0.0003368583,-0.0238208112,-0.1663754542,-0.4666830191,0.7286235018,1.0586311191,0.8262787965,0.0775178031,0.0852149559,-0.0809404779,-1.0362597975,0.2430552248,-0.520621954,0.1450715611,-0.4842285348,-0.2545830176,-0.9746290531,-1.0675700222,1.3930498774,1.3304658087,1.089580503,-0.6351953597,-0.6647607809,0.5295633796,-1.3873864701,-0.6953575988,1.1499565541,0.4571835893,-0.5527495319,0.1236270582,0.6324941871,-1.4099073172,0.2599148927,-1.4245172099,0.0497712441,0.4899386284,0.7908333212,1.3083039812,0.5631475383,-0.9469699638,-0.5976871242,0.8770811389,1.4064134893,0.5781663451,0.4525188931,0.8538533129,0.9729264178,-0.429137995,-0.0762447331,0.7514634276,-0.7404523065,-0.0872794413,0.4091747605,1.9493841075,0.2650277164,0.1211853055,1.3328852404,-1.0992378778,0.99446054,-0.5028546311,-0.5699708285,0.1201859368,-0.7946477308,1.007296388,0.8735725303,-0.1425018832,-0.0812869157,-1.3653796411,-0.3789704987,-0.1408176169,-0.6850626784,-0.236456719,0.5582326756,0.361360609,-0.3773709767,-0.6093322426,0.0505820651,-0.4347099532,0.8810344205,-1.3021143612,0.0727714822,-0.6052394306,0.5068513715,-0.4441720771,-0.0852613298,0.3752489565,-0.3098547326,-0.4571057614,-0.2349605599,0.1227689524,0.0884805096,0.6054693644,0.4578591264,0.2117216379,0.0129613628,-0.8945234397,-0.557855771,-0.0842538347,-0.5748082104,-0.8920698725,-0.0361531388,-0.9436662023,1.2335528083,-0.6768432625,0.0432886282,1.3488435464,-0.2137563233,0.3067373859,1.1331015926,0.5045983493,-0.3368983167,0.68030104,-0.9323304082,-0.0702831264,0.3553860312,1.4491355617,0.5755888866,1.4818495761,0.5320996652,0.64614854,0.5658213491,-0.6468494925,-0.6843156073,-0.1202142603,-0.2249409607,0.3745085877,0.0621533474,1.030391558,-0.1453451873,-0.0623793943,1.3117127678,-0.9768483157,0.7654526483,0.0949439604,-0.5451406575,-1.0045388438,0.9642672568,0.3487334908,-0.2700546858,-0.0596476314,-0.9307537247,-0.0761701652,1.6123571453,-1.0272162605,-0.433250027,0.6886459766,-0.6418335397,-0.8057966821,-0.5300434388,0.430128737,-0.2351317233,-0.3868824055,-0.1250872816,0.4847271093,-0.612852111,0.7250753552,-0.249661266,1.7561298523,-0.3868147928,0.9989970088,-0.9027943169,-0.9333330509,-0.818015019,-0.4052434607,0.4101428791,0.0846698044,-0.082975212,0.5455586778,-0.3347092683,1.6272913268,-0.2027831376,0.3907352827,-0.2355272178,-0.3652408418,0.4292276526,0.6562795148,-0.3362837687,-0.6844727085,0.6000341203,0.2687350487,-0.1202275199,0.5529933456,0.0985652808,0.6599959633,-0.2641384744,-0.0188069111,0.7090250926,-0.4727264496,1.0675682013,0.7844957951,0.0271980089,0.8340027741,0.4495855082,1.6362664907,-0.9907415976,0.6666358134,0.5831995848,-0.0064515304,-0.2464491105,-0.419686477,0.5144246228,0.1747341442,-0.5401549112,0.865206664,-0.0790655666,-0.4624477563,0.9550372035,1.1412764454,0.116268408,0.1985154602,-0.4973874891,0.1214378122,-0.5259242033,0.9399524487,0.4450985956,0.1786839635,-0.3794256156,0.4116384658,-0.627360338,-0.2061554387,-0.0162092276,-0.9562182758,0.1754631016,-0.9952657793,-0.0295614508,-0.5420368221,0.5155452026,-0.0304266967,0.4585459273,-0.8510641706,0.7095710923,0.9851862013,0.5600569501,-0.0174546121,0.4167421172,0.065890011,-0.9553172528,0.7583682268,-0.2848224932,-0.8281342903,0.9989359483,-0.4754035106,-0.7382390186,1.3695482862,-0.0503683952,-0.6641176362,0.4290423639,-0.5908718802,-0.8897036562,0.2692917202,0.7463127796,0.7200348359,-0.6877496629,-0.5838989715,0.3736763871,0.3923904397,0.1970875764,0.8549169916,-0.1166805564,0.3722014143,0.7890359436,-0.6048779148,-0.4054758145,0.069980101,0.3356204042,0.9581037978,-0.0473424003,-0.6369595697,-0.1368132561,0.1335641302,-0.8933418124,0.9844372955,-0.0698599092,-1.0867634735,0.1203158844,0.2658810051,-0.076243462,-0.5690184983,-1.0773734343,0.0678665735,-0.9170516283,0.2008900695,0.8848479836,0.1120905202,-0.1427333434,0.096982181,0.8095282771,-0.3825588837,0.0442870707,-0.1005718328,-0.8683239827,0.4892753477,1.0170183185,0.6295514133,0.7063860528,-0.8785929977,0.6753018269,-0.4639582619,0.4481794021,-0.3124287855,0.8726375544,-0.472003001,-0.5582713297,-0.6581935191,0.7813920252,0.8778574338,0.7328818597,-0.03359615,-0.4900724961,-0.3040487994,0.8682313503,-0.5599683475,0.4612997686,-1.3153344413,0.0311142809,-0.7082430059,0.1126460937,-0.3266908446,-0.4954032075,-0.7846045637,-0.1537687819,-0.618865966,0.4497327776,0.9852240367,1.4392708894,0.2987714507,0.6712650784,-0.9761248554,-0.848039202,0.2917504356,0.9270951309,-0.5312095497,0.6445716635,-0.8300424079,0.9258743188,0.6108553936,0.4640577334,-0.3731697061,-0.1699336875,0.0962962598,0.6695232507,0.3956069376,0.2936915793,-0.7451763155,0.4576334846,0.1298983522,-0.2472659772,-0.3735581049,0.3280477783,-0.3554670006,0.2064071689,-0.7614723618,0.1892752773,-0.4618212669,0.1572164593,-0.3916920429,-0.7731022759,-0.154173699,-0.4543909707,0.6551937813,-0.4419154931,0.8032680929,-0.6639884058,-0.4887002703,-0.0012165493,-0.8518834538,0.3460156736,0.2246295691,-0.2482927653,-0.625032838,0.9146608262,0.8899570045,0.0563054503,0.7513315008,-0.247499463,0.7937843247,0.4215581605,0.3439016135,-0.1694515126,-0.283713047,-0.4232712742,3.311146953,17.3610353962,0.1030099418,5.3311904146,-9.0727144418,-1.685524394,-1.6555862468,-5.0480907072,4.147551707,0.8244253743,-0.4510516043,-1.051656219,-0.4978259323,0.1694288201,-1.4145300233,-0.734028377,-2.2013014856,-10.1955265218,-3.5416845923,0.0397057763,-3.4194037887,-1.0776007439,2.4464973079,0.9501688709,-3.8750734473,-1.7739769715,-2.8080112036,-0.7098996576,-3.0240648603,-12.9472019428,2.4734192252,-1.9662034635,-0.1588034864,-1.7117871697,-9.4313684965,-1.1478064561,0.9665423132,0.8432950419,-0.1736211109,-3.498105636,-7.1005151566,1.9232260526,-2.4943140936,4.2995501972,-3.7337845479,-1.3514589759,-4.4911192698,1.6747186065,8.4438022556,2.3398386487,-1.1547309989,1.9904997739,-7.6785405476,-1.2579750175,-2.9697513362,1.2368159303,-5.2111333809,4.1414922606,-1.24398188,-0.5532818065,-2.4168262126,-1.7620282887,-2.1115697968,0.6815926428,-5.433140107,-5.6096947758,2.6939315558,-1.0799679927,-9.3649581296,0.0214015417,-1.6842513892,2.5405340734,-1.1202037383,1.4544522925,-1.4062519087,-7.452777952,-2.2726199892,-7.5878981675,-0.9729013271,-1.4205542012,-7.3132958756,-1.9836419328,0.3393547908,-0.9775369711,1.6809791889,1.7797705151,0.128868224,-3.2741197578,-2.8682660805,11.2870172336,-19.0594441777,1.3236958967,-18.9979568541,-0.9602579545,-7.9637251403,1.5854998136,-0.4904836336,3.3777657807,0.918403901,-6.5702050374,0.1425088288,3.543212967,-14.2898521009,-1.3415796966,-7.8889929488,0.3350206681,-4.5062607197,-0.3318958698,-3.8391005734,-3.405210761,-3.6088623376,-9.6236305689,0.4946613463,-0.5992592839,-2.2931145808,-1.4622826904,-1.4552710932,-4.1285624151,-2.6556956106,-3.2865369234,-0.8815628654,-2.5127215585,-3.9350735407,-5.5714934425,1.1102165822,-6.2095277571,-2.1798443903,-1.1039069735,1.4902084989,-1.6081323174,-3.0118562699,0.0945955116,-0.8096642439,-1.2848936609,-2.7237432374,-9.2520847997,-0.9969023478,-1.5082911002,-1.0637948196,-0.7338258485,-4.7573757421,0.3342317381,-1.252202313,-1.0365645093,2.1356735904,-1.3341959191,0.7955067174,-6.4870988226,1.136020233,-6.1921805022,-0.6094513263,0.1649584321,-4.7587903259,0.2509754391,-1.358675621,-0.2363834854,-0.0825544887,-1.4653760638,1.5674933034,2.4647797784,-1.7046219127,2.6042956393,5.8195804036,-1.7260722955,-0.1075738317,2.8725105979,8.2025282317,3.2138762308,8.4119430055,1.6022160382,3.3022028328,1.4954238725,9.170571635,0.3628798784,1.005113553,2.1250289656,3.4034912922,3.357033133,7.3306883385,1.4463646815,4.1645708845,-3.8634765284,0.0088361692,-1.874331871,-5.0246843104,-0.4335459942,-1.4733989609,-0.3566206708,-3.053496002,-5.1663342556,-5.9121574459,-5.3364278617,0.5713184003,-3.0190500293,-2.7871670002,-0.9251886525,-10.6048854927,-6.2003829099,-10.6991547991,0.6284262486,0.6430907069,-2.4592550358,3.5176362875,1.3384971178,-0.043832341,-2.2287887727,5.2523620413,-0.2962314027,5.109442103,2.0869107521,6.7826367559,-0.8743945856,4.4267911717,-0.3598881699,1.7703727922,2.0058421839,1.1610306546,2.5292899782,2.6421353173,-2.1876336077,1.7907789642,-3.9107071337,-2.5428013811,-6.0115455478,-2.2591838356,-2.1437814953,-1.3521859959,-3.721178594,-4.6263100746,-0.7408537027,4.3452819301,-1.8496392092,-2.5180019298,-6.0774124608,-0.4395700139,-3.6852533868,3.5405377137,-0.3164167626,4.3913750578,0.3246441377,2.7897547506,-6.1560272248,0.2370329938,-1.9971783164,-0.4524271767,-4.5167513392,3.3019331499,1.1789644441,7.5481194653,2.8828671848,0.7161415227,-4.1619064796,0.632052244,-2.6025128914,-0.2967981353,1.6926944716,4.0735804854,1.8971279272,5.1629641137,6.9628179243,3.8266018039,-3.2385489595,2.2584146884,-1.2535098345,-0.6643841626,0.0210307112,6.2624275399,1.1143076576,5.086020698,2.7793894736,4.937060465,3.248980936,1.5680834328,0.2399009106,-0.1652630839,0.6193224768,6.5977914677,3.6804108069,5.8765651918,-0.9307447689,1.782598884,-0.7395272639,0.3964156065,0.3607956556,-0.5698642034,-0.4079516667,1.3267369239,-0.9158300641,0.1387880065,-0.4928447347,-0.0429321653,-0.5044289852,0.5692634427,-0.1652901039,-1.7451319897,-0.0486957831,0.6384379324,-0.3904136675,-0.4286589675,-0.1663109724,-0.3613277202,0.6961945698,0.9176195102,0.5782528281,-0.1759572231,0.5897106266,0.7275025737,0.4972627292,0.6923789412,-0.6593127408,-0.7301918186,0.1525445649,1.1523312827,0.0431152862,0.2829945719,-0.3086905007,0.1231854864,0.928142638,0.3128224705,0.311412142,-0.9259230167,-0.8658623286,0.0908608178,0.7468151285,0.9617507073,1.0158699617,0.0130129304,0.3031731298,0.5316609509,0.7995916291,-0.5177434401,0.1916723476,-0.6457873367,0.1931039013,-1.0003803361,-0.2823693086,-0.3516744152,-0.4303944608,-0.1141339719,0.1487513831,0.4262214335,-0.7125601093,-0.401985757,-0.2882152574,0.481376806,-0.2025065064,-0.5097727063,0.0033886853,0.273265146,-0.728032701,-0.6966440736,-0.8090471025,0.5680498563,0.5422422243,-0.4845169992,0.2300998823,-0.478378516,-1.1230928387,0.3128606418,-0.1017022879,0.1119933175,0.2609366273,-0.1838588753,-0.9129876663,0.6455327068,0.8271774779,0.6428785897,0.442761038,-0.6567800125,0.3176490677,-1.0877326469,-0.6279305017,-1.5897632593,0.3029841561,-0.6698743126,0.7113196278,-0.464806734,0.8384866951,-0.3759714911,0.5590942943,-0.8738000576,-0.8161884797,-0.9027567054,0.0883726082,-1.0881781865,0.2801388711,-1.4057775454,0.3859631731,0.5810540405,-0.7424409715,-0.9661814747,1.2628739403,-1.1570748112,-0.2976385181,0.1703496756,0.4501045958,-0.5786143126,0.8547708777,-0.920053817,0.1928214357,-0.3119623546,0.753069739,1.3060635646,1.2905013169,-0.2628817726,-1.2476467593,0.4753180892,-0.3813125367,0.6324080022,0.8706072544,0.0999360193,-0.5891127157,-0.4866327524,-0.7091480012,-0.5183614649,-0.0510921312,-0.3503973596,-0.6203368785,-0.8537402202,0.3550229685,-0.7963002611,0.8443813779,-0.420712091,-0.92739281,-0.3898428006,0.0315461801,-0.5656740774,0.3289509848,0.2162945829,-0.3416428298,-0.1182074026,0.7711382782,0.8203382675,0.4210798583,-0.424371888,-0.51536412,0.7871867882,0.7722178215,-0.3294964576,-0.0881908244,0.040992109,0.5362704866,-0.0122820928,-0.885252732,-0.3121971421,-0.0602065668,-0.1520857061,0.3977614278,0.4667593862,-0.646387811,-0.2073202971,-1.3880271923,0.3347580951,-0.5682820117,1.0661181468,-0.4177706473,1.105452151,0.3970417315,0.9040046808,0.7795168715,-0.6680567358,0.1352964287,0.5155184141,-0.0509909748,-0.1145513146,-0.5874693834,0.3099127153,-0.7597811224,-1.0236164425,-0.3619963763,0.2540955139,-0.9189150136,-0.1974218982,0.3756202561,0.5150481579,-0.0995631958,0.5102740902,-0.5545632437,1.0251215837,0.8727263797,0.1044176936,-0.4052568233,0.8355054359,0.616485828,0.9914170122,0.2620828616,0.7092043812,-0.8185543378,-0.6607500785,0.2465556893,-0.1097803238,0.3221258024,-0.2066037533,-0.7555103452,0.6287186866,-0.0718741953,0.1148546741,0.2065023069,-1.0033641777,-0.863716117,-1.0657960327,-1.2636558879,1.0019321703,0.2057825836,-0.6481429714,0.3318649312,-0.8474884673,-0.1449939333,-0.5794105353,1.1041906901,-0.4412456701,-0.3449391229,0.7567367697,-0.9024212227,-0.5242091636,-0.510220417,-0.1508763747,-0.3259318169,0.1802808119,-0.4244215882,-0.7938347743,-0.5585877455,-0.5584701883,-0.117705718,0.8969596883,-1.0566959721,-0.2674849829,-0.8232193292,-0.2928469517,-0.6719283561,-0.6000695403,-0.0008636486,0.4565302131,0.3941363006,-0.1535901861,-0.5657297117,1.0865433729,-0.0629338303,0.9442779867,0.9075484318,0.1112420996,-0.7050948571,0.198343969,-0.9509058464,-0.2753958437,0.0090412459,0.0108956213,0.4873133036,0.409833224,-0.0050407093,-0.675013415,-1.3212302459,1.3173171925,-0.4576843276,-0.9431237511,0.8792353995,0.4535383033,-0.1065346861,-0.4136863797,-0.3332338992,0.3445434655,2.6460472522,0.1084465999,-1.1655386052,-0.3826911482,0.0550487037,0.1456804511,-1.3287512989,0.2862931806,-0.8712005489,0.988831449,0.9114939212,-0.3676759456,0.7095421085,-0.6880291339,-1.1074970849,0.3439093199,0.3257007413,0.9842541959,-0.2129253592,1.0225933003,0.4824596329,0.7423727943,-0.0037321587,0.1319513032,0.265640336,0.0835944287,0.21093726,1.6614599758,-0.2866652947,-0.1725023578,0.2736947001,0.7001170437,0.8854664457,1.0353032396,0.9357877462,-0.7021951038,-0.4631370389,-0.8128720962,1.9627504109,0.1658104331,-1.0583704959,-0.7592522295,-0.9752713692,-0.6444859677,0.0174456397,-0.65116899,0.8571311361,-0.4590051698,0.3050541943,-0.2258341733,0.5762200827,-1.4405201627,-0.184303574,-0.6001580179,0.8581030614,-2.0282942247,-1.3783607493,-0.4746066471,0.7722377998,-0.1011245897,-0.9370577214,-0.9285284693,-1.7778270126,-0.0425841125,0.0022888699,0.4874415447,0.6022561463,-0.3386777877,0.8020487761,0.6008197377,-0.7726232227,0.8512046885,0.0797073738,0.8173808375,1.6865610575,-0.0830228859,-1.4172034487,0.2114021399,-0.8114655528,-0.2951082772,0.7138374361,-0.917007186,1.1604729266,0.6911017067,-0.7855060148,-0.4306885056,-0.8693040451,-0.512623722,1.179552378,1.7010739599,0.8301639463,1.9664639263,0.2149372566,0.6547575472,-0.9207195253,-0.498639855,-1.0245795268,-0.1323981821,-0.8227412478,1.189726057,1.0878260672,0.4763049137,0.8523901345,0.5484010685,0.2441509829,0.4870334383,0.1478944916,1.4527716957,0.8210677216,0.2704623216,-1.1464642309,1.5597281655,0.3764027146,-0.2630506911,-0.098518557,0.2199685179,-0.9032943301,-0.4962032226,-0.675864392,0.5178038305,-0.7255782762,-0.3238192047,-1.7803498605,1.5671950087,1.1547795464,-0.2622257697,-0.4849309286,0.8239165431,0.2381750393,0.7459063624,1.031645979,0.5087261769,-0.6520602341,-0.202049065,-0.3490036646,1.206879126,-0.0321103386,0.4276896383,-0.6116633209,0.0785888393,-0.4728469458,0.279737538,0.8255140059,-0.2092084741,0.2501614674,0.1077449017,-1.2566514849,0.5268529433,-1.1158976582,-0.8434906741,-0.3470227773,0.8050464054,-0.7935380597,-0.6388753186,0.5971314522,-0.7021204201,0.5379979484,-0.6133410663,-0.4461606458,0.3627288579,-0.1336187846,0.1872209509,0.7143610775,0.2953391488,-0.7512960765,0.6297378275,1.0785386843,1.10235522,-0.7814614096,-0.3148142817,0.2303730306,1.6924210135,0.8556765304,-0.2725213829,0.561313521,0.9316268267,0.7437393616,0.0657482622,-0.3690311747,-0.7159330066,-0.3557365604,0.9365755142,0.76329551,0.7662893145,0.5175358402,-0.845010177,0.7511977132,0.8174896836,0.7919257628,1.2158199603,-0.8281822423,0.6780623323,-0.1917237524,1.3021874694,-0.3934796404,0.148790624,0.870132828,0.7254475484,0.0381347369,0.8221881831,-0.8532364126,0.5616839489,0.0822866995,0.422437583,1.0657816867,-0.3021568899,-0.181278929,-0.3532627969,0.5255185,-0.5852513102,0.2157658127,0.3118574956,-0.5110982928,0.1406300558,0.2464938402,0.2851219526,-0.2080489714,0.6312108811,1.3837128032,0.8536669032,-0.2223223527,-1.0706208817,1.5396742197,-0.058725272,1.0463295979,0.5867061487,0.0414696474,0.5860741894,1.2105427004,1.1971317749,0.1599583639,-1.3490689383,-0.0733018115,0.9488683737,-0.2886879112,0.9320476422,-0.0167960961,1.1030182142,-1.0031060033,1.178015102,0.3978256103,-0.0160174225,0.3206891162,1.2760143834,0.7620533682,1.3269604202,-0.1917028944,1.0998381131,0.7124112289,0.7391918977,-0.0190166609,0.8309135358,-0.7458745496,1.1905761197,0.2215122669,-0.4180867495,0.6754880605,0.2964986218,0.0267199928,-0.232694838,-0.6326780271,1.4384152046,0.9956253463,-0.3593423676,-0.0402917105,0.527659222,-0.1466849145,0.6104614466,-0.0994778298,1.0026333612,-0.0613082916,0.6919609166,-0.4219479176,0.5458963737,0.0748624141,1.5206439666,0.6057815235,0.7500310138,0.7515578649,-0.6271537741,-0.7481680071,-0.2838559708,-0.158160802,0.0761382536,0.256707374,0.2781097578,-0.8864200108,0.0008619495,-0.7150871564,0.1515786368,0.8373178861,0.1259809442,0.2008034254,-1.0681294866,0.4072360827,-0.7911321331,0.2816783403,0.6747520537,-0.2529518013,-0.0299901812,0.8672960311,0.4360557645,-0.5873952292,-0.3667053721,0.7848256945,0.3271263001,0.8778760121,-0.4553589905,-1.7965943959,-0.444847482,0.3066580068,-0.8111307468,-0.6671532879,0.8234290453,-0.3894775498,-0.364354534,-0.4540665556,-0.9568994272,-0.0572197151,-1.0337427645,-0.1283177377,-0.7019586826,-0.674057355,-1.0640714662,0.4842052756,-0.1691266127,-0.3125735801,-0.8113435874,0.6065584496,0.5862509715,-1.2277301179,-0.0319161144,0.0846470986,-1.0906826168,-0.518264041,-2.0559669132,0.2273420519,0.6056801884,0.269083498,0.2886795441,0.7650830142,0.7962062071,-0.1157985057,0.3765890645,-0.0053433665,0.5050686623,-0.6814152729,-0.0116933174,-0.6169694986,-1.3890009593,0.0734295409,0.1481345658,0.3628561799,0.5637676673,0.4527823087,0.9735208646,-1.2667661456,-0.8405430286,0.7888365799,0.1904833633,-0.9482305585,0.2020359546,0.1692323627,0.5202876707,-0.6167013078,-0.255717593,0.0485499168,-0.8556872621,0.72300354,-2.3186920406,0.7965112005,-0.3656779686,0.4405782983,-1.1485994022,-0.8791697354,0.2364163296,-0.8035515491,0.1422166089,0.9201418242,-0.7529072549,0.190379282,0.4346794338,0.3847113284,-1.0782146087,-0.6000157926,-0.6015391026,-0.9166623048,-0.4907781972,-0.2814782423,0.0820423666,1.7152524101,-0.5809239346,-1.0775098774,-0.8589197492,0.015025564,-0.5605743324,0.381068666,-0.4113008592,-0.1973488865,-0.3065004204,0.9091196728,-0.5050854077,0.973902251,0.0318376451,-0.6803525022,0.3746878287,-0.2431229059,-0.5749800086,0.0446796929,0.5177036662,-0.156340996,-0.7719860124,0.64091042,0.278749955,1.1904130782,0.5745972375,-0.6275850752,0.0159932329,-0.4747821493,-0.4388808116,-0.04207029,-0.2430706439,-0.331946442,0.1180568801,0.6328974652,0.7961386975,0.6790311317,0.5392377502,-0.5019169332,-0.673862623,0.5860345254,-0.6116409674,-0.3853405843,0.9838848971,0.2092770243,-0.6225343511,0.8148117095,-1.014110537,0.5357438979,1.1296360461,-0.6658769158,-0.3911516587,-0.0941917519,-0.7829213904,-0.7912619958,-0.9575914824,0.1613665767,-0.8285542633,-0.8422429339,-0.0251796448,0.6933092557,-0.3105251775,-0.9600145211,-0.3092608872,-0.031854263,0.0403268921,0.2782990295,-0.8510586788,-0.7114947769,0.0481438521,-0.0856900429,0.6198520698,0.4431047647,0.2315726161,0.8629724835,0.0364427164,0.2926514376,0.603868679,-0.9174650853,1.2354207864,-0.0761604883,0.9881750641,0.4883163758,-0.583454639,-0.7823505222,1.3385156638,0.9738494224,0.3651612851,0.5645758643,0.0893737836,0.8970717501,-0.750127792,0.1089885245,-0.2970997065,0.151872455,-0.5583755583,0.5605971657,0.1593150315,-0.4859485613,0.5992814564,0.2429476122,-0.0781148019,-0.5423336607,0.6976366607,-0.6804678369,-0.6613376247,0.1822377005,0.9300357197,1.1731904234,0.2066528428,0.2730523578,-0.6460731428,0.7648529358,-0.0726345906,1.4489888261,-0.2396455817,-0.6492764486,0.3745068004,-0.2152032376,0.5691391436,0.8023401114,-1.1202211758,-0.4704508026,1.0844478446,0.3472124223,0.8426899126,0.3738823919,0.029701894,-0.0988928813,-0.815023613,1.0238688689,0.3571398303,-0.4211315236,-0.4434992262,-0.8925121092,0.8918681096,0.2666249821,-0.1154658847,-1.1124580968,-0.0335612686,-0.6187877624,0.5835707991,0.0352118975,0.2483979525,-0.703148791,-1.1783555072,0.7225791923,-0.4478985403,-0.7751597564,0.2517084242,0.1739746888,1.0807472572,0.5374706559,0.6863383216,-0.0498350516,0.5342249035,-0.7802789315,-0.7312825122,0.6910213707,-0.0432403242,-1.2607241567,0.0872344503,0.4262568054,1.0346462903,0.0470727244,0.3111686163,-0.1989664377,-1.3146338724,1.0060008004,-0.2829225946,2.0786097948,0.5742820715,0.039514124,-0.2140811056,0.2184664955,-1.0404771011,0.4448043685,0.4676044055,-0.5912272957,-0.8465474515,-0.4896924508,0.6649246494,0.0635858819,0.243969635,-1.6928149419,0.6029826663,-1.7802286143,0.5808521136,0.2108342371,-0.282872377,0.7800351904,-0.3001014269,-0.4756920011,-0.7637555465,-0.8429416597,0.6103219022,0.5157808804,0.257200454,-1.2712545498,0.4429901487,-0.3709659932,0.3949273527,0.3623292339,1.428629905,0.0902363069,0.1488317811,-0.6008553773,-0.477810894,-0.6522744899,0.5015213356,-0.347194092,0.3236297488,-1.0830536336,-1.4343467076,-0.3953842336,0.6185026101,0.0783200311,-0.2784092715,-0.8791010921,0.5790027504,1.2714564465,-2.2062565656,-0.137193226,0.073947925,0.9010434759,-2.1652674711,0.5029079644,0.0681949281,-0.2070785202,0.9517062226,-0.4550120908,0.3944497193,-1.3778883787,-0.3565910067,-0.7292448061,-0.8310024118,-0.7294782242,0.4080289267,-0.6779675708,0.1293980482,-0.1585447247,0.8437017705,-1.1525758147,0.957851932,0.0791703327,0.8468402779,0.3458357292,-0.8556929063,-0.0289744827,0.2882870805,0.5236973968,-1.1238413865,-0.3099304664,0.4966903448,-0.7582314446,-0.6785972925,0.683337215,0.3711436182,0.9695069547,-1.122798602,-0.1961259734,-1.4562191255,-0.5014391243,-0.2212636002,-0.5293270856,-0.2632879985,-0.8034216337,0.0135562783,0.3879168876,-0.9579922971,0.6027858405,-0.0574813081,-0.3764911261,-0.5645063996,-0.1833407708,-0.497817164,-0.2992812122,0.0023320021,-0.3685146631,0.1750354399,0.0442749994,0.1460849438,0.5564395184,-0.3445038459,-0.1450357861,-0.2396555597,-1.4476453887,0.7780635822,-0.2219415995,-0.6684599219,1.0101729019,-0.9600478675,-0.8704098055,0.0687225643,0.4808399477,0.2442443493,0.076310031,-0.3435445564,0.2256787565,0.8805910657,-0.0993109192,-0.5500685815,0.4205008224,-0.0718445398,0.4852767489,0.4174958492,-0.5124876487,0.1554744194,0.4252498987,0.1170891337,0.3338729916,1.1309193283,0.8484718994,-0.4691236987,-0.6950873096,0.1093831914,0.0391392934,0.3902872774,-0.4935608405,-0.0972128367,-0.8474665781,0.6031968928,-0.1020003241,0.5472622825,0.4396512889,0.3694086657,0.1113138617,0.5534871063,-0.6018234423,1.1162919701,-0.1533697882,0.130254005,0.8849513548,-0.157652258,0.0868420047,-0.0321599492,0.5016615261,-0.4431439988,0.1427311665,0.9299586865,0.3452550287,1.3419935743,-0.5015154755,0.5801766942,-0.2573621825,-0.3152246547,-0.0965059735,-0.5879038018,-0.1195543947,-1.4617950364,0.6303317056,0.2542817075,0.1178336712,-0.6930054309,0.4405977994,0.3846329984,0.1193494795,-0.2946471711,0.5576777891,0.1466983057,0.4746791205,0.1131426687,-0.5572351116,-0.6531411834,0.9863109667,1.0660833931,-1.1655448878,-0.5772129863,0.0011622228,-0.8973774593,-0.4784904479,-0.0660413512,-1.1111750642,0.2694600421,0.0917430893,-0.3203349838,0.8872298754,0.4025157709,-0.2499121109,0.2021040765,0.2302141375,0.2390059237,-0.7037908872,-0.8191623247,0.0152841167,0.3572036986,1.1554001498,-0.4150164647,1.1379639206,-0.0217067813,-0.330342795,-2.0302509457,0.2788464642,-0.830893377,-0.4585392369,0.7823108814,-1.2312604479,-0.1136977537,1.060565494,-0.8997180151,-0.9766756198,-0.5657877872,-0.9920285451,0.9316949206,-0.6636324442,1.8224315875,-1.1210869313,0.0090112884,0.6320159271,-0.1522756642,0.0541097398,-0.5501193027,-0.0076137319,0.5750831335,0.1549762738,0.1445423585,-0.4789789399,1.5822010457,1.0075274629,0.798885554,0.0547143945,-1.208352456,0.2477485508,1.0041076877,-0.3696087547,0.6581516233,0.3854543024,-0.3070037904,-0.301964045,0.2905730987,0.0743352662,0.0457724324,0.3270643114,0.7670025534,0.2088730551,-0.3109509982,-0.6034794977,-0.5230086509,-0.0716640461,-0.2709960582,-0.5817920043,0.2911103895,-0.3831746634,0.6480223775,0.7877405879,0.0236873706,-0.1423431176,-0.6676341974,0.4510747489,0.5147382362,1.6400300281,0.6776039584,0.4138071703,-1.0642628659,0.0999735049,1.1602889892,0.9185897494,0.8185315365,0.1568968399,0.1490393155,-0.5728939257,-0.0162123078,-0.5153596028,-0.2965601429,-0.0480159057,-0.7520458339,0.5399410901,0.4977626828,0.4449286191,-1.1392751537,-0.2697231086,-0.3177339737,0.0194690873,-0.8360508128,-0.1076718104,-0.4551835199,1.3744799802,-0.8747748666,-0.3924797702,0.4201150843,-0.8424313346,1.6560832517,0.3165820842,-0.7450888694,0.8330068416,0.2597174676,0.092311704,1.0480377473,0.3771861396,-0.6752940474,0.8678234527,0.3318795062,-0.241139074,-0.8375527332,-0.7703400082,-1.2181768624,0.7359385436,0.1075843017,-0.5104943201,0.18002112,-0.3774168531,-0.2392310832,-0.3045489745,0.9193875057,-0.3205868641,0.107732179,-0.4208874992,0.7202088392,0.3492741268,0.7974961372,0.6124533907,-0.3949733243,-1.0314890143,-0.5848930341,-0.1425400955,-0.2259301839,-0.4497047197,-1.4147844262,0.0536345851,-0.3057238171,-0.7953375028,-0.9873681897,-0.635435689,0.7919448869,-0.8067001059,0.6198682606,-0.6666678404,0.3150268798,-0.0740857149,0.5150510307,-0.7346680119,0.1614919099,-0.6079565855,0.0438082119,0.5808665388,-0.9996466216,-0.3184477839,-0.3785506248,1.6867711195,-0.7002137197,-0.2057196234,-0.7843721558,-0.1683567106,0.164439889,-0.2885782558,-0.4540292307
   0.6874947751,0.8217575375,-0.5395693748,-0.3016716812,1.2061464497,-1.6613768841,0.8704462916,-0.0564053071,-0.5360384006,0.4337187591,0.3042655922,-0.4100899378,0.1222686497,0.6624530731,-2.1939217811,1.0231024604,2.1675283758,-0.9534040514,-0.0073586539,-0.4471605488,-1.3832896657,0.6965514694,-0.1039837928,0.4438493989,-0.512175014,-0.2264601736,-1.6193534022,0.2579009518,0.3542013075,-0.6404078606,0.3413049068,0.5788289469,0.3980302339,-0.7367788581,-0.0285876016,0.8944102773,-0.4494697736,-0.3356102573,-0.0035373238,0.1440368402,-0.9637404595,0.6423758998,-0.3643797734,-0.4581786057,-0.0999435574,0.9392844529,-0.1955123395,0.3894310937,0.0628104533,-0.6152587146,-0.3116123024,-0.0938493322,-2.0314045122,-0.1711385454,-0.6516864091,0.9213923419,0.697055681,-0.0487470111,-0.9117016348,0.5031914853,0.8101892833,0.9127518144,-0.9598509982,0.4542344245,-0.1152157524,-0.1355355703,-0.3833879861,0.5938949843,-0.730404489,-0.3640311298,-0.4618722498,-0.3009207603,0.7069876051,-0.4313537714,0.3026254805,1.2217141724,0.7692137396,0.3054119965,0.2033423824,0.0635028254,0.6478960828,-0.4179846353,-0.8571137258,-0.5329511263,-0.9194451731,-0.086900991,0.8108337523,-0.7668775824,0.2976774978,-0.3884574093,-0.668340637,-0.4117219696,-0.1788571659,-0.4526522375,0.2522476629,-1.284121689,-0.7936607039,-0.5460253037,0.7883007589,1.1342016565,-1.6680497659,-1.1689869114,0.8931995422,1.357580411,-0.5479421628,-0.4029685776,0.19665956,-0.8526862143,-1.1373551918,-0.55770489,0.0337168766,0.8056262532,0.3165290014,-0.6177987335,-0.3949964728,1.3731384703,-0.6614784809,0.5097455096,0.8921664018,0.2202383904,1.3059568696,-0.0695140945,0.3113579889,1.001100156,-0.449824474,-0.1443112399,-0.7874870226,0.3002807248,-1.1000043275,-0.4676888355,0.4279388787,-0.8635915224,0.8645306381,1.0234434296,-0.4045431042,-0.5165309313,-1.3993123893,0.0896247489,0.0671245237,1.4270405854,0.5015944726,1.1350597008,0.4527645744,0.3060042407,-0.1860453623,-1.2172277557,-0.8581128793,0.0651444167,-0.6166848503,0.3160174013,0.5104743512,-0.670144491,0.7351901841,1.4528117056,0.9928249967,-0.9469791933,0.078115998,-0.499902105,-0.9843580455,1.0387036097,0.2324651835,-0.5478471456,-1.110148196,0.6721244633,0.186095185,-0.013390095,0.5196484958,0.1368147311,0.2849043926,0.0993119138,0.4603705138,-0.383461508,-0.4091832956,0.5411056687,0.4063027387,-0.5979432766,0.7163710029,-0.6287538659,0.0188229951,-0.675788791,0.1210466697,1.1032569656,-1.0507308349,-0.6052129598,3.6252735308,-0.9658098826,0.6893320746,-2.5866059554,-0.899571196,-0.74080329,-1.3558434218,0.6317923617,-0.4987363505,0.7808372272,0.8006589979,0.0877508128,0.148467242,1.2256839824,0.8783415687,-2.5559983159,-0.7172206773,-0.8256577117,-0.2479115751,-1.0955949802,0.9493854904,-1.186247421,0.7273647469,0.8082871646,0.2593911555,-0.7769467261,-0.3048078462,-1.0285720667,-0.8478564942,-0.6127620839,-0.7847467839,-1.6500454046,-1.0230199448,-0.9218454107,-0.333355582,-0.8223296085,0.9229674494,-1.1185791996,0.1483066532,-1.029396362,-1.1296689994,-0.6128337499,0.6406316903,-0.2556128624,-0.6461331887,-0.48060176,-0.0513259941,0.3227834957,-0.704412679,-0.9264063011,-1.4572864293,-0.9752908223,-0.2095340953,-0.358333461,0.4605264728,0.7832066045,0.8189388215,0.0326387487,-0.6361962915,0.3320612448,0.0510233743,-1.1368755935,0.0114339834,-1.7073037446,0.2526360154,-0.8191742268,0.7014432811,-2.0660863031,-0.0654049088,-0.4228161079,-0.1916118003,-0.4616985593,0.9463621934,-0.8870453747,-0.0890934381,-1.9499794481,-1.5877007121,0.8184450691,0.4511250482,-0.3187192012,-0.8024263133,-0.7253014794,-0.4132468837,0.1510633541,0.4187817346,-0.2205208413,-1.5581274644,0.8560798558,0.4727361359,-1.090072168,0.5478776318,0.063065738,0.3161597046,-0.6927740235,-0.7762732137,-0.4852949904,-0.9725855003,0.9831679016,-0.8289475409,0.0950030534,-0.0030784421,0.4870751992,-0.6164774249,0.2698250103,-0.8005901356,-0.0150205791,0.3203213578,-1.2187673835,0.3412933984,0.775853722,-1.6556647206,-0.0908158523,-1.2538622387,0.7532417322,0.1306609857,0.7776193413,0.2699691167,0.7644343669,0.0529568832,0.1205866335,0.7855111687,-0.7795195596,0.5735575598,0.1027346902,-0.4372096717,0.42504269,0.9877400292,0.6562845551,0.796745449,-0.547532503,0.153076244,0.626884957,0.3315078854,-0.7100637218,-1.4150200004,-0.9010481381,0.3173731616,0.6535453887,0.706087236,-0.6493340904,0.4751760875,-1.6473481705,-0.4923593394,0.9677820144,-0.6078113815,-0.863500292,0.0961604232,-1.5572680248,0.6071634263,-0.230922102,0.8231309339,-2.3923368779,-0.4432668908,0.2610121502,0.4731896732,-0.3760715402,0.6543808929,-0.6111448476,1.4644068987,0.0777701563,-0.248831997,-0.1922505362,-0.033940471,0.4326640821,0.4677762889,1.0165638761,-0.2515069567,1.0813068123,1.1548219963,0.1847960925,0.0587552321,-0.3961748902,-0.198084877,-0.0976481185,1.6467618835,0.3279636543,0.0884964858,0.0707753119,-0.2087161869,0.589714842,-1.2355704799,0.1320030781,0.4546007323,0.1945440982,0.91014379,0.1223770338,0.7432395549,-0.6284228648,-0.1678610046,-1.6325034741,0.5081027486,-0.6581882149,0.1360654552,-1.033898497,-0.2921067151,-2.5811761328,-0.7405955261,-1.9964248845,0.3942841785,0.2663269307,-0.530307745,1.4180732617,0.1057421662,-0.3178992658,-0.2854145934,0.5697576075,-0.9783386104,1.1360602908,1.3311656336,0.6622082954,0.3127760375,-0.0463497068,-0.2973284621,-0.5418798445,-0.0874866064,0.4619846931,-0.8195323366,0.8602249853,-0.4643445611,0.5821667644,-0.187897379,-0.2182770446,0.4151853327,-1.0554338917,0.5921640659,-0.9252849408,0.5101338404,0.101327222,-1.5709817435,2.0720147481,1.1521614232,1.1460780847,0.0217559087,-0.0456907148,1.2701712115,-1.568752974,0.8783542169,0.7069274148,-0.9432894464,-0.2470906386,0.9420873077,0.8904269891,0.1834207006,-0.8601735586,0.7187368703,-1.7509641871,1.7219395711,-0.0398261477,-0.9629735872,0.1122110968,-0.9066325081,1.544569862,-0.8972147726,0.0425715734,0.5592333427,-1.1823001069,1.3967507233,0.5637567299,0.3426682378,-0.3870156477,-0.631225441,-0.5007540937,-0.5041806999,0.3282873987,-0.1998154852,0.9858054037,0.2786737895,0.1070651832,1.0677722511,-0.4269933298,1.127107457,-0.4856845255,0.3819388798,0.3053040099,0.9241670538,1.9055538693,0.6897836924,1.4595646221,-0.5435812709,0.5591008448,2.3314609318,1.0729600555,-0.9000170909,-0.6638705195,0.1767716628,-0.957897083,-1.2389385003,0.5935814901,-0.5560493581,-0.832167914,-0.9092482171,-0.805237379,0.1469992209,1.7197063399,-1.4397983944,0.029150248,0.1026732882,0.7013482296,-0.9212717496,-1.004949645,0.2414732125,0.4237638655,0.0950588405,-0.0964795201,0.4553199119,0.137064928,0.4718643708,0.057666796,-1.2103551567,-0.1872233716,0.3280505586,-0.3120925371,-0.2149939312,-0.7001045699,-0.2714841764,0.1054402264,0.3194021509,-0.6052864514,1.3562007609,-0.7153321969,-0.4100747283,-0.1037123855,0.3694191304,0.6824781508,-0.2435218047,-1.7594600991,0.2212577129,-0.0625621252,0.1128714216,0.9102127633,0.6042318114,-0.9356767017,-0.1143955915,0.2067040814,-0.6730499305,-1.6872138724,-0.1133844597,-0.4949517735,-0.1612934454,0.4788000077,0.2762776494,-0.1369657804,-1.5548197065,-0.0644320567,-0.1472472297,-0.1143369099,0.1309703465,-1.6666430088,-0.6380534071,-1.075070794,0.8574812468,-0.858134086,-0.8881126849,0.1002495407,0.9080671837,-0.7907354336,-1.329925182,0.6298377183,0.1307923209,0.2224122903,-0.410940687,0.1350656691,0.0212940622,-0.3237250907,0.8559620333,0.8216270949,-0.7028356166,-0.3672107991,0.5366649707,-2.5254160005,-0.4906340805,-1.5078801087,-0.8592563547,0.0567648245,0.0651966661,-0.6563429376,-0.1371114754,0.4046699115,-1.5048739254,0.9227432866,0.6518609886,-0.4109136571,-1.0425757221,-0.7400434735,0.0715161119,-0.6208990045,-0.7802761805,-0.8124842427,-0.0027322723,0.6604452885,-3.4923590936,0.0540168186,0.3688733594,-1.2320071631,-0.4543293753,0.7119524326,-1.4184055916,-0.1996784854,0.0354090072,0.4997655683,-0.0679798251,0.0078039485,-2.0658630644,0.9564004393,0.1001305153,-0.6028796872,0.1914520682,-0.4070371809,-1.5038829132,-0.2299381287,0.6915933635,-0.2557825153,0.3262127442,-0.5517182669,0.0520910627,0.5105474916,-1.4555325453,-0.4795763731,-0.0143412584,-0.406025902,-0.0298828135,-0.9789973984,0.4837219897,0.9170374254,-1.003182001,0.3364718714,-0.4372274822,-0.232527676,-1.8596183286,-0.7587473165,-0.6555741402,-0.5900558589,-0.8899089283,-0.2449839227,1.0713895106,0.6923861629,-0.4149048492,-0.1551199994,0.3318419473,0.8279996592,1.0513402227,0.4038076556,0.668769472,0.1197815125,0.2373756467,0.4948771238,-0.1505924055,1.3063880058,-0.9772124376,-1.9720756467,0.6901416899,-0.0419497879,0.7234936993,-0.8467005754,-0.258530468,0.4794209377,-0.1953671966,-1.017073351,-0.0010675808,-1.1014469635,0.0345159388,1.7591222923,0.1734366632,-0.3707263777,0.593931387,-0.751802325,-0.5492151866,-1.7984179323,0.8729192128,-0.5058290738,-0.8555175089,-0.5672640691,-0.7274951253,-0.1330850307,-1.4383842343,-0.4605125284,-0.5914915616,-1.6121539294,0.4065241705,1.0120777613,-0.6490651619,0.4514355164,-1.0287643077,-1.064317528,-0.2365229245,0.2563842522,0.4567733034,0.194495164,-0.7800343481,-0.3050594223,0.7014801914,1.5896987072,0.7892602295,-0.7307860054,0.7888415304,-0.0763510253,0.0959647631,0.6596699584,-0.6330704973,1.4221358128,0.9119791419,-0.0615547381,-0.3328476571,-0.4863999366,-1.002901006,0.7663091259,-0.7602153716,-0.3293022012,0.1761696135,1.06929814,0.1371735011,-0.1041047692,-0.9404691673,0.4631489226,-0.9044784505,-0.0754584798,0.0520437293,1.4452396165,-0.4666649276,1.652272316,1.4682738894,-0.0336202831,-0.460958305,-0.2633419403,-0.4460927978,0.2020303218,0.1598942973,0.4307934359,-1.046404453,1.3679528893,0.3832438189,0.272911968,0.0259519305,0.0222653959,0.8335598361,0.6456243083,0.8038243621,1.1180132885,0.1020339326,0.9792433022,0.5938004534,0.8394608649,0.0156726248,0.1098054817,-1.0355950907,-0.9240433693,-0.1372342068,0.0930751504,-0.6467973653,0.7004908882,0.4516917452,-0.2389399787,0.6619102018,0.4231196778,-0.9068590657,-0.684610148,0.0979636537,-0.7424260213,-0.1220732965,-1.3580349307,-3.2012817755,0.5481823727,-0.3823410385,2.0509472134,0.1775615584,1.0750395466,1.0201030725,-0.5844362875,-0.3971994982,-0.6709789541,-0.2031789443,0.3371015714,-0.5687216917,-1.184239437,-0.3404730107,0.8603214048,1.0804049205,-0.5466514284,-0.1033236602,-0.0509404889,-0.6275313703,-0.1618530669,-0.8861146822,0.0696030513,1.0820444941,0.3202023737,0.0995963353,0.0239263535,0.360719055,0.5470357755,-0.7675935512,0.635114416,-0.6590707306,1.0089036503,-1.2682156901,0.3333388989,0.6004161928,0.1067606889,-0.2444327804,0.1309592582,2.3482386089,0.201146596,0.6740749797,0.4399188041,-0.60626033,0.0058285486,-0.9362499554,-0.8805885987,0.3717556349,0.1812076492,1.501926613,0.9010040376,-1.3034893234,-0.4602380291,-0.6603423777,1.633424324,0.3479711527,0.3385791868,-0.8415512516,-0.9444010985,-0.4625515391,-0.6320800761,0.4973371589,0.7357428275,-0.10907688,0.7767928965,-0.1162175409,2.065213893,0.1727101923,1.0495100616,-0.3967328381,-0.3621531082,0.2875261608,-0.1797082223,-0.8045273084,0.5874103721,1.3645858433,-0.858252121,-0.1220394558,-0.1375166213,0.7630393298,0.7578647327,-0.2333214637,0.3088394193,0.4390858201,0.2077682334,0.4427866642,0.8827342668,0.7976939427,1.5900022835,0.0586991646,0.619990326,0.3817782545,1.1474636141,0.4610146801,-0.6233519817,-0.2978746984,0.1279055023,0.4212996227,-0.638938379,1.5719346104,0.0689442605,0.5198898774,-0.1974448946,0.2882414284,-0.9169779903,0.3394033868,-0.0213473981,-1.5736934086,0.0120440805,0.4088896629,-0.5681558634,0.0987563458,-0.5721238189,-0.7708962913,0.5599321726,-0.782786086,-0.6205098723,-0.0411944604,0.0846187543,-0.9143325099,0.4320891629,-1.1786900773,0.0738477297,0.6738320899,-1.2348213023,-0.5494529303,-0.4428779128,-0.2177940499,0.4761661192,-0.3593245196,-0.2221653706,-1.1211669827,-0.7508160617,-0.0651344154,0.3082677678,0.5178453288,-0.6200301228,0.6594650708,-0.2869598579,-0.8222121469,1.0599822785,-0.2785572192,0.4435179329,0.3606042186,-0.9740799556,-0.9129570663,0.3320061907,1.2170818226,0.2816584259,-0.2093352228,0.9224266943,-0.6532533649,0.3543496734,-0.1718879638,0.9928353505,-0.8132927265,-0.5286263914,-0.9577443921,0.2903464184,-1.1259203098,-0.2696766999,0.9979041656,0.1474188427,-1.0455019775,0.6231153389,0.2104163887,-0.8891004471,1.213449079,0.8416859431,-0.2419643418,-0.4995702453,0.0829876417,-0.6198346791,0.4098400307,1.0852501543,0.4692122914,-0.3192150978,0.5556098303,0.9832018423,0.5077817529,0.2859015461,0.9499580737,0.2591124123,0.5129853246,-0.8039696749,-0.1497676579,0.6926854499,-1.1961049674,-0.0762832169,-0.3228636605,-0.1348366144,-0.3256612333,0.8220828099,-0.1760264858,-1.128331053,0.1565883793,0.4976044965,-0.5972440535,-0.86595964,-1.4570393712,-0.3012369035,-0.1757901132,0.9543339194,0.3092940955,-0.712758317,-0.7163030476,0.7885845145,-0.7060030702,-0.5705441898,-0.2991336264,-0.5478777831,-0.181723487,-1.0068721541,0.2478533157,-0.4840346278,-0.7502881803,-0.5146595941,0.2762833056,0.7647040947,-0.4314123641,0.2557132281,-0.2264855398,0.2708381528,1.176384142,-0.4992247837,-0.5104205452,0.4319227676,1.0516873431,-1.4083446224,-1.11995898,-1.0740209225,1.09703633,0.3111997508,-0.7681447494,1.0986749088,-0.5224333879,0.7470934104,0.7434286205,-0.7773253246,-0.5892287269,-0.3124937688,1.1058430265,0.5610512056,-0.4454810636,1.5627782634,-0.3962194066,0.1891955691,0.2507884748,0.8821244384,0.5881587667,-0.8000075627,0.346361709,-0.1326082796,-0.4863696683,0.9037498686,0.6526687613,0.2545186419,1.6583732138,-1.3555461391,-0.2873178323,0.121841318,0.2374696725,0.4909569181,-0.1013870537,1.3556836514,-0.8750021425,1.3594835109,-0.6787213339,-0.691310624,-0.6659897289,-0.5025210818,-0.2911683756,0.6263505741,-0.0365599327,0.3949464784,-0.387022086,-0.0320137757,-0.4357830435,-0.926407843,-2.5660354795,-0.112530525,-0.2694867947,1.6678983132,0.1681993976,-0.5634363418,0.065223448,-0.8625241933,0.5526948246,-0.5883306979,1.097109363,-0.012489882,0.4787014093,0.3493552645,-0.4846909752,0.2026404272,0.0531427872,-0.6988663733,-0.1824364022,1.0612223838,0.164282657,-0.8036862617,0.824513932,-0.5547213365,0.6259711097,-0.3125509841,0.3439829918,1.3598172256,0.9992320674,0.1369207493,-0.6531978864,-0.1587065945,-0.3756863816,1.4057356715,1.0825906524,-0.816056139,0.8167763478,0.9639557746,-0.8372047946,0.7139037992,-0.1126210894,-0.2465639977,-0.5317249134,0.4624232963,0.8566912741,0.7463170628,0.7448575834,-1.0157201028,-0.1941105901,-0.0794411215,0.2136602328,1.0393115648,-0.0070354166,0.2008413873,0.3878579038,-0.0620997112,-0.9437441187,-0.5561696452,0.3298252995,-0.2911506618,1.3081371967,0.6296612096,0.7243862653,1.1687249105,0.4779484534,-0.8877855992,-0.0550170427,0.3234992134,-0.019428213,0.0107271945,-0.1874163414,0.7683656684,0.0253178397,0.2245493835,-0.3797522956,-0.0188121878,0.0606647908,0.0558376954,-0.329158659,0.5968502063,0.5406350354,0.3507014002,0.825315031,0.0947459155,0.1958231259,-0.2992703888,1.6086222385,0.8456310268,0.3891603136,0.4435249049,0.1363021145,0.6688453933,0.665349103,0.2265265368,0.986359504,-0.0838003558,-0.5876099804,0.4336389416,1.1043625575,0.3034265632,0.6308076074,-0.8639792105,0.3226711184,-0.2628746245,1.0246138996,0.1838690753,-0.3179436377,-0.261773977,-0.2400828335,0.9631401595,1.989683741,-1.7633370216,-0.3456288416,0.6205567836,0.7744390293,-0.5439459583,0.5206245051,0.6378268174,-0.8400407914,-0.4730104133,0.4742773643,0.8017278945,1.9667710632,-1.2255585937,1.7978668653,0.7463479398,-0.1414728024,0.5926389112,0.536038079,0.506313624,0.0039396901,0.6112768178,0.8407224465,-0.2963187627,1.8895343404,0.1579773351,-0.1866324299,-0.30666716,1.1297410479,1.4434605641,-0.1688566899,0.9577823462,0.9230513908,-1.0072493595,0.3796343755,-0.5250137435,0.4204700642,-0.0124128584,0.2806949368,0.2701741343,-0.0807431233,0.4967185644,0.5418893173,-0.7258604335,0.3884872111,-0.1305818604,0.9386019703,-0.5377328572,-0.4767824386,0.1030019154,0.6711373233,-0.6102921475,0.5918375737,0.0863607819,-0.566582157,-1.4974480411,0.2400354924,-1.4304538826,-0.9277229903,0.6152878934,-0.2185407114,0.203223867,0.7100226703,-0.1554141407,-0.5080655306,-0.7932026735,0.1725354718,-0.6637292341,-0.1205084901,-0.425330345,0.0818128801,-0.727072573,1.3422013705,1.3557426924,-0.2260603434,0.9312644268,0.5225476056,0.3249581814,1.1394106153,0.76778281,1.2158649461,0.3914086373,-0.5275769643,-0.5034141293,0.4014462338,1.9764056988,0.8395807423,1.9353398246,0.6066409679,-1.1717323036,0.1345628529,0.1922378861,0.4991717101,0.0464491365,0.676550375,0.3948208989,0.4936056387,-1.0846307623,-1.0362971918,-0.0065785314,0.8527400126,-1.0404495305,0.1393504946,0.3520574366,0.3523946185,-0.1731943858,-0.1261631501,-0.5756240321,0.8505666479,-0.6701500193,0.7816097031,0.0109683502,-1.0876920437,0.7630085523,-0.7400210276,1.9573028918,0.5702846218,0.6748393222,-0.3033979947,-1.6944025082,0.6019969716,-0.4845926861,-0.8262433944,0.6452032738,-0.0754523875,-0.1044670258,-0.3077431069,0.2437779156,-0.3455014005,-0.2530650134,-0.3769008246,-1.1491509356,0.5372048218,-0.0518024778,1.2959713961,-0.9248860818,-1.5400061235,-0.4518282783,-0.7766746045,0.7824944608,0.7776063398,0.3247762431,0.5957099722,-0.2088845899,-0.4323524856,-0.3230309493,0.0680636892,-0.5017867369,-0.9434230073,0.5494974027,1.3508373775,-0.9166747654,1.1179800709,-0.0280907592,0.3576952977,-0.6045812664,-0.2354611741,-1.5115702635,-1.0118653254,-0.6000156072,1.1576418993,-0.5310772102,-1.1509543691,0.1350255988,0.8003144566,-0.8049930602,1.044949124,-1.1663500082,-0.0562469023,-1.0724590888,2.1466888329,-0.1739157006,-1.2906768847,0.5067804803,-0.1562850268,-0.2568927044,-1.542291135,-0.3761482517,0.6934142573,-0.946024138,0.1248687575,0.2601931076,-0.7033574855,0.2157128039,-0.1794199728,-1.5190527743,0.6599963792,0.1927280288,-0.3737340526,0.2984373252,-0.3536461878,0.695404786,0.8816756765,0.7873351644,-0.1114634407,-0.4911154968,-0.5610744276,-1.615497754,0.6860639987,-0.5939256352,-0.5642640103,-1.0107299319,0.8378373967,-0.4049740559,-0.3163040317,-0.5131878944,-0.87998089,-1.2058234672,-0.1934501069,-0.9545382786,-0.5360268725,0.650830566,-0.4936236696,0.5823622545,-0.8846242368,-0.5246625913,0.4905224902,-0.8152658637,0.5042783339,-0.3880763956,-1.4530018138,0.4312525761,0.5980564638,0.6158937939,0.4744735454,0.5267664397,-0.3545037353,-0.5733349839,-0.8507814808,0.1927256358,-0.8859303496,-0.7600024243,-0.5766531025,-0.2557538119,-0.4297519288,-0.8467432642,0.0284394135,0.3069693786,-0.7567609297,-0.4851601473,-0.0188736436,0.5984185888,1.12711568,-0.3690636676,0.4256571205,-0.4838769868,-0.5620458152,-0.8151378344,-0.6322650247,0.3656778721,-0.2710270673,0.3898414623,0.7565541281,-0.7118846063,0.5683289396,-0.3301817638,-0.5655647508,0.09705237,-0.4476164951,1.1404380013,-0.39511477,1.1000266844,-0.3009710625,1.5139267965,0.3718239259,-0.8980026569,-0.4721407143,-0.1447491252,-0.9278026803,0.0429871139,-0.4997923784,1.5373828871,-0.3640333299,0.2784562975,-0.1669753062,0.4776010021,0.407745053,-0.4026549445,-0.591119466,0.7043207661,-1.1590679712,0.941477314,-0.18888237,-0.6649192865,0.1811556669,0.573500405,-0.4971193179,-0.3850418308,-0.2789389433,0.0423812897,-0.0910467848,-0.1626661863,0.2297144411,0.6704265753,0.3530573392,0.5600069521,0.5671756708,0.0132345655,-0.9863887574,0.0918652186,0.5707803272,-0.3020992112,0.1920293662,-0.5765913645,0.2217214397,-1.4335158056,0.311833642,-0.8722003902,-0.4744741049,-0.9464645457,0.8096839841,-0.2690863547,-0.8535742279,-0.8857851519,0.7629971834,-0.6735263336,0.5175649784,0.1340694804,1.0246363728,-0.1542339537,0.4556939661,-0.5377502871,-0.2887727032,0.4302196303,0.0501914139,0.4128384005,-0.4180285783,-1.0817363484,0.6238180421,-1.2694333359,-0.7488062177,-0.2114599685,0.4119561764,-0.1212194481,0.7820540365,0.8252578733,0.219817351,0.649204363,-0.2099941958,0.5870037187,-0.6682705029,0.2368894865,-0.4882251428,-0.8411877521,1.157531157,1.4583257767,-1.0784749032,0.0484212648,-0.5469878961,-0.7627389741,-1.4601127662,1.0320033172,0.9146132082,-0.2744683107,1.2099384297,-0.1123352099,0.3475733601,-0.6408938139,0.1589665255,0.7049823594,-0.3284889172,-1.1745273427,0.9664111359,0.0718151625,-1.2219320565,-1.4511684468,0.3296827647,-0.8162996755,0.6677142956,-0.5701448822,-1.036959512,0.5946119439,0.5947710252,0.3053327128,-0.9624741387,0.5710172206,0.2976745068,0.0596614879,0.0006703551,-0.714786521,-0.1855295699,0.2070811632,-0.9651244579,0.5907267506,-0.1265964072,-0.0259024858,-0.3335263929,-0.7744335949,-0.4641586606,0.8120537053,0.7220792101,0.6515690724,0.1968121534,0.1028473248,0.6917271475,-1.1316871396,0.6384220663,-0.3579265604,-0.2651032993,-0.2736064055,0.5341739201,1.4714625936,1.1780520986,0.3130668867,0.7664099762,-0.9223206546,-0.0621993514,0.6336304792,0.0299634231,0.2089596894,0.5682102993,0.3064211965,-0.3036067449,0.1547988346,0.8109267723,0.5644902421,1.4398797403,-0.1726335732,-0.1301885912,0.6748576274,1.0054607624,0.3210709832,0.8872672536,-1.2697563044,-0.1660354654,0.9019856209,-0.3938542669,-0.3044136626,0.7308254049,-0.7969979827,-0.1930614294,-0.1974252557,0.6145024835,-0.646157097,-0.6432125218,-0.041575375,-0.3635563976,-0.058679231,1.0308532014,0.1439374584,0.3303943482,-0.3787876525,0.1586749933,0.3735136179,-0.3032563385,0.9855072207,0.2701612766,1.1628127152,-0.4798973933,-1.7927386298,0.561132155,-0.745342541,-1.6523815237,-0.6779458138,0.803403763,-0.0373671809,-1.1358000902,-0.8340044116,0.4488466462,0.8927401502,0.7256950746,0.6567371003,0.2017709988,-0.614679433,0.1624712503,0.2033973621,1.1532177096,0.4707626547,-1.0048367964,0.1906334462,-0.4328642777,-0.4460141345,0.426067696,0.2241045556,0.3971444168,-0.5732666476,-0.7942006103,-0.9886164326,1.7850403719,1.0476783146,0.5798947718,-2.1308160243,1.042860016,-1.3115066788,0.3600189137,0.0846629499,-1.0174832269,-1.1648441076,-1.5905688149,0.882036854,-0.1696046644,1.5330282059,0.6426466549,-1.4825065867,-0.0345382361,0.4095024188,0.0037806068,0.7605290641,-1.0407905612,-0.7079467876,0.6623312399,0.7849408763,-0.6311939143,-0.4687526624,-0.1270561716,1.7270484755,-0.4443066852,0.9223743749,-0.8405624937,0.1573372735,0.0071203337,0.534675362,-0.0889344431,-1.0261361909,-1.1101154026,0.0773670215,-0.690284321,-0.5676354392,-0.4092558138,-0.6341150133,0.6693999651,0.3068482443,0.6098933715,-0.9053477459,-0.5633289329,-0.1449316319,-0.2565253903,0.3168648916,-0.2756520682,-1.6094674514,0.4868652069,-0.803383916,-0.0582628212,0.2638409502,-0.5009177291,-0.6509940108,-1.320252682,-0.283263664,-1.5349025246,1.3325518938,-0.6623896982,1.2468088042,0.7723866146,0.6958338148,-0.1496497922,-0.1787051285,0.3561185149,-0.4446390706,-0.2390217913,0.4101841886,-0.074547867,1.8293634482,-0.0931031082,0.8495468644,0.6825764715,-0.4059752702,0.4449728225,-0.0594894087,0.1399915254,0.9216524753,0.7945218115,-0.0402254691,-1.4994392268,-0.3559755415,0.0305368665,0.1397201631,0.5252332182,-0.2331277777,0.8396341701,-0.7362794738,-0.4668406747,0.224240617,-0.4448501356,0.0829913505,-0.1308006723,1.2918551793,-0.4893682611,0.960814898,0.2867685092,-0.750111328,0.9711406135,-0.2148520388,-0.8287554146,-0.4595455887,0.6041833763,-0.0744283075,0.2424390797,-0.0017730193,-0.6495113595,0.9686108305,-0.1919867605,-0.0097320518,0.3148084854,0.3768110749,-0.0049785039,0.0098503058,-0.2825145161,-0.6148277403,1.4239385879,0.27137046,-0.6482160029,-0.0497884198,0.0413870258,-0.8182581431,0.5175157869,0.2382211737,-0.0228988128,0.2004848795,0.6229028109,-0.7674020386,-0.2311424966,-0.890980822,0.689099547,0.5566735809,0.1877334788,2.7197315077,-0.727257469,-0.5243852545,0.142651256,0.8720078879,0.6683914842,-0.8530372785,-0.6531290535,-1.1468980587,-0.5437234612,1.2958365977,0.5392904646,1.7053895643,-0.7167587703,1.8055236598,-0.6637225628,0.6635633219,0.6858277924,-0.1708791106,-0.1899968307,-0.0474410329,0.9342408108,0.1922479413,-0.143757583,-1.4110223653,0.4893073559,0.5362049979,0.9858419545,0.6713896704,0.569214344,-2.6423359983,-0.1112378123,-0.3248205402,0.8760137619,-0.2492765221,-0.5990640004,0.4583574427,-0.6993750411,0.6240813412,1.106553734,-0.0499200453,-0.4279610287,-0.0574508804,0.2502313716,0.3475757385,0.5705571576,-0.3294340338,-0.5507243361,0.701751651,-0.8893059416,-0.1331125426,-0.4336283059,-0.0226493286,-0.6167640752,0.227676259,0.5522915327,0.4847892611,0.2520094094,-0.7067712164,1.183600402,-0.7603647292,1.2029661282,-0.3433454453,-0.1638732083,0.1590193119,-1.2152833152,0.6360075231,1.0228402715,-0.5463571502,1.1721310788,0.063902696,-0.7749720237,-1.0470367661,-0.2519574256,-0.9072958979,0.1523367266,0.5804585712,-0.5594264521,0.3522090404,0.0695470808,-0.7338598163,0.5063993356,0.027956086,-1.0349432875,-0.8347251859,-0.3156648083,0.1561989064,1.1894555959,-0.6162494791,-0.5524861428,0.9009944122,0.9117046271,1.0689254371,-0.0122480943,0.5638743966,1.3017489979,0.1900752092,0.92557023,0.7853484116,-0.0292611353,1.4471435618,-0.2906003874,0.9999702422,-0.3014136367,0.356165243,1.1715127113,-0.7327149118,0.1746641371,0.9631285584,-0.2447367193,1.1892587241,-0.8393856496,0.8725311897,-0.0758621907,-1.8886534664,-0.2038994395,0.2226539002,0.1198680868,-0.5810439385,-0.9087916492,-1.1826892205,-1.1367587265,-0.3314567206,0.7899883685,0.690449915,-0.2340886091,0.577587916,0.1245577883,-1.2796402548,1.2460429727,-1.0561565352,-0.1609418741,-0.7828444315,0.3537630619,0.2313926596,0.5197445568,-0.127302219,-0.6553654296,-0.8511615725,0.8388990397,-0.0459136767,-0.832260641,-1.44010221,0.6254542232,-0.0333628224,-0.8491737091,-1.116189824,0.652881913,-2.1091848923,-1.3093587525,-0.1116868275,0.1406635082,-0.4675587111,-0.348402248,0.0526934463,-0.0152929395,2.4758868114,-0.4139401278,-0.503908869,-0.0190230044,-0.1466655258,-0.1639264899,-0.4550506267,0.1228665819,0.0547888995,-0.3001330786,1.7606834336,-0.0331550936,-0.7401541012,-0.8353572837,1.3280292408,-0.0805676534,-0.6417734194,0.3428463089,0.2679605992,-0.9966650344,-0.4011331158,0.7832383492,-0.6924864116,0.310970088,0.5270522498,-0.853453446,-0.2044865978,0.0494851857,-0.4851650385,0.1562102614,-0.4190256139,0.8604083569,0.182385996,-1.0698159938,0.7062062506,0.2000067033,0.0647893877,-1.0986013803,0.36135599,-0.4261306281,-0.3985953716,-0.735287655,-0.0153547969,-0.8430363522,0.3425537796,-1.2293536425,-0.0983182899,-1.2413278264,1.7323908472,0.6757344694,0.3160867113,-0.2362517314,0.8713330917,-0.13862645,-0.554956793,-0.07219423,-0.7519481701,-1.1472030532,1.0132249031,-1.5012831953,0.6793602314,-0.4609860702,0.0199578602,-0.6970686392,-0.4248475126,0.2772279113,-0.4071510579,-0.7909380475,-0.3195571819,-1.149971362,0.3373185172,0.7873979719,-0.0928568979,0.7410552419,-0.8537749803,0.3018207929,-0.8089353472,0.1108168745,0.00044607,-0.1812288985,-0.7665940168,0.1366289975,0.1781906258,-0.8396516894,1.0598865149,-0.0060797912,-0.8590201796,0.7173876869,-0.103560708,-0.1470257274,0.2943067465,0.5587090698,-0.6855553193,0.8889856719,-0.3684545369,0.4945444983,0.4823844233,-0.4892835706,0.2575720158,0.005512064,-0.2593096627,0.3059106652,0.4491346208,-0.6222961062,0.6276484668,0.1739559883,0.4898109552,1.3782350453,-0.9840239898,0.2733282493,0.6305830036,-0.1223206874,-1.0747215201,-0.2593046311,0.5757690965,0.8653510252,0.3665083815,0.5573521437,-1.4389983081,0.4317538192,-0.198927385,0.5714823029,0.4414308843,0.2986742134,1.4177143467,-0.4188716363,0.4708106542,1.8771281352,-0.01662591,0.1635833591,-0.5103697968,1.0017597088,-0.9943533408,0.9631201434,1.3497428187,-1.2075132638,0.2999404215,0.968083402,0.6663450441,-1.5234192174,0.0471947593,0.0188325169,0.6264564623
