<<<<<<< HEAD
encog,BasicNetwork,java,3.3.0,1,1463569689604
=======
encog,BasicNetwork,java,3.3.0,1,1463598556803
>>>>>>> origin/master
[BASIC]
[BASIC:PARAMS]
[BASIC:NETWORK]
beginTraining=0
connectionLimit=0
contextTargetOffset=0,0,0
contextTargetSize=0,0,0
endTraining=2
hasContext=f
inputCount=279
layerCounts=9,401,280
layerFeedCounts=9,400,279
layerContextCount=0,0,0
layerIndex=0,9,410
<<<<<<< HEAD
output=-2.2926361094,2.6054041442,-1.1678299491,2.7708756445,3.1137361392,-2.5201991798,1.5438607942,-1.4701620765,-3.0014988492,1.9053883841,0.2953446021,2.0157229425,2.0841221896,1.7955563158,1.3917992864,-0.8425096972,-2.247413234,1.0008475226,-1.1601706333,1.4697912079,0.6010205237,1.6922294454,0.7469328577,-0.1619591364,-1.1607836852,-1.6340160896,2.0465183191,1.4192724327,-0.2956845781,-1.7933559534,0.955407264,0.9344109561,-0.2564693841,-2.1822831427,0.2088697056,-1.19991937,-0.7402897984,2.2970729245,1.7052113854,1.4345422707,-0.1994235307,0.2016300094,0.8334133528,0.6083358788,-0.1740127859,-0.7745461594,-1.4156150318,-1.5807192527,-0.1038769211,-1.7704286497,0.794345353,-1.1969417304,-1.2855154192,1.8699036868,0.9110799564,1.9533197927,-1.9747858609,1.1358935545,1.4198719977,0.5598960043,-2.1056030352,1.951635974,1.0713360366,-1.045106331,1.6110717746,1.7804287336,1.9043677737,-1.6782963759,2.3342553544,2.0991773248,1.175960183,1.4518640463,2.1312014088,-0.9314503887,-1.1250655807,-0.4235496595,0.0422614085,-2.0339418991,1.5461245293,-1.8661831763,-0.2550521647,-1.4188822158,-1.4390877979,0.5471692581,-2.0078386402,1.9367706024,-1.0915700017,-0.5631356081,0.5332130422,-0.5054222946,-1.4878177943,-0.5459511752,-1.2431172144,-1.3983179044,0.2387360412,-1.6057606411,0.7429420546,-1.2546109235,1.8494700584,-1.3024059097,0.4584007134,1.4576880765,-0.4553357992,-1.7943074845,1.0414591815,1.4124129788,-0.5985357648,1.6497381802,-0.292861197,1.878481159,1.2362694616,-1.5233986271,-1.0754310848,0.7618055234,-1.9447216778,1.9253466872,-1.0712151141,1.6887994918,0.8490755265,-0.4005825957,1.6733389722,-1.5993450441,2.2950721952,-0.0534456398,0.0916987887,1.4946768356,-0.5088304106,0.7616087819,-0.8357230399,-1.125380101,2.0294948144,1.3041961264,1.0324137924,-1.4936054203,-1.1428096048,2.0237288309,1.4300194353,-0.7411372058,-1.7443742882,-1.1683849924,1.8469082252,0.8407438307,-0.5109812937,2.1316048005,1.038872461,1.7272542332,-0.2717677358,-1.4126928254,-2.2096883241,2.5137437913,-1.1679695333,-1.346354564,0.8800018563,1.9118754238,-1.9315839688,-0.8796069509,-1.9807574464,-0.7653514066,2.1303703446,-0.4572390561,1.4614582419,-0.8120017461,-1.8189342157,-1.6252799497,1.3283222699,1.4242796749,-1.479004302,2.1219891833,-1.5358746077,-1.5028626082,-2.2221947882,-1.3587434364,1.2123222911,1.8649941316,-1.8179233542,-1.9899495715,-0.7192197927,1.3948811438,-2.6686378538,-1.6937877759,-0.8855471426,1.7036615828,0.256696745,-1.2040095836,1.1757158762,-0.7224739512,-0.9283470772,1.3586387512,-1.4163360139,-1.5386675154,1.3081428472,-1.4066167029,-2.3835752526,1.3389991254,-1.7242876085,-1.0579283331,1.5898025606,-0.1824656439,1.761128696,-0.2069472001,1.4715089527,-1.4505978772,-1.2189013086,-0.602287616,-2.218270271,1.4694311299,0.1938027901,1.5759099583,1.3730174144,-1.5199709174,1.5211506873,-1.5160089047,-0.970264367,-0.6800913847,2.0191951258,-1.5583228143,1.8656367724,1.7274195662,-2.6972642571,-1.542096504,0.8320096234,-0.1364785791,1.8079569183,2.0197641202,-1.0442206118,-1.5062471873,1.3353038,-0.5505904127,-1.0472394403,1.8299749937,0.9137002583,-1.5264274059,0.6753363818,0.7334505309,2.1743491281,1.9807834069,-1.6782783591,-1.1660491175,-2.4709516971,1.8977010468,-0.629776634,-1.933465622,-1.5998924981,-1.4732926648,2.6837044214,0.7355866816,1.8793442136,-1.7273177113,0.3018804117,-0.3281127378,1.4064956421,-0.9855907107,1.9421746006,-1.9873172474,-1.678970531,-1.0672317864,-2.0028513211,-1.5580721602,-1.0143497699,-1.183723319,-1.380859749,-0.8025902952,1.194798286,1.934861202,-1.721813812,-2.0811859031,-1.8859824247,1.4057193126,-2.0557863945,2.1393463085,-2.446443143,0.8605084181,-1.6554955023,-2.3806302732,-2.0806345468,1.7962004892,1.4133806514,1.3899459585,-0.0829093777,0.9835111788,-2.3464272698,-1.7394256476,-1.8683943554,1.7442312863,-1.3086207487,-1.3106271666,-0.8152782441,-0.7181371575,-1.2612217643,-1.3095945965,1.3024148041,-0.4559140218,1.6999957613,1.3346060826,-1.4088623034,1.3485760435,1.6648637486,-1.6296892285,0.7610744434,0.3398814577,2.0825101466,-1.2698279745,2.3668414345,1.1099920931,-0.2006547231,-0.643646642,-0.443659858,0.5612463024,1.1884607393,-0.5129902143,-1.6954150274,-1.9003923229,1.9133558984,1.8667718254,0.0117820686,-0.4602547798,0.0530491982,1.7620006319,-0.3446046185,-2.769676411,1.2121081467,0.7561838792,-2.3445650815,-1.0559727904,1.9528904316,1.5582159399,0.1983025126,-1.7735541988,1.3653365501,-1.8810718243,-1.4227693772,0.6613056796,-0.1765122641,1.6708992966,1.9849879952,-1.9000758692,-0.5506803525,-0.477144522,-0.4511760837,-2.0901822533,0.1403857031,0.6583081142,0.7183810664,2.3224935856,-1.1640633556,-1.2288113152,0.3486297719,-1.5957403561,1.6812882215,1.6893867169,-1.3320660136,-0.6707569368,-1.5092332382,1.765435877,1.3589461403,-1.1603083827,1.7574692925,-2.6096664387,-1.6091851938,0.0305745711,1.4435678921,2.2397142975,2.046649608,-1.4995546479,-1.348045728,-1.5489768532,-1.5807900294,1.8850225887,-0.8777500751,-1.3717695344,0.9592330874,2.1191340024,-1.460511156,1.1718756751,0.2264452767,-1.7664417315,-1.3442199245,1.0989068716,0.8035260885,-1.2968183253,0.2920985722,-0.1140740051,1.5612200994,0.9508783967,1.0992039264,-2.4615090912,2.0954166817,1.503031706,-0.6384380867,1.2538500653,-1.4679497146,1.8916170785,1.0089693755,1.4285291003,-0.229339234,1.6414755046,-0.4985212761,-1.1709409191,-1.7234517704,2.2164230104,-0.5876696204,1.8675459948,1.0347670463,-0.9263467825,-2.0585912112,-1.5529606979,0.3108966171,2.0352886717,-0.9095748495,1,0.6323529412,0,0.8571428571,0.880952381,1,0.6188118812,1,0.925,0.3461538462,0.2698412698,0.9923371648,0.5,0.1488095238,0.5,0.5,0,1,0,0,0.5,1,0.5,0.5,0.5,0.5,0.5,0.5,0,1,1,0,0,0.6470588235,0.5,0,0.5,0.5,0.5,0,0,0.1,1,0,0.5,0.05,0.5,0,0.5,0.5,0.5,0.5,1,0,0,0,0.5,0,0.5,0.5,0.5,0,0.5,0,0,1,0,0.5,0.5,0.7368421053,0.5,0.5,0.5,0,0.5,0.5,0,0.6842105263,1,0,0.5,0.4285714286,0.5,0,0.5,0.5,0.5,0,0,0.5,1,0,0,0.1363636364,0.5,0.5,0.5,0.5,0.5,0.5,0,0.9333333333,1,0,0.5,0.5,0,0.5,0,0.5,0,0.5,0,1,1,0.5,0.5,0.8571428571,0,0.5,0.5,0,0.5,0.5,0,1,1,0,0.5,0.7333333333,0.5,0.5,0.5,0.5,0,1,0,1,0.7916666667,0.5,0.5,1,0.5,0.5,0.5,0.5,0.5,0.5,0,1,0,0.5,0.5,1,0.5,0,0.5,0.5,0.5,0,0,1,1,1,0,0.5,1,0,1,0.94140625,0,1,0.5,0.25,0,1,0.125,0,0.7140740741,0,1,1,0.0510204082,0.1914893617,0,0.5,0.04,1,0,0.4893364929,1,0,0,1,0,0.5,0.5,1,0,0.7877237852,0,1,1,1,0.5,0.5,1,0,1,0.7074148297,0.7333333333,1,0.2374100719,0.2448979592,0,0.5,0,0.6774193548,0,0.2091836735,1,1,0.3970588235,0,0,1,0.4210526316,1,0,0.7912687585,1,1,0.7155172414,0,0,0.5,0.1764705882,0.9057971014,0.0172839506,0.6990204809,0.9375,1,0.5489361702,0.1917098446,0.5,0.5,0.1052631579,1,0.3844460748,1,0,1,0.4257028112,0.5384615385,0,0.5,0.1,0,0.4470246734,0.105156038,0,1,0.5219512195,0.5669291339,0.5,0.5,0.3,0,0.9207248018,0.0267489712,0,1,0.7272727273,1,0.5,0.5,0.5714285714,0,1,0.3063885267,1
=======
output=-1.5861236819,1.0947118907,0.1460679937,0.2855810596,0.3744381992,0.749432671,0.8839349184,0.5830819971,-0.8826516112,0.5221310383,1.8005751257,2.3114755037,1.3574846112,-1.0373110635,0.595781834,0.3291781872,0.6168374036,1.5384277168,0.738728278,1.2836274145,0.1233942515,-0.8095296117,-1.6338618258,2.0732738088,-1.350970722,-2.1911436697,1.267483321,2.1869770525,-0.9170902139,0.4677571466,1.7893888163,-1.6049163157,2.0146982996,2.1770049986,0.8947498189,-0.4399894607,-1.4942442257,0.8406662044,1.7930302555,-1.0748035306,-2.1185990959,0.662832674,-1.1917633078,-1.5317678827,-0.5113850491,-2.3510233621,-1.5095837719,-0.4899922331,1.4164220329,-0.6163262949,2.0876471179,-0.9299018246,-1.8510691551,-2.0742431035,-1.8882449825,1.9458918798,-0.3520548915,-0.0289385056,-2.1939909109,0.7298908561,1.5270852815,-1.4181184534,1.836257085,-1.7777412661,-0.4850192325,2.0481895378,-1.4447122918,-2.0804921843,2.1119150422,0.7540007362,1.7970648731,-1.4566880638,1.7203248132,-1.5893625989,-2.2017578773,2.0086842572,0.3413051344,-0.4645229307,1.3263294352,1.5338171613,1.3114391623,-0.7603966948,-1.0701579014,-0.9262796628,1.095212306,-1.2920852168,-1.8503371836,2.083236305,-0.073599593,-1.1906622499,1.0934554379,-1.9513409252,1.2568942752,-1.2785244945,1.4645445135,2.0224366324,1.7675619626,1.933407696,-0.1093987828,-1.6347508248,1.4575330741,-1.9654109968,2.0724017634,-2.1382139296,1.993845695,-2.1037595143,-1.0466194712,2.199590322,-1.9221433812,0.4738718005,-1.1977548488,-2.1930081474,-1.7445551443,-2.0864066773,1.5964537772,-1.9971456701,0.7084851709,1.3596965888,1.5701155612,-0.7153983461,-1.421437443,1.4788548906,-1.4600618191,-1.8764471542,-2.3832345269,0.8930076363,0.9623027925,0.5306721724,-1.4874773549,2.2076507593,1.9732631516,-1.5833517059,2.0499274916,-0.9452302629,-1.6420559749,2.0551118825,1.987490715,-1.4205044546,0.06413409,-1.4097501557,1.7073893733,-1.0900219099,1.282822997,0.0940552819,0.5665652657,1.8309764214,1.4364848525,1.2204615117,-2.2203358101,0.7605136867,1.5821485427,-1.8106347403,-0.614569309,1.9090330778,-0.3659342932,0.720669985,-1.2779303612,-1.2845830776,-0.3637619446,1.5724517431,-1.6878142615,-1.1899618983,1.2602560807,-0.7861277951,0.6985477824,-1.7596205545,-1.5230889649,-1.9683590308,2.0330644058,-0.8034418271,1.4886651057,-0.599700286,-2.0396922843,1.7223541835,1.642301596,1.2623524661,-0.9490636289,1.2744345867,-1.7263230927,1.387394497,-1.9438304977,-1.3882500788,-0.3341905163,-0.4400869946,-2.0353818055,1.0724602191,-0.822712651,1.7568633348,-1.0599128156,2.309203945,-0.1010035052,-0.5262713646,1.030026877,1.1536922647,1.7353489035,1.3878847001,0.7052759826,-0.8154640563,-0.2699160395,-0.503745552,1.3728523985,-0.9210621033,-0.3057499183,-1.5553216204,0.7068293729,0.8784936212,-0.7288682526,-1.6769398243,-1.7536814449,-1.4251060308,-0.5829190733,1.1284857056,1.6225148231,-0.3710794665,-1.9641665132,-1.4098307202,1.6725775398,1.2811234206,-0.9951024187,-0.1707934915,2.3142172309,0.4525538384,-0.8248567273,-0.8834362286,0.9549748411,1.2413749277,-0.7030938426,1.7739563087,-1.7706208809,2.120427937,-1.3712773406,1.5778509094,1.4677500175,1.4787155787,-1.7389774277,-2.0108674055,0.0335379572,1.5549493761,0.6915126698,2.1037897352,2.1057117018,-1.7427855866,-1.0316223646,0.9476361222,1.3583708773,1.8631479644,-1.3302349139,1.6076226834,2.5021712352,-1.8441921285,-1.4475815601,-1.8347579294,-1.4763907594,1.9934405534,-1.8907482085,1.683966928,-0.620576025,1.8278079256,1.1214353222,-1.8026104235,2.1265405966,0.8899011481,-1.2870049655,-1.0198340108,-1.1365089868,1.4863663447,0.3271239408,-1.3545667413,-0.5098963075,0.7257683364,-1.2529078343,-1.2725417759,0.3829716772,0.8880647004,-2.1421309658,1.3234747463,-1.9838340713,-0.5783008697,1.8844162976,1.7928076911,-1.5892835733,-0.0347423099,2.0136141926,1.5736942043,0.5147709821,-1.3071726187,-1.1950652183,-1.5792753222,1.3197217909,2.2259470433,1.0195418931,1.7146407268,-0.822257407,-0.6420852197,0.9789475582,2.1355923117,1.8624887895,1.7574404197,1.8601171717,-2.2840377038,0.4141517959,-1.4117548858,0.6810360623,0.5935153638,1.959079135,-1.4709476287,2.1337920144,-1.3680658904,1.9084580634,-1.5827193171,1.8822681955,2.1397429083,0.7009648969,0.1290984823,0.7559334961,0.9619559594,-1.5455935359,0.3717566912,-1.3864953424,-2.3116107984,-2.3355393821,2.1911525606,-1.0727058036,-0.9541917359,1.8161330682,-0.1787074379,1.6958758393,-0.9929270835,-0.4686589452,1.4020278373,1.2327193427,0.3582199893,-1.0998807695,-1.2816140584,-1.2402443894,-1.2109968599,1.3419432708,-1.1583298165,-2.0834917177,-0.5670244712,-1.5634500163,-0.6363010561,1.0856872292,-2.076461433,1.4145472976,-0.1941297433,-1.2843095447,0.6792127213,-1.1996815964,1.6427188644,0.5778934163,2.1864618967,-0.5615585714,1.2527741165,-0.2802451517,-1.909315007,-1.5115593478,-1.5413887299,1.7214805807,2.1075677898,-0.1092828539,-1.132551005,1.6030075837,-1.954933918,-1.735672957,-1.415292562,-1.6909941361,-1.7118714095,-0.7926244155,0.7334404004,-1.4344734991,1.5912917616,1.4107150964,-0.9188815928,1.9952419848,0.8652144383,2.031948122,-1.3404309174,-2.0616032859,0.3887410355,1.4758357185,-1.5151132756,0.722149211,-0.4652203384,-1.3282112615,-0.3251971359,-1.2171544383,0.356209692,0.7563503651,0.8594573121,1.5174847178,1.9882647218,0.3434651667,-0.4487996452,-1.4432341842,-1.6478902436,-1.651729959,-1.2651200346,-0.1185032248,-1.8039620075,0.353682784,-2.1431429402,-1.2419538099,1.0549878399,1.7300737615,-1.5446509023,1.298648261,-1.3549845817,1.2766114858,1,0.6323529412,0,0.8571428571,0.880952381,1,0.6188118812,1,0.925,0.3461538462,0.2698412698,0.9923371648,0.5,0.1488095238,0.5,0.5,0,1,0,0,0.5,1,0.5,0.5,0.5,0.5,0.5,0.5,0,1,1,0,0,0.6470588235,0.5,0,0.5,0.5,0.5,0,0,0.1,1,0,0.5,0.05,0.5,0,0.5,0.5,0.5,0.5,1,0,0,0,0.5,0,0.5,0.5,0.5,0,0.5,0,0,1,0,0.5,0.5,0.7368421053,0.5,0.5,0.5,0,0.5,0.5,0,0.6842105263,1,0,0.5,0.4285714286,0.5,0,0.5,0.5,0.5,0,0,0.5,1,0,0,0.1363636364,0.5,0.5,0.5,0.5,0.5,0.5,0,0.9333333333,1,0,0.5,0.5,0,0.5,0,0.5,0,0.5,0,1,1,0.5,0.5,0.8571428571,0,0.5,0.5,0,0.5,0.5,0,1,1,0,0.5,0.7333333333,0.5,0.5,0.5,0.5,0,1,0,1,0.7916666667,0.5,0.5,1,0.5,0.5,0.5,0.5,0.5,0.5,0,1,0,0.5,0.5,1,0.5,0,0.5,0.5,0.5,0,0,1,1,1,0,0.5,1,0,1,0.94140625,0,1,0.5,0.25,0,1,0.125,0,0.7140740741,0,1,1,0.0510204082,0.1914893617,0,0.5,0.04,1,0,0.4893364929,1,0,0,1,0,0.5,0.5,1,0,0.7877237852,0,1,1,1,0.5,0.5,1,0,1,0.7074148297,0.7333333333,1,0.2374100719,0.2448979592,0,0.5,0,0.6774193548,0,0.2091836735,1,1,0.3970588235,0,0,1,0.4210526316,1,0,0.7912687585,1,1,0.7155172414,0,0,0.5,0.1764705882,0.9057971014,0.0172839506,0.6990204809,0.9375,1,0.5489361702,0.1917098446,0.5,0.5,0.1052631579,1,0.3844460748,1,0,1,0.4257028112,0.5384615385,0,0.5,0.1,0,0.4470246734,0.105156038,0,1,0.5219512195,0.5669291339,0.5,0.5,0.3,0,0.9207248018,0.0267489712,0,1,0.7272727273,1,0.5,0.5,0.5714285714,0,1,0.3063885267,1
>>>>>>> origin/master
outputCount=9
weightIndex=0,3609,115609
weights=##0
##double#115609
<<<<<<< HEAD
   0.1769660198,-0.0634491156,0.3335815784,-0.0657333098,-0.143682532,0.1758708422,-0.1127542758,0.174403953,0.4253319251,0.4010373276,0.1449956735,0.3410674739,0.29016805,0.0712895984,-0.0491225213,-0.0821406502,0.3051421005,0.0869209381,-0.2130107521,-0.0420986459,0.2240114603,0.1683023622,-0.0734792479,0.3950749869,-0.5013192669,0.1393622216,0.2466798924,-0.2741031515,0.1101501746,0.3827438066,-0.3544582168,0.3317989244,-0.1556482397,0.1840529953,-0.3913371345,0.2103484761,0.2239519569,-0.254232292,-0.147937045,-0.0843220258,-0.0192715426,0.3109711858,-0.2171358676,-0.1445747832,-0.1127862839,0.1127684998,0.2610207297,0.0091124699,0.0150644217,-0.2135147334,0.2569077685,0.1811167462,-0.1742317419,-0.3205196669,0.0160563477,-0.0000316181,0.0048881562,0.3411680912,0.1069239167,0.2863201701,-0.2218579528,0.1473943082,-0.0225790673,-0.0639521765,-0.2812215621,-0.0201672414,0.3630885929,0.1007239656,0.3528682737,0.0140531886,0.1775792317,0.2585492778,-0.1775884328,0.3082038124,-0.0347547403,-0.0153775201,-0.2968762904,-0.1361785815,0.4377270129,0.3759709526,-0.2028377774,0.2869899704,-0.1316921463,0.433694476,0.2539649301,-0.1002891245,0.0839679977,-0.107756665,0.0869749611,0.0412023924,0.4339089783,0.2935288735,0.1620982303,-0.0273911192,-0.1850419989,-0.1406392475,0.1930423387,0.1051666461,0.1997479396,0.2217410781,0.2662927037,-0.1449152142,-0.4327219472,0.4033268799,-0.4018499638,-0.274704879,0.0344567213,0.3185642795,0.0383712495,-0.3789365587,0.1126027173,0.2108385122,-0.1050796184,0.0503636789,0.3509438431,-0.1417427024,0.1785418996,-0.0008384063,0.131305888,0.4108523709,0.3763952684,-0.0057817356,0.1447573068,0.0604690959,0.0899302087,0.1997827635,-0.3451460167,-0.1631519525,-0.3364136377,-0.1440423979,-0.1931673541,0.9592379429,0.0206702212,-0.2927529684,-0.6906151367,0.0326376945,0.2323530392,-0.0412274803,0.143033422,0.0695720086,0.0245507505,0.0967960489,0.071837008,-0.4602999415,-0.0564050223,0.4693095984,0.0383806736,-0.1416204248,0.1215434391,-0.4454014358,0.0527305229,-0.0345057261,0.3252623622,-0.3642951912,0.2247122275,-0.1703527595,0.0451794132,0.0320874156,-0.0461903686,0.5946769531,0.4094832215,0.4967676402,-0.0141236596,-0.1965827278,-0.6586940994,0.0673394142,-0.0951934433,0.1131166887,0.2804094469,0.4552023861,-0.0974764835,0.4592575389,0.1077586114,-0.0719427276,-1.3437169093,-0.2940995827,0.3120258835,0.1243472511,-0.3121939729,0.1220030262,0.0494173107,-0.1790086224,0.0053402823,-0.0596102288,-0.2504734466,0.1565136939,-0.1301844521,0.2536626837,0.6252610221,-0.2854664691,0.1990464935,-0.2273205813,0.2230804934,0.293900345,-0.0023132269,-0.495973006,-0.0663633865,-0.1624751882,0.0144354636,0.0336058059,0.3585883053,0.1433916499,0.3868143599,0.136017439,0.2189663023,-0.451069868,-0.1184337201,0.2795509117,0.1195308514,-0.0813915962,-0.0807515096,-0.1005170025,0.062603718,-0.000113222,-0.2949529831,-0.1598902307,-0.2602521858,-0.2888169117,-0.0141582392,0.0123738158,-0.2483172416,-0.0750692261,0.2088436498,-0.2613859223,-0.2455437799,0.527423823,-0.1977743252,0.2810693209,-0.1688151231,0.402203711,0.3056453331,-0.1013869131,0.1369463595,-0.3397663415,-0.5691865257,0.8059144602,-0.1162102913,0.1134827003,0.0958907139,-0.4540940357,-0.0340636447,-0.3739564319,0.4279020845,0.3153353274,0.2589372467,-0.0747815957,-0.1897100606,0.1491777603,-0.3115753104,0.2079106363,0.1321792658,0.0206710668,0.1738357784,-0.1638516585,0.1837252178,0.3871971233,0.0147222627,-0.0259442428,-0.2751864012,0.0505319439,0.1944233764,-0.3585202569,-0.1306801871,0.1419593189,0.1222054962,-0.0123860652,0.1864974627,0.0823231961,0.0591731269,-0.1033896735,0.2272580761,-0.2207971656,0.0255377167,0.3359795584,0.2146468506,-0.0767254878,0.0663269955,0.2559012199,-0.329783448,-0.2083129991,-0.1843695833,0.3462536482,-0.0403835735,-0.3794432858,-0.296400065,-0.0958041865,0.0936044846,0.4182835125,0.2129995657,0.1544960106,0.7804431684,-0.5982513503,-0.2536670065,-0.0881962163,0.0420507741,-0.1064694759,-0.4276034591,-0.3574820202,-0.0205615816,0.0859283067,0.1012328171,0.1058639229,-0.114406553,-0.0598030549,-0.2752300993,-0.1881586435,-0.2959900107,0.1174896758,0.2355048047,-0.1160307402,-0.0251116057,0.5138661709,-0.1783059231,0.2613507191,0.2562632849,0.3842683125,-0.9979752247,0.263538384,0.2575302409,0.3483762976,-0.1388397612,0.0411690181,-0.3659488731,-0.3574040181,0.3410205986,-0.0692462484,-0.4797271728,-0.0773296848,0.2941506958,-0.0141887883,-0.3565439002,0.0142490997,-0.307173163,0.239732471,-0.2174411259,0.1826051088,0.028480238,0.031036582,0.2516504909,-0.2717925559,-0.2019203853,-0.0328256421,0.557521385,0.2922535072,-0.1276852343,-0.1071468232,0.6565760115,-0.2102919359,-0.1317562473,0.2448316939,0.0962743684,0.1095236226,0.2830559232,0.0515424829,-0.314796408,-0.0693486429,-0.3294379314,0.0137326424,0.2385510152,-0.0281367218,-0.1356509054,0.0467349959,0.3791726222,-0.4233142378,-0.2773790214,-0.086514529,0.1535940113,-0.0031427234,0.0486431362,-0.17544816,-0.0348408873,-0.0077726494,-0.4299297166,-0.2652836301,-0.051316552,-0.2154521346,0.4955856968,-0.2904040812,0.1101012082,0.0044126803,0.3236852023,-0.2194843567,-0.0575871885,-0.1558146277,-0.1430627322,-0.6276193198,0.1976669046,0.0908197691,0.2507345687,-0.2577997619,-0.018261545,0.2841509531,0.1865224457,-0.1198875208,-0.2538362718,0.2135473332,0.1795448982,0.055926835,-0.4192983005,0.1827771641,0.4871690211,-0.0073748944,0.0801812963,-0.1692888959,0.0061147917,0.1334526028,-0.2103264166,0.0951466966,-0.0604154221,-0.167486819,0.0087736831,-0.0233797374,-0.2114779072,-0.2065946594,0.7586119632,0.056759274,0.0125018774,-0.080280337,-0.1948388048,0.037283809,-0.0134812338,-0.1092495146,-0.0997043335,0.1273986925,-0.1340525999,-0.1115905493,0.0635285221,-0.1746452898,-0.0218877748,-0.1027435911,-0.1095499127,0.1886123736,-0.1941157118,0.080508514,0.0181183913,-0.0053995188,-0.1745719128,-0.0383487142,-0.0295363202,-0.0098245623,0.0015695907,-0.0005868946,0.1735907646,-0.0262079149,0.083021371,0.0897684081,0.0800939251,-0.0195054723,0.2614760456,-0.0321492611,0.1014820016,-0.003419813,-0.0445689256,0.1261482391,0.1632802803,0.0561302242,0.1909853032,-0.3038178981,-0.3919467915,-0.1088685253,-0.0088640305,0.0209506576,-0.2067413767,-0.1011173535,-0.1113658487,-0.1088008809,0.0088710322,-0.0762722538,-0.1368692247,-0.2065214873,0.0420389406,0.0089094828,0.0126511545,0.0787435901,-0.166555679,-0.1487455244,0.000120721,-0.0117803332,0.0860180201,-0.0818788831,0.0043385154,0.0713758931,-0.0181241803,0.1558440426,-0.2261005201,-0.0861940237,0.1366240763,-0.1566822199,0.0340811127,0.0129175252,0.1777848561,0.0682182387,0.0157226556,0.1056817644,-0.0758445669,0.1260261902,0.2355527092,-0.0152156419,-0.0390230087,-0.0779947289,-0.0889476175,-0.0794677403,0.1033185704,0.1490477653,-0.2551279196,0.0842027089,-0.0266256006,-0.0399085025,-0.2312459443,-0.1048815841,0.1853866515,-0.1299751024,-0.0911032024,0.2176303112,-0.1147228945,0.0544393891,0.0718076396,-0.1479589314,0.1286975715,-0.1002119073,-0.1048578848,0.0849166022,0.0757558106,-0.0270433052,0.0140815588,0.2659389784,-0.212170874,0.1108236826,0.0699334741,0.0070899674,0.1570631273,0.3380482889,0.2212000303,0.075675148,0.2573046562,0.226070904,-0.0053358588,-0.0964088888,-0.3326493054,0.0428988587,0.0840788458,0.2114841495,-0.0810708667,-0.1580711148,0.1724090421,-0.0785053533,0.0493519612,-0.0191514681,0.1271507527,-0.3227659606,0.3469921996,0.0204591874,-0.0804645572,-0.1697113332,0.1958176759,-0.1573834854,0.0620880305,0.1882435424,0.1177534552,0.0959115788,0.0296301763,0.0770646396,-0.5501213268,-0.0567790567,0.0695357484,0.4325676666,-0.0053976285,0.0426362622,-0.0501919725,-0.1238059131,-0.6195468209,-0.0150893603,-0.3844226126,0.0956859458,0.0197741186,-0.4980766238,0.0290457897,-0.2388171547,0.1334250016,0.233151797,-0.2337784583,0.1119308089,0.0839761676,-0.0864093834,-0.0143028223,0.1178204693,0.0749800695,0.132598377,0.0303925389,-0.1101495049,0.1226768376,0.0672177823,0.1828069246,-0.0291441152,-0.1422118323,0.0001415239,-0.0414835105,0.0270757103,0.2274464288,-0.0161987781,-0.2053197806,0.0959752361,-0.1764942124,0.0167462886,-0.0249472854,-0.0335552966,0.0088037997,0.018624651,-0.2205640565,0.0170433786,-0.0231432669,0.0431358929,0.0482395963,-0.0515779527,0.0599441568,0.18861765,0.1129395122,-0.139430477,-0.0093739316,0.2150733746,0.1883227529,0.0650115002,0.2560764158,-0.0125669575,-0.0169835422,0.1729344831,-0.1691492532,0.1063007036,-0.134220926,-0.1260119379,-0.0033965426,-0.0892518691,-0.0003285834,0.0147101825,0.2010440401,0.4410608279,0.0341216536,0.0137783627,-0.1176051235,0.333950825,0.2491487306,0.037339311,0.0995831396,-0.0135863023,-0.0937740982,0.076095935,-0.0496918727,0.0653891465,-0.0926971608,0.1473466197,-0.2268296142,-0.1736873891,-0.183738101,-0.0661828322,0.1093109344,-0.4192437549,-0.2462958206,0.0228693858,0.0537277741,0.2635881223,-0.1151977692,0.0127118571,0.106577428,0.2810321617,-0.3732202489,-0.1871809665,-0.136530931,-0.1240831885,-0.1393959118,0.0834518753,0.0916908479,-0.005486964,0.0221596743,-0.1008626841,-0.0917824638,-0.0677011136,0.1122162391,0.0746821115,-0.3831478144,0.0926752693,-0.1396636142,0.0334573484,-0.2107535588,0.0953808003,0.3559164821,0.2283822486,0.0230820253,-0.0498652043,0.0612727729,-0.0047077876,-0.0143606269,0.1510551721,0.2404912977,0.0966026192,0.0117709247,0.1013258717,0.108533648,-0.3232840308,0.3041066051,-0.1146666304,0.2881047329,-0.2173604077,-0.0185143,-0.0611892346,-0.0280765027,0.0989553566,0.3096456022,0.1763415971,0.0970764543,0.0014708272,0.0756009629,-0.0160550493,0.0504179641,0.0195823424,-0.0540547224,0.0703639793,-0.2406616909,0.6564548592,-0.1006138187,-0.0406171877,-0.1026943629,0.1035127882,0.1534684309,0.401374695,-0.024003374,-0.1589947003,0.2080414422,-0.4996669688,-0.0817515548,-0.1597210612,0.0558463583,0.0686616521,-0.0071153105,-0.0239462231,-0.2765959427,0.2152135189,-0.1677792602,-0.0812068619,0.0506780364,0.0167184854,0.3456963502,0.0898105032,0.0411051448,-0.4117660158,-0.0485303496,0.1403969373,0.012795022,0.2910379956,0.2227919353,0.0617255346,0.036544061,0.001498488,-0.126983225,-0.0109811495,0.0094340751,-0.0167339857,0.0389276346,0.0300624886,0.0091536932,0.0693178678,-0.1216601825,0.213950011,-0.0626854715,-0.2666254182,0.0921775072,0.0591267128,-0.0382324231,-0.0423518177,-0.0942246958,0.0293588433,0.0809082606,0.1045473197,-0.0437502457,0.0020857492,-0.1038176014,0.0554503757,0.0994402866,-0.2109678454,0.1894688141,0.0480818399,-0.0819151768,-0.0052807751,0.102296766,-0.0352284252,-0.0112354878,0.1129234182,-0.0571590293,-0.2840011843,0.1315212223,-0.0250832009,0.1264933097,-0.0801025408,-0.1258301738,-0.1893773991,-0.063008264,0.0728039934,-0.4212596524,-0.129903707,-0.043801558,0.1182036365,-0.1368700144,-0.7863684549,-0.3952752556,0.0688750307,0.1113257467,0.0759699165,0.237358584,-0.2053500852,0.0814274186,-0.0122275015,0.1678144719,0.3316978522,-0.1482357759,-0.1096001743,0.0849550842,0.2847590614,0.0995031685,0.3527400581,-0.1006982364,-0.1512676244,-0.2259253665,0.4610051073,-0.3690958707,-0.4851208548,0.0810950403,-0.1550189579,0.3422222979,-0.1693096927,0.0236136075,0.4167550605,-0.176665036,-0.2477208408,0.1525944256,-0.0104005201,0.3189186926,0.260963471,-0.0732109494,-0.1674376661,-0.1210936027,-0.1707868863,-0.0577253369,0.0425735497,-0.0286695559,0.1011694111,0.2672536084,-0.0789369372,0.180015741,-0.0351065336,0.0574579875,0.0567682745,-0.1148209334,-0.1612460915,0.0286584223,0.0260875488,0.0090386863,0.4191369197,-0.1548195813,-0.1879551946,-0.2412996074,0.0549796337,0.1684481814,0.1006,0.2983575361,-0.044320561,-0.0508129538,-0.4068882515,-0.0630216836,0.0620728361,-0.101154025,-0.5109123847,-0.4203142653,-0.0988315283,0.0731053936,-0.0327015246,0.0995619939,-0.1000782779,0.1879510717,0.0471289636,0.0076179273,0.1237874405,-0.1432274043,0.0279034723,0.1163432952,0.5584416987,-0.0169594883,0.2453312158,0.0382596513,-0.0679646415,-0.1755851051,-0.0543380169,0.1440870718,-0.3014237807,-0.5961789252,0.1522043137,0.1107474372,-0.0388818171,0.0590374802,-0.0580852733,-0.1119529533,-0.1143208697,-0.1288829548,-0.2005930563,-0.0087860573,0.2200200862,0.4567007757,0.1285051004,0.1040852816,0.0516215599,-0.5827653786,0.2553283644,0.076193209,0.1558331791,0.0220731171,0.1182862198,0.2156090568,-0.0918726551,-0.2328169085,0.1261522511,0.1583875622,0.1679654526,0.0197367555,0.0530654825,-0.0465385801,0.1551129089,-0.1685936353,0.3901440921,-0.178707911,-0.1723429,-0.0486734206,0.0446704426,-0.0292715725,0.5257938224,0.1331502282,0.4216674546,0.0485329241,0.199101951,0.0409584683,-0.0051963653,0.4954506133,-0.0988588911,0.2325295104,-0.085030788,0.1817777251,0.0694323561,-0.1669918229,0.0185782059,0.0192267756,-0.0092459504,-0.0571586412,0.0832024623,0.5725672134,-0.3597830606,0.1275925909,-0.372255942,-0.1232764328,0.1210737331,-0.117671124,0.1751617565,-0.4142037632,-0.1709786033,0.1306704923,0.0318874729,-0.1211516774,-0.0134160811,-0.0002103799,0.1011164182,-0.2310182233,-0.0945598593,0.0126696367,-0.0744919373,0.1451132599,-0.1068834626,0.1038918362,-0.3677933778,-0.3628167383,-0.1346343798,-0.6998877875,0.1476171967,-0.1735281542,-0.0927974499,-0.4534597649,-0.0947330601,0.2238157257,0.1234875284,-0.4061745072,-0.2303230943,0.0842231389,0.1723398432,0.1119959803,-0.326741082,-0.2268766907,-0.0341794279,0.6463625582,0.1953676222,0.0120276281,-0.0693228288,0.0351756435,-0.0752871638,0.1178158954,0.022693612,-0.0513215996,-0.2102512715,-0.4256847909,-0.0729049326,0.1853408759,-0.1346197677,0.0020529869,0.3372575745,0.0526993155,0.0745249714,-0.0857428072,0.0540082855,0.1781753322,-0.0190241851,-0.2930463535,-0.1008681502,0.0655772501,0.2710730036,-0.16661503,0.2571431221,0.0849331488,0.125452308,-0.0693270032,0.325360378,-0.0252072382,0.1746779869,0.1540044445,0.0180734925,0.0183778154,0.0437088111,0.0953825293,0.2189744259,-0.611038099,0.2335269486,0.1210260122,-0.0978340114,-0.4488425403,-0.1610185131,-0.1723354958,0.0203658986,-0.2018988709,-0.0084393764,0.3205097964,0.3955593168,0.0945883666,-0.0263711964,0.1161935649,0.4269884442,-0.2675789705,0.146393331,0.0058825659,-0.1621250804,0.591176694,-0.0940518655,-0.1044754611,0.0053373549,-0.2349389401,-0.1860822518,0.0090655791,-0.050460302,0.2160734375,-0.1256009717,-0.0510763736,-0.248925247,0.1455765652,0.0134350175,-0.321789747,-0.2990736143,-0.2489658018,0.0659990725,-0.215633009,0.2376920351,-0.2137687756,-0.0768749871,-0.3508216473,0.1118711981,0.1905712809,-0.045018356,-0.0848247367,-0.1977309726,-0.4079349307,-0.3296759266,0.1426972731,-0.0177739956,-0.0457654501,0.0891090185,0.076215888,-0.0317062712,-0.0620434881,-0.1961099394,0.0263616598,0.0694613101,0.4039714166,-0.0116734587,0.0742063339,0.4200766469,0.5307769297,0.3298827597,-0.2677991542,0.3556236032,-0.0129547199,-0.1559456408,-0.3215090417,0.1218996487,0.1994247851,-0.0369412423,-0.0189669123,0.3678408006,0.0225836227,0.1290972483,0.0107009824,-0.0220755972,-0.0246573267,-0.0084088093,-0.0959618146,-0.2411813443,-0.0039942241,0.0435237524,-0.3375156473,-0.2265374993,0.0754026016,-0.0366432358,-0.0507676106,0.1926502889,0.0153509543,-0.173928238,-0.0745260074,0.2320871775,0.2672044236,-0.3248926116,-0.0435125417,-0.0441050875,0.0018452095,-0.0010589588,-0.1032811017,0.1265021337,0.3313748969,-0.2994989318,0.0740152889,-0.3628739409,0.021678283,-0.3615325354,0.0911345773,0.3505678273,0.0132609353,-0.2672897392,-0.0960478731,-0.0204881548,-0.720666038,0.1257624945,-0.0639794736,0.1437062209,-0.1177182833,0.2479437322,-0.0280370453,0.3929898896,-0.218135173,-0.2683782855,0.2976171398,0.2297583367,-0.1365535325,-0.178145029,-0.000516228,-0.2340554504,-0.240589351,0.1332505611,0.0905404716,0.0520899999,0.1118809399,0.2048908286,-0.2534569491,0.0456393377,0.1041049035,-0.0871580118,0.2100472131,0.0094869222,0.5976015935,0.0325486147,0.1619841715,0.1729671029,-0.153250008,-0.1027461094,-0.1275559545,-0.2652962208,0.112248384,-0.2577936048,-0.1453689129,0.0226375625,-0.0244212655,0.3506850548,-0.0660305371,0.1137310201,-0.2321761935,-0.026825968,-0.118643604,-0.1616981269,0.1206917706,0.3410669217,-0.2680314694,-0.1568379136,0.0543357738,-0.13589211,-0.2402869542,-0.1109943454,0.3144780644,-0.2310832979,0.2026710798,0.4440172866,-0.0514658913,0.0968095856,-0.1630733705,-0.0868168918,0.5943200852,-0.2169236132,-0.4133391821,-0.1385460424,0.4281945361,-0.105601494,-0.3090499101,-0.2562105194,-0.1929214373,-0.0308357561,0.2816932222,-0.327651379,-0.3354589515,0.172393035,-0.3944594128,-0.1866593973,-0.1724831417,-0.2720522384,0.2832560094,-0.098446126,0.2108217014,0.1567043352,-0.2358059413,0.185073997,-0.0435123825,0.6521077493,0.1222160377,-0.2600164374,0.2062080736,-0.0519737649,-0.0827842542,-0.0886438744,0.0624902212,0.3135700041,0.1965433416,0.1187444723,0.0480143278,-0.1607311041,0.1582968062,-0.1876255379,0.1083658798,-0.0469224913,-0.1731366837,0.4174778679,0.3802342589,0.2244765,0.193899262,-0.0968213946,-0.0275182421,-0.1470133137,0.0238930209,0.025475254,-0.2651537626,-0.0280854917,-0.296462996,0.0367201478,0.0522437297,-0.1646644371,-0.2550810055,-0.1218954586,0.0770873559,0.0369838663,-0.2418865194,0.0475251443,-0.3848072591,-0.4166695843,-0.1610979912,0.2417194039,0.2083382345,0.2154921911,-0.1544274668,0.3388715239,-0.3030029881,0.3031452446,-0.2769705439,-0.1609772629,-0.1750292298,-0.3196675288,0.1027004605,0.011836134,0.0286156985,-0.0078817194,-0.1129537967,0.2415130118,-0.3117033929,0.2783770963,-0.1426985717,0.0031275934,0.0293084632,-0.2354926385,-0.1639605658,-0.2640547804,0.0910536458,0.3672860016,-0.1565387146,0.0146483436,0.4000204762,-0.4071890288,0.0044302276,-0.3993359251,0.3610885181,-0.1318808425,0.0340174951,0.3821856982,0.0030544961,-0.2070682661,0.1093963849,-0.042180355,0.3270314853,-0.2605987826,-0.3871747431,-0.5587303278,0.2164691263,-0.2157941478,-0.2022633287,-0.054093912,-0.3668010875,0.2461335588,0.1051824477,0.2190139774,0.3431144707,0.3781983278,0.8598902924,0.0999312419,0.2974588286,0.3935176625,0.0241135192,0.388992408,0.4549548437,0.3590091119,0.000042119,-0.0093225034,-0.098522031,-0.2968865704,0.1442831884,0.0845069708,0.1234926179,0.0754602016,0.3161454199,-0.0037099835,-0.4267992583,0.1730397365,-0.0216017899,-0.1696818062,0.3101981597,-0.2396651485,0.1869916391,-0.0393533054,-0.0643989503,0.2072473468,-0.463137416,-0.2572701209,-0.0826891908,-0.2283052268,0.2340030665,-0.3031243658,0.0265181551,-0.0950756868,-0.1775966407,0.023777924,-0.3994971885,0.0103665222,-0.3033662812,0.0972235868,0.0224378966,-0.1812877559,0.2447818267,-0.2711169295,0.0256980233,-0.2529068254,-0.1356621461,0.1034779955,0.2874912314,-0.1982074496,-0.0828479001,0.3314882142,0.1049634123,0.3190371088,-0.3958136562,-0.1434935424,0.2039319678,0.1518444542,0.2085557804,-0.1285018467,-0.3646222647,0.0266658139,0.0394033335,-0.1468370845,0.2128571998,0.2955720027,-0.1886483288,-0.254309989,-0.2778952968,-0.1102556114,0.0814791202,-0.1495938057,-0.192891234,-0.058546415,0.2325205735,0.0636303144,0.1596856879,0.1635392764,0.010095434,0.1250130527,0.0822229398,0.3680778955,0.1969743449,0.324740022,0.1899047599,0.1890487534,0.2641014331,0.0866777835,0.4877606917,0.1544182781,0.27475894,0.1560537419,-0.0030297657,0.1709523244,-0.3129810538,0.2833736955,0.2620665178,0.0037253404,0.1508597044,-0.0153178134,0.4699818255,0.0178326421,0.1478615918,0.1840688127,-0.1051444481,0.2200700766,-0.0570486845,0.2395576786,0.2028799084,-0.2758480753,-0.105333364,-0.0924894835,0.3388894209,-0.8040610155,-0.2718574866,0.1131261705,-0.3284356009,-0.1382211767,0.0688536152,-0.0779450081,0.1071079243,-0.1357900057,-0.1685828767,-0.0399758737,-0.1471548095,0.2669052261,-0.0711235455,-0.1769554285,-0.1072019614,0.099954384,-0.3137457694,-0.3158229368,-0.2425759614,-0.2381137597,-0.1983650271,-0.069807423,0.0954108403,-0.1822058242,0.3560948305,-0.0027170909,-0.185880019,-0.0630738287,-0.0380448649,0.3117371693,-0.3209478253,-0.0577058659,-0.3141204838,0.060001378,-0.1603024072,0.0325340837,0.448737766,0.3560640516,0.0463056776,-0.1398965306,-0.0586185625,0.0512283039,-0.1182477495,-0.2276918125,0.2120700913,0.1496191769,0.0632473452,0.2803149629,0.2644432551,-0.2330939694,0.8078539042,-0.2668312129,-0.2891762203,-0.3924985442,0.047091909,0.1374457229,0.2254800972,0.2983347967,0.4433053942,0.3679349169,0.2625322813,0.0004808089,0.1754108203,0.1254190812,0.4606169992,-0.210684547,-0.1581123209,-0.3696562961,0.3106218504,-0.041858074,-0.3637239364,-0.1057591776,-0.247691234,0.0474929372,0.0311694979,0.3461971154,-0.08523202,-0.1600203876,0.2320467065,-0.3768633461,-0.2670248347,-0.2452363986,-0.1755011322,0.2178827704,0.1506361059,0.1927979053,-0.3845497542,0.4635038803,-0.3255836181,-0.1396738215,-0.147484007,-0.3261547756,-0.3299975555,0.1720105351,0.0117886378,-0.401415902,-0.2334648382,0.2360042555,-0.0706767815,-0.5043755904,0.3278772936,0.1063368346,-0.2856050018,0.0174684784,-0.1711627069,-0.096944159,0.0200168736,0.1961583856,0.2095292987,0.3060955017,0.2702715339,0.0614778015,-0.0100082923,0.0561565318,-0.1674741742,-0.2617351235,0.2534877405,0.1772368886,-0.2095823709,-0.0494454474,-0.1567757892,-0.1992274723,0.0625584207,0.2444752787,0.0624461014,0.2625773505,-0.0654479911,0.075265727,0.4347419962,0.0454947797,0.2272792415,0.1571612977,-0.1743044168,0.0693849106,-0.1689939617,-0.2745823107,-0.0114543308,0.1288814392,-0.0959859682,-0.4047502069,0.2858942722,-0.3689850722,0.1478950653,0.0895672876,-0.1758736395,-0.2993838665,0.1277170114,0.1746487391,0.2605538181,-0.1918357101,-0.6368523394,0.3196644149,-0.1608133809,0.5481670412,0.1474063026,0.1548218538,0.1007729787,0.2861689594,0.2936236216,0.2999425257,0.1065848504,0.0038807396,0.0116569303,-0.0099375926,0.0370886586,0.03429005,-0.019740322,-0.042446452,0.0084620092,-0.2915841065,0.0216008291,0.1451443312,0.1961887359,-0.0339208797,-0.0416268292,0.1212477401,-0.0145502058,0.0790998526,-0.1057369548,0.1270817816,-0.0103778758,0.065732353,-0.0213825717,0.310574581,-0.1996670869,-0.0774890936,0.0990041171,-0.0279526813,0.3154774682,0.1478817341,0.133007595,0.0480362764,-0.0310109184,-0.2771010588,-0.1849229068,0.134163751,-0.0367085028,0.02461539,0.1425442409,0.3151046217,0.1052976228,-0.1981210462,-0.2316962511,-0.0397143641,-0.0495669346,-0.1208063289,0.1833213203,-0.1144810714,0.0104107502,0.3627583927,0.1648154997,-0.4387182602,0.1267764517,0.0533782883,-0.2512042338,0.0617737433,0.1509103674,0.1162724702,-0.0737714769,-0.1332113786,0.1971463368,-0.0643363298,0.0948386595,-0.0215329217,0.1134196848,-0.049776481,-0.1982300326,-0.3248771058,-0.4587765775,-0.0574253774,-0.0491886891,0.2687617526,0.2188216539,0.1052766862,-0.0644997408,-0.0844273409,-0.1371637351,-0.4350237414,0.0238704566,-0.1745191689,-0.0807516258,0.0387793784,0.1881386597,0.2956082688,0.0055461037,-0.0489681605,0.2927359606,-0.0825143654,0.0638289208,-0.0111668296,0.0615213922,-0.069704545,-0.0224985318,-0.162072877,-0.0521877783,0.0069995441,0.1203189659,-0.0988011241,-0.1285906302,0.0046596917,-0.2143546105,-0.0468652029,-0.1022660879,0.0242672637,0.0802695437,0.0658929934,0.0815199047,0.2522323996,0.1448230219,0.1004156336,0.0004108582,0.1457805745,0.0559305805,-0.100292851,-0.0572606659,0.1202244388,-0.2558212291,-0.4281215513,0.3840334712,-0.1956042902,0.091080055,-0.0155907794,-0.2647057338,-0.1567292562,0.1677969955,-0.1878556158,0.0571912679,-0.09135766,0.0766758985,-0.0470419671,0.0133063434,0.2932381219,0.070492627,0.0434685176,0.0061723629,-0.022663731,-0.1829993968,0.0105326212,0.3103235803,-0.3417034922,0.1056106099,0.1049210592,0.1170466872,-0.1209841593,0.1478354228,0.1833209775,-0.0926013878,-0.0623014373,0.0102545687,-0.0007072319,0.2759681385,-0.3760891356,0.1357731113,-0.092807206,0.1068186308,-0.3636859409,-0.2513575483,-0.0107365835,0.846910859,-0.0740896989,-0.2955903734,-0.0955437318,0.0197492609,-1.1195328117,-0.1688415201,-0.2164165255,0.3097325184,-0.0278325994,0.7091380085,-0.0963678916,-0.0267594547,-0.131526499,0.4269757045,-0.0468789401,0.0777969759,0.1754492315,0.1012355217,-0.010501973,0.0690512129,0.103495984,0.0038640692,-0.0816224857,0.2482625047,-0.0223022139,-0.0383205322,-0.1613489361,0.1158412122,-0.0101287176,0.0682990758,-0.0998960142,-0.0279981818,-0.1181678059,0.1903400393,0.0508761438,0.1395174488,0.073746631,-0.3874379964,-0.0059063587,0.1966137653,-0.2172595069,-0.1176228715,0.1126562683,0.1591380169,-0.0664165508,0.123506803,-0.1544178042,0.1463795436,0.0539668395,-0.0306981863,0.0051658666,0.0213400919,-0.1394729529,0.3972474888,0.0994040553,0.0257230176,0.0133788158,0.4000462297,-0.0157588769,-0.0016002982,-0.1056521945,-0.0455987252,0.0459127826,-0.0442100953,0.112546215,0.2918548492,-0.2022147493,0.2110195839,0.2852953856,0.8341575947,-0.2813363867,0.0504484151,-0.0479641631,0.0345281597,-0.1329302055,0.0003903139,0.0925760514,0.0167473611,0.2526787267,-0.0124500396,-0.0072217272,0.2281592894,-0.2625916645,-0.1244720773,0.0853391494,-0.4151300859,0.1559982558,0.020093299,-0.1236413891,-0.26345869,-0.0282048736,0.0256731839,-0.039505868,-0.0055131757,0.1807918504,0.1582347404,-0.1251512668,-0.1549951711,-0.0886694932,0.045133906,-0.2060816946,-0.0953588275,0.131363004,0.0297751069,-0.01870129,0.1538397898,-0.1111807107,0.0622387548,-0.0451247628,-0.0181233115,-0.0279431313,0.0364381043,-0.3384469953,0.0921446553,-0.2981369121,0.0294457402,-0.0099024415,-0.1888885544,0.1900898216,0.113481979,-0.0247448629,-0.1524436846,0.3068217272,-0.0344881812,-0.0983404098,0.4545027082,0.4598067185,-0.1907588049,0.066003697,0.0706771883,-0.0333794624,-0.0340556921,0.3478329507,0.0410528804,0.4286591702,-0.0261823744,0.1377966744,-0.1021283954,0.0626803772,-0.1435695197,-0.1225450927,0.0007919352,0.2931170689,-0.1518571786,0.0914309621,-0.0360889489,0.4108657418,-0.0831198973,-0.0324360799,0.0703352148,0.2875222945,0.2612892476,0.0384172879,0.1772597763,-0.0054712707,0.0804742803,-0.3219139653,0.3372525752,-0.0732026117,0.0517469168,-0.0328158719,-0.5849777806,-0.1909085851,-0.0290249673,-0.068309265,-0.0035169312,0.2083496654,-0.0715981347,-0.2188706623,0.180713499,0.0820809107,0.1016439602,0.1192593135,0.1082576547,0.171507678,0.0148868566,-0.1716214046,-0.5154747983,-0.1658143805,0.1366502914,-0.1260355662,0.2491768638,0.0896036144,-0.0643287763,-0.1459327634,-0.0275918037,0.0011396556,0.1562690607,-0.0582171907,0.0064178402,0.1027961278,-0.1524449877,0.4499466676,-0.0536860438,-0.1916020801,0.0914189286,-0.1594815593,0.0800464973,-0.0564844376,0.0101926433,-0.1431507916,-0.014818778,-0.0863755835,0.0725640383,-0.0040995522,-0.0529402724,-0.0011554731,-0.1005720266,-0.2529297146,0.2369963142,0.0924185056,-0.3680426857,-0.2062458266,0.0160198543,-0.0343970302,0.3476201759,0.0568075029,0.0779618215,-0.0761292558,-0.0090134477,0.5431052899,0.0859643976,0.2961442266,0.0767276845,-0.0968122781,0.0537358727,-0.0913843248,-0.0281499673,-0.1641990308,-0.0727057399,-0.5973879335,-0.0134696358,-0.3623546899,-0.1635329294,-0.1846037363,-1.0569135227,-0.1444655792,-0.048112303,-0.1792736469,0.0432920177,-0.3828774461,0.0161507704,-0.0169856376,-0.0197912294,-0.104871638,0.6463252549,0.1310648437,-0.1863962182,-0.1111373338,0.2975911439,0.0569016971,-0.1354913078,0.0363012108,0.0796546227,0.0770128562,-0.264017486,0.3793180484,-0.0776014597,0.1753019322,-0.1567240519,0.2537918777,-0.2782354374,-0.1909494947,0.0439107828,0.1278174241,-0.0187748127,-0.4833588468,-0.1108585049,-0.1703075483,-0.0383389672,0.3647175877,0.6358340093,-0.2127355854,-0.0160088277,-0.0258760552,-0.1620100198,-0.1146720983,-0.3088748107,-0.4386014932
   0.1064684492,-0.1164232759,-0.0500854009,-0.1673528745,-0.1661769836,0.1064142826,0.0775335803,-0.0091384754,-0.0707234938,0.0559380947,-0.2942130991,0.0866583106,-0.1786985095,0.2370574434,0.5451256415,0.042579296,0.1128855977,-0.0663925,0.1501165087,-0.1688056398,-0.1355771893,0.0846671888,-0.0763679561,-0.0929906053,0.5465361274,-0.2915826828,-0.123075199,-0.2096744679,-0.11858599,-0.1299160722,-0.2578565566,0.039641194,-0.0147273954,0.1986603089,-0.2183449918,-0.1787277449,-0.187652568,0.2421411281,-0.1415504324,0.2421162661,0.0104614566,-0.0294192886,-0.2192602374,-0.104839359,-0.0247691795,-0.2386637856,0.0406584994,0.3135062584,-0.1221468266,-0.0197974094,0.3039211743,0.2419846601,-0.1051893088,-0.0161586928,-0.0052242367,-0.2697265746,0.0420962427,0.0293234517,-0.0699833766,0.515320684,0.0104546182,-0.0350517501,0.316599249,0.2013377766,-0.2737092728,0.0634632289,0.0768180922,0.0511314424,-0.1755480972,0.016636878,-0.1224317751,-0.0569471541,0.0659675873,-0.1323620468,0.1070651244,-0.2442061148,-0.1818136978,-0.1334989838,0.0753830774,-0.038173889,-0.4495091379,-0.3137143412,-0.0279258372,0.1235688408,0.1804510932,0.3621460712,-0.0248285522,0.0642616479,-0.5513316962,0.0531379566,0.0057097974,0.2071582564,-0.0620076278,0.0028226844,0.1528772262,-0.3140248942,-0.085964948,-0.215678258,0.1116472212,-0.0929767957,-0.1266299166,-0.1367779922,0.0459422031,0.0734194479,0.258747412,-0.4001524894,0.2882182159,0.0577198072,0.0257391183,0.2472925241,-0.0382427389,-0.0215976729,0.1374010774,-0.3166918299,-0.2931019931,0.1595858784,-0.5002587647,-0.2364796479,0.5474560297,0.2124285317,-0.015429513,0.5327871075,-0.0091106585,-0.0305940966,0.0093362388,0.0485600434,-0.364426733,-0.1690159899,0.3841177519,-0.0616954964,0.0029231291,0.924982749,0.1865588216,-0.1663486718,-0.0289867185,0.2221040007,0.0349702041,0.3434820139,-0.0653100321,0.2382513237,0.2783461583,0.0280494369,-0.3764593942,-0.0126104144,0.0154696523,-0.3197327372,0.2244765047,-0.3490945346,-0.0038033127,-0.0539184806,0.0188390101,0.1368186602,0.111849897,0.0065240421,0.0235100766,-0.0109878613,0.0402617023,-0.1993002217,-0.1198186358,0.1137494943,-0.1013265981,-0.4108665631,-0.2886288491,-0.0815524883,0.144058529,0.1303682801,0.2692951591,-0.1097819238,-0.0716109939,0.1932515444,-0.0468216087,0.3374687616,-0.1884302142,0.4878394451,0.1342178415,-0.2751077324,0.0779573441,0.0248772902,-0.0397499757,-0.1521699817,0.370959588,-0.1763627255,0.0153958244,0.1959476327,-0.178299749,0.5440863697,-0.2447244158,-0.0910852875,-0.1247329513,-0.0803522235,0.0661654436,0.1680811496,0.240874148,0.1878406937,0.0695335863,0.2154317986,0.1165304085,0.0206167059,-0.1209161799,-0.2676895894,-0.0830840804,-0.356261698,0.5229881345,-0.4029950058,-0.0500062979,0.1307059022,-0.0592285361,0.2253485698,0.0787322229,0.0460011894,-0.0454508233,-0.0059409428,0.0080984791,0.2729696536,0.1145603118,0.0413159121,0.0982777826,-0.2493449227,-0.0458527938,-0.1331351096,0.1298813959,0.021319332,0.1825303584,0.1799796483,-0.059815497,-0.1685984842,-0.5520780058,-0.2627962177,0.1513369367,0.3349500045,-0.1830414122,-0.1225704405,0.5659948721,0.3058999358,0.0140082302,0.1142206854,0.2625013508,-0.142261009,0.0541082012,-0.0089881908,-0.0532056517,-0.1454466915,0.0992131126,-0.0029797876,-0.100703574,0.0624878057,0.0010391521,-0.1049267456,-0.2277289109,0.254763547,-0.3000384328,-0.0775807382,0.0446207861,0.2422322763,0.1856325659,0.1399103223,-0.2079202952,0.0440735267,-0.1214414709,0.1393878037,-0.0164306941,0.1439085036,-0.0079854988,0.1976037187,-0.0192164496,-0.1408588583,-0.0748900386,-0.0010162495,0.0050862999,-0.2854469357,0.1029993202,0.0466921719,-0.1863702939,-0.0047058799,-0.1744917514,-0.0860266499,-0.0230037675,0.0428067171,-0.0870991443,0.1120712915,-0.0080235265,-0.1762460227,-0.1182814143,0.2242526849,0.1421947069,-0.1070649102,0.1544096246,0.1993881813,0.0123974196,0.2119348331,0.3202314547,0.0357542797,0.1838720857,0.0751274194,-0.2532542015,-0.1825576454,0.1584715579,0.0359225115,-0.0101614891,0.0993845207,0.5669027629,-0.1638751098,-0.0151825835,0.2101693497,0.045759835,0.0910883998,-0.1972865354,0.1255432178,-0.2852260411,-0.0491757643,-0.1129829361,0.2304790269,0.0533208972,0.1905016276,-0.5490977605,0.0829359208,0.0901202572,-0.3908817907,0.1030902015,0.1443135372,0.1195295555,-0.0057878911,-0.15448587,-0.2620611146,0.1935077063,-0.0429915584,0.0625400915,-0.1131271724,-0.0425347532,-0.0311487772,0.0971384986,-0.8849401033,0.1133482044,-0.3211665551,0.0133877525,-0.0920285332,0.1832010727,-0.0435373101,-0.0271013666,-0.123508285,0.2277830536,0.208268655,-0.0560482975,-0.1605738511,-0.3066672334,-0.4055766196,0.0672082845,0.1629929475,0.3309910989,0.030964988,0.2477773672,0.0429232158,0.7621993047,0.0610233703,-0.4380833309,0.3049376123,0.3176424999,-1.0193930341,0.1379885598,0.0345359833,-0.2341183048,0.0914886623,-0.0910920689,0.0509699132,-0.0959570278,-0.193938887,0.2316702857,-0.231107185,0.4569414342,-0.1971545947,0.0610550292,-0.4009916765,-0.0270765336,0.0375649829,0.3323587632,0.5101437769,0.3209909281,-0.140241559,0.277223275,0.2492816209,0.0549798477,0.17411749,0.1795899826,0.0030228438,-0.0731646116,-0.0399978077,0.3219627125,-0.385273126,-0.3171557032,-0.1014036635,-0.0845916855,0.1502823061,0.3916672446,0.0255521269,0.0008971779,-0.1101518782,-0.114803683,-0.3318216245,-0.1596911,-0.3502673269,0.0258036693,-0.083767925,-0.2738570897,-0.1472399833,0.180724728,-0.279898835,0.0070933665,-0.2402042045,-0.1917527724,0.1999141203,0.0911529366,-0.0521796773,-0.1624031287,-0.3755326244,0.0226922379,-0.0722103606,0.1231510774,-0.2047660833,-0.0198854681,0.2953700942,0.4710872408,0.1120149348,0.3097630005,-0.2525232715,-0.0128133452,0.4170587627,-0.0944313648,-0.038539957,-0.1002977029,-0.218916607,-0.2839398036,-0.1719180113,0.3835952679,-0.0432491731,-0.0878072224,-0.061159412,0.1652111003,-0.1676107672,-0.2543507256,-0.635856771,0.2477259191,0.0301981911,0.2279456617,-0.2636845059,-0.0644661598,-0.2617032121,-0.4165580986,0.1942510325,0.1267802315,0.0855779119,-0.4016746445,0.3014688617,0.3163651198,0.4568752013,0.1879155149,-0.0296457501,-0.2617952477,0.0156876142,0.1067662767,-0.3406945878,-0.010824561,-0.0710327252,-0.2115011968,-0.230051959,0.2989210316,-0.070246707,0.2820321496,0.0439216776,0.2444280626,-0.017716964,0.0270803295,0.2332740483,0.2017502568,-0.0357713304,0.1016667041,0.1694142063,0.0553844411,0.062593092,0.0443850588,0.1457268965,-0.0226374785,-0.4011589026,-0.0856865587,-0.1678860134,-0.002892042,0.1527934221,0.2799235278,-0.1257431126,-0.0683283481,-0.7344503054,0.1773530287,0.0354970613,0.0254546416,-0.0071046057,-0.5937748004,0.4188636362,-0.3261120133,0.263709534,0.0568776546,0.1230635975,-0.1434062142,0.3383616098,0.2012965392,0.0052452721,0.2206056882,0.2288626673,0.123063094,-0.3686648753,0.2037390999,-0.0108305411,0.0819979037,-0.1494919659,0.002432971,-0.0842241425,-0.123455859,-0.1436187292,0.1794962636,-0.1715294526,0.0449219441,0.2048505905,0.359403998,-0.0082917376,0.866640274,0.0083470476,-0.0959985565,-0.2353879787,-0.0720570052,-0.525890004,-0.5226286809,0.1957612053,-0.0502548023,-0.2485981408,1.1354825763,-0.0097316394,-0.0233165335,-0.1973190914,0.7823258336,-0.2045423364,-0.1628742706,-0.4873763139,0.0395487699,0.5561820514,0.0061145208,-0.1488756164,-0.5080034774,0.0088450022,0.0380362799,-0.0452418138,-0.3929989296,-0.2305152606,0.0076932996,0.3513207995,0.2726833879,-0.1117212751,0.0275291428,-0.2907566922,-0.5684297816,0.1507688177,0.1481243413,0.0979089843,-0.5159132997,0.1231745806,-0.2267614232,0.1954650402,-0.2283115626,0.3246097281,0.1817004553,-0.3557930578,-0.2131772883,-0.203110176,0.2473420775,-0.4079684222,-0.397456769,-0.0148880543,0.1117213687,0.0125330886,-0.2685109793,0.1226085716,-0.0000713174,-0.1517141184,-0.1631328147,0.1052323339,-0.2296613191,-0.3240736951,0.1064215098,0.0127516972,0.1428762356,-0.1463161653,0.1549774096,-0.5102335495,-0.0508776463,-0.400037954,0.2996747637,0.1544264309,-0.2325567175,0.1307358629,-0.3102030726,0.1420552922,0.0343879241,-0.1451181715,0.157956836,0.1613166388,-0.4220929216,0.1279345286,0.1471014271,-0.2370724731,0.0090098467,-0.1002699218,-0.0508734376,-0.2931367009,0.088754864,-0.2466645963,-0.1182828736,-0.0743802987,-0.0619383121,0.2389725242,-0.0188689014,-0.0637080628,0.0193891617,0.2438849117,-0.1502937944,0.2885069198,0.2106353917,0.103705356,0.1123478129,0.270268443,-0.1233376374,-0.2382227737,-0.0300060904,0.0285806213,0.2401784593,0.1969915042,0.1209083929,-0.2363111866,-0.2487961441,-0.027157159,0.1503961658,0.3648565438,-0.0308983857,-0.2360559465,-0.2103187942,-0.0772687523,-0.1232126199,-0.0425326389,0.2859310011,-0.0211413263,0.3077675404,0.2317476202,-0.1901342531,-0.2348938306,0.0436729538,-0.0545857129,-0.222528474,-0.0497942889,0.6698418301,-0.2942724256,0.268231,0.3762276142,0.0804272716,0.1890716338,0.0576192946,-0.3821021639,-0.0684038378,-0.1762869737,-0.2808368719,-0.3183931615,-0.1730594196,-0.3353246775,0.0930177093,0.0905555158,0.1240708679,0.145458916,0.074767498,-0.4235065112,0.3286315372,0.1572053436,-0.0261053853,0.0020230095,0.0908345439,0.0316707618,0.0546357305,0.5244973359,-0.089369532,0.0249686413,0.4849194876,0.1566595385,-0.206888014,0.1042985394,-0.1717827889,-0.5217859685,0.0407518062,0.1266345659,0.0023234075,0.1183204409,0.3055993972,0.1358877758,-0.0229427197,0.3285114167,0.1361238363,0.0729629362,0.0023200118,0.1645959222,-0.4116229162,-0.2497613792,-0.1629180165,0.0863388576,0.0655962508,-0.1205240652,0.304394353,0.1728678648,0.0229551886,-0.0629301402,-0.0264422948,-0.184555504,-0.1953656913,0.1065167419,-0.18609297,-0.1504797148,0.4872774209,0.1438871843,0.278812183,-0.1620869087,-0.12980297,-0.1409245612,-0.16518004,0.1420658911,-0.0833010565,-0.177815771,-0.3742907248,-0.0990166561,0.0306196842,0.2838783255,-0.1793957047,-0.1477360541,-0.5383493218,-0.0295963064,-0.217246368,0.465712069,0.2178019174,0.2513549661,0.0915294986,0.0678933596,-0.0048728587,0.5848801768,-0.1430812286,-0.5943403816,-0.3802608297,0.0963305002,0.0727478227,0.0632677162,0.1449823133,-0.101069238,-0.2323645257,0.0200191738,0.0394277198,0.0979347169,0.2123880667,0.0718621699,0.2390008997,-0.0744044562,-0.1283008202,-0.0577477547,-0.2302991467,0.2516744072,0.0457660151,0.218158533,-0.0140164709,-0.115264042,0.6589109044,-0.4662218295,0.036947059,0.1811794729,-0.3167540867,0.1732022297,0.1817144633,-0.1989351916,-0.0725632052,-0.0652180686,-0.0783996892,-0.0218202165,0.0295918887,-0.2298316655,-0.0372544601,0.4642689384,0.1197466385,0.189924099,0.1578990494,-0.2075173303,0.0785143507,-0.0766636832,0.1173779318,0.3874248208,-0.0497178862,0.0515110034,0.350625991,0.0998803629,-0.0458816971,0.2751559093,0.2382210479,0.3280849464,0.0659449903,0.0227159447,-0.0985194014,0.2295566908,0.247524858,-0.0054560058,0.3623381399,-0.203008801,-0.0344130649,-0.2661986122,-0.0626604101,-0.0777252939,-0.0652468939,0.0063772278,0.2057298811,0.1126615933,0.3988513155,0.1050992337,-0.1335820443,0.1509335476,-0.0206635103,0.1798434388,-0.0154503658,0.0352394027,0.4652690341,-0.1046373104,-0.2246214333,0.0180863411,-0.0520783631,0.2364416318,0.0536546842,0.4233600858,0.2434042471,-0.1664234565,0.2108874857,-0.0273466877,0.1997914109,-0.3199337508,-0.1479422802,-0.1161508335,-0.5004435198,-0.1432962638,-0.1476322455,-0.0678063609,0.0318712091,0.230205258,0.0820924529,0.1717562889,-0.3630283117,0.5673486323,-0.0897137371,0.0173827075,0.0989124729,-0.0602313772,-0.2684768078,-0.1484509373,-0.3208712477,0.1825248524,0.3106304496,-0.0594379696,0.2494351345,-0.2016078641,-0.089657696,0.2050132743,-0.1746685864,-0.2673991194,-0.379016077,0.0314871267,0.0035251469,-0.2143018727,-0.048545013,-0.2132034452,0.0402975057,-0.0419113518,0.1926744071,0.1372930538,-0.1907028375,0.1347258117,-0.0901989621,0.0824201811,-0.237134438,-0.396871227,-0.1769832716,-0.0634013612,0.1115451647,-0.0547858997,-0.2014481635,-0.1149261337,-0.3137078955,-0.1672729705,-0.8453293136,-0.3399555409,0.0724097731,0.2952938264,-0.0453348562,0.3455194512,-0.3097431261,-0.2284289054,-0.1949831906,0.0473980365,-0.0532896955,0.1683120035,-0.092486472,0.1901090223,-0.501235483,-0.2103781083,-0.1894809905,-0.1060768067,0.6201727739,-0.2959680127,-0.0048364958,-0.0778816263,-0.0108859629,-0.1163674836,0.0048322567,0.1124120589,-0.3007538894,-0.1591447339,-0.1480694058,0.0451510059,-0.1199620098,-0.2542219933,0.0650937431,0.0898526915,-0.2115871479,-0.0952300371,0.0848289898,0.0130398787,-0.4492833184,0.3476651683,0.1718193831,-0.0163531708,0.1172508043,-0.0067308797,-0.0258166674,0.0992116812,-0.2458457594,-0.0928299105,0.1659318961,0.0018028565,0.2208899864,-0.0690552094,-0.2428656529,0.0216875441,0.2175468317,0.1104892107,-0.0987308917,-0.1183066922,-0.0544720374,0.0001119223,-0.0870179186,0.1191219495,-0.0354934146,-0.3428950341,0.1310746361,0.2906131648,-0.3484342639,0.201699768,0.2135697634,-0.062777403,0.1642368865,-0.2972645961,-0.2798618958,0.0500258212,0.0327200018,0.2668064751,-0.1964288699,-0.2868904919,0.1167563583,0.2284419745,0.3095713059,-0.2365905549,0.154740843,-0.0606876697,0.1466172983,0.0349774768,0.0028180991,0.2851503965,-0.3526988449,-0.0337525843,-0.0556720106,0.1416782114,-0.0553085552,0.0830541237,0.4030923355,-0.0972424224,0.1069660875,-0.1170147261,-0.3966322515,-0.1249756191,0.3812227651,0.1381957172,0.1313765782,0.5361652441,0.0682851338,-0.0297979274,-0.3097592585,-0.2657056357,-0.135453068,-0.1076648238,0.3348226902,0.0227179425,-0.0190300591,0.0659145773,-0.0034119291,-0.0451638083,0.0895677053,0.2138976608,0.0557019026,-0.0101870089,0.219316203,-0.090686706,0.2387971479,-0.0018182802,0.0271111083,0.0965890874,-0.410743612,-0.0270254807,0.255928569,0.1190559299,-0.0011118455,-0.1290305248,0.1869773876,-0.0955694779,-0.2239800852,-0.4057456998,0.2029618555,0.0616564805,-0.1238067451,0.0137545226,-0.1570252333,-0.2290195672,-0.0511417999,-0.0219085015,0.1973770084,-0.2856024462,0.1149865469,0.0515842203,-0.1708252361,0.3561511223,-0.1022941094,-0.1510210925,0.0440806064,0.0964431225,-0.051727176,-0.1566142623,-0.2676713917,-0.2865719445,-0.0731985849,-0.5125015903,0.0921015004,-0.15704011,0.3393506129,0.0352082253,-0.1017521385,0.2572320751,0.3278203072,-0.3497898159,-0.1767688602,0.1264827904,0.0338316566,-0.021590697,0.2382153219,-0.193827268,-0.000712863,-0.0800653769,0.0520142829,-0.4086007392,0.1871273314,0.0878331553,-0.2108091163,-0.0699595417,-0.3775641069,0.2526364302,0.0503597342,-0.2339999789,-0.1192220469,0.0441797641,-0.0975528243,0.2679954093,-0.1951292586,-0.1367686484,-0.2348947013,0.0100549817,-0.176953628,0.0019300259,-0.1153538955,0.1585538514,0.1382880139,0.1523352183,0.1608750612,0.0023830726,0.0565746215,-0.0681404079,0.0709746982,-0.3626587419,0.0737503409,0.0985936199,0.1246658624,-0.032936273,-0.0300718262,-0.0644112861,-0.1020559365,0.194494496,0.3498223612,-0.1231094427,-0.1275314677,-0.0448909841,0.020761448,-0.2467245156,0.1743942541,-0.0079466998,0.1283480971,-0.0515057686,-0.0692691148,0.0168373017,0.1066939727,-0.3117229141,-0.0575963682,-0.3083617051,-0.2541809498,-0.0758893512,0.1760927228,0.1095147841,0.1971908628,0.0699681239,0.054870516,0.1572245412,0.0423924291,0.3331843001,0.1783377545,0.211210453,-0.0548266665,-0.4666922166,-0.0550373336,0.0356251392,-0.0324388017,-0.0223272168,0.0993942202,-0.0416689323,0.25266784,0.2965726706,-0.2797694032,-0.167226182,0.2797261075,0.1165012,0.4102632372,0.0539934402,0.0274475561,-0.204856444,-0.1755682103,0.1180227802,-0.3454427443,0.106696411,0.1936532196,-0.2682892206,0.0011639289,0.0053426532,-0.2961826456,-0.476399689,-0.3633488389,0.0175700673,0.0881569374,-0.429249532,-0.1790578507,-0.1669957661,0.1240471147,0.1347096659,0.0161897189,0.4059869073,-0.2401098298,0.0070230871,-0.0003368638,0.4227495267,0.2045842137,0.0079128024,0.008107127,-0.0924897169,-0.2408310806,0.2168771893,0.1708446007,-0.3423179965,0.2323598664,-0.2251981976,-0.459279659,-0.2779545667,-0.0529544741,0.2812412278,-0.0107101771,-0.0635560073,-0.1855368706,-0.0352761386,-0.0424690429,0.0625431713,-0.115888047,0.3726619924,-0.2320096521,-0.1084414117,-0.11551437,0.0909514905,0.2670635838,-0.1971011117,-0.6647844414,0.097453606,0.0385482589,0.0295928524,-0.0542537293,0.5240648424,0.0108622272,0.0322183866,0.1082806642,-0.0393020522,0.0567096358,-0.025071447,-0.127236835,-0.0704859755,0.0185255679,0.3815770939,0.1395888747,0.1107618821,0.072607821,0.1300546838,-0.5018574141,-0.2386856766,-0.1410808758,0.2235852738,-0.0214828676,0.0784055579,-0.2897205772,-0.196834192,-0.1391955928,0.019439871,0.1954563887,-0.1068466273,0.0495405948,0.0588271566,0.0971469867,-0.2694244999,0.0067848521,0.0077432487,0.2175815648,0.9922704592,-0.1054772915,0.1404214153,0.0241193569,-0.0951659175,-0.1208605397,-0.0003634286,0.0967655031,-0.1197307311,-0.477337157,-0.0098916789,0.1164603376,0.164308577,-0.0739914925,-0.2074497587,-0.0700516972,-0.0314607895,0.0255948402,0.3180322717,0.0170568643,0.1342607579,0.1926364503,0.401217939,-0.0009151495,0.1873243213,-0.1342312593,0.0055615235,0.0395682033,0.0827637056,-0.049914263,-0.0863106471,0.1211260919,-0.0869067737,-0.1271345296,0.1739691774,-0.0405063115,0.1008290361,-0.1484051306,-0.0439784243,0.2586916905,0.0669991237,0.0070817635,0.2714107725,-0.2169652828,0.0373260064,0.0452862774,0.1543708428,0.0502161182,0.1734151607,0.0932264512,0.4693268462,0.0343722378,0.0010619237,0.1263558765,-0.1621148797,0.3238300452,-0.0573286569,-0.1260135952,-0.1135026109,-0.0678911087,0.2411586431,-0.0776069349,-0.1920421236,-0.1140838684,-0.1129677596,-0.0760903407,0.0337148903,0.2916029019,-0.0262583555,0.0251754269,-0.1404473615,0.2205807796,0.0789341755,-0.050034728,0.2614911756,-0.3714266698,0.0477290226,0.1417784439,-0.2673190076,-0.2224849996,0.7301314839,0.1897283382,-0.0127616154,-0.2024354779,-0.0541018778,-0.0613702718,0.1415401507,0.0596413236,0.7554143051,0.0960936751,0.1627023653,-0.1863186298,0.0417035757,-0.260826174,0.2405934109,-0.2249338978,-0.0030245953,-0.3146363981,-0.0021295659,0.6326456323,0.0935535471,0.0505346707,-0.0330595764,0.0093594845,-0.3274432793,0.1384867882,-0.140214275,-0.3979256732,0.1658828974,0.2870857449,0.1080131422,0.0288061157,-0.0031465981,-0.026914816,0.0174626987,0.0479262989,0.1981888263,0.0769727653,-0.1804540051,-0.3638043828,-0.1667272848,0.298260097,-0.2008306261,-0.1132855857,-0.0013592949,0.0291626122,0.0684795075,-0.0652179106,0.3017456689,0.0540283437,0.0708669054,-0.0772522881,0.0537564663,0.2621095645,-0.0501847352,-0.052207675,0.1656315243,-0.0278628318,0.0393360116,-0.0016388892,0.1624708482,-0.1315479093,0.2548018998,-0.0241654027,-0.5504530166,0.0961986853,-0.0968525802,0.3702863846,0.0079283933,-0.2561770913,0.201163878,0.0583950064,0.0098123392,-0.461615636,-0.0060121771,0.0657870774,-0.2189227417,0.1833381053,0.3847432426,0.1156446279,-0.2026518763,-0.1277559991,0.0229108862,-0.0599062737,0.3923188564,-0.2485726213,0.0903067211,0.0194876123,0.038390693,0.3974396336,0.0398737419,-0.0674969832,0.1794417146,-0.2634293636,-0.0616742569,0.2272844259,0.0460338825,0.1345674239,0.0433263557,-0.1385978317,-0.2777112292,0.0172956938,-0.1916473792,-0.0757211216,0.042628108,0.1118101973,-0.1406903412,-0.2026925095,-0.0964011993,-0.2037357112,-0.1077756302,0.0181801245,-0.0653057676,0.0110849875,0.3535051543,0.1842033105,-0.0273172398,-0.2256345577,-0.064211548,-0.0589265414,0.1989346124,0.0272845421,0.0618958632,-0.1081836099,0.1314462852,-0.0765235038,-0.2178193374,0.0396021789,0.0239698473,1.0321360426,-0.3789088937,0.2243560384,-0.2400598619,0.2015025601,0.2052689398,-0.2369679429,0.1601649263,-0.4328702356,-0.2492971792,-0.1653000879,-0.0409945416,0.2012582514,-0.0095207353,-0.0336408629,0.2063073808,0.1606175952,0.0902845979,0.0588534083,-0.064235799,-0.2370513244,-0.0994739934,-0.1757369397,-0.0162351927,0.0858471454,-0.1130099249,-0.5928708178,-0.2053929688,0.0884322158,0.164265624,-0.0677714259,0.0673592916,-0.0025408008,-0.1969466603,-0.1357847679,0.0212259252,0.3083652437,-0.1192043434,0.0845617652,0.0655315971,0.0558437047,0.2042603016,-0.0548767662,0.4498381604,0.1053949214,-0.031948993,-0.2574227559,-0.406216592,0.0835044011,-0.6061846593,0.0215890075,0.0730301438,0.1912826864,0.3093810179,-0.0328802818,0.1125395913,0.1872763714,0.0483184927,-0.0100844199,-0.0273674227,-0.0130006082,-0.0818066629,-0.0215617948,0.1291328386,0.0259205101,-0.0438126212,0.2917830329,-0.2380231574,0.2329748354,0.0545869471,-0.351094446,-0.0975840668,-0.2048868874,0.2004904559,0.0651665126,0.0113742231,-0.0750239381,0.2195481676,-0.1065678349,0.1951827433,0.2426959828,0.0262216084,-0.0076491792,0.001589102,-0.2275325822,0.0966896987,0.1465045856,0.0927286475,-0.1594222774,-0.1471989791,-0.0743213417,-0.072925666,-0.0100129644,0.0677335517,0.088208755,-0.0106447316,0.1271233063,0.0082859868,0.0546904785,0.0795951345,-0.032526929,0.2315211518,-0.0088694427,0.3073963595,0.0350731642,0.4701953812,0.0612593167,-0.3072426292,-0.0361159444,0.3380383859,-0.4747185094,1.0068535692,-0.1710111434,0.7513216006,0.927138559,-0.9896704646,-0.1327367731,0.7531371352,-0.8439209975,0.2746143408,-0.2153653585,0.0586828213,0.7406094765,-0.9677637159,-0.9998162933,0.1786698184,-0.820348419,0.7955514049,-0.4359029179,0.1783170605,0.0039726774,0.2682041989,0.6706334713,0.8961982821,0.0774889633,0.3969979334,-0.08580405,0.2359250694,0.5108887748,0.0289837504,0.0479015308,-0.813557221,0.1289323156,0.1620899272,0.8920910659,0.5914198726,-0.3039470659,-0.2490912521,0.0063485966,0.1411025734,-0.7140132538,0.2280822473,0.0446554689,-0.1854383494,0.5086184175,-0.3065388906,0.8348987631,-0.7243843903,-0.6542369273,-0.2283068423,0.5920902591,-0.9082085105,0.6263801995,-0.8934298877,0.8172967403,0.330701889,0.2876401779,-0.2295752916,-0.0032271986,-0.9114234354,0.1060332616,-0.5065826037,0.8529273119,0.0740364424,-0.8864933336,-0.3720799312,0.1745885284,0.0056394533,0.048535954,-0.4542222428,-0.4431561147,0.5677268405,0.3295946445,-0.8520659042,0.0127942455,-0.529668287,-0.816628267,-0.0632264159,0.0563342911,-0.7297570424,0.2863953348,0.8739520205,-0.78824517,0.838849871,-0.0439183621,0.917387736,-0.9680281291,-0.9794327552,-0.2277959976,-0.7587801021,-0.6522987861,-0.3204571445,-0.9208957802,-0.3489701101,0.0337275585,-0.8884082051,-0.7737356368,0.9703060555,0.9847071315,0.6868373685,0.1124618851,-0.2639533358,0.9168383922,-0.4417025361,-0.8709296552,0.6555089898,0.6589139588,-0.7370685103,0.8358037519,0.8970501417,-0.2678491617,-0.9326116305,0.2102063698,0.8729750544,-1.0065915682,-0.0935241371,-0.9393202667,-0.4724803832,-0.2852204594,0.3006853584,0.6676362296,0.0864434368,0.312859611,0.8549772342,0.8687158909,0.8966187264,0.5393629568,0.9663742204,-0.8082543041,-0.0847968558,0.0501595304,0.8115363719,0.71968829,-0.166274879,-0.561297866,-0.142185787,-0.3007906454,0.9564811714,0.604415251,0.8714048653,-0.2431485979,-0.4397061385,0.9308679237,-0.3505154802,-0.8329108387,-0.4901690847,0.2253058421,0.3563737985,0.7908479081,0.2160855403,-0.7254196545,-0.8552868117,-0.5025596476,0.1689582129,0.4805615917,0.3572071585,0.3307326323,-0.6819001634,0.1038499731,0.8603924955,-0.5031350168,-0.8997310518,-1.0019976262,0.9645014961,-0.1063587443,-0.1529794366,-0.0053088455,0.6874327022,-0.5620307165,0.4636589208,0.1434546407,0.7213645342,-0.8735773145,-0.621903367,0.3984983305,0.6851866236,-0.8081654731,-0.0376973875,0.0984720295,-0.632678692,0.5818090458,-0.0569240843,0.3662218959,0.5210375294,-0.2003394627,0.1977573606,-0.4425347374,0.8876875882,0.101407202,0.4324351619,0.6764729249,0.0762931389,0.5090988272,-0.7564747201,0.770573848,-0.6681967606,0.4687554286,0.7028099751,0.6219881709,0.4952998673,-0.7433673938,-0.2343041509,-0.9442219739,-0.2007192,0.2998739627,-0.3262757522,-0.2816747747,-0.5062533007,0.2174083864,-0.3369235994,-0.4167010521,-0.9910559928,-0.8442657537,0.0843139356,-0.4778143582,0.8209615628,0.1910033489,-0.358214554,0.5957978308,0.4005691213,0.7461869627,-0.5104144336,0.0462639074,-0.9842620961,-0.4748097326,0.5533796626,0.0984409256,0.7967303384,-0.0572561233,0.5593850723,0.1717161231,-0.193637526,0.9703473399,0.8223767153,-0.7982715926,0.1219237956,-0.0381838288,0.4757862921,0.567476304,0.835142835,-0.7002672447,-0.0377103263,-0.9375564643,0.4850257038,-0.7322057891,-0.464929962,-0.7833126113,-0.9549787887,0.668817819,0.3995479467,0.0759092386,0.7770104232,-0.8832494336,-0.0800408692,-0.711520411,-0.6271119101,0.9437103096,0.9329615335,-0.2831441905,-0.7901422051,0.7503727159,-0.811531562,0.682576331,-0.2042115741,-0.1959397641,0.8634925044,-0.3950347212,-0.8480170537,-0.1421910065,-0.117552245,-0.0984024385,0.4017622833,0.0384275008,0.6387206702,-0.7033899608,-0.3330859227,-0.3842441809,0.0327263678,-0.8835825411,-0.5975818479,-0.1055253024,0.3697091564,-0.4748590452,-0.990229149,-0.4314203078,-0.3996634987,0.3263729332,-0.610329732,-0.2440008883,1.0238142965,-0.2675479691,0.1483628164,-0.9021346147,-0.9519353968,0.7156431002,-0.3446857786,0.1381478184,-0.1769411545,0.5357244156,0.563834822,-0.8956675766,-0.7028549609,0.6191827803,-0.39059899,-0.1053364212,-0.9928267605,-0.3382578801,-0.7898897865,0.067336748,0.1999856476,0.7953190083,-0.7637750858,-0.5648954645,0.2223360484,0.3836994081,1.00068595,-0.3714882914,0.2804690002,-0.2456239263,0.1152774513,-0.7354654579,0.1811355031,0.2433540986,-0.6575775588,-0.4118252363,-0.8642890208,0.3614549239,-0.4953008883,0.5466044051,-0.7244355946,-0.39443523,-0.7561318614,0.1916916871,-0.964435381,0.7879163394,-0.8052737178,-0.1927170171,0.8273020952,0.5987106559,0.8694019543,0.3207560258,0.2718614347,0.3633138676,0.4766505164,-0.9016996208,-0.1889562168,-0.2825486868,-0.7663998817,-0.0463903389,0.4549286155,0.4112530279,-0.9871431209,0.569720256,1.016536906,-0.2675855035,-0.2058258426,0.6096479419,0.8361839606,-0.5727351986,0.1483319121,-0.3451460273,0.2273362843,0.2744101664,-0.1236386472,-0.2221476614,0.9968781242,-0.1389421368,-0.9424645909,-0.1294450972,-0.0381992009,-0.1688119292,-0.2277656491,-0.1533905144,-0.4353934658,-0.4205261287,-0.6535797608,0.6688915799,-0.4291239258,0.6575064194,-0.1138580467,-0.205936451,0.1274861796,-0.8661656127,0.9360412539,-0.5204323866,-0.7141547349,-0.2153010701,-0.849936352,-0.1979331291,0.4515595051,0.478672264,-0.6057399635,0.1286178919,-0.9655995395,-0.2792518661,0.3358909563,-0.7824215793,0.7045108521,-0.7261408109,0.5681358217,0.4961509431,-0.1775170959,0.3744449159,0.0491788994,0.5182372146,-0.0365874259,-0.6117482493,-0.1897638856,-0.9596828211,0.3305674421,-0.7227600967,0.905877158,-0.3206680885,0.0636635892,-0.5209703098,0.7079635876,0.8148032674,0.5559658301,-0.1431082862,-0.3408169344,-0.3398814709,0.4267130326,-0.4479641485,-0.1380172915,-0.3586452501,0.0431943893,-0.0892304935,-0.0838538185,0.0257683826,0.0962849966,0.471536464,-0.4975515439,0.9789506533,-0.5492799747,0.6144723767,0.2669514416,-0.1212767038,-0.139097316,-0.638609597,-0.8944934471,0.3215469273,-0.3710138698,-0.2484935364,0.7259504446,-0.6043492684,-0.5741976776,0.2657885959,0.3853887763,-0.058643439,0.2552435799,-0.4602576794,-0.1573427005,-0.7228982183,0.795807838,0.1618770058,0.454527699,0.8795965368,-0.3553946214,-0.9504073918,-0.5638702269,0.1865817015,-0.0629735422,-0.7539361273,0.6332643064,-0.5556056358,-0.9409303237,-0.3591624887,-0.3346074877,-0.0545215271,-0.6546802248,0.4832498549,1.0030237712,0.1270699563,-0.1188407949,0.141221928,0.2820010763,0.1346711852,0.8739016655,-0.74326688,-0.1844087594,0.4049571139,-0.0203150508,0.1005145838,-0.7388637597,-0.2115087512,0.466552481,0.7849554603,-0.2053478051
   -0.6764510211,0.9843639062,0.8866872858,-0.5206655139,0.563268391,-0.8133297634,0.0741779694,0.8124588007,0.2425953492,0.4283183796,0.1095549805,-0.1506575272,0.3565071479,1.0455721227,-0.8001465438,-0.9608327493,-0.50039169,0.1244472518,-0.7788125628,-0.1334442776,-0.587024125,0.4672415484,-0.8902749712,0.517158,0.5041181259,-0.3558534016,-0.5286995571,-0.6980929849,-0.4541214183,0.7901551418,-0.4800596109,0.7242599699,0.1782588108,0.5956608399,0.7449224378,-0.8358372125,0.1511758915,0.8531849069,-0.6537649971,0.0967276401,-0.2626265162,0.8491464149,0.4374101499,-0.0404918843,-0.862904545,0.4220480973,-0.0101371885,0.1904681732,-0.4901198568,0.712431161,-0.7334732863,0.051553174,-0.1800888695,0.1382762289,0.6172878786,0.5485371746,-0.8211947722,-0.1337198607,0.1457543469,0.547554313,0.8371211325,-0.4070239766,0.4674958021,0.3333546325,-0.022242344,-0.7499724285,0.9003470105,0.2904820012,0.2249036394,0.3397973298,0.1691142968,0.9255155866,-0.8757952586,-0.6685620365,-0.6736695254,0.2107617824,0.6182462737,0.8560346289,-0.8390390365,-0.8863494071,-0.8348821095,-0.6466534055,-0.0795632223,-0.3161348984,-0.4596504123,-0.8546447214,0.1601030413,0.8035075349,-0.8713082124,-0.776504469,-0.4120221456,-0.829697569,0.4494180935,0.0087339838,0.3474773061,0.9530229677,0.6578438792,0.0946913395,0.2842892176,0.3154822932,0.7797461857,-0.939049444,0.2391687293,0.5211562807,0.3757791992,0.8849228639,0.8217015953,-0.8799517355,-0.4055257043,0.3093295087,0.3771171865,0.2301346343,-0.7059985081,-0.2043865141,-0.9502632264,0.9877089593,0.7850252118,-0.936814396,0.91752595,0.2104900798,0.0486078125,0.7240486013,-0.1040305926,-0.2702035027,0.5111279935,-0.6315055769,0.2714037526,0.8426021395,-0.2716418232,-0.1676872643,-0.4522007704,0.7802975171,-0.4155536451,-0.8063897296,-0.5052043619,-0.6129763026,0.2973400697,0.4138063174,-0.7154608084,-0.8934611754,0.91203312,0.5117465599,0.6944122084,0.5108245615,0.0212858918,0.9578842794,-0.3373761301,-0.9192259512,-0.3855900687,0.5539372516,0.182649515,0.8666896014,0.0627986249,-0.877818993,-0.1252747668,-0.1748366578,0.6941228623,0.9379366314,0.1563896669,0.802858737,-0.0966588188,-0.0188951517,0.7781702457,-0.532196734,0.3928017581,-0.2318911327,0.8175688441,0.1564742683,0.7849708327,0.7282066885,0.0536148432,-0.1376811785,0.4072635773,-0.9785695411,-0.6961794729,-1.0075551482,-0.7953022173,-0.1427623816,-0.0232499047,0.2832999783,0.6658172677,-0.509380923,-0.092513233,-0.9113427235,-0.4401089495,0.3744656365,0.7953230345,-0.3702082534,-0.2712677501,-0.2335470486,0.992786694,0.9087561889,0.2523646885,-0.4095080307,0.771196938,-0.1528798217,-0.4298687493,-0.5184972853,-0.9002576326,0.9574178159,0.1199472545,-0.2366438729,-0.7034117027,0.6953641921,-0.5719518384,0.8288004828,-0.7512587196,-0.3120226085,0.6906854271,0.9486339015,0.0411530794,-0.5003697729,0.069129045,0.7021685734,-0.6520709412,-0.3387282226,0.1263279348,0.2729668176,0.6078980724,0.8136961674,-0.0742753146,-0.4281980146,-0.6970808434,-0.5937166627,-0.2121550382,0.5634963218,0.7691698954,-0.5054103238,-0.4298149181,0.3332027883,0.8399093639,-0.5133229056,-0.5674449974,-0.2819350132,0.0154093051,0.5505923778,0.1097559318,-0.2084477329,-0.0467376406,-0.1125234532,-0.1170873056,0.4513064453,-0.4082738307,-0.1225743038,-0.1044123947,0.5653327543,0.0910364929,-0.7607065838,-0.5033097303,0.780728821,-0.5429280561,-0.5227773081,0.8803001409,-0.4916864787,0.4285138078,0.7838499347,0.4264233083,-0.1625155361,0.682296914,-0.1029193201,0.0803201091,0.9381247887,0.3780805864,-0.8538966957,0.5078785956,0.5088037261,-0.9747404024,-0.7403371566,-0.3463392258,0.9405964048,0.0748619846,0.2524005942,-0.6475631953,0.1319468147,-0.2983172055,-0.7680177458,0.8790975166,0.1613771906,0.9285633293,0.9316870923,0.1190045551,-0.1116553533,0.8884218053,-0.5685783447,-0.7967487349,-0.7774830555,-0.5013490987,0.5279944058,-0.7450567177,0.4244587934,-0.3555531311,-1.0337329811,-0.7017024161,0.2009044506,0.9899234304,0.7218491042,-0.1916421567,0.352189701,0.0443906262,-0.4481364316,0.6598307126,0.4683829589,-0.4857066606,0.5536100675,0.2374594422,-0.1479013662,0.7104938521,0.0736317763,0.63252715,0.4652013196,-0.9970388753,0.1734604877,0.1459712729,-1.0418188693,0.57431617,0.7256497942,-0.024688399,-0.990473012,-0.3488516926,-0.0457236334,0.0176789097,0.3797021827,-0.929941357,-0.4885028413,-0.2157526197,-0.3077842136,0.0362325737,0.882237002,0.3859243163,-0.2155581043,-0.1788659326,-0.9338038033,-0.050671971,0.0709273661,-0.2864509238,-0.9462443924,-0.0159288694,0.957343456,-0.4811634531,-0.1035820801,-0.2223323644,0.3221672848,0.0555207772,0.7699644634,-0.091183992,0.8863222741,-0.8337251209,-0.4943314919,0.7005879336,0.1932946135,0.3894535902,-0.4522309428,0.0993453159,0.5593008963,-0.1292799365,-0.1586743283,0.8887097357,0.5745936492,0.8038071021,-0.4472645065,0.3955697289,-0.1547047577,0.0853567545,-0.836874522,0.4996587548,-0.5680903255,0.775137645,0.1408507741,-0.0879346654,0.8322864619,0.0027334121,-0.0014598595,-0.3706902044,-0.7949275333,0.3947095203,-0.2969186712,0.4394187187,0.7792639981,-0.5076738482,0.3633908456,0.2271421075,-0.6192911063,-0.1930922298,0.3342293355,-0.1086304652,0.0348630957,0.6055567107,0.067999566,0.1291822747,0.8375518498,0.7192059924,-0.301336412,-0.8400344067,-0.2887292641,0.903978052,-0.1668984906,-0.941202532,-0.2109514118,0.0863580037,0.688472961,0.3808360924,0.9423506257,-0.6838027236,0.6699896364,-0.5559909703,0.2210126054,-0.5495972298,0.7420019748,0.2822478802,0.298638046,0.564063122,-0.3494957535,0.1836688469,-0.0777597114,-0.2739863083,-0.1740400787,1.0234401531,0.9116451261,-0.1200847294,-0.522688361,-0.7612467265,0.5907942983,-0.3439591531,-0.6196138027,-0.9427367659,-0.7834838835,-0.2247903442,0.5532239495,-0.464837077,0.4576888576,0.2133818001,-0.6498735845,0.0232231673,0.3306683022,-0.1475202652,-0.4990320648,0.155958199,-0.9238339083,0.9479351811,0.961639603,1.0096293429,-0.8350898244,-0.8149846493,-0.0143868096,-0.9801147963,0.0330600181,0.2566193584,0.4918797823,0.696839555,0.8645144216,-0.7761945809,-0.6697189356,-0.856529946,-0.2066814154,0.1975497819,-0.6033296333,-0.2133971581,-0.0650266786,0.8810427505,-0.4509080874,0.961434917,0.620484674,-0.1810007549,0.7072732086,0.0494100096,0.7370083632,0.9111889442,0.7090451446,0.8979610674,0.5893237641,-0.1074929219,-0.6842707524,-0.5466804243,0.0052237317,-0.6658085783,0.461799667,-0.0593185991,0.2816075131,-0.1335994866,0.4820408085,0.7699180207,0.068035002,0.8555283094,-0.9158696483,-0.839270739,-0.2004264052,-0.5766993001,-0.1992106932,-0.6840209742,-0.8320245074,-0.9583270781,-0.4477039912,1.0390942788,0.8728288257,0.6373686583,-0.8606249616,-0.005381154,0.1062125599,0.8728418598,-0.145273871,0.1021385506,-0.4396472342,0.6097619869,0.2375284169,-0.0805527767,0.2441889664,-0.521242918,0.0061296954,-0.0987918039,-0.6678856111,-0.0083132729,0.3459902662,-0.1011053195,1.0659976832,-0.1775201662,-0.6852732728,0.5186583951,0.1148749569,0.1738658668,0.5642700545,-0.6385630268,-0.5483758106,0.0692217335,-0.7343864561,-0.6746672159,0.8933733103,0.2669512656,0.8238928109,0.7764721446,-0.7198433767,0.8563929652,-0.9533125594,0.4748569617,-0.4858003564,0.3995820783,0.323993492,0.6589292693,-0.4179859036,-0.8190403946,-0.4875387904,-0.8991697766,0.4427821735,0.8862875285,0.0695171559,-0.7710763535,-0.211511143,-0.2549296772,-0.6529720075,-0.2044998943,-0.5417598397,-0.4946769066,0.4072816399,-0.1195298988,-0.6916045574,1.0184872961,0.6817916766,0.1031469489,0.9868156518,-0.5038142997,0.0810446075,0.0751349487,-0.221110401,-0.5754736132,0.7040606465,0.7624316995,0.1329000051,0.1177803817,0.7979052442,-0.3730924184,-0.9097655891,0.3230036856,0.6010442073,-0.2319968759,-0.6066516226,-0.4751132856,-0.7166499539,0.5311884,-0.6175867177,0.3090628581,0.3937603118,-0.7295857955,-0.2298746697,0.4993582773,0.7668352744,0.8154667964,-0.2829539166,-0.3926393873,-0.1570516045,0.7532125583,0.1378894063,0.4310190197,0.9178892283,-0.1227069251,-0.2461131959,0.3085228637,0.4245384129,-0.8220191459,0.655144139,-0.3467521099,0.8150059979,0.0525770541,0.0003310289,0.5574804328,-0.507255083,0.9379467787,0.3535344361,0.7118442244,-0.8178034369,-0.6606326847,-0.900827558,0.502400496,1.0192059598,0.2224826244,0.0700858878,-0.7140641573,-0.2937578401,-0.7777483421,-0.2716351299,0.2333263083,0.9283893179,0.0779232979,-0.9573181393,-0.1682117933,0.7531601843,-0.2873644719,0.9393576016,-0.0485700169,-0.1281055916,0.80319026,-0.485642396,-0.8034971429,0.3162379721,-0.667109797,0.3318402476,0.804261158,-0.9623902837,-0.0659294139,0.323982271,-0.8465367615,-0.4380360208,-0.157951052,-0.7350923859,-0.4377538851,0.0579233529,-0.4316380463,-0.4090294396,0.1270645807,-0.6406199759,-0.5388593995,-0.4934404113,-0.4270798486,-0.3760125681,-0.9078611542,0.1275958386,-0.2755521488,0.8659820521,-0.4663925738,0.4147744536,-0.4202381982,0.1768202935,-0.2066119698,-0.399087199,-0.8343120972,0.4813740441,0.4080282107,-0.9148713308,-0.5488714085,0.5092304637,0.5440431642,0.0696102882,-0.9021800212,-0.7576454754,-0.7480372119,-0.5217907374,-0.2402896479,-0.4104187086,0.2314680521,-0.4104870011,0.9768213773,-0.7148534697,0.2158418323,-0.1770007769,-0.1429520471,0.0034633358,0.6063183225,0.4503430312,-0.9418475113,-0.3974383096,0.4631271965,1.0171108667,-0.9672095288,-0.1021070278,0.6360021278,-0.3259797379,0.1166862274,0.1019314065,0.2636622878,0.195146454,0.2172151532,0.6321068403,0.9126883394,0.9009322017,0.6751948586,0.5933663143,0.326976187,-0.6353817585,-0.5036335844,-0.1326234136,-0.587298822,0.4971328675,-0.57370192,-0.4693438115,0.9991077727,0.1437553767,-0.2727184853,0.198898053,0.5004760754,-0.3769984084,0.8477307611,-0.3678491503,0.5319782898,-0.6355217821,-0.4900176556,-0.1619697979,-0.3018215013,-0.7985274407,0.7128153234,-0.9220104529,0.7959446624,-0.221030242,0.1369367459,-0.4219470334,-0.6307566768,-0.6926628855,0.8775243488,-0.1322080526,-0.4811758213,0.281056437,0.4396475848,-0.5184457939,-0.8180490474,0.8771605229,-0.9422936039,-0.1512006639,-0.6284192431,0.3505055989,0.923894804,-0.087164543,0.7138070614,0.8768306779,-0.4589484351,-0.7010797856,-0.1571699604,-0.979643601,0.1526357603,0.3535405723,0.4193711258,-0.2877217854,0.3718327593,-0.3833619832,0.5728385858,-0.941619723,-0.1719101178,0.2916013072,0.4277322055,0.8308090984,0.1443719407,-0.8748946822,0.3853936949,0.8506610167,0.1051939454,0.9743483513,-0.9537859808,0.6592013234,-0.7784336889,0.693827654,0.6913380829,-0.2311019308,-0.5414961404,-0.9166572356,0.0217081077,-0.2450369096,0.8276999314,0.4816748019,-0.3004010473,-0.5022536228,0.3154755417,-0.7936960535,-0.4982499208,0.8474148003,1.0175824656,0.1187813498,0.5763533649,0.5731165753,-0.2034989674,0.4868764346,-0.6239728807,-0.5190355608,0.5881549325,-0.1925860194,-0.4443522111,-0.8018297707,0.278828883,-0.3383577249,0.4575251484,0.5946509942,0.297364093,0.9055370552,-0.9217717704,-0.4400011564,0.4410962296,-0.4519126434,0.2121543212,-0.8665227586,-0.7724007186,0.0539040835,-0.8878650628,0.0536196303,0.8305410529,0.617296963,-0.8139293161,-0.0192630987,-0.7690751551,-0.1067275954,-0.3128279002,0.6944248565,-0.9198359442,-0.3563306122,0.1463584201,-0.0506070872,-0.7495057401,0.0277819677,0.8366238093,-0.0293799958,-0.8467831848,-0.1777086421,-0.1041403017,-0.4585781505,-0.0000757146,-0.908340642,0.8966390232,0.4827936539,-0.8230571524,-0.1197562586,0.732766828,-0.1464800651,0.6869742032,0.4808284036,0.8583836177,-0.3493208835,-0.619077284,-0.9317813638,0.7049466459,-0.0844744654,0.918901027,0.2267995411,0.3503534071,0.8386270541,-0.3062590214,0.0124686095,0.3679685331,0.8858840124,-0.2277504814,0.3755437396,0.3544865326,-0.3803608808,0.9172758772,-0.82787349,0.5266509443,-0.0053050501,-0.8471541698,-0.0744100445,0.2821011622,0.3872721139,0.7543702457,0.8954042444,0.5725441048,0.5343808761,0.4151076194,-0.9389930108,0.4217361855,0.0823078235,0.183804284,-0.6543516947,-0.286838058,-0.401220477,0.0956926057,0.9546133912,-0.5825618289,0.1815881349,-0.6002114344,0.667466973,-0.1246215971,-0.4978335108,-0.4253555535,0.6824390536,-0.4371972969,-0.7034282114,-0.9467739292,-0.7206627184,0.9159530203,0.2966356579,0.4324088419,-0.1366917396,0.3948751453,0.1949808042,-0.8371817928,0.8505729589,0.8920322507,0.1500078003,0.9295715547,0.3079226514,-0.094729435,0.6286891347,0.7445250061,0.5845224274,-0.2377978835,0.4116385663,-0.1745595264,0.5234601164,-0.7520127591,0.7207814905,0.4411772934,-0.6384142553,-0.0188502859,-0.697885979,-0.7459413201,0.756928042,0.2952288261,0.6159980035,0.6825016937,-0.1463559608,-0.5439573668,0.596536398,-0.4704381935,-0.5560595684,-0.3928794183,0.7871684891,0.9409712582,-0.0593472297,-0.8440547095,-0.5706078047,0.8424057973,-0.2314975809,0.1335679566,-0.9205273004,0.148240745,0.8953885293,0.4597664367,-0.2951070422,-0.7516783941,0.2419749614,-0.1631799814,-0.2468505247,0.913482081,-0.781920607,-0.8099053681,0.1182553642,-0.0754636829,0.0500307411,-0.351402558,0.1993419931,-0.8608850016,0.7740319713,-0.4505051847,0.3584176299,-0.3606209525,0.9714473278,0.0029762585,-0.5974161985,0.7389935139,0.503282537,-0.1360073179,0.7928147199,-0.3107093084,0.7878695453,0.7958216303,0.6681723718,-0.728208896,0.3245638009,-0.3305200601,0.1096893968,0.6670059559,-0.5845857571,0.3410752845,0.8806065673,-0.0130085945,0.707698818,0.4507992986,0.8980536765,0.4410686859,0.1079931865,0.2746869911,0.2573296881,0.1360910983,-0.5689314144,0.1939475208,0.6003468409,-0.9304318362,-0.118712803,-0.7831497292,-0.8671921248,-0.2472679624,0.7172693022,-0.8828187799,-0.8890382109,0.1901430001,-0.6922472662,0.6612929908,-0.9205403077,0.7643833575,-0.7918042491,-0.783393517,0.2462343482,-0.3606270851,-0.5945694578,0.7316015882,0.753309304,0.8153339909,0.4957278094,-0.7710511956,0.4376159022,-0.6423248485,0.5831795702,-0.5144083787,-0.1196739693,-0.1515856333,0.4417568056,0.6188248173,0.4359384986,-0.8008408858,-0.4368369552,0.4854293846,0.4355691627,0.4072012502,-0.6134140819,0.7727397894,0.7489562398,-1.0070033411,0.8911720047,-0.1732758644,0.5170494131,-0.8214777034,0.2588219534,-0.7622815902,0.3070788322,-0.4991208678,-0.388359597,-0.5442026273,-0.7235495393,0.7587074405,-0.6681233166,-0.2442758812,0.0316966443,-0.6801527444,-0.8513614745,-0.4438560871,-0.1291842885,0.3900696101,-0.2814041911,-0.7815287429,-0.1405645569,-0.2903709557,-0.3465091892,0.4739127625,0.4837386795,0.498643557,0.1635902765,0.3457585419,0.0264088124,0.086014086,0.3680866722,0.6831342647,0.6136582912,0.5716674022,-0.4152439272,0.4321815697,0.3132735013,-0.725312038,0.2510994778,0.4298432135,0.4169238686,0.5472215489,-0.7742724129,-0.8835029386,-0.0209665337,-0.0333233981,0.5444526504,-0.3544790505,-0.6118202208,0.6983089827,0.1275317561,0.9367493343,-0.3224082276,0.6752239224,-0.312702847,0.2240368661,-0.7159865109,-0.2610112447,-0.8899504607,0.7456616675,-0.7166727066,0.4921662698,0.1915503006,0.7772933505,-0.9759291778,0.7220491424,-0.6282495229,0.5155350241,0.4115234498,-0.2028218708,0.6055959657,0.2629965222,0.9075406185,-0.8908029425,-0.039545799,0.8397164094,-0.6722603027,0.876904489,0.62489945,-0.8221639184,0.3123105,0.1471160013,0.0090201281,-0.8573125948,0.384426993,0.6040382711,0.3654453556,0.8912769169,0.2250450348,0.3846225693,0.0670888851,-0.254218362,-0.3047100576,0.0458737914,-0.5042159593,0.981523863,-1.018656443,0.8916385256,0.9091758011,-0.9338684148,-1.0019461414,0.2895670243,-1.0295153149,0.9919600735,0.5566431492,-0.4069546348,0.6059275909,0.2571340129,0.2997950715,0.7858883063,0.6497323271,0.4161412195,-0.6756482831,0.3241976502,0.4245039703,0.5782849579,-0.6737598371,-0.1101251508,-0.4029451119,-0.3459082468,0.5728750245,0.9760752859,-0.7950815073,0.0151931862,-0.5652573963,-0.3228487883,-0.8594094429,-0.5500523313,-0.5912548896,-0.0417614744,0.9621711879,-0.1235415365,-0.6006115659,-0.2749697137,0.4194165524,0.0507953135,0.1672830976,-0.8561035277,0.1719305662,-0.56891766,-0.406681721,0.1970318858,0.1489134409,-0.7463352262,0.6842717066,0.3388501307,0.7200105692,0.3543472903,-0.7790540644,0.4559973864,-0.1112223445,0.4338282,0.3841423196,0.3155813381,-0.2418246239,0.9179637023,0.368078546,0.61908495,0.8257279055,-0.6743522415,-0.090899078,-0.6759714879,-0.7526423084,-0.3457446681,-0.3305531162,0.6264597002,0.0027519065,-0.696394083,0.0684545163,-0.0144824857,0.085652962,0.6956520403,0.5240467971,-0.0709794067,-0.6428063838,0.9108853719,-0.2838099903,0.6749833874,0.6420094682,-0.1108947002,-0.1545690025,-0.0702597533,0.4262567826,-0.2597274712,0.8471998364,-0.2254824841,0.4661912363,0.8341223692,-0.831263203,0.7570865168,-0.9883746976,0.7043670547,0.6122136409,0.0425661701,-0.8952662474,-0.7253825754,0.0287536235,0.581659479,0.9317226306,0.1107623123,-0.8241128136,0.0690311845,-0.5866879216,0.3911144557,0.2228842073,-0.2928206785,-0.4149601702,-0.7668246931,0.4516810459,-0.813107146,0.6193987973,-0.9549126581,-0.1524229441,-0.9296702104,0.4362115846,0.7475793737,-0.6510199102,-0.3106855473,0.1224713848,-0.1036080258,-0.7630518607,-0.475729839,-0.7890019265,0.5904920691,0.9517460489,0.188285279,-0.7155253084,-0.1564173578,0.5048606247,0.0859158756,0.6890615796,-0.2088186696,0.2511904421,0.0728702644,0.9630046613,0.0583548995,-0.8636147345,-0.7115074803,-0.7075864121,0.5564913079,-0.8896481749,0.0742913927,-0.3827198159,-0.7599308983,0.2265274896,-0.1138595748,-0.8385525603,0.4204206344,-0.4045653854,0.8498947071,-0.9850415895,-0.1357214834,0.2008999941,0.0788171343,0.7249123895,-0.5767909104,0.6069536092,0.3875563934,0.7470730472,-0.1338902474,-0.5914901931,0.680010363,-0.5072751426,0.4987889597,0.3864043458,0.8556175135,-0.0984715561,-0.006436866,0.3997144577,0.3566906889,0.8590373478,0.0646568235,0.6361620974,0.5760812721,0.9863206153,0.7784082325,0.7519311526,-0.4830020443,0.9751507614,0.3833129437,0.2091854966,0.3204318499,0.1613789577,-0.5383094953,-0.695687387,-0.1543959114,-0.5735732548,-0.5450125973,-0.9881959701,-0.1170998266,0.5716205726,-0.463634481,0.69328583,0.2598989151,0.6941006643,-0.9717230788,-0.293988627,0.4706338233,-0.0932955454,-0.1136645319,-0.6203354056,0.4999666881,0.9739049545,0.8083937127,0.7546876978,0.993592794,-0.1433606871,0.3828300854,-0.3829914906,0.4692648902,-0.0187652778,0.0705554127,-0.9351754702,-0.9748007036,-0.4318518591,-0.0892428358,-0.3137270167,-0.144550603,-0.5479705615,-0.9239525715,0.8836286832,0.7138549214,0.1009486384,0.7158930398,0.8755321451,0.1310326986,-0.6165227356,-0.4576961169,-0.7662298428,-0.4539938795,0.7002959097,0.6841605038,-0.8220895759,-0.0591868893,-0.1221963073,0.4992280806,0.9065583327,0.4696323134,-0.8949843786,0.0225967186,0.4072859062,-0.1298387547,-0.1921538735,-0.409294532,-0.0543716683,-0.4385531753,-0.4007223925,0.7095813605,-0.7130835001,0.3093137045,0.0836846906,0.2108213981,0.6222494061,-0.2364058652,-0.014529734,0.6501806671,-0.6659947883,-0.9492499167,-0.9519475322,0.1660103639,-0.0398913081,-0.273747146,-0.2880570269,0.8475991223,0.5514438476,-0.3615689579,0.4606866096,-0.6966770095,-0.7904827948,0.2072280129,-0.1574431292,0.0616019426,0.8673394328,0.5991761118,-0.392687694,-0.1220209692,-0.1598679259,0.3718819907,-0.3230080866,-0.1226283465,-0.8513637181,0.3067850905,0.3941121196,-0.0766641916,1.0232848242,0.1483525475,-0.3383407981,-0.0359002574,0.9323016841,-0.8930243048,0.820203357,0.6267482909,-0.7545669452,-0.4843735109,0.7407386119,0.1077035118,0.8282831897,-0.0692038243,0.7144889997,-0.7590325248,0.7447719877,0.4874338274,-0.0461057805,-0.1217474943,-0.525966798,0.0680383445,0.0274067967,-0.3372600392,0.0132963943,-0.5802935018,0.0491563495,0.0041045218,-0.6463549063,-0.9063125185,-0.3225430647,0.5716506542,-0.3329664653,-0.5242477003,0.865860251,0.3270655214,-0.3682040203,0.3593135456,-0.5239246451,-0.7912399658,-0.9091709458,0.1981413962,0.5968650063,-0.5327324717,0.7110477737,0.4528697091,0.7150606001,0.812139555,0.3960671351,-0.295494223,-0.9807302735,0.8929048922,-0.3674588938,-0.0790974398,-0.7479057749,-0.321650321,0.2735228365,0.6983408198,0.4206584219,-0.2773178411,-0.9357911496,0.3605121241,-0.6332506694,-0.9936310001,-0.2866846098,-0.0140283803,-1.0001827324,-0.9942542425,0.3721743722,0.7799826397,-0.7085409166,0.9836182444,0.093822961,0.826594484,-0.7883536081,-0.8637652577,-0.9467125228,-0.0398703992,0.7458975568,-0.1940457041,-0.3417381669,-0.5496427396,0.2443585778,-0.7961039835,-0.4890038543,0.4430739759,0.1680098406,-0.3431656149,0.4523345907,0.0360592135,-0.465256756,-0.3512617433,0.6082188497,0.6037045209,-0.2495298368,-0.0371906661,0.8840724051,0.9557974107,-0.516947256,0.0742287021,0.5301973121,0.0239228566,-0.7503899716,-0.6937914731,-0.0798308022,0.8123675988,0.7772082899,0.0280908744,0.2226084261,-0.9362707961,-0.6635975852,-0.1265679746,-0.9046207705,0.3325976167,0.853069826,-0.1996015186,0.7079657232,0.1235014647,-0.5313625558,-0.7835963123,-0.5352035007,0.1775164936,-1.0032298708,-0.7896562818,0.2941261441,-1.0376868953,-0.5133734506,0.2396970774,0.9257002441,-0.3052529216,-0.3782278612,0.6672404416,-0.3800737274,-0.702413822,-0.4953780746,0.8799307385,0.0938022213,-1.0102014755,-0.9006911461,-0.8593241236,0.5241525127,0.9917130422,-0.3918394635,0.2161036567,0.635328137,-0.0895161987,-0.5083872706,0.9738318497,-0.7282741236,0.8703699585,-0.7700679586,-0.4409595766,0.0311636638,0.1601263033,-0.708254102,-0.5269031212,-0.4408008807,-0.996597407,0.8753685738,-0.7628387514,-0.8125378778,-0.6865022047,0.6318609972,0.7802735953,0.8365898269,-0.2882596057,-0.2209398899,0.1430638631,0.5027554692,0.0071170334,-0.3565368167,-0.537174673,-0.9920026288,-0.178803708,0.2132504323,-0.6647426886,-0.2629409705,0.6964571445,-0.1914551494,-0.2250846115,-0.7723907368,-0.347969318,-0.517115195,-0.1823530705,0.6707039336,0.4540647046,0.2968695479,-0.6838364571,-0.8349028784,-0.3412418008,-0.0884164472,0.4319557913,-0.2230425091,-0.6773831225,0.0352219803,-0.2837951378,0.6221181746,-0.2513189562,0.2400732676,-1.0129812283,0.7588031006,-0.9880815967,0.8374531983,0.4025661121,0.8698406238,-0.8339739866,0.523681637,0.1575520857,0.036901339,-0.0381752549,-0.5138927218,-0.8098778201,-0.1029029364,0.4614624024,0.2335078834,-0.7582313111,0.2073022121,0.2333590125,0.8960194612,-0.5025251778,0.7932975614,-0.7904207837,-0.3573434539,0.3494233442,0.8622391023,0.7861279804,0.543953162,-0.9970657311,0.334487578,-0.7203449028,0.9218826569,-0.8010379552,-0.0057821691,0.7381905221,-0.7140536985,-0.6231053905,-0.502589487,0.8901752336,0.7675797209,-0.5366787206,0.7549503086,0.1269516559,-0.8470554755,0.4144655405,0.6665545732,0.4914761674,0.1524519011,0.8623828307,-1.0831434556,-0.1320852203,-0.0795418897,-0.9039774362,-0.720406043,-0.9875663603,0.1525537514,-0.2909577197,-0.9712280151,-0.3885914339,-1.0240463588,-0.4335807521,0.4091474924,0.897882315,-0.1180895191,-0.3370948118,-0.1784217634,0.7254648068,0.0383377806,0.0979799713,0.84325913,0.7016241164,0.0254216513,0.2879883526,-0.5593657677,-0.1000536866,0.354106996,0.3254948613,0.6337102649,-0.6033452516,-0.4767773079,0.1687529131,-0.5641558846,-0.2718019758,-0.1997314319,0.1176823082,0.4086970597,0.1617712984,0.6282403197,-0.9888789365,-0.1777001923,-0.2240056109,0.80463318,0.1966837489,0.6424407728,-0.3519118597,0.5176260889,-0.4672307641,-0.2570435055,0.9331778402,0.7055883328,0.058970837,-1.0026453967,0.9671719226,0.5408528877,-0.7667009797,0.6444903274,-0.713065769,0.1178639303,-0.845749102,0.2380263194,-0.3451714425,0.9263180637,-0.0408290567,-0.5907101193,0.5664406481,0.764721148,-0.4587576879,-0.5253559675,-0.1634617797,0.6655086844,-1.0308548368,0.7205435365,0.288805442,-1.0052064681,0.6134293173,-0.65389256,0.771216545,-0.2462118522,0.4421718855,-0.3310834681,-0.3514062269,0.0209497511,-0.8580411548,-0.2867552391,-0.7428837998,0.2815597516,-0.7136177936,-0.9856640328,-0.7591917876,-0.3529551603,-0.3454013663,-0.5025115758,0.1959552941,-0.6298931222,-0.3749437545,-0.2536159309,-0.394177321,0.4831549022,-0.488095041,0.9960966619,0.5670341649,0.0518479015,-0.7443484217,0.8586829795,-0.7668975496,0.0178993658,-0.570802465,-0.8252868758,0.5973046228,-0.4466459111,0.5517917571,0.6097021694,0.2791582485,-0.0690759461,-0.8146278426,-0.7480882591,-0.0969085537,0.6729700409,-0.3772681185,0.2076285856,-0.1950024035,-0.7775047987,-0.3933932864,-0.3516203005,0.892695279,-0.3223989288,0.3428646361,0.2794459855,0.5653232089,0.6817175325,0.3236214195,0.4883046311,-0.7046083373,-0.3802626471,0.7618181203,0.2360438768,0.0486632401,-0.0110735295,0.9268746768,0.3989233129,0.2169524115,-0.2739680811,-0.189585448,-0.8890068669,-0.19509408,0.6878583559,-0.5882860954,0.6493170195,-0.6563578331,-0.1005966195,0.8440837192,-0.5709107353,0.4901244087,-0.0975896527,0.2918448612,0.8657519002,-0.6583225246,0.2640465999,-0.3400090507,-0.8485239034,0.1295913138,0.9410141171,-0.4095019906,0.5807836461,-0.0669622771,-0.0907890721,0.7954455216,-0.8836041504,-0.1872388436,0.1369792055,0.2159669275,0.2890726458,0.1007281937,-0.1273604677,-0.3217981115,-0.4134942812,0.3881199436,0.7592659075,-0.8168962778,-0.6130973688,0.3281096188,-0.5350249232,0.7123105593,-0.5015885239,0.6732441967,-0.8693437431,-0.7230429653,-0.0187124764,0.5930673524,-0.0173007486,0.7737736152,-0.7990295771,-0.4452131805,0.2296003171,0.7925799202,0.3613510198,0.0993241507,0.7401325138,-0.438876785,0.1297710126,0.4726392733,-0.7693214994,0.7472630182,-0.2117767637,-0.3959208744,-0.4544485676,0.9856847016,1.0151955438,-0.9967429999,-0.4035938614,0.0737895244,0.4769801562,0.5817341826,-0.6967540746,-0.2485403155,0.2560761439,0.7675840482,-0.8632931971,-0.1885681143,0.9563237757,0.6393951257,0.9063598581,0.860595317,-0.8136446856,0.5751138037,-0.6778952399,-0.8789235991,0.3902195087,-0.928632592,-0.0666552975,-0.2513926696,0.4261021591,-0.9833199701,0.5669109799,-0.4073094085,-0.5076392609,-0.971493306,-0.9938804351,0.5972060279,0.4208324132,-0.2424944445,0.527929965,0.8523324473,-0.0920543361,-0.5458091026,0.2921103657,0.509721241,0.6491672956,0.4728922824,-0.389645814,0.8502553126,-0.1892108265,0.685856711,-0.5189391,-0.4886378464,0.7350124485,-0.661137818,0.4706620584,-0.132638843,-0.2845100714,-0.8352955984,0.9360683625,0.0855362573,0.6557358367,0.1699692708,0.3621936504,-0.1149261295,0.7780218433,0.6902502915,0.5908287819,-0.6782428063,0.215531982,-0.6523284501,-0.8133176854,0.7561490831,0.1172171489,-0.1332264381,0.3719354634,0.6684021957,0.4112217745,-0.5639134409,-0.9701610693,-0.1018097329,-0.1734940199,-0.8931348523,0.9191034294,-0.0225002228,0.0054858438,0.9347503148,0.7617606141,-0.2337067118,0.9691546368,0.4774893144,-0.0838874252,-0.3203646214,0.3113836383,-0.0690790254,-0.72043091,-0.0889324157,-0.888985125,-0.3783983561,-0.5749921569,-0.8764447171,0.9928799624,-0.1404467326,0.9786866225,0.8473377299,-0.5653730547,-0.0269633717,0.2263385503,0.8541055782,-0.6319319935,0.6159113584,0.9789157692,-0.5775355194,-0.135920397,-0.0493539657,0.9642674478,-0.4106986518,-0.3838165448,0.968170232,0.0865934364,-0.5820963574,0.0533381948,0.7252998572,0.3409899666,0.3113131605,-0.4079439629,-0.7711199124,-0.5319061179,-0.0535855816,0.9771031722,-0.7917272865,-0.5679414383,0.2799668836,0.7422106172,-0.7927755668,0.4857757693,0.698972318,-0.9242402235,-0.4447803569,0.0799868573,0.8413331315,-0.1053405613,-0.8664118197,-0.0784835581,0.98171389,-0.5061338169,0.4553874492,-0.9676025271,-0.8173803579,0.9172834033,0.7689199283,-0.1302569396,0.3632419069,-0.4313347708,0.9747405618,-0.2349464952,0.5982658322,-0.7439135951,-0.6043818142,-0.4393389268,-0.2187569796,0.4558811786,0.5097208637,-0.0354480242,-0.5217001144,-0.4968328163,0.7819970049,-0.0224812368,0.9542577242,-0.1795808554,0.8768692394,0.8942698508
