encog,BasicNetwork,java,3.3.0,1,1463485667582
[BASIC]
[BASIC:PARAMS]
[BASIC:NETWORK]
beginTraining=0
connectionLimit=0
contextTargetOffset=0,0,0
contextTargetSize=0,0,0
endTraining=2
hasContext=f
inputCount=279
layerCounts=9,401,280
layerFeedCounts=9,400,279
layerContextCount=0,0,0
layerIndex=0,9,410
output=0.3980371212,1.139021873,-0.2527767274,-0.143961172,0.6002747443,-0.6363965046,0.6123768924,0.2763116522,-0.3855034974,0.9905255551,-0.9788650788,-0.8288055418,1.4333925041,1.5490751396,0.1014234575,0.3150094399,0.6782914335,0.7501396396,1.5107552379,1.0611243562,-0.9947892267,-0.9318826771,-1.8066184948,-1.4481512049,1.4090721955,1.6821858173,1.7506214852,-1.1808128162,-1.3646639823,0.9228496468,1.4767603835,1.4028516634,-1.9614669305,0.7107831825,-0.0816034024,-1.2760754547,0.4602789131,1.8964782335,1.9965254356,1.3983106145,0.7541490213,1.993783145,-1.9337150334,-0.921735127,1.3208063749,0.501895818,1.3434639896,1.7702420473,1.0192333928,0.6581744981,0.7495086292,0.9159159105,-2.1557125859,-1.2683510207,-1.7332984011,1.4574368447,0.724080035,-1.3764837523,-1.692692996,-0.6331856055,-1.104040472,-2.2880066521,-2.0592051957,1.5056615102,1.7170823513,0.7788451566,2.100171302,-1.6892822311,0.6177935655,0.5284523828,-1.9223633501,-2.3934899894,-1.5229464844,2.1167946979,-0.7724231837,-1.8324539632,-1.0434716633,-0.2833274974,1.9252676104,-0.94358941,-1.0329397725,-1.6571240285,1.6347162656,0.672746027,-0.9316889501,-1.8617932984,1.9797081236,-0.6711506454,0.3236457952,-1.4421889202,-1.9177489495,2.4156913728,-1.2904633717,1.9022772312,-0.9073070764,1.285729617,0.9990335678,-1.3512085084,-1.4587743791,-1.5177599235,1.6025745763,1.8037694357,0.3653245006,0.0445271329,1.6642159467,1.314119923,1.6357085551,-0.9437622805,0.7870630195,0.3192781045,0.5664571999,1.5626958587,0.9526709387,-1.4011881908,0.0857986554,0.9620834322,1.3665199748,0.5485433714,-1.3658840214,-1.6546145295,-1.6793519519,-2.4485503454,-1.990673035,-0.8252471278,1.1273644976,1.8893446722,-1.1609022987,2.360109347,1.8025548604,0.6551622947,-0.2865369205,1.919883726,-0.8278032388,-0.42364549,-1.1382307501,-1.2120982967,-1.587403721,-1.0106107753,-0.0950183066,-0.6257902132,0.5136397003,-0.087179802,-1.1556657559,1.1738377305,-1.2531819075,-2.2224312675,-1.2123650656,1.215793994,1.8765067013,0.0813422294,-0.9451267145,1.87094959,-1.3759654661,-1.7988869158,1.4124506876,0.8688134009,0.7310417608,1.4325334149,-0.5374532172,0.4682750946,1.5188214089,-0.5814319881,1.8262311618,1.7957650484,2.0502569673,-1.1027859729,0.3383706992,-0.8090775934,1.4079972828,-0.0944910359,2.1488369149,2.0884068994,0.3619623578,-0.9022657487,-0.9542029459,1.9485685278,-0.929506211,1.9623000856,-1.1338358346,1.7838845555,-1.1874861184,1.3396416533,0.7996724962,-0.4464946102,-1.3647182446,-1.1452084484,-0.7782517186,-0.9962269085,0.9223576485,-1.0094950423,-1.6397802137,2.0093965031,-1.3870746239,0.5983640162,-1.6485367778,0.8339309536,1.1976145213,-0.4251638773,1.5482670641,-1.5831980877,1.3015487274,-2.087493926,-1.8580154454,-1.7916706793,1.0675283404,1.3043025038,-1.0871102605,0.6815374352,-0.8429752995,-2.1358163117,-0.5066711023,-1.8407499882,0.7116564618,-1.3538735274,0.4630596176,1.4334340151,-1.6546088847,1.856148714,-1.5258389106,-0.7186624129,0.1813578103,-0.4963752478,-0.2192062187,0.7022414517,-1.1529855733,-0.9741384542,-0.7946430705,1.1431132981,-1.0026145762,1.8465739561,0.4071871177,1.3600444447,1.3564583191,-1.9307722496,-0.8916950488,-1.489748667,-1.2151397022,2.6197951347,-0.5530431626,-1.2644861995,1.080222935,-0.9026895829,-1.4386145983,1.2664482638,-1.0479127791,-0.005217396,-0.7327076968,0.0592005842,1.3262135142,-1.7847088579,0.3700607826,-1.4305779383,2.0053298463,1.6642335711,1.5017522364,1.1233995997,1.5158096486,-2.4497364026,-0.3272996998,1.2780210691,1.9964033758,-1.5203075854,1.2767179948,1.1681516698,1.3893423828,-1.2805724728,-1.1730101666,-1.6050161827,-1.9277712984,2.5036501243,2.0595513158,-1.5659358764,1.4208233386,-0.6137810721,1.5908644253,-1.7562926915,1.9002640829,0.0006391159,2.1622484728,-1.2958923654,-2.296028188,1.0827210207,0.1793235789,-1.2941706893,-2.051037237,-0.2501319979,0.9288997601,1.3273914962,-0.767441617,0.5241341202,0.209702522,-2.0683693368,-1.0186392044,1.4613791365,0.9039994354,2.231275727,-1.7397136045,-2.3359055655,-0.9207795358,-0.3878243272,-1.5378051471,1.44317225,-1.5001172404,0.7383483976,-1.4959440467,-2.327632445,-1.1461427881,-2.2305071803,-1.6430705311,-2.0067444893,-1.2437875789,1.4805701822,0.3217940913,-1.6866579854,1.8084721442,-0.6645473087,1.9369386916,-1.4539391479,1.814880873,-2.3949143506,-0.8201629943,-2.2285156096,-1.6705784972,1.8757343819,1.1817284333,-2.0939801169,1.3121486387,-1.8882082256,-1.5717834395,2.4545106366,1.6232714041,1.58156329,0.0329956862,1.869665824,-0.4918316159,-0.5246426248,0.2540562888,-1.1252267637,0.9431749206,2.1765190733,1.0434295456,-0.1133618154,0.0303357965,-1.5602332167,-1.5371246512,-1.3872375356,-0.5445130143,-1.4905174117,1.6981524252,1.0153951133,-1.3986509399,-0.3325941674,-2.2158111626,-1.2327477691,1.2875523529,1.2007347733,1.0676049739,-2.1934354556,1.500877028,-0.9750422872,-1.4388720839,1.6212519484,0.6353327545,1.1626673361,1.668134896,0.4379346616,-1.5382860057,1.9257652714,2.0200872328,-0.3422109456,-1.8729642332,1.5968784706,0.9859781816,1.1271247957,0.8997689805,-0.4403433793,-0.76490067,-1.5162322855,1.0229919703,1.5821196755,-1.7350166344,-0.731798864,-1.3043152531,1.7456944129,-1.6218427756,-1.0528096698,-0.8191521431,-1.1197873001,0.0870373679,0.6108266218,2.3904872795,1.2195294439,1.582496154,-1.319200209,-1.5701614793,2.163393263,-1.8024374976,2.6168437523,-2.0499099539,-0.2026804615,-0.9016771235,-0.8953155371,-1.8711290528,-2.3724289875,1.6123614916,-1.9417391712,-0.3108452253,2.2212797718,0.8774231889,1,0.6323529412,0,0.8571428571,0.880952381,1,0.6188118812,1,0.925,0.3461538462,0.2698412698,0.9923371648,0.5,0.1488095238,0.5,0.5,0,1,0,0,0.5,1,0.5,0.5,0.5,0.5,0.5,0.5,0,1,1,0,0,0.6470588235,0.5,0,0.5,0.5,0.5,0,0,0.1,1,0,0.5,0.05,0.5,0,0.5,0.5,0.5,0.5,1,0,0,0,0.5,0,0.5,0.5,0.5,0,0.5,0,0,1,0,0.5,0.5,0.7368421053,0.5,0.5,0.5,0,0.5,0.5,0,0.6842105263,1,0,0.5,0.4285714286,0.5,0,0.5,0.5,0.5,0,0,0.5,1,0,0,0.1363636364,0.5,0.5,0.5,0.5,0.5,0.5,0,0.9333333333,1,0,0.5,0.5,0,0.5,0,0.5,0,0.5,0,1,1,0.5,0.5,0.8571428571,0,0.5,0.5,0,0.5,0.5,0,1,1,0,0.5,0.7333333333,0.5,0.5,0.5,0.5,0,1,0,1,0.7916666667,0.5,0.5,1,0.5,0.5,0.5,0.5,0.5,0.5,0,1,0,0.5,0.5,1,0.5,0,0.5,0.5,0.5,0,0,1,1,1,0,0.5,1,0,1,0.94140625,0,1,0.5,0.25,0,1,0.125,0,0.7140740741,0,1,1,0.0510204082,0.1914893617,0,0.5,0.04,1,0,0.4893364929,1,0,0,1,0,0.5,0.5,1,0,0.7877237852,0,1,1,1,0.5,0.5,1,0,1,0.7074148297,0.7333333333,1,0.2374100719,0.2448979592,0,0.5,0,0.6774193548,0,0.2091836735,1,1,0.3970588235,0,0,1,0.4210526316,1,0,0.7912687585,1,1,0.7155172414,0,0,0.5,0.1764705882,0.9057971014,0.0172839506,0.6990204809,0.9375,1,0.5489361702,0.1917098446,0.5,0.5,0.1052631579,1,0.3844460748,1,0,1,0.4257028112,0.5384615385,0,0.5,0.1,0,0.4470246734,0.105156038,0,1,0.5219512195,0.5669291339,0.5,0.5,0.3,0,0.9207248018,0.0267489712,0,1,0.7272727273,1,0.5,0.5,0.5714285714,0,1,0.3063885267,1
outputCount=9
weightIndex=0,3609,115609
weights=##0
##double#115609
   0.0954963639,-0.1498605251,0.1672882392,0.0164019539,0.1315795198,0.0412097412,0.1474887184,-0.0052965099,0.0318847795,0.0186011371,-0.0552984044,0.1420938961,0.0949144404,0.1140718472,-0.105763967,-0.1027115149,0.0360719828,-0.1879459534,-0.1052119892,-0.2265638481,0.0353817285,-0.0796459936,0.1327775533,0.0503245563,-0.0601761998,0.1011211307,-0.013286045,0.041435238,0.2132810301,0.2049121772,-0.0540699254,-0.0344459976,-0.0883751034,0.0758653878,-0.0219652994,-0.0465997018,-0.1679784619,-0.0252425598,-0.0821085579,0.0718468081,-0.0893154978,-0.1067440865,-0.1847419337,0.0247631653,0.2779142221,0.0690164634,-0.0813622804,-0.0764577236,0.0928045489,0.0303470102,-0.0950561906,0.0085669544,0.1554645141,0.1220917777,-0.0787404312,-0.1187532778,-0.0606795595,-0.0030823865,0.0268799209,0.0940317452,0.0607223931,0.0793620276,0.0151615157,0.1098773303,-0.0635648957,0.0443737917,0.0607803525,0.0743845708,-0.1848590332,-0.2156121905,-0.0122708103,-0.0679406133,0.0527493551,-0.0998218833,-0.2416928668,0.1486238158,0.0008744526,-0.0368380917,-0.1225278196,0.0374654054,-0.1471123348,-0.0512975311,-0.1299713356,-0.1144940596,0.0854203317,0.1226763775,0.0362770326,-0.1301324891,-0.0200191508,0.0313139217,-0.042864924,0.1770322678,0.0035343122,-0.0488023179,0.1690543224,0.1824195373,0.0443817431,0.0865927278,-0.058354652,-0.0434758637,0.1610901782,-0.0265786708,0.0903905192,-0.1751443161,0.080885951,-0.2046344913,0.0097074621,0.1516668442,0.1425422703,-0.0174074769,-0.1363640005,-0.066709646,0.1488932327,0.011920343,-0.0825130911,-0.0171143746,0.0388596631,-0.0787232858,0.0808756956,0.0602776107,0.2178125291,-0.0390285947,0.083010922,-0.1989562508,0.0741338452,-0.004673689,0.047875684,-0.1924870177,0.1000243027,-0.0282986303,-0.0371703083,0.0889255111,0.1054412574,0.0009291492,0.0675600128,-0.2124427624,-0.4333218734,-0.1987693416,-0.0834530802,-0.0415982118,0.1628626062,0.1234810132,0.042379902,-0.0162414032,-0.0220709923,0.0764654927,-0.1255005387,0.1575020361,0.0818251349,0.0522472648,-0.0569681897,-0.0206898702,0.1381428669,-0.0810579605,0.0008346047,-0.1028710276,-0.164462041,0.0279049339,-0.2915028551,-0.0552222277,-0.0833156403,-0.1024172696,-0.0457377494,-0.0013274612,-0.0363873063,-0.0965595552,-0.0091831508,-0.023782295,-0.160071692,-0.1570309973,-0.3182715421,-0.0462417941,0.0135029182,-0.1684728711,0.1262016146,0.0605771147,0.1187053444,-0.0753804713,0.0095354716,-0.0208390301,0.0988394834,0.0490048322,-0.1639914094,-0.0515523731,-0.0289878084,-0.1102544857,0.0371759014,0.0276575467,-0.0262700355,0.0561775009,-0.0687435678,-0.1101054209,0.0651135278,-0.1918294396,-0.0176675434,-0.0437399009,-0.1092588212,0.1841902881,0.107034892,-0.1697464161,0.0085366054,0.1456040558,-0.0346637738,0.1963375112,-0.1327241686,-0.0632545567,0.1100428242,0.0479594046,0.1371944365,-0.0207957091,0.0678477169,0.0206673725,0.0684954127,0.0020768639,0.0084432957,0.0152270121,0.0101461576,0.0955378988,0.2036136603,-0.1082919892,0.0918895581,0.1109227172,-0.0338822843,0.0507892679,0.0964275249,0.0770536243,-0.1663922721,0.022633404,0.023835199,0.2045076032,0.1577382114,0.0405415678,-0.0258067248,0.0208252909,0.0850800771,0.1379007068,-0.1006888351,-0.0116745637,0.0772647307,0.0441219715,0.1435473469,-0.0154629389,-0.1249251009,-0.0070023226,-0.1459217893,0.0952020793,-0.1422600853,-0.0349346409,-0.1795966307,0.0624920483,-0.102754243,-0.1206133909,-0.1625112255,-0.0883026481,0.0622859299,0.1573913325,-0.080874874,-0.1324875925,0.0424410921,0.0787919429,0.0773858165,-0.2060205821,0.0098806497,0.0292988968,-0.0347144152,-0.1896549876,0.0220488668,0.1583724167,0.0233127818,0.1572087453,-0.1630959897,-0.0208734219,0.1699461085,-0.0557597428,-0.0023443098,-0.1266091263,0.0085272172,-0.0009453177,-0.0466307198,0.006124072,0.0554099018,0.1754786681,0.1877008929,-0.1950918665,-0.0903723351,-0.0415779913,-0.0951185325,-0.0887249336,0.1137474802,-0.0948917085,-0.2233780125,0.1666477423,-0.047309162,0.0693854206,0.1111593702,-0.0970170697,0.0029378537,0.2431382559,0.1412507083,0.0035909689,0.0942251322,0.0731510275,0.0524504099,-0.0264322012,-0.0133233766,0.2248377958,-0.0691643929,-0.1156917984,-0.1286112876,0.095531918,-0.1953272674,0.1121813198,0.1546218566,-0.1429908887,-0.015822113,-0.1497347056,0.0112997491,0.0083526078,0.1735348334,-0.0366789232,-0.2079401157,0.1630221032,-0.1279652669,-0.048667001,0.0966316424,-0.0357115775,-0.1878983445,-0.0375093932,-0.0867095182,0.0523376823,-0.0230018463,-0.0117205384,0.045374596,-0.0489096158,-0.0335844675,0.1236923286,0.09274291,0.0136904372,0.0839660185,0.1274952634,-0.9725477847,-0.1521988314,-0.1579339946,0.2484263951,0.2471024307,-0.0008508033,-0.1718237898,0.0683761962,-0.0490406385,0.0481238204,-0.0887703888,0.023250619,-0.0173180197,0.1368814549,0.0320461768,-0.1035462872,-0.1058475591,-0.0462193153,-0.048354628,0.1961777861,0.0203890704,-0.1221832396,-0.1997921741,-0.0150159233,0.1853004778,-0.1979325785,0.0076478857,0.1067062975,0.0667249676,-0.0261762932,0.0634950376,-0.0645834736,0.0057690949,0.1168428121,0.0002301647,0.0008848627,0.1232506895,0.1873367319,-0.1760595515,0.0853509849,0.0432853909,-0.0030894726,-0.1542661851,-0.1175757953,0.0213261113,-0.1055506768,0.0556380119,0.0582491852,-0.1987218729,-0.0330511719,0.0323741495,-0.0437179708,0.0503566971,-0.0646520165,-0.146331645,-0.0040615578,0.0904135951,0.1747637202,0.0511551608,-0.0903015641,2.9660869212,0.0660905305,0.0158186215,0.0352415627,-0.046902514,-0.0453608353,0.1020097843,-0.1784843587,0.0563865651,-0.0033141837,0.0508304275,0.0974477771,0.0153325686,-0.0209223176,0.041235234,0.02907584,0.0235363017,0.0571626584,-0.0327473395,-0.0096918077,0.0914391502,0.0657546539,0.0762338504,-0.0484033489,0.0915829561,0.1168456949,-0.0035924606,-0.0150116853,0.0528416071,-0.0099525346,0.0101826863,0.03375631,-0.0197410407,0.0421240652,0.0492293499,0.1203522445,-0.0546911499,0.0163679548,-0.0698293124,-0.0258301926,0.0028547313,0.0147680153,-0.0627589813,0.0330607479,0.1075428852,-0.0451741684,-0.0119863178,0.1208061663,0.0182034393,-0.0901798059,-0.0643611996,0.0259713559,0.0130013143,-0.0198040173,-0.0375182316,0.0639737969,0.009398025,0.0394241166,-0.0354429081,-0.0744684523,0.0124597675,0.0446610809,-0.1082284134,-0.1600304738,0.0930109315,-0.1126021171,-0.0203704537,0.0727780606,-0.0176522864,0.0173043848,-0.0200409102,0.01568828,0.049717579,-0.0891214974,0.0606418454,0.0874435557,-0.0350612221,0.0769047507,-0.0268642674,-0.0572801268,-0.0567986136,0.0697840088,-0.0304722856,-0.0277859324,0.0090765046,0.0222822444,-0.0136375225,-0.0442574263,0.1667977054,-0.0628001002,-0.0583107909,-0.037568337,-0.0760308872,-0.0370435088,0.1021557814,-0.0609078002,-0.0695083981,0.0407123438,0.0730426486,-0.017802451,-0.0305011731,0.0440194272,0.078320612,0.0050875378,-0.0003280776,0.0411850792,0.0594551182,0.0787851838,0.0060363969,0.0179483414,-0.0121781272,-0.0006129651,-0.0260538872,-0.0634007674,-0.0025397051,0.0615030769,-0.0430471799,0.0217894895,0.0923010924,0.1206005662,0.0566213585,-0.0127366433,0.0542868868,0.0070016985,0.0002303103,0.0787180674,0.0621965378,-0.108571072,0.0292309211,0.0725459514,0.066667559,0.0073211936,-0.0993165687,-0.0411453339,-0.0273016519,-0.0871115101,0.08515,-0.053281589,0.0346452802,0.0686563343,-0.1940929599,-0.0466902454,-0.1116664639,-0.0981433235,-0.0529717509,0.0140434039,-0.1887445444,-0.0202489061,-0.0393627461,-0.1107340453,-0.0408034102,0.0328990368,-0.0350312496,-0.0492098294,-0.0929567551,-0.0082973004,0.0684406394,0.1018651747,0.0411310578,0.0835145251,-0.1051504021,0.0772543048,0.0242005298,-0.0502214361,-0.1101207452,0.0786903857,0.0548248082,0.071812814,-0.0729704723,0.078652348,-0.0334269481,0.0641613722,-0.0635501134,0.0217861098,0.0485523078,-0.0831571595,-0.0541627193,-0.04872094,-0.0687161429,-0.1172062117,0.0148835531,0.0373579394,0.0131075816,0.0566187409,0.0119003248,0.0502213492,0.0840095038,0.0581737957,0.0880865847,0.0008055924,-0.0882687716,0.0670728616,0.0739861667,-0.0637015122,0.1324367377,-0.0783707689,0.0034578593,0.1137595398,-0.0705468252,-0.0502272038,0.0011033826,-0.0387888594,-0.165276345,0.008438149,-0.0589033432,0.036760109,0.0740076386,-0.0936966765,-0.0832831431,0.0506299693,-0.0556591166,-0.0042071719,0.0083836435,-0.0038603698,-0.1127835306,-0.0155056138,-0.1027580002,0.1169704214,-0.0787921297,-0.0429270933,0.0480627304,-0.1496077402,-0.0669155503,-0.0641419635,0.0749231553,0.0539395634,0.0985633768,-0.0212987439,0.0332928373,-0.0341241169,-0.0855652719,-0.1585165098,-0.1491179921,0.004349393,-0.1319778252,0.1172101967,-0.0467913443,-0.0455459322,-0.0371150922,-0.0410639979,-0.0382595027,-0.1941307248,0.0761644359,0.0816639339,-0.006827155,-0.0521219344,-0.0687586916,0.0166675173,-0.127072636,-0.017688234,-0.0038010809,0.0085845691,-0.0118436645,0.0852075285,0.0360838799,0.1054054004,-0.0883343016,-0.0270542644,0.1030317447,-0.0172848635,0.0716551422,-0.0577704055,0.0063009768,-0.0936046204,-0.1102721392,0.0019642821,-0.0607429457,-0.0504267916,-0.1347902387,-0.0467685865,-0.0800769391,0.0679192438,0.0408790844,-0.0661589773,0.0405223868,0.0164313869,0.0435963011,0.0045443365,0.0161736185,0.0043458591,-0.0275483527,-0.0061092152,-0.0920632639,-0.1095182038,-0.0064995305,-0.0074183018,0.011830747,0.098601761,0.0079165628,0.0290415358,-0.0625971603,0.0726319674,-0.0449313469,-0.0039083037,-0.0014766447,0.000054407,0.0820724901,-0.0378576601,-0.1314524487,0.0555288,0.0009290053,0.0088403173,-0.0679896801,-0.0615544025,-0.0329359748,-0.0248091645,0.0126953097,0.0298185056,0.0134955211,-0.0273609522,-0.0371621896,-0.0559676869,-0.0811552215,-0.0941625951,-0.0242667223,0.1030071556,0.048232248,0.0353022259,0.0091643886,0.0217244456,0.0156841733,0.0344622302,0.0554484681,-0.0203464699,0.0017360567,-0.1340728282,0.0599584358,-0.095527603,-0.0064330637,-0.0123001549,0.0455657774,0.0555524466,0.0989727305,0.0094889213,0.0103735846,0.069005073,-0.0488253241,-0.0229576435,-0.00736654,-0.0420509753,0.0666880803,0.1615643467,0.0467119656,0.051614862,0.0041277278,0.0602643102,-0.0551016449,0.00236816,0.0029788668,0.0191857829,-0.038705346,0.0610629905,0.0072695706,0.0395042208,0.0189635147,0.0107694172,0.2070461671,0.0081540662,-0.068710439,-0.0023568265,-0.0495428919,0.0284403402,0.0635726014,-0.1391832975,0.079490042,-0.0264684734,0.0561188182,0.0327932165,0.0187746245,-0.0235145677,0.0182507911,0.0522216704,-0.0238417124,-0.0152340578,0.0259000209,-0.0404398758,-0.1490230253,-0.0873124056,0.0172364806,-0.0172503286,0.0406828981,0.1023671946,0.0640612767,0.0012272392,-0.0616654804,0.0674802982,0.0940941502,-0.0133920007,-0.1300169852,0.0659002452,-0.0890263478,0.0570711322,0.0804749714,0.0088887582,-0.0505935711,0.0477215098,-0.0968409619,-0.0864400412,-0.0759124828,0.1159606296,0.0635751619,0.1679337511,0.0063560436,0.007074412,0.0253227,0.0061419096,-0.0063561444,-0.0350707806,0.0060646662,0.0137696975,0.0100904407,0.0151982701,-0.0866661613,-0.0291209191,-0.02941314,0.0289762673,0.0368979555,-0.0273542661,-0.0042306433,0.039798551,0.0032462048,0.0133936539,0.0005935005,-0.0171225142,-0.0419662638,0.0066413123,0.009135662,0.0142243185,-0.0229974412,0.0115687113,-0.0000651624,-0.0343147793,0.0346256435,-0.0288674172,0.0284273504,-0.0127028422,-0.0467813075,-0.0263414241,0.0075418222,-0.0358830914,-0.0082147865,-0.0117131973,-0.0628104245,-0.0033060561,0.0040560828,-0.0577381639,-0.0491622824,0.0299632522,-0.0375009545,0.0598487233,-0.030942878,0.0249927953,0.0173125385,-0.0364060618,0.0097186857,-0.0089311524,0.0235094955,0.0180407554,0.0186828814,0.0158702597,0.0220972131,0.0039931516,0.0176417051,0.0448362767,0.0601789668,-0.0339533543,0.0009943703,0.01026999,-0.0200450282,-0.0287629885,-0.0112750793,-0.0365163321,0.0068015891,-0.0436879133,0.0501260514,0.0082621027,-0.0403383957,-0.0234257193,0.0144520109,0.0272151851,0.0050879703,-0.0128454448,-0.020356512,0.0157559931,0.0328993346,0.0552578919,0.0158236981,0.0141834365,0.0494779528,-0.0488132736,-0.0331218209,-0.0054390583,0.0091475012,-0.0021941981,0.0019421489,0.028283859,0.0287251917,0.022837963,-0.0291059264,-0.0422018492,-0.0473136921,-0.0163490256,0.0378958648,-0.0193830358,-0.0082212184,0.0437741587,0.0272351453,-0.0372110769,0.0127310001,0.04115485,0.035728579,0.0751740306,0.0319621126,-0.0379663687,-0.0283495039,-0.0125436008,-0.015831141,0.0427513941,0.0171091376,-0.0007855497,0.0478608618,-0.0151893231,0.0005259403,0.0425106089,0.0279001633,-0.0396090946,-0.0005339175,0.0074009635,-0.0536532336,0.0317389169,-0.0100448643,-0.042816054,0.0057445012,0.0344956073,0.0138852903,-0.0264889417,-0.028466539,0.0095239888,-0.00275556,0.0315104281,0.0066981526,-0.0034725554,-0.0194642277,-0.001056912,-0.0023016908,0.0537236217,0.0002801064,0.0115978549,-0.0257839479,0.0216969025,0.0218613987,-0.0175771014,-0.0235813923,0.0111528616,0.0640849499,-0.0075845615,-0.0515151389,0.034510284,-0.0144728402,-0.0473105327,0.0289163861,-0.0223206763,-0.041416302,0.0274678886,0.0469451188,0.0351326895,-0.0095093457,-0.006262461,-0.0348284628,-0.0158547615,0.0298644583,0.022352641,0.0253132879,0.0126010852,-0.0653236583,-0.0283431895,-0.0064450319,0.0488256685,-0.0082556042,0.0178507523,0.0484745328,0.0206651603,0.0372805445,-0.0036269858,0.0485286944,-0.0256675082,-0.0439564421,0.0631888113,0.007417723,0.0165766361,0.0332135374,0.0082132229,-0.0267587049,-0.0322375072,0.0296816212,-0.0060173086,0.0030336519,-0.0232295566,-0.0183300909,0.0165917745,0.0101080625,-0.0109227874,-0.0088046746,0.008274753,0.0141729819,0.0290980427,0.0059538444,-0.0432883252,-0.0116068245,-0.0092246481,-0.0069643381,0.0297931928,0.0152201539,0.0200814335,-0.0446325108,-0.0638246247,-0.0016663059,0.0136364256,-0.0057334812,0.026404768,0.0092449727,-0.0495200064,0.0018344616,-0.0015498864,0.004379909,0.0182421082,-0.0141766611,0.0259857386,0.042002476,0.0377126555,0.0380744002,-0.0326882234,-0.0010016688,-0.006556567,0.0212386738,-0.0247556686,-0.0105192085,0.0047456211,0.0077442241,0.0329222217,-0.0042745694,-0.0213269583,0.0076301154,-0.0041116429,-0.0284403377,0.0043077875,0.0025701564,-0.036532349,0.0224782538,0.0158958574,-0.0185977419,0.0365702944,0.0105978959,0.0529247998,-0.0069830825,-0.008715392,-0.019799681,0.0046708683,0.0013144109,-0.0152699994,-0.0288051403,0.0091432463,-0.0060259936,-0.0476616777,-0.007947946,0.0059309381,0.0268624651,-0.0621227818,-0.0167555101,-0.0131619059,0.0510298675,-0.0161065127,0.0100548233,0.0155766582,-0.0065350611,-0.059571708,-0.0515249082,-0.0041670191,0.0351665759,-0.0660479502,-0.0158119991,0.0339840233,-0.0243505258,-0.0449851712,-0.0176019145,-0.0079961349,-0.0384400431,0.045134893,-0.0214162589,-0.0404768397,0.01664283,-0.0277919836,-0.0230663147,0.0261737091,-0.0437318411,0.0281305152,-0.018461875,-0.0032140172,-0.000673619,-0.0415245856,-0.0338810346,-0.008574795,-0.0483009755,-0.050223777,0.0398179318,0.094296123,0.0671524918,-0.0015360315,-0.0292364651,-0.0939961939,-0.0084362518,0.0232655811,-0.0371998901,-0.0078384907,-0.0069392697,-0.0122627032,-0.0021920564,0.0621589826,0.0268286686,-0.0426780435,0.0190662689,-0.0277831478,0.038714032,0.0320578878,0.0378127939,-0.0047027884,0.0236615383,0.0045419976,0.0064781564,0.0217879868,0.0285031101,0.0100915921,-0.0005357225,-0.0011782008,0.0667465963,0.0397527965,-0.0358248125,0.0304760422,0.0398326806,-0.0425302552,0.0497757777,-0.0197221316,0.1083336716,0.0063158164,-0.004520559,-0.0042305119,-0.0156654986,0.0004953061,-0.026744803,0.0016169657,0.0246875969,-0.0017471363,0.0078651631,0.0158624282,-0.0362229566,0.0037261951,0.0674625773,-0.0272151603,0.0257658456,-0.0059547243,0.006438916,0.0237037233,-0.0353313505,-0.0468056148,-0.0312455361,-0.0412352522,-0.0284161879,-0.0103799274,-0.0158441477,0.0514934104,0.0319100532,-0.0011604383,0.0021841658,-0.0291261627,-0.0206655947,0.0443650746,-0.0248845594,0.0442582246,0.0416649966,0.0030284732,-0.0036478296,0.0075015845,0.0086033883,0.0170937108,-0.0217432861,0.0050213281,0.0172517573,-0.0131769585,0.0340078224,-0.0358315509,0.0295870356,0.0370264985,0.0206091618,-0.0173892641,0.0199169999,0.0073104355,-0.0319799912,-0.0550575915,0.0035313828,0.0028029076,-0.0402911824,0.0373936963,-0.1151121224,-0.0174576838,-0.0217958396,-0.0084080459,0.045746311,0.005866559,-0.0008614046,-0.0735501341,-0.0689117831,-0.0144774098,0.0218439414,-0.0011691808,-0.0939467926,-0.0272360124,0.032323071,0.0345300862,0.0050826394,0.0051645139,0.0429922335,-0.050514087,0.0107932822,-0.0102019072,-0.0289798275,-0.0046049573,-0.0218184286,0.0118812273,0.0042991499,0.0412835288,-0.012898107,0.0439997779,-0.0225719159,-0.0198499188,0.027218962,-0.0388027557,0.000194679,-0.0240962189,-0.0122762576,0.0400603737,0.0448858624,-0.0001419228,-0.028720012,-0.0405421066,-0.0353194149,0.0954062744,-0.0231820828,-0.0361072481,0.0301943528,-0.0032512194,-0.0241104033,-0.0079026436,-0.0033121375,0.017172465,-0.0012030185,-0.0371474911,-0.0737567957,-0.0296190096,0.0389075775,0.024271092,-0.030812475,-0.0115371994,-0.0016327391,0.0130314787,0.0623381715,0.0297820224,-0.0177605305,-0.0012918414,-0.0424308972,0.0308354988,-0.0260956228,0.0265467668,0.0455023697,0.0376952275,0.1098394238,0.0294887265,-0.0086977179,0.0203721305,-0.0711707629,-0.0067085949,-0.0395322558,-0.0026522698,-0.0829397663,0.0170853345,0.0317265444,-0.0114414661,-0.0689160739,0.0559067276,-0.0094110788,-0.0191427287,0.0078100101,0.0679399425,-0.0659973733,0.0347912422,-0.0600970178,-0.0614778866,-0.0722318852,-0.0121087852,-0.0007747201,0.0311439613,0.0031456881,-0.0165136289,0.0010862305,-0.0096560489,0.0353096117,0.0242789337,0.0183678446,0.0432671368,-0.0185854516,0.0051921735,0.0254182761,-0.056047359,-0.0179467147,0.044989524,0.0591492426,0.0457896255,0.0419985601,0.0787669581,0.0170548485,-0.010634845,0.0417448231,0.0374109616,-0.0088556982,-0.0016218714,0.0046764848,-0.0352515329,0.0700155724,-0.0243765925,-0.060670598,-0.011249331,0.1029773913,-0.0827872395,0.0070813689,0.0121067693,0.025787228,0.0440042982,-0.0063639291,0.0354903181,0.0369053346,0.1068437278,0.0000434519,0.0329552243,0.0339517809,-0.0353907682,-0.0610984892,-0.0282562735,0.0585417497,0.091492556,-0.0222579745,0.0035236796,0.0178458466,0.0440924719,0.004735519,0.0365437904,-0.0404747375,-0.1578299555,-0.0518825112,0.0157186155,0.0658825853,0.0302022532,-0.0198677848,0.0605845214,0.0886478064,-0.0217801555,0.0204945731,0.0502369012,0.0027146209,0.0099914205,-0.0152124351,-0.0897637781,-0.0401269087,0.0023194171,0.0071191688,0.0050958549,0.0385775127,0.0077170728,0.0123673401,0.0382793228,0.0220168927,0.001481263,-0.037090774,0.0269766564,0.0855017568,0.0033018431,-0.0416993561,-0.0420560831,-0.0542602567,-0.0135586204,-0.0402897834,-0.0293159892,-0.0640993119,-0.0035885177,0.0161286875,-0.0352390674,0.0390228613,0.0631195637,-0.036438504,0.0063515713,-0.0097793732,0.0936195487,-0.0145597794,0.003903818,0.0180475884,-0.0233897435,0.0074608334,-0.0450338453,0.0476501301,0.0114018878,0.0046534131,-0.0112921835,-0.0169636871,-0.0901098633,0.0824521185,-0.0440176067,-0.071488311,-0.0631351255,-0.019128442,-0.0148249046,-0.0114593772,-0.0242575963,0.0045685437,0.060829176,0.037719335,-0.0233732466,-0.044582489,-0.0119634205,-0.038575822,-0.025487924,-0.030745271,-0.0727961514,-0.0283117519,-0.0458543064,-0.0614656462,0.0352082934,-0.009473883,-0.0779958217,0.0511327241,-0.0480129236,-0.0331367038,0.0080876183,-0.0616672961,0.0031407422,-0.0126311907,0.0828696157,-0.0531476492,-0.0376629505,-0.0413416386,0.0292654264,0.025719435,-0.0661467652,0.0181722995,-0.0149977954,-0.0669794879,0.0837538424,0.0435146607,0.0133697436,-0.0615642995,0.0032179395,0.0911134286,-0.0031455559,-0.0079961582,0.014566521,-0.0843710878,0.0036148946,0.0414909026,0.0247031044,0.0028262927,-0.0437074345,-0.0332611258,-0.0382920604,0.0534168115,-0.010045153,-0.0018440258,-0.058945643,0.0259469035,-0.0109703918,-0.0024586938,0.0294930337,-0.0250895599,-0.0030885471,0.0530648841,-0.0306599184,-0.0272231621,0.0064530684,-0.0260343436,-0.0450321048,-0.0674951525,0.034190058,0.0938057247,0.013255623,-0.0484379958,0.0012285971,0.0082202873,0.0131830148,0.016659214,0.0371553074,0.0268161673,-0.0030915574,0.0729875499,-0.0005082123,-0.0011112227,-0.0125789055,0.0534129566,-0.0007352508,-0.0344797999,-0.0466716698,0.0153952493,-0.0032316501,-0.0234558664,0.0348111245,-0.0244735097,0.0334725176,0.0838107207,0.1288604495,0.0244266208,-0.0401767843,0.0681471944,0.0367484238,0.0563061085,-0.0122936112,0.0569117037,0.0067998766,-0.0875927404,0.0271376725,-0.0044137754,-0.0060081429,-0.0304218452,0.0540398391,-0.0130105134,0.0501649248,0.0485129436,-0.0306392682,0.0224948774,0.0255552233,0.0060142516,0.0158786606,0.0413120275,0.03505251,-0.0234191055,0.0207812922,0.0128584657,-0.0783329852,-0.0231078796,0.1628186923,0.002325418,0.0055560139,0.0306850184,-0.0281667491,-0.0966984847,0.0642557147,-0.0337546909,0.1298852886,0.007363272,0.0352303463,-0.0592691801,0.0101701464,0.0880001359,-0.0201304463,-0.0313065665,-0.0260218573,0.0289468749,-0.0075036819,0.0529987865,0.0454864433,-0.0568638138,0.0405843558,0.0197540376,0.0073621361,-0.0040690548,-0.0449690912,0.0173399481,-0.0060663622,-0.0342743511,-0.0050852549,0.0225991952,0.0628965147,-0.0177101133,-0.0013059379,0.0385143667,-0.0117338617,-0.0428823484,0.0302287344,0.01109184,-0.0053597998,-0.0297978702,-0.0034773344,-0.0362314252,-0.0373531666,0.0259527678,-0.0095698539,-0.0426677583,0.089989662,0.0096398555,0.0343876242,-0.0497112183,-0.0896270121,0.0541594498,0.0098690847,-0.0253916844,-0.0138319986,0.0478879816,-0.0321601028,-0.0028647181,-0.547929806,-0.0304645965,0.0323413206,-0.0199053509,-0.0265243502,-0.0172820544,-0.0680336336,0.0195189665,-0.0319227725,-0.0250948455,-0.0187947673,0.0092221605,-0.0157954287,0.0094344024,-0.0329913792,0.0092343674,0.035272587,-0.0038169031,0.0348197427,-0.048903436,-0.0091320764,-0.0719557978,0.0020970987,0.0137445135,-0.0380369196,0.0211511961,-0.0191722017,-0.0175626832,-0.0298289403,-0.0338458022,0.0222031241,0.0333772301,0.0527597984,0.0263861716,-0.0316186965,-0.0041589804,0.0086164711,0.0403901309,0.0441964581,0.0735787709,-0.0102173894,0.0012904031,-0.0445729358,0.0435515462,-0.0333731037,-0.0705086398,-0.0499642518,-0.0323667028,-0.0569809541,-0.0019823084,0.0158078288,0.0459380659,-0.0128606933,-0.0697985686,0.0479166792,0.0204370165,0.0407053176,0.0350773392,-0.061698889,0.0078068245,-0.0971355025,-0.0203329565,0.0305097026,-0.0307832836,0.0116795794,-0.0069060283,0.0243892303,0.0331880047,0.0099490915,-0.0499127804,0.0308510994,-0.0219897534,0.0253840283,0.0031918235,0.0979759406,0.0776883365,-0.0728335487,-0.0322760262,0.0397878328,0.1211135843,-0.0329658376,-0.0142680734,-0.0040220863,0.0264193435,-0.0028876979,-0.0075801182,0.0019843278,-0.0150625729,-0.0403959335,0.0334029055,0.0523098343,-0.0467054912,0.0183583618,0.0125485352,-0.0089931065,0.0243599894,-0.0243050976,-0.0032594674,-0.0691790055,0.0524575898,-0.0007860187,-0.0809792247,-0.0403709541,-0.0448643712,-0.0368287056,0.0003061733,-0.0016967445,0.0101363179,-0.0308111377,-0.0550188907,-0.0128466543,-0.0692479583,0.0444040872,-0.0281893087,0.0545340452,0.007577526,-0.015431178,-0.01906126,0.0195436523,-0.0366110871,-0.0036808762,-0.0674045776,0.0312016961,-0.0192292447,-0.0176639398,-0.0051012127,-0.038514564,-0.0614769057,0.0423551202,-0.0489794407,0.0026685852,-0.000391281,-0.0319051971,0.013455417,0.0087952992,-0.0102745412,-0.0072792258,0.0390535318,0.0430527784,-0.0622532404,0.0239554583,-0.0500502701,0.0327041515,0.0471929998,0.0037443168,-0.0130980179,0.0164442297,0.0271679427,0.0468134518,-0.002124184,0.0117908556,0.0087578157,0.0069311239,-0.0308383717,-0.0265937212,-0.0025954717,0.0103609,-0.0134828202,-0.0563328622,-0.0193273827,-0.0376654184,-0.019139219,0.0068535243,0.0185494769,-0.0285323194,-0.0625859355,-0.0625775962,0.0495361153,0.0401714734,-0.0398914149,-0.0038935507,0.0036997276,0.0298789716,0.0187878128,0.0733116119,-0.0353763774,-0.0568546026,-0.0184316917,0.0942897948,-0.0439168722,-0.0130846506,-0.0167245043,0.0387682888,0.0050191158,-0.027882535,0.0108059155,-0.0199166971,0.0219665924,-0.0245127711,-0.0241331474,-0.0411164891,-0.0041607531,0.0181820367,-0.0093189707,0.0038188161,0.0788024156,0.0912760624,0.0412490432,-0.0182552265,0.0334386339,-0.0421154698,-0.0230425864,0.0139676695,-0.0053518776,-0.0023156572,-0.0273761579,-0.0562899936,-0.0031529149,-0.0487113069,-0.0063987999,0.0485348137,0.0115136233,0.0440681424,-0.0409587915,-0.0240838199,-0.0231253397,-0.0324492296,0.0047344253,0.0049167534,-0.0437300883,-0.0024145311,0.0082095206,-0.0059660695,0.0315205736,0.0237750008,-0.0905020096,0.001633465,0.0356489227,-0.0259679644,-0.0868165176,-0.0155145215,0.0192095641,0.0264492946,0.0171801017,-0.0180508088,0.029206497,-0.0223648217,0.0013522117,0.0389312968,0.0303594144,0.0088457116,0.0376058361,0.002841892,0.0257944978,0.0720550566,0.0302560983,-0.0018512048,0.0194918284,0.0639408821,0.0718041576,-0.0043397999,0.0104405531,0.0477108647,-0.0145625942,0.0466557487,-0.0122805892,-0.0301003438,0.0071944499,0.0012794092,0.0122554481,-0.0089480123,-0.0419755327,0.0480055401,-0.0244580365,-0.0123387905,-0.0261685767,0.0706205903,0.0136486024,-0.0188934592,0.0300268114,-0.0080605014,0.0047289839,0.025045408,-0.0230123505,-0.0395777821,-0.0066060366,0.0024307635,0.046802422,0.0145589395,0.072015493,0.0130059763,-0.055298759,-0.0407159794,0.0372350845,0.0407699823,0.0336115055,-0.0614643033,-0.0039641563,0.0415575235,-0.0637626872,0.0132939428,-0.021649377,0.0095596726,0.1039134621,-0.0634747943,-0.0126562285,0.0520170517,-0.0267215078,-0.0136451458,-0.0265106631,0.0256313663,-0.0417877536,0.0767998636,0.0276030824,0.0095707336,0.0136377679,-0.0753881391,0.0136831667,0.083303683,0.0642418017,-0.0615189471,0.0648826232,-0.0295271425,0.044572857,-0.0058205943,-0.0102387437,-0.0497546061,-0.0391473585,-0.0590285629,-0.0122900422,-0.0342673057,0.029150794,0.0150393929,0.0216444425,0.0260784555,-0.0465825916,-0.0520294518,0.0552156871,-0.0376173605,-0.032232684,0.0551391635,-0.0235094766,-0.0132502939,0.0014065823,0.0436789795,0.0220250667,-0.0464232222,0.0172543149,-0.0052558449,-0.0456466623,-0.006751909,0.1561569626,-0.0457654817,0.0354114214,0.0215970281,-0.0083421804,-0.0145297298,-0.0389296597,0.0192788464,0.0239845092,0.0141137084,0.0586252249,-0.0519017078,0.0412004565,0.0056895535,-0.0507648112,0.0004969133,0.0233198217,-0.0323948616,0.0102066378,-0.0789660627,-0.0015701218,0.0198966495,0.0196833032,0.0263737744,-0.0365436072,-0.007401017,-0.0259506713,0.0216245427,-0.0264959021,0.0182467062,-0.0258904192,-0.028724869,-0.0032755365,-0.0112135386,-0.0199819812,-0.0462563067,0.0400208115,-0.0492197823,-0.0211088334,-0.0448530166,-0.0288506558,-0.0633642255,0.056388111,0.0225373448,-0.0183513385,-0.0418482411,0.0110948042,-0.0029903856,0.0259521256,-0.0721290204,0.0035345155,-0.0213013103,0.0098329333,0.0048576745,0.0564790555,-0.0002254066,-0.0176366921,-0.0112959351,0.0109341721,0.026319425,-0.4079430967,-0.0858653684,0.0635786603,-0.0347483288,0.0034481902,0.066785621,-0.1058122385,0.011722043,0.0444034247,-0.0371262563,0.0119850972,0.0321098783,0.0541996015,-0.0783371746,-0.0682663185,-0.0137635907,0.0680630308,-0.0593237866,0.0357951474,0.0555455401,0.0220305527,-0.0161219949,-0.0195182385,0.0137495743,-0.0206719435,-0.0922005195,-0.0000020249,-0.0087182814,-0.0038227081,-0.0316986449,-0.0228183446,0.0052279798,0.0431728303,-0.0066513706,-0.0833357478,-0.0137577439,-0.0331411763,0.0094642278,0.0501279727,0.0481887438,-0.0369319287,0.120828517,0.0085212037,-0.0481373735
   0.0951936215,-0.1262221347,-0.091496851,0.0097490688,-0.0150014097,0.0020507375,0.065885687,-0.0339171623,0.0104434247,-0.0623556739,0.0306343689,-0.1014687924,-0.0249372457,0.05063949,-0.0405427083,-0.0076926034,0.0244042544,-0.0791059456,-0.0424711872,0.055008912,0.0371512806,0.0599566418,0.0448033765,-0.0402453086,-0.0025652423,0.0475892984,0.05328832,0.0137078068,0.0149066546,-0.0611676161,0.0048351866,-0.0795177066,0.0499353535,0.0167902998,0.0428720933,0.0691000958,-0.0049782272,0.1374075891,0.0343238151,-0.0412003251,0.0557779069,-0.01301762,-0.0463912316,0.0048113306,0.0573823867,0.0058016515,-0.0499460414,-0.039481035,-0.0399767459,-0.0425666136,0.0298104786,0.0241085805,0.0518734101,0.0765952004,-0.0665836827,0.0355101874,-0.0417940921,-0.0055987365,-0.058561463,-0.0565350352,-0.0650882787,-0.1760546267,0.0019072628,-0.057434418,-0.0494610116,0.0229755282,0.1240309207,0.0033996784,0.0391141051,-0.1266017481,-0.0312546438,-0.0040747154,-0.040161818,-0.0036982793,-0.007753175,-0.0617003128,-0.0816945906,0.0231727311,-0.0194839671,0.0518491568,-0.0213015097,-0.1091609734,-0.047072766,-0.0305548685,0.0060132969,0.0199616187,0.0465616467,0.061006968,0.058298057,-0.0443770498,-0.0120934915,-0.0614030473,0.0319356374,0.1143388349,0.0558271862,-0.0331218914,0.0243448275,-0.0536829538,0.0586966347,0.0379392815,-0.0356248173,-0.105171977,0.0910436419,-0.0548372405,-0.0308329078,0.0552010626,0.0456730805,0.0552560502,0.093329175,0.0124441912,0.0557690868,0.0125490468,0.0185423041,0.0454641586,0.0457614851,0.0622595637,-0.0119635801,0.0403448075,0.0048520998,-0.0990584102,0.0242162304,0.0071693516,-0.0285023641,0.0287353418,0.0012838467,-0.0119642885,-0.0256562786,0.0460595019,-0.0145390213,-0.041772103,0.1137819039,0.0984067166,-0.0011977582,0.063990755,0.0601991888,0.0308726838,-0.0242490707,-0.0862740891,-0.0808429102,-0.0180632113,-0.0175865403,-0.0251028123,0.0232959739,-0.059427211,0.0340085971,0.0123576889,0.0244677475,0.0218948407,0.0031669114,-0.0739479868,0.0272251561,-0.0788367287,0.0841599139,-0.079749429,-0.0672873614,-0.1007727355,0.0892663417,0.0282044708,-0.0123669503,0.0388574005,-0.0579119576,0.0312734172,0.0726248966,0.0247160657,0.125585857,-0.0438206009,-0.0659140792,-0.0056564687,0.0075544973,-0.0002005447,0.1397412825,0.0544478835,0.0582526712,0.0333733442,-0.0284367916,-0.09158043,-0.0382040128,0.0799784928,-0.0154845342,0.0352473325,0.0173684379,-0.0021639031,-0.0747973866,0.0797719693,-0.0387394884,0.0236063009,0.0129304587,0.0311435299,0.0101801365,-0.0007709464,-0.0487971041,0.0156102575,0.0137299627,0.0783857687,0.1451999621,0.0120531206,-0.0836686505,-0.0895763931,-0.0104126825,0.091533716,0.1003509426,0.0607602845,0.0141197512,0.1156109023,0.0649694676,0.0384216406,0.045253764,0.0130882172,0.0149617494,0.0407579736,0.0885558767,0.0012113039,-0.0960704446,0.0522711638,0.0302016041,-0.0435005841,-0.029549532,0.0795032704,0.1480199669,0.1038347486,0.0713624868,0.0561913773,0.078258858,-0.0280726053,-0.0762439151,0.0244525231,-0.0593037539,-0.005071961,0.0026716584,0.0032465067,0.0342311058,0.0144258008,-0.0246411403,0.0481310497,0.0347961375,0.0467850173,-0.0735748779,0.077949241,0.031718622,-0.1570290214,0.0123393306,-0.0126752465,-0.042485577,-0.0002977192,-0.004041593,0.0384361334,0.0419667299,-0.0010746143,-0.0925507891,0.0167547426,0.0133467884,0.043297479,0.0395856024,-0.0586096785,-0.0410886774,0.0346442942,-0.0741447798,0.0060364644,0.0379617579,0.0240440001,-0.0709097209,-0.0137969559,-0.112603242,0.0517516569,0.1050099648,0.0168542172,-0.0624759641,0.0494513655,-0.0223330064,0.0104902476,0.0646721981,-0.1062902095,-0.037711755,-0.04720239,-0.0341089914,0.0188343967,0.0822427178,-0.0538390402,-0.0520563842,0.058560445,-0.0371447096,-0.1004176575,-0.0441264111,0.0225425888,-0.0610990407,0.0166629346,0.0278789048,-0.0934161731,-0.0895923876,-0.0526382747,0.0198938028,-0.0413672648,-0.0027674908,-0.0377946197,-0.070084577,-0.0599854436,-0.0958730938,0.0820163352,0.0368628364,0.0906871041,-0.1307684207,-0.0584420264,0.0821628106,0.1582155193,-0.0171881531,-0.001025433,-0.0574257019,-0.0260713737,0.0768564376,0.0392170607,-0.0125619156,-0.0132596235,0.0701122909,0.0052499944,0.0463563236,-0.1093865662,-0.1063205223,-0.0653589268,0.0088623814,0.0202079041,0.0257483235,-0.0887909514,-0.0441256157,-0.0588135035,-0.0381904896,0.076960524,-0.0253001708,-0.0826414955,0.0754865582,-0.0445808583,-0.009053623,-0.0019788369,0.0820727027,-0.0138947747,-0.0676248345,0.0998557362,-0.0275374844,-0.1462006501,0.0276128085,0.0009327686,0.1983347301,0.0259304641,0.0394673873,0.0244698012,0.1545261599,-0.0602060076,-0.0216132596,0.0025453974,-0.0414475307,-0.0008992477,0.0359578115,-0.001175734,0.0562659471,0.0780537062,-0.0067509676,-0.0501409745,-0.0178108538,-0.1582290722,-0.0092334317,-0.0230381909,-0.0251608054,-0.0228399614,0.0024338022,0.0105012025,-0.0193966729,0.0018766818,0.0191215812,-0.0587580162,0.0074895945,0.0154626471,-0.0078319721,0.0363933469,-0.0124955318,-0.0241253357,0.0001928264,-0.0141398856,-0.024323537,0.0157053729,0.0330467312,0.0797132897,0.0142513834,-0.0664701672,-0.0373525505,-0.0128046905,-0.0183484824,-0.0136753808,0.0079728084,0.0371701047,-0.000274646,0.0037988711,-0.030755355,0.009119285,-0.0047595294,-0.0332767366,0.0060543088,0.0204928755,-0.0027436643,-0.0210179074,0.0042209001,0.027457247,-0.0105080842,-0.0220604259,0.0267644842,-0.0128037496,-0.030979237,0.0162995194,-0.0062487162,-0.0144253575,0.0187143017,-0.000795789,0.0026322613,-0.0143113251,0.0371273697,0.0483207527,0.004659756,-0.0060457803,0.0201046063,-0.022824521,-0.0373507042,-0.0126795909,0.0426258556,-0.0032212202,0.0319263799,0.0162589582,-0.0196901499,-0.0277858481,-0.0178097322,0.0294512882,0.0072170961,-0.0394751804,0.0703328738,-0.0046766525,0.0212510418,0.0110127983,-0.0085755456,0.0150126985,-0.0030096167,-0.0202937908,0.0191144884,0.0192485067,-0.0095055466,0.0017766423,-0.0184333998,-0.0283589064,-0.0362802231,0.0003639418,-0.0083415934,0.0092643794,-0.0285872893,0.0026745561,0.0361104664,0.0081605615,0.0356924898,0.0528143127,0.0081485685,-0.0121099374,-0.0001651545,-0.0095075647,0.0237557642,0.0239315297,-0.0057716376,-0.0180407544,-0.0017466598,-0.0169355839,-0.0106847909,-0.0212101631,-0.0485304763,-0.0247416529,-0.018158898,0.0231511568,0.0393611642,-0.0055581498,-0.0008234594,-0.010267917,-0.0122015704,-0.0207923469,0.0292037769,0.0121047021,-0.0251974857,-0.0295193966,-0.0003378771,-0.0057042292,-0.032662816,-0.0271684065,0.0153047743,0.0050873446,0.0212319087,-0.0078478929,0.0275100827,-0.0181534022,-0.0175240263,0.0132144191,-0.0233100474,0.0568069848,-0.0030675942,0.0047247304,-0.0276099279,-0.0094733911,-0.0337651921,-0.0199527296,-0.0160903228,-0.0365884976,0.0382649501,-0.0037095632,0.0350094473,0.0178721048,-0.0153935391,-0.0078383066,0.012011156,0.0197107784,-0.0578943528,-0.0026793119,-0.0164267954,-0.0150176529,-0.0040648727,0.0288834147,-0.0329018395,0.0054009939,0.0022676054,-0.0002934751,-0.0068230199,-0.0001356562,-0.0100726657,0.0162384969,0.0021386713,0.0085354664,-0.0200994435,0.0399703184,0.0287569642,-0.0161020443,0.0246949026,0.0164408821,-0.0010258087,-0.0082727797,-0.008807726,-0.0092143872,0.0071297335,-0.0209174583,-0.0152464704,0.0324350614,0.0119751754,-0.0171709836,0.0027999793,0.0149007857,-0.0439965689,-0.0212508746,-0.0022000628,0.0064631818,0.0121181471,-0.0459334288,-0.028386149,0.0087736368,0.0393445476,0.0125973369,-0.0041186037,0.0390544149,-0.0051307544,0.0010333494,-0.0048708841,-0.025992606,0.0433122179,0.0235749477,0.0483359816,-0.0042830174,-0.0031150957,0.006359981,0.0009087191,0.0096759331,0.0131012127,-0.0039323496,0.0761895825,0.0040024681,-0.0058964151,0.0016890625,-0.0013611005,0.0130635326,-0.0033977266,-0.0315880331,-0.0305280167,-0.0029411789,0.0170706397,-0.0104885217,0.006170473,0.0176208705,0.0417548321,0.0228349832,-0.0042546268,-0.0135415596,0.0210090197,-0.072950459,0.0267049772,-0.0000330102,0.000749135,0.0280957654,-0.0211994824,0.0282803612,0.0003057322,-0.0041807822,0.0240816481,-0.0025645845,-0.001789075,-0.0057941747,0.0153280682,0.0050714612,0.0000506792,0.0001471035,0.0080200952,0.0190341271,-0.0145835527,0.0063365717,0.0267778536,0.0125196575,0.0077696464,0.0304931542,0.018807395,-0.0081196127,-0.0262165631,-0.0395320304,0.0003815038,0.0076008475,-0.0008819274,0.0029321096,-0.0018945794,0.003083304,-0.0086889759,0.004114175,-0.0543304614,0.0208786215,0.0563972053,-0.0453090077,0.0099791634,0.0068112717,-0.0025615165,-0.0195664213,0.0281774948,-0.0174289266,-0.0081095139,-0.0082499195,-0.0119826698,0.0270929144,0.0071871126,0.0351668456,0.0640694239,0.0061548848,0.0176683804,-0.0051016181,-0.0384873045,-0.0076549348,0.0334054007,0.0028911094,0.0477389863,0.0427996395,0.0358617591,0.0202492565,0.0081386638,-0.0136438005,-0.035216469,-0.0114707908,-0.002431109,-0.0211973433,0.0161514213,0.0009031638,0.0231899543,-0.0284593546,0.0261228591,-0.0512133563,-0.0080511544,-0.027671489,-0.0567988107,-0.0191284147,-0.0155355609,-0.0253840385,-0.0021713862,0.0187386089,0.0046413752,-0.0094622959,-0.0225937194,-0.0018875266,0.0136507081,-0.0207817792,-0.0326143321,-0.0549095915,0.0200875375,0.0105219239,-0.0162439894,-0.002631133,-0.0037353263,0.0147171758,0.0108062108,-0.0106030252,-0.0318738913,-0.0083424822,0.0347323219,0.0065717538,0.0580070007,0.0580074492,0.0044775936,0.0083398913,-0.3918250908,-0.0641623224,-0.0293074201,-0.0126811958,-0.0260417515,0.0031019877,-0.001289741,0.0257575758,0.0068718336,-0.0422153207,-0.0099928965,-0.0197146916,0.0182432205,-0.0039664107,0.0382372765,0.0460453219,0.0432599599,-0.0170393121,0.0301261232,0.0065182448,0.0175189263,0.0268994712,-0.037616532,0.0207435724,-0.0344046338,-0.0109058292,0.0157615881,-0.0263148697,0.0145757865,0.0065188739,0.0140556192,-0.0331078004,-0.0174526126,-0.0296890894,0.0031594338,-0.0200592198,-0.0238483788,-0.0437227511,-0.0211234137,-0.0214417304,0.0240049479,-0.0401034668,0.0186026178,0.0039908047,-0.0307220947,-0.0301270473,0.0209006626,0.0085780421,-0.0449065375,-0.0315692378,0.0344788789,0.0043308645,-0.0358932626,0.0274509199,-0.0148613211,0.0499526748,0.0102670685,0.0418832599,0.006166362,-0.0155521162,0.8262252594,-0.0472380255,0.0160313834,-0.0381548746,0.0407650235,-0.038752529,-0.0306441298,0.0544746016,0.048831984,0.0038022916,0.0424544434,-0.0533583656,0.0254478702,-0.0381497289,0.0276373096,0.0356648634,0.0450213234,-0.0697964745,0.0557575394,0.0243779322,0.1364297815,-0.0072482215,0.0330866557,0.0053247215,-0.0363765,0.0152425879,-0.0785382936,0.0459270583,0.0172614828,-0.0765094123,-0.003364642,-0.0141203022,0.035431084,0.0389801216,0.0107258358,-0.0546404913,0.0171472624,-0.0281107295,-0.0211572901,0.0247272144,0.091756493,0.0223199021,0.0273604107,-0.0143530589,-0.0954110586,0.0696646399,0.015795067,0.0524792908,-0.0147944753,0.0590165209,-0.0536241268,0.0679544144,0.1204681059,0.0327035714,-0.0486599225,-0.0015815896,0.0617993552,-0.0190153842,0.0416856795,0.0322150328,-0.1136018407,0.1004587533,0.0210118583,-0.0535901913,-0.1139713645,0.0595391154,-0.0226596641,-0.0720232927,-0.0284005557,0.0700767866,0.0397706498,-0.0043868479,-0.0433102836,0.0155318943,-0.0324736907,0.0336400793,-0.0946242808,-0.024262758,-0.0239438435,-0.0627159213,-0.0154139281,-0.0891339819,-0.0217959113,0.0749848129,0.0421396466,-0.0402862138,-0.0665914901,-0.0429869771,-0.0725890011,0.0739524042,-0.0301667611,0.0032781232,0.0590001915,-0.0266719308,0.0549537122,-0.0987386334,-0.086151361,-0.1241235751,-0.0033685593,0.05024395,0.0553486772,0.0081965601,-0.0507347917,0.0075836404,0.0551872076,0.0020708749,-0.013077515,0.055105974,0.0333066535,-0.0011777667,0.0068632557,0.038957942,-0.0347354976,-0.0458745922,0.0041656949,-0.0397329882,-0.0150558288,-0.0243821893,-0.0741394691,-0.0465287958,0.0629954582,-0.0353821476,0.0692737156,-0.0385499309,0.016865896,-0.0218400659,0.070118143,0.0316031125,0.0204691206,0.0525206696,-0.0892896503,-0.0162002284,0.01084747,0.0098344901,0.0838097247,0.0667782246,-0.0038761305,0.0486025477,0.0747403113,-0.1106785494,0.0214726714,0.0896222483,-0.0744759103,0.0501149021,0.0464211269,0.0184466239,-0.0632615135,0.0302894506,0.0548352119,0.0056459846,0.0687597504,0.063899522,0.0095071021,0.0548563176,0.0587357851,-0.0274378566,-0.1353774318,-0.1147576209,0.0499433159,0.0476199038,0.0422685629,0.0836484139,0.0242629363,-0.0178382007,-0.0432794086,0.0406259936,0.0851055733,-0.052183344,-0.0028619532,-0.0468767661,-0.0115390783,0.0111440025,0.0864931245,-0.0117840185,-0.1041643768,-0.0366146883,-0.0137040298,-0.0537676233,-0.0144172308,-0.0710496224,0.0131044579,0.023916597,0.0889490909,-0.0094457444,0.0991133959,0.0057092248,0.0041202024,0.0254276088,0.0297032442,0.0179202209,-0.080423329,0.0645621637,-0.0304238502,-0.0275506651,0.028243494,-0.0740632284,-0.0434376845,-0.0178965623,-0.0202244672,-0.0479673532,0.0077590461,0.0687624862,-0.0347916091,0.0190800336,-0.0194447052,-0.021332074,-0.0606802463,0.0073082506,-0.098733348,0.0057115372,-0.0394898183,0.0163456828,-0.0296873109,-0.0753110328,0.0429134592,0.0161166082,0.0564772423,-0.1151134857,-0.0694255199,-0.0324953741,0.0318715644,-0.0145629892,0.073920596,0.0611282532,-0.0603377199,-0.0467894135,0.0764557284,-0.0063521399,-0.0381936755,-0.0072816916,-0.0426897994,-0.0253994405,0.0301984557,0.0897025677,0.0773238443,-0.0319570961,-0.0442434474,0.0152333709,-0.0495462707,-0.0238913586,-0.0067422578,-0.0039447232,-0.0368142902,0.0006861032,-0.129889173,0.0267545767,-0.0029241635,-0.0414767011,-0.0831677507,0.0410258056,-0.1693398606,0.023843783,0.0188467577,0.0473563989,-0.091463789,0.0025895055,0.018451362,-0.0319342852,0.0150022059,0.091772516,0.0205934974,0.0434697166,-0.066972424,-0.0817239078,-0.0287294768,0.080679979,0.0862128815,-0.0338286942,-0.0490841738,-0.0404890997,0.0429804793,-0.1126540168,-0.0246523715,-0.0444531995,0.0489265799,-0.0269965868,0.017631515,-0.0337775457,-0.0491068738,-0.0126119555,0.0171177612,0.0380737639,-0.0609835722,-0.0105701165,0.0673918498,-0.0333488864,0.075643248,-0.0160901814,0.0021877058,-0.0002403898,-0.0185629015,0.052020593,-0.0377872054,-0.026067451,-0.0967323978,-0.0622815892,-0.1093396925,-0.0316923832,0.0212059481,0.0605479653,-0.0182716309,-0.0921227088,0.0759863207,0.0169401181,-0.0410336327,0.0015662301,-0.0396310022,-0.0021757564,-0.0541747355,0.0904711029,0.0139350311,0.0279002848,0.0010102357,0.0089399407,0.0768553083,0.0099904005,0.0669205699,-0.0119647849,-0.0398471925,-0.1117646732,-0.033479436,0.0368638231,-0.1641850008,-0.002186145,-0.0339615557,-0.010750025,0.0964665672,0.1313549027,0.0050125908,0.0219752153,-0.030297515,0.1062206315,-0.074774672,-0.0367840677,-0.0447218419,0.0034272536,-0.1075668491,0.0120197882,0.0080588098,-0.0123896346,-0.1054959368,-0.2399315088,0.1103209617,-0.0280633922,-0.0507841941,-0.0461946516,0.0418817002,0.0042515198,0.0264879419,-0.092897226,0.1245786847,-0.0433185076,-0.0312846722,-0.0183505608,-0.1463464271,0.0007445583,-0.0578892946,0.0537102967,0.0106666046,-0.0070778776,-0.0205777129,0.1084514464,-0.0432589336,0.1246542231,-0.1261570562,0.1445632875,-0.0109340621,0.0225057495,-0.053599308,-0.0535070034,0.046920947,-0.0392723634,-0.0032063313,-0.0553680983,0.0048664897,0.0296205058,-0.1287795268,0.0264346101,0.0329420356,0.0232456301,0.0033181474,-0.0255823545,0.0280877756,0.02194254,-0.019516618,0.0668560199,0.092991361,0.0979733484,-0.0132261434,0.0698954506,0.1104824064,-0.0143822791,-0.062594793,0.0664806475,0.0437864762,0.0190786789,-0.0280567214,0.1278286522,0.0285080436,-0.0092110968,-0.0505582769,1.0502616343,0.0243584997,0.063231318,-0.0260089575,-0.0173456148,-0.0581595624,0.0110311335,-0.0733405511,0.0031514488,0.0423665484,0.0001971677,-0.0501946934,-0.0813865018,-0.0110948885,-0.0052208268,0.0480018425,0.02015492,0.0167286023,0.0679971868,0.0657112495,-0.0664385753,0.0232789929,-0.0225687347,-0.0290019565,-0.0475205849,0.0041578294,0.0317417776,0.0607991038,-0.0366464117,-0.1052208593,-0.0469060661,-0.0449202938,-0.0313440448,0.064346616,0.0496394121,-0.1655065561,0.1425266301,-0.0373309922,0.061092508,0.0471908493,-0.0295296809,-0.1021369899,0.0932781967,0.0047199734,0.004479949,-0.0053806905,0.0684080693,-0.0141633246,0.0452239191,0.0297420431,-0.0049766076,0.0125624929,0.0006718861,-0.0338300034,-0.0101704708,0.0042535602,-0.0476757969,-0.0705127195,0.0327476104,-0.0373362142,0.0381462699,-0.0023541395,-0.0682915871,0.0624045786,-0.0283077702,0.1027185624,-0.0156859022,-0.0454872842,0.0725673212,0.0356246665,-0.0237419803,-0.0598140099,0.0091278349,0.0261382828,0.0532853797,0.0427594433,0.0096391686,-0.0372529468,0.0792546615,0.0360008976,0.0978815606,0.0044764273,0.0398421615,0.0488734766,0.0001323423,-0.0767723667,0.0518891603,-0.0063386714,0.0638412987,-0.0626389412,-0.0025082881,0.1042129751,-0.042213108,0.0884118832,-0.0422904613,-0.0280743229,0.0291474802,0.0061301271,0.0468040781,0.0413209232,-0.0193568882,-0.1040105551,0.0679291588,-0.05761051,0.109338578,-0.002004022,0.065364129,-0.060724326,-0.1022235033,-0.0559970004,-0.0601615776,-0.0402350585,-0.0055447361,0.1022137648,-0.0353588305,-0.0231937096,-0.0061607122,0.0199005633,-0.0730542293,-0.1252371854,-0.0619098626,-0.0474948475,-0.0734958513,-0.0654128808,0.0845452575,-0.0185908898,0.053086793,0.1051011249,-0.0203013901,0.0053029663,0.0353641693,-0.0379947815,-0.0407499932,-0.0355110792,-0.0200347635,0.0048947105,-0.0343041129,0.12356746,-0.1004949953,0.1063667761,0.0455387913,0.021751175,0.0403990348,-0.0201591063,-0.0158990469,-0.0044280605,0.0123318622,0.0793943581,-0.1844413038,0.0182445688,-0.0690472259,-0.0329404455,-0.1154505921,-0.0075526371,0.0826772928,0.0348741073,0.0774556788,0.0211949152,-0.0795139511,0.0266393894,0.0275509176,-0.0337708458,0.0369746502,0.0325262743,0.0600369984,-0.0336357542,0.0817711643,0.0129694152,0.1088716589,0.0384149834,0.0204824977,0.0172042892,-0.037975639,0.0338203759,0.0542220868,-0.0430246919,0.0034629719,-0.1126960837,-0.0563508007,0.0658108468,-0.0927377994,-0.0396483029,-0.0422008653,0.0925100221,0.0737489944,0.0176613803,-0.0933312292,-0.0966725244,-0.0844714588,-0.0378487035,0.0336601503,-0.0115297995,0.0868881385,0.0350807569,-0.0307846581,0.0578858167,-0.0114471827,0.0273948024,-0.0398447068,0.1155002762,0.0507024367,-0.0586423021,-0.0388521064,-0.0421508974,-0.1128802202,0.0014497576,0.0578517488,0.0608492209,0.068227203,-0.0238449187,-0.0026922687,0.0252785793,0.0454834114,-0.0124096403,0.0331337781,0.0413747358,0.0434899681,-0.0730667455,0.0304872993,-0.0353114479,0.0388225866,0.0196656469,-0.0911895756,-0.0817606175,-0.0792163022,0.0157455373,-0.0633304399,0.0370541104,0.0297797264,0.0238935122,0.02885237,0.0137685651,0.0516708547,-0.0307353883,0.0543419348,-0.0667061531,0.0060097528,0.0823331231,-0.0385058364,0.0331015054,0.0567439945,0.1322542619,0.0085439169,-0.0037190239,0.038545881,0.0150690319,-0.0103712918,0.0576386157,0.0757272517,0.0217238163,0.0094886816,-0.0101339202,-0.0398115395,-0.0383355898,0.0281556282,-0.1502044775,-0.0775156271,0.030211746,-0.1169482946,0.0517621702,0.0089068397,-0.0623336876,0.0160000081,-0.002890917,0.030539514,0.0019338974,0.0614953359,0.0515735426,0.0630269272,-0.0282483711,-0.061288125,0.1556109295,-0.0374516968,-0.0695837175,0.0762668531,0.0510844182,0.1306228546,-0.1226497691,-0.0241963996,0.0431823052,0.0292744958,-0.0197276861,0.0689102862,0.0872078595,0.0577581052,0.0325894513,-0.0009120782,0.0243642583,0.1452043323,-0.0463300116,0.0695247309,0.098708961,-0.0065824704,-0.0621941862,-0.1000621743,-0.0083841129,0.0383329684,0.1039909659,0.0350706746,-0.0952328218,0.08371955,0.0292218391,-0.0013109452,-0.0080373918,-0.0399028926,-0.0841737441,0.0622045158,-0.1115114492,0.1025953619,-0.0580470636,-0.0129645567,0.0439786866,0.0657459085,-0.0168866267,0.0284499467,-0.038933109,0.0170889479,0.0315054474,0.1161408973,-0.0347309269,0.0764434105,0.0399788569,-0.0588343853,0.0412290637,0.0649302089,0.0158898791,-0.0346857244,-0.0098527793,0.0018010176,0.0937778981,-0.1235536406,0.0155814293,0.0326406848,0.0674039579,0.0183647516,0.0507584438,0.0227720186,-0.0585029509,-0.0197485248,0.0476190396,0.0177016178,0.0247763223,0.0260629909,-0.0507901701,-0.0157851044,-0.0968199105,-0.0577907926,0.0387490201,-0.1055819017,0.02652008,-0.1181356892,-0.045526201,0.0035546784,-0.0069228859,-0.0073780603,0.0234378212,-0.1274525689,-0.0689730022,0.1010060614,0.0688751756,0.004447063,-0.0802613215,-0.011279766,0.0455359269,-0.0119746978,-0.015154426,0.158290161,0.0796293558,-0.0675438638,-0.0583138561,0.0673066166,0.1154793792,0.0223219667,0.0500819432,-0.1009053712,0.0125880243,0.071826354,-0.0348418663,0.0110178759,0.0413676526,0.0150272474,-0.0011794146,-0.0377095047,0.0185280758,-0.0001364914,-0.0231761943,-0.0782370683,-0.1372330135,-0.024876797,-0.015604396,0.0388966833,-0.0229368556,0.0554270993,0.0688953069,-0.0400131259,0.0041143765,0.0443314653,-0.0823886098,-0.0224319715,-0.0567554355,-0.0317766964,0.3967837781,-0.8119521078,-0.4771095388,0.1136008051,0.2030808776,0.3088310132,0.255007213,-0.0728688957,0.5484175565,0.2879126808,-0.591306213,0.862209457,0.9818191078,-0.8790068408,-0.6493658719,0.0858317021,0.1932395163,-0.0934038782,-0.5042538297,0.1572009719,0.4404133343,-0.376655356,-0.5976915443,0.2777197236,-0.4199152833,0.2141062044,0.2166911321,-0.1044385555,0.6736114402,-0.0391747243,0.5552523239,-0.1116627796,0.0101655375,0.822561292,0.9141761363,-0.8195009738,-0.5172746249,0.4421389708,-0.1783003832,0.4193516855,-0.719579206,-0.5053218728,0.0599309665,-0.6141261961,0.6146113598,-0.457869915,0.063117956,0.2793037957,0.912480816,0.5658438598,0.2167184406,0.553486133,0.2248202746,0.1461028725,0.3789831481,0.3728884518,-0.6145813521,-0.0499275389,-0.110098198,-0.5999407526,-0.8131019013,-0.303075006,0.9633915064,-0.3041553914,-0.5434033792,-0.6233206622,-0.5096414222,-0.1608813253,-0.744719538,0.8704064162,0.2717924355,-0.0130502406,-0.0940921151,-0.1601211202,-0.2536593049,-0.9591332011,0.6096549876,-0.3386561495,-0.7781924475,0.9625634448,-0.4954633882,-0.8687005525,0.6217734727,-0.3539141158,0.2149656396,0.0744149775,0.7271131448,0.5446365235,0.1538984728,0.1286270522,-0.5551219815,-0.0842612767,0.5599006103,0.8459170573,0.3509654643,-0.9637628635,0.2892239233,0.9648790677,0.130241803,-0.3697733592,0.7785115939,0.9354970272,0.777352423,0.974384627,0.4743463315,-1.0065616769,-0.6547006321,-0.0974922143,-0.7330609776,0.7212093531,1.0080240509,0.4766371756,0.0471331589,-0.5123275644,-0.162271008,0.4127565844,-0.9132060619,-0.2889091539,-0.3605044727,0.680142479,0.4126505255,0.42923099,0.9752713723,-0.301698689,-0.9607000186,-0.9359394223,-0.7112295046,-0.8023575765,0.1518732321,0.6523686638,0.4161786902,-0.9140309177,0.465207472,0.4752162492,0.4910693114,0.840109027,-0.9488945819,0.1343275536,0.8615170259,0.332663515,0.1459962727,-0.7401926048,-0.0326606005,-0.7710457954,-0.7652674982,0.3713607217,-0.0327321311,-0.4650237733,-0.8185345674,-0.0416536,0.0247927675,0.1561651341,-0.9108228669,0.5532510178,-0.0213409479,0.6650797995,-0.934657532,-0.2724671369,0.3443148176,0.027429507,-0.5952135934,0.1143837698,-0.3673268453,-0.4085935042,0.9079380886,-0.9443848424,0.5726165527,0.4903178305,-0.1890540198,0.3592318667,0.7945523718,0.2179400708,0.8678009894,0.2008228495,0.2894951256,-0.683542167,0.9792193747,-0.151666416,-0.5314080995,0.7260153627,0.020595059,-0.2126548954,-0.7334447315,0.8161869383,0.7425809821,0.5653473334,-0.4231092583,-0.7331886975,-0.6818496677,0.6523020293,-0.1210096815,-0.1885555165,-0.9198130624,0.7720344216,-0.0682929633,-0.877541767,0.0262774958,-0.6466012889,0.020749078,-0.875122103,-0.3390324276,-0.2817963875,1.0281827519,0.738539553,-0.8403770487,-0.5630064416,0.6144893553,-0.8001048162,0.9221240127,0.8410115668,0.1289966772,-0.0621470198,0.732400655,0.4782513068,0.5845510179,-0.7781512866,0.1782717963,0.1410457558,0.6257964595,-0.0639208616,-0.7266087569,0.2565815011,-0.3333885229,-0.8169367928,0.5536065489,0.3476898482,-0.0677242058,0.1741621623,-0.8293543573,0.1924088533,-0.5628646566,0.4217631156,-0.9836392832,0.7658457113,-0.7256253268,0.0123642518,0.8855581206,0.5255963378,0.8859735931,-0.3713022821,-0.5071317807,0.5040831881,0.7100902731,0.1275892349,-0.3250827838,-0.1584706958,0.4019088992,-0.9120493088,-0.4636823899,0.0739399373,-0.9189739161,0.6025599251,-0.3845268827,-0.6027788798,0.8777637631,0.0734736401,-0.6145753624,-0.0492121865,-0.8196290126,-0.6096252607,0.4853613946,0.7528379299,0.5322793673,0.2798675933,-0.7482727686,0.3439115152,-0.1766051779,0.3090874623,0.7315621672,-0.7940780994,0.1267895491,-0.0929415334,-0.9237739879,-0.5662697527,0.9560264958,-0.9380443177,0.8375536588,-0.4209130699,-0.2010716477,-0.4777704436,-0.5073801023,0.6409520283,0.4545194787,-0.1269982355,-0.2912485066,-0.1209494359,0.0068534208,0.2189711564,-0.6190097116,0.2170829085,-0.8242529848,0.6169168174,-0.2070091526,0.5095495026,0.3785809722,0.8450799201,-0.7167584428,0.5605119616,0.7624416341,-0.3139875123,-0.2720554115,-0.296481552,-0.7728339506,0.1189865369,-0.338451542,-0.025666105,-0.0409484567,-0.2541504194,-0.8412519395,0.7314430401,-0.8492359141,-0.487969833,-0.0366378912,-0.7300731569,0.8850008033,-0.6568216961,0.5696628354,-0.0775103586,-0.3307798822,-0.5100962019,-0.7207837376,0.5191783759,-0.1756319478,-0.551884897,0.1210359929,-0.3422443842,-0.2237864326,0.4289053331,-0.7885270373,-0.6803239681,0.174168955,0.9066114836,-0.1959763171,0.6573226795,-0.7145387349,-0.1100540369,0.3300204162,-0.5341158887,-0.7747493737,-0.8199267885,-0.7614506681,-0.4924833715,0.6445862525,-0.1660815675,0.0214917876,-0.883489217,0.9795711439,0.9849578413,-0.6235317837,-0.5672315612,0.5235169767,-0.2288302471,0.3720163364,0.3354910186,0.4926601671,-0.9386034869,0.9146046565,0.0520708455,-0.9088953732,-0.3673883662,0.0794410947,-0.6243755821,0.3344706132,0.3031030573,0.5432408632,0.1155510709,0.7026670002,-0.1841558029,-0.4044685235,-0.2056997327,-0.5287247687,-0.6292407231,0.8557029635,0.9812754869,-0.2164397191,-0.0402124158,0.8752795652,0.757707928,0.8179073082,-0.3601172037,-0.624997377,0.401816549,0.6341267626,-0.7928883425,0.4490390303,-0.8051461987,-0.9776442267,0.45035645,-0.3660038205,0.281043677,-0.2938745719,0.196079305,0.1562970347,0.3666409207,0.6503792115,-0.9304509298,-0.6117933756,0.9077749312,-0.9333464421,-0.1670395682,-0.5588992214,-0.9401842076,-0.3190419255,-0.2944575571,-0.6564116631,-0.1031923708,-0.436526423,0.2115010343,-0.7235730324,-0.4827645224,-0.0791315327,0.4700138654,0.7936901126,0.6701262825,-0.1315468712,0.4037991605,0.8125146353,-0.9140708404,0.2347965179,0.6427531201,0.5171129641,0.0205680783,-0.2099808544,-0.9852292619,0.1435636553,-0.1589281996,-0.9233555183,0.9502543045,-0.2080052069,0.6543821741,0.9847385365,-0.7708793345,-0.7311527388,-0.6508829081,-0.2036400904,0.2965613884,0.7248039525,0.1087162229,0.8152723435,-0.2890272582,-0.3687422093,-0.3357787954,-0.3669689846,0.9325049543,-0.4737489078,-0.0774227932,0.0938389123,0.2346041,-0.9609254353,-0.3895087339,-0.894086784,-0.7773234736,-0.6407182057,-0.286418164,-0.5070933469,0.7607580256,-0.5691251608,-0.220966661,0.6900260171,-0.6640672265,-0.2661560419,0.9086449213,0.6174925318,0.0275831867,0.6942859308,0.585792357,0.6550903877,-0.9591591482,-0.2353114577,0.6480026946,0.5211509022,0.6591577373,-0.2644980254,0.3677617659,-0.6918393832,0.8810315608,0.5757507883,-0.3358811181,-0.7609226456,0.6900449926,0.8872346477,-0.1708754371,-0.4179538373,-0.9174871786,0.6002692036,-0.6725227457,0.1437364006,0.8803342356
   0.2147849449,-0.6093262924,0.8326084626,-0.0844849962,0.2516102047,0.7355170102,0.0933332925,0.1832263423,-0.0255776463,-0.0879591741,-0.1666217919,-0.6763594319,0.2421854558,-0.4536783019,-0.4507857236,-0.6979656452,0.7956015122,-0.8004178828,0.4495453165,-0.6539245745,-0.5474946919,0.9856354884,-0.1968836285,-0.8745782165,-0.1604147489,-0.3519801227,-0.7619295761,-0.1508786596,0.3523213104,0.9724121395,-0.2045508345,0.1515180044,-0.6950048908,-0.431448054,0.9725329649,0.3057830781,0.8854053176,0.0732038401,0.3820223789,0.303883668,0.3094089743,0.5928215561,0.8769490677,-0.5084175732,0.3644618531,0.0975425365,0.844438307,0.885595156,-0.6873078525,-0.979105052,0.1374187387,0.3012048674,-0.3190358351,-0.3458268074,-0.7920692759,-0.8059699507,0.7648580222,-0.8521424572,0.7205402851,-0.892482848,-0.6222195217,0.5383302579,-0.3752841917,-0.0762513075,-0.3104397527,0.7969895156,0.8092219222,-0.0046443056,0.0564353729,0.2363631021,-0.3892635451,-0.1717218454,0.2546775674,0.787908286,1.0319487123,-0.2116215026,0.121258519,0.1264366126,-0.1831040382,-0.6256026063,0.9674819186,-0.41236001,0.0866034057,0.958039418,0.0667402169,-0.2503252729,-0.4471994734,0.7546972822,0.7530957835,-0.7371583917,-0.0389527378,-0.7858183713,-0.8430141919,-0.515214374,-0.5101540775,0.2351744513,0.5055295681,0.4907195033,0.617600151,-0.8209515657,-0.6706060907,-0.9547422301,0.0087994506,0.4717586607,0.052441432,0.0696759406,0.7263891232,0.076289497,0.4860031267,0.2412457456,0.2159966295,0.3201191366,-0.8085603061,0.5188233186,-0.4455575009,0.1798953992,-0.4235226074,0.3459005826,-0.6175531929,-0.4013121137,-0.5428269524,0.0896233798,0.3905868602,0.6657689216,-0.5960981923,0.2908848209,-0.9087046823,-0.6282375211,-0.7724581647,0.0523871257,0.9119857178,-0.6815446627,-0.9578624723,-0.6863400752,0.0481498996,-0.5158510098,-0.4584693493,0.7891152474,0.0390209543,-0.0447853922,-0.3204662661,0.3148120463,0.5772580999,0.8310237627,-0.6832416566,0.6029485313,0.6598944421,-0.2473204927,0.8976399368,-0.9217395097,-0.5041387215,-0.125109841,-0.6358270555,-0.5673608656,0.3430425666,-0.5628159993,-0.0479653367,-0.106265642,0.7838784477,-0.8407561684,-0.6023174819,-0.6435630457,-0.3186898716,-0.6433333487,-0.6306903209,-0.2798505696,0.2807239168,0.1481179612,0.2293535799,-0.3348700703,0.5583696598,-0.7447572016,0.4918622591,-0.1249773572,0.3119762563,0.3900396432,0.7887532666,0.9304167154,-0.8272738609,0.4762884022,-0.2352848282,0.4762849771,-0.3008910039,-0.7992919721,-0.2625955879,0.1935233874,0.0294212352,-0.514053668,0.8410673455,-0.0914294064,0.8781538406,0.6465900603,-0.3045033263,0.379845009,-0.3391766389,0.0439191516,0.8520707455,-0.8096765538,0.3808485101,-0.4153977396,-0.4281873227,-0.6829853188,0.7490498258,-0.1986740608,0.1313449968,0.1476084308,0.3793836853,0.087327937,-0.2150751963,-0.4109312191,-0.6097804913,0.6740490549,-0.726449754,0.2359000677,0.1816008422,-0.5557466143,-0.0389265121,-0.0256605801,-0.4003784685,0.6578145948,-0.375999905,0.5171751955,0.8581748132,-0.5359192797,-0.9270443029,0.6210726093,0.7427607395,0.5074916909,-0.4943363458,0.2314434045,1.0010747737,0.0181410043,-0.2272100498,-0.017072985,0.1866133585,-0.0258975824,0.370844744,0.2976577915,0.7230994767,0.9909787733,-0.0583993583,0.1978053246,0.9147647893,-0.2366001696,-0.5311426835,0.630770451,-0.8790033969,-0.631708552,0.8364321233,-0.4076095297,-0.8157384449,-0.7283945776,-0.2944729699,0.1368705353,0.9534321611,0.3798418995,0.7840360429,0.5991361021,-0.9000488151,-0.5772222456,-0.8736398532,-0.7789713041,0.8901238575,0.1673875869,-0.9807317373,-0.6529004766,0.062238351,0.3233078078,0.672240659,0.1986744228,-0.6217121443,0.5043766276,-0.6148447791,-0.2845642668,0.665577967,0.5373459884,-0.497075037,0.5561022071,-0.5677998357,0.1735504773,0.8103639297,-0.8367118136,-0.5180194177,-0.5995535842,-0.8977544263,0.8628932957,-0.1410364216,0.6214631135,0.6391842306,0.6115388881,0.0721159713,0.0050195187,0.6097181886,0.6185099442,-0.8036546558,0.3701200679,0.8864631271,0.7194061575,0.0904165693,-0.8121536006,-0.8336951279,0.3514423176,0.7041385506,0.1485072493,-0.9030716872,-0.0911624563,-0.5344040942,-0.6174335498,-0.3120164676,0.2078230881,0.180669421,-0.946178916,0.2802037846,0.8040188297,-0.7749280672,-0.0461633236,0.3879229692,-0.0652503828,0.0854337025,0.5705688187,-0.147575598,0.4098250707,-0.2536503883,-0.4912305873,0.3626014408,0.9001876333,0.1922010051,0.2129841062,-0.3531171725,0.3915829402,-0.1942698306,-0.452962416,0.4781632447,-0.2513687715,-0.9458685093,0.0347796188,0.0231806555,-0.4416848262,-0.9823807543,0.1640653766,-0.6829718601,-0.0288135911,-0.4173806728,-0.1183549734,0.1100727412,-0.3308600774,-0.6825036452,0.5400750229,-0.3931615131,0.2132223863,-0.4663309243,0.5364579499,-0.4839037122,0.5453203448,-0.9757452252,0.5840346399,0.2036171273,0.7171238968,-0.5964957355,-0.6484742167,0.2637791414,0.4818780414,0.6116873937,0.5323204282,0.1012855897,-0.463541586,0.8889621702,0.5383981114,-0.097610996,0.152951211,-0.033954834,0.0258148027,0.6164798779,0.6067563385,0.7068286167,-0.5576102388,-0.261426652,0.9628136402,-0.4215646285,-0.6999725836,-0.460313961,-0.5133530309,0.9570935565,-0.9668591475,0.1838542433,0.8244553472,0.1294739478,-0.5559561175,0.7362839238,-0.2584850143,0.8913127259,-0.3941091878,0.6966614665,0.1698964946,0.8444410786,0.2462492544,-0.8451730601,0.1164555529,-0.5166282812,0.7080086962,0.3451699712,-0.2020506201,0.8370172701,0.3964220969,0.7873149785,-0.1591346999,-0.9581691494,0.7859358817,-0.273024034,0.3252124952,0.4477167415,-0.3068730502,-0.7694459396,-0.7934018318,0.3210233192,-0.2074181769,0.9620802138,-0.9243433661,0.7755099164,-0.4524655297,0.8793162165,-0.8180996946,-0.3363901488,0.1131335475,-0.1213014517,-0.7380447186,-0.4610131738,0.7021639523,0.5346603463,-0.3594932959,-0.2630958936,-0.9779481176,0.1237391607,-0.8834654964,-0.1300030619,-0.2156593521,0.6470814209,0.757904687,-0.4037492777,-0.2814363368,0.298073684,-0.4252990413,-0.1442899575,0.0154202569,-0.420267876,-0.8445023497,-0.1702542559,-0.2677156034,-0.8079840362,-0.3386102077,0.9728106757,0.4903279986,-0.8795979279,0.2138553019,0.7730428291,-0.7911381011,-0.9051317302,0.7545518602,-0.9622997138,-0.9529959573,-0.4536183409,0.0114079716,0.6009483118,-0.1964031534,-0.0773039223,-0.3295657892,-0.5704198326,-0.4245227415,0.6165022195,0.6952767754,-0.3381719883,-0.9972440561,0.3579790838,0.7973708658,0.9770673844,-0.4125746218,0.1678410005,-0.4781262162,0.8387790061,0.9404754269,0.1331136616,-0.9674226315,-0.7673175493,-0.0801720863,-0.6906552895,0.420909385,-0.4770325953,-0.0678428835,0.0481915098,0.3555539395,-0.8082936413,-0.3180508551,-0.8576677583,0.8030883315,-0.8583920694,-0.7629123157,-0.5280927358,0.4195961151,0.4257997203,-0.9029953094,0.0512500246,0.3077238444,0.5516203779,-0.6872968655,-0.5680280498,0.3104355642,-0.47660952,0.5957470475,0.7805292961,-0.8223367986,0.0849245262,-0.4997810907,0.0683632461,-0.2089155628,0.4658625273,-0.259664492,0.799679928,0.9579405348,-0.7145295057,-0.7724749915,0.9329618771,0.7264621395,0.7934110898,-0.6903894088,-0.9132909128,-0.5208986234,-0.0830421153,-0.6756709466,0.4674805746,-0.9866054975,0.8234296951,1.0242954181,0.8381956187,0.7225140545,-0.9098118333,-0.0886654612,0.0256487492,-0.1338038108,0.237464803,-0.0135388168,-0.3829027372,0.245773621,-0.5243988987,0.8639802734,-0.4567624808,0.7792248605,-0.8363353802,-0.2478919498,-0.5824269006,-0.0960931205,0.4135212028,-0.6613882153,-0.5313999245,-0.8116384909,1.0181069091,0.1340018296,-0.2034807131,0.9309488101,-0.5327483207,-0.2851913663,0.3485431243,-0.705519337,-0.6218808546,-0.2507454461,-0.4477373994,-0.6264084159,0.9316512586,1.0027844409,0.5470495628,0.1783150659,0.0864192796,0.7250276634,-0.9106058537,-0.5409176612,-0.1004770193,-0.767034151,0.1021938556,-0.8997117739,0.8293369721,0.2623885238,0.2650309518,-0.2742933193,-0.0219228699,0.3635910642,-0.206070337,0.1719087191,-0.2861858642,0.9447200725,0.8787766226,0.7057719702,-0.5085188231,-0.1996455356,0.5520349089,-0.0898461718,0.1014148229,-0.1282275436,-0.4839375304,0.2485808609,-0.9081426629,-0.4150968283,0.1027661788,-0.2073425586,-0.4960592616,0.5355728369,0.0423263243,0.7209387652,0.6375346039,-0.9014387342,0.5714569944,-0.1525773821,-0.1720103447,0.9615200399,-0.9508785179,-0.5076025283,0.0605483466,0.3115938172,-0.4086939973,0.8068568734,0.8954357381,-0.959004559,0.1680628477,0.1137691632,0.0174891215,0.2754386162,0.5843347848,0.3729573495,0.1985968691,0.9626723751,0.0440036961,-0.3374684564,-0.7770152485,0.0579829829,-0.3150491471,0.9581609694,-0.7576179664,-0.8904421663,0.6118840015,-0.4570045917,-0.1807472076,-0.0041892687,0.600911033,-0.6157263846,-0.1524144593,-0.746684018,-0.984101351,-1.0090252461,-0.6782610596,-0.064451348,0.2578474798,-0.912683056,-0.3615947639,0.0708659804,0.9043095834,-0.5473375553,-0.4993036213,0.4739256503,0.96626183,0.0028340218,0.8081257129,-0.2411287172,-0.7255698332,0.3719141319,0.7395854977,-0.9988064122,0.8779137307,-0.8664744584,-0.0768607289,-0.3884261184,-0.1703895378,0.3890813292,-0.7448904694,0.953610442,-0.8598528235,-0.2312879768,-0.8711182038,-0.8316594238,0.2366733572,-0.9381817854,-0.7143643047,-0.9100985463,-0.2062524022,0.5633717173,0.4489391269,-0.1829568024,0.9548498043,-0.4981416038,-0.1952045191,0.9337963689,-0.7375668096,-0.9542811786,0.5250274758,0.0925756738,-0.3898877409,0.2153972738,-0.0872249255,-0.9521675498,-0.2770322094,-0.6319542766,0.8748625402,0.4318194621,-0.0078411382,-0.3972582587,-0.0617156531,-0.6303768534,-0.269875146,0.0136079044,-0.7779712186,0.4523589536,-0.0860480633,-0.2187105286,-0.5487183691,0.6318727585,0.1331759558,-0.7202584626,-0.7514296193,0.4733989576,0.9198471796,-0.5371378749,0.1868568682,0.2762449128,0.0900856596,-0.8072362771,-0.795375094,-0.8669749154,-0.9717465415,-0.1613436184,0.4713375809,-0.0284224588,0.0282994252,0.3947930761,0.7113963564,0.6417904129,0.5376003062,0.4528323993,0.2550133498,0.5360985342,-0.3150138731,0.6785744591,-0.4014542501,-0.8712177473,-0.780314114,0.4778243058,-0.0711141867,0.0876166071,0.4690059343,-0.7541924886,-0.178264902,0.2427820562,-0.0557274901,-0.7861014538,0.3992364522,0.5798563529,0.5277628926,0.919274301,-0.1070347792,-0.3735807093,-0.5366311903,0.7731432371,-0.6441208874,-0.0147984381,-0.0656621739,0.1112927714,0.2227028673,-0.3827458526,-0.5049665766,-0.1163924018,-0.4888886765,-0.4007267011,0.3022791098,0.2512001287,-0.4994690428,0.8900388282,0.2707881283,-0.0179538462,0.3613984794,0.6090296301,0.6952405731,0.3882642288,0.2824278679,-0.0995953877,0.0606930731,0.8104723316,0.8013510055,-0.9301914707,0.8905467343,0.1443004711,0.4116300131,0.3598855391,0.8631557207,-0.9461263665,0.5494230627,0.8242205258,0.6813079572,-0.1193772759,-0.5386768009,-0.5196511186,-0.9551535645,0.9668502209,0.5499180971,-0.5850179364,0.004818204,0.6940595899,0.166982044,0.7941222034,0.2091452886,-0.9131055285,-0.1328392298,-0.4522681373,0.1967687372,-0.8578897307,0.5738243952,-0.4860506971,0.3896028863,0.0533693205,-0.9766954802,-0.75584274,-0.323862801,-0.2706000366,0.7559276448,0.4680523701,0.4171551952,0.8474517105,-0.3567311173,-0.862859144,-0.9446443647,-0.3564824741,-0.2361890369,0.3845116535,0.0122887592,-0.1194068651,-0.3754450449,-0.4403984587,0.6958481606,0.5972312477,0.9714059325,0.2535424913,-0.5172285588,-0.6243738812,0.3608882043,-0.7207507852,0.9589259327,0.9827027656,0.0265038462,0.8360383981,-0.3178603887,0.5209482732,-0.4697503228,-0.0481623431,-0.284905137,-0.7792012111,0.235632228,0.5935892341,-0.8778503399,0.9027621098,0.7454242189,-0.8678499839,-0.5055061771,-0.0464619007,-0.2307856187,-0.3602532181,-0.2190354415,-0.8852385492,0.3120841353,-0.8017865707,-0.7386901377,0.8990452992,-0.4701810639,-0.8312612392,-0.1696125854,0.5685738367,0.569885858,0.3042779998,-0.2889218097,0.4546955848,-0.2732882852,0.0857761655,-0.0589636045,0.7223979325,0.1867081205,0.6283290457,0.366218988,-0.8034290378,0.9331550137,0.7925086487,0.7013139682,-0.5555941594,-0.4810446565,0.2945364543,0.8544862318,0.5691547379,-0.1292292072,0.4431214785,-0.3877210054,0.2649966183,-0.4078090816,-0.4513806552,0.8746508225,-0.100837608,-0.6296859913,-0.7595632539,0.9873997514,-0.8396593607,-0.5341114006,0.6817100447,0.3716419832,-0.7783613538,0.8746223476,0.9608740152,0.8362185536,-0.6489323301,-0.1390655757,-0.5138281856,-0.6205014962,0.2671109387,0.5111840335,-0.4237819858,-0.0443077859,0.9514615969,-0.264392517,0.8531939199,0.8925112524,0.1802499368,0.9359191094,-0.6875915071,0.6527210892,-0.1447790409,-0.5578403702,0.4742146574,0.29699933,-0.1136209374,-0.8881841756,-0.3359109874,0.3944893212,0.1023486418,0.9221586054,-0.4657539064,0.6006940684,-0.6355538836,-0.9098444116,0.5649478133,-0.2905545406,0.3563668451,0.6187655844,-0.0559750862,-0.9658551344,0.6532740182,0.3891041631,0.815481374,-0.4694418339,0.0611389017,-0.0024439523,-0.5980432363,-0.0899226717,-0.7279047154,0.8683328118,-0.5615947773,0.3308476541,0.6803550079,-0.7726533746,0.7105780241,-0.7144854089,-0.8178412641,0.8057088663,-0.8064163936,0.4312862625,0.6434901707,-0.4165171341,-0.9432845682,0.0233312396,0.7681814637,-0.2609059519,-0.3741001825,0.4227805468,-0.9444197822,0.2147192361,0.5578473655,-0.6919192348,0.5326160953,-0.6560970134,0.8741137105,-0.1635881549,0.2668067416,-0.1460969911,-0.2487071047,0.8855473674,-0.9031947438,-0.5083829124,0.8901236698,0.8224342231,-0.65231307,0.3980213022,-0.4246997288,0.4499787214,-0.8420864659,-0.4300258498,-0.8656658872,0.6642801666,-0.9102687869,0.4121764395,0.2853707582,-0.4220447193,0.2468552162,-0.0048877388,0.6946578993,-0.2365527914,-0.0905340196,-0.4887737601,-0.6512199405,0.7269761037,-0.4351336306,0.2053040519,-0.1846391921,-1.0247033396,-0.1125175271,-0.6190605543,-0.2010536969,-0.4393972196,0.126950543,0.7840751742,0.6262580462,-0.9422768155,-0.1118981928,-0.322689021,-0.2493257203,-0.7687471664,0.2671750714,-0.1820522952,-0.6793461282,0.1932661666,0.6580357555,-0.0721138694,-0.4462422763,0.7721116677,-0.924082919,0.9001619111,-0.4155795766,-0.1013886223,-0.7694614936,-0.3301323516,0.4686890569,0.2677388459,-0.0671229352,0.5602513955,0.1684603301,0.3363869611,-0.4044996598,-0.4131877643,0.9061022064,-0.4702050366,0.6084511852,0.8129665848,0.7945207831,0.92353966,-0.4196835614,-0.8926848685,0.826747786,0.6915028361,-0.8757458144,-0.2517166027,-0.0299473753,-0.5841397968,-0.9539009545,0.5942240838,-0.4019547811,-0.2270121231,-0.9065838168,0.3550458491,0.2101564127,-0.2193300197,0.9353280645,-0.8095284528,-0.7043333522,0.6094533801,-0.8185788665,-0.6229647895,-0.0914427712,-0.3916911011,-0.1808476195,0.2894989109,-0.9463872082,-0.9467231463,0.234242335,0.8202772203,-0.4652887099,0.5768872452,-0.7397291841,-0.9764577887,0.3877212041,-0.1174494164,0.8453363675,0.1687074192,-0.160629864,-0.0576038664,-1.0265516325,-0.9941451335,-0.618543743,-0.8289250258,-0.4858801891,0.5783047188,-0.2409063645,0.0424374333,-0.8428776114,-0.3849576777,0.5666111893,0.7300942316,-0.7232567986,0.5618240499,0.0859916386,-0.281220766,0.8497556439,-0.8345453936,0.5222332279,-0.038913639,0.7526976181,-0.7377407646,0.1655053751,0.2842461355,-0.4533949803,-0.3104867211,0.9496881741,0.6980467745,-0.4594731332,-0.2996533307,0.794480983,0.6297265487,0.0755641164,0.0510309311,0.202289006,0.9499602848,-0.3783486081,-0.2750796788,-0.8656973846,-0.8338796296,-0.8172158801,-0.7291616299,-0.6434476341,0.7587924039,0.1152513001,-1.0095874133,-0.0745591883,-0.8721270948,0.2815008098,-0.2076915675,0.8189693851,-0.1678713517,0.5657783984,-0.0453213414,-0.0714688277,-0.5516410986,0.1134034122,0.7572058699,0.2590248664,-0.1048224434,-0.2661567949,-0.1103543909,0.1039514391,0.3324551982,0.5147127879,-0.0293187282,0.0105708771,0.4939482287,0.1906892922,0.1944916547,0.3831439589,0.2369125337,0.1718725124,0.5144078921,0.820884023,-0.7221290829,0.6234516446,0.1353221009,-0.1273736864,0.8170213367,0.3120922467,-0.6450050289,0.6561156023,0.739424154,-1.0321011371,-0.0851544915,0.4938968382,-0.8086769004,0.3388830939,0.5718964638,0.1071786289,-0.5806441381,-0.9367193108,0.4308907896,0.6477983946,0.9231755962,-0.7213036443,0.3596567105,0.6470212461,-0.7825292858,0.7901897974,-0.1077110225,-0.1426048117,0.6051285511,0.6382405073,-0.5257736587,-0.3969971718,0.863384141,0.1869960673,0.8827025894,-0.8004504191,-0.6290154315,0.2413371422,-0.5430533337,0.9164322319,-0.6281524745,-0.3899941754,0.3118358268,-0.6027123796,0.0771144294,0.8512709498,-0.3455953729,-0.5964088901,-0.8140792098,-0.3072253276,-0.9815907245,-0.7257561355,0.4787596785,-0.7217914597,-0.3487872885,-0.8091071052,0.7129828625,0.7129369671,-1.005098866,0.59545518,0.7179975056,-0.5997835621,-0.1151979437,0.7710292498,-0.971257955,0.2828115769,-0.302788238,0.9571033215,0.9358650936,-0.4949783662,0.1829339538,0.1647049217,0.8047283469,0.2873430718,-0.3919916416,-0.6197480332,0.9636109033,0.8475406503,0.4371814438,-0.2730677531,-0.0358997668,0.1754038839,0.3558977083,0.2488235203,-0.8542648743,-0.4653109219,0.4721391616,0.3032357148,0.4216554371,-0.0843712799,0.2991932931,0.1555724523,0.5415466845,-0.8830491662,-0.1399830373,0.9218572338,-0.8691794658,0.2512113247,-0.2941189654,-0.1269562689,-0.7553152113,-0.1706871252,0.8354843001,-0.5494546193,0.0126483976,0.6887156753,0.3540405042,-0.0843620261,-0.4938026855,0.3107090062,-0.2107952497,0.8161312309,0.265988764,-0.930330209,0.3476558756,0.5373457624,-0.8897591426,-0.2308673116,0.9616036374,0.6736560037,0.6279481591,0.8903120769,0.3640242608,-0.9474737251,-0.5995320012,0.0329429464,0.2571557197,0.4714966935,0.6928424297,0.5157308852,0.7445138659,-0.757680624,0.6223751048,0.4192806,0.9344458278,-0.0382590764,-0.4230312436,-0.6432860927,-0.8919692858,0.0617784744,0.3375082093,-0.4603213079,-0.0516783911,-0.4517295251,-0.4163680509,-0.1637707003,0.5865586118,0.2886553424,0.786438207,-0.9490350084,0.697210991,0.4754949864,-0.0947939003,0.7781825571,-0.7361229627,0.0812576072,-0.6023292802,0.4611820448,-0.9073282306,0.7712257544,-0.6274709758,-0.7992917502,-0.2026052827,0.0060686443,-0.8578755453,0.274517002,0.1551118749,0.0765957414,0.1650398653,0.093464209,-0.7773272137,-0.2001390763,-0.89833845,-0.9126951263,-0.0525721787,0.1925597685,0.5101891032,0.9102538777,-0.2221292088,-0.4599721737,0.6698212961,-0.0516875764,-0.9009818054,-0.9612017752,-0.2183179414,-0.344493479,-0.2317233647,0.5186654991,0.1795343172,-0.1092678765,0.2111075562,0.8047985167,0.7175442048,0.9560222493,-0.9780349192,0.9941484736,0.422177799,-0.280648481,-0.2136069695,-0.5705752051,0.2260196677,0.1821092697,0.5550701822,0.5133295579,-0.9939033746,0.1602337736,0.3609180618,-0.7468153515,-0.3189900079,0.1088118193,0.1385241905,-0.7625586466,-0.2130394469,0.6524505264,0.0549962534,0.6340009374,0.5154638986,0.2514133263,0.5467508636,-0.5606474551,-0.1264545538,-0.5722544817,0.536456392,-0.4184551377,0.3743842833,-0.02713298,0.5179417731,-0.5735843413,-0.528327883,-0.3408727505,0.0106895299,-0.53738546,0.6138564369,-0.3712305608,-0.9162140619,0.2383271666,0.7800234904,0.6988052262,0.2322386139,-0.6850793085,0.4763702098,-0.4274091295,0.3901457926,0.4731473395,-0.4661859179,0.9981166831,-0.320531232,0.0199124912,0.2532073619,-0.0099062232,0.4645725206,-0.3378316936,-0.7146584581,-0.0172642074,0.7304759165,-0.4976758082,0.3782172818,-0.2038049747,-0.4052023916,-0.9136939746,-0.3783440827,0.0747117407,0.8564838913,-0.5201324008,0.2951179822,0.1132795397,0.5205755916,0.0247545842,0.2533881762,-0.6588670906,-0.504098169,-0.2635629232,-0.610087719,1.0252074767,-0.1248129388,-0.6306810262,0.8834377888,-0.1081324637,-0.662622766,0.574917225,0.2486834479,0.7603120096,-0.7821528128,0.1164336164,0.2071240693,0.0813638595,0.5171592573,0.6537921039,-0.1804289327,-0.1335323636,0.7549540221,0.4744203049,0.5395065707,0.8960487464,-0.2282081388,-0.7115677316,0.3950614175,0.7755283955,0.9974473255,-0.9510339587,-0.6696780089,-0.4147608418,-0.3176818625,-0.0669714325,-0.568612468,0.6070324418,-0.9936313721,-0.2084101853,-0.58598611,-0.1656963527,-0.5353818975,0.8100003653,-0.3920563686,0.9363089697,-0.9812252788,-0.1022228426,-0.879364892,-0.2230562537,0.8319896773,0.9615123508,-0.8990593123,0.5228950982,-0.103973057,0.0698900931,-0.8831880338,0.0155079631,-0.76497094,-0.77635724,-0.9762174091,-0.7329765649,-0.3704742713,0.6266835179,0.2040957884,0.493037176,-0.8260448033,-0.6582647075,0.7521274148,-0.3802708977,0.2371224179,0.1424069,0.9220783616,-0.6350476747,-0.2091318251,0.8281207997,-0.7814116706,-0.1347525897,-0.6544727764,0.0633288278,0.2840407366,0.633398793,0.6848232016,-0.0050758081,0.0377796057,0.9331058156,-0.5517610537,0.6332906509,-0.6717269139,-0.713514495,-0.2501238394,-0.8823302954,0.8657064602,-1.0224550457,0.7668947591,0.9510978112,0.2981898377,0.0511595472,0.0400864507,-0.899729133,0.9909517349,-0.709324705,0.2219630906,-0.1977354862,-0.352446752,0.223221419,0.910308399,0.565166256,-0.9899356886,-0.4561298758,-0.1912032489,-0.5623436037,0.7386823968,0.8542807923,-0.8680422321,0.0993540677,0.9472101918,0.6798804331,-0.1832273234,0.2535978423,-0.9470061546,0.162285994,0.7348279554,-0.8949421791,-0.6419322774,0.0078293088,0.9050961108,-0.3144040488,0.0057197439,-0.1882880292,-0.0670640353,0.5100560109,0.6656808209,0.6728858868,-0.5068154778,0.3110782218,-0.2755038979,0.6446928601,-0.5296602503,0.7581679348,0.4530258812,0.2568290519,-0.4918931351,0.3658620201,0.1235461349,0.6998099529,-0.5545682607,-0.3257430015,0.0907022149,0.9651737536,-0.039419176,0.2349976401,-0.6098272471,0.7848409563,-0.748462695,-0.6923158572,-0.5817394837,-0.8994565494,0.0628899868,-0.6278841989,0.9247988422,0.0063515185,0.6858298717,-0.2427114608,-0.2667819418,0.8637784252,0.8673381663,-0.7811581075,0.3753126362,-0.5215845311,0.7121302676,-0.8676272983,-0.6177167706,-0.4644161866,0.0468398529,0.0900812913,0.5544331174,-0.3792510764,-0.7095907288,0.5146146655,-0.5551647513,0.2374153499,-0.830017896,0.3533189144,0.5853547091,-0.4885255483,-0.1693487328,-0.5869991514,-0.3212058411,0.7454282952,0.7693550058,0.8118346622,-0.1763276578,-0.6290308489,-0.6542581264,-0.2048404761,-0.4657959521,-0.9134799427,-0.0406159691,-0.2331028523,0.6637812493,0.551011501,0.3605241869,0.449290056,-0.2966527319,-0.8201967468,0.5960192198,0.8682983663,-0.6552178897,-0.1045926476,-0.5184184226,0.4119630775,-0.9715147489,0.5411246163,-0.0791000375,-0.6451176898,-0.6794901691,-0.5176773349,-0.8861566257,-0.9553860125,0.4086448852,0.7217838381,0.1449748832,-0.9693652072,0.6832896942,0.1625860538,0.2708000327,0.1432919479,-0.1674696333,0.1831366733,0.5387948085,-0.3395227773,0.4229531859,-0.8764635563,0.0623339627,-0.4742040869,0.5138694885,0.1439235453,0.1605782325,-0.9584083787,0.5936959607,0.9471009184,0.1773434218,-0.0825829224,-0.5463828241,-0.5863285512,0.6922442883,-0.5415327074,-0.176785083,0.4229211281,-0.8248967472,-0.1200701867,-0.7370507021,-0.9514101977,0.0062226545,0.7740899769,-0.9459818157,-0.3523298572,0.7966090368,0.7412523076,0.1310903403,-0.818713948,0.7269569851,-0.0573510602,0.9870335557,0.4259257303,0.9569429573,-0.1651513067,0.0499265517,-0.4101536543,0.7367102474,-0.2959611855,0.7567264638,0.2095630935,-0.2748949929,-0.0908499965,0.5127684208,0.7653434236,0.1019367182,0.3923600479,0.407023259,0.9208865043,-0.0857953626,0.6769499084,-0.6526180097,0.7895517726,0.228969424,0.6855127933,-0.2250702427,-0.371376404,0.4581666675,0.8286796998,0.3939311096,-0.7705329141,-0.1103790929,0.7333783277,0.7221513665,-0.213933628,0.2816322459,-0.7653163,0.1165747539,0.4861048329,-0.9491448222,0.0896279548,0.9346428745,-0.9280952022,0.2817329257,0.9425882305,0.3189707993,-0.535915405,0.1432797673,-0.9757029177,0.4036252698,0.2534072257,0.6311621788,-0.1033859563,-0.0275414356,-0.4296676403,0.423694855,0.5340227628,0.2535927615,-0.4277717627,-0.7509529834,-0.8972505327,0.0190172204,0.700378154,-0.6766487729,-0.955627797,-0.5120239508,-1.0511545719,-0.2790861735,-0.2694910957,0.3922413206,-0.0170507102,-0.7330426869,-0.3706643179,0.0782198831,0.3807035559,0.6078037514,0.5646516566,-0.0327313603,0.3939166319,-0.7367190594,-0.3069031199,0.4064401833,-0.2709485956,0.2188161977,0.9091512111,0.3332375133,0.7086344046,-0.3378583132,0.0540422123,-0.6659954167,0.1926886263,-0.6549509025,0.3823984001,0.9472424601,-0.3846326288,0.3801985053,-0.6603101076,0.0447976038,0.3996568098,0.8954583476,-0.0082074388,-0.9058791783,-0.0426522571,-0.6232257679,0.8683651169,0.5711691781,-0.2455652872,-0.4299150149,-0.3225583848,0.2472731815,0.2939843225,0.73566666,0.5024299489,0.4988614697,-0.9249558373,-0.874190508,-0.0258951121,0.0688283831,-0.8345668597,-1.0561682805,0.8165353998,-0.110801229,-0.5079834962,-0.3368596101,-0.4499274107,0.9209034856,0.7091731852,-0.5409638148,0.5528486906,0.0491081846,0.9579946356,0.1707759916,-0.0209776302,-0.1571548792,-0.2362239704,-0.6278816299,0.4893278823,0.197638255,-0.3764972818,-0.2394392023,-0.7503296829,0.6467657957,-0.6328746069,0.1691481497,-0.6402426577,-0.5727202713,0.0177465761,0.3004970151,0.681980309,0.485685253,-0.5563532925,0.3448838933,0.5312452987,-0.101747568,-0.2093165962,0.3583375826,0.5616591234,-0.2486330545,-0.4738367005,0.1759725954,0.609143763,-0.9966945012,-0.1292977131,-0.8349486561,0.9726738906,0.1176895278,-0.1248705011,-0.9478187915,0.6694853896,-0.8442898852,-0.5044806692,0.3587233674,-0.4750037843,0.2431503675,0.7652967026,0.8388830735,-0.6752725031,0.9203794184,0.2903748622,0.0417880659,-0.5468228579,0.726749361,-0.6811096244,0.9474366761,0.2507219404,0.6656782855,0.456186868,0.836938252,0.0114813978,0.3272231264,-0.0514577807,-0.9847672184,-0.6910699542,-0.8822451603,0.7028759614,0.8466934984,-0.2897491477,-0.2473284932,-0.320303777,0.8573145282,-0.2435856813,-0.2859431099,0.4522999059,0.8109717588,0.4779305929,-0.6644879836,0.3722510979,0.5773142313,0.4126457145,-0.3391027509,0.6131984179,-0.879244415,0.4407991439,-0.1203283628,-0.5401715126,-0.9324400852,0.1774383836,0.0964645797,-0.96358522,-0.789207458,-0.8612686902,0.6686287238,-0.7029523278,0.4197221444,0.3811802031,0.0344067106,0.3719479957,-0.9671698594,0.7376995744,-0.6969148147,0.7490138958,-0.3348576162,0.3114504389,-0.8079377661,-0.1185150611,-0.0739388037,0.2647669389,0.9292460121,0.6404773626,0.3415803696,0.2135681301,0.4061238729,0.9440392942,0.3509572599,-1.0360949263,0.1302829285,-0.0550259318,0.5712590518,-0.8610306327,-0.1626166057,-0.6172721764,-0.6523183061,0.0856705706,-0.7697503848,-0.0219846598,0.2172654054,-1.0352572631,-0.1404983196,0.1432488348,-0.1162659418,0.5083542873,0.4727640401,0.7045359886,0.3716347863,0.7351323638,-0.6743066845,-0.9185155854,-0.8871026974,-0.0790398397,0.2415504956,0.0466955865,-0.356731912,0.0533636648,-0.0399492615,0.8891004314,0.3791013956,-0.831075814,-0.8494939096,-0.8569940681,0.5594845653,0.8298734283,-0.7624419981,0.1004930853,-0.6067309668,0.5808932993,0.3734675018,0.1003719661,-0.904790584,-0.2419111865,-0.2412451904,0.9009924522,-0.7468642381,-0.3851779387,-0.2318056021,-0.2820096548,-0.5742339876,0.4925773692,-0.0663470755,-0.0573572442,0.7710581955,0.7009003874,0.5643651454,-0.3471624859,-0.1082236637,-0.5307119286,-0.196601506,-1.0299130248,-0.1510026278,0.8768847915,0.7314522862,-0.9200573296,-0.2952628417,-0.9033092063,0.450613439,0.4875676663,0.2855805591,-0.3714673602,-0.4890058588,0.8835268919,0.1937311495,0.8462796252,0.7691985821,0.8305178201,0.4462324319,0.7030111267,-0.713382799,-0.4281989995,0.6913144775,0.1666600051,-0.6528136275,0.8757946696,0.5191610893,0.7564862394,0.4556394153,0.806467043,-0.5168770689,0.680907885,0.7897317864,0.103932276,0.4811097006,-0.5756024679,0.0436329035,0.4417749968,-0.1686013898,0.9298830035,-0.2864812698,-0.3688405346,0.8263277936,0.3571744148
