encog,BasicNetwork,java,3.3.0,1,1463482505668
[BASIC]
[BASIC:PARAMS]
[BASIC:NETWORK]
beginTraining=0
connectionLimit=0
contextTargetOffset=0,0,0
contextTargetSize=0,0,0
endTraining=2
hasContext=f
inputCount=279
layerCounts=9,401,280
layerFeedCounts=9,400,279
layerContextCount=0,0,0
layerIndex=0,9,410
output=-1.4887405879,0.899808471,0.1621840298,-0.3725019973,0.6731273371,0.5086560235,0.8403218999,0.7286699012,-0.3585752892,-0.5314845494,0.2772144183,0.6415865627,0.0814504627,-0.0091746351,-1.1721641776,1.3377881557,1.7762748364,-1.7678401282,-1.604373166,-1.7626596076,-1.3842820676,0.5270059203,-2.0625995874,2.2359578077,-1.545065208,2.2571233384,0.6408144784,-1.9437376745,-0.2928638662,1.1107213368,1.0382653626,1.8791356172,0.7972364833,0.8089358179,-2.063007895,-0.7939737492,-1.52580521,1.4849683979,-1.8000540997,0.539496015,2.4240097109,1.4509394418,-0.1613262313,-1.2942585691,1.5269768019,1.353254481,-0.2133185917,1.0794847636,-2.2047677376,-0.3596280278,-0.1452784679,-1.1411673273,0.2917781653,0.6155989212,-1.7931092124,-0.5677453484,2.1571727036,0.7442047887,-2.5344809433,1.9017960296,-0.566122415,-1.600730725,-0.7785013568,-1.9183911508,2.1909102178,1.566314176,0.5032596015,-0.7090630527,0.7055038719,-1.3213262611,2.3477070491,-1.9446732376,1.3769771238,-1.3807189847,1.8554119107,1.7039272854,-1.0847039641,0.7235341057,1.2867551636,1.5626223182,-2.2626131964,1.8959624071,-1.7503714756,1.7017595555,-1.5582278708,1.5557030254,-1.2196447531,-0.3241426098,-1.7263595313,1.5730817678,0.0334141178,2.2210066419,-1.7230337974,0.7892267541,1.80293227,-1.552063451,-0.9301156134,2.1690295073,-1.7280223211,0.4059886607,-2.1565748925,0.792032114,0.9554395058,0.3824236966,-0.8416219037,-1.844963152,2.2195595083,-1.0789693247,1.0199248658,1.5224493211,0.8872990467,1.4333958872,2.2150160767,0.3410941826,-1.8755878024,-1.9527830661,1.2952104899,1.6135079781,0.8849075004,2.127881324,2.2247657611,1.8298068522,-2.0917124309,-1.2237131885,2.4830335328,-1.6617321504,1.5958548189,-1.3182112804,-0.1819738546,1.4466940881,2.0123416915,-1.2111328808,0.9252937704,-2.7323152874,0.1183118134,-1.1803762363,-1.7973326238,-1.9035499481,0.9543181052,-0.3282047042,-0.4428364028,-0.0993430938,1.4355547728,1.2187472436,1.6672394041,-0.8422349259,-1.378428273,-2.0142518809,-1.9092451259,1.2942281173,-2.1944220017,0.6167621408,1.3173090701,-2.0829267128,-0.2758038083,0.984468134,-1.3724269081,-0.4646849837,0.9696810775,1.8546073042,-1.7205938101,1.0126927701,-1.2810110274,2.1848999426,2.3630844701,2.3219101584,-0.5685635115,0.9647104932,-2.0279423425,-0.0133504001,-0.9673066603,1.3078355728,-0.8035733706,-0.2277135544,0.7352681824,-1.3811110734,-0.7407576959,1.2991902794,1.3486802589,1.6323038249,-2.4938280595,1.9764892386,-1.8568324611,0.4550956402,-2.0478747195,-0.5925213906,1.7690481197,-1.0560720579,-1.9790493776,2.1975440406,1.7509193227,-2.0443020863,1.2859344988,0.8818749696,-1.9878102802,-1.0729319303,-1.2993456401,-0.6371688606,2.0845002658,-0.8410262702,-1.9325628615,0.20669742,1.2642895733,-0.7554232645,-0.6597077353,1.1502978098,0.6175206076,-0.3683426407,-2.0233466675,0.4725297101,-0.733872217,1.9578011475,-1.0795508495,-1.3130837454,-1.9768954842,1.3546496157,-0.8176548923,2.3382273422,-1.0000064293,-1.7397745101,1.2340846279,-1.8417133264,1.4080478339,2.0784758339,-1.3113348721,0.8663135321,-1.6251367,-1.6050519265,-1.8330300557,1.5877005676,1.4042340919,1.9586465392,-0.6316482008,-0.1512849092,1.3921348786,-0.6629822553,0.7715766995,-1.841948535,0.874163902,-1.1184493353,-0.2135805543,-1.2235582184,-2.0846145339,-1.9566589129,-0.9498227682,-1.3255062012,1.8526208361,-1.730084107,1.8122792566,1.228801648,0.807751325,-0.7094628395,0.3422508142,1.9558771569,-1.2374630332,-1.5456653928,0.4422081337,-1.0722057551,1.4941835175,1.9664108566,-1.2552651591,-1.5045119484,0.1628471079,-1.3136312535,1.9518924279,2.1393607061,-0.9847140712,0.9098936962,-1.2142275784,1.9496820299,-1.14935434,-1.1952713579,-1.6976874282,0.0100783647,1.4329371065,1.2613823072,-1.9887263357,-1.1442311914,-0.9389826332,-2.2347309217,-0.1574527516,0.7867164935,-1.6828983625,-1.1720676984,2.0490076657,-2.0254282117,1.3640807937,0.7413645631,-2.0512588892,-2.2251987347,0.2565763072,1.9554562755,-1.7322550378,-1.1751765171,1.5416901681,1.62327775,0.477247825,-2.1534927256,-0.8653014314,-0.8075031677,-0.5964186944,1.7290761991,0.4279108308,0.6583947842,1.6315290367,0.5493183317,2.2406400671,1.0485494439,1.3011997538,-0.9325470834,-2.4636878761,-1.5682977047,0.3186192726,1.8924386503,1.5515383586,1.2653159657,-0.8825980293,1.696354872,1.3490014305,0.0686096639,2.3686333815,0.5274552777,-1.4424222475,1.5257117923,0.2812343022,1.3526576917,0.1214737012,-0.2126999214,-1.9363642656,1.6468034508,-0.4767253759,-0.7235249343,-0.8970155018,-0.5955919396,-1.9915550193,1.4989431333,-2.0555896394,-1.5809731551,-1.0784005435,-1.4627754083,0.5526949638,-1.762050152,1.9722595009,1.2331882034,-2.1678631139,-1.8867857448,1.0024011615,1.5038395749,1.1867292819,0.5879727396,1.9586871591,1.3409844045,-2.1211292489,-0.7229565449,0.3087470059,-0.8787887546,-1.0530896128,-0.245994669,-2.3311969422,1.1792194729,0.6788886649,-1.9758208955,1.5194438523,-0.5232356399,1.8091327695,1.6634087343,-1.6267542046,-0.9298991104,1.5497776434,-0.1411110274,-0.5806256691,-1.449262885,1.3168498203,0.6977142374,2.0132974581,-0.5099523856,-0.6497276139,-1.6932997421,1.2323863292,-1.1394256075,-1.1939257923,1.3109262308,-1.8243726576,-0.958088528,-1.0785193544,2.0180468175,0.647525869,-1.6683803529,1.7631556318,-1.8101162038,1.3433865914,1.7584467036,0.7539239743,-1.5404408002,1.7965227433,1.8880094856,1.3994297757,-0.6578359434,-1.6135331777,0.7857444096,0.3853381734,2.027052632,-1.6405034945,1.74535576,-2.1147376505,-1.2521199431,1.1633106157,0.0635309994,1.8989774689,1,1,0,0,0.1904761905,1,0.9554455446,1,0.7446808511,0.6923076923,0.6343283582,0.9875776398,0.5,1,0.5,0,1,0.375,1,0,0.5,0.8571428571,0.5,0.5,0.5,0.5,0.5,0.5,0,0.2307692308,0.1578947368,1,1,0.3,0.5,0,0.5,0.5,0.5,0.5,0,0.15,0.5263157895,1,0.5,1,0.5,0,0.5,0.5,0.5,0.5,0.8125,1,0,0.5,0.5,1,0.5,0.5,0.5,0,0.5,0.5,0,0.7222222222,1,0.5,0.5,0.5,0.5,0.5,0.5,0.5,0.5,0.5,0,0.2,0.2777777778,1,0.5,0.1818181818,0.5,0.5,0.5,0.5,0.5,0.5,0,0.9,0.5333333333,1,0.5,1,0.5,0.5,0.5,0.5,0.5,0.5,0,0.6,1,0,0.5,0.4545454545,0.5,0.5,0.5,0.5,0.5,0.5,0,0.3333333333,1,0.5,0.5,0.4,0.5,0.5,0.5,0.5,0.5,0.5,0,0,1,0,0.5,0,0.5,0.5,0.5,0.5,0.5,0.5,0.5,0,1,0.5,0.5,0.375,0.5,0.5,0.5,0.5,0.5,0.5,0.7142857143,0,1,0.5,0.5,0.5,0.5,0.5,0.5,0.5,0.5,0.5,0.1176470588,0.3333333333,0.5384615385,0,0,0.5,1,0.3333333333,0.0261437908,0.0027855153,0.1666666667,1,0.2469879518,0.8833333333,1,0,0.2727272727,0.9,0.3881481481,0.5689424364,0.4705882353,1,0,0.7659574468,1,0.5,0,1,0.6362416107,0.808056872,0.6666666667,0.4086021505,0.6451612903,1,0.5,0.5,0.375,0.09375,0.8754448399,0.6746987952,0.4705882353,1,0.3362831858,0,0.5,0.5,1,0,0.2027027027,0,0.2,1,0.1333333333,0.8367346939,1,0.5,0.3888888889,1,0.5083798883,0.7448979592,0,1,1,0.6349206349,1,0.5,0.0714285714,0.2432432432,1,1,0.2307692308,1,0.8529411765,0.5743243243,0,0.5,0.5,0.74,0.3864541833,0.5732899023,0.5,1,1,0,0.5,0.5,0.5625,0.7457627119,0,0.2908163265,0.380952381,1,1,0,0,0.5,1,0.6621621622,0,0,0.4285714286,0.6842105263,0.9054054054,0,0.5,0.5,1,0.5957446809,0,0,0.2,0.5,0.552238806,0.1025641026,0.5,0.5,0.8571428571,0.6764705882,0,0.0410022779,1
outputCount=9
weightIndex=0,3609,115609
weights=##0
##double#115609
   -0.0821560221,-0.0794362128,-0.1678073471,0.0225307362,-0.1178822067,-0.0922278205,0.0682816252,-0.0927403447,0.1053006277,0.1634446746,0.0114451404,0.1923526035,-0.1852203261,-0.1258231564,0.1634076913,0.013160553,-0.0248808764,0.0461192248,0.1859830332,0.0976474434,-0.1929266395,0.1186922953,-0.0784371726,0.0726742743,0.1906834741,-0.2271608404,-0.2183677686,0.0449495296,-0.0018823058,-0.1406569827,-0.1611946746,0.2288672171,-0.0843225332,-0.0744612059,0.0856581937,-0.0690154478,0.2425738918,-0.0492265868,-0.0231421126,-0.0984070018,-0.0474533505,0.0245793105,0.0085548865,-0.0607011482,0.0461238061,0.0838922815,0.0057232053,-0.047104791,-0.0304872167,-0.0573348065,0.0035018318,-0.1256966438,-0.1944562363,-0.0460330592,-0.0699638226,0.298433397,0.0401390233,-0.124724265,-0.0574514498,0.1803054373,-0.092380739,0.3100225103,0.034258534,0.2184171416,0.1468208265,-0.1561149225,-0.0684017305,-0.0520183623,0.0746544286,-0.1000607756,0.1474048497,0.1476270645,-0.1403379498,0.0114514365,0.0042346199,-0.0195082965,0.0661959869,-0.098848587,-0.0840638459,-0.1454804473,-0.1314805712,0.0414843513,-0.2456001262,0.0895067358,0.018060819,-0.0345527129,0.0882941144,0.0978060817,-0.0781847946,-0.0320624751,-0.0058138861,-0.0019230904,-0.1174867627,-0.1052361383,0.1073034803,0.2081777895,0.0975152516,0.0777679068,0.0150951607,-0.1788121958,0.0196076849,-0.0711660264,-0.105027915,0.0736437473,-0.0111515943,0.1015636891,-0.1929024543,-0.0804934828,0.0929333948,-0.0009416085,-0.0799620536,0.0261100564,-0.025538903,0.0182765815,0.1264873501,-0.0520860793,-0.0012581607,-0.0604318952,0.1121079649,-0.1282159739,-0.0214413197,0.0929674732,0.0784840314,0.1076155906,0.0018398571,-0.0488390344,-0.0253619737,-0.2392378724,-0.0165491925,-0.1227638299,0.0623977277,-0.0086252577,-0.1150099644,0.1427518389,-0.1162188541,-0.1737066553,-0.0266891933,0.0877451673,0.139375555,0.0926913321,0.0267475217,-0.0177918387,-0.0826614702,-0.0486951163,-0.0648975061,0.0078432399,0.0465702727,-0.2039417196,-0.0681851985,0.0138302382,-0.0334904316,0.0398239187,-0.1176488035,-0.0162201135,0.171130773,-0.0125730009,-0.1120240601,0.0555890976,0.1538673994,0.0976747074,-0.131889765,0.0040273075,0.0219513227,-0.0057187836,0.1090597765,-0.0414975501,0.2368223901,0.1969177094,0.0173898756,-0.1032387149,-0.0445740038,0.0053385081,0.1355861697,0.0112163733,0.0076733458,0.256941092,-0.1257563723,-0.1485118449,-0.0224531097,-0.1057502667,-0.1584243699,-0.0870878415,-0.0648347463,0.2871005401,-0.1722321492,0.0221030007,-0.1066337254,-0.1325907056,-0.1869856622,-0.1394471916,0.154644309,-0.1495164405,0.173048751,-0.1098436822,0.1870063707,0.0353304741,0.0099485636,0.1329682596,0.1056084616,0.1040254447,0.0163762845,0.009814666,-0.0530672958,0.0926361787,0.0356748535,0.1861012733,-0.0829402777,0.2016437851,0.0067085575,-0.1486664296,-0.0076140968,0.0776806628,-0.0886317506,-0.1197833152,-0.0438428011,0.0198271871,-0.0483767433,0.1069942726,0.1859768122,0.2191299021,-0.2229940708,0.1243097933,0.1112908643,0.0429348543,0.1357718334,0.1122579939,-0.0291826632,-0.0865036324,-0.1064686386,0.1515043169,-0.2181408737,0.0175137996,-0.0719716316,0.0144268086,0.0716905169,0.0222448968,0.1336312347,0.0317529956,0.0194732088,-0.0544149455,0.0991612126,-0.1550999848,0.0042018033,-0.0844082228,0.0908426644,-0.1492788627,0.058714064,-0.0371211072,0.0920195619,0.0139339973,-0.0003948765,0.1635066154,-0.1200374176,-0.0570441077,-0.0439676091,-0.0197782749,0.1317835881,0.0163682061,-0.2767350791,0.0746243988,-0.031648927,0.2459581861,-0.1063349159,0.0522812689,0.1823654203,-0.1623319601,-0.0791972473,0.1138461734,0.1023719768,0.058483775,-0.0024321712,0.1080809674,-0.0061533571,0.0180665598,-0.0122135401,0.0382709076,0.2043217587,0.0374730563,-0.1098726239,-0.0259113721,0.0244780096,-0.0589231796,0.0800082516,0.0396344443,0.0808234517,0.0614561335,0.1683735055,-0.0123137627,-0.1891495863,-0.1395480394,-0.0609288556,0.0572025635,0.0577623401,-0.085888801,-0.1039149931,-0.0486268803,-0.0253405059,-0.0730755571,-0.1008295286,0.0164451181,0.161758185,-0.1116765049,-0.2169962833,0.0944462192,0.0553021635,-0.0600867479,-0.0519886739,0.2368661397,-0.185097411,-0.1748258857,0.0214394349,-0.1251740928,0.0500865964,0.0973833261,0.0693062312,0.0321793656,0.0424051199,0.1148387994,-0.1018450045,-0.024455672,0.0214989632,0.05842993,-0.0879105892,-0.0292672521,0.0599371429,-0.0716183232,0.1827674385,0.1677315005,0.0841073648,-0.0863904518,-0.2395912283,-0.1751912999,-0.1528666626,0.0144053716,0.0385408393,-0.185479093,-0.1198330291,-0.0228508691,-0.2358542745,-0.016452175,0.1474063018,-0.0793681259,0.1182876811,0.1662013012,0.1108550028,0.071031244,0.0705611223,-0.0539025292,0.0812390524,0.0212360959,-0.0536426335,-0.135685066,-0.1007873602,-0.0641590956,0.0210020469,-0.1757808866,-0.0254077145,-0.0318852248,-0.0769894252,0.063227385,-0.0062997755,0.0002030669,-0.1216145494,0.1688676871,-0.0887929105,0.0261989391,0.0552058139,0.2542372094,-0.0548152672,0.1299718051,-0.0316486346,0.032739567,0.0559142825,0.2656592661,0.1640958209,-0.1262960649,-0.2153300331,0.0197681514,-0.0470819728,0.0431536472,0.0911400059,-0.05928629,0.0829527904,0.0818211897,0.0686947284,-0.069889075,-0.1751849869,-0.1234444262,-0.1924633225,0.3002165806,-0.0477884298,-0.0889293394,0.0577385872,-0.0476618881,-0.052182421,0.0489903868,-0.0838294147,-0.1300082985,0.0159401388,0.1339081004,1.1324621159,-0.080180704,-0.0315973535,0.0447828576,0.0163223216,-0.0900867831,0.0753778048,0.0321711189,-0.0622330322,0.0632250777,-0.0817319802,0.0586570892,0.0537761471,0.0202323253,0.0357044418,-0.0554799892,0.0137310846,0.0204587738,-0.0163480998,0.0168276168,0.0527337174,0.0735851201,0.0705691144,-0.0160765972,0.0010197881,0.0741917183,0.1421964291,-0.0070813129,-0.0668435502,0.0075626094,-0.0254926911,-0.0245078591,-0.0410045879,-0.0050722217,-0.0425371409,-0.0926983248,0.0114665944,0.0514183767,-0.0029530593,-0.0823214363,0.0513065339,0.0592701657,0.0160589859,0.0089416554,0.1155641752,0.049762062,-0.0110573028,-0.0515124665,-0.0364603167,0.1418880098,-0.0945602038,0.0430446181,0.1170244842,-0.0455177287,0.0009093246,-0.1152096545,-0.0887378958,0.0132908485,0.0644817848,0.013896441,-0.0999679253,-0.029335747,-0.0309178672,0.0383704932,-0.0026995427,0.0395815849,0.0288218869,-0.0810795771,0.0682973296,-0.0075404427,-0.0618822255,0.0117779376,-0.0707879888,0.1591304852,0.0427510789,0.0543082851,-0.0198748295,-0.101587552,0.0021692496,-0.08595734,-0.0665956289,-0.0020674647,0.0472565329,0.0251736935,0.0023266344,0.0599291166,0.0151591666,-0.0316841978,-0.1265532405,-0.0080111735,0.0517840266,-0.0316293375,0.1471093764,0.0364100527,0.0107826752,0.0287528813,0.0445866922,-0.0065949852,-0.0575904253,-0.0089712627,0.1260070935,-0.0219257343,0.0325976226,-0.0503281791,-0.0229223952,0.0901014628,-0.0637236093,-0.0144460201,0.0032363363,0.0202981651,0.0895835387,0.0434339539,-0.0817805686,0.0571042595,0.0657893809,0.0188546976,0.0146084662,0.0129809506,0.0874724604,0.0038111745,0.0395540862,-0.000837369,0.0537865963,0.0759272223,-0.1798795568,0.0017426468,0.0503070664,-0.1001092958,0.0557983554,0.1075607181,0.0714497893,-0.1220701224,0.1402921248,0.062911504,0.0439192008,0.014154414,0.0348606246,-0.0036303187,-0.1402149331,0.0459244757,-0.1363233605,-0.009687815,-0.0324517746,0.1188881973,-0.0760652895,0.0760405127,-0.0580653643,0.0615349715,0.0868744806,0.1059786639,-0.0828153126,-0.0275707918,0.0294737946,0.0291190551,-0.0796555967,0.0478573535,0.1072583506,0.0916859768,0.0173641699,-0.004869179,-0.075109225,0.0291731399,0.0494783009,-0.0320188289,-0.0296779235,0.0671717856,-0.0129432908,-0.026947734,-0.076922993,0.0306194193,0.0171826701,0.0111011877,0.0500569031,0.0385692128,-0.0458800635,0.0364351498,-0.0002219903,0.0839747052,-0.0660596672,-0.0413316104,-0.0186933794,-0.0200812649,0.0619729211,0.0441930252,-0.1927704294,-0.1054511844,0.0016339266,0.0079209599,-0.0189606043,0.0896521487,-0.0547668513,0.0479887479,0.088382885,-0.1028636253,0.0356914131,-0.0527744714,0.0934713031,-0.0348500684,0.0880174509,0.0397837284,0.006243784,-0.1035922569,-0.0033131873,0.1049128984,-0.0748580135,-0.155951179,-0.1135014919,-0.1044530459,-0.1738732601,-0.0233501283,0.0627541125,-0.0200578171,0.0888370874,0.1039864735,0.0214937246,0.1666025008,-0.0211450686,-0.0696439537,0.0169169822,-0.0530183845,0.0234008822,0.0887380389,-0.107855729,-0.0753157849,0.034374773,-0.0115391956,-0.007662231,0.1655172675,0.0811941325,0.0920390467,-0.0615920131,-0.0447516764,-0.0475141469,-0.1159378005,-0.0735978008,-0.040834435,0.0783692736,0.0462906166,0.0704568347,-0.0928000192,-0.0823612508,0.0259584573,-0.0328766146,-0.0387235061,-0.0461550482,-0.07179764,-0.0430271313,-0.1163712061,-0.0704452952,0.0981206744,0.0642188495,0.0779754938,-0.0421588505,0.0710230065,0.0919879148,0.0301685418,-0.001240024,-0.0705357251,-0.0279106127,0.1380195722,0.0299954058,-0.0433653982,0.1085175748,-0.0414197209,0.0584770164,-0.097921345,0.1131537356,-0.0596751942,-0.0346165324,0.0350263957,0.0379838091,-0.0319778468,0.0066694612,0.0507005171,-0.0369496883,0.023363312,-0.1298836752,-0.0413399427,0.0511815722,-0.032884961,-0.0176151186,0.0620161553,0.1305600206,-0.0109395554,-0.0060009237,-0.0606739682,-0.0505436322,-0.0400802384,0.1069720607,0.0350570538,0.006140404,-0.0955191893,-0.02366252,-0.0625625067,0.0282013783,0.0683961685,0.0638142771,-0.0382807289,-0.0450031419,-0.0406876786,-0.0673388948,-0.0447139796,0.083543212,0.1087973584,-0.1431736831,0.0203054003,0.0743075448,0.0618709382,-0.0427191805,-0.0463999461,-0.0146824721,-0.0030702306,0.0569982629,-0.0757729519,-0.0078817964,0.0182269173,-0.0110627188,0.1117594478,-0.0106689591,0.0849822465,0.1291523103,-0.1095704262,-0.0577943198,0.0232337043,0.0996853647,-0.0248475334,-0.0164631514,-0.1133731377,0.0640103506,0.0197957299,0.0597841665,-0.0076412054,0.176173361,-0.0232613975,0.0311729462,0.0246726489,0.0441314813,0.0948477912,0.0202104207,0.1238524126,0.0951674177,-0.05077271,0.0324943415,0.0642570859,-0.0615466462,-0.0821869383,-0.0664571192,0.0023997422,0.0213316886,0.0425027116,-0.0006591915,0.0615864286,-0.0117694511,-0.0142901285,-0.0240716779,0.0281045312,0.0435634624,-0.0056203536,-0.0012016652,0.0087136766,-0.0119129009,-0.1875964263,-0.0943668429,0.065082897,-0.0511809536,-0.0053813415,0.0986888581,-0.0571750727,-0.1702212731,-0.0478825555,-0.0862520029,-0.0748356714,0.0969887972,0.0213307879,-0.0086361597,-0.0819529415,0.001666276,-0.013483834,-0.0877807805,-0.0556359551,0.041513074,-0.0665840401,0.0014846016,-0.0034588947,0.0564930157,0.0480853714,-0.0251196953,0.0376459214,-0.1080075273,0.0573347027,0.0249015897,0.0828185729,0.0979911813,0.0321358803,-0.030360201,0.1141135117,0.0084245955,0.1025966795,-0.0181677915,0.0422842882,0.0467951226,0.5031692309,0.0318255909,0.0029660418,0.0214884822,-0.0530582374,-0.0005971323,-0.0359801223,0.0049813896,0.0425883041,-0.0482782563,-0.001641387,0.0259854887,-0.0629263341,0.024735707,-0.0799478075,0.0168269209,-0.0181478411,0.060765434,0.0006331363,0.0683559397,0.039787991,0.0280015878,0.0293150159,0.0210885161,-0.0247239803,-0.0154344785,-0.0495733839,-0.0318519001,0.0213411189,0.0509217689,0.0102688958,-0.0005065921,0.0163145974,0.0157014037,-0.0041953601,-0.0470300669,-0.0086699142,0.0637655182,-0.0284319317,0.0375504889,0.010356906,0.0505710414,-0.0042633525,-0.0023070171,0.0259242042,0.0490930122,-0.0000085858,-0.0091491476,0.0298919065,-0.0121331912,0.0244336069,0.0084087099,-0.0101021928,-0.0241729178,-0.0055607106,-0.0150805909,0.0505112593,0.0013749419,-0.0408492416,0.0141232427,0.0349324728,0.0360669832,-0.0521609755,0.050475018,0.0370475049,0.0429271464,-0.0150925099,-0.0185229257,0.0108604902,-0.0115871415,0.0605000418,-0.0127468961,0.0030225022,0.0200047857,0.0084017518,0.0122807967,0.0620568423,0.0240189457,0.0357717013,0.0140791116,-0.0026014457,0.0329784532,-0.0533963996,0.0193698562,-0.0494033056,-0.002131448,-0.0265038734,-0.0040814173,0.0223474666,-0.0019010599,0.0397902387,0.0069202462,0.0279713994,-0.0275232556,0.0475983205,0.0040821393,0.0008341356,0.0424348951,-0.0347019701,0.0443859741,0.0026933785,0.0164609592,-0.0213288104,0.0019773286,-0.0073885525,0.0062075863,-0.0207351039,-0.0031025338,-0.0020295767,0.0406843362,-0.0036802445,0.0211635281,0.0280489759,0.0055721674,0.0566474392,0.0452113763,0.0236914848,-0.0067940548,-0.0058691723,0.020246893,-0.0009427343,0.040344532,0.002391069,-0.0155671683,0.0430754021,0.027686203,-0.0105408727,0.0506734317,-0.0160373899,-0.0776493399,0.0297656156,-0.0185104313,0.0325822056,0.0505065703,-0.0123990671,-0.0077364812,0.032987081,0.0421679122,-0.0547121344,-0.0343580581,0.0239587287,-0.0132095372,0.0066851406,0.0214827352,-0.0073643645,0.0094466364,0.0209848632,0.016204985,-0.0267584469,-0.0285196775,-0.0384051641,0.0493019315,-0.0264501804,0.0106343166,0.04969694,0.0013324747,-0.0068970408,-0.0120020571,-0.0125728318,0.0416833063,0.0369371778,-0.0158283532,0.0318548218,-0.0195956668,-0.0052103416,-0.0133651164,0.0351614106,-0.0115276421,0.0167462223,0.0039022008,0.0393544745,-0.0355889981,0.0192027022,0.0249430258,0.0270354924,-0.0212222831,-0.010689492,0.0312749813,0.0143332979,-0.0400903101,0.0287285653,0.0052319363,-0.0845676849,-0.0246548781,-0.0314635047,-0.0011410045,0.0237343488,-0.0119099518,-0.0334909997,-0.0308481602,0.0024219805,0.0820742385,0.0227596088,-0.0713873383,-0.0124006388,0.0233516308,-0.0005831241,-0.0283466389,0.0097903728,0.0308312335,-0.0550959235,0.0149037013,-0.0065258549,0.0311606822,0.0076865515,0.0323273422,0.0059302714,0.0123740026,-0.0331675531,-0.0244907625,-0.0144650996,-0.0332404662,-0.0292318523,-0.015160425,0.0434889708,-0.045775532,-0.0079890569,-0.0003232589,0.0101379453,-0.0154561285,0.0428026879,-0.0363527094,-0.0196539702,0.0201230164,0.0270301122,0.0101116753,-0.0275195306,-0.0196873102,-0.01759289,-0.0212425975,-0.0221925274,0.030477404,0.0255302902,0.0364646053,0.0117784799,0.0161637529,-0.0281301437,-0.031720723,0.0025272934,0.0215018376,-0.031606196,-0.0314205928,0.0018421422,-0.0003503678,0.0424246508,-0.0223974328,-0.0052021679,-0.0149357828,0.0041757169,0.0223276543,-0.0006177842,-0.0240552906,0.0421280969,-0.0492930793,0.0095025425,-0.0085124984,-0.0095966229,-0.0441650852,-0.0014333441,0.0131020021,-0.0125399689,-0.017945698,-0.001747595,-0.0418528629,-0.024288457,-0.0403097872,0.0390134656,-0.0019124747,0.0024695113,-0.014277146,-0.0293252188,0.0055274483,0.0057861273,-0.0862566304,0.0280302062,-0.0049730432,0.0334581632,0.0081316151,-0.0167419704,0.0990333605,0.0381785663,-0.0110201087,-0.0782031676,0.0078519019,-0.0245925921,0.0262500185,0.0085542405,0.0051438935,-0.0109186926,0.009735353,0.01133056,-0.0123762077,0.0228266708,0.0419555198,-0.0179612873,-0.0357425197,-0.070152839,-0.0197198416,0.0249152515,0.0334692455,0.0078286759,0.0671510143,-0.0224124375,-0.0456569743,0.0147019629,-0.0425805838,-0.0836681232,0.0095842001,-0.0230657091,0.023465967,0.0170233263,-0.003670074,-0.0192235916,0.0086243993,-0.0055422609,0.0006142477,0.0137830592,0.0294602807,-0.0337528374,-0.0099119745,0.0183810096,0.0190160067,0.0214370749,-0.0015650843,0.0143541359,0.0303974155,0.0265490644,-0.0003001111,0.0388291627,-0.0122700561,-0.0299471671,-0.0020520227,0.0399690698,-0.002728321,0.0036540506,-0.0325761785,0.0477313912,0.0199686939,-0.0246528074,0.0442305499,-0.0350751308,0.0226156167,-0.016364092,0.0238637636,-0.0004680963,0.034144622,0.0089800539,-0.0590284909,0.0041455896,0.0117540855,0.0145083209,-0.0214012056,0.0019661459,-0.026833885,-0.0370191176,-0.0255446242,0.0309203829,-0.0029196434,0.0055544144,-0.0404108041,0.0272402926,0.0084075233,0.0090094044,0.0136765869,-0.0106019791,0.0005452944,0.004535787,0.0704924784,-0.0098815676,0.0012600342,0.003822967,0.0065428431,-0.054236822,-0.0349774335,-0.0037315135,-0.0101033665,-0.0088690194,0.017765094,0.0353997951,-0.034756483,0.0081741434,-0.0392932643,0.0235337183,0.0248023511,-0.0119805313,-0.00192406,-0.0404527633,-0.0846420641,0.0375759566,-0.0228285307,-0.0236257996,-0.0061015417,-0.0523614442,-0.0151245336,-0.0382007013,-0.0173503988,0.0148385607,-0.0043967762,-0.0384825677,0.0109475456,-0.0491926557,0.1036931668,0.0580672896,0.0311238397,-0.050870734,0.0276739139,-0.0082965668,-0.037409678,-0.0230337451,-0.0012235894,0.0565030028,0.0098788453,0.0422214871,-0.0355114498,-0.0220009273,-0.007721702,0.0093143508,-0.0290382096,0.004922795,-0.054862557,-0.0205363639,0.0189844187,0.029963606,-0.0665667663,-0.0004742674,-0.1093314266,-0.0184772505,0.0357143711,0.0261309154,0.0914960274,-0.0188035612,0.0351389329,0.057427397,-0.0002312421,0.0966955267,0.0516195886,0.0346590338,-0.0547768701,0.0068568362,-0.010861079,0.0024256963,0.0532574444,-0.0237776808,-0.0404939608,-0.0062935665,0.0053568541,-0.0782897574,-0.0373560284,0.0217352979,-0.0288774127,0.0163784343,0.0433013437,-0.0459948744,-0.0159547663,0.0338688321,-0.0070021001,-0.011465472,-0.0144067639,0.0158736142,0.0382771151,0.0550636855,-0.0353041323,-0.0220580642,0.0274657336,-0.0200362538,-0.0655141278,0.0171611465,-0.1103728569,-0.0200927723,-0.0145198193,-0.0532748798,-0.0476808152,-0.0939001687,0.0264481128,-0.0207419439,0.0025330316,0.0071030316,-0.0149161527,-0.0146613967,0.07510751,-0.0144430933,0.0439576212,-0.0048696411,-0.0156872239,0.0376156754,0.0497251546,-0.0579141268,-0.0271049205,-0.0101641676,-0.0177577195,0.0538999558,-0.0795978048,-0.0033649878,0.0031503929,0.0360389226,-0.0175794545,0.0721732851,-0.0245919793,-0.0197234061,-0.0125893285,-0.0008472237,-0.0142797575,-0.0636696049,-0.0094884923,-0.0025725285,-0.0174962087,-0.0160208427,0.0670144047,0.0613251243,0.0712372375,-0.0793804176,0.026463395,-0.0024727771,-0.0484670377,-0.0379868938,-0.1088876942,-0.0325233926,-0.0158090888,0.0145755614,0.0130235018,0.0353714494,-0.0052126165,0.0111117431,0.0075244181,0.0628417767,0.0614509364,0.0156218981,-0.0487104527,-0.0066518285,-0.0360670144,0.0198193107,-0.0181962315,-0.0533813938,-0.036514715,0.016084835,0.0433527803,-0.0031400765,0.0108650727,0.0369969282,-0.0427849366,-0.0053513825,0.0167093908,0.072337399,0.0099511097,0.0203929441,-0.0250077399,-0.0372256692,0.0569823697,-0.0243705922,0.0334060841,-0.0815344446,0.0450941911,-0.0158019177,0.0173262987,-0.0320427873,0.0057159615,-0.072727519,-0.007577129,0.0316688221,-0.0087843976,-0.080395913,-0.0004277754,-0.0379986101,0.0292649031,0.0739862908,0.115351394,-0.0423060323,0.0029306733,0.0987384801,0.0042991367,0.0324390286,0.0548869403,-0.0204431541,-0.0369390198,-0.0432892003,-0.0433826267,-0.0329531838,-0.1223483789,-0.0605377032,0.027121213,0.0174883433,-0.0046358062,0.0424904752,-0.0496023252,0.0109345698,0.0319327542,0.0131417378,-0.0198767777,0.0499364328,0.0280700729,-0.0093577462,0.023502304,-0.0282494744,0.1102924178,0.0446019664,0.0152059699,0.019178015,0.0203249759,-0.0140554879,-0.0546557828,0.0503005647,-0.07943465,0.0192677768,0.002765427,-0.0589354121,-0.0505604956,0.0251595557,0.0257600493,-0.0218165841,-0.0820604263,-0.0558563769,-0.0363953338,-0.0167820204,-0.0088175892,-0.04352296,0.0402282083,0.0351099225,-0.0497516284,0.006394975,-0.0480033905,-0.0803945949,-0.0305408806,0.0588326549,0.0169292905,-0.0320819012,0.0268854718,0.0140765293,-0.0678074066,-0.0167320444,-0.1223792208,0.0635623859,-0.0212581148,-0.0449696618,-0.0478741649,0.0372999925,0.0054366148,-0.0626191911,0.0099453926,0.0226430762,-0.0304730866,0.0300808663,0.0322763648,-0.0065901597,0.0212028462,0.0039457985,0.059133793,-0.0350746142,0.0736376058,0.0081802954,0.0118747389,-0.0542811996,0.0562165755,-0.0318336598,-0.0714454385,0.0110755602,-0.144352564,-0.0273668268,0.0526578661,-0.0376161905,-0.0343841898,-0.0691098731,-0.0648260793,0.0103275036,0.0104765285,-0.0102656747,0.0237136428,-0.0218195949,0.0223080743,0.0033811567,-0.0182186587,-0.0586398915,-0.039014835,-0.0453473281,-0.0334840661,-0.0127522705,-0.0146342977,-0.04398829,0.0874412568,0.0244086039,-0.0403956993,0.0358610778,-0.0056735882,0.0184805703,0.0746844865,-0.00021627,0.0133757957,0.0118071048,0.0540870922,-0.0709347156,0.0183594954,-0.0013287901,0.0604352956,0.0728915357,-0.021259355,0.0588123776,0.0239600171,-0.0016697014,0.0038083162,-0.0155497038,-0.0355427719,-0.031808851,0.0343436662,0.0496721079,-0.0409872832,0.0091813784,0.0249971775,0.0241623045,-0.0134397517,-0.0133262773,-0.0467406069,-0.0310486787,-0.0080565122,-0.0240715726,-0.030648011,-0.0392376433,0.0241649028,0.0101368922,0.0760321855,-0.0260677679,0.0079458905,0.0049277464,0.0189623074,0.0403018976,0.0418776091,0.0405209456,0.0069717336,0.0704470568,0.0020153208,-0.0330390086,-0.0445892515,-0.025738024,-0.0267500584,0.0002800515,0.0236863402,0.0035496177,0.0259143941,-0.0321708084,0.0163229632,-0.0479098633,-0.0035679501,-0.0173377579,-0.0385076952,-0.0133601197,0.0636492746,-0.0147877981,-0.0056953113,0.0448191716,0.0278893584,-0.0201280291,-0.0433902163,0.0903562173,0.0474842006,-0.038436853,0.0915042642,-0.0822599303,-0.1080779641,-0.0750078249,0.0571524745,0.0130394739,-0.0648196892,0.0308094707,-0.0071519679,-0.0068131309,0.0297428046,0.0156815065,0.0196330111,-0.008046997,-0.0405638957,-0.0182359083,-0.0284582979,0.0020681592,0.0041354783,-0.0070677547,-0.004307215,-0.0190521563,0.0169764594,0.0361495504,-0.0477482474,0.0136068825,-0.0204829234,0.0174200414,0.09165186,0.0491463414,-0.0764747894,0.0686710047,-0.0044881607,-0.0080048118,0.0491807323,0.0006781429,0.0218583505,0.0468972885,-0.0214680734,-0.0037870673,0.0304796167,-0.0445826296,0.0341989584,0.0303022952,0.0263565502,0.0111878845,0.0724206127,0.0044361248,-0.0195654683,0.4067134058,-0.0225583206,-0.0203445393,0.0554185281,-0.0167087037,0.070136375,0.0100474869,0.0473881089,-0.0145842781,0.0025647375,0.0274659195,-0.031234902,-0.0208972837,0.0120706896,0.0553848121,0.0233868358,-0.0431901969,0.0036152769,-0.0076765518,0.0134195025,0.0196389897,0.1465125225,-0.0103333109,-0.0453730789,0.0305115363,0.0309612601,-0.0608976251,0.0061003268,-0.0029553183,0.0380276235,0.0898709417,0.0582877791,-0.0018127625,-0.0136875045,-0.0377679723,0.0653840482,-0.0756737594,-0.0410502705,0.0173090457,0.0714336217,0.0059079547,0.0157503091,0.0214935371,0.0344252275,-0.0879538413,-0.0071072705,-0.0437516477,-0.0087057736,-0.0443263561,0.0067897509,-0.0205823536,0.0137124939,-0.0170063247,0.0034292656,-0.0860100122,0.0265870724,-0.0301773545,0.0578007147,-0.0067291915,-0.0069671848,-0.0333430546,0.0502915057,-0.0570824654,-0.0258589316,0.0354680781,-0.0033190438,0.0298300941,-0.0089247628,0.0088908393,0.0229370057,0.0266434573,-0.0158544838,0.0212503916,-0.0557165618,0.0218338886,-0.0445857032,0.023107061,-0.0059455769,-0.0565994475,-0.0197090299,-0.0033673187,0.0015238595,-0.0007861888,-0.0257006847,-0.0070309866,-0.0273661998,0.035338375,-0.0408464094,0.0251192092,0.0573461018,0.0038568812,0.0702520003,0.0656903665,0.0264458322,0.0526208845,-0.0198171473,-0.0857352629,0.0045321665,0.0070634072,0.0504645967,-0.0423527087,0.0157488741,-0.0305446051,-0.0125166584,-0.019438007,0.0101181161,0.0107168072,0.0286828266,0.0335189967,0.0302996124,0.003777307,-0.0160943875,0.0357193324,-0.0940297797,-0.0087141288,0.0016718311,0.053723439,0.0677287929,0.0025114311,-0.0108361741,0.0860194266,0.0186927655,-0.0246521387,-0.0171955367,0.0494240979,0.0244020614,0.0529447693,-0.049848314,-0.0117212639,0.0480056979,0.0367589848,0.0179594995,0.0111424961,0.0480368443,-0.0395542002,0.0212421008,0.0233583636,-0.0143978296,0.0210909044,-0.0311717263,0.012503373,0.0084754486,-0.0511857414,-0.0636309715,-0.0181585229,-0.007523277,-0.0416473083,0.0084481717,0.0389668476,-0.006663962,-0.0280719728,0.0204305017,-0.034995574,-0.0362955874,0.0027218803,-0.0879894424,-0.0590404727,-0.0110778077,0.0509395482,-0.0503895146,0.0038613846,0.0026113422,-0.0304973363,-0.0124501398,0.0501341889,0.0304425328,0.0534761981,-0.0387217184,-0.0688734184,-0.0055302637,0.0425098664,0.0683734744,-0.062183605,-0.0748245033,0.0003172131,0.0099753866,-0.0650137027,-0.0602794023,0.0206808255,-0.0138007153,0.0661918352,-0.007663436,0.0261573394,-0.0010961315,-0.0349989533,0.0063464012,-0.0440507001,-0.0184000504,0.0108010906,-0.0032770836,-0.0062553142,-0.0594226589,0.0380845691,-0.020463782,0.002747614,0.0583103445,-0.0531246624,0.0509624705,-0.0208486682,-0.0502754473,0.0075491553,0.0018143161,-0.0097199165,-0.0029542082,0.0503164385,-0.0288214837,-0.0361096853,-0.0265927462,-0.0509092722,-0.0510835946,0.045643349,-0.0278674847,0.0043352042,-0.0654836038,0.0301184615,0.0025262883,-0.0142565624,0.0011874552,0.0243332428,-0.0043535063,-0.044097604,0.0067108536,-0.0158031084,-0.0166608252,-0.0367957716,0.0261108912,-0.0054822151,0.0047033511,-0.0374465038,-0.0485974245,0.0109977715,-0.0057981333,0.0057134482,-0.0128085157,0.0268258357,-0.0206932893,-0.0152459908,-0.0280747946,-0.0024124797,0.0446410995,-0.0406908858,0.0238133452,0.060594132,-0.0113051872,0.0150618234,0.0105058962,0.0557852938,-0.0047883314,0.0520762903,-0.0141504126,0.006756752,0.0253116867,-0.0419299947,-0.0320105055,0.0002716162,0.0067241613,-0.0364472845,-0.0349802174,-0.003304112,0.0416268893,0.0146380893,0.0536198093,-0.0893174079,0.0744494868,-0.0346848426,-0.0247245483,0.0179463585,0.0111675541,-0.0448440419,-0.0018586451,-0.0226384646,0.0020576188,0.0326031032,-0.0484106615,-0.0210096847,-0.020698899,-0.0117269725,-0.0475464876,0.0155466388,-0.0794483144,-0.1130799165,-0.0261763197,-0.0269080552,-0.0918120584,-0.0267200964,0.0217545716,0.0289555628,-0.036001698,-0.0433999547,0.0291970729,-0.0185877073,0.0070572169,0.0037337336,-0.0026299113,-0.0136602838,-0.0266735535,0.0128879925,0.0023993396,0.0537025218,0.0045104936,-0.0442767142,-0.0344555413,-0.0163647601,0.0244302305,-0.0105729938,-0.0536180924,0.0290231779,0.0515142454,-0.0036900861,0.0073982652,0.0160536046,-0.0135092601,-0.0133221061,-0.0146008409,0.0222775508,0.0137351093,0.0146138903,0.0327053057,-0.0496166822,-0.0115086389,0.0388986262,0.0401368612,0.0084720789,-0.0225277918,-0.037375254,-0.0597861313,0.0217469061,-0.0659034401,-0.0022596211,0.0100114524,-0.0241478084,0.034296921,-0.0483694409,-0.0090725746,-0.0482401623,0.0650813823,0.0180470527,0.0856412737,0.0031746488,-0.0099380728,-0.0248404522,-0.0703985396,0.0188048868,0.0350291226,-0.0529814803,-0.0675330295,0.0220886403,0.026865672,-0.0223931009,-0.0392215019,0.0018769964,0.0293482183,-0.0584332999,-0.0153332414,0.0205200342,0.0925525527,0.0150503222,0.0494147039,-0.0130454287,0.0427442365,0.0179838765,0.0362933105,0.0256446008,0.0253138055,-0.053387795,0.0243464367,-0.0180810238,-0.0175384705,-0.0692567926,0.0450089788,0.0848792533,0.07374565,-0.0090430745,-0.011237942,-0.0377489938,-0.0140169792,0.0635423156,0.0479955153,0.0360939818,0.0595320741,-0.0757574229,0.066769529,0.0528769129,-0.0343564672,-0.0549167153,-0.0229779192,0.0467509668,-0.0128801603,0.115387247,-0.0222367215,-0.0870608464,0.0320330006,0.0407742919,-0.052357382,-0.0111066124,-0.0214711388,-0.0134873281,-0.0188899984,0.0359286865,-0.0361401148,-0.023814662,0.3764231376,-0.0522451732,0.1138794262,-0.0353819114,0.0034688248,0.0790042576,-0.0097693933,-0.0423344218,-0.0107486682,-0.0573267687,0.0059283018,-0.0395197991,0.0031229787,0.074586911,0.0395494873,0.0139487346,0.0183716748,-0.031578177,0.0571229773,-0.0744526477,-0.074415517,0.023796329,0.0137653354,-0.0450684381,-0.0153132027,-0.0678470118,0.0548456844,0.060113109,-0.0854328072,-0.0334710809,-0.1024830636,0.0126018705,-0.1247702193,-0.0399249357,0.0966380267,0.0471363493,0.0714792774,-0.1104743373,-0.0675389079,0.0203196621,-0.0717674798,-0.0048805343,-0.089377523,0.0688558243
   -0.0030719777,-0.0023235668,-0.0221319029,-0.0895171297,-0.0432343663,-0.0262303106,0.0834900412,0.0752556824,0.0178950334,0.0073480708,-0.0147229002,0.0353604642,-0.0756205051,-0.0496385682,-0.089872766,-0.0899532325,0.0085325664,-0.0096880185,-0.0986340393,0.0420843172,-0.0471349764,-0.0415141068,0.1247323181,0.0495994659,0.0434036223,0.0935827525,0.0502828033,0.0580019454,-0.0986902557,0.0319744927,0.038257092,-0.0615788146,0.0445993881,-0.0329469482,-0.0218546428,-0.017058265,-0.0024583326,-0.0244089577,-0.0394085243,0.0578296323,-0.1069444933,-0.1147277453,-0.0188428305,0.0306871739,0.0654581975,0.050547192,0.0257750327,0.0007945112,-0.0719508991,-0.0542412862,-0.032851432,-0.076402222,-0.0089959618,-0.1439077699,-0.0775500754,0.1312837254,-0.012669115,0.0107057442,0.1232220494,0.0138315773,0.0741562295,0.0236515635,-0.005346125,0.0303798063,0.0577942271,-0.0045083496,-0.0198979076,0.0891321022,-0.0380019286,0.029942727,0.0376003684,-0.0332754001,0.0241767939,-0.0798588652,-0.0201992547,-0.0594740287,0.0099152333,-0.0085187464,-0.0855823527,-0.0143711019,0.0000081311,-0.0717349702,0.066435424,0.0337077841,0.0727937546,0.020389884,-0.0118020671,-0.0554410774,-0.0435044236,0.0434060418,-0.1321647271,-0.0057474123,0.0116117834,0.0117595404,0.0419149178,-0.0079753199,0.0037075214,-0.1439418565,0.0925718925,-0.05857775,-0.0108289294,0.0348645019,0.0191853925,-0.0106977666,0.0477743651,-0.0472997187,-0.0156972861,0.07462832,-0.064093756,0.1281341855,-0.0423546185,-0.0398932622,0.0294141186,-0.0405082712,-0.063908525,0.0058778645,-0.0137707978,0.0402150836,-0.072028145,-0.0468719421,-0.040175177,0.0454067316,0.0153576958,-0.0187311551,-0.1495267946,-0.0064929061,-0.0071393514,0.0301424846,-0.0885477375,-0.0832343768,0.0582951946,0.031480199,-0.0827546397,0.0005843867,0.0262955099,0.0642636807,0.0279553119,-0.0411694929,0.0094530739,-0.0993066198,-0.0358577772,0.0866549674,-0.0140959707,-0.0196312513,0.0693992909,0.076366541,0.0213505156,-0.0451976922,0.0481244896,-0.0616152897,-0.0973357722,-0.0686006538,-0.0208035441,0.0121037043,0.0866918128,-0.1036445969,-0.0001516117,-0.0081592437,-0.0958660496,-0.0368164953,0.03593103,-0.0225796551,0.005072319,0.0831196304,0.0873041062,-0.0123571988,0.040893637,-0.0200482695,-0.0190210108,0.0133987909,0.0301481867,-0.0389892638,-0.0020391785,0.0397040006,-0.0053761941,-0.0268025908,-0.1039705385,0.0923006593,0.0770763837,-0.0033965866,-0.0864766411,-0.0320068103,0.0408379504,-0.0145945758,0.0545821435,-0.0320596116,0.0660791183,0.1122797466,0.0376856139,0.0063904805,-0.0111699121,0.0516158872,-0.0246701412,-0.0252946286,-0.0774818628,-0.0048925812,0.1313131097,0.0854812614,0.155237427,0.0349304296,-0.0769415071,-0.0165271583,0.1150773166,0.0364580704,-0.0238131607,0.0393423173,-0.0581247574,0.0332786715,0.0108124288,0.0572491935,0.0805491267,-0.0039617232,-0.0185785227,0.0661763643,0.0805131205,0.0813396688,0.0484483554,0.017157045,-0.0547844372,-0.0759908842,-0.0799948983,0.017149932,0.0416558105,0.1111379999,-0.0071554057,-0.0807573892,-0.0833313983,0.0505200594,-0.0982334845,-0.0084238557,0.0036663325,-0.0235033984,-0.0304679575,-0.0164751651,0.009374588,-0.0025231224,0.0036022865,-0.0611872847,-0.034595495,-0.0555800198,0.0109103794,-0.0086685462,-0.0277374089,-0.083093105,-0.1744828869,0.2411123515,-0.0133407951,-0.0348517909,-0.0733805259,0.0369470701,-0.0132679551,-0.0389126501,-0.0380895084,0.0959825317,0.0516755985,-0.0198042755,0.0260111397,0.0015610246,0.0313253516,-0.014462902,0.0014360443,-0.0525883381,-0.020478042,0.0892241212,-0.0582393362,0.0082160438,0.0896009534,-0.0394926724,0.0601878081,0.0241548972,-0.0495933372,-0.0930505863,-0.1328323471,0.0097012941,-0.0694291751,0.0467427167,-0.0248197942,-0.006254477,0.0553265824,0.0450599293,-0.1014285964,0.0032177275,0.0178534291,0.0325202097,-0.11032194,-0.0409279266,0.0058715815,0.0621149036,-0.057812236,0.0785202145,0.0390750486,0.0268499166,0.0079560738,-0.0713109305,-0.0041000198,0.0995881916,-0.0484358546,-0.0104052475,-0.0540613856,-0.0836494694,0.0383621334,-0.0733479761,-0.0559734483,0.0374393178,-0.0520359815,-0.0290138566,0.0299372762,0.0609147959,-0.0188447277,0.0879517245,-0.0608225048,0.0311438658,-0.0172936233,-0.0545195084,0.0199518528,-0.0995167514,-0.0028735268,0.0692703431,0.0637096504,0.1175829741,-0.0198300583,0.0625769586,0.0277765536,-0.0987062785,-0.0192791386,0.0104631016,0.0198212838,-0.0301834799,0.0024487339,0.0130283452,-0.0744668512,-0.0708086248,0.0097510777,0.0164005,0.0342904621,-0.0288106371,-0.0884696684,-0.0690707417,-0.0687325787,0.0905047244,-0.0038848874,-0.0229662188,-0.0276299279,0.0151118482,0.0288525784,0.0385686307,-0.041293036,-0.0600815501,0.0548700496,-0.0963200206,0.05731772,-0.1042984562,-0.0921998388,0.0159694573,0.0574051614,-0.0062486978,-0.0005584813,-0.25137728,-0.0143679845,-0.0408874418,-0.0045115119,0.0181158647,-0.017379358,-0.0088061066,0.0279458512,0.0330706074,-0.0119386351,-0.0067508874,-0.0144738356,0.02658785,-0.0200057915,0.006478444,0.0251920841,-0.0057461936,0.0033447811,0.0108485346,0.0010971762,-0.024491128,0.0196987514,-0.0246245915,0.0656584861,-0.0226027466,0.0162419911,-0.0231020034,0.0252387691,-0.0166395434,0.0103121461,0.005279967,0.0034298826,0.0061113835,-0.0489814742,-0.0730138258,-0.0242108102,0.0099256227,-0.0114432583,0.0639319137,-0.0007321768,-0.0168240222,0.01687602,-0.0089839555,0.0229489896,-0.0063939939,-0.0321860804,0.0115320918,0.0079183001,0.0307406693,0.0064899775,-0.0352074076,-0.0378548418,-0.0235348798,0.0122754172,0.0449684754,0.0309173894,0.0501200424,0.0113472516,-0.0144607374,-0.0465161211,0.0175878135,-0.0130018385,0.0005448025,-0.0320724889,-0.0142419368,0.0086773052,0.0287627967,0.0256197952,0.008491956,-0.0158484142,0.0341013183,-0.0378718997,0.0325625499,-0.0530672868,-0.020560047,0.0013634395,0.0274666707,0.0288935107,-0.0051758733,-0.0108103821,-0.0127787471,0.0201895993,-0.0393972462,-0.0047646333,0.0337525015,0.016579272,0.0392105187,0.0012310614,-0.0280426924,0.0592541329,-0.0087470429,-0.0297115711,-0.022516031,0.0068782765,-0.0074177098,0.0066880166,0.0143873419,0.0015921566,0.0084953255,-0.0436299499,-0.0121302217,0.0310490735,0.0541180277,0.0195328259,-0.0261577056,-0.0102104786,-0.0018387496,-0.0085730909,0.013781531,0.0428694134,-0.0517162291,0.0152015977,-0.0005603532,0.015978734,-0.0004658344,0.0023057982,0.0033015517,0.0200841115,0.0196463629,0.0190996385,-0.0438563852,0.0315442514,-0.015313466,0.0223499643,0.0175059872,0.0143687486,-0.0144111413,0.0292660614,-0.0034002075,0.032324688,-0.0148630334,-0.0188373033,-0.0152384286,0.0129458037,-0.0482684805,0.0735595448,0.0146511203,0.0240596665,0.0152374851,-0.0074160378,0.033773983,0.0450373469,0.0176399085,-0.0061668042,0.0391180288,-0.0429463113,0.0045806327,-0.0122012589,0.0453540438,0.0337831926,-0.0029320053,0.008429006,-0.0200225004,-0.016228047,0.0137539854,-0.0169539846,0.0239148784,0.0201287503,0.0164487332,0.0063782381,-0.0229242145,-0.0300541413,-0.0085051691,0.0109532339,0.0281072888,-0.0245542029,0.0685407721,0.0049508872,-0.0368387162,-0.0032727928,-0.02879761,-0.0139751122,-0.0370172447,-0.0163711737,0.0173782128,0.0059966146,0.0236983865,0.0128613543,0.0350942194,0.0075632978,0.0102875616,0.0463335156,-0.0095079471,0.0155602763,0.0101320975,0.0485661344,-0.0107968602,-0.0161417017,0.0000536175,-0.0011943301,0.0055214486,-0.0367643,0.0395870705,-0.0335045785,-0.023703712,0.0184402102,0.0414814747,0.0320499403,-0.0024416427,0.0025235354,-0.0148297393,0.0122441038,0.0216097339,-0.0254777125,0.0224832115,-0.0256449462,0.0081980084,-0.0199838248,0.0617804407,-0.0365724891,0.0185026168,0.0139379541,0.004192437,0.0370673337,-0.0211496335,0.0303708405,0.0009190195,-0.042536392,0.0006442284,0.0171782828,-0.0402774936,-0.015153147,-0.0061886228,-0.0438739775,-0.0007295631,-0.0106387796,-0.0128235313,0.0256670718,0.0072295137,-0.029127774,-0.0009132037,0.0458959231,0.0609336289,-0.0004085327,0.0143024761,-0.0019125921,0.0170422017,-0.0458227261,0.0214092785,-0.0189498994,0.0048300257,0.0031019237,-0.0014784461,-0.0474511406,-0.0145461558,-0.0146699288,0.0105156071,-0.0020294328,0.0271603661,0.0208164811,0.064561144,-0.0237355593,0.0247171888,-0.0076550707,-0.0332523318,0.000380721,0.0451411797,-0.0224983996,-0.0045075508,0.0127110581,0.0272693118,0.0206016673,-0.0082974194,0.0313365264,-0.0411489168,-0.0058767482,-0.0435912895,0.019618395,-0.0066429796,-0.0460100845,-0.0441733209,0.0180843677,-0.0024050857,-0.0113321953,-0.005914708,0.0038600622,0.0140463348,0.0362201499,-0.0043539301,-0.0134752549,-0.0226771876,0.0226113512,0.002400539,0.0229338856,0.0029868165,-0.0064104444,-0.009581601,0.022220523,0.0334805624,-0.0319934525,-0.0086121357,0.0545458336,0.0322677092,0.003753151,0.0368826599,0.0082535872,0.0033999069,0.0062856602,0.0014131742,0.0164229605,-0.0357182451,-0.0478806237,-0.0127301123,0.0214275298,-0.0136798235,0.0376269538,0.0149737722,-0.0466307246,-0.0044984533,0.0200485708,0.0310870737,0.0460094059,-0.0204547996,0.0105556999,-0.0540574719,-0.0300820962,-0.0035472519,-0.0261434388,-0.0169440755,0.0103250107,-0.0414149121,0.030210187,-0.024434986,0.0074748406,-0.0214782319,0.0230389316,0.0110374737,-0.001380277,0.0065945382,0.0075174828,-0.0291375877,-0.0007554077,-0.0100915548,-0.0227701946,-0.0095579703,-0.0394926796,0.0198905675,-0.0040124411,-0.0310300482,-0.0183433139,-0.0348768334,-0.0117923221,0.0126910517,0.0134042935,-0.0302199538,0.0066445568,0.0286243691,0.0167905139,-0.0075741538,0.0113878046,-0.0016372697,0.0454911516,0.0084014121,-0.0480352368,-0.0046863355,0.0621833031,-0.0388126546,0.0111621766,0.0060142242,0.0012369208,0.0376525296,0.0222287089,0.012714558,-0.0415801182,0.033162254,-0.0021880958,0.0066613965,-0.0071939852,-0.0252143629,-0.0069842653,0.0265048647,-0.0266487589,-0.0057673306,0.0100521429,-0.0000972811,-0.0553109307,0.028746154,0.0075882175,-0.0462782998,0.0245622476,-0.0061415037,0.0081043299,0.0260381909,0.0181997934,0.0358288894,-0.0126919284,0.0332517485,-0.0445054192,0.0067446287,-0.0012267988,-0.0168062638,-0.0042391378,0.0172580977,-0.0294586434,0.0050045096,0.0170857997,-0.0154727603,-0.0244174863,-0.012971107,-0.0164434569,-0.0101644427,-0.1077054447,0.122172171,0.085807025,0.1010150717,-0.0504013417,0.1443081408,0.0431840728,-0.0743030006,-0.0189072798,0.0373450782,0.0105267045,0.0066722657,-0.0881900261,0.0104517837,-0.0002150555,-0.0755906317,-0.0486975397,-0.0323258635,0.0354952608,0.0505743285,-0.0155727272,-0.0236198294,0.0301664911,-0.0311583209,-0.0015617203,-0.0591162409,-0.0481658691,0.0235822867,-0.0265333943,-0.0397013982,0.0225007741,0.062329597,-0.0109406586,0.0480814795,-0.0143048319,-0.0237690882,-0.0214065088,-0.0646196389,0.0366392417,0.035785843,0.011589646,-0.0313597245,0.0958864303,-0.0692195944,-0.0143820253,-0.0067487003,0.0803170233,0.0513604127,0.002494163,-0.0008888093,0.0952168447,-0.1237073096,0.0080294796,0.089226571,-0.0627143486,-0.0060991215,-0.0710610562,-0.0963991664,0.0064054596,-0.0238261913,-0.0284766809,0.0510911152,0.0006287951,-0.0071730473,-0.0299007531,-0.0832749626,0.1700333612,-0.0008141533,0.0009097129,-0.0046327969,-0.0731114392,0.0292129488,0.0405976579,0.0103506562,-0.0074075528,-0.0929097737,0.0468108533,0.0881031978,0.0806053035,0.0434292861,0.0862720646,0.112461557,0.0164867011,0.0448089568,0.0751983165,0.0168632949,0.1070733658,-0.0491686297,-0.0136739122,-0.0035865358,-0.0194701859,0.0733905135,0.0115957803,-0.0031541505,0.0646196663,0.0449777875,0.0141915144,0.0298062074,0.0491981063,-0.024561144,0.0627056488,0.0098146304,-0.013874564,0.1159097792,-0.0061286966,-0.0318691607,-0.0739498038,0.0036124371,-0.115669584,-0.0327298018,-0.0095164978,-0.0226798439,0.0604655374,0.0354893326,0.0342004275,0.0067491575,-0.0836258298,0.0183300397,-0.0600847193,0.0074659668,0.0873840893,-0.0012405752,0.0024769412,-0.0690725151,0.033678703,0.0716130874,-0.0624847063,0.0695045239,0.0374476275,-0.0298695248,0.0474358821,0.0328388439,-0.0297004482,0.0023422377,0.086997328,0.0576827016,-0.0055817954,-0.0674583798,-0.0295607954,-0.0454503894,-0.12521136,0.0300248596,-0.0256551741,0.0240354121,0.0792683478,0.0936014574,-0.0756391324,0.0005431074,-0.0547313019,-0.0152569389,0.016160478,-0.0063820554,0.0388408435,-0.0781115663,0.0783913613,-0.0094560325,-0.0442537295,-0.0409451155,-0.0467159269,-0.1294168308,-0.0096071067,0.0348049312,0.0295577073,-0.0324925687,-0.0973316244,-0.0074804465,-0.1571493585,-0.0179012209,0.0833394053,-0.0220745575,0.0236182873,-0.0036120544,0.1240097361,-0.0065535468,-0.1139546097,0.0016044808,-0.0632575432,0.0250215034,-0.0390706815,-0.0022256292,-0.009789181,0.0724227722,0.075550989,0.0276928353,0.0493286123,-0.0487922645,0.0460072662,0.0878686619,0.024314908,0.0584388003,0.0300237454,-0.0117845104,-0.0776070479,0.0447669173,0.121963166,-0.070718773,0.0069045605,0.0322619907,-0.0127930964,0.0329364064,0.0495730051,0.0172367478,0.0237783185,-0.0627086729,-0.0979749177,0.0130750121,-0.0676019817,0.038470532,-0.0891902407,-0.0207667801,-0.0324546618,0.0689600307,-0.005986326,0.0527951375,0.0261550003,0.0464923329,0.0127819133,0.0073186082,-0.0674172727,-0.0171530388,-0.0020676148,-0.0554008923,-0.0009532549,0.0744888545,0.020962934,0.0275915182,-0.0952926851,-0.0338614991,0.0718777654,0.0876355958,-0.0019139481,0.0184990608,-0.045125972,-0.0100741562,-0.0053578904,-0.0255602961,-0.0280355684,0.0488608241,0.0683355633,0.0587303183,-0.0204731244,-0.0591627642,-0.0455888719,-0.070561264,-0.0025493203,0.1411761492,-0.0610487738,0.0604955541,-0.0544180127,-0.0572900284,-0.0059124888,-0.0055876216,-0.0582208665,-0.0730340852,-0.0134991902,-0.0208770968,0.0354121596,0.0008059869,0.0627709844,-0.0396412342,-0.0614800455,0.0584050266,-0.0271060557,-0.0021874341,0.1413655925,0.0086693652,0.0013946845,-0.0314233839,-0.0178263599,0.0917178432,0.0544061117,-0.0161759374,-0.1058482181,0.034586512,-0.0199921681,-0.0224232354,0.0718860358,-0.0664786322,-0.088477659,0.0755621483,-0.0295732738,0.0435526069,-0.0452200851,-0.0028938832,-0.0632430301,-0.1158755843,0.0933198922,0.0300233193,0.0112918642,-0.0604237544,-0.0641498883,-0.0540326921,0.0135201286,-0.0500178738,-0.0256613676,-0.0225908823,0.0176691615,-0.068067776,0.0831595129,-0.0795301761,0.0894962804,-0.0021758739,-0.0584951248,-0.0398756768,0.0406857701,0.0596888174,0.0484042734,0.0051439229,-0.0382299252,0.0467637281,-0.0014002316,-0.0030139242,0.0050023216,0.0858173845,0.0197114758,-0.0045098991,0.0268374088,0.0431604209,0.0045377393,-0.0736283518,-0.119772126,-0.0725220288,-0.0658486741,-0.0115980451,0.1083669332,-0.0520032892,0.0574024249,-0.0600017151,0.020532475,-0.0315946683,-0.0344935568,0.1214010439,0.0044542499,0.0817793187,-0.085684638,-0.0007135025,0.1400432575,0.0582355244,-0.0143813824,0.0857505685,-0.0240405867,0.0760752797,0.005521394,-0.1297808752,0.0510133753,0.0600216106,0.0115510804,0.0061171647,0.0533771746,-0.0565968083,-0.0142363363,-0.065797043,0.0224673668,0.0422579518,0.091985896,-0.0458190409,-0.0143417383,-0.0226410346,0.0062587704,-0.0077890218,-0.0513791956,-0.0250352933,-0.0087794515,0.0559816857,-0.0286302658,-0.0946420993,0.0614694459,0.0725961926,0.0329738795,0.0031496823,-0.0340024202,-0.0321781609,-0.0682146752,-0.0753561143,-0.0546892222,-0.0623182123,0.0183925636,-0.0097649684,-0.0681237245,-0.0495050197,0.0033599325,-0.0509912613,-0.0124034889,-0.073807317,-0.0061388549,-0.0316882086,0.024552017,0.0821226141,0.0959137858,0.0028541895,0.0120779904,-0.0061675018,-0.0040797902,0.0139365978,0.0756180612,0.0220722092,-0.0286444767,-0.0589483344,0.0820091081,0.0054023603,0.0055311873,0.746335262,0.0657857273,-0.0381010785,-0.0154086179,-0.014081469,-0.0546160337,0.0664922336,-0.0541030608,0.0816721762,-0.0634073653,-0.0124829891,-0.1114157065,0.0144084637,0.0577204204,0.0576337421,-0.0926762429,0.0578957857,-0.050249654,-0.0227569966,-0.1295013862,-0.100108181,-0.0818897664,-0.0917223302,0.1181799349,0.1525391246,-0.088842169,0.1253032369,0.053528206,-0.005728512,-0.0559755455,0.0926498153,0.0458313554,0.0041352871,0.0114096287,0.012079839,-0.0181105513,0.0171824134,-0.0601801551,0.120144829,0.0163560116,-0.000975018,-0.0275802384,-0.0193552037,-0.0677259742,-0.0101141833,-0.0028785606,0.0166735706,0.0165226345,0.0347139891,-0.0293366491,-0.0079123166,0.0607763775,0.0428531023,0.0853688064,0.0447902763,0.0714823509,-0.0191914169,-0.0288045731,0.0796225417,0.1008376764,0.015576892,0.0282043027,-0.0733850535,-0.0628133515,-0.0423912015,-0.08004434,-0.0487012071,0.0861368515,0.0159492901,0.0049106151,0.0262889278,-0.0163089534,-0.0474023617,0.0125753389,-0.0189002699,0.104272202,-0.0781904287,0.0061591012,-0.0099005378,0.1034396383,0.0831513425,-0.0403563118,0.056146576,0.0220933614,-0.0069813669,0.0684015092,-0.0214932572,0.0759824869,0.0070008413,-0.0771515602,0.0072829522,-0.0429140133,-0.1048505468,0.041158636,-0.0161053874,-0.0794242091,-0.0427433799,0.0223292603,0.0066698266,-0.1323081673,0.0002382744,-0.0294004555,-0.0928668188,-0.0215385768,-0.0351690465,-0.0605144652,0.0582518944,0.0296443756,0.0396865556,-0.030183872,-0.0239614221,-0.0587029837,0.0134827908,0.0017903671,-0.0630858901,-0.1131286096,0.053462666,-0.0436484702,-0.0283397901,-0.0438184258,-0.0132043428,-0.047537143,0.0792817424,-0.0703231863,-0.0088611209,-0.0164912807,0.0331700774,-0.0688113116,0.0647988969,-0.1091083341,-0.09015999,0.0665249766,-0.056651556,-0.0532295063,-0.0030202224,-0.0654557235,0.006449309,0.0424657846,0.0549452758,0.0032024554,0.0378729516,0.0553661574,-0.0030436561,-0.0171735817,-0.0215498998,-0.0488640181,0.0721620973,-0.0356124643,0.0051074969,-0.0018220266,0.0768255582,-0.0162783682,0.0170075671,0.0385193465,-0.0641961722,-0.0229811743,-0.0070748868,0.0834253182,-0.0146763276,0.018389925,-0.016529913,-0.0135732297,0.0667423681,0.0654624046,-0.0221146731,-0.1028510957,-0.0080497799,-0.1153282994,0.0536970263,-0.004942335,-0.0479589072,-0.0454019964,0.0183231295,0.0290409695,0.0403586051,-0.0152965805,0.0613615774,0.0292224714,0.0769758278,0.0154291033,-0.0297805589,0.0208259978,-0.0096832916,0.1070459994,-0.0339255716,0.0729900635,0.0028507055,-0.0021185349,0.0780896989,-0.0736986274,0.1327694555,-0.1117728859,-0.0385322813,0.0473974333,0.0259700239,-0.0732584012,-0.1052519223,-0.0405658788,-0.1412218276,-0.0731363873,0.0162452238,0.0533650565,-0.0944727568,0.0836142512,0.0444424369,0.080228339,-0.0089603484,0.072991972,0.0491870398,0.127234898,0.0932499609,-0.0061752542,-0.0270199408,0.0175466084,0.0064774264,-0.0514587543,-0.0049211257,0.0515942794,-0.0461894647,-0.0328010107,0.0004861908,0.0583942062,-0.0258981782,0.017707128,-0.0383677789,-0.0843626205,0.0876018839,-0.0041389054,0.1004226887,-0.0259665381,-0.1038297306,0.0278040834,-0.0025253757,0.1081925388,0.0009629107,0.0171566127,0.0569705551,0.0034979212,-0.0615738744,0.0617023268,0.069027639,-0.0810402671,0.0078669008,0.0363581695,0.1095110934,-0.0281445051,0.0303311976,0.0030379405,0.0598769796,-0.1377822401,-0.1054147784,0.0136599304,0.0032867268,0.0975919606,-0.054187343,0.055460491,-0.0289320544,0.028697264,-0.056793493,0.0552574839,-0.0947616264,0.0217354157,-0.0570107558,0.0730729403,-0.002676816,-0.004411964,0.0059461656,-0.0474903322,0.0559883327,0.0081484911,0.0271360586,-0.0394797319,0.1590300433,0.0451469619,0.0705006606,0.0327075954,-0.0354456088,-0.1055552471,0.0625615409,0.02450245,0.0079470189,-0.0211148785,-0.0290873471,0.0431753172,0.0595659161,0.0520521462,-0.0845125125,-0.0131891413,0.0801393266,-0.0958787783,0.1101597453,0.0980973714,0.0064239408,-0.0751783158,-0.0377055193,0.1190277796,0.0192587062,0.0061751891,-0.0156822212,0.111418487,-0.0474756494,-0.0433711505,0.072071882,0.0307265986,-0.0186668554,-0.0019915719,-0.0132501479,-0.0871129179,-0.0007343797,0.0969658246,0.0145807108,0.0474228031,0.0836328414,-0.083145044,-0.0490575085,0.0413117473,-0.0163128209,-0.1598361987,-0.0225590625,0.0504298362,-0.1153155171,0.0457350999,0.0247174791,0.0144539187,0.0069984113,0.0039641649,-0.0108662492,0.0370576995,-0.0147420754,-0.0035578893,0.0727418073,-0.0252416411,0.0254191106,0.0141557988,-0.0338393293,-0.0194954002,-0.0804095034,0.0763928506,0.0810109364,-0.1008219838,0.0671329113,-0.067750529,-0.0197415356,0.0077330156,-0.0522767937,0.0149847004,-0.0050718257,-0.0254272651,0.0884199795,0.0164976509,-0.0082753971,-0.0205981322,0.1226849659,0.0179120209,0.0930349872,-0.0628514513,0.0226866817,-0.0221797614,0.0970065359,0.0931534773,-0.0966640368,0.0567875503,-0.026444237,-0.1092466884,-0.0347391771,0.097359399,-0.0926558781,-0.0225236365,0.0079318115,0.0717549344,-0.0888976806,0.0688799229,0.0666841619,-0.006482059,-0.1085531989,0.0782764199,-0.0206071201,0.0300451073,0.0742372808,0.1124724262,-0.0661244319,0.0209272828,0.0493130197,-0.1155477281,-0.0150320895,0.0512171223,0.0637142523,0.1413598872,-0.0644478121,0.0135925659,-0.0547629482,0.0175368298,-0.0200138177,0.105236705,0.0877067278,-0.0281899434,-0.012650781,0.0278296439,-0.0072282529,-0.013930988,-0.1101750807,-0.3305643106,-0.8153095115,0.4916115945,-0.6857203341,0.3418900501,-0.6465945552,0.3448851545,-1.0304392991,0.5342054529,-0.1080791275,0.0648253959,0.7175477444,0.6571831017,-0.6138426623,-0.9868518336,-0.7921089851,-0.5253548716,-0.2426024575,0.8521758795,-0.6247097965,0.6738551478,-1.0149556101,-0.0332780537,0.4729638033,0.6518008088,-0.1623037091,0.1631166086,0.7068962305,-0.7161478065,-0.4382362314,0.374628578,0.6120469586,0.1504039806,-0.4025719453,0.8951463517,-0.0131327088,0.8129214233,-0.3187466948,0.2139946009,-0.3078801927,-0.2323679359,0.9337528515,-0.5312831802,0.1564667259,0.3923653131,0.864622408,-0.6163479195,-0.6801236534,-0.5496510003,-0.5561133125,-0.0825963388,0.6468811392,-0.787672858,-0.4436825207,-0.4553722754,-0.497439824,0.7406515899,-0.2583490159,-0.343325323,-0.3156082569,-0.8269551298,0.4911632181,0.8716092375,0.924185754,-0.0889374369,-0.9417036246,-0.7299173055,0.2019591153,0.4842785011,0.5994712743,-0.0733618367,0.2320264676,0.4282498156,0.0240830735,0.7552014696,0.4129484062,-0.3148512019,-0.9624224408,-0.9116576685,-0.3644975128,0.6521036245,-0.1846381626,-0.1950195885,-0.6536598744,0.3212107282,-0.1405456689,-0.3081463816,-0.8716519469,0.4664292505,-0.5376382067,0.1145585527,0.2144596329,-0.7101794345,0.4493365317,-0.5987086537,-0.1841993436,-0.3227047181,0.7548999392,0.240408334,0.1744813612,-0.9494914586,-0.1145249676,-0.2677431572,0.0217262317,-0.2663493896,0.9306214652,-0.2789903174,-0.0435350854,0.3724768763,-0.4431958977,0.0185525907,0.6739969462,1.0031724758,-0.2131092868,0.5987076962,-0.1234596546,-0.5225167657,0.4154330568,-0.4126817406,-0.2344307608,0.491212125,0.802328244,-0.0812122442,-0.5192923291,0.3188724969,-0.2917456879,0.8594692336,0.1285946782,0.121368906,-0.8212241246,-0.3627276226,0.249380735,0.7810661349,0.3124039103,-0.829690339,-0.2026112074,0.3574652793,0.8418798152,0.3681656607,0.4932725477,0.104615921,0.6515812883,-1.0228547225,-0.8390503531,-0.5749900028,-0.7233924587,-0.3283613555,-0.2908907112,0.1439628258,-0.0765022533,-0.6431490186,-0.1417713625,0.3882658097,0.8475757376,-0.4677535146,-0.8710035271,-0.8561548997,-0.5270927427,-0.9739434181,-0.7153913208,0.8552240117,-0.2076983372,0.8131775682,0.71598372,-0.4429054756,-0.0386142096,-0.6835402543,-0.8714018065,0.30383997,0.7740281587,0.5836343113,0.1564800237,-0.0309915335,-0.0959231592,0.6981492027,0.8894716149,0.8003458021,-0.4275061433,-0.3783120356,-0.5147255379,0.2954951785,-0.1553876743,-0.66319151,0.6307459942,0.8765096256,0.285050651,0.8692932847,-0.0970313588,-0.8092092564,-0.8666128132,-0.8386260331,-0.7542744659,0.4648634209,-0.0707576566,0.4338335456,0.6448638735,-0.4902872086,-0.5038001143,0.9046036991,-0.5866816072,0.7285849593,0.3402868766,-0.0813192453,-1.0468914543,0.2133326944,0.0404737003,0.9193172821,-0.4965392938,0.1831317236,0.0417512444,0.2369708141,-0.8870490258,0.5625173297,0.2622042689,0.9331759672,0.7039242046,-0.7879451965,-0.1382974369,-0.0608984923,0.5325681804,0.1410407206,0.8273774979,0.2149890235,-1.007162394,0.4289558052,0.3171903007,0.6286465101,0.0375603359,-0.1603307279,-0.498407048,0.8562494159,-0.0026908589,0.6149887343,-0.8756506857,0.5134742406,0.9031197584,0.4992923454,0.5341712861,0.7315341039,-0.4498057633,-0.58465417,-0.5030303925,-0.1190027036,0.7438291786,-0.8239254335,-0.6510705271,-0.0702375725,0.6614540964,-0.4725452055,0.6521978752,-0.3717711727,-0.8938673826,0.7063810447,-0.2094741255,0.3538355838,-0.8410656486,0.6806411374,0.743890125,0.0747600347,-1.0090612824,0.0749092688,0.4668788425,0.0974159936,0.1540113301,-0.9769575031,-0.9446983712,0.3186628403,-0.3749840643,-0.72485679,0.3132519654,-0.6782239164,0.1123045587,-0.5570604934,0.778976599,0.8802526612,-0.8688052238,-0.6863656002,0.4971241656,0.8200151079,0.5412459802,0.2668987078,-0.8738428874,-0.3398114718,-0.0623702584,0.41902965,-0.4133061946,0.1140598761,0.3407171046,-0.5028051673,0.2368757336,0.0410701931,0.2133499405,-0.4577481951,-0.143885962,0.1176862322,0.0535377702,0.9858001782,0.3460549302,-0.5047267874,0.5792014682,0.9534580026,0.3629547271,-0.3074485765,0.6440376775,0.9498938972,-0.9618846695,0.2571795413,-0.2396905427,-0.2263891679,-0.6207542297,0.0536823379,0.185064028,0.721671731,-0.8021435379,0.0698621133,-0.9096060407,-0.7778468343,0.4074606238,0.5930460974,-0.4824289036,-0.0108384417,0.3235878401,-0.080229149,0.6243935651,0.8011432912,-0.9354252503,0.660024632,0.1830756813,-0.3287837449,0.4213152754,0.6364046314,0.348702448,-0.6698699366,-0.7653786475,0.7251832193,-0.314389648,0.4401682282,-0.1306954767,0.5660025582,0.6307873725,-0.3185848979,0.2809861781,-0.5142743716,-0.1831180151,-0.0867964377,-0.8848748067,-0.4941958561,-0.086459507,0.3841951946,-0.9685227076,-0.0990406631,0.2544662927,0.4314481753,0.2821610757,0.5562399242,0.0932552745,0.2977360316,0.0957956796,0.308914756,0.1142800258,0.9916133366,0.8986932191,-0.17408394,0.9868397071,-0.6062353544,0.6193107461,-0.1250638449,-0.0683697152,0.3254339174,0.3653053937,0.9613913084,0.9812767259,-0.2716503139,-0.5474120625,0.2215631287,-0.9665790955,0.0556733832,0.7461916925,0.5385491415,-0.8405895484,-0.097361771,0.6161351141,0.0627726545,-0.3409034251,-0.9798441286,-0.0345945887,-0.3689109263,0.712204752,0.4259469705,-0.1251055354,0.6892218448,0.0680016,-0.7922651285,0.0438522613,-0.4928889311,0.4980355213,0.4570133649,0.9067955124,0.2878915018,-0.3373401137,0.740390765,0.2402092526,-0.2358431282,-0.1825551495,-0.3373067289,-0.7281257175,0.6825565979,0.4755410335,0.6104672236,0.8061826359,-0.9507176525,-0.4914277684,0.0517668707,-0.0556093112,-0.7123210167,0.573232598,-0.5954514105,-0.0103035166,-0.5679022702,-0.5209641682,0.2869176653,0.5444144794,-0.2387242201,-0.1585095937,0.2696615457,-0.5000425565,-0.190954053,0.1483421112,0.6196907556,-0.6923155035,-0.6643750164,0.8210940544,-0.9546988354,0.9176642075,-0.7003325176,0.3003547714,0.9971200471,0.3643964184,-0.5704240021,0.0868689452,0.3218555942,-0.4835482829,0.3832287163,0.6355398483,-0.6488365147,-0.7041369898,-0.5332429393,0.1562703363,-0.962856533,-0.9526477786,-0.994145736,0.5214425494,0.5105272189,-0.1633014816,0.7668500123,0.4145594895,0.9218403537,-0.3944553421,-0.6512057869,-0.4994865381,-0.5303917385,-0.1521817618,0.0337668273,-0.4607774489,-0.2973059414,0.2607126394,-0.2131635671,-0.8121156947,0.9161455148,-0.5807594696,-0.5717401155,0.0601540449,0.3007963872,-0.2758429491,-0.9036360893,-0.4148603976,-0.6216404891,0.8202106699,0.1555566578,-0.8900829859,0.2718484388,0.3405875781,0.7449641129,0.9411783861,0.3740281794,0.8310671246,-0.7469290724,0.728370525
   0.8894789138,0.3483396391,0.4249934798,-0.2382777408,-0.9407064876,-0.129061934,-0.4158575838,0.5432336074,0.3157026158,0.0844659228,-0.7810720098,-0.834075323,-0.124304324,-0.068559238,-0.3641233956,0.0809651197,-0.0599090091,-0.843542428,-0.6019342911,0.8082194118,0.8554811344,-0.2070850942,-0.7059785403,0.2259558188,0.4661441337,0.7956518872,0.4611070346,0.5030315935,0.9633098717,-0.5269760594,-0.4077891775,-0.5508726201,0.1800529822,-0.7680266216,0.6055642569,0.4966975804,0.8206352753,-0.2605572515,0.8097701278,-0.0032081831,-0.8760668834,-0.8901502186,0.5377193826,-0.2834385627,-0.7496536411,-0.8420878861,-0.5214442235,0.1473020031,-0.617802516,-0.9643688644,0.9703263436,0.9321238332,-0.5769761766,0.6527806433,0.6130844153,0.6855117507,0.9651724407,0.0118556057,0.5920573315,0.4526050344,0.969718136,0.6794240244,-0.228678106,0.7278906001,-0.8616855469,0.171189045,0.9294526605,-0.8075398662,0.9437546822,0.4099454457,0.7301305659,0.0297462894,-0.5487103153,0.9687307343,-0.5096642256,0.5631185701,0.7609261522,-0.3980779672,0.6582244406,0.501160031,0.7396715565,0.635063852,0.8964779521,0.1212793656,-0.6865684797,-0.7276790532,-0.8149998301,0.1041719203,-0.000315239,-0.0055101777,0.0007604202,0.3565384315,-0.7510838213,0.9572294459,-0.0883697404,0.4954021535,-0.213132844,-0.0303725347,-0.3201978111,0.5086546564,-0.3864895248,0.3588744598,-0.8081249541,-0.5096204204,-0.3398860244,-0.1246331875,-0.3951893889,-0.8822330262,0.6899614987,-0.3550233685,-0.7757874269,0.0605478384,0.9136375783,0.394178471,0.0592320834,-0.1260095988,-0.7104144101,-0.1523050404,0.8780282571,-0.3253633939,0.3743892743,-0.2066507777,-0.7065977822,0.9669334188,-0.0629349858,-0.7978515231,-0.7017826597,-0.5356042598,0.4875416243,-0.3835267648,0.9534154046,0.5513251726,0.570578289,-0.382380865,0.1519731359,0.855791358,0.6562755214,0.3645748168,-0.2414889998,0.5846444565,-0.9460503785,0.3114346532,0.3985436168,-0.7487854864,-0.1474428083,-0.0909949314,-0.8257325826,0.3376959106,-0.6105846131,-0.0178477561,0.8899475541,0.4708955756,0.56650271,0.5164513814,0.7159565744,0.050410293,0.6255661994,-0.2170479827,-0.7031662028,0.8726049113,-0.8311264036,0.5382194311,-0.7401266213,0.0839490151,0.2568029213,0.6156203919,-0.070748254,-0.5048865744,0.4613371555,0.4206153551,-0.982792565,-0.1424223416,-0.2229335205,0.5513274534,0.1351552113,-0.0357907443,-0.8813082758,0.9278519219,0.6899502875,1.0055300219,-0.1623647289,0.4153469861,-0.8556285941,-0.064561255,0.7060536467,0.3947513435,0.9879329085,0.3321483758,0.2371296372,-0.2084435844,0.4326776836,-0.8290674407,0.006927636,-0.0981213586,0.1317101317,-0.0303807774,0.582309553,0.1363731176,0.5759390511,0.6797171274,-0.8330785869,-1.0269254259,-0.5195849687,0.7234312921,-0.3152489403,-0.4730886497,0.6492438334,-0.7172350038,0.2548713587,0.071827326,0.6122320806,0.1642106234,-0.2702378188,-0.0226151407,0.1128113182,0.5449877136,0.7990089366,-0.1439876045,0.6003307883,-0.924523473,0.5673784674,-0.0856764383,0.0005742062,-0.0427087403,0.9697752591,0.1220540952,0.6379633855,0.7296302339,-0.4314285205,0.5779910378,-0.5201037626,0.8225235715,0.0218413569,-1.0084000821,0.1029134688,0.0967070843,0.3789347229,0.1279185234,0.4556355743,-0.234693808,0.159738562,0.9861797675,0.8088684289,0.4985411894,-0.3574646751,0.1808476061,0.3870713626,0.0128253567,0.1447847688,-0.2637348545,-0.578138576,0.1776648534,0.4486486978,-0.1152268879,0.8163132635,0.5172698337,-0.289260374,-0.9480210309,-0.2121365757,-0.6384751694,-0.2874022823,-0.8241641399,-0.2294507082,-0.5252016101,-0.6641847088,-0.7392541692,-0.2175559516,0.4182839174,0.8923431998,-0.6651323666,-0.7873446759,-0.5328547846,0.0161936542,-0.8595547798,0.038381885,-0.6694383939,-0.6892141606,-0.896694842,0.6840980438,-0.9691986866,0.233480435,0.6289043832,-0.082940243,0.3857512244,-0.3824895335,-0.1632404397,-0.4215641157,-0.9645224025,0.0211879387,0.3016663851,0.5477395454,0.1018827879,-0.034420128,-0.0700241344,-0.7551795278,0.0266710255,0.3791948635,0.1922003565,0.4867576619,-0.0701608,0.0506165195,-0.7357293836,-0.9730986853,0.3360395966,-0.8227492864,-0.1671921595,0.0467966,-0.003711405,0.4124510062,-0.495241745,0.0810501583,-0.2032077127,0.4633553167,-0.3247805197,-0.489234128,0.7057030468,0.4766917271,0.0391753718,-0.6912185111,-0.5451887635,0.7733864878,0.9502950636,-0.4930147125,-0.7772126473,0.6837520247,0.0322851531,-0.6390696446,-0.6070484743,-0.74231019,0.7604707394,0.0897663922,0.405113324,-0.1568360134,0.056799517,0.5835404083,-0.2880333023,-0.3997581644,-0.1014662035,0.0654658043,0.5613617009,0.0450181987,-0.7896238396,0.7310682898,0.0282119452,-1.0121752018,0.5227251307,-0.8085540844,0.6992691438,-0.2114378481,0.1250381601,0.9559986315,-0.4714596197,-0.0499879659,0.0092020496,-0.6264356236,-0.581573385,-0.9498101364,0.3560305051,0.3991516858,-0.0679421899,0.5289551561,0.3559789058,0.3778886998,0.9928516165,0.0535402258,0.8455517188,0.3494391024,-0.5991592897,0.5607330163,0.2146404687,0.3288121438,0.8661659773,-0.1871980421,-0.4179158528,-0.0850521505,-0.8312907204,-0.0372779718,-0.7843233222,-0.9523353048,-0.1776267097,-0.9221452164,0.2020633604,0.8680878113,-0.334641333,-0.258871512,-0.9136679916,0.8573749844,-0.0866239059,0.3090506222,-0.3653101304,0.7396150328,-0.4192166699,-0.865118757,-0.8546548302,-0.8806251766,-0.8399703513,-0.4815219833,0.7021810076,-0.895880878,-0.1230025363,-0.4129368549,0.033996495,0.2594209008,-0.9983041855,-0.6484346484,-0.6324359814,0.9016179644,0.4340281848,0.9353577716,-0.2153875022,-0.3959102288,-0.3242943377,-0.6018706258,-0.1370168075,-0.2329311197,0.8201695076,0.1358221923,0.4810277303,-0.6741330817,0.5551631135,-0.2050947358,0.9730314573,0.4777099646,0.2061309245,0.407239187,-0.6739303338,-0.0954963505,0.0557316225,0.7545598793,-0.4676229809,-0.7525575942,-0.0591254742,0.9983762713,-0.5825588358,0.1435681827,0.3718945133,0.2838294017,0.4680939528,0.4789816185,-0.8743134608,0.6179531041,-0.0918597986,0.559075617,-0.464740321,0.171605006,-0.0965672972,0.7662485254,0.9069584632,-0.7352023728,0.5960066159,0.1531568318,-0.3725957087,0.0153919591,-0.9573447917,0.5074545891,-0.2003217005,-0.0562809164,0.5240700992,0.9510018456,-0.4416435814,-0.7712081306,-0.4567297667,0.1492583709,-0.3869565326,-0.65325756,0.1825270755,0.2302224328,-0.4516971206,-0.3714301947,0.3085594027,0.9845176192,-0.9444489326,-0.709217926,-0.38362178,-0.1989209174,-0.3641060911,0.5426222465,-0.7470242547,0.3046560825,-0.7571836944,-0.0175171868,-0.6469628529,0.1515123843,0.4217438786,0.0672972513,0.8369334649,0.3706367097,0.3844600252,-0.0122805815,0.9211979962,0.3658062762,-0.030652837,0.7443024479,-0.9708393302,-0.2498284245,0.8865714552,-0.4592212549,-0.7040055162,-0.7740123488,0.2092527025,-0.4930296683,0.7386867951,-1.013469895,-0.7902822698,-0.9460170766,0.814902553,0.2722046656,0.3427992279,-0.3692900343,0.616923129,-0.9633633086,0.9400849256,0.9876228304,0.3188268834,0.1368022759,0.9446326952,0.3797536435,0.1136494644,-0.6855832329,-0.6721623232,-0.5222142546,1.0061526525,-0.5105484152,-0.6993777447,-0.7415131759,-0.4829980737,0.3634070071,-0.4937045097,0.9843252882,0.3472662973,-0.5384076704,0.3266056107,-0.5624291152,-0.2334824618,0.5560782301,0.4243857571,0.5616906564,0.8857943853,0.9153242726,0.7160236365,-0.8170908286,0.4184619907,-0.7649011212,-0.1199883598,-0.7332707112,-0.0768549723,-0.5144346412,-0.7691648955,0.4318526504,-0.9241365449,-0.5814859049,0.9662107674,-0.9599082033,0.1453289749,-0.3047494669,0.6721037538,0.85228858,0.2192970241,0.4843417146,0.2024431153,0.8452492259,0.3686883278,-0.7974859631,0.770763485,0.452827387,0.6619788563,0.0861656194,-0.4204997212,-0.3698013542,0.5844411185,0.3004880324,-0.8315518698,-0.0385630473,-0.1012038833,0.3011301195,0.3412994352,0.7542808382,0.272006807,-0.6561537461,-0.7128902063,0.8856808251,0.5800791351,-0.8277909569,-0.946023022,0.6932346927,-0.8927723024,0.7772657029,0.2458181651,-0.2332258769,-0.167701177,0.9261932859,0.6111777593,-0.3204714503,-0.113480473,-0.3356954735,-0.9627236425,-0.041166362,0.8395948293,0.3526122465,0.0160235811,-0.7400568531,-0.3690134904,1.0036023592,0.4291942592,-0.8329390044,-0.4791113612,0.7291696931,-0.4887091926,0.1319376477,-0.2733004751,0.7289759089,0.6076648135,-0.7041713768,0.0621771458,0.0928456471,0.7434009357,-0.2659220598,0.9101341827,-0.7313571315,-0.3172180731,-0.5620312481,-0.7543359201,0.010082282,0.628867061,-0.5082840048,-0.32844586,-0.6365959508,-0.2202407154,-0.760087613,0.0972256035,-0.5285043795,0.6940693201,0.1360835377,0.3776798103,0.174786404,-0.7681181632,-0.899922175,0.4069812716,-0.9865040671,0.6154259466,-0.7104031824,-0.4724603762,0.1938467461,-0.0171795487,0.826538843,0.9945881788,-0.603586257,-0.7387294494,-0.585958969,0.1691092873,0.5024929078,-0.9208061364,0.4029028362,-0.5356189261,-0.9377586757,-0.0261598851,0.9360602197,0.846677806,0.2113183872,0.5994730968,-0.5823319456,0.4477176734,-0.7000268016,0.7971980538,-0.5425565802,-0.9044674466,0.2067323195,0.7797226912,-0.5301933275,-0.6909791402,0.9333540839,-0.9489746047,-0.2575215902,-0.4270067933,0.3172080697,0.6172827559,0.3878026119,0.2355236973,0.9817055366,0.6445595428,-0.3550103754,0.668595158,-0.3851365382,0.2248276864,-0.0894755923,-0.1471416112,0.2553359129,-0.3897423542,-0.9638187691,-0.4476450076,-0.8006622043,-0.9636166,0.8526320426,-0.8287835439,0.2831628401,0.0213125652,-0.6033881208,0.4719152667,-0.6370297158,0.5361612551,-0.2731324073,-0.5223983635,-0.4952687627,0.6190333128,-0.8830565454,-0.534160517,0.1690274654,0.5730650506,-0.6269820831,0.1074201585,0.4235252863,-0.4785746994,0.8206805523,-0.7243415636,0.9430025196,0.4448614535,-0.4117199426,-0.0343650865,0.7665005429,-0.8874994983,-0.6150321732,-0.8000368639,-0.6788196576,0.6917199991,-0.0089111847,0.5505433487,-0.0210526425,0.3516098266,-0.9751680018,0.7271819016,-0.5685345236,0.1914528138,0.3405718071,-0.8051778494,-0.2639630385,-0.4144033463,-0.77282709,0.8865661187,0.7230367766,-0.7549737462,0.060319156,0.65587532,0.4970371057,0.5366397068,-0.3062136978,0.9750880662,-0.4398240811,0.3305225983,0.3351205403,0.4157599702,1.0051064443,0.0782106597,-0.6419704991,0.9782994361,-0.0018645629,0.7142920916,0.5330420753,0.7685490788,-0.0787952129,-0.8721414996,0.0381379407,0.6108109412,0.8074305639,-0.6064891614,0.6504142456,-0.3590102676,-0.2537511377,0.6116270625,0.1406075948,-0.5905406826,-0.3732737753,0.7734793754,-0.743974963,-0.1192940632,0.5433352078,0.5845910269,-0.4268382892,-0.3908797364,-0.0656065751,-0.6739001347,-0.0736250544,0.7554775369,0.4460715361,-0.6791160747,-0.3852024272,0.4287530759,-0.8511055754,0.5665251662,0.117066358,-0.58769033,0.4940814989,0.8087849209,0.0813098414,0.0430071701,-0.7252080304,0.0481842969,0.7718402233,-0.9080209615,-0.130399066,-0.6196417219,0.6646602105,0.3760365525,0.755318626,-0.582811033,-0.1129650025,-0.4806616011,-0.3109129278,-0.5814216624,0.3528145221,-0.6153144711,0.0580465781,0.6524216295,0.512598509,0.4260458798,-0.2278329129,0.7398231965,0.3619935144,-0.817943291,-0.7088741566,0.3048289318,0.2131886679,0.0825818723,-0.8705396484,-0.6274125093,-0.0456061364,-0.0308345074,-0.2836082056,-0.7170759565,-0.7970968901,0.8297958067,0.962865636,-0.7956504487,-0.0528061594,0.5479582521,0.3861555351,0.5034426546,-0.722994619,0.8284196784,-0.8916020654,-0.5566095594,0.354367801,0.5125399209,0.173261541,0.7852654666,-0.8368664591,-0.3488057873,-0.6245614221,-0.8626614472,-0.9177950084,0.2476724465,0.2320886838,-0.4878358779,0.8656757966,0.2255611035,-0.3295781009,-0.0268721331,-0.1465087085,0.5880464082,0.6833239038,0.8744444329,0.0829337724,-0.5019076121,-0.2446849084,0.8367560329,-0.1339047919,-0.2601002234,0.1221227225,0.0564910637,-0.602690978,-0.3034524475,0.8304403385,0.7712183868,0.7378172453,0.2398413843,0.6840563885,0.2558207928,0.3133764928,-0.7111628951,-0.8081965394,-0.6130127837,0.8650736406,0.3597026749,-0.9764632278,1.0102139669,-0.5595665125,0.5168006549,-0.4679841403,-0.336153644,0.3582863944,0.2264062586,0.5052229724,-0.8988912052,-0.0256692228,-0.8929287814,0.9804385097,-0.3595615753,0.1614495192,0.7636398087,-0.3361725714,0.0181413999,-0.009160635,-0.221276509,-0.7156526385,-0.8086598778,0.7503067202,0.7145318406,-0.9365375061,-0.5921318238,-0.9071267335,0.7900390879,-0.4228575612,0.8232916551,0.3022296889,0.6509060936,-0.427638679,0.3701324988,-0.6904234301,-0.6222106625,-0.7742776523,-0.8292984092,-0.2023211196,0.2754320871,-0.819705372,-0.5708171629,0.0221820277,-0.0967821528,-0.6797612803,-0.1164385221,0.4437985001,0.9908342171,0.2229978012,-0.2159846534,0.5142443542,0.453016431,-0.1279814236,-0.3684480018,0.1400836641,0.2790032609,0.1141791085,0.4717748157,0.4631398571,0.748781361,0.9842173504,-0.8198061331,-0.6235959279,0.7246545413,0.6414557061,0.6104060758,0.1024575419,0.3617775641,0.7310243467,0.5314370957,-0.9313384774,-0.5260966825,-0.9107692428,-0.5137584398,-0.1495338421,-0.5453666611,0.0065585623,0.5948124467,0.1351766758,-0.4838680024,-0.4876909738,-0.4660112027,-0.933028471,0.078144524,-0.0833833342,0.6732847566,0.1538473015,-0.3216774373,-0.3924395529,-0.5185956098,0.2672277075,-0.1693482217,0.3291020905,0.823459847,0.0205022891,0.2679895007,-0.1101021565,0.2624156539,-0.4607419388,0.8072289896,-0.9321790434,-0.5506343235,0.8432479592,-0.4909784857,-0.539962348,-0.4856094532,-0.2660118465,1.0405701471,-0.3199156802,0.6035838837,0.0145964614,0.8109458432,-0.0981995148,-0.4749316014,-0.6955889135,-0.0393327355,0.7519634443,0.8462333198,-0.5893350452,0.8753067871,0.1183184835,0.8893529596,-0.1076557349,0.3146222537,0.0490027676,-0.9446623231,-0.693051417,0.2405274088,0.8684872618,-0.5380967274,-0.105599787,0.2652351835,-0.9783199198,0.9988411417,0.2608666345,0.1476279722,-0.8306758959,-0.0987104601,-0.8830279822,-0.711117219,0.6576783452,-0.2194717917,-0.1780440208,-0.8365407629,-0.747738351,-0.3109785751,0.1193293478,-0.2026133485,-0.0199823534,-0.2474037047,0.6003800772,0.383177189,0.7965508099,-0.1872142516,-0.4717833302,0.2119488926,-0.792064304,-0.7586788543,-0.130692558,-0.8760509094,-0.7530838441,0.7994950836,0.4849446495,-0.770442873,-0.7633523441,-0.4581979683,-0.1310118096,-0.027574036,-0.5622552489,-0.4356276643,-0.0704888842,-0.5071164826,-0.4057658646,-0.4483970702,-0.1495722281,0.2513534341,0.7695413683,-0.6868287157,0.9655545264,0.721312023,-0.2784585845,0.8823940852,0.488667577,-0.2258558428,-0.3166073356,-0.0866244706,-0.3855717277,-0.3578142607,-0.3662986195,-0.1790516496,-0.1204434964,1.0467573743,0.666875662,-0.7274748255,-0.9864069662,0.8278570628,1.007215787,-0.5003128779,0.275617115,0.5958980525,0.2411256486,0.3211089214,0.6941862863,-0.5242814573,-0.6027305787,0.6175747446,0.005995616,0.4930097954,0.96781845,-0.0718748642,0.8528184191,0.6330069156,-0.7371679501,-0.9092817679,-0.8047758668,0.6545756872,-0.7308996836,0.7724541305,-0.3597069577,-0.1008398208,0.8035698351,0.7682878998,0.9087761366,-0.9619607051,0.4117151359,0.6771620607,0.115416692,-0.6996040034,0.0384778361,1.0135178829,0.2867975156,-0.1358448404,0.6509569341,-0.1390950266,-0.0562350053,-0.2020481459,0.9996902189,0.1124075683,-0.3782394649,-0.504678949,-0.1173922395,0.9413252416,0.2469121246,-0.8468337261,0.699233186,-0.5614344737,-0.8608808373,-0.3283124854,-0.5152326743,0.8563259183,-0.6766974268,0.4560385051,-0.5777169437,0.8127094538,-0.0928176408,-0.1873520918,0.7986968166,0.6781862888,-0.4471169535,-0.3084457043,-0.8022511211,0.8446417521,-0.5542728613,0.2042617473,0.7860008849,0.2556349017,-0.73136601,-0.0873359109,0.7582643818,0.2574588629,-0.414923471,-0.9077167,-0.7028714729,-0.8164253049,-0.7666330168,-0.1363619852,0.6230475921,0.2181636298,0.088979465,-0.3639764992,0.7320660606,-0.7444605336,-0.6459344349,-0.5405488231,0.9591704564,-0.4198103281,0.935807115,0.053339458,0.3006455664,-0.0761642266,-0.6983486339,-0.1422804954,0.3660683878,-0.2982344175,0.2851957217,0.6240397738,-0.1444859274,1.0264388231,0.1199922357,-0.7628413308,0.9718401042,0.7751979229,-0.9279469381,0.0567553178,-0.4585842377,0.8073869518,0.777064334,-0.6011324029,-0.9061649476,0.0274768743,-0.2986474215,-0.2283280498,0.4488364922,0.9061544749,-0.6417418353,-0.8346564338,-0.9964379228,-0.894808034,-0.4392612672,0.416374687,0.8599213202,-0.1730936277,-0.2490956333,-0.8449463483,0.139179549,0.4408011967,-0.5514275147,-0.1428462674,-0.2615772774,-0.4942040661,0.6362201878,-0.2738461974,-0.533809957,-0.7986020658,-0.1080459564,-0.3119092224,0.2403943565,0.2888798946,-0.2723369943,-0.3610931921,-0.8285922711,0.5447952214,0.1190481464,-0.6123070261,0.5634799068,-0.8513566869,-0.1160787314,-0.4919683189,-0.9408997039,-0.6397417717,0.5530450864,-0.9530405072,0.2648832753,-0.076285328,0.9550663908,-0.4892164104,-0.0508718496,-0.7095945597,-0.4445479186,-0.8312839522,-0.6617668744,-0.6466541045,-0.6953271338,-0.9901114391,0.8779079683,0.9426809631,-0.3208517646,0.6850817122,-0.5717231326,-0.0594345325,0.2902380126,0.541036316,0.6059591995,0.9240443563,-0.0452935152,0.8015233366,-0.2918103376,0.2459189076,0.1278331186,0.2321962808,0.9028323026,-0.8978622782,0.3282991911,0.6006884897,0.143114123,0.4998850936,0.1558016313,-0.8032062881,0.5288086305,-0.1451916959,-0.9506575541,-0.8151470945,0.2475907342,-0.905997708,-0.3913545994,-0.2038500294,0.109299481,0.8672824671,-0.5283638409,-0.7747532642,0.868057947,-0.2018991141,-0.1005887391,-0.2366715168,-0.6838889202,-0.7548209719,-0.4215600702,-0.1311489597,0.5087454899,0.576955598,0.1697526138,0.5426200279,0.9789188922,0.0173132446,0.7170519592,-0.2543723954,-0.2627703102,0.1748519968,0.6794378496,-0.6536432947,-0.4140947464,0.2458219743,-0.2861883478,-0.333886881,-0.2621228758,0.3763086234,-0.2994842811,0.3444010348,0.917678103,-0.49409001,-0.1629741293,0.6240948004,1.0063509353,0.3742413774,-0.3756725964,0.6858177091,0.928491313,0.4300065906,-0.0741174528,-0.1023917545,-0.4945852714,0.3557107325,-0.1468667583,-0.8176508893,-0.5600906855,0.5219166416,0.045720851,-0.1546745585,-0.4224060329,0.2042552615,0.4803641259,-0.1650694,0.4080383567,-0.6867766146,0.8170791595,0.6879207309,0.7965426429,-0.2763508524,-0.939007368,0.1957044602,0.9940619297,-0.6123693971,-0.4438795998,0.7747020736,-0.6497845722,-0.7716535322,-0.7895700644,0.320715384,0.9899782089,-0.2113592759,-0.3322222148,0.2558282863,-0.468517877,0.0295788638,0.3197114931,0.8311532919,0.3713125885,-0.4733860018,-0.6813379369,0.8285442371,0.0236422765,-0.4681159073,0.2196335607,-0.0830638277,0.9754071167,-0.9720241391,-0.5923161867,0.7498749961,0.0954327228,0.017910034,-0.7641910084,0.0137133363,0.4358842414,0.6779669693,0.8193272489,0.571562402,-0.7101407913,-0.2835410516,0.1139604452,0.8014264066,0.2608302386,-0.2799738146,-0.1554889549,-0.6277462494,0.900172651,-0.5183301836,0.3714017968,0.3201752377,-0.0915338965,0.559486611,0.9835550013,-0.1233116389,0.2786808578,0.7205959939,0.166497174,0.5111431903,-0.2389529285,-0.4664875748,0.8240853335,0.921795946,0.1425326689,0.1770508199,-0.0213849855,0.8219169963,0.653256844,-0.8107570764,0.9356608403,0.1062662497,-0.591708806,-0.0417054306,0.0959486101,-0.7030888051,0.9225355727,0.6630823178,0.5735748007,-0.1232150924,-0.9995277335,0.7491730866,-0.6426168028,0.6077760091,0.7872295203,0.7594098169,0.4529888587,-0.248293565,0.7601237556,-0.1795049084,0.0068979103,-0.1649120759,0.1195070076,-0.9438583499,-0.5654149188,-0.5837292569,-0.3343643197,0.218275761,-0.0650325497,0.7457164931,0.0654346019,0.7648012016,-0.2995856864,-0.5443741147,0.482112445,-0.0233942185,0.5030605399,-0.4729076439,-0.5706367079,-0.704481442,0.9704863874,0.3246770506,-0.749399323,0.8748689912,-0.8878670376,0.4171892798,-0.0096236844,-0.0283187029,0.746873962,-0.9080723638,0.5985583424,-0.6052875539,-0.4798600481,-0.3372262986,0.0406443254,-0.2469157188,-0.7088125118,0.1739414181,-0.3156845837,0.7908576897,-0.8436452223,-0.1035867901,0.8465514042,0.7581599856,0.3952262846,0.5382165147,0.5114452149,-0.3836575982,-0.3426414112,0.703421335,-0.4784665242,0.0544334148,-0.0376925571,0.0739790634,0.5447398763,0.5400241112,0.8697963235,-0.3386419713,0.5636216036,-0.0738796838,-0.9697207788,-0.3073074235,-0.8053202867,-0.360717749,0.5985638365,0.2623061531,0.8087573214,0.5523279012,0.7751901507,-0.875322666,0.1358747312,0.6417081851,-0.0159489275,0.2399083837,-0.4304673732,0.9593885195,0.3931358058,-0.3317129765,0.5527895823,-0.6081004651,0.6851323359,0.6087203108,-0.9638393043,0.0386781915,0.7284633903,0.5912624223,-0.5432220382,-0.326574172,0.9909962128,-0.0398800782,-0.4442008526,0.5295873426,0.9010208051,0.2986852894,-0.738958608,-0.7702847988,0.7033455571,-0.4789565319,-0.96779726,-0.2312700064,-0.814793529,0.1355436152,-0.6097905399,-0.5973005972,0.110178336,0.8388726936,0.48257368,0.8958915901,0.900015368,0.1824655063,-0.8865418667,-0.902237286,-0.8605735211,0.0884795226,0.6217571529,0.264901988,-0.8879299522,-0.9050397995,0.6514443204,0.9880114902,0.985795716,0.9336098979,-0.6628290991,-0.5787939429,0.9072547944,-0.8908203662,-0.9135183672,0.1813409041,-0.1876471212,0.8510634992,-0.3439331584,0.5123791069,0.1558611793,0.5924904883,-0.8733860632,0.6028287708,0.2061007458,-0.4781703871,0.4021142034,0.088948291,-0.6696987329,0.1399349743,0.4649566615,0.6735490439,0.0156682724,-0.7089798026,-0.1802499667,0.4146489613,-0.355812704,-0.9189535794,-0.5504981604,-0.5256059034,0.475287253,0.3531983099,0.4388792139,0.0142035668,-0.5098944759,0.3404146249,0.9106923689,0.3097706479,-0.0456467324,0.9580835038,-0.1367990079,-0.4179367895,0.9182937425,-0.0337091677,0.7433816048,-0.5608971982,-0.192904846,0.2041173788,-0.8145812071,-0.968735072,0.6861189627,-0.0140132491,0.3243077683,0.5792698887,-0.8766571119,0.8662756566,0.9078778903,-0.987321788,-0.5952300329,0.9457955603,0.8892263824,0.8488649978,-0.7365102838,-0.4524778655,-0.3427823949,0.5277669929,0.6472414554,0.205786483,0.0835189572,-0.4315550656,-0.9783993296,0.1671702936,0.7420876331,0.8733202108,0.9799511026,0.6980213461,0.9090082198,0.8420129498,-0.183335153,-0.987692369,0.346108814,0.2693107902,-0.2373476985,0.4626040229,-0.9953370692,-0.7303048104,-0.3245199444,-0.4116837863,0.218612522,0.8988176848,0.8220719278,-0.1673262885,-0.7281248088,-0.1911140118,0.5255243728,-0.6120174466,0.1943760114,-0.8727871162,0.7286663715,-0.3517289188,-0.1076383973,0.1562301813,-0.6031147854,-0.8403899772,-0.9922244646,-0.8947168647,0.7519400222,-0.1804936918,0.6768166781,0.586447971,-0.7794119945,0.5352188248,-0.8054696979,0.8338249518,0.4340446943,0.8837826753,0.8882297343,-0.2249664418,-0.3790246937,0.3804008866,-0.2254280636,0.8112612574,-0.921250023,0.0803615417,-0.8512119008,-0.3385465729,-0.5968125752,0.2036370515,-0.7601245412,0.6742961762,-0.9864120563,0.6666174153,-0.0630762185,0.9012686332,0.3661896853,-0.2869816611,-0.6888627974,-0.7604870783,0.2559012179,-0.4508412806,-0.8311259195,0.9766985289,-0.7087665485,-0.0902915302,0.1445637049,0.2715211702,-0.5535407364,0.2656791436,-0.5727177473,-0.2902517042,0.8954460691,0.1590395348,-0.702005466,0.4194997792,-0.8148124391,-0.0975139707,-0.1193695818,0.885058748,0.5556026266,0.9299734667,-0.3864810625,0.0213981133,0.4081038501,-0.0934379992,-0.9596913492,-0.8951641988,-0.3459838658,-0.9099571602,-0.9368605359,0.3876937566,-0.1633253175,0.3673293342,0.2545690369,-0.2318839089,-0.5425399564,-0.7515100525,0.2792399687,0.9738993254,0.02868564,-0.313503965,0.8251060287,-0.2901994094,-0.9676064236,0.317380925,0.4899032022,-0.3140456113,0.3640401763,-0.840552776,0.1875559424,0.822391126,-0.434666276,0.4505197894,-0.6809187157,-0.2410795659,-0.9938568272,0.4627454787,0.4970884666,0.6652363202,0.9497779292,0.3846851247,0.4838301654,0.5608656506,0.1590304754,0.4560763309,-0.7161416387,0.7055627062,-0.1313115009,0.001419608,-0.969428429,0.6375320892,-0.7915591985,-0.6264088997,0.3076344801,0.7629245119,0.6515965959,-0.726301863,-0.7022101854,-0.4638033373,-0.8177405859,-0.6960071031,-0.0359354952,0.5991905275,-0.4966815548,-0.0304884058,-0.8286281684,-0.7761217708,0.2224014448,-0.451868683,-0.2683077585,-0.7061840538,-0.7367673384,0.6484484306,0.47646013,-0.0589056143,-0.8677323114,-0.1700555638,0.8897109996,0.7022597511,0.4428310977,0.2668826247,0.2121974493,-0.4621679195,-0.0540718756,0.5822596402,-0.1548504413,-0.1991338201,-0.5292731335,-0.2794024961,-0.1998433052,-0.3459135629,0.7898217867,0.7013546875,-0.2009541603,-0.853071993,0.2614157488,0.6769354523,0.3169523622,0.6026803972,0.5862106847,0.4060206826,0.6384707175,0.2987083763,0.3911137944,-0.7871304889,0.8958090026,0.6655880866,0.9607512107,0.7153442905,0.7613345881,0.3505052616,-0.7128528283,0.5814322533,0.0718974908,0.1386455593,0.9902682164,-0.1376564131,0.8268523618,-0.1142841046,-1.0239648979,0.3490299223,0.7029843748,0.0221793728,-0.4167487427,0.8265053412,-0.9337996893,-0.452728779,-0.053311899,-0.7564696805,0.1262759141,-0.2397653119,-0.5515628581,0.7717863608,0.6360618563,-0.8176027567,-0.3515413333,-0.3321837735,-0.9328532593,0.4228854024,0.1524524128,0.8648821624,-0.398625056,-0.7908561249,0.2944807697,0.6848187768,0.1661292883,0.5205222811,0.4354926624,-0.1396846312,0.4297482658,-0.4752939094,0.3997570252,-0.7111300617,-0.0849810133,-0.1087790629,-0.5919603929,0.2694999012,-0.8662896895,0.1907230896,0.2046653744,0.533047722,0.2629141998,0.2476504989,-0.186787933,-0.152272884,-0.282543506,0.1267781683,-0.2145627505,-0.1725237103,-0.165132038,-0.6153857324,0.5753044515,0.1723016171,0.3607048044,0.9724467534,0.8652698649,-0.0400046649,0.0334934062,0.8927508905,-0.8200905511,0.9095987657,0.3362763867,-0.1979819597,-0.2908682833,-0.905836149,-0.358925675,0.3024285262,-0.8173072348,-0.6680227538,0.3031640933,0.0903438269,0.8753093278,0.1451481456,0.7630041642,-0.6713763184,-0.9415578951,-0.9245882911,-0.0146589526,0.4889585603,-0.1370351955,0.2776117323,0.6711282659,-0.4538991816,-0.3195844991,-0.6349016213,-0.7072607522,0.122309977,-0.0621880386,-0.4610167165,-0.610976013,0.5081090108,-0.8292572036,0.843126349,0.5182453908,0.3219957209,0.2953693453,0.473020054,-0.7343065379,0.0526062848,0.7485367994,0.2199434859,-0.2386421993,-0.573525125,0.4612723668,-0.3453708813,-0.4373170152,-0.2479914626,-0.392510446,-0.1623712971,-0.8749673928,-0.3265391347,-0.1489763391,-0.8226527934,-0.4072247704,0.3652334355,0.6539058617,0.0143069474,0.0723435754,-0.3492396963,1.0054698576,-0.7333760296,-0.6631110073,-0.9941072649,0.056814019,0.4255936529,-0.931388415,0.6790283722,0.103170076,-0.6934737592,0.0974584178,-0.0311574411,0.6327649648,-0.6532698469,-0.2316225255,-0.7804747585,0.5944502847,-0.8288749737,-0.1657750129,0.4136910832,0.3056164793,-0.4455528888,0.5083283746,-0.9396188667,0.3985513032,-0.803710236,0.8432567433,0.7817899294,-0.4503500847,-0.5288472927,0.7366631637,-0.4220045387,-0.9742446857,0.4057660197,-0.1825442514,0.5290562702,-0.2304860705,0.097616541,0.6404611368,-0.179221579,-0.5824478964,0.2959193236,-0.3321614419,-0.2416379739,-0.1792607329,0.0283987226,-0.9328250014,0.9584164213,0.196323273,-0.2881766831,0.9729277889,-0.522413235,0.0379528312,0.9495842322,-0.743324774,0.7318021844,0.4193986074,-0.8507277045,-0.970443354,-0.5340266563,0.2039326323,-0.0914276995,0.874131571,0.4794411405,-0.4388908959,-0.4501004335,0.8782609117,0.5147448957,-0.8387550833,0.343309639,-0.1398054792,0.6576856025,0.2643974711,0.8167473147,0.7303217934,0.2607394617,0.4640568415,-0.7025225072,-0.5106383479,0.3496338835,0.1059832325,0.5015245846,0.3327510579,-0.8240789349,-0.2245925002,-0.9124383449,-0.3692440904,0.5166536095,-0.2110891983,0.1888026738,0.4327717076,-0.9812262266,0.503421309,-0.6451364529,-0.4704896688,0.7505057206,-0.1114787103,-0.7170879833,-0.2090293111,0.1421760287
