encog,BasicNetwork,java,3.3.0,1,1463728851592
[BASIC]
[BASIC:PARAMS]
[BASIC:NETWORK]
beginTraining=0
connectionLimit=0
contextTargetOffset=0,0,0,0
contextTargetSize=0,0,0,0
endTraining=3
hasContext=f
inputCount=279
layerCounts=10,31,201,280
layerFeedCounts=9,30,200,279
layerContextCount=0,0,0,0
layerIndex=0,10,41,242
output=0,0,0,0,0,0,0,0,0,1,0,0,0,0,0,0,0,0,0,0,0,0,0,0,0,0,0,0,0,0,0,0,0,0,0,0,0,0,0,0,1,0,0,0,0,0,0,0,0,0,0,0,0,0,0,0,0,0,0,0,0,0,0,0,0,0,0,0,0,0,0,0,0,0,0,0,0,0,0,0,0,0,0,0,0,0,0,0,0,0,0,0,0,0,0,0,0,0,0,0,0,0,0,0,0,0,0,0,0,0,0,0,0,0,0,0,0,0,0,0,0,0,0,0,0,0,0,0,0,0,0,0,0,0,0,0,0,0,0,0,0,0,0,0,0,0,0,0,0,0,0,0,0,0,0,0,0,0,0,0,0,0,0,0,0,0,0,0,0,0,0,0,0,0,0,0,0,0,0,0,0,0,0,0,0,0,0,0,0,0,0,0,0,0,0,0,0,0,0,0,0,0,0,0,0,0,0,0,0,0,0,0,0,0,0,0,0,0,0,0,0,0,0,0,0,0,0,0,0,0,0,0,0,0,0,0,0,0,0,0,0,1,0,0,0,0,0,0,0,0,0,0,0,0,0,0,0,0,0,0,0,0,0,0,0,0,0,0,0,0,0,0,0,0,0,0,0,0,0,0,0,0,0,0,0,0,0,0,0,0,0,0,0,0,0,0,0,0,0,0,0,0,0,0,0,0,0,0,0,0,0,0,0,0,0,0,0,0,0,0,0,0,0,0,0,0,0,0,0,0,0,0,0,0,0,0,0,0,0,0,0,0,0,0,0,0,0,0,0,0,0,0,0,0,0,0,0,0,0,0,0,0,0,0,0,0,0,0,0,0,0,0,0,0,0,0,0,0,0,0,0,0,0,0,0,0,0,0,0,0,0,0,0,0,0,0,0,0,0,0,0,0,0,0,0,0,0,0,0,0,0,0,0,0,0,0,0,0,0,0,0,0,0,0,0,0,0,0,0,0,0,0,0,0,0,0,0,0,0,0,0,0,0,0,0,0,0,0,0,0,0,0,0,0,0,0,0,0,0,0,0,0,0,0,0,0,0,0,0,0,0,0,0,0,0,0,0,0,0,0,0,0,0,0,0,0,0,0,0,0,0,0,0,0,0,0,0,0,0,0,0,0,0,0,0,0,0,0,0,0,0,0,0,0,0,0,0,0,0,0,0,1
outputCount=9
weightIndex=0,279,6309,62309
weights=##0
##double#62309
   0.0031653729,-0.016702995,-0.1536796328,-0.049726897,-0.014030228,-0.0199823137,-0.0247388257,0.0478843232,-0.0597197614,0.0071877956,-0.0744744682,0.0061999253,-0.0321636364,-0.0126009351,-0.0161902235,-0.0259148833,-0.0285186164,0.0111601501,-0.0265076275,0.2791910254,-0.0258487199,0.0058046713,-0.0345741027,0.0040997503,0.0422940316,0.0040141433,0.0282351658,0.0001721711,0.0216500383,-0.023649276,1.9998973832,0.0029977155,0.0189295549,0.0082623989,-4.8509998874,0.0003643378,0.0193434631,0.308925643,-0.0079556121,0.0116556704,-0.015194815,0.3328906406,-0.0202824483,-0.0368154174,0.0851468378,-0.1023463571,-0.0317618035,0.0036785364,-0.0630435173,-0.0770684928,-0.4077246664,-4.6931953145,-0.0821684211,-0.0133816751,0.1555279627,-0.0682308564,-0.0098641239,-0.0680590623,-0.0143294233,0.0273536212,0.0067582788,-6.6034040749,1.3993427197,-2.2110093786,2.7150313467,-23.3746294798,-0.7412925978,-4.0672902477,-3.2630615123,-0.1602871867,-5.922992108,-2.098202894,-13.3623809029,-1.2663176891,-1.1320602071,2.3871596346,1.5983566104,-4.164494265,9.1328401552,-1.6393250109,-2.7823990281,3.1238511145,6.6093688222,-3.6579700876,2.0168203682,-2.076839546,-8.5793553943,2.8217497179,0.5542036154,3.1592014408,-1.2614647071,4.8502194726,-4.2118276127,2.300611646,3.3398493295,-6.7916445194,-21.2068996787,0.9309959675,-3.4539612324,-6.1026279422,-1.8318792262,2.056494741,-6.4463363095,-8.82056293,-1.3080177628,-0.3595066359,0.0637530287,1.4858646228,2.9197970081,-3.5005191023,0.4005674503,-2.298815399,3.9190718666,-0.3325937938,1.4962949129,5.262030179,0.5953554422,4.0746380469,-0.6488895497,-5.3660404478,0.5251395625,2.7039936521,-0.8121765052,-4.6713599718,4.0872532015,-5.9616918571,-6.4515626752,-19.3580762814,2.1265823349,10.4687311131,3.845966439,0.5049339322,5.6348641343,10.7121039336,-10.5362312601,3.2153854511,-3.9135602542,-1.142784815,0.0001894585,6.7224735269,-2.2186446189,-1.3070479368,3.3388277218,-0.2907479578,11.436885252,1.4849244252,2.452573716,4.1293895788,5.5830591794,2.5458159623,2.1140254758,-1.2065342507,-2.418801916,-0.2450151082,-9.3811846796,2.3793795228,-0.0292454459,-5.7480413829,-10.6938156673,1.243408728,0.5099700639,0.140960601,0.6143666712,2.8555879751,0.1777911494,-1.2732501511,-0.5346334398,0.9651126132,0.8898853546,-0.1791506907,0.5091637257,-1.0342633732,0.9156877677,-0.5362958687,-2.3436595162,1.2037674647,0.0283156259,0.8616214769,0.4394923278,-0.7717594918,-0.2129312822,0.6233845692,0.9793796829,0.6576348335,0.6169038409,-8.8622477723,0.6971025068,-3.9730314836,0.5274752909,-25.3953888723,-6.9304912779,9.9530688034,-6.0674106915,-3.7901586803,1.6062588626,1.6384592912,-13.244387741,-0.9400285476,-5.3749578106,-1.8553114327,-6.3562979249,7.3810970519,4.9562676499,-2.6264753784,5.4240815817,6.9841974279,12.8182807275,-4.4555131723,-4.945855833,-6.9520623433,-2.3949187814,-0.9615847269,-1.2076487786,-6.6396695024,-0.9171646707,-0.9271020801,-8.5703359354,-0.0338040647,0.0628070224,0.0883322464,-4.5476582188,-0.0267120229,-0.1069264608,0.0152194798,-0.0126539918,0.0078690892,-0.0046168817,3.2655951635,-0.0171962676,0.2525264095,-0.270283582,0.2674343354,-0.231677034,-0.2164877494,0.1724621608,0.2553274025,-0.7372585811,-1.2472378216,-0.0295074394,-0.3069177347,0.0015807165,-0.0260790475,0.0057861967,-0.0313584904,-0.0015844941,-0.1021029127,0.0337668318,-3.6909108986,1.0434181895,3.1691667841,-4.307124498,-11.66446101,-0.3682127729,-1.2858353092,-0.0990509965,2.9332399559,2.9703088423,0.8412361668,-0.9657860016,0.7057266343,0.3733737639,0.2763476975,0.8460006062,1.1056996018,0.21159786,-0.6813391818,0.236978785,-0.8356522039,0.7444273775,-0.0840683769,-0.0125033915,-0.4562050107,-1.0584328029,0.0307886126,0.0804129628,1.386697456,0.9431718369,-2.1138576647,-8.0785472639,526.4216218737,-749.9795246025,752.8802043437,-347.997155089,-544.0180776932,322.3683327372,-438.6490221948,-20.441897637,-300.6955934788,89.823748536,1069.1415590735,-178.6463504024,-376.0012653674,-1019.4360098554,-131.0265856601,-285.204227479,-138.5462185147,176.3767862416,42.3398366988,38.1294892474,34.0130071964,-2.8603948672,407.0810902344,-315.1861490392,-1033.0525099098,382.6829764299,191.0939344999,-344.6971216934,-74.5883615737,250.233417939,-365.3811520016,-681.8374602026,27.2188576539,-368.2264471167,304.3004452991,-243.5800896402,514.850140785,-604.0853939464,374.5741242716,627.7517607118,-489.08541357,130.9732426458,-356.3430029171,24.3412601828,347.7112889637,-495.4216451841,-1094.7502834389,776.4859744578,18.1879287364,-95.5162526034,56.4458709733,747.8184495812,-670.0707042636,104.0009755856,-430.5541491008,420.0464302235,-354.1933991651,-30.4282025683,67.073518923,-688.2300344302,-18.4418830196,-16.7679399631,-79.3125341931,1027.2245391519,-304.3372971889,986.8008498308,-665.4521420826,354.0598739366,29.4894042304,-498.6293686211,-506.3974867248,-68.5311678788,87.2075650907,65.0099899511,295.3616523215,880.6556515812,-727.4357094579,-789.4839103991,47.1793008143,-94.0911099306,119.0186358002,138.1242199634,701.0786116962,341.5371255788,-41.64011898,-373.4054076541,68.0857322969,-159.8319891123,-300.8668494804,508.8179851756,33.7149637038,-711.0455159176,875.8437124485,-48.5811294028,-149.7937387611,53.3423334049,441.7839276632,-446.5397132197,-75.3709246271,118.9048125385,-681.7721508697,579.4398164981,-625.0411543082,-499.4281756816,212.4516926891,84.4028770468,-199.0555921509,-549.2391583893,-95.3839008289,133.4304665439,-94.9244348573,552.1227299285,456.7064457014,-77.6245246021,-257.033956642,-199.8604826835,-300.4836500925,0.8077077638,-116.5398321352,617.8920537553,-633.0553817302,515.9635540983,-67.5359571621,147.9207540746,48.1855042251,466.0925113911,69.1756025921,-435.9032726986,238.9137666061,-1061.7618376297,-78.4723932452,-721.2593769022,-361.4529821736,172.178528742,-59.7891475886,-216.7921512105,113.8235965229,-46.2359615832,213.6828081714,958.2706184653,-110.8131199508,-237.2933054187,-135.8089881803,-601.4125271737,432.9994603797,777.2734521348,679.8801635636,201.0018485128,483.0517422415,287.754599637,-527.7419723924,836.3924813799,764.5440164702,-85.2465232104,-2.8577280106,-219.1833969618,508.3190634608,62.8313434346,122.5069230094,356.3249844313,1018.2564370403,-436.6279958045,-276.068005873,132.7000402016,336.3917271619,529.2283644783,-121.632978901,424.5198664951,37.7012733063,-671.0858586783,84.9422036017,408.6875102919,215.4942121978,352.9164424035,-859.2292483186,117.304411365,395.7768636629,158.8947347507,-754.9820759339,-395.6307260882,146.351172419,643.2777153139,-150.6522758927,440.7874204921,-20.2095286082,-116.3187434683,-751.5056375979,316.3376949831,-273.9553344006,-146.9626964418,665.9695744745,-498.2830227816,294.6928704246,214.1797127272,-86.3320453932,-252.225686463,425.8504995154,-269.6881648841,715.7313700813,431.1295550063,85.6000691424,567.4576160455,75.658166724,-6.9704079866,221.0140985985,435.4993098999,227.6613208227,258.1271608838,-102.5436439135,-130.3817442424,-670.5075434081,-44.458426594,619.0390794119,227.4038214138,71.2366504094,-40.3966419838,-266.0978419407,249.9809825878,-255.38990859,-283.4700195765,634.6008132192,548.7278090135,-633.7083347686,-467.2832488728,253.7709275451,45.1848464747,-298.0110227647,-479.0699016,253.2513527128,-529.2994527531,-450.2387488299,279.3531119075,347.1415311411,107.2409954341,-60.3656132921,-214.0885443476,565.3728745975,-402.1110757852,-300.5587406491,-263.6335631576,-357.2311288564,308.1484875851,-628.7231195984,474.4359148862,28.387985398,78.0375029962,-98.3890725513,150.1387788125,-448.3205175514,631.3451228385,256.1493112417,67.6723341601,10.9122053487,387.9986382417,-452.8010788885,253.6957981646,599.1142657329,-76.9959795266,170.8066358538,-39.3759003241,417.7187823921,724.6900217783,164.6630602491,-691.672538769,-48.4635979986,242.6143986922,-97.6029772409,388.6360987735,84.0468460535,379.0139918024,229.400903181,359.6853406598,-156.7844531015,-374.5971789103,769.8262348745,91.8194597792,-215.817418863,-30.1792469471,461.114134818,496.1790485182,-728.0727723195,561.7564309039,7.7444298826,-415.4201296345,-226.0873857306,-626.1083641454,-63.5566753952,635.3861001927,20.7082331516,250.9921880006,-419.3598504366,134.0265515176,-47.7081160129,42.4060609058,-96.4000540645,-98.2633281183,797.2057295685,-296.9047993748,381.7135972545,-598.7575922036,751.2482650571,391.8375884259,-166.6248574819,207.9237542586,374.1109859012,-603.4925673495,110.2641082301,489.6983162128,441.8294982453,800.9251825378,724.0914635317,563.1410177037,-354.7256327455,-373.0098300184,-612.9901498576,293.9821999257,609.4425697207,-131.4169222478,274.4585485082,266.826008695,-191.5094197611,400.5050617706,603.256502033,-632.027763768,571.5053820516,-396.4421641088,-314.2271091573,29.3102141897,13.609134868,-278.530207821,51.3233825608,-9.481773059,-31.3987127049,-520.6318070606,-460.4222860599,-95.3150767096,603.3510794951,668.8799053591,181.5183765847,-394.5713067339,-201.34513063,18.5746778856,204.8176237299,639.2232171914,-74.5638603835,-130.9120539078,-439.8447677726,-410.0697554246,-400.5517421792,-509.8110148111,434.9759654242,345.872364668,53.2244019107,-449.3976227269,394.1112478315,-631.4434298444,315.1534427945,220.3141398241,652.4239097762,636.3169702545,-269.5091994204,-72.6803483344,258.9673456269,167.8178915466,-545.2324519695,-254.0452445126,568.7129779757,786.9851166098,-523.7007737108,142.7170105593,391.4137367412,729.9916863039,-298.7669097212,-317.6598829776,-224.866135315,-220.5853082927,649.5667776736,-228.3553275768,-198.6841508416,7.768154039,311.1387560312,-166.2395205429,6.5838806931,288.5536762249,-201.0529903079,-167.21811455,-590.9524397447,445.1771806146,-226.4484255343,196.6194195899,584.1554776662,334.214546036,-565.4147478104,-271.4165390785,-133.8654266404,-651.6611311421,454.9024749031,-203.4702562546,288.47554849,40.64349895,-247.999264953,-38.3143840993,-523.0106487064,838.4627501811,-830.8067805042,388.1137852308,616.01762832,-442.4026643665,477.9995295907,58.920806788,349.2462442201,-10.3163792408,-1268.0602513456,171.0462681897,409.9059311641,1200.3092948704,196.0013199839,464.0453746482,189.0472531557,-212.9480054031,193.5297239565,-47.3049359905,-38.3920326401,4.0510528292,-467.0217640086,355.321125563,1222.9325652938,-431.0642388056,-263.939574138,378.2311748501,139.7541807136,-322.2395232302,402.2531862336,773.6131513131,-21.2087004515,432.6686874066,-326.4499553577,255.9356276083,-534.3649907087,210.3524962377,-53.9526027897,-697.6334173429,537.272212139,-121.812547553,331.5700837984,-9.035173404,-406.2791566167,543.0585393879,1307.3537959737,-861.3034892539,-87.8929005075,135.0962905052,-1.1085744603,-979.8208224254,740.2688067641,-20.7495942573,472.0643251755,-369.3817532301,415.654844628,25.5244177034,-87.7378362566,764.1985348052,190.4935685029,25.3031013044,106.0129891265,-1217.3378112422,341.2484154767,-1162.4425820057,735.5765042956,-412.0956651002,-39.5296124684,542.9443261331,574.8987339966,123.5370679024,-151.014921354,-92.4257576825,-315.4184964854,-1052.3506846106,799.0973485464,876.3813214517,-35.5350908476,100.5184153427,-106.7154092622,-200.8054349755,-776.2551782183,-384.4507167861,58.2804936764,434.2671849775,-103.8067776738,227.7893101534,341.1392787926,-528.7374135239,-76.6498042604,780.1935042314,-986.0366805514,3.0564763271,141.2487980872,-84.7695140309,-488.0418905023,515.4309672532,166.6217599764,-165.9886148011,755.5397626159,-692.6478196707,485.4512022957,568.628837437,-208.3565599429,-146.8216624338,273.340876394,622.2137336759,57.7076877539,-188.1200455789,68.4444120301,-605.3037005788,-532.1612358676,92.1413328434,259.8996855384,198.6071225283,349.1426526727,51.0429680137,150.7236257762,-782.1810458414,689.4155404816,-511.0703325986,103.0292846965,-132.4995773732,-84.0853613701,-516.0578353727,-87.1380154904,512.8170698841,-174.1781562901,1263.4907124518,129.1975787098,794.4769252971,268.1772161005,-241.2490535598,76.4467032323,222.4790684244,-45.8103423035,37.9920104463,-208.9016053255,-1135.0005836048,-155.3113033505,295.5731818296,124.9480565518,501.0197195036,-453.532416568,-856.8194528047,-749.2121163623,-246.804561966,-485.3853257658,-324.2260788364,582.3514950717,-946.949539042,-850.5749470587,157.6860595425,5.5120631938,287.1406577892,-593.5916936867,-86.7736850458,-22.3033202858,-389.9317227471,-1198.2463137738,474.7425549943,300.2319244986,-19.7257637558,-373.3654874377,-524.1616412256,94.0667978537,-427.4733470251,-88.0806735152,742.4532314112,-130.9009037481,-457.3895609416,-280.3582259192,-395.1714746013,1047.7332783554,-16.7038306073,-433.033021191,-224.0919516217,832.689809246,427.1243077186,-196.4307310147,-857.7946036222,188.9838510008,-479.8043954096,69.7131491477,128.0166127072,835.5616257622,-343.4187524052,298.6959788351,130.4992603376,-747.9666610341,457.9472905359,-365.7870209328,-227.8864375549,83.060326612,247.4732098876,-460.6672603697,339.2724792866,-786.6095431116,-471.1296307946,-91.382137936,1106.7726169861,-1074.5424788297,965.2829629922,-579.8207043333,-971.8805609222,1024.3068918714,-708.3335719058,449.9740667601,-567.1608998362,230.3135584077,1946.1744809464,-50.3299110717,-607.5220571575,-1834.9880669893,-462.0479597502,-1059.7438217752,-386.9995181902,389.2756856737,-173.3770681204,222.4091451024,199.9330202842,-129.3516693649,667.7272524773,-571.9050630281,-1869.5935233854,662.5459550292,595.1748553341,-592.8212385659,503.8910488299,624.4736977844,-635.6662539188,-1155.5154043471,-48.1072439612,-674.908759384,509.8382798571,-208.9476538361,434.5034764569,784.7134197131,-449.337368885,1050.2869935298,-792.283888368,-11.7356141839,-108.2825664781,873.4022676518,658.6991825436,-626.9024202421,-2056.0352728406,1259.2608182096,192.827487405,-327.1862598277,-253.3647495362,1801.2494503275,-1087.0300180664,340.9348586329,-699.3935099313,809.7911771062,-663.178646676,100.344612877,798.9568473914,-1117.2390519106,-234.1766027695,-49.5115381652,-269.4692890289,1859.272946967,-561.1386273269,1784.2134633372,-1079.6337203197,641.8073807718,-449.1933152242,-799.8814363141,-916.9520295821,-306.3346366226,453.0275830084,249.1876059162,440.9618035708,1685.66172966,-923.7140750031,-1279.5774718451,120.64943695,-225.2671355302,474.7126051099,461.8129368028,1137.4820975653,575.7452724649,-222.0751505675,-681.8075781454,313.8337028368,-508.0106836333,-566.0210924999,491.3376683658,270.854208836,-899.150780695,1397.8288767116,858.5165655633,-91.2841303809,281.4265145676,722.0953227428,-879.6340580344,546.4197317803,374.5197244603,-1108.3489704898,1162.6909007399,-323.0753105283,-884.9502395778,119.6143441938,365.79243698,-608.9310674028,-981.1167959833,140.0521639542,426.1901067125,401.2686880976,876.3009621425,891.1901636296,-254.4782256865,-176.6039763362,-97.5146122029,-567.1409637384,-202.3232472273,-236.1775299848,1325.2953125783,-981.628939523,1110.4910390013,-306.6492139882,484.8636443218,292.0824074558,756.4191608616,195.1759930298,-808.2249870583,605.5194250264,-1937.5272333846,-325.8118148823,-913.9456844265,-618.2564464103,557.4730040005,-191.6501700817,-134.2908202895,-235.1961506777,-40.0980282817,34.6599646222,1782.3747774636,578.8690824617,-575.2207075576,41.8678476645,-518.8102621101,1095.9811291414,1255.3001992143,1093.2906285045,428.2986954859,316.9917756818,1185.6996994962,-853.1741916293,1359.1389427225,1241.674748983,-453.8545507142,-128.7087040074,-566.0228636676,1030.8322738103,233.1947679139,-215.3539205002,569.2417294486,1828.5350208384,-693.4239504305,-448.9524255827,-694.9723239242,609.438669369,1107.7907426338,102.6896217368,295.8198939101,305.3711849735,-1090.6809830513,348.1994889909,697.6880708909,559.459871696,593.0116289821,-1704.8870183606,-220.4286301986,669.3904383603,492.6972184682,-967.9938693812,-633.2735190929,392.6937256028,1660.4618086987,-364.8374298347,691.9680943642,-253.7983654215,-278.2015769786,-1219.176559174,533.7784898215,-475.0210447135,-4.7981505612,943.1003008712,-1106.6604250653,668.6171945262,340.2484473356,-51.1278523418,-110.1815408466,644.6417581918,-634.4477348213,910.043729127,725.319063284,132.4404120526,824.1872015096,53.8223803456,61.8123094824,75.4129438442,218.7618307162,71.6366860314,78.0214779306,-379.2246724737,-206.2209682916,-665.2302540408,34.2681311595,384.3619858305,70.7249603338,-7.4133442544,-46.0844828664,-456.3456992153,162.7678274967,-161.447368388,-62.5146206753,535.4746813104,500.2337868285,-531.1540912834,-137.0741367186,138.5037755799,-33.9923317696,-132.8394957084,-369.4156217054,109.0391763944,-629.8875725487,-305.2321734173,133.8294630894,218.8800736978,51.1114361707,-187.7180721068,-86.3111370754,336.8904100717,-192.5492042256,-211.1981438541,-246.4852422072,-152.5881369746,102.2338250148,-414.4894112507,484.2683494176,62.8692405726,172.5509085462,238.8871311064,37.4222767002,-162.4893364256,454.0261469981,218.7940692063,195.1949707027,669.783867772,141.1192914081,-423.0150651165,77.722270375,617.9100300817,-178.0395760069,-130.1491057388,-1.733876063,152.3305575832,699.4677982835,88.2764442527,-526.2671730007,31.3411619887,123.4735828057,-7.3176620478,142.3005934,201.8560367781,465.7751998479,59.13506968,185.2672704994,-126.1477399039,-383.261799249,614.8031713367,209.8810494608,-122.2282827501,-84.1559765573,167.8712786532,343.4881682338,-546.4643870019,558.2840795175,22.7981158171,-149.9730753135,-160.2382715841,-536.2328502002,-189.4000085889,589.239691881,0.3013259292,127.4245001543,-139.0546787307,133.3097980858,-88.8859570321,195.5487952754,-115.2697518172,-172.5749805767,584.753198828,-106.0950586945,253.8627576466,-606.4137049011,585.6840682834,141.44795085,360.0114478755,-26.5330622016,181.3548056077,-371.0565515457,123.9274660349,376.2866036816,222.4779449957,464.4961567579,567.3733277901,392.3299644589,-128.8049852479,-223.9927634225,-536.6806192915,537.4628599834,376.4568680902,-209.2108220461,293.0327371449,273.8938476643,-211.1839442095,150.3638376267,838.9931621916,-588.0744573957,605.5913098377,-404.5336142521,-114.3743081885,57.752643581,-143.9170916773,489.000654672,-33.5367139159,-62.6791808823,-81.362910163,-650.2121808492,-358.2080802734,-74.94707612,368.8137800907,446.466180584,204.4660826338,-450.6108408994,-118.1222550249,201.9164591406,109.383425377,401.1441959881,-354.4601875705,137.2533987424,-157.6437988752,-148.788707806,-288.795547178,-238.252518505,674.2327846119,126.3927077196,212.1123269741,-164.9394166445,386.7322262839,-532.425582566,188.3017042838,124.1616821176,493.4341540071,482.4055158596,-129.621904235,5.8581928938,101.6786898688,53.1620144643,-399.3417781266,-120.1787038837,821.7464282414,557.5866800208,-196.6810286759,100.2043551268,141.6868275604,561.0193757543,-157.1875742158,-193.8229323895,-77.4089449311,-246.256436162,494.5802607048,-79.7186390653,-133.5251838739,-62.5278823816,157.0910044345,-99.6461387235,616.4122916647,194.7962358363,-49.5017364391,-113.2552145271,-564.2189450604,161.6042890815,-94.2104315852,87.7379807174,384.9434520165,392.4245522491,-859.0135485931,-128.7060391508,-39.5283079072,-540.2087724807,482.0358551205,-58.5005482992,150.1082478867,83.725340087,-85.174434517,-10.3861607511,-429.8070704644,-206.3367681131,153.4386039759,-289.9116106647,-503.4830976912,-388.8482117214,-345.8450841801,116.6674923217,125.0180715128,517.6610994219,-5.1582179373,-673.0232010606,-306.9664466258,-28.475899501,43.0367458238,152.7797878093,-249.7938772683,262.0760403783,165.148060684,-673.3408342231,-591.6064388166,672.0327861098,397.3425357023,-311.1996490198,4.2612042828,350.6612501585,514.0746697909,-337.6189746102,518.5952911946,479.9275156584,-348.4760829792,-222.5888759187,-16.0157233964,44.8437091424,308.1602696689,-603.1664353402,572.80068468,325.1276865097,401.4202047751,241.1609024363,-392.7490745744,696.5870713311,-606.2816116275,-107.6413241147,-65.441087948,-20.1345629813,-108.379237476,522.5535642936,-657.7374190806,-255.1075185671,-58.0729079016,-10.0464293618,-447.151150044,499.1627154049,-337.3929051686,-345.6480475603,68.8410523304,-96.4661498748,-34.6992850319,-480.3609810931,-476.5614911986,-58.502223949,718.743931462,-2.399069626,-298.928384548,57.0506016181,-445.7065043938,-67.417546822,-347.9406182248,-270.1595545356,-424.5024975279,181.9899723761,410.2186038901,-802.0620316277,-102.0078404556,199.9824046833,-119.0049009379,-536.6559201291,-498.3807845178,743.9204999796,-629.094250828,-8.3935808143,483.2310377275,268.800774029,670.0946765221,43.756144289,-623.8378009635,-21.2099438139,-299.4805487011,600.6896962018,-157.7955193654,-102.0991371917,-126.2839027032,218.985248109,-29.0773271356,-835.4589560871,369.698362068,-277.5897134438,581.504125703,-786.8864320506,-452.9051231867,-13.473448582,-345.0969186431,-425.4669133331,658.7341766113,-141.4290682957,-525.1772999215,-509.7691347932,-855.514629769,-760.7790515701,-648.521074475,417.9378844651,432.4013928048,642.7408884335,-437.1635656644,-661.3363310317,124.4370303002,-270.2508566667,-273.3730459497,181.267564763,-454.9971373905,-477.2265675757,620.016580247,-646.3892027453,373.5600811935,387.006617519,-67.2546887475,-39.2344905764,240.3996714512,1.6814370281,38.0364047249,-115.429054407,311.0264617596,490.3558126283,158.1699006368,-649.8184984997,-714.2389571735,-139.0945671028,558.7934993151,166.909687439,52.15071661,-230.8181834539,-687.7048445439,-155.1801777618,168.8894176388,517.5718080601,473.2633122653,400.4545292921,698.6266826333,-469.4379286163,-413.0940225776,-132.5521559034,522.7709327158,-418.2725471638,672.1677821197,-346.4595227372,-293.0502509872,-683.3500612636,-666.7600246738,273.3314858182,29.299031871,-311.6252743414,-244.364704902,601.8987776783,328.1594895982,-425.0517987237,-871.3630623647,709.6851514907,-161.4691801277,-449.4454730605,-755.9263584233,333.9502881961,350.1736771707,292.9222758155,326.2269509352,-678.9763404407,310.3105184227,207.9948070597,-154.5423513674,-372.4707251,161.6652821409,12.2083163517,-276.8527877554,245.6247940681,194.9103513738,623.950845281,-515.6923441795,315.7696623927,-288.1228427532,-634.2041796257,-227.4247282145,527.5998644362,308.6593390268,219.8731282167,688.268692763,-644.9197906219,236.5677983958,-323.1464318956,111.8385155948,317.2221246788,52.7799065348,-517.4392807466,-148.6533153028,97.3591773319,-272.7138394166,-467.905190732,-415.6703925635,-318.0326627895,169.3923026878,150.1824526504,675.1422792557,-78.4224182948,-676.4582102827,-290.0149569693,42.0411310307,68.8558372293,285.0312649956,-223.3554342638,238.048122166,244.360968801,-668.8494006814,-597.1713559204,663.8727037767,364.4111163418,-295.7807661928,75.5982771731,329.1135101497,491.8969521194,-313.2885548095,674.3812850346,458.2247027654,-314.1637834939,-209.9906740884,-32.7734159691,81.7999102039,284.1654233182,-602.8647971971,540.9502334793,151.0165052665,310.0736192406,236.1702582556,-365.2818427353,697.3202436863,-599.3779399875,-92.6125935527,-94.3226353747,41.2642853342,-22.3709880427,490.6500396231,-720.8975506534,-240.0685982242,-30.5062977235,-98.8234597415,-422.470183174,524.3899421345,-310.0040402699,-488.5487752634,96.5557591946,-107.8612357765,-11.4196204423,-451.0551610826,-643.0986917779,-85.842342383,734.9806900616,-73.5529962554,-285.9265827874,-15.5771605337,-420.1089639994,-103.949717118,-363.7548168241,-239.6175729715,-379.0941311326,218.1721024401,362.1278171735,-812.6985119166,-118.8535976519,129.2933516089,-62.9991897624,-502.9853748849,-510.6678789842,747.0301648293,-600.264577954,-31.8990663781,451.5677861172,234.9416519623,668.7201130707,80.8401039588,-666.8480327763,2.2191765266,-285.2770086402,571.5775978905,-193.45809577,-45.7778441524,-190.916943323,241.6566979986,-12.2713178676,-849.4570553436,352.1663523365,-269.2052700177,752.1315855406,-805.4782718686,-425.8693340582,-12.0249778185,-380.4752956084,-386.9842595979,659.9084156277,-179.8179513116,-500.9223477057,-473.1274378516,-880.2789013467,-781.121283992,-615.4392540385,395.7780065588,385.6089634472,645.1378510761,-397.7415167374,-662.3385831072,153.4586298415,-254.4883496679,-264.7846731076,106.7004641066,-428.3254156051,-556.4712516416,662.0521477854,-612.6662235142,348.9639382372,368.4200447815,-87.4558759263,2.7328546181,237.6796119721,74.0240194492,66.4163394517,-60.5074607629,476.6138057241,468.4491763587,167.566839935,-651.8052733053,-579.0511332636,-145.2151048998,531.5273778312,96.6470531344,-23.67881382,-201.9098372295,-697.9467452254,-161.471344339,161.3605136862,482.553728221,444.1210717645,384.4036547729,672.3983928442,-487.9816992943,-391.3425291295,-195.0793218183,490.8671011797,-376.850988886,662.8496847615,-313.2945396106,-313.9978029579,-688.6549795319,-525.1179332852,260.7006475879,-40.7117766347,-281.6293140683,-237.4296209758,647.3484641828,299.1038160357,-513.333029344,-893.4696967777,690.5088154892,-203.8345969453,-422.8463439258,-784.2981955258,317.1127521125,316.4280205118,277.5646095095,410.8103517902,-538.8559758825,280.9817452171,189.1168121786,-97.9335232242,-337.4884372078,137.146994158,-74.3378952043,-264.1580501265,226.2643849106,230.6204253348,624.4558800308,-483.4630624303,291.2187504342,-262.8946710397,-644.0241491129,-295.8469871288,591.6550913778,271.4046866157,214.1873242036,646.9667454621,-600.908748955,222.0510290032,-288.6812127872,54.2945592584,287.3777409355,46.6477549113,381.9756978334,-826.0494969885,826.008739498,-363.6804536617,-573.0601317822,368.8644890233,-461.3284277897,-131.2032985578,-302.0243258584,139.4825600881,1167.683153843,-175.6174163217,-395.4641525359,-1110.8629822492,-145.748508756,-331.8078592031,-145.4763672856,180.2561866811,29.6377109564,43.464469062,37.7413432813,-8.85361222,363.6947945878,-327.3011492301,-1128.0606732112,396.7533226792,206.8651107244,-365.1714583304,-34.3374786303,267.1884604395,-382.7960374039,-687.4939192021,39.3111748526,-378.9882210471,322.5727070697,-255.5768666532,536.6780426181,-379.2755611118,316.3528918647,621.4347092595,-514.4228971942,99.0234909905,-354.4183256604,50.2348938768,353.0289216649,-555.2887675329,-1200.7295534985,808.5407865166,-23.7135096689,-103.1123756597,49.7411956719,831.3121080861,-695.8921980515,114.6304504525,-454.5963691222,364.6132991896,-361.2313110559,-61.1008365904,20.6383141929,-715.5349573198,-101.2241499371,-4.4239803994,-71.9830119374,1122.9610030147,-315.7540051101,1073.4702856216,-690.9609672223,362.9723141736,-65.4790345616,-519.7814730308,-533.3713283371,-69.6936286255,102.6127791904,64.4185159805,297.3729589669,968.7026725633,-799.0104580458,-820.4176349231,28.650857187,-87.0308056116,98.3866949109,152.5598755952,728.4077383658,389.4952131975,-42.2087075908,-384.2191967739,69.2215045954,-176.848253838,-311.5326498576,530.2767778915,42.2586595862,-783.7429590583,928.3466077105,-95.425063884,-171.731528338,58.2180317248,461.4557582883,-435.5165477139,-32.7055816077,131.0064561827,-708.1846150121,609.7501590171,-455.243472327,-522.5154433342,213.5327904499,91.6587227249,-215.4490763637,-577.9775873096,-92.677564482,147.964375352,-87.2430444083,572.0444565681,481.0376585072,-89.5880514101,-267.450729554,-200.9252926541,-304.054285251,-37.4926578258,-162.5749040559,683.3111997844,-656.2870911833,367.3953721913,-66.9033250031,133.5352636476,45.2964891558,487.6363893713,64.5470738357,-450.8978486549,49.7938916851,-1161.4571258623,-91.7096109917,-793.3273088585,-220.3632259881,187.572974124,-59.2598897962,-219.2337517281,100.9595799879,-33.5298684235,216.1576097182,1046.6706781841,75.5093606169,-249.1362284501,-130.0797794715,-445.1038730248,299.1923323778,808.6964161914,706.6165485374,205.9140883199,494.8057502088,154.5954110365,-549.3789690302,887.0621327135,796.4382575581,-99.6721739872,-10.2893196696,-237.3011509807,539.5882935679,61.3492842259,98.499875153,364.425776587,1105.9858307384,-458.4505752677,-287.6084465142,102.6256661486,355.5013291781,383.2117679229,-112.6127006425,435.3925194932,42.6460084216,-696.7632108088,99.5773090831,439.4630472661,230.5302991164,370.6047780284,-952.0663584968,95.6222828656,417.8233525018,174.2225684142,-828.2212455638,-410.645404561,151.162777231,718.9807091775,-160.5789129121,453.2601699726,-19.5026682554,-115.0184952174,-783.4229952282,335.6594492205,-293.9401296532,-141.7681037874,746.4351192154,-383.7066899713,311.1315636181,225.9923973534,-90.208088989,-260.0193844894,437.2316564005,-286.9666914564,789.4845428955,451.4077234299,90.9726397409,139.2887181393,-817.9051712714,896.2342998493,-499.2179581182,-693.6269165779,170.7648220232,-540.9062208261,368.5549663893,-65.9761985621,524.2068020307,731.8625917928,-636.5503733668,-520.2419904192,-717.1924310015,-177.7668541305,380.6125191065,-425.0901119617,428.6151534336,493.4610392865,-562.2115597196,-489.1609053582,600.8223323627,115.6140783261,-513.812444905,-700.2900545802,539.3582222038,740.9027606709,-537.0418485048,472.1526020375,677.3918262083,-524.6068009263,-6.2858952998,-259.0534733818,-152.2193343337,516.5342257437,-708.8672819658,512.2093466717,-128.0496731397,96.0179653898,19.8799500153,-585.0138516907,598.2111618687,-378.1305147969,188.5048612664,149.6090659946,-753.9393335506,-830.1211237468,733.0044043272,-625.3496721724,-465.6046295674,-244.5963324919,419.7081134302,-635.9637443501,401.8457861165,-532.8982350406,43.3052884677,-147.369533658,94.5038024338,260.3925255578,-666.3117145192,-604.0177384854,-205.3552998273,635.3530070349,696.3457097131,-503.0274662693,698.5752617732,-633.0764276337,116.3583985161,-485.6199181985,-414.645155137,-596.2287327024,9.3078457621,576.1456317371,-702.8346547214,13.6892734763,688.4595302676,-863.1342064881,-748.82549794,-516.9974590362,654.8568538746,-523.7415644166,206.3478996658,670.8500098263,251.3401386244,557.9905004387,-151.0051471292,-485.6332030556,-246.3821008182,-503.9314956947,520.0473931645,23.2120795806,-849.3787613602,165.2545800033,418.2864476623,104.8955992011,-641.1416468737,574.2546977439,-27.0397501686,534.1862817338,-584.0690939669,-644.9487143019,-254.8707310655,-1119.6985321314,-591.7140794082,659.7203308147,73.4353433214,-755.1165448213,-702.2454872714,-668.795890852,-528.6657305323,-524.1658025046,603.77359039,626.6951786649,552.8852362081,-365.6613961125,-652.3188878833,-60.5483439464,-273.9179772812,-202.6528834569,520.1300290919,-607.1606922179,125.7383399667,480.2893283915,-487.7178851356,535.0154596457,592.6921495037,87.1259597558,-267.0018778825,37.2429678075,-735.2225291156,-151.9096014352,-862.2000065351,19.7306854424,710.4233398323,-54.566337848,-672.0901245667,-656.5640141307,-378.3812432947,312.597995669,818.6637515986,658.3889729888,-431.9578027672,-613.3264696268,-737.4763335545,180.3512492917,722.940434167,653.4557392613,604.0950678083,464.3324971947,467.5155021885,-606.8028328954,154.9269385838,729.4999276734,-594.5604149628,598.5173196598,-529.677363537,202.5584238714,-609.1307702531,-613.5790850182,444.8719568823,714.4238679817
   -442.6898973338,-478.6533996033,435.5231212881,515.6450144746,138.7375317006,-626.2044039512,472.4193487451,32.52828936,-639.5892799719,-564.0060223041,430.2837666686,530.1316124289,500.2808066771,-237.9691193741,-622.1761868062,500.8828336252,410.6882871277,-895.7376229916,-527.9707027482,349.005882412,322.7939624901,-436.4817017214,433.0799576134,21.5709233345,531.8187720324,-717.19611801,522.4598499837,-493.4461401711,-599.9983378602,516.873094386,-110.4479605018,510.3349304778,468.6096409642,602.3105432864,-376.8543303261,395.5429189761,-519.667005353,856.3992229551,498.2674288331,66.4666167968,-440.349679562,-135.598184335,84.9274457592,-274.7229991752,-466.6557915634,-395.3214679384,-318.0954870683,93.8087461651,143.9749725176,464.1866663137,-73.8836025338,-672.4044828316,-292.7034830128,39.9469818688,68.5620108919,320.9174609427,-219.2045833341,240.4827194177,252.5957051667,-649.8436180824,-579.8533955837,649.276129038,334.2906686039,-301.2324111583,71.2938756782,331.5274573056,491.536595911,-315.2847729892,499.3483599057,458.5061032602,-319.3181997104,-196.2258080281,-35.8363502654,82.5583414674,288.9900037068,-602.1760144688,507.3589300665,67.2965763113,426.5313743319,227.3482990943,-364.7273525335,702.4310745286,-573.1055701909,-132.0708211823,-91.0075618567,51.9690719364,-18.5415263852,489.5352489952,-702.1404172758,-239.0510369375,-29.2892121337,-87.2132830645,-424.6461886208,526.3667615203,-310.0342915368,-439.3176242405,92.082932793,-113.2230765927,-82.9887471618,-449.3831631819,-516.9881287879,-89.8194085755,729.2584959753,-69.6159451331,-292.1925067348,-13.9385054267,-422.5733425671,-104.4942019054,-325.0485564081,-239.8409009514,-376.9435793386,218.3890601915,354.6804503035,-812.9242850669,-125.9890790317,127.3808338097,-50.8425038011,-502.1871340667,-513.2331609794,752.6935963317,-603.5538199086,-30.5724108045,452.6026545436,209.8196825611,647.3192472058,81.5962081738,-553.1026994013,1.5482455998,-292.335246212,539.7234173041,-190.5905861361,-34.9412151868,-177.930600082,118.762029039,-10.6040776531,-841.3822427081,353.6701728426,-257.5247942583,573.9285265245,-804.3718174129,-428.6038684612,-11.0654220396,-482.7073833473,-383.3796088769,654.5434883576,-176.2284287513,-502.3492423786,-473.5004409206,-880.9315824834,-779.3164809749,-630.1710164417,397.2530486799,379.121225847,636.6876551669,-368.3726557885,-659.6311254817,146.4751468783,-227.8308093067,-233.1819166323,92.5524345241,-426.5268808298,-472.794739062,546.1402202506,-621.0258338765,328.115964282,369.8171318275,-75.8721889754,5.7640096133,354.4203871044,69.3039873009,59.0090407204,-47.9048712829,384.8504576862,470.014173958,153.6821494019,-647.798173181,-688.7186100104,-138.9090410634,494.3858994048,96.7539801071,81.7686389527,-202.2861306637,-689.7015533486,-254.8053241685,263.7088671603,484.6712889152,444.4220470228,388.4855469877,636.3126670804,-354.7781395897,-392.3489278565,-180.4274497564,488.978308985,-367.8770087334,648.5846392882,-307.2929494339,-302.9982914685,-687.334425718,-631.605669736,268.9972077224,-37.853584952,-281.2702742125,-243.9001966543,626.2488313404,300.7129244792,-437.6099642734,-882.8162020656,654.3015017545,-202.3312226564,-425.0331780111,-788.2020890707,311.0220169804,310.7140448692,276.8031517835,410.0505059222,-644.1828902266,284.2031552365,189.3697342892,-84.1546603896,-340.1787823619,143.7136449609,-69.1896469986,-265.7766887453,234.8652533866,231.5294270585,613.5064499249,-482.8043660907,296.308239049,-266.5974936864,-644.7605628479,-303.1598630078,430.4151385361,265.1516555032,223.9512828121,682.8192203188,-557.805150319,226.6857395945,-282.3557373867,42.7684863683,289.444256416,47.6136529945,984.1869598562,-945.7463825746,850.7494806782,-511.2997872287,-878.9147998281,938.5393387041,-633.1264275293,327.9012157616,-521.4663071961,146.1654382846,1776.0069771116,-59.0896413082,-537.0745148182,-1670.6876495488,-403.6564699856,-978.6912051676,-345.8160068929,349.6240713287,-193.6847495533,193.3328546488,194.0373904636,-111.3834761244,688.3104006101,-500.0672802723,-1705.755894475,592.4499380139,510.6128507448,-522.809134973,301.9111975538,544.1901215641,-570.2234326224,-1152.3539293782,-5.8024874909,-626.2161856514,443.703366641,-197.7840366787,384.5065758769,621.5193333267,-386.8160142938,1049.1291386049,-712.2784297704,-18.5439434584,-64.3743347083,687.1072412736,604.6061037587,-521.5621924563,-1874.2848488232,1151.3471765341,194.5165596661,-270.4683442425,-202.6491996836,1653.3642324663,-991.4844634193,192.8597664769,-626.0888359772,676.3744622356,-611.9567048421,80.7001087187,652.1265282402,-1019.0537150557,-238.0308365789,-4.5883736328,-245.9936072523,1696.5854194424,-490.2706517546,1623.9228609971,-984.5115873563,596.5571080058,-455.9783156124,-731.9136698835,-833.7644820949,-284.0907197874,387.8772012777,230.7019912351,407.4274863751,1522.4044734257,-810.2831495021,-1170.1201161873,126.0365835878,-198.6300393222,349.5442139157,404.2733888986,1038.409104115,514.7378251466,-196.8080020036,-632.0410054175,278.3005828391,-444.8514738859,-494.552066244,438.4383235642,248.3667567867,-787.3149144665,1275.2473319521,697.3338950344,-127.4808935722,248.0758890887,644.7450553301,-894.9098168463,321.526740581,337.9853586777,-1011.1370590814,1153.1842439502,-329.2637424231,-804.9289603187,119.7606759091,338.267827729,-521.6516504782,-889.9674631383,114.18994677,383.5024304297,286.5938811211,793.8012324682,806.466296334,-226.5952512787,-129.1659824005,-100.3014667413,-522.8045498425,-154.7373873417,-191.8450199047,1186.4658822659,-895.4724567071,985.7628642846,-274.5918032008,367.9099352741,249.6279299635,677.9585323859,186.4807742315,-746.3148353045,613.6602341263,-1766.7031278579,-297.948795768,-800.9773329091,-525.6419037249,476.5871185848,-170.5825243185,-133.6811040049,-197.8307055151,-11.1951039929,8.4739302521,1615.876148937,583.8384695547,-510.5166064738,23.3185318202,-526.3755553006,1032.2013123626,1148.3292759885,998.6374341478,378.3994459115,283.178652647,1089.7653414616,-769.2600152315,1237.3507735172,1134.8790970694,-388.3618283653,-111.5398465129,-498.4686851967,985.5815265873,209.5158517959,-197.5210170487,514.6231787658,1665.2561999143,-628.5248033278,-383.4257318397,-607.1511906737,539.5988463447,985.6335480561,96.689335859,266.9645036678,276.3384720343,-994.9179507326,310.3196459826,622.9926823365,492.8901705111,524.0113187486,-1572.6039440201,-202.0222834917,597.0063287673,429.3762433795,-853.6909900013,-571.7004442907,352.8031793639,1523.2017091325,-322.4775993507,625.3471936981,-230.4615523176,-246.011755006,-1114.4303387567,466.4659940756,-413.3151717213,-13.176373745,848.9835076746,-977.7056235332,597.8455163177,278.1065662777,-61.1081354059,-79.308316016,581.0751529761,-565.1964102185,797.6326839347,651.8051691565,123.2944390337,189.1368801625,51.4792828128,163.7035991903,114.2790575614,343.7365716507,-208.4696696648,117.5289915143,-257.5826038262,-123.5803592592,-214.3469717151,-324.2972333628,284.9044360808,97.6571139853,346.6812930452,77.6424406388,120.2401353612,276.7761983695,-264.1712936285,-379.4459468176,447.8277213592,384.8704668835,-454.1718613415,-313.9415152466,190.0255141803,316.3921764683,-198.4410760751,-514.8506316301,132.8811527093,-495.3135396541,-424.017472098,178.9433878671,615.3975061384,-41.3464547558,-93.7075936176,-85.0457440769,264.8590722625,-57.2521653236,-186.6455966841,-38.0490650897,-460.5391917191,156.8634444531,-287.5838517081,301.1976091004,-47.7623544276,72.0929117512,89.3744503923,376.6998580265,-319.1724227311,406.7571555353,266.2381711952,321.9253557272,247.0813708343,274.2630405049,-312.3574286494,118.3688860888,256.7048326278,-75.3640428963,-33.9971457291,-94.2641310534,287.0245140194,303.9545302348,32.2063853485,-447.7379490681,-319.6915047995,173.7990535732,-351.9358003547,273.1695144002,117.1012289688,498.2733112257,154.3086830782,305.1247497984,-43.4415242196,-501.6645357197,529.9424870788,154.4305589356,-353.8505274243,-195.7183982809,327.1548360111,276.2272771869,-424.3633871258,442.6572520846,-91.6852614568,-287.6704168611,-120.2685693251,-448.1632902676,-98.7328735367,441.210213831,127.7621154476,184.8570227622,-87.6693364203,39.6498263219,-207.2962378725,179.1288352279,-248.3823896417,-150.4500579267,480.5517464828,-160.6162839321,609.704703707,-453.4751858005,472.7188227884,276.6362325524,-156.5620804594,21.2880094064,301.500593134,-276.4338844658,23.5500913986,525.4485065039,349.3453902413,340.3596211128,438.2677321578,277.1375191937,-211.9852932129,-361.8741663111,-454.9334178233,400.6178797972,281.2477841563,-131.6212739893,263.4560364232,173.4584930044,-505.7811228859,255.485743736,198.2746994337,-438.8000405579,493.6336813643,-513.6606293086,-175.5423751313,-20.7535554705,-23.7501949138,-226.3730559103,330.2012205226,25.9046969168,-194.2374694992,-314.690352689,-496.7603217947,-61.332103794,283.6394624257,380.5582950065,108.0420393862,-323.5828475998,-473.3731366302,-216.6556298265,224.6818583277,297.1158869166,215.6603224796,-554.4931267674,-308.4001844385,-277.5015985828,-355.9870532879,-75.7856055639,-71.8174196585,206.2102809043,182.601409346,-319.1194670068,519.3631347205,-454.3333476368,307.6828776621,48.1758606587,406.0583026125,398.4412082247,-202.0541648484,-347.3911114511,148.6005676365,57.6058744492,-240.003199676,-157.8249939996,188.9265893069,426.685988607,-128.0792137429,-5.7674438519,276.6224906083,435.150865063,-185.5066892639,-309.1946859118,-120.3717697755,6.4632612943,410.9429268373,-120.3978665385,-250.3533580828,-163.8055216269,212.4371249746,-195.3414419918,233.5704696594,294.2219705668,-123.2223582408,-13.2447970928,-454.1420023031,314.3642599963,-102.1892591042,86.8901719387,280.2518868336,480.1670917382,-234.6643831303,-254.889270276,-15.7590343789,-465.677574197,342.3272557399,-129.588248366,273.8433647816,195.5059888626,-142.1065354277,-20.7059018037,-324.1099112616,767.6221600523,-762.9966445334,316.8146831664,523.4969139359,-322.7163841392,416.8131382597,30.2038102188,289.857746146,-229.8537709973,-1065.3970703731,201.3586031199,349.5220571534,1026.5366047009,104.3984755495,367.8777868838,112.4924021568,-165.2439150976,-41.4196015202,-16.119956239,-9.7665246181,-18.0317762237,-411.2169026406,288.7255841565,1034.6518165477,-350.1090027617,-165.1145913002,328.4047560145,19.0619119992,-222.1096366087,352.9549325588,681.7359672614,-47.4371783172,354.2726181534,-289.8872012742,262.6903029163,-533.1159269495,320.3080755386,-373.4163264698,-632.4258285666,466.1609848379,-141.8538779465,379.9642304464,-40.892302398,-334.2113377921,515.1697885166,1091.0593791986,-744.6874844036,-59.3941499706,75.8676682941,-76.0828665007,-754.161586369,640.2332966726,-74.4777075606,407.0792431946,-179.497512782,339.1459908113,62.6274957782,-70.3112476741,656.6981023552,-25.4284326306,-0.463982584,65.6740543692,-1029.2947458592,278.8688303142,-996.3789264299,637.2196539249,-341.716314633,30.0360105149,488.3058870804,490.5623322551,56.1774354524,-76.0132693488,-54.5575605732,-303.7749739786,-890.1547400773,739.3213045507,753.9878022859,-25.4505060482,96.1575458844,-89.9291264477,-114.8312640937,-670.5241794844,-410.0270709129,22.0190193468,362.9747619075,-30.4744510047,131.6783341742,271.888939584,-530.168546589,-27.5607753682,725.2149827067,-895.2406441512,29.7790805987,164.3005305415,-34.6476292181,-411.2788919678,452.907673269,29.886295641,-92.6201992834,653.3947656517,-591.7949679674,297.4682850562,477.0227999615,-236.6815814289,-65.9260542436,171.7223306681,528.9462060476,116.0147931086,-104.3778879449,111.8736587608,-523.82113588,-436.8804841388,55.6938610782,283.7181096949,223.2507990059,293.2429674798,57.708971088,204.1487029068,-626.072695668,612.9407181093,-314.8884821476,29.2295991051,-130.3217535663,-24.0012755018,-434.2972742954,-61.6641958877,416.3611466435,-9.8313841149,1057.8928510073,61.4106276872,730.5470336021,164.4777257286,-147.1245868534,47.9250062851,234.7401040835,-191.190113146,28.2731055326,-235.5233402149,-967.4075186092,263.8198672964,220.47344605,155.5276028706,195.4880506087,-117.1123834786,-746.6980012021,-650.8564538426,-175.5156423407,-505.9626486317,12.2497840208,494.9728086505,-854.2280092339,-730.794633244,63.4923515684,-17.4468297259,199.6024871958,-495.1133206533,-35.8114638086,-213.057794575,-337.7904370458,-1022.3957972212,436.3480243534,247.7197152997,-197.8933360999,-321.6457742657,-328.876500305,151.4163061381,-447.8066484957,-29.3151090885,640.6290704227,-61.9509077658,-425.9513768157,-193.7202480922,-320.6510450402,865.675515059,-211.9844512357,-381.7045936388,-132.1716511209,763.3920737544,385.4866329153,-122.1095774394,-659.4506774219,137.3994562982,-413.5723195947,8.7196453179,104.3027235067,717.5243003213,-300.7331868371,261.9836656129,174.8846475024,-679.8338760848,237.2532823615,-274.4441100498,-186.3240209879,108.4907600475,283.6638792435,-407.9647864599,249.0349305465,-728.6211825646,-414.3845014399,-87.4789061148,197.4370419862,148.8800664692,-52.533870182,-119.8329221247,98.3791440123,88.1780463347,-67.6953698487,-200.8182992365,294.4553565061,22.2023662783,-403.0533776879,37.9754960963,-135.7945266958,341.6662617174,169.6822610496,159.4511003276,123.8958359454,-104.8835351672,-116.0317798968,-249.8024655251,-228.3115107222,249.1355374288,-721.3186467087,-150.8650099649,386.0233798981,51.9214175491,-3.9574553386,-93.9541328588,369.8213181088,-63.4477224727,-54.4775841745,1092.8330513568,276.5373861659,377.5115812196,153.1015258887,8.3754667341,-395.3256888675,-579.3790149163,-188.7966935156,-1019.7970247595,-37.3803642694,-28.6090322122,129.0759997278,-7.4216638093,-302.9643800223,-479.516529926,379.1941256103,-99.9121139543,-281.935780202,113.0368237418,-233.3686669945,-693.1301064855,73.663375414,137.836685223,-64.2523742336,16.3283261873,308.0289125684,-186.4508064649,3.8637524457,97.0430532599,93.3090992579,245.8038895511,350.7455468082,-384.9690558975,-163.0755151692,-345.0679388482,72.5742080975,-373.4908436935,-199.3949374368,118.2294754365,59.1620319497,19.2309384036,185.1523460001,-316.9791588091,-356.9825125277,-202.0568654584,32.3497645962,106.3589569036,-335.2413686343,303.7563141898,-298.7034075171,-160.8779406129,-97.6008066105,-142.8655015276,248.1886053772,377.0674897961,-267.0817115358,142.2502526392,-153.0056235071,-381.8121687295,47.2614280241,21.1297794706,-214.8144065662,-269.6993160749,44.95451487,-221.448827472,84.9779605784,682.7733010028,387.4034462358,-286.6001961261,77.8032344058,-1053.8377407152,-274.1565511221,67.1354253094,-33.1298125525,-9.8484064351,5.546097268,98.3866782409,65.3971670392,-290.8336056014,-39.095121126,-4.6004219961,-28.1289552129,322.8892917005,-103.5790458518,35.396813818,306.1172000062,149.1149587848,-4.5470621575,83.5153900836,86.7791219176,258.3028177914,265.959098612,-286.9576460141,202.0712234863,70.6801133833,20.6922859161,390.0037639795,-95.4733316245,391.2824858597,-17.9330399725,27.7886965099,-151.5016778483,-4.3753871238,25.1624512267,34.1155388143,-345.5297436504,215.4535619341,-40.8254540108,-290.6638102476,-312.8555963026,151.6445935276,40.359263545,-133.3927284932,-118.8813786062,-103.4766127027,-94.7558413336,-80.1299095456,-464.9417895128,643.6388798619,-15.5008255899,-204.0903829962,-106.5764153719,-174.6795434629,251.8295044116,160.421231971,-328.4538359212,-348.4477408328,-268.3624569228,36.1902642146,-347.1366911454,57.4395327464,-242.1760202248,76.580132801,82.3547507511,190.3561521419,39.1353112864,-419.0079991676,41.0231280159,74.2434438559,-294.9133764737,-6.9776555428,-154.8760677223,108.6286879359,166.095006468,-270.7895818643,48.2553174636,-101.8402733454,54.2477101945,-29.6890560118,-129.0125929051,-687.3096190701,87.4083767229,40.7246240447,-28.0739990621,294.5198487579,104.9240175301,133.237688865,-168.1103056793,-21.0159107127,157.1588871658,-312.2665502034,-216.6081213815,310.1422466486,324.8464611051,95.217958032,21.4397101471,196.3477128997,-28.8216291607,-0.3880949942,-16.0737060581,-53.2911436973,-86.4935594599,263.0105756251,105.0361614318,322.147741178,-35.059563981,113.9155600203,-114.2984948184,-145.9150083738,-225.7708362585,-14.10775818,345.9085533616,94.7079140773,26.8641808433,35.0287785064,15.9413097336,233.7350642128,-218.7041628431,-396.1948803168,475.0122720952,419.7467193744,-472.8925467685,-246.2018590228,171.0120324519,11.3706321452,-174.8925792114,-474.5881521813,136.7504065438,-444.4272945396,-401.9795881029,166.6978724707,442.3148556382,83.9815760847,-113.2741017417,-100.0955469301,287.5751655742,-126.8639733175,140.5109246648,-219.584614986,-399.4753052386,149.9946089839,-357.9798532295,379.899580323,62.3401278226,100.9994150646,-88.1671448981,95.3575734257,-279.5723920145,382.7652651042,262.4064336252,243.9479882816,137.6568105533,236.3468853183,-82.9608960347,115.2378696537,25.2956841902,-104.781396438,28.4528960507,43.1643793546,249.1152169476,203.646439953,105.5727953389,-458.6137705496,-14.1939249316,154.1907781573,-42.6464375964,234.6966753072,132.7500505773,455.5287053763,112.1940803824,271.7249471654,-94.3494922399,-448.8237086555,543.1113912686,184.4935904002,-145.5258005296,-293.4390790101,286.1014941801,279.7427858945,-465.7454575084,445.8073231983,-56.5062459141,-250.7248910561,-22.7132987138,-472.1770233561,-117.0229366463,464.1893308302,86.0862017685,160.7914787892,-154.4113847719,110.1317642309,-307.080199287,165.5415887411,-32.6047180115,-175.0446413934,545.2226354923,-149.1926649016,425.7432113744,-398.7646825843,533.7413614143,239.9540373412,-133.7450783429,310.2229702606,263.3294172118,-328.4780713564,84.1233113719,482.4682406006,326.6019654276,448.6635606289,507.5115508851,310.8448231233,-187.307998132,-317.4853585939,-470.4775140468,352.2661583207,337.8267119991,-149.9766332266,163.2935264774,32.5708334788,-230.0049014853,209.639109211,-48.4940691704,-460.6387783292,510.7702142016,-436.5779526357,-161.9200430133,35.0613893702,-49.4570701361,-640.0376106333,19.8250315369,-24.8834421159,-293.2754983429,-136.876100122,-458.2845327845,-80.6262791684,329.7331077406,277.5431708091,163.6236625279,-343.9646889987,-157.0717170902,-260.0675199062,192.8713727743,363.1626907779,504.3871703567,-927.0439730475,-269.4035357245,-239.1405430614,-339.9354382473,-200.9071491285,-308.7295938714,185.5879248918,170.0698154574,-279.6057015702,459.2170287301,-473.4781885717,279.2333011175,269.3477841217,424.8609596514,304.3443604397,-151.7645754617,-27.5493373686,112.3757713427,58.5359454858,-219.1298331221,-150.9231180923,-56.5711483827,547.5353580581,-230.1118494521,69.306835593,238.7601132629,509.7186162378,-112.4168079155,-282.3878760866,-109.6832544162,-232.0867061361,315.7139278606,-117.6339075051,-219.9931462304,-264.4574431699,189.5186852512,-167.8248826406,153.1238795604,238.8942353628,-91.9408646205,-85.9933029314,-492.8018362355,275.7161451424,-112.7563325479,96.7859948469,340.2917032406,581.1766467742,16.4349105243,-224.1234278259,-25.5646533518,-446.6006027582,380.9369081181,-84.3559036774,243.0980499783,297.5726503573,-131.3215241983,-18.9352601056,-116.6633128819,-705.3967776067,709.8516762226,-269.1001398582,-454.8810621988,189.5472574875,-357.1156742412,-160.3193922284,-272.0058658369,282.5966984297,957.0830871662,-219.0556842286,-296.5643733476,-916.6810262713,-75.1425994286,-180.4842787793,-86.3326144945,134.0585592338,74.9163273597,7.334694856,5.8685819132,21.5227170823,371.3525571489,-237.5676953227,-929.9954738571,305.6346563021,111.6595739203,-272.26210737,-27.6850590522,181.2275144788,-295.0452879934,-663.2555438234,61.0066254076,-335.9324605081,232.0185050175,-270.5239058556,537.7106443799,-137.9890128275,315.1341718934,598.0665651957,-405.1342505258,176.2083715083,-375.8263324598,27.4806428129,308.0408462466,-420.7020697692,-970.2054607636,661.0825283199,51.0618611947,-50.2469630478,128.6808528874,633.7550473979,-571.4815971959,256.8821138261,-349.7314751451,76.6439528869,-315.6711317822,-93.7051901587,-41.0139077188,-587.5047954399,-38.51660598,-1.9566526045,-61.4301994928,925.8363078678,-226.1518088327,889.1092289612,-568.0063224212,325.0311938205,24.8855023123,-437.6123501923,-420.2092812634,-36.998295675,8.7866537446,42.7556308952,308.4957881072,782.0154618357,-686.0486487266,-672.1766098026,34.214857713,-60.3260219379,87.4326029581,86.7339673027,598.5898033451,409.4917631743,-14.9265940533,-342.8309029523,32.6828290227,-97.5957038876,-223.0274456954,527.041794322,0.0113030867,-671.3376116841,798.5431958883,54.6771938251,-180.550381115,13.025060063,355.9296647507,-393.6398462808,-19.2400632447,74.5221813039,-580.7144997748,598.666156829,-112.5722649229,-416.3096486496,249.0382154126,42.7835507567,-116.7984911119,-457.9124875924,-154.8022982234,81.9273742208,-153.5861095473,466.2042932372,362.8770763979,-50.2096420594,-242.326212177,-237.1965281544,-277.0356479062,-90.1854319726,-238.1284687276,507.9374748039,-557.5390824181,-136.2307469918,-31.9071549513,111.9179520594,-26.8808776924,379.0374506387,40.4338955277,-387.7905377506,-282.4303249131,-952.0154849982,-39.6354982569,-680.0943391452,-65.3598301608,96.5054980955,-35.8503876527,-249.3864153433,-11.6801262601,-24.8128318236,229.3196559299,850.5820307198,-105.2445489583,-182.7985924228,-181.9853960199,176.7939827007,-147.1426799325,662.7634188146,583.2677831668,147.5676294612,524.1925107776,-407.8785237539,-439.5184541572,760.3912436044,650.8819827108,-4.6077571292,19.5309429988,-164.9265541833,401.182584192,35.7015794397,-18.6409429698,296.4416826653,915.5327900427,-394.395413477,-198.8781847504,170.8289885704,263.0563567341,-111.3353939928,-175.3521347613,457.381677065,-1.5730296215,-572.4221022368,39.8912651889,401.4627571526,159.7551442972,274.8419476789,-765.2567867758,-22.4650968107,322.4737579563,99.1497354898,-712.0493912567,-329.0762980611,98.2923734472,548.0454829655,-113.6360601941,364.6514006058,14.1374455065,-91.4263573092,-640.1655758717,243.3114910679,-203.6263114365,-188.4192413387,622.313091528,91.2086797366,236.1309760184,138.3003780604,-33.6474809903,-269.0148673479,366.8292595497,-212.1117929309,675.6451563653,357.7635715442,76.2838198496,-460.2802172808,77.163381042,-141.1559154621,-186.6170110064,-374.1562151248,-255.9864479204,-217.308854286,78.1441549845,157.2665779358,515.2885378708,-93.9045296849,-587.0621255251,-192.3726094559,59.9326369969,73.3820756944,311.9481713532,-200.8972475218,201.5455354794,244.1650631348,-630.2349915368,-524.2695744226,621.0732892114,317.7829933676,-217.7492787881,88.6582166423,252.2061371261,426.8963657103,-212.6039995694,509.0563539086,394.825992677,-231.3748894671,-285.651501196,-52.7007595401,94.758072307,178.6069480312,-523.3254835895,311.3457241379,12.6924443006,226.383498752,131.5224244725,-264.4658561111,611.1694059479,-399.6552979806,-23.9012003399,-110.4109067957,231.5313530216,-10.9236984432,383.1532879566,-653.3808794606,-211.4272479544,-55.0414104139,-121.6641739914,-328.9227313531,398.6645074208,-212.6351078266,-518.0711592622,109.9546662883,-227.5311284983,101.3182861372,-355.8945881262,-615.8227380642,-88.4921956111,700.1669731347,-86.4453808131,-209.4368225503,-33.5511849794,-328.6379973969,-117.3899705336,-320.6351332772,-169.9735984413,-308.3254521088,157.4961896837,343.1844175456,-771.0061323521,-130.8558125701,89.3834928608,177.8086881125,-394.0012286853,-475.0586909744,727.5396012668,-595.0575516914,-42.5655722617,355.6288958295,142.9753031476,628.5012199235,98.7875051238,-605.6551943259,15.5373350448,-217.1293529047,329.1226666688,-128.7495077643,196.0389067819,-162.261633651,63.3873544216,44.9607996163,-802.18722188,253.9883332289,-194.1096424073,578.2226655424,-761.0468918784,-332.3707656635,129.8846008108,-341.1145180141,-319.7362533003,566.8832847415,-113.7389044025,-436.6453956091,-379.9212315557,-786.6149597642,-736.5732684783,-533.6079783754,300.7432781296,322.9922315147,610.8303607342,-281.8254284755,-574.6827744012,159.8920431673,-195.3072784394,-182.3470075872,100.8955492004,-332.3420742006,-495.8242290698,601.5408495754,-597.4527348959,348.8862901403,272.1367760206,-36.3129653449,28.7219831632,429.338713346,83.9981438057,11.7197740802,178.2457395854,490.6770810667,408.9313867551,100.5327768608,-565.2360251782,-641.3865786712,-145.846528058,334.9751079631,59.5050415188,26.0425070992,-163.2344335687,-611.484393179,-134.5440337819,387.2670071782,373.3549218588,348.4012647971,338.3525334311,425.4045303509,-226.6832824983,-295.8498677852,-165.8341589472,385.3923471,-361.0138418246,619.5936768817,-270.7115384831,-388.3224361437,-653.0970624114,-582.7461554721,216.7363986939,-58.4668979972,-197.2112815616,-141.5911888895,548.4956665346,213.2987733399,-461.2380065973,-752.6661855754,440.5688359672,-140.135195186,-330.5048126842,-737.3046158371,232.4353429923,273.9995271657,191.96992839,297.8503793533,-594.742740468,187.9300719148,157.5715801621,140.7472829401,-258.0062579998,116.9006435947,-85.5257561289,-227.8305276775,156.4829153209,161.8248800872,608.8401794298,-380.7111125223,189.6111108925,-164.7078984742,-555.1680735711,-444.3111310217,480.8444178566,225.7193072234,111.5280649233,647.1232316493,-387.9228487472,153.856152824,-241.4084111292,-187.7703560166,199.862787516,32.6232945743,3.8039932699,-387.6004167473,330.7685799119,-96.6660961817,-131.0161585595,-813.6012295962,-142.0077526564,144.3641344895,-171.9548456251,103.1182961027,-126.286941304,-100.4572707034,-113.3025171465,103.4193557264,90.0163500465,-78.1570866235,103.4550811847,-43.7661396785,-160.6194345348,34.5612007104,105.4002745111,-48.8218392432,7.9153779986,-67.5291931134,129.9991377321,87.7882240024,-143.4622823215,-77.6080515372,46.6723437567,-81.0074456365,-72.1553221425,-147.9027607247,159.8163288502,-192.8623570917,65.2908849031,-35.4583829956,678.0818015377,-192.0177394605,645.7935875147,166.4431142324,-158.444066346,106.9671838691,-771.0490354362,-25.5905543503,174.8524845805,-204.3816258992,126.2243174656,290.8411911022,17.5953163753,146.3152056529,248.1181920637,338.4299086037,-248.5934248919,49.6261371048,-138.3415521964,-110.0802297213,-181.767605442,158.108536627,-1.5891315819,-252.2579171262,-22.2279365257,195.6375019646,-57.1845847196,-130.8933618421,-37.8889121947,-108.9268791109,-246.1824654754,193.412873015,223.6610081389,-160.5538869155,-130.157660351,4.6032611851,-195.277830249,45.6671436689,185.3072908432,-184.3754619124,-321.0072438518,-295.3431599794,165.6049048283,-56.9878016892,32.996312782,-82.5877037901,260.8977085642,151.754715108,-31.706370034,-196.303421251,33.2715772878,93.9633156371,-30.6606151955,668.9227245489,-18.9405760617,-317.1221918255,343.825627961,-569.2276701726,-316.6299554718,-26.1210139199,133.110491046,-55.212342847,42.8510779105,-3.3061709949,-253.6757239786,30.8029550213,-162.5565762939,-129.6109446495,93.1272832969,-21.4627634997,141.0173299258,-130.3468070427,-156.3068903329,-13.9372641697,-97.5446384157,193.4551863248,74.0073809436,-66.2286306559,-573.3975039422,-90.7498672704,-174.0997113704,111.5822281484,-25.0580369086,-346.3660482122,-235.5381580536,-0.6443958575,-32.2422279445,43.0037654209,-217.4586225252,150.6309769511,1.0484857202,-198.4345799388,-146.8603505759,133.4855930115,27.5490908745,-316.331884398,118.8451647175,-145.2112073027,-2.9787307682,-80.539353295,118.4392447289,110.9957456414,645.174833188,-179.8750073608,-0.3167180731,-1.6238524567,-101.7638860395,-123.4163478969,267.4388289556,294.0453092517,250.1203197578,-101.8936341817,782.4402551629,-655.0021482444,-179.7949484702,328.5215698525,283.8666498048,200.0130676192,-49.7627732472,40.2224749827,-415.6028535439,59.7422838907,113.625288213,25.3144345475,-102.8370061206,-138.0225844394,-63.3600334125,49.1132157991,59.3207165248,9.7000151687,-142.5739024936,709.009590596,-31.2732285562,-247.8687085191,-24.3371486303,118.4266855638,-43.8049777633,99.1583730559,49.3573469866,114.1805662163,114.9571135487,-103.5871260166,-332.8504339662,-95.3069859389,-88.3585753629,322.2937358672,107.4420641365,149.1801391505,23.9013611754,-28.2214471396,-279.4861233427,68.3524322239,-48.5096701927,-90.3858154989,364.1505430993,58.8650969028,17.3491342127,39.6621922735,-83.9318698722,-658.201162204,145.7218039295,1.990936879,317.765458726,127.8187202725,36.4998073168,-270.7290714511,-118.952741861,63.3011035062,-232.8008182531,-478.427162203,-193.3985573398,-278.9769483825,63.6363017193,69.0208525072,450.4724922651,195.6795350897,-634.5215737686,-240.0251919419,-202.557963642,-5.9934664172,379.458665687,-275.3587967628,280.7321160013,338.6829538399,-621.154460514,-488.2011772093,622.9697874861,486.8746883907,-263.820104999,-190.8667554616,309.2172501501,519.19198991,-279.495309949,477.3508648421,490.0599808112,-304.2031483079,-369.2367842031,-228.9743864432,-11.0558105925,238.5463385496,-593.3829793457,408.8865014286,-109.0336229082,484.9222372753,375.3366259001,-329.307100759,640.7277666546,-443.1620692536,-98.2666548214,-11.7899063398,75.3278596412,-277.4442632096,476.8621325956,-634.5115567778,-316.3399330653,-83.1380366423,106.2862090146,-408.9870298694,342.3873817037,-273.2613493467,-363.9428889462,13.342318918,-151.242383358,39.4229176727,-437.0453323818,-439.1051918731,-332.7704718111,670.5429348286,193.3032882006,-255.4408378975,225.1231351281,-408.4654166943,-14.5211386676,-405.7412110897,-247.4943383648,-397.3686591907,102.9065039866,408.6462545746,-739.4279206086,-46.3158272765,321.268080267,-26.7544726586,-489.4752870079,-492.4862093281,709.5013494687,-552.9830042948,42.3644849145,439.6509760207,177.5274818663,617.6108942044,-7.814699176,-593.3692011115,-66.5186722603,-262.2712500873,409.0703886061,-92.7620502911,-8.3119463321,64.1970248062,55.098511519,243.4715376914,-769.9066732053,309.7365213736,-363.891276088,529.6868511582,-717.9324528651,-414.2918704037,194.7629096291,-580.6988089892,-399.0008105701,621.84368311,-51.1630647334,-529.7542158365,-484.8261780306,-797.0034223227,-687.3304202239,-574.2595179781,366.3725998015,415.921526525,593.5437031222,-267.7271085237,-626.6553375782,66.766771805,-234.5989610504,-170.7631878522,289.796089789,-406.5841050915,-304.0450639213,590.685925053,-547.9433161742,396.2661507569,328.1127202978,7.0245459903,-90.2653155055,546.2188005456,-200.5617745636,-37.9582563854,-24.0695651148,316.6977682786,499.1248770768,31.2493681623,-620.5358051771,-570.3875871882,-287.483289942,351.5401320836,323.7485794142,107.1572089873,-252.5868218944,-645.4040652292,-352.8753373362,405.3506384991,469.3359997987,429.7224185215,443.8389014218,506.4863736189,-89.6832357324,-359.1693682244,44.6307673763,478.4283250417,-422.7310335764,622.3746146571,-359.8289446744,-197.5144982285,-638.2163792924,-514.207742672,278.2067932114,202.4989296361,-268.0558183707,-174.6319028138,563.3080860609,280.2245142904,-268.5388375999,-772.6599690695,499.4904706313,-94.8442966832,-410.5358388375,-703.4258166979,271.1386024409,361.9453770338,237.8388234949,136.9674797665,-521.6288599914,256.5010289158,242.0554373976,-63.7756018653,-332.575801844,206.1408512725,69.3640038584,-299.9713227988,211.3101972516,129.6512375917,586.0412171422,-470.9916115324,252.041897441,-222.9447671251,-596.9043761032,-315.6718009165,242.7974636317,326.0218505351,140.524494178,609.8477197056,-425.9520920762,202.9380384215,-338.6636279515,15.4911915543
   272.8364132581,44.6720425171,-358.3803052363,91.5834145088,-153.4002100087,-182.0426745705,-370.5047569741,-305.9809016261,-218.1860231498,-40.3617818091,158.7004602424,420.5464845879,-134.3393727799,-576.0019263718,-187.6398616981,98.9617640353,67.1848505936,342.7358577245,-206.2304485154,209.8823861666,219.6007281065,-611.137660793,-524.8347480589,604.8187093058,267.1566684705,-207.9268287321,126.2042567075,244.2807814052,419.9212562539,-217.1917875556,501.5501236292,389.9236548684,-234.1683906434,-239.8963550453,-46.6348671384,91.2436360783,185.8226803223,-507.1876529303,308.9475909981,-77.8250168442,216.9347100862,90.7159863223,-263.0799972629,597.0081761029,-403.9900480997,-50.4703731067,-111.8385156119,238.8674472078,28.7596345382,365.1009447664,-627.5080077883,-218.6003956118,-49.3158220145,-180.9260982807,-312.0662244,491.0282737269,-213.4388247668,-408.2190216486,113.7813008939,-234.8057786367,-5.9742806953,-338.6190499311,-461.5612025703,-98.7550626797,678.4593288753,-123.0545051496,-198.7841289764,-69.8978717877,-310.6194095417,-111.332430453,-338.8251039684,-170.1494332377,-306.3454823411,163.8240906988,343.2000899995,-760.0012136156,-125.1252337753,51.5026871293,188.1559894333,-376.5495203178,-465.3632475698,714.8023559441,-550.1141713116,-36.8379721705,339.0470389369,131.6393341821,609.4761475459,93.5949477241,-591.6018293866,12.8275613343,-204.103911375,330.7104138682,-130.2225871614,203.0085358075,-216.3754421965,73.4644499719,47.4435259604,-791.1778718643,247.0785487615,-147.5903875021,570.5913914997,-751.2194981068,-314.4437061542,98.1715618704,-437.457198255,-313.2467490711,554.263768017,-120.0156617549,-430.1968135042,-375.0322311664,-783.4637026129,-727.0687076065,-531.3465568272,290.0763115965,318.7455249758,588.2639400561,-289.9831772668,-562.3264228025,157.3011062846,-182.232474759,-151.9747180857,54.9650727187,-318.1470429901,-400.0361472333,587.7847009868,-571.3212188634,339.0727551959,261.5951894753,-32.5653729291,26.0063560603,510.3705892174,123.7908468258,18.4623974999,189.9289525062,408.5839823621,403.3046859432,102.711445338,-548.8752011439,-738.379110525,-161.9002879003,332.5126944242,22.7161057554,233.563617209,-165.2495383074,-597.3500463228,-208.7415818689,448.5492113597,357.0538916645,331.4820734951,336.6700038868,428.0556618219,-161.3013170095,-283.8246902284,-221.129549563,367.7826387212,-357.3888866507,603.8839237818,-275.3297910026,-457.4846899639,-634.3816235229,-704.9901418016,204.6533110422,-98.8980655522,-197.4809943201,-136.4782800888,486.7962617925,216.197452455,-358.7315266742,-758.252297825,443.2229531958,-142.1159351429,-313.2266443823,-718.249238132,211.5590908617,278.3174384308,187.2636762079,344.6277914379,-712.7969797452,192.2871922736,157.9400656877,153.8618699081,-262.9912617343,119.3930085125,-140.5123983458,-222.784803558,148.5841064965,167.2030386185,592.503621393,-362.2988330488,195.916080879,-172.2192823942,-540.5005981768,-459.1386342312,366.171599016,230.3381591087,110.4777154673,664.0068684493,-397.4118745979,144.9056890091,-245.7886222618,-196.4053790013,201.6717337985,33.2820606799,-895.1627473608,902.1796143277,-828.1403977992,461.5463089644,811.5920762592,-972.7438119891,567.4896985171,-217.765142726,531.3034870014,-84.4351989702,-1764.3402745356,36.5104920242,480.8398694881,1656.7924594754,397.2010892476,881.8518609298,312.6816422264,-319.086164013,194.6474379859,-198.6345389252,-218.3322103838,126.8997201905,-694.8753254719,458.034673553,1692.1062573206,-541.3490705979,-471.303553466,461.25404287,-215.091339304,-506.9320624742,507.940747208,1149.1362285637,53.9217517391,624.3137835208,-378.5905225977,186.1151290305,-327.9313486305,-525.0343853043,273.1114293697,-1043.9975261196,643.1019594415,23.5635336875,2.7538575483,-635.6108376039,-607.9656947007,498.6776099283,1857.1848286167,-1076.912547262,-162.2328020236,258.2175858798,198.8345972658,-1637.9882889479,927.4494790657,-188.7084872676,561.524434646,-616.2779192415,614.8067152447,-71.939080972,-581.9944997013,951.3727664206,241.8395754948,30.2582264412,239.7518006427,-1683.8222205069,447.0478199235,-1605.9081960254,920.9756993058,-594.463971551,256.3897038632,676.824591777,771.2354895933,318.8860967127,-351.2571538395,-233.0490020779,-416.2359645626,-1494.9128308091,787.973261214,1093.7851971161,-120.6164569284,205.9706385415,-344.2655771613,-396.1168976651,-969.3621726516,-467.4463503372,199.5035532954,627.0106963991,-278.6619767778,432.165095753,452.7434613353,-361.6715889018,-280.312956361,764.0911332219,-1335.9730227003,-607.3687164163,86.6686105094,-267.0521776692,-586.6553586771,901.0951606171,-248.7539070232,-351.9702475314,945.5377186417,-1175.8940070812,255.5660508104,745.0940238302,-97.0542242094,-375.8949334282,482.8028361158,821.1574109621,-142.7185400044,-398.8252453837,-159.1534300786,-731.5497919415,-750.5246327043,230.3027920408,55.1657891709,77.2306010423,528.9704731466,141.9907343165,170.6616353134,-1150.915930467,832.6495687646,-901.1644151147,274.701998321,-380.5741241147,-229.138532471,-619.0699787799,-200.8312514459,732.6315800548,-537.7521130557,1755.4548008776,330.3133349898,781.4255232473,447.5128565016,-438.6438205471,227.0463599417,114.8848192832,114.1670610887,33.6571342019,51.2840146148,-1589.1770969824,-441.2921169307,486.2881072592,-39.1352923024,472.1150222085,-951.6569744351,-1071.9899709502,-930.9155235284,-350.2433710639,-218.5409322484,-1054.1293299056,708.4887352512,-1297.9439880763,-1061.6750412807,359.0891613263,128.3251325745,466.1506264026,-1036.6494533169,-213.0403247325,103.7743011588,-483.9193292272,-1650.668212003,571.8260061602,336.2631661975,489.7701005947,-478.9369694177,-893.5463588735,-150.7808167887,-185.6070546943,-305.948027282,931.9599745234,-316.0137699102,-577.1976396506,-458.393645251,-476.4697599569,1627.0576294909,108.7916998541,-534.2379135856,-408.7300406558,830.6367291345,512.3813784304,-330.7187002623,-1524.7221035136,299.8542318732,-580.8161031662,266.4923128574,253.840116868,1041.1744369514,-403.8057262595,351.2985437801,-4.4312428588,-870.3908444831,921.4514142526,-565.1144406802,-231.5855370326,98.7380953694,-5.1219129412,-541.2282821576,533.0984745141,-772.9591286075,-588.0837104219,-110.9790250989,-68.1239626977,702.1279725749,-700.4590991789,293.2926415019,468.5152529503,-244.251773604,371.9981346198,74.0149932363,260.1167619222,-103.2226670447,-964.8026836724,190.8868720419,318.4441468982,938.7719894363,77.1494854071,290.6640965263,90.6241668098,-138.8397014823,68.4232245441,-1.655118098,-6.7433604606,-23.6642129977,-404.3476824204,264.5605938872,934.9785287637,-326.7621673212,-130.7362714952,281.6424221046,87.1462854769,-185.9874749754,301.9840376848,680.1966804262,-58.0398101261,319.5972172806,-241.3285499907,244.8134887781,-518.0594754712,98.6890349876,-275.1215557609,-619.7667901991,422.4284757096,-152.1148622822,375.8704645283,-60.9393178427,-301.5300783178,441.0845631714,987.9375864672,-698.1088694346,-37.6303613254,49.0699871997,-96.3356311875,-646.3948944433,603.3248363185,-156.4633786369,367.5777793611,-65.1793210379,310.7722115893,65.7813412779,-12.5394862016,618.9031561424,-1.4516186408,-7.9607732381,42.6254173414,-933.6720100885,250.2658492454,-912.9287324766,600.0085272113,-306.3466306386,-11.0009127806,446.3694070638,434.7373185088,33.3813123424,-26.5992936368,-27.0704259916,-276.6102679358,-789.150386588,674.6207540288,708.2815274288,-40.450576747,64.967627987,-58.8217796151,-84.3617361319,-628.9109844226,-421.3051509323,7.0497329213,321.8335054195,-66.103554506,102.6403407685,250.167784629,-519.103767935,-6.5406406285,657.8307002419,-807.9142725761,-17.7621640471,162.4040045849,-20.1200686033,-381.2212195748,460.4850825662,101.4283478364,-78.6703528668,615.6475158094,-599.887279131,85.3259521801,436.3563654435,-219.4021126751,-40.815901714,137.4535649468,471.885160091,120.4823081544,-87.7427132716,145.5939759919,-490.9283431432,-382.7579801998,39.1506168186,253.0513114182,211.6150462821,261.1912514429,93.6978336195,276.3975663671,-558.4013574598,582.0267207326,-53.7083747635,63.9963737614,-83.2731890493,6.4681328714,-408.0278816266,-33.259938748,376.754582708,189.530355066,961.5211642974,38.7900492483,668.9765838923,-7.8904658981,-114.6761032196,33.1755651035,226.7078145578,21.3102364404,25.383685269,-242.6511466379,-878.0468634852,37.0997605509,185.5986900443,159.4401455106,-13.172817029,91.9329533251,-696.4546192473,-611.9665423417,-146.4842732184,-497.1199643118,296.4955494855,465.91661714,-772.9151776373,-687.7453923264,29.163162453,-22.4834659857,167.1457588277,-449.1416728426,-31.2414093459,32.1711174413,-326.7520100714,-938.5846161518,401.3157287021,227.6100774756,-82.872111919,-273.077272891,-68.8806277336,146.283578175,-450.1261440306,-7.8899006911,605.3741347649,-49.8384201705,-426.8666763873,-162.065037364,-299.9957197294,787.8863209058,35.5874731846,-331.3899208503,-102.6515587934,700.7458062008,337.0559942462,-90.1329034489,-556.3822972563,115.2633904345,-390.0587154397,0.8149930565,71.7668706482,676.0200205963,-252.384956591,214.849481669,166.6815546191,-628.6810246364,16.8582152127,-235.472247703,-166.9931201657,28.1310046272,266.2983381832,-393.8580624428,212.3951747259,-662.0136755482,-365.446615843,-75.566968863,503.9526864186,121.9338524983,-66.8088599803,255.133639843,464.173380312,441.5048257896,306.6157143041,-129.1315778723,-130.3133667681,-782.2361668016,102.5363732448,702.3476524625,273.1938929719,-70.853286177,-68.4873474655,-330.9096679739,222.9802797607,-243.3912074784,-240.2193096268,673.8090303826,599.5762042009,-668.2579569046,-378.5497276455,278.421947089,-99.2013528903,-312.3440398,-480.5131938441,309.1040041765,-621.2890301573,-453.4590362397,315.4462462634,205.6605262563,34.7601716639,-57.4238335945,-284.6071357698,618.3296194791,-540.8274758375,-58.103657535,-291.3888954175,-232.7487502198,354.4513872243,-737.5609859067,589.3192080322,109.0484689398,76.0674829832,-88.6692678378,-7.9795476842,-470.1733476834,704.0801328445,238.6860805902,8.3383304529,107.9223452989,404.4278508068,-603.059483698,299.2087061502,568.4578452945,-78.5617525314,119.5820166658,33.2385093974,432.0069797114,675.233557628,92.378650768,-731.8084448838,95.9397660106,268.2870515381,42.6891430577,403.4005950329,78.2758415755,364.8044307867,235.2619036168,375.6078061662,-209.0134034799,-354.7238236893,815.5830867289,95.4838402646,-108.4974685437,34.2582271852,482.5082132946,511.9754786608,-763.3108064267,603.4976256864,28.036583497,-434.1010981011,-223.3667990437,-674.374362387,-57.9485566432,672.9888885496,-5.0497775681,270.325428625,-568.0932370582,192.5662237239,19.3278243969,194.0252616067,-178.1823164196,22.5570685085,856.1496217819,-332.6917143218,239.5431678032,-694.124976727,812.1030766457,410.5623426486,1.7909623185,485.8440549387,378.3205161375,-680.9662535679,169.9469374008,490.4949830291,470.6626619928,905.9768977098,789.9846496484,645.4649851747,-378.1579962602,-380.0538290305,-645.2874630752,385.3130962242,686.8597878588,-128.4451289487,238.6968091039,231.3902450423,-63.7540173786,410.4217236554,538.1690909937,-669.8584753092,619.3030235393,-341.5822628202,-348.9444509671,83.0608068761,19.1330076577,-332.4301291138,-100.1230181071,-61.7607725898,31.0792603833,-496.7351364979,-460.6750181844,-157.2214338237,669.9972629716,586.890725064,152.2451051602,-514.8576779614,-60.9357121345,-24.2298273457,208.2804768629,718.3099382805,196.2552551818,-201.6645988196,-466.2188036169,-425.6663678319,-388.1741996407,-681.7248307693,453.7772363978,373.342854956,200.0608351119,-471.0541272443,361.9335991177,-668.2616842878,315.953170126,357.8135917582,691.1581971248,552.4615943032,-248.1759339101,69.7633608791,276.5563382528,219.4749448472,-759.2056977848,-296.1945163391,502.7832592698,923.1213086681,-692.0363398842,200.9170759358,405.338426751,795.4629606113,-296.7108795559,-317.6574172158,-256.665824291,-437.7770232604,561.784269808,-279.5899232976,-185.5632542109,67.5903808619,339.3281972009,-148.0995461668,82.2517616638,260.4191112115,-214.3762308831,-229.9107485169,-640.0333655321,464.3109794767,-291.2978445719,262.8973279433,669.3844002485,327.4733467467,-559.6950752649,-274.812513868,-198.4632923178,-650.2047513803,597.8620271134,-206.5100051947,290.421632212,-25.5850516141,-284.4783357284,-48.1237665427,48.3590749676,89.7544055147,70.3199346864,191.6492238736,427.1055335079,48.6960007439,217.776922517,-195.4398552328,-161.9399476879,-415.2037664586,-93.4655204521,410.0072687039,188.4156884798,87.274272645,43.4549407414,-22.4629083206,266.6051817734,-239.3336259938,-434.6843072581,520.8417600529,475.5713451661,-520.4094491277,-417.300408806,244.940975363,82.9463164633,-266.8919106247,-526.6316533921,228.2145441492,-482.4878285718,-472.7793902147,256.0118431005,505.2732949495,89.946351598,-105.5577740395,-187.462181794,351.1327574013,-310.5456984092,-21.711950943,-341.8057140775,-636.6894498715,259.8635348933,-415.6933124583,426.9164958731,95.068008308,107.4668281157,-9.565865346,185.155245673,-410.0127527062,444.3489682029,292.0291546803,236.7375314157,108.3098483578,347.4241490692,-230.5500350488,213.4491995905,89.9032425087,-110.4227674968,-89.3667879492,127.8948949978,369.8910681203,311.6485960667,125.7242399686,-505.4569781672,-86.2255446366,225.9420322406,-103.378286024,345.3401552067,130.5185946562,470.4165453567,193.8930465401,363.5978902609,-128.2105587423,-488.0142174738,600.5193194691,191.0857017382,-248.5669555368,-103.8489386845,420.0639417178,340.9010155081,-538.6210806511,476.6423939283,-69.964607052,-372.310225028,-113.9535571349,-521.7093454876,-109.9558826295,520.3734698909,106.5944814972,233.3261529475,-328.294582794,154.3904831781,-117.3080582239,177.1365247486,-71.4565960724,-156.1975121832,601.7092775566,-250.4515257515,656.2830094675,-455.1866476764,569.1144436144,352.942338904,-188.3248995508,348.2033042194,355.6187609371,-395.6128943196,113.1646992216,536.0880434231,433.753121032,520.6442052729,541.2772167833,355.638487637,-297.4405525042,-401.0016655958,-500.4662469847,424.1813583602,400.3350120509,-166.168244232,214.0740118433,107.3047868109,-306.1425019862,327.1340307887,64.8610512168,-517.2725071263,546.0243599999,-481.5635675391,-268.0455050938,82.3929392275,-30.2545089337,-550.0811937929,95.1249534612,-40.4519195572,-103.982257036,-199.8901797455,-507.0198445164,-123.4341796632,394.8976170202,397.2793542439,168.7862623092,-471.2494803507,-235.2015233255,-326.2180312291,212.346327711,425.5430318855,466.1863831528,-797.4575312736,-399.8959766101,-359.7562125794,-399.7769354193,-396.1064704522,-82.9790922117,294.1179424877,184.5243472139,-410.0148852336,501.2088572434,-520.9268315414,319.7755882508,82.1114717596,464.7093881673,435.1209436062,-214.8486538132,-90.1236250307,201.1695946316,136.5773856144,-300.785824077,-235.6636768515,45.0018811682,639.2774731004,-413.8341291076,119.262722633,349.8430377652,549.2067104012,-204.5583604776,-322.5633728848,-196.4306956487,-229.2751460722,449.6977450255,-206.2915558578,-257.3946250852,-70.7411928813,275.5965415857,-196.8910477711,123.3685565223,286.1175113049,-169.3817882621,-139.0426902176,-520.9082923732,403.1949680903,-200.0778068575,178.2386228351,389.2700505869,447.8464076172,-81.873728978,-265.1669292306,-101.4954351307,-516.3872479658,523.5986580779,-157.2138815003,284.7364696898,107.5981269831,-218.8826955381,-33.7453632977,398.961012935,62.8257384736,-23.7898575412,244.1741754549,424.8021618162,209.0663826669,281.4499902998,42.2413958556,-157.1210740044,-504.7684138469,-22.1831558159,598.4146930207,256.954790397,53.5412051547,-65.3473717358,-290.4617441587,205.6313419062,-212.9831286216,-314.8778419147,618.530422078,517.6942161717,-616.3865575976,-203.9381385658,269.1307148294,27.9870851484,-296.2611077994,-451.1032640181,276.6747030261,-527.7536746057,-419.9411479071,285.8280416232,169.4335028553,68.6573913303,-97.4285597133,-251.1715865473,554.6874150333,-347.780485726,-97.7153662076,-226.4968090231,-29.795152493,326.5591070845,-605.8241566068,429.6736340807,43.5463093607,107.7186089036,-53.3589101916,109.626468173,-445.3005161771,672.584771077,227.5285102979,60.711412691,-26.1730900852,383.2663742151,-399.1670348047,276.4916461161,506.7143992431,-106.9724175277,245.0452860081,4.1164715072,407.9131274259,520.9631267498,114.2241383956,-713.5071476139,-29.8046702765,264.3791306968,-77.2035224965,382.8200352886,119.7936250309,356.5035720389,212.3558797311,351.3362891562,-171.4439029711,-360.7931383288,786.267100131,139.5941972735,-182.3211768461,-8.7510846552,455.0878525236,523.0725443784,-725.465024619,555.4833129979,31.580973437,-408.661072471,-185.2664419409,-615.4966803155,-98.4490442883,587.3407758806,-3.6887074232,266.694569413,-371.4442250479,128.6464352933,-25.3507532727,72.3525184834,33.9272444651,-60.2804306789,801.7364614371,-316.1302166912,96.3169119198,-603.9347685713,765.3238146049,387.3256984584,-22.8709849801,349.549654881,356.1353778197,-585.5186150387,119.1306942635,461.6871809167,429.3955321936,797.9620582517,738.2736914336,513.5840720393,-356.5158433308,-358.4372776866,-605.1190631721,330.1508231539,590.0060815034,-158.0231469556,204.2404214697,215.5814392059,-181.2751900765,383.3311879738,427.3387836778,-583.3971338733,551.8745491284,-355.888272902,-330.7001904051,30.7663179698,-26.5304662878,-322.1941162569,31.7448164604,-5.7145564071,-10.6655476305,-463.3482235117,-433.1371322021,-86.2266255866,582.9232710517,616.9867584833,147.4545117899,-342.5249257615,-177.4259001842,-78.0346748791,177.2082430636,611.9964967717,190.2560822361,-243.4598705519,-437.364550652,-400.3463739859,-361.1373421387,-440.6196964317,198.7750335237,352.0985862473,78.6701076383,-443.5627748166,371.9256430233,-615.4426178163,280.7516708546,350.6377340064,671.6917361318,535.7657957944,-256.5456489782,-52.4806681989,246.6679801743,213.1746313628,-580.0814267559,-270.8870207195,399.1060328715,759.3336683171,-458.974428581,148.7415136812,384.792072109,746.7936868902,-283.0795232129,-282.8449505466,-246.9646672082,-248.9546300389,544.7304087222,-250.2521445131,-173.8471147773,24.1282554989,307.59129135,-129.0388650653,-19.2875395923,240.505124447,-207.8392016173,-179.0222980046,-593.0932336483,437.9580676678,-258.9208842715,234.1014911775,572.2239688022,290.8258587339,-395.0783917296,-234.2831404366,-191.1530535285,-638.9671763879,402.8022298879,-199.9207975041,250.4903536869,18.3282076223,-256.2696558957,-41.0491585615,-557.28962642,5.2871680367,-68.6358252783,-204.8779575864,-380.2586488657,-342.9794858001,-230.8143675196,-40.6779248311,161.8090428825,645.8054349935,-89.7265691015,-602.5660097599,-211.7967956871,47.1424562854,80.4453335378,310.4152569744,-197.513309719,208.4802457564,164.8730637496,-638.604569216,-554.8177274462,627.9058263114,214.5332278555,-238.5797554875,80.9994446942,261.800637557,438.1511881645,-229.5014509463,589.6792326422,399.5491267406,-238.9318709221,-189.3374898504,-14.3976260831,109.5396269074,199.9122285821,-535.82199754,367.4897946521,-2.1059877952,324.6358954463,45.9921368298,-274.1391148696,635.8902100349,-472.9975401235,-46.5822261871,-113.9236513576,155.9068565272,5.1970601743,394.7879047705,-696.7227635027,-203.3750974464,-52.0171499114,-109.4908635463,-341.1809556794,591.9293047392,-226.3330998824,-757.9003967533,112.9661109329,-243.2466877916,-26.7781725817,-362.7572468866,-686.7384076832,-92.2796435205,713.2194990693,-78.2610286233,-227.5755551318,-24.2451896973,-339.5724927009,-130.5786447553,-362.0983378235,-172.6267979733,-305.9654962811,180.6737876462,334.6768292959,-791.2830547255,-146.4956505102,81.5023694262,103.2722215102,-404.7411111948,-488.1908719089,741.303030994,-620.5872010069,-47.9792266553,363.4274883112,152.3719126071,637.2835397393,113.0575429223,-637.1841471463,21.4802826595,-233.4316322737,396.334966508,-154.1548816355,118.8892082769,-192.9906797993,167.9953810742,46.7031347773,-808.1544199432,271.0732709566,-104.3313758475,655.4721353927,-774.5624967845,-343.7956458868,39.999187708,-350.6964302316,-318.6491877142,582.2414533043,-141.8753867866,-446.7356915157,-385.2600746974,-798.7795946214,-751.0548148988,-600.8738068098,313.1826916966,319.6508590273,625.0131123986,-340.7952649484,-590.0683547287,164.5854512104,-202.3564958024,-204.0125030512,103.5149087143,-341.6013512712,-577.4129647727,633.4222974027,-631.1445625976,354.1781205143,288.8556974612,-51.1145222853,41.9581438724,309.2294064543,77.4888129238,37.9925099201,103.0315446601,667.0267274076,418.6133857823,122.4937936485,-580.2064466963,-661.4780340226,-113.7723867001,398.3324275088,72.3931275617,-46.0448491486,-164.8589999642,-626.9326552548,-162.9058722111,320.1817245147,384.0595054867,355.278411285,344.3242499541,483.1503135575,-320.0031805806,-309.1273384836,-194.8657121819,394.0514819649,-355.0762073813,627.5992396475,-264.8463840703,-503.558380125,-661.9173804566,-616.0871608899,222.5227007401,-46.6417895396,-205.6171642503,-173.8129903457,690.269398985,223.617878118,-557.3205999867,-788.6741954935,508.7041477655,-161.8693363486,-343.0206404744,-754.9551999104,247.8244723811,268.0466858522,208.1450117623,354.9836296645,-630.4270039778,202.0685951361,157.2566002661,67.2742932708,-267.7460478409,117.8229932598,-103.9321092421,-233.2639211011,175.2877461415,183.0267632765,633.8018178938,-390.2005065557,208.1387279871,-182.2312401006,-579.4559487556,-403.2408181516,554.5494720496,216.6982427588,149.0317287275,663.2842947026,-443.6176999965,170.873615736,-235.1919816288,-111.8680533036,209.1839387124,32.3526570046,-276.3345275546,63.6235859443,-289.6830047956,-86.6752408392,-281.6764708252,103.7761729264,-89.7867329113,144.7584964189,192.6242885541,466.8648899528,13.258225468,-332.1566346017,-72.9237981437,-39.9347883678,-2.4030975394,-49.9900019744,-218.0938682212,197.4398210618,255.8544411314,-471.6400022139,-419.2383724628,468.7948891933,221.8100991256,-148.3733279041,-17.3473862766,158.8878265972,434.2511720012,-105.4599564698,559.783457968,364.336521021,-140.2655775498,-472.4428046756,-55.3294493967,161.8827422487,66.8329820381,-279.030896521,98.1306209656,27.7277187918,133.4205637441,383.2710882407,-125.4897499134,357.5512382679,-355.0456894122,-67.4940989131,-150.060326519,88.249392252,-97.3881187363,250.5218199302,-435.2125239483,-231.2240369207,-219.2549784993,-170.6622718141,-215.5311036354,319.089679467,-89.7057954238,-315.6311173553,153.7922432722,-47.9716728749,-32.4410909939,-228.8483236989,-413.7759199658,-63.1303827937,482.5440093773,20.749920624,-132.8036026349,63.0693090743,-214.808156467,-183.735186223,-395.8256825536,-103.102426939,-234.5694962821,131.6066108927,408.1808352235,-567.1469228357,-189.1117677058,157.5485218256,318.9642039901,-256.5830148397,-282.163668649,470.1308448517,-471.2194981349,20.0509861348,227.3819851865,91.236339173,469.5733451058,167.7557129142,-493.1472698516,-51.9961344693,-143.2167270228,122.7660895488,-129.1544268969,331.1239895105,-173.7842556746,64.918107732,141.3679925976,-560.5658351586,129.1015599586,-475.499012232,545.891637707,-548.967284975,-216.1356505617,207.0364479694,110.063231361,-238.7197189498,312.3835986273,-117.7609661762,-443.5818247209,-286.8989382992,-454.2154174222,-526.5045589232,-294.9430809241,173.2919961955,276.544864806,471.5520580327,-384.6141692918,-322.221486532,199.1473846933,-226.3115623225,-148.9604383616,260.576428838,-207.2915776491,-287.772910075,490.6906120308,-540.8087501388,419.6031416673,144.3765415737,-26.9794003873,105.5164001473,286.3551367799,-22.5549082379,45.5282044467,316.817746097,309.4730903798,418.8621367406,102.1718433421,-317.7439047936,-343.1222268981,-130.4591229653,364.5140478932,176.855204304,-299.4735923435,-149.8797259538,-354.8535096465,-39.6677844006,543.693540257,238.8293186716,221.0814106908,312.7039248096,157.6351696643,-60.4701268955,-169.2013543793,-176.8000206937,251.7906998659,-424.4211649077,468.6224413702,-242.9549883395,-215.82082738,-437.4226809539,-350.5391003634,157.6634387055,42.330572857,-112.6701807108,-39.601337873,308.7853074565,121.138427391,-276.6209470992,-529.129493943,201.404587778,-101.5435579038,-215.6574091564,-517.4537771534,147.1561977706,245.1971443035,92.4831947146,208.7539145684,-362.6203764331,86.8788472825,187.0241322295,288.073869803,-170.1632999258,138.2294669338,-161.7490860904,-232.7620236344,81.4884501657,112.568632372,461.0390146727,-247.6386132,81.0159994861,-64.0742037423,-323.8668457942,-582.9968922216,308.9154981377,180.6546694929,6.2436845413,479.4882778804,-388.6296658912,88.3202150048,-202.7537179846,-320.2475599628,104.6110829729,15.210816092,152.2513292619,77.3081737764,-206.5587812702,136.1149279901,5.6719545474,-524.7773391425,90.8678380625,-68.9440178296,-271.0759147238,-306.8162002078,-1.1828544479,97.461909445,134.6995823917,-5.4746461881,15.1806277327,101.1675606316,110.3589433818,-43.2537801143,-341.0337262692,220.6414986149,184.9297397099,-232.328506775,804.0990038531,124.5943564344,10.6385368522,-95.4170064767,-192.9941846229,126.0382433511,-266.4241471356,-155.7818707241,81.9429387265,-715.6040699208,141.1196402559,-268.5783136366,-163.3247845284,150.3976547751,272.0501865434,-206.3722287786,151.4676300802,675.6955025369,72.8593286852,-81.2771435052,-43.9579761052,64.297032954,262.5488830554,613.3805470767,38.8274874132,81.5243895983,148.5438997078,141.3364941656,197.3914042229,337.3413974743,-61.046068725,-206.0460592493,90.8531509062,132.6342480612,-264.4053045245,55.5020718705,78.5735391994,-55.9835415829,184.7992252781,155.4846434292,-220.492310486,-13.6840280019,131.9294410279,-5.961459448,-59.0035389378,278.895143448,290.2718913483,-53.3653646858,-13.9192173548,-136.9362519376,-220.8495092578,222.4162827758,259.5355223324,-141.7504937498,214.2786385208,-80.5593024956,185.2591504229,-237.4332709847,204.5288815251,-16.2786669791,64.6169964914,36.4123808626,-215.3859442775,-276.313486139,236.8628089064,45.251594754,133.3108873613,294.5820021096,140.1915372948,221.8371633746,-67.2006673992,125.3410973283,-230.883631505,169.6090839423,-103.4331665676,-584.0977213769,-262.7984630274,166.6813223739,-66.43355299,932.4727763693,-280.3206765026,3.801690649,-104.4760821577,132.9916690276,196.7692710451,5.8963209549,41.0397009571,162.8979036494,98.3784890297,-28.7277537244,-20.984532027,-228.3824528115,133.7584249419,107.5455651154,-275.9856314105,129.1729785151,89.9546447983,-271.6996598831,-35.9455476734,157.5110249059,-233.3420376272,198.1440938408,-271.6615379916,-93.5320197615,143.2319785023,-257.1606628199,675.2633448297,17.2331971123,-95.1576876019,223.5806893021,-149.3638635514,-191.8447293267,-145.8244094584,121.066946997,253.7804875158,93.4992837772,137.2475177244,-90.3219886199,-221.0244853862,-20.7522254517,99.8758923683,64.1700228574,508.3855136339,89.5102830835,55.2121368706,-161.3307436048,384.9504453362,-257.7394732945,50.5048153277,-56.4602198519,75.1547763918,236.7284442702,-232.6983103339,56.4661484321,-60.1564392271,209.0252184113,277.9529459735,-60.2636069352,7.0035627205,8.3544639425,195.7099592579,-69.6521317432,-105.8364025337,158.0925708644,72.56971848,357.1847219861,129.2415802262,-60.4090496821,148.963481767,-23.1473013067,-62.3534048063,-131.1860247354,-183.995510861,285.1841672917,-74.2817249603,-100.4165968144,205.1842048129,65.8444252014,-67.5938996024,353.2952314464,133.6074887388,-23.20532674,-125.9328273291,-206.6268546313,-73.7325622782,-151.9060780264,166.4694993303,90.1372542259,-59.5464453752,-111.6008912351,12.9250731355,-249.1968517626,-240.1062488672,-146.7223096982,-17.4808414185,10.2552625367,-219.5045076651,-42.5064312734,18.850954234,313.4936967247,157.3204622206,-3.4783639495,213.8331537698,458.5581845804,-55.5044582161,242.3096739656,-414.9836408794,-174.3521020423,-441.2926063337,-214.4653958401,423.7950067313,213.574125305,204.3433129622,43.9386420309,-57.2496242019,281.1578146461,-259.2981182547,-357.4335426834,520.3852085983,460.8435992589,-523.2252541985,-581.423951587,265.8791550574,201.9987646532,-300.8041338564,-539.8902737498,250.7044953284,-521.8651693402,-492.2129417101,284.6039533929,618.3621596052,151.5417503763,-116.5723867708,-206.5266552994,377.5057215422,-336.0918818369,-125.3702066618,-366.0471164237,-761.5965960395,290.9002728263,-432.5291747461,408.5359027803,80.9737893585,116.6207240023,49.2580014031,300.4687699124,-459.1764180092,504.677954583,310.5784582381,228.3019086742,89.1407303854,395.3089987857,-484.1122040961,239.7531214754,320.8872952585,-117.4289031795,-171.664969925,37.0167346553,418.1741815292,392.7774680366,175.0381982524,-532.0618383528,-205.2720495226,251.6411812498,-224.3749021947,394.9037716514,142.756020013,485.3358606408,247.0241149337,387.5005925537,-147.2044381247,-487.0937716171,631.793930496,162.7209138436,-371.9669186504,-28.1710898164,470.016570885,381.1200229122,-572.237326185,471.8748553822,-69.6594117831,-419.9496115813,-213.4842985089,-519.5417045002,-119.9969662946,532.6887332651,114.6368719704,259.4627140114,-350.9896457919,166.0168639601,-45.1259184658,110.6175654696,-93.7514379519,-189.149410417,615.7451936236,-280.7277366268,819.4580478014,-503.4457190197,576.6262178236,400.290595978,-271.6800819023,76.7350925434,389.184560367,-409.3917402249,124.5644947329,549.4455599513,466.227693183,542.0573930825,548.5348387586,391.1852723817,-341.253306827,-419.952149054,-501.6453620413,435.9488435301,416.8749765744,-178.2318032021,303.3870701329,243.0523632138,-414.7914459171,389.2267027973,333.2384019198,-531.1239270578,547.4631060485,-486.6403368572,-300.3427970595,61.6678988392,-35.7982715775,-222.9146572488,214.203360564,-36.423954905,-30.8661953407,-330.5805666921,-518.2669073953,-109.8938631699,412.0543335591,582.153492833,201.6288780149,-473.0065302185,-366.0304322206,-257.7151079085,211.494809624,438.3612026706,227.9713917089,-430.6381426307,-448.1124188189,-410.1845002995,-433.6363332697,-410.6918842907,246.7488381568,333.3830901729,118.7949327385,-457.4462227412,502.192308773,-521.7739744443,322.5766571138,-142.4423501976,485.2353222245,628.5218385448,-279.3947284987,-210.5938060344,254.3713729026,158.9974339544,-342.0120878771,-260.2187827483,311.4340171439,644.0213792258,-430.7296772359,140.1310688034,398.4912013167,562.6040140872,-283.8159221908,-326.475005213,-220.2288790058,-137.3389890064,640.6446434681,-227.192544374,-268.4054155826,5.9700082955,314.4428616103,-206.9902986624,84.5722704859,328.6695746185,-207.6891895642,-161.955660855,-499.0939284965,452.0701333205,-220.4483644211,194.8227932557,400.9068309022,372.9383634892,-301.5018181995,-266.9113297894,-120.6391030974,-582.0206508006,522.1927677667,-212.6396930936,285.6253804535,34.8000520371,-248.4516220352,-37.4798902475,426.9151835356,163.3819082702,-71.8955476972,253.2501615968,497.5228054048,164.8263274997,306.6471600847,17.0194394559,-101.7675803965,-561.861063708,-142.7262738759,623.8309831001,269.9318645106,171.2688310043,-28.6714850203,-412.507725303,237.0878124623,-258.5310059605,-173.3385160681,630.8086873227,503.4349103441,-632.820504009,-431.5727149116,293.6182555864,133.4805529483,-321.7575777125,-522.1755248836,301.8199599135,-647.1235864647,-469.9823546355,320.6152281221,328.9775536342,197.5145719693,-41.4878802252,-264.4961951209,580.6369046374
